~o
<STREAMINFO> 1 39
<VECSIZE> 39<NULLD><MFCC_D_A_0><DIAGC>
~h "N"
<BEGINHMM>
<NUMSTATES> 5
<STATE> 2
<MEAN> 39
 -5.404736e+000 2.474264e+000 3.122554e-001 -4.394701e+000 -9.639411e+000 -8.753761e+000 -1.066005e+000 -4.766325e+000 -3.743578e+000 -1.938833e+000 -1.992863e+000 -4.559347e-003 6.495885e+001 2.450988e-002 1.302901e-002 1.918019e-002 3.316283e-003 -4.371658e-002 -7.306439e-002 -1.842394e-002 -2.444299e-002 -3.052467e-002 -2.393421e-002 -9.349622e-003 -1.425933e-002 -9.787142e-003 -5.396765e-003 4.690089e-003 -6.835332e-003 5.209368e-003 1.451201e-002 1.721763e-002 5.296492e-003 6.553777e-003 6.220506e-003 9.362569e-003 4.125166e-003 3.225525e-003 -2.743884e-002
<VARIANCE> 39
 3.864226e+001 5.281501e+001 7.391051e+001 8.135933e+001 7.677331e+001 9.463634e+001 5.724667e+001 6.897221e+001 6.326392e+001 4.839135e+001 3.680719e+001 3.395739e+001 8.727069e+001 1.372905e+000 1.793903e+000 1.710096e+000 2.409231e+000 2.706431e+000 2.777050e+000 2.585872e+000 2.606039e+000 2.707144e+000 2.455808e+000 2.104158e+000 1.735463e+000 2.419883e+000 1.985618e-001 2.764823e-001 2.480070e-001 3.283480e-001 3.897789e-001 4.118499e-001 4.453265e-001 4.204600e-001 4.511843e-001 4.197432e-001 3.712303e-001 3.108075e-001 2.378747e-001
<GCONST> 1.209395e+002
<STATE> 3
<MEAN> 39
 -5.404736e+000 2.474264e+000 3.122554e-001 -4.394701e+000 -9.639411e+000 -8.753761e+000 -1.066005e+000 -4.766325e+000 -3.743578e+000 -1.938833e+000 -1.992863e+000 -4.559347e-003 6.495885e+001 2.450988e-002 1.302901e-002 1.918019e-002 3.316283e-003 -4.371658e-002 -7.306439e-002 -1.842394e-002 -2.444299e-002 -3.052467e-002 -2.393421e-002 -9.349622e-003 -1.425933e-002 -9.787142e-003 -5.396765e-003 4.690089e-003 -6.835332e-003 5.209368e-003 1.451201e-002 1.721763e-002 5.296492e-003 6.553777e-003 6.220506e-003 9.362569e-003 4.125166e-003 3.225525e-003 -2.743884e-002
<VARIANCE> 39
 3.864226e+001 5.281501e+001 7.391051e+001 8.135933e+001 7.677331e+001 9.463634e+001 5.724667e+001 6.897221e+001 6.326392e+001 4.839135e+001 3.680719e+001 3.395739e+001 8.727069e+001 1.372905e+000 1.793903e+000 1.710096e+000 2.409231e+000 2.706431e+000 2.777050e+000 2.585872e+000 2.606039e+000 2.707144e+000 2.455808e+000 2.104158e+000 1.735463e+000 2.419883e+000 1.985618e-001 2.764823e-001 2.480070e-001 3.283480e-001 3.897789e-001 4.118499e-001 4.453265e-001 4.204600e-001 4.511843e-001 4.197432e-001 3.712303e-001 3.108075e-001 2.378747e-001
<GCONST> 1.209395e+002
<STATE> 4
<MEAN> 39
 -5.404736e+000 2.474264e+000 3.122554e-001 -4.394701e+000 -9.639411e+000 -8.753761e+000 -1.066005e+000 -4.766325e+000 -3.743578e+000 -1.938833e+000 -1.992863e+000 -4.559347e-003 6.495885e+001 2.450988e-002 1.302901e-002 1.918019e-002 3.316283e-003 -4.371658e-002 -7.306439e-002 -1.842394e-002 -2.444299e-002 -3.052467e-002 -2.393421e-002 -9.349622e-003 -1.425933e-002 -9.787142e-003 -5.396765e-003 4.690089e-003 -6.835332e-003 5.209368e-003 1.451201e-002 1.721763e-002 5.296492e-003 6.553777e-003 6.220506e-003 9.362569e-003 4.125166e-003 3.225525e-003 -2.743884e-002
<VARIANCE> 39
 3.864226e+001 5.281501e+001 7.391051e+001 8.135933e+001 7.677331e+001 9.463634e+001 5.724667e+001 6.897221e+001 6.326392e+001 4.839135e+001 3.680719e+001 3.395739e+001 8.727069e+001 1.372905e+000 1.793903e+000 1.710096e+000 2.409231e+000 2.706431e+000 2.777050e+000 2.585872e+000 2.606039e+000 2.707144e+000 2.455808e+000 2.104158e+000 1.735463e+000 2.419883e+000 1.985618e-001 2.764823e-001 2.480070e-001 3.283480e-001 3.897789e-001 4.118499e-001 4.453265e-001 4.204600e-001 4.511843e-001 4.197432e-001 3.712303e-001 3.108075e-001 2.378747e-001
<GCONST> 1.209395e+002
<TRANSP> 5
 0.000000e+000 1.000000e+000 0.000000e+000 0.000000e+000 0.000000e+000
 0.000000e+000 6.000000e-001 4.000000e-001 0.000000e+000 0.000000e+000
 0.000000e+000 0.000000e+000 6.000000e-001 4.000000e-001 0.000000e+000
 0.000000e+000 0.000000e+000 0.000000e+000 7.000000e-001 3.000000e-001
 0.000000e+000 0.000000e+000 0.000000e+000 0.000000e+000 0.000000e+000
<ENDHMM>
~h "a"
<BEGINHMM>
<NUMSTATES> 5
<STATE> 2
<MEAN> 39
 -4.253928e-002 -3.335767e+000 -9.085412e+000 -1.250745e+001 -3.967419e+000 -4.071667e+000 -5.140940e-001 -3.639638e+000 -1.109181e+000 6.969946e+000 3.229814e+000 -2.227637e+000 7.348392e+001 -1.097733e+000 6.876562e-001 8.129944e-001 1.933436e+000 1.357643e+000 -9.938344e-001 -2.031642e+000 3.026662e-001 1.153789e+000 1.274634e+000 8.957809e-001 -1.971323e-001 -8.635328e-001 -4.149356e-002 8.784479e-001 4.376431e-001 6.174543e-001 -5.187619e-001 -2.582957e-002 1.005128e-001 -4.433981e-003 -1.192983e-001 -8.565336e-001 -5.383604e-001 1.703071e-001 -1.179851e+000
<VARIANCE> 39
 9.012398e+000 3.984341e+001 4.507078e+001 5.065730e+001 6.579419e+001 5.266438e+001 3.633666e+001 6.373270e+001 3.853203e+001 1.737984e+001 5.967796e+001 5.591528e+001 2.181479e+001 5.652024e-001 3.134940e+000 1.617483e+000 2.512903e+000 2.557205e+000 3.303810e+000 2.034139e+000 1.562371e+000 2.332913e+000 2.676262e+000 3.812772e+000 3.362665e+000 1.576751e+000 1.001245e-001 4.962654e-001 2.668970e-001 9.978684e-001 6.590936e-001 7.531070e-001 4.003965e-001 3.924618e-001 4.876687e-001 3.081055e-001 9.119977e-001 4.858432e-001 2.807687e-001
<GCONST> 1.181412e+002
<STATE> 3
<MEAN> 39
 -2.775345e+000 1.902376e+000 -6.320267e+000 -8.493968e+000 -5.520278e+000 -5.532533e+000 -3.870578e+000 -5.075959e+000 2.061698e-001 6.112382e+000 2.653933e+000 -1.366906e+000 6.352608e+001 -5.403824e-001 2.208310e-001 1.648535e-001 2.322630e-002 -3.796091e-001 -1.361608e-001 -1.527939e-001 4.298261e-001 -2.735005e-002 -4.039685e-001 -2.502695e-001 -3.696918e-002 -2.802579e+000 9.259654e-002 -2.254688e-001 -2.983733e-001 -3.718736e-001 -9.553090e-002 1.229178e-001 2.676219e-001 8.673966e-003 -2.031061e-001 -1.787448e-001 5.276674e-002 -3.766091e-002 1.106208e-001
<VARIANCE> 39
 9.837657e+000 1.172025e+001 3.890114e+001 2.598510e+001 4.782622e+001 2.414747e+001 2.294208e+001 2.727371e+001 3.122401e+001 2.370441e+001 1.775346e+001 3.591740e+001 3.608585e+001 5.573661e-001 9.292903e-001 1.486580e+000 1.820556e+000 2.736382e+000 2.805582e+000 2.282739e+000 2.444647e+000 2.091122e+000 1.484247e+000 1.671609e+000 1.248898e+000 1.811847e+000 1.425419e-001 1.625278e-001 3.047779e-001 4.820988e-001 4.602342e-001 4.240794e-001 4.366687e-001 2.890359e-001 4.393868e-001 4.211902e-001 2.983365e-001 3.606887e-001 3.995084e-001
<GCONST> 1.058225e+002
<STATE> 4
<MEAN> 39
 -6.512881e+000 1.546160e+000 -5.369126e+000 -7.212508e+000 -4.277810e+000 -4.754047e+000 -3.174210e+000 -2.104503e+000 1.174648e+000 4.277283e+000 3.470667e+000 -3.203251e-001 5.625322e+001 -1.285728e+000 1.479896e-002 6.480005e-001 2.056130e-001 2.024608e-001 6.074936e-001 -1.115481e-001 -1.655445e-001 2.610188e-001 -1.072941e+000 -2.081065e-001 3.331556e-001 -4.075301e-001 -3.845737e-001 -6.161334e-002 2.709374e-001 -2.757266e-002 -1.542597e-001 6.393153e-002 -1.551553e-002 -1.402731e-001 1.301177e-001 -1.497370e-001 -7.592172e-002 6.046596e-002 7.551132e-001
<VARIANCE> 39
 1.124576e+001 2.411138e+001 2.783645e+001 2.518605e+001 3.003032e+001 1.998128e+001 1.565769e+001 8.846404e+000 2.600041e+001 1.969510e+001 1.205058e+001 1.885003e+001 1.835149e+001 1.267135e+000 1.637379e+000 2.551040e+000 1.815386e+000 1.578107e+000 1.844962e+000 1.353665e+000 1.274253e+000 1.784595e+000 2.157232e+000 9.139834e-001 1.702480e+000 2.566192e+000 1.931219e-001 2.990161e-001 3.597281e-001 3.774928e-001 5.622256e-001 3.543037e-001 2.296018e-001 2.652793e-001 4.224439e-001 4.388671e-001 1.909880e-001 3.352939e-001 2.193208e-001
<GCONST> 1.011325e+002
<TRANSP> 5
 0.000000e+000 1.000000e+000 0.000000e+000 0.000000e+000 0.000000e+000
 0.000000e+000 6.236684e-001 3.763316e-001 0.000000e+000 0.000000e+000
 0.000000e+000 0.000000e+000 7.623240e-001 2.376760e-001 0.000000e+000
 0.000000e+000 0.000000e+000 0.000000e+000 7.671550e-001 2.328451e-001
 0.000000e+000 0.000000e+000 0.000000e+000 0.000000e+000 0.000000e+000
<ENDHMM>
~h "e"
<BEGINHMM>
<NUMSTATES> 5
<STATE> 2
<MEAN> 39
 -5.916381e+000 1.308557e+000 5.693880e+000 3.908384e+000 -1.103881e+001 -1.661327e+001 -6.479364e+000 -2.751495e+000 2.503550e+000 -2.946218e+000 -4.438230e+000 9.464169e-001 6.770965e+001 4.572669e-001 6.754535e-002 3.957661e-001 6.988489e-001 -1.107943e+000 -9.225362e-001 -3.921687e-001 2.041257e-001 -2.453102e-001 -1.066133e-001 1.858832e-001 4.266084e-001 -2.706278e-001 -1.854165e-001 -1.057367e-001 -1.985383e-001 -1.140455e-001 1.233929e-001 3.974375e-001 2.578385e-002 -9.596235e-002 -3.025011e-001 -3.111437e-002 2.913622e-001 5.250920e-002 -2.911393e-001
<VARIANCE> 39
 1.841590e+001 2.246875e+001 4.530003e+001 2.861280e+001 5.177198e+001 7.338214e+001 6.942526e+001 4.960356e+001 2.587642e+001 2.800370e+001 2.151882e+001 4.873582e+001 3.088895e+001 9.257183e-001 7.848348e-001 1.148324e+000 2.831487e+000 2.979866e+000 2.592817e+000 4.192447e+000 2.709887e+000 3.202098e+000 2.285113e+000 1.488898e+000 2.043071e+000 6.097463e-001 3.033688e-001 2.418921e-001 2.539544e-001 4.964862e-001 3.377087e-001 6.643665e-001 5.734000e-001 6.236148e-001 3.427878e-001 3.446221e-001 3.587814e-001 6.061094e-001 6.411774e-002
<GCONST> 1.125559e+002
<STATE> 3
<MEAN> 39
 -5.855347e+000 1.410044e+000 6.458851e+000 4.358323e+000 -1.372698e+001 -1.649824e+001 -6.731574e+000 -3.101217e+000 2.200882e+000 -3.056934e+000 -3.277667e+000 3.146063e+000 6.701472e+001 1.236107e-002 9.520035e-002 4.904792e-002 1.797025e-001 -4.112045e-001 -3.203892e-001 2.285125e-001 3.873987e-001 -6.079750e-001 -6.967378e-002 6.297524e-001 4.246154e-001 -7.074700e-001 -1.739132e-001 -3.117437e-002 -2.095304e-001 -1.859093e-001 5.398383e-001 4.005708e-001 1.783311e-001 -1.390895e-001 -1.775611e-001 1.239202e-001 1.526933e-001 -2.057373e-001 -2.859669e-001
<VARIANCE> 39
 1.527214e+001 1.882188e+001 5.049645e+001 3.923216e+001 5.259536e+001 7.170670e+001 8.633521e+001 5.036292e+001 4.739170e+001 2.751222e+001 2.282031e+001 5.092698e+001 3.216215e+001 4.677457e-001 7.899178e-001 6.560910e-001 1.598936e+000 2.274766e+000 1.921775e+000 1.717545e+000 2.516697e+000 1.667021e+000 1.657304e+000 1.326295e+000 1.638756e+000 6.641384e-001 1.181641e-001 1.114992e-001 1.756621e-001 4.843322e-001 3.947244e-001 5.410956e-001 7.357498e-001 5.854644e-001 6.000107e-001 2.951742e-001 3.939566e-001 4.953652e-001 8.367663e-002
<GCONST> 1.075935e+002
<STATE> 4
<MEAN> 39
 -7.529739e+000 4.220112e-001 4.499694e+000 3.242463e+000 -1.136950e+001 -1.843449e+001 -1.546970e+000 -6.275108e-001 -7.913738e-001 -2.570433e+000 -2.273209e+000 1.662204e+000 6.170108e+001 -2.224765e-001 2.623680e-002 -4.931509e-001 -2.045341e-001 7.149339e-001 4.668947e-001 2.254428e-001 2.563581e-002 -1.381163e-002 5.129885e-001 3.093420e-001 -1.388035e-001 -1.079154e+000 -3.736269e-002 -1.914273e-002 -9.620443e-002 -2.768729e-002 2.647492e-001 3.021017e-001 -1.410371e-002 -9.859189e-002 1.462710e-001 1.376947e-001 -7.212117e-002 -7.921014e-002 -6.430381e-002
<VARIANCE> 39
 1.160320e+001 2.014360e+001 4.197784e+001 4.116245e+001 4.665875e+001 5.577817e+001 7.838411e+001 5.028035e+001 2.745436e+001 2.711554e+001 3.207316e+001 3.170844e+001 5.320566e+001 2.777095e-001 6.768079e-001 8.202462e-001 1.330197e+000 1.709705e+000 2.248081e+000 1.927800e+000 1.512637e+000 1.970146e+000 1.170840e+000 1.401151e+000 1.333261e+000 5.056215e-001 5.359517e-002 8.315979e-002 1.223956e-001 1.897251e-001 2.606178e-001 3.160592e-001 3.896636e-001 2.742801e-001 3.133947e-001 2.079983e-001 2.740893e-001 2.566715e-001 7.407976e-002
<GCONST> 9.795601e+001
<TRANSP> 5
 0.000000e+000 1.000000e+000 0.000000e+000 0.000000e+000 0.000000e+000
 0.000000e+000 1.500003e-001 8.499997e-001 0.000000e+000 0.000000e+000
 0.000000e+000 0.000000e+000 2.579862e-001 7.420138e-001 0.000000e+000
 0.000000e+000 0.000000e+000 0.000000e+000 7.910960e-001 2.089039e-001
 0.000000e+000 0.000000e+000 0.000000e+000 0.000000e+000 0.000000e+000
<ENDHMM>
~h "f"
<BEGINHMM>
<NUMSTATES> 5
<STATE> 2
<MEAN> 39
 -5.404736e+000 2.474264e+000 3.122554e-001 -4.394701e+000 -9.639411e+000 -8.753761e+000 -1.066005e+000 -4.766325e+000 -3.743578e+000 -1.938833e+000 -1.992863e+000 -4.559347e-003 6.495885e+001 2.450988e-002 1.302901e-002 1.918019e-002 3.316283e-003 -4.371658e-002 -7.306439e-002 -1.842394e-002 -2.444299e-002 -3.052467e-002 -2.393421e-002 -9.349622e-003 -1.425933e-002 -9.787142e-003 -5.396765e-003 4.690089e-003 -6.835332e-003 5.209368e-003 1.451201e-002 1.721763e-002 5.296492e-003 6.553777e-003 6.220506e-003 9.362569e-003 4.125166e-003 3.225525e-003 -2.743884e-002
<VARIANCE> 39
 3.864226e+001 5.281501e+001 7.391051e+001 8.135933e+001 7.677331e+001 9.463634e+001 5.724667e+001 6.897221e+001 6.326392e+001 4.839135e+001 3.680719e+001 3.395739e+001 8.727069e+001 1.372905e+000 1.793903e+000 1.710096e+000 2.409231e+000 2.706431e+000 2.777050e+000 2.585872e+000 2.606039e+000 2.707144e+000 2.455808e+000 2.104158e+000 1.735463e+000 2.419883e+000 1.985618e-001 2.764823e-001 2.480070e-001 3.283480e-001 3.897789e-001 4.118499e-001 4.453265e-001 4.204600e-001 4.511843e-001 4.197432e-001 3.712303e-001 3.108075e-001 2.378747e-001
<GCONST> 1.209395e+002
<STATE> 3
<MEAN> 39
 -5.404736e+000 2.474264e+000 3.122554e-001 -4.394701e+000 -9.639411e+000 -8.753761e+000 -1.066005e+000 -4.766325e+000 -3.743578e+000 -1.938833e+000 -1.992863e+000 -4.559347e-003 6.495885e+001 2.450988e-002 1.302901e-002 1.918019e-002 3.316283e-003 -4.371658e-002 -7.306439e-002 -1.842394e-002 -2.444299e-002 -3.052467e-002 -2.393421e-002 -9.349622e-003 -1.425933e-002 -9.787142e-003 -5.396765e-003 4.690089e-003 -6.835332e-003 5.209368e-003 1.451201e-002 1.721763e-002 5.296492e-003 6.553777e-003 6.220506e-003 9.362569e-003 4.125166e-003 3.225525e-003 -2.743884e-002
<VARIANCE> 39
 3.864226e+001 5.281501e+001 7.391051e+001 8.135933e+001 7.677331e+001 9.463634e+001 5.724667e+001 6.897221e+001 6.326392e+001 4.839135e+001 3.680719e+001 3.395739e+001 8.727069e+001 1.372905e+000 1.793903e+000 1.710096e+000 2.409231e+000 2.706431e+000 2.777050e+000 2.585872e+000 2.606039e+000 2.707144e+000 2.455808e+000 2.104158e+000 1.735463e+000 2.419883e+000 1.985618e-001 2.764823e-001 2.480070e-001 3.283480e-001 3.897789e-001 4.118499e-001 4.453265e-001 4.204600e-001 4.511843e-001 4.197432e-001 3.712303e-001 3.108075e-001 2.378747e-001
<GCONST> 1.209395e+002
<STATE> 4
<MEAN> 39
 -5.404736e+000 2.474264e+000 3.122554e-001 -4.394701e+000 -9.639411e+000 -8.753761e+000 -1.066005e+000 -4.766325e+000 -3.743578e+000 -1.938833e+000 -1.992863e+000 -4.559347e-003 6.495885e+001 2.450988e-002 1.302901e-002 1.918019e-002 3.316283e-003 -4.371658e-002 -7.306439e-002 -1.842394e-002 -2.444299e-002 -3.052467e-002 -2.393421e-002 -9.349622e-003 -1.425933e-002 -9.787142e-003 -5.396765e-003 4.690089e-003 -6.835332e-003 5.209368e-003 1.451201e-002 1.721763e-002 5.296492e-003 6.553777e-003 6.220506e-003 9.362569e-003 4.125166e-003 3.225525e-003 -2.743884e-002
<VARIANCE> 39
 3.864226e+001 5.281501e+001 7.391051e+001 8.135933e+001 7.677331e+001 9.463634e+001 5.724667e+001 6.897221e+001 6.326392e+001 4.839135e+001 3.680719e+001 3.395739e+001 8.727069e+001 1.372905e+000 1.793903e+000 1.710096e+000 2.409231e+000 2.706431e+000 2.777050e+000 2.585872e+000 2.606039e+000 2.707144e+000 2.455808e+000 2.104158e+000 1.735463e+000 2.419883e+000 1.985618e-001 2.764823e-001 2.480070e-001 3.283480e-001 3.897789e-001 4.118499e-001 4.453265e-001 4.204600e-001 4.511843e-001 4.197432e-001 3.712303e-001 3.108075e-001 2.378747e-001
<GCONST> 1.209395e+002
<TRANSP> 5
 0.000000e+000 1.000000e+000 0.000000e+000 0.000000e+000 0.000000e+000
 0.000000e+000 6.000000e-001 4.000000e-001 0.000000e+000 0.000000e+000
 0.000000e+000 0.000000e+000 6.000000e-001 4.000000e-001 0.000000e+000
 0.000000e+000 0.000000e+000 0.000000e+000 7.000000e-001 3.000000e-001
 0.000000e+000 0.000000e+000 0.000000e+000 0.000000e+000 0.000000e+000
<ENDHMM>
~h "h"
<BEGINHMM>
<NUMSTATES> 5
<STATE> 2
<MEAN> 39
 -9.510562e+000 1.476485e+000 -1.421185e+000 -9.955261e+000 -8.417666e+000 -4.683568e+000 4.495356e+000 -6.187032e-001 8.541437e-001 -2.453480e-001 -2.206522e+000 -4.123404e-001 6.589615e+001 1.496278e+000 1.712046e+000 1.125886e+000 2.964273e-001 -1.205447e+000 -1.309811e+000 -4.522122e-001 -8.567430e-001 -8.124261e-001 -6.032354e-001 -6.963508e-001 -2.112634e-001 1.218734e+000 3.319623e-001 9.957959e-003 4.170463e-002 3.966973e-002 -2.739995e-001 -2.921821e-001 -2.572794e-001 -2.162531e-001 -9.496543e-002 1.475128e-002 2.387039e-002 1.367158e-001 4.985233e-002
<VARIANCE> 39
 3.708261e+001 6.999570e+001 6.146387e+001 9.628306e+001 5.572092e+001 6.335833e+001 4.340910e+001 5.507290e+001 5.343290e+001 3.000945e+001 3.174611e+001 2.881158e+001 2.484041e+001 2.590402e+000 2.126858e+000 1.858888e+000 2.776950e+000 3.741256e+000 2.735492e+000 2.111972e+000 3.463425e+000 2.698826e+000 1.919480e+000 2.293186e+000 1.686414e+000 1.004525e+000 3.359780e-001 6.763119e-001 4.004948e-001 4.750459e-001 5.633245e-001 4.867429e-001 4.072933e-001 5.805168e-001 4.633160e-001 3.311186e-001 3.992270e-001 3.893580e-001 1.158804e-001
<GCONST> 1.204808e+002
<STATE> 3
<MEAN> 39
 -7.218281e-001 6.419458e+000 7.189303e-001 -9.963047e+000 -1.634410e+001 -1.266428e+001 4.178038e-002 -5.754349e+000 -2.774112e+000 -2.556482e+000 -5.663692e+000 -8.645782e-001 7.130102e+001 8.150541e-001 -7.667333e-001 -3.723759e-001 -6.722136e-001 -1.417739e+000 -1.040174e+000 -8.389639e-001 -1.065630e+000 -5.574759e-001 -2.132957e-001 2.665088e-002 5.590797e-001 9.624152e-001 -5.704247e-001 -4.952242e-001 -3.100427e-001 1.809868e-002 5.279642e-001 5.827251e-001 1.358604e-001 -8.703060e-003 -4.315064e-002 6.915093e-002 3.909108e-001 2.163860e-001 -2.706477e-001
<VARIANCE> 39
 2.083836e+001 6.344882e+001 6.658376e+001 8.177251e+001 5.301307e+001 5.771527e+001 5.750674e+001 3.798347e+001 4.938279e+001 3.334801e+001 3.503057e+001 2.676151e+001 2.461561e+001 9.684990e-001 2.578046e+000 1.401817e+000 1.744240e+000 3.980472e+000 2.871353e+000 4.702862e+000 2.739078e+000 2.505123e+000 1.472427e+000 1.938536e+000 2.153370e+000 1.254451e+000 2.166652e-001 5.242326e-001 3.018654e-001 4.027690e-001 5.405014e-001 3.758202e-001 7.161508e-001 4.291189e-001 5.141906e-001 3.143435e-001 4.799097e-001 2.563959e-001 1.816213e-001
<GCONST> 1.177173e+002
<STATE> 4
<MEAN> 39
 -8.567663e-001 3.943402e+000 5.310860e-001 -9.952612e+000 -1.817362e+001 -1.174071e+001 -9.665153e-001 -1.012687e+001 -4.963783e+000 -3.523444e+000 -3.636195e+000 2.719123e+000 7.237126e+001 -1.530167e-001 -8.285792e-001 -2.687279e-001 2.072314e-001 3.430727e-001 1.433990e-001 -6.878499e-001 -1.346673e+000 -8.850760e-001 4.511154e-002 1.235856e+000 1.098243e+000 3.280018e-001 -2.443019e-001 -8.100343e-002 1.153773e-001 3.574777e-001 4.910170e-001 3.767313e-002 -1.915938e-001 1.075299e-001 1.989567e-001 2.884361e-001 1.099863e-001 -2.914535e-001 -1.108524e-001
<VARIANCE> 39
 1.816643e+001 6.625901e+001 7.565761e+001 7.533386e+001 6.520614e+001 8.002666e+001 6.101839e+001 5.544151e+001 6.214880e+001 3.331232e+001 3.693089e+001 3.969586e+001 2.021953e+001 2.948578e-001 1.171776e+000 1.468527e+000 1.250579e+000 3.331940e+000 2.165620e+000 3.205084e+000 2.323169e+000 2.438313e+000 2.031547e+000 3.403709e+000 2.356666e+000 6.693872e-001 8.996491e-002 2.204585e-001 2.564608e-001 2.778559e-001 3.706115e-001 5.517169e-001 8.332121e-001 3.507963e-001 4.819960e-001 4.039679e-001 5.221669e-001 5.598459e-001 9.384494e-002
<GCONST> 1.142359e+002
<TRANSP> 5
 0.000000e+000 1.000000e+000 0.000000e+000 0.000000e+000 0.000000e+000
 0.000000e+000 8.029253e-001 1.970746e-001 0.000000e+000 0.000000e+000
 0.000000e+000 0.000000e+000 6.274294e-001 3.725705e-001 0.000000e+000
 0.000000e+000 0.000000e+000 0.000000e+000 5.712898e-001 4.287102e-001
 0.000000e+000 0.000000e+000 0.000000e+000 0.000000e+000 0.000000e+000
<ENDHMM>
~h "i"
<BEGINHMM>
<NUMSTATES> 5
<STATE> 2
<MEAN> 39
 -2.678694e+001 2.082810e+000 4.727306e+000 -6.225299e+000 -5.126250e+000 -2.602775e+000 1.401702e+000 -1.859464e+000 1.619465e+000 -1.901266e+000 1.448199e+000 1.405740e+000 6.798492e+001 -7.598962e-001 -2.710588e-002 2.574734e+000 1.729232e+000 6.203367e-002 -6.397615e-001 9.447181e-001 -3.174329e-001 -8.439868e-001 -6.015186e-001 -5.306233e-001 -2.117963e-001 7.652597e-001 1.286218e+000 2.120241e-001 1.386051e-001 5.868382e-001 2.279842e-002 -4.934658e-001 -3.118870e-001 -1.325110e-001 -3.765191e-001 -1.456495e-002 -9.108461e-002 -1.250648e-001 -4.749615e-001
<VARIANCE> 39
 2.774238e+001 1.853709e+001 4.206269e+001 3.207107e+001 1.536344e+001 2.468637e+001 3.411445e+001 2.010320e+001 2.987195e+001 1.481284e+001 1.189219e+001 2.755065e+001 1.450685e+001 9.543465e+000 2.127521e+000 2.727021e+000 4.446252e+000 1.669483e+000 3.481596e+000 2.404761e+000 1.539463e+000 4.437924e+000 1.823935e+000 1.801580e+000 1.309051e+000 2.349001e+000 5.597811e-001 4.855290e-001 5.285504e-001 3.511979e-001 5.283542e-001 5.443820e-001 5.828573e-001 3.492139e-001 5.990989e-001 3.668934e-001 2.861636e-001 2.732341e-001 2.173096e-001
<GCONST> 1.131182e+002
<STATE> 3
<MEAN> 39
 -1.669074e+001 3.438955e+000 1.429389e+001 5.586747e+000 -6.380621e+000 -8.871349e+000 2.929990e-002 -5.943658e+000 -5.289478e+000 -5.221460e+000 -1.272479e+000 1.194456e-001 6.667596e+001 3.174154e+000 9.588944e-001 6.964905e-001 2.933956e+000 -1.817047e-001 -3.095652e+000 -1.088507e+000 1.260426e-001 -1.244093e+000 -9.768775e-001 -3.518830e-001 6.241754e-001 -4.430805e-001 -2.401033e-001 -2.108265e-001 -9.400805e-001 -6.318918e-001 4.341816e-002 1.275954e-001 -7.691985e-002 3.738379e-001 6.520028e-001 -6.036772e-002 -4.443703e-003 2.713413e-001 -7.014517e-002
<VARIANCE> 39
 2.304998e+001 3.226784e+001 5.928801e+001 3.627857e+001 3.488499e+001 3.829002e+001 1.900574e+001 1.985941e+001 2.292000e+001 1.756019e+001 1.463207e+001 1.158489e+001 1.206246e+001 2.401356e+000 1.791122e+000 2.540931e+000 1.571338e+000 4.849016e+000 1.524149e+000 1.563618e+000 1.896662e+000 1.909852e+000 1.844427e+000 2.202487e+000 6.728148e-001 4.185525e-001 5.368662e-001 2.734446e-001 5.798608e-001 2.429620e-001 6.626356e-001 5.294907e-001 3.719496e-001 3.028368e-001 3.740344e-001 2.895204e-001 5.445482e-001 2.589757e-001 6.900006e-002
<GCONST> 1.054613e+002
<STATE> 4
<MEAN> 39
 -1.129133e+001 2.186377e+000 1.035460e+001 8.658179e+000 -7.315068e+000 -1.753057e+001 -1.498264e+000 -4.317317e+000 -5.526820e+000 -6.094889e+000 -2.185944e-001 1.729188e+000 6.424096e+001 9.457759e-001 -1.729384e-001 -1.744905e+000 4.768954e-001 5.033098e-001 -5.311771e-001 -1.877135e-001 8.263718e-001 8.169503e-001 -2.988834e-001 -2.088796e-001 2.915750e-001 -5.444528e-001 -3.310763e-001 -6.787382e-003 -3.851069e-001 -7.462851e-001 2.683097e-001 9.460720e-001 3.413772e-002 -1.504714e-001 3.797863e-001 3.293247e-001 7.921874e-003 -1.809629e-001 -2.655412e-002
<VARIANCE> 39
 9.875114e+000 2.941272e+001 4.436620e+001 4.531192e+001 2.391033e+001 3.117075e+001 2.413372e+001 1.330080e+001 1.254593e+001 2.823065e+001 2.816859e+001 9.456957e+000 1.006854e+001 1.263690e+000 1.090760e+000 1.586381e+000 2.364689e+000 1.481572e+000 3.324221e+000 2.543538e+000 1.932721e+000 1.807462e+000 3.098279e+000 3.591305e+000 1.681595e+000 3.659017e-001 3.123666e-001 2.210723e-001 2.169696e-001 1.717772e-001 2.455102e-001 3.897325e-001 5.673041e-001 2.387475e-001 4.078389e-001 4.219252e-001 4.689776e-001 2.321636e-001 4.621812e-002
<GCONST> 1.010896e+002
<TRANSP> 5
 0.000000e+000 1.000000e+000 0.000000e+000 0.000000e+000 0.000000e+000
 0.000000e+000 7.690175e-001 2.309826e-001 0.000000e+000 0.000000e+000
 0.000000e+000 0.000000e+000 6.096728e-001 3.903272e-001 0.000000e+000
 0.000000e+000 0.000000e+000 0.000000e+000 6.077107e-001 3.922893e-001
 0.000000e+000 0.000000e+000 0.000000e+000 0.000000e+000 0.000000e+000
<ENDHMM>
~h "k"
<BEGINHMM>
<NUMSTATES> 5
<STATE> 2
<MEAN> 39
 -1.504667e+001 -1.168081e+000 4.654058e+000 -7.802707e-001 -1.008875e+001 -1.258319e+001 -2.649179e+000 -4.560819e+000 -3.691642e+000 -2.955783e+000 -1.271418e+000 5.099461e-001 7.288034e+001 1.950806e+000 1.420602e+000 1.931171e+000 9.506187e-001 -9.750758e-001 -1.841256e+000 -5.350584e-001 -6.693202e-001 -9.590613e-001 -1.201490e+000 -6.944702e-001 -2.013480e-001 8.791986e-001 3.688906e-001 -2.598921e-002 -1.264776e-001 -8.350082e-002 -3.011580e-002 -7.752614e-003 -1.993747e-002 6.346928e-002 2.847540e-002 1.059049e-002 3.241177e-003 1.247514e-001 -3.445296e-001
<VARIANCE> 39
 4.888892e+001 4.543796e+001 6.785629e+001 2.537569e+001 3.295770e+001 5.273098e+001 3.333754e+001 4.274087e+001 4.040953e+001 2.933220e+001 2.461717e+001 2.462807e+001 1.416546e+001 3.406120e+000 3.391239e+000 3.018040e+000 3.494061e+000 4.303589e+000 3.429779e+000 2.958958e+000 3.369782e+000 4.221259e+000 2.961917e+000 2.045017e+000 1.783697e+000 2.863494e+000 8.559341e-001 1.161036e+000 9.049625e-001 8.201815e-001 8.453475e-001 5.782279e-001 5.772341e-001 5.273898e-001 6.153004e-001 5.755345e-001 4.358186e-001 3.790820e-001 7.342880e-001
<GCONST> 1.270017e+002
<STATE> 3
<MEAN> 39
 -6.341306e+000 -4.819278e-001 7.936252e+000 8.529319e-001 -1.659546e+001 -2.044762e+001 -4.480496e+000 -7.718607e+000 -7.039020e+000 -6.911409e+000 -3.057682e+000 1.718089e+000 7.537226e+001 4.414860e-001 -7.664422e-001 4.279558e-003 -5.312532e-001 -1.352499e+000 -8.221015e-001 -4.861088e-001 -4.445974e-001 -3.079818e-001 -1.517063e-001 3.412914e-001 6.271795e-001 2.993389e-001 -7.077894e-001 -5.592945e-002 -1.459098e-001 -8.861509e-002 4.068892e-001 6.413043e-001 2.981106e-001 1.029216e-001 1.934400e-001 3.198241e-001 2.233983e-001 -4.080747e-002 -2.769708e-001
<VARIANCE> 39
 1.528470e+001 4.687734e+001 5.695222e+001 1.934794e+001 6.637671e+001 5.822780e+001 3.828994e+001 7.700465e+001 7.254128e+001 2.508664e+001 2.721773e+001 2.597490e+001 1.272331e+001 7.989541e-001 1.534797e+000 1.695192e+000 9.028366e-001 2.633839e+000 2.367841e+000 1.913923e+000 2.646549e+000 1.842381e+000 1.180603e+000 1.747911e+000 7.500281e-001 6.273316e-001 1.511942e-001 3.888315e-001 4.576813e-001 2.875467e-001 5.713528e-001 5.405704e-001 3.149338e-001 5.152262e-001 6.516446e-001 3.456928e-001 3.524946e-001 2.204076e-001 6.367280e-002
<GCONST> 1.081254e+002
<STATE> 4
<MEAN> 39
 -8.009304e+000 3.111840e+000 1.023819e+001 1.893290e-002 -1.591719e+001 -1.894229e+001 -5.533046e+000 -7.724796e+000 -7.419584e+000 -7.282492e+000 3.237241e-001 2.046358e+000 7.508666e+001 -9.132353e-002 2.935080e-001 5.219473e-001 -5.142808e-002 -4.834900e-001 3.706944e-002 2.681095e-001 -2.322441e-001 -1.045688e-001 1.574889e-002 2.343378e-001 1.588474e-001 -2.129976e-001 -9.758043e-002 6.701460e-002 4.898611e-002 1.134660e-001 1.546496e-001 1.243286e-003 1.542159e-001 1.374898e-001 1.056744e-001 5.649389e-002 -1.589315e-001 -7.078992e-002 -8.172414e-002
<VARIANCE> 39
 1.341902e+001 5.234067e+001 3.654706e+001 2.389311e+001 5.447712e+001 5.743573e+001 3.428856e+001 7.806875e+001 6.756431e+001 3.351056e+001 3.420524e+001 4.443536e+001 1.500647e+001 2.294372e-001 6.249843e-001 7.571633e-001 6.260906e-001 9.657680e-001 1.536691e+000 1.309850e+000 1.846318e+000 9.639022e-001 1.003265e+000 1.762275e+000 6.936995e-001 2.937551e-001 6.658655e-002 1.254882e-001 1.751812e-001 1.263693e-001 2.280903e-001 3.020900e-001 2.282541e-001 4.395404e-001 2.645343e-001 1.996296e-001 3.147462e-001 1.359561e-001 3.817959e-002
<GCONST> 9.330864e+001
<TRANSP> 5
 0.000000e+000 1.000000e+000 0.000000e+000 0.000000e+000 0.000000e+000
 0.000000e+000 8.144621e-001 1.855379e-001 0.000000e+000 0.000000e+000
 0.000000e+000 0.000000e+000 5.075012e-001 4.924988e-001 0.000000e+000
 0.000000e+000 0.000000e+000 0.000000e+000 6.350423e-001 3.649577e-001
 0.000000e+000 0.000000e+000 0.000000e+000 0.000000e+000 0.000000e+000
<ENDHMM>
~h "m"
<BEGINHMM>
<NUMSTATES> 5
<STATE> 2
<MEAN> 39
 -1.026177e+000 1.018771e+001 3.796060e+000 2.161805e+000 -4.513578e+000 -2.746841e+000 1.888018e+000 -6.242760e+000 -1.086002e+001 -1.151519e+001 -5.240749e+000 -1.748113e+000 6.301051e+001 1.084217e+000 -2.879814e-001 -9.021765e-001 -1.557807e+000 -1.493708e+000 -4.101840e-001 2.275382e-001 3.972282e-002 3.472670e-001 3.848670e-001 -1.004118e-001 -1.757465e-001 1.617097e+000 -1.954175e-001 -5.148293e-001 -5.640917e-001 -6.350543e-001 -2.081651e-001 1.341415e-001 1.964509e-001 2.550769e-001 5.129569e-001 6.462525e-001 2.515980e-001 7.989285e-002 5.552357e-002
<VARIANCE> 39
 9.748331e+000 1.978743e+001 3.995345e+001 3.455619e+001 6.107566e+001 7.170302e+001 4.754710e+001 7.065063e+001 5.189118e+001 5.902245e+001 4.544895e+001 2.656896e+001 3.033717e+001 8.435782e-001 2.326027e+000 3.749048e+000 4.647707e+000 2.612634e+000 1.879801e+000 2.508042e+000 3.534042e+000 4.674662e+000 6.115122e+000 2.993123e+000 1.394220e+000 8.453819e-001 1.223938e-001 2.491428e-001 3.702067e-001 4.495244e-001 4.678990e-001 3.745141e-001 4.883228e-001 5.050730e-001 6.220034e-001 7.549704e-001 5.514672e-001 2.778935e-001 1.117062e-001
<GCONST> 1.178801e+002
<STATE> 3
<MEAN> 39
 2.751913e+000 2.290045e+000 -8.195979e+000 -1.420688e+001 -1.452851e+001 -3.486830e+000 6.097822e+000 -1.757771e+000 -4.135375e+000 -1.448939e+000 -3.394994e+000 -2.391394e+000 7.231865e+001 2.914547e-002 -2.165007e+000 -1.578410e+000 -2.794802e+000 -8.244212e-001 1.222969e+000 1.478205e+000 1.802991e-001 5.051385e-001 1.606952e+000 5.841126e-001 -5.971750e-002 1.610821e+000 -3.613251e-001 2.874904e-001 7.410789e-001 1.029839e+000 8.593144e-001 1.988718e-001 -2.386328e-001 -3.245636e-001 -7.402469e-001 -6.145816e-001 -1.444050e-001 -5.510591e-002 -4.871827e-001
<VARIANCE> 39
 6.880440e+000 3.982361e+001 2.604388e+001 2.904170e+001 4.372170e+001 3.476416e+001 4.099663e+001 8.659534e+001 3.034697e+001 5.003034e+001 4.089853e+001 3.787395e+001 1.284587e+001 8.088067e-001 2.121246e+000 2.114540e+000 4.079025e+000 5.007351e+000 3.230674e+000 2.676486e+000 4.505166e+000 4.176036e+000 6.573732e+000 3.206005e+000 2.095107e+000 1.495344e+000 7.155763e-002 2.774113e-001 2.184820e-001 3.658819e-001 5.530640e-001 5.685611e-001 6.318920e-001 7.685063e-001 4.663030e-001 9.674163e-001 6.973796e-001 2.974057e-001 8.705300e-002
<GCONST> 1.170954e+002
<STATE> 4
<MEAN> 39
 1.075752e+000 -3.404226e+000 -1.088089e+001 -1.760739e+001 -1.165626e+001 6.320100e-001 7.480270e+000 -3.883105e-001 -6.346867e+000 1.622528e+000 -3.474526e+000 -3.654610e+000 7.469333e+001 -1.121988e-001 -3.134112e-001 -4.469381e-002 -1.127492e-001 8.314518e-002 -5.728720e-002 -1.912269e-001 -8.107939e-002 -1.546269e-001 2.366786e-001 2.694026e-001 9.621792e-002 1.060997e-001 2.465487e-002 2.239090e-001 1.252258e-001 2.069389e-001 9.063036e-003 -2.271370e-001 -2.376785e-001 -5.025446e-003 2.743349e-002 -9.149025e-002 2.685698e-002 6.169506e-002 -1.718735e-001
<VARIANCE> 39
 7.642865e+000 5.057450e+001 2.710386e+001 2.205544e+001 2.505116e+001 3.358878e+001 2.681125e+001 6.973764e+001 3.881105e+001 4.494145e+001 4.848175e+001 2.846537e+001 1.331503e+001 2.438458e-001 6.760772e-001 5.806169e-001 9.736202e-001 1.104989e+000 1.754322e+000 1.628299e+000 1.817042e+000 1.541733e+000 1.959750e+000 1.627859e+000 1.048271e+000 3.054645e-001 4.733128e-002 1.331081e-001 1.410309e-001 2.439574e-001 2.123623e-001 3.009009e-001 3.355229e-001 3.159190e-001 2.789083e-001 3.944647e-001 3.027849e-001 1.947199e-001 5.899893e-002
<GCONST> 9.410722e+001
<TRANSP> 5
 0.000000e+000 1.000000e+000 0.000000e+000 0.000000e+000 0.000000e+000
 0.000000e+000 8.539989e-001 1.460011e-001 0.000000e+000 0.000000e+000
 0.000000e+000 0.000000e+000 6.381424e-001 3.618576e-001 0.000000e+000
 0.000000e+000 0.000000e+000 0.000000e+000 8.189640e-001 1.810360e-001
 0.000000e+000 0.000000e+000 0.000000e+000 0.000000e+000 0.000000e+000
<ENDHMM>
~h "n"
<BEGINHMM>
<NUMSTATES> 5
<STATE> 2
<MEAN> 39
 -6.651982e-001 3.949962e+000 1.660132e+000 3.883544e-001 -1.129805e+001 -9.925931e+000 -4.975796e+000 -7.172018e+000 -4.276377e+000 -6.855320e+000 -2.864730e+000 -3.469051e+000 6.713710e+001 -2.743248e-002 7.265092e-001 3.937125e-001 2.575665e-001 5.210055e-001 -1.126147e-001 -2.979767e-001 -2.584775e-001 -4.092646e-001 -4.072064e-001 8.021454e-002 -3.649495e-001 -6.651025e-001 -8.940513e-002 -2.404337e-001 -4.097215e-002 -8.149187e-002 -1.519861e-001 6.589529e-003 -7.989477e-002 5.108910e-002 2.465583e-001 1.430663e-001 -4.069181e-002 1.500722e-001 2.311639e-001
<VARIANCE> 39
 9.007117e+000 3.963474e+001 9.076620e+001 5.700303e+001 9.995486e+001 5.950138e+001 4.200725e+001 4.491648e+001 5.009867e+001 1.024745e+002 4.173594e+001 3.173449e+001 2.080058e+001 4.148911e-001 1.096098e+000 2.000091e+000 2.046409e+000 2.342535e+000 2.159801e+000 2.220914e+000 1.863805e+000 2.877597e+000 3.740380e+000 1.754100e+000 2.028562e+000 8.351871e-001 4.846241e-002 1.583199e-001 2.336253e-001 2.911482e-001 3.737549e-001 3.730114e-001 4.249906e-001 4.077840e-001 7.517745e-001 5.976002e-001 3.873101e-001 3.635243e-001 9.029420e-002
<GCONST> 1.117891e+002
<STATE> 3
<MEAN> 39
 -3.088138e+000 2.244262e+000 1.321742e+000 2.927361e+000 -1.147983e+001 -9.681792e+000 -8.064728e+000 -7.638588e+000 1.527653e+000 -2.461789e+000 -5.179351e+000 -3.708380e+000 6.814309e+001 -8.846257e-001 -1.612658e+000 9.704164e-002 1.759879e-002 -1.781101e+000 -3.384410e-001 -3.692823e-002 8.451701e-001 2.515495e+000 5.590229e-001 -1.203452e+000 6.330203e-001 1.314160e+000 -6.761789e-002 1.390583e-002 5.356226e-002 -1.300968e-001 -2.420969e-001 -3.818393e-001 4.046489e-001 5.007692e-001 -2.823420e-001 -7.561477e-002 1.626380e-001 9.180566e-002 5.693764e-002
<VARIANCE> 39
 1.059410e+001 4.029158e+001 5.409529e+001 4.187074e+001 7.716057e+001 5.515949e+001 4.736890e+001 6.392594e+001 7.619664e+001 3.743731e+001 4.660123e+001 3.183537e+001 4.510642e+001 5.419011e-001 1.488995e+000 2.597253e+000 1.615203e+000 2.783026e+000 3.590509e+000 5.197607e+000 4.738554e+000 5.209118e+000 3.506950e+000 2.933275e+000 3.901026e+000 9.804301e-001 6.501398e-002 3.891565e-001 3.386320e-001 2.413306e-001 5.191888e-001 5.047680e-001 7.044281e-001 6.323944e-001 1.537392e+000 5.303224e-001 6.621016e-001 4.489073e-001 2.682727e-001
<GCONST> 1.218836e+002
<STATE> 4
<MEAN> 39
 -7.027778e+000 -1.125375e+000 4.545260e+000 1.610504e+000 -2.095502e+001 -1.229999e+001 -4.554599e+000 -3.084792e+000 4.807652e+000 -3.623190e+000 -5.639398e+000 -6.973450e-001 6.869360e+001 -3.364773e-001 3.367950e-002 3.854716e-001 -7.524315e-002 -3.140546e-001 -8.992082e-001 4.899412e-001 4.276040e-001 -6.674185e-001 -1.851930e-001 3.915195e-001 4.203764e-001 -3.583324e-001 1.287922e-001 1.776017e-001 4.003078e-003 2.888787e-002 2.667078e-001 1.139622e-001 4.716897e-003 -3.177507e-001 -2.277580e-001 -3.836802e-002 1.179134e-001 -7.156517e-002 -2.219384e-001
<VARIANCE> 39
 1.027025e+001 3.602099e+001 8.628858e+001 4.346859e+001 8.454490e+001 6.563223e+001 7.267479e+001 9.351943e+001 6.145117e+001 3.061084e+001 5.956560e+001 2.290922e+001 3.667382e+001 2.596627e-001 6.385270e-001 1.053763e+000 1.438190e+000 2.645478e+000 1.906294e+000 1.887759e+000 2.543928e+000 2.702244e+000 1.890000e+000 2.160975e+000 1.500088e+000 3.020614e-001 4.603299e-002 1.256625e-001 1.443419e-001 2.567791e-001 2.636221e-001 3.448499e-001 4.373955e-001 3.857965e-001 7.085994e-001 2.706156e-001 3.200260e-001 3.244204e-001 7.325736e-002
<GCONST> 1.058863e+002
<TRANSP> 5
 0.000000e+000 1.000000e+000 0.000000e+000 0.000000e+000 0.000000e+000
 0.000000e+000 8.725078e-001 1.274922e-001 0.000000e+000 0.000000e+000
 0.000000e+000 0.000000e+000 7.571052e-001 2.428948e-001 0.000000e+000
 0.000000e+000 0.000000e+000 0.000000e+000 8.046405e-001 1.953595e-001
 0.000000e+000 0.000000e+000 0.000000e+000 0.000000e+000 0.000000e+000
<ENDHMM>
~h "o"
<BEGINHMM>
<NUMSTATES> 5
<STATE> 2
<MEAN> 39
 -5.404736e+000 2.474264e+000 3.122554e-001 -4.394701e+000 -9.639411e+000 -8.753761e+000 -1.066005e+000 -4.766325e+000 -3.743578e+000 -1.938833e+000 -1.992863e+000 -4.559347e-003 6.495885e+001 2.450988e-002 1.302901e-002 1.918019e-002 3.316283e-003 -4.371658e-002 -7.306439e-002 -1.842394e-002 -2.444299e-002 -3.052467e-002 -2.393421e-002 -9.349622e-003 -1.425933e-002 -9.787142e-003 -5.396765e-003 4.690089e-003 -6.835332e-003 5.209368e-003 1.451201e-002 1.721763e-002 5.296492e-003 6.553777e-003 6.220506e-003 9.362569e-003 4.125166e-003 3.225525e-003 -2.743884e-002
<VARIANCE> 39
 3.864226e+001 5.281501e+001 7.391051e+001 8.135933e+001 7.677331e+001 9.463634e+001 5.724667e+001 6.897221e+001 6.326392e+001 4.839135e+001 3.680719e+001 3.395739e+001 8.727069e+001 1.372905e+000 1.793903e+000 1.710096e+000 2.409231e+000 2.706431e+000 2.777050e+000 2.585872e+000 2.606039e+000 2.707144e+000 2.455808e+000 2.104158e+000 1.735463e+000 2.419883e+000 1.985618e-001 2.764823e-001 2.480070e-001 3.283480e-001 3.897789e-001 4.118499e-001 4.453265e-001 4.204600e-001 4.511843e-001 4.197432e-001 3.712303e-001 3.108075e-001 2.378747e-001
<GCONST> 1.209395e+002
<STATE> 3
<MEAN> 39
 -5.404736e+000 2.474264e+000 3.122554e-001 -4.394701e+000 -9.639411e+000 -8.753761e+000 -1.066005e+000 -4.766325e+000 -3.743578e+000 -1.938833e+000 -1.992863e+000 -4.559347e-003 6.495885e+001 2.450988e-002 1.302901e-002 1.918019e-002 3.316283e-003 -4.371658e-002 -7.306439e-002 -1.842394e-002 -2.444299e-002 -3.052467e-002 -2.393421e-002 -9.349622e-003 -1.425933e-002 -9.787142e-003 -5.396765e-003 4.690089e-003 -6.835332e-003 5.209368e-003 1.451201e-002 1.721763e-002 5.296492e-003 6.553777e-003 6.220506e-003 9.362569e-003 4.125166e-003 3.225525e-003 -2.743884e-002
<VARIANCE> 39
 3.864226e+001 5.281501e+001 7.391051e+001 8.135933e+001 7.677331e+001 9.463634e+001 5.724667e+001 6.897221e+001 6.326392e+001 4.839135e+001 3.680719e+001 3.395739e+001 8.727069e+001 1.372905e+000 1.793903e+000 1.710096e+000 2.409231e+000 2.706431e+000 2.777050e+000 2.585872e+000 2.606039e+000 2.707144e+000 2.455808e+000 2.104158e+000 1.735463e+000 2.419883e+000 1.985618e-001 2.764823e-001 2.480070e-001 3.283480e-001 3.897789e-001 4.118499e-001 4.453265e-001 4.204600e-001 4.511843e-001 4.197432e-001 3.712303e-001 3.108075e-001 2.378747e-001
<GCONST> 1.209395e+002
<STATE> 4
<MEAN> 39
 -5.404736e+000 2.474264e+000 3.122554e-001 -4.394701e+000 -9.639411e+000 -8.753761e+000 -1.066005e+000 -4.766325e+000 -3.743578e+000 -1.938833e+000 -1.992863e+000 -4.559347e-003 6.495885e+001 2.450988e-002 1.302901e-002 1.918019e-002 3.316283e-003 -4.371658e-002 -7.306439e-002 -1.842394e-002 -2.444299e-002 -3.052467e-002 -2.393421e-002 -9.349622e-003 -1.425933e-002 -9.787142e-003 -5.396765e-003 4.690089e-003 -6.835332e-003 5.209368e-003 1.451201e-002 1.721763e-002 5.296492e-003 6.553777e-003 6.220506e-003 9.362569e-003 4.125166e-003 3.225525e-003 -2.743884e-002
<VARIANCE> 39
 3.864226e+001 5.281501e+001 7.391051e+001 8.135933e+001 7.677331e+001 9.463634e+001 5.724667e+001 6.897221e+001 6.326392e+001 4.839135e+001 3.680719e+001 3.395739e+001 8.727069e+001 1.372905e+000 1.793903e+000 1.710096e+000 2.409231e+000 2.706431e+000 2.777050e+000 2.585872e+000 2.606039e+000 2.707144e+000 2.455808e+000 2.104158e+000 1.735463e+000 2.419883e+000 1.985618e-001 2.764823e-001 2.480070e-001 3.283480e-001 3.897789e-001 4.118499e-001 4.453265e-001 4.204600e-001 4.511843e-001 4.197432e-001 3.712303e-001 3.108075e-001 2.378747e-001
<GCONST> 1.209395e+002
<TRANSP> 5
 0.000000e+000 1.000000e+000 0.000000e+000 0.000000e+000 0.000000e+000
 0.000000e+000 6.000000e-001 4.000000e-001 0.000000e+000 0.000000e+000
 0.000000e+000 0.000000e+000 6.000000e-001 4.000000e-001 0.000000e+000
 0.000000e+000 0.000000e+000 0.000000e+000 7.000000e-001 3.000000e-001
 0.000000e+000 0.000000e+000 0.000000e+000 0.000000e+000 0.000000e+000
<ENDHMM>
~h "p"
<BEGINHMM>
<NUMSTATES> 5
<STATE> 2
<MEAN> 39
 -4.788365e-001 3.935939e+000 -5.144136e+000 -1.525648e+001 -1.261274e+001 -4.028304e+000 5.501546e+000 -1.787489e+000 -1.896260e+000 3.569500e-001 -3.030963e+000 -1.261905e+000 7.063592e+001 1.819362e+000 4.591719e-001 -2.595560e-001 -1.914142e+000 -2.041853e+000 -3.708891e-001 6.868001e-001 2.473695e-001 -7.989872e-001 -1.751574e-001 1.617208e-001 -6.548995e-002 1.304031e+000 -5.764582e-001 -5.961521e-001 -1.064178e-001 5.731430e-001 3.896293e-001 5.075198e-002 -5.335001e-001 -1.798260e-001 9.124960e-002 1.418196e-002 3.067193e-001 9.173537e-002 -2.980740e-001
<VARIANCE> 39
 1.848906e+001 3.832375e+001 3.627636e+001 2.724326e+001 5.172406e+001 9.661542e+001 4.682360e+001 6.105695e+001 4.511493e+001 2.495111e+001 2.751325e+001 2.569568e+001 1.731133e+001 2.110599e+000 5.313008e+000 2.692741e+000 3.043090e+000 4.759776e+000 4.112813e+000 4.707326e+000 4.160131e+000 2.881574e+000 2.737464e+000 2.494982e+000 2.342423e+000 1.051921e+000 3.106014e-001 5.289853e-001 3.702978e-001 4.429058e-001 6.916864e-001 7.020447e-001 6.084014e-001 6.059067e-001 3.906986e-001 5.136154e-001 3.747396e-001 3.760488e-001 3.487683e-001
<GCONST> 1.224475e+002
<STATE> 3
<MEAN> 39
 6.966694e-001 -1.737159e+000 -8.916447e+000 -1.695090e+001 -1.305846e+001 -4.343145e+000 4.506149e+000 -9.250210e-001 -5.084085e+000 1.819338e-001 1.371878e-001 -1.740026e+000 7.460031e+001 -1.145419e-001 -7.545449e-001 -1.989366e-001 1.244504e-001 -7.935331e-002 4.198642e-002 -5.489832e-001 -6.307287e-001 7.324496e-002 5.683343e-001 2.600349e-001 -5.666340e-001 2.415835e-001 -1.983945e-001 1.018798e-001 1.121176e-001 2.843672e-001 2.511360e-001 -1.113070e-001 -2.023633e-001 -9.239514e-002 2.427829e-001 1.189715e-001 -2.365219e-001 -7.692619e-003 -2.423106e-001
<VARIANCE> 39
 9.261497e+000 5.560585e+001 4.117917e+001 2.359125e+001 4.982504e+001 8.001826e+001 5.594233e+001 7.644686e+001 6.604081e+001 2.499962e+001 2.576578e+001 3.316705e+001 1.768317e+001 4.145441e-001 1.305908e+000 8.271463e-001 1.549836e+000 1.640622e+000 1.717748e+000 4.814960e+000 1.946970e+000 3.185087e+000 2.185634e+000 1.333852e+000 1.861475e+000 5.362590e-001 1.520451e-001 3.297924e-001 1.856096e-001 3.434971e-001 3.909932e-001 4.221941e-001 7.282878e-001 4.951442e-001 4.877306e-001 3.736033e-001 3.071125e-001 3.988745e-001 9.962142e-002
<GCONST> 1.089442e+002
<STATE> 4
<MEAN> 39
 1.707570e+000 2.738909e+000 -3.515001e+000 -1.624018e+001 -1.743665e+001 -3.898441e+000 3.681961e+000 -5.077608e+000 -1.308402e+000 2.078615e+000 -1.698440e+000 -3.333248e+000 7.233966e+001 -1.021529e-001 -5.309234e-002 1.001891e-001 2.310937e-001 -9.697753e-003 -3.240187e-001 -4.891925e-001 -2.530023e-001 1.448818e-001 3.236601e-001 -2.457604e-001 -7.434862e-002 -8.940364e-002 -6.484252e-002 1.207687e-001 1.041763e-001 1.063828e-001 1.244502e-002 -7.213933e-002 -2.551099e-002 6.743267e-002 6.925433e-003 -1.327785e-001 -4.233792e-002 5.584672e-002 -7.723328e-002
<VARIANCE> 39
 8.752181e+000 5.713244e+001 7.377832e+001 2.143778e+001 8.609455e+001 1.294374e+002 6.100417e+001 7.235398e+001 7.786080e+001 4.115668e+001 2.396725e+001 3.739333e+001 1.705278e+001 2.279182e-001 6.826922e-001 6.647387e-001 1.139499e+000 1.616954e+000 1.840507e+000 2.562463e+000 1.415061e+000 1.590881e+000 1.383162e+000 1.648642e+000 1.013542e+000 2.960542e-001 5.629411e-002 1.055392e-001 1.250318e-001 1.657636e-001 2.156613e-001 2.266349e-001 3.778381e-001 2.953897e-001 2.159475e-001 2.859686e-001 2.820735e-001 2.183325e-001 3.416878e-002
<GCONST> 9.783958e+001
<TRANSP> 5
 0.000000e+000 1.000000e+000 0.000000e+000 0.000000e+000 0.000000e+000
 0.000000e+000 7.088836e-001 2.911164e-001 0.000000e+000 0.000000e+000
 0.000000e+000 0.000000e+000 6.327482e-001 3.672518e-001 0.000000e+000
 0.000000e+000 0.000000e+000 0.000000e+000 6.759866e-001 3.240134e-001
 0.000000e+000 0.000000e+000 0.000000e+000 0.000000e+000 0.000000e+000
<ENDHMM>
~h "r"
<BEGINHMM>
<NUMSTATES> 5
<STATE> 2
<MEAN> 39
 -2.123274e+000 1.482205e+000 2.135962e+000 6.345313e+000 -1.032753e+001 -1.698285e+001 -1.032239e+001 -1.018428e+001 3.071119e+000 1.408251e-001 -8.646199e-001 -1.071812e+000 6.604768e+001 4.656807e-002 -7.322597e-002 -2.502579e-001 5.040089e-001 7.027788e-001 1.663458e+000 1.038036e+000 -8.046306e-001 -1.291508e-001 3.271659e-001 -1.966905e-001 -4.599801e-001 -1.224459e+000 -1.788302e-001 -1.366875e-001 7.855895e-002 -1.990635e-001 4.661810e-002 -5.504547e-002 1.180566e-001 3.919576e-001 -1.419563e-001 -1.244571e-001 -3.009317e-001 1.517017e-001 1.842941e-001
<VARIANCE> 39
 1.159539e+001 1.793073e+001 7.499165e+001 3.835498e+001 2.614809e+001 5.243282e+001 2.899594e+001 6.617078e+001 1.995604e+001 2.436714e+001 1.372648e+001 3.214478e+001 2.899093e+001 3.569728e-001 1.477274e+000 2.368866e+000 2.770304e+000 1.459603e+000 3.511912e+000 2.307023e+000 3.378391e+000 1.982992e+000 2.814350e+000 1.157704e+000 2.081598e+000 2.169843e+000 8.746422e-002 3.078403e-001 2.807451e-001 4.484924e-001 4.349705e-001 9.324260e-001 4.046583e-001 5.876077e-001 3.621641e-001 4.310664e-001 1.297622e-001 3.171470e-001 3.029870e-001
<GCONST> 1.094400e+002
<STATE> 3
<MEAN> 39
 -5.559524e+000 8.852052e-001 4.705885e+000 6.159727e+000 -8.102579e+000 -1.350881e+001 -6.240773e+000 -8.237958e+000 1.890644e+000 -2.475804e-001 -4.609205e+000 1.182651e+000 6.410887e+001 -9.161342e-001 -4.119460e-001 -2.202657e-002 2.438248e-001 4.284717e-001 2.830418e-001 1.212874e+000 6.926105e-001 -2.511582e-001 -4.309562e-001 -7.142105e-001 2.879453e-001 -5.755605e-003 -1.276314e-003 7.640436e-002 -1.439064e-001 -4.958449e-002 -5.718806e-001 -7.380687e-001 -6.871416e-002 4.053390e-001 2.966222e-001 -2.044137e-001 4.103460e-001 3.973320e-001 4.876502e-001
<VARIANCE> 39
 1.465645e+001 1.921113e+001 6.192540e+001 1.594304e+001 4.237021e+001 6.802669e+001 1.827106e+001 2.918364e+001 2.506051e+001 1.355397e+001 1.649991e+001 1.187551e+001 2.362194e+001 4.771616e-001 1.593981e+000 2.223218e+000 1.720723e+000 5.946193e+000 5.246055e+000 2.825052e+000 1.725292e+000 3.135085e+000 1.821162e+000 1.613420e+000 2.455242e+000 1.427573e+000 1.322999e-001 3.075781e-001 6.660110e-001 4.067006e-001 1.007689e+000 9.605410e-001 6.685268e-001 5.463064e-001 6.699979e-001 4.818918e-001 2.574725e-001 3.572192e-001 3.320931e-001
<GCONST> 1.121259e+002
<STATE> 4
<MEAN> 39
 -6.489291e+000 1.870063e+000 5.032146e+000 7.025028e+000 -1.198726e+001 -1.479178e+001 -6.003426e+000 -4.462718e+000 3.874880e+000 -2.366890e+000 -8.828680e-001 5.174713e+000 6.633228e+001 -3.182303e-001 9.915438e-002 3.667120e-001 -7.510629e-003 -4.499384e-001 7.029800e-004 5.692006e-001 8.763257e-001 2.518208e-002 -4.817776e-002 2.432079e-001 1.986668e-001 -4.103022e-002 5.655792e-002 1.627745e-002 1.042012e-001 -6.360976e-002 1.529698e-001 1.035483e-001 -5.276830e-002 7.931906e-002 -2.770528e-001 -2.697261e-002 -1.539736e-001 -3.051000e-001 -1.763854e-001
<VARIANCE> 39
 2.690894e+001 2.508485e+001 5.104057e+001 1.093664e+001 3.834135e+001 6.965604e+001 6.071038e+001 2.520880e+001 2.786769e+001 2.270741e+001 2.726602e+001 3.450288e+001 1.381532e+001 4.914495e-001 9.789404e-001 2.251939e+000 1.382354e+000 4.426396e+000 4.732376e+000 2.460155e+000 3.294504e+000 3.668570e+000 2.444113e+000 2.770776e+000 4.091060e+000 5.820251e-001 1.369163e-001 2.273815e-001 3.130125e-001 3.120266e-001 9.773392e-001 7.019654e-001 5.193894e-001 4.829542e-001 8.040395e-001 4.303184e-001 4.805335e-001 7.521892e-001 8.732736e-002
<GCONST> 1.132088e+002
<TRANSP> 5
 0.000000e+000 1.000000e+000 0.000000e+000 0.000000e+000 0.000000e+000
 0.000000e+000 6.573730e-001 3.426270e-001 0.000000e+000 0.000000e+000
 0.000000e+000 0.000000e+000 6.428872e-001 3.571127e-001 0.000000e+000
 0.000000e+000 0.000000e+000 0.000000e+000 7.285969e-001 2.714030e-001
 0.000000e+000 0.000000e+000 0.000000e+000 0.000000e+000 0.000000e+000
<ENDHMM>
~h "t"
<BEGINHMM>
<NUMSTATES> 5
<STATE> 2
<MEAN> 39
 -1.068548e+001 -1.897986e+000 -1.014256e+000 -6.051044e+000 -5.811631e+000 -4.672066e+000 -5.143806e+000 -5.407740e+000 3.238542e-001 -7.318224e-001 -1.505342e+000 -2.601273e-001 6.909077e+001 1.584564e+000 4.816723e-001 7.228500e-002 -1.165639e+000 -7.863182e-001 -9.966336e-001 -3.156471e-001 -9.552602e-001 -9.766220e-001 1.791400e-001 -3.291123e-001 -4.419047e-001 2.587896e+000 7.076272e-001 4.387517e-001 -2.291574e-001 3.038243e-003 -2.252991e-001 -7.335678e-002 4.665593e-001 6.616083e-002 -3.866034e-001 1.011395e-001 6.452134e-002 9.179008e-002 -7.006134e-001
<VARIANCE> 39
 4.746218e+001 4.082880e+001 3.540155e+001 4.956948e+001 3.366265e+001 4.270900e+001 3.500224e+001 4.187609e+001 3.885129e+001 3.077845e+001 2.882736e+001 2.836057e+001 6.891510e+001 7.519491e+000 5.762352e+000 3.448241e+000 5.316779e+000 5.033843e+000 5.977056e+000 4.992696e+000 5.295647e+000 5.461321e+000 4.062827e+000 2.877125e+000 3.017999e+000 8.242114e+000 1.020866e+000 1.087582e+000 5.831575e-001 7.635247e-001 8.218225e-001 9.655355e-001 9.397169e-001 9.002199e-001 8.933223e-001 6.642331e-001 5.778238e-001 5.241543e-001 1.445504e+000
<GCONST> 1.375791e+002
<STATE> 3
<MEAN> 39
 -7.646572e-001 5.709213e-001 -4.742784e+000 -1.293488e+001 -1.038509e+001 -6.864963e+000 -1.306933e+000 -6.640430e+000 -5.491771e+000 1.067240e+000 -1.774675e+000 -7.132574e-001 7.327211e+001 1.591712e+000 -1.429654e-001 -8.104874e-001 -1.005631e+000 -1.602960e+000 -2.607343e-001 1.326315e+000 1.735238e-001 -1.075089e+000 2.849000e-001 1.686586e-002 1.853516e-001 1.890431e-001 -8.747737e-001 -4.767905e-001 1.410377e-001 4.387778e-001 2.323987e-001 2.675444e-001 -1.558152e-001 2.294616e-001 4.971886e-001 -3.242724e-002 1.068673e-001 1.262062e-001 -3.444399e-001
<VARIANCE> 39
 2.066293e+001 3.622926e+001 6.032091e+001 6.873371e+001 6.840493e+001 6.423777e+001 5.005889e+001 7.934901e+001 4.227277e+001 4.986337e+001 3.699243e+001 4.133004e+001 2.616807e+001 2.687435e+000 3.033522e+000 2.293370e+000 2.763383e+000 4.062501e+000 4.531715e+000 3.969565e+000 3.835306e+000 3.866581e+000 3.036244e+000 3.333626e+000 2.727881e+000 1.036691e+000 3.495258e-001 4.222581e-001 3.608600e-001 5.278492e-001 7.863340e-001 7.182286e-001 7.472177e-001 8.677816e-001 5.530642e-001 5.953385e-001 5.002298e-001 5.677356e-001 3.792664e-001
<GCONST> 1.279226e+002
<STATE> 4
<MEAN> 39
 9.737603e-002 -3.351373e-001 -5.328233e+000 -1.344429e+001 -1.327083e+001 -6.170614e+000 -3.605493e-001 -6.838938e+000 -5.388613e+000 2.277183e+000 -7.550293e-001 -8.327862e-001 7.359709e+001 7.881290e-002 -2.800971e-001 3.093750e-004 2.325577e-001 -2.884151e-001 -1.895891e-001 -2.090020e-001 -2.042160e-001 -5.662871e-002 3.303046e-001 1.406555e-001 2.299813e-001 7.318722e-003 -3.241333e-001 -5.866706e-002 1.900827e-001 3.969609e-001 3.196295e-001 -7.641815e-002 -3.953692e-001 -1.140731e-001 2.548814e-001 1.250148e-002 -1.719316e-002 -1.072372e-003 -4.499038e-002
<VARIANCE> 39
 2.128432e+001 4.310928e+001 6.143113e+001 6.169110e+001 8.314577e+001 8.184428e+001 5.428387e+001 8.238520e+001 7.215656e+001 6.376334e+001 4.674133e+001 4.132646e+001 2.620341e+001 9.252954e-001 1.232983e+000 1.205956e+000 2.080224e+000 2.445065e+000 3.515224e+000 3.655273e+000 2.588794e+000 3.037367e+000 2.135252e+000 2.551333e+000 2.435145e+000 6.298345e-001 1.873011e-001 2.505868e-001 2.107667e-001 3.289328e-001 5.082871e-001 6.404456e-001 6.356077e-001 5.260910e-001 5.295042e-001 5.516102e-001 4.509708e-001 4.710655e-001 1.019019e-001
<GCONST> 1.189108e+002
<TRANSP> 5
 0.000000e+000 1.000000e+000 0.000000e+000 0.000000e+000 0.000000e+000
 0.000000e+000 7.579591e-001 2.420409e-001 0.000000e+000 0.000000e+000
 0.000000e+000 0.000000e+000 4.869934e-001 5.130066e-001 0.000000e+000
 0.000000e+000 0.000000e+000 0.000000e+000 6.146657e-001 3.853343e-001
 0.000000e+000 0.000000e+000 0.000000e+000 0.000000e+000 0.000000e+000
<ENDHMM>
~h "u"
<BEGINHMM>
<NUMSTATES> 5
<STATE> 2
<MEAN> 39
 -8.996177e+000 4.911702e+000 7.502827e+000 1.096872e+001 -4.662211e+000 -1.259897e+001 -6.171454e-001 -4.671430e+000 -3.606145e+000 -5.765086e+000 -2.922554e+000 2.932833e+000 6.385322e+001 7.855492e-001 5.288025e-001 -1.539129e+000 -1.182940e+000 9.910546e-001 1.307002e+000 -3.416080e-001 -1.188644e+000 4.252489e-002 9.464906e-001 3.493648e-001 -7.609189e-002 -8.917935e-001 -1.362689e-001 -1.184891e-002 3.511801e-002 -4.366162e-001 1.159175e-001 6.271547e-001 4.805708e-002 -4.485498e-001 -1.982356e-001 2.259800e-001 1.375624e-001 -2.508360e-001 -8.230732e-002
<VARIANCE> 39
 9.758411e+000 2.222290e+001 3.160433e+001 6.627859e+001 1.638604e+001 4.387190e+001 1.105301e+001 5.093961e+001 2.947432e+001 5.289217e+001 4.437363e+001 1.938104e+001 9.600384e+000 2.740872e-001 7.638474e-001 4.691643e-001 1.972987e+000 1.057212e+000 3.845372e+000 2.270790e+000 4.285467e+000 2.338082e+000 2.270138e+000 4.312351e+000 1.763112e+000 2.419593e-001 5.337811e-002 2.245010e-001 2.451019e-001 3.538351e-001 2.594661e-001 4.426267e-001 2.009111e-001 1.005533e+000 4.688079e-001 9.302207e-001 8.800181e-001 6.024231e-001 4.754335e-002
<GCONST> 1.031575e+002
<STATE> 3
<MEAN> 39
 -7.201682e+000 5.250972e+000 2.106062e+000 2.045681e+000 -1.054278e+000 -8.436463e+000 -3.917133e+000 -7.723532e+000 -5.148998e+000 -4.317724e+000 -6.444712e-001 1.419195e+000 6.032146e+001 4.798549e-001 7.332218e-002 -1.198568e+000 -9.306219e-001 4.431441e-001 1.509238e+000 -3.507878e-002 -7.123960e-001 -4.825059e-001 2.657771e-001 3.616590e-002 -4.187047e-001 -7.755778e-001 -2.049287e-001 -1.917543e-001 6.227514e-002 5.810174e-002 -1.769003e-001 -1.638278e-001 2.250594e-001 3.336929e-001 -4.146546e-002 -3.496742e-002 4.894211e-002 8.740933e-002 6.094633e-002
<VARIANCE> 39
 1.333204e+001 1.705156e+001 2.883454e+001 7.432461e+001 5.074529e+001 2.378351e+001 3.570866e+001 3.633330e+001 3.357788e+001 2.490290e+001 3.530819e+001 1.336021e+001 9.701344e+000 2.683376e-001 1.940587e+000 1.111988e+000 1.325385e+000 1.864689e+000 2.857109e+000 1.168103e+000 2.956120e+000 2.135493e+000 3.912821e+000 1.694283e+000 1.626437e+000 3.948228e-001 5.625274e-002 1.722536e-001 1.041447e-001 3.021026e-001 2.356485e-001 6.475592e-001 2.424092e-001 6.100681e-001 3.660219e-001 5.973849e-001 4.531403e-001 2.461803e-001 4.988073e-002
<GCONST> 1.004513e+002
<STATE> 4
<MEAN> 39
 -8.380363e+000 3.802433e+000 -9.253556e-001 2.091917e+000 -5.130916e-002 -2.081093e+000 1.531015e-001 -2.452962e+000 -7.522556e-001 -1.675099e+000 -8.979142e-001 6.937120e-001 5.490345e+001 -2.314086e-001 -1.254682e-001 -1.917391e-001 -3.345053e-001 2.370703e-001 3.885227e-001 4.359384e-002 6.065314e-001 2.797411e-001 2.334518e-001 -6.422347e-002 -5.218472e-002 -5.456227e-001 -1.845093e-002 1.039791e-003 7.604561e-002 5.897984e-002 -8.094452e-002 -7.885653e-002 9.819629e-004 2.420388e-002 3.314385e-002 -3.606017e-002 -7.306611e-003 -9.009264e-004 5.710639e-002
<VARIANCE> 39
 1.096915e+001 2.649956e+001 5.640930e+000 2.503646e+001 2.434222e+001 1.396176e+001 1.714016e+001 3.370510e+001 2.857762e+001 2.315122e+001 1.388935e+001 2.227671e+001 2.264763e+001 1.839162e-001 7.840251e-001 6.201900e-001 8.983566e-001 1.229370e+000 1.127760e+000 1.120362e+000 1.841449e+000 1.632014e+000 1.734819e+000 1.372248e+000 1.155991e+000 2.283294e-001 3.196967e-002 1.400607e-001 9.364410e-002 1.429664e-001 2.256095e-001 1.922143e-001 2.040194e-001 3.921878e-001 3.704182e-001 3.238332e-001 2.501644e-001 2.473181e-001 2.532410e-002
<GCONST> 8.442633e+001
<TRANSP> 5
 0.000000e+000 1.000000e+000 0.000000e+000 0.000000e+000 0.000000e+000
 0.000000e+000 6.312283e-001 3.687716e-001 0.000000e+000 0.000000e+000
 0.000000e+000 0.000000e+000 7.232642e-001 2.767358e-001 0.000000e+000
 0.000000e+000 0.000000e+000 0.000000e+000 8.959112e-001 1.040889e-001
 0.000000e+000 0.000000e+000 0.000000e+000 0.000000e+000 0.000000e+000
<ENDHMM>
~h "w"
<BEGINHMM>
<NUMSTATES> 5
<STATE> 2
<MEAN> 39
 -5.404736e+000 2.474264e+000 3.122554e-001 -4.394701e+000 -9.639411e+000 -8.753761e+000 -1.066005e+000 -4.766325e+000 -3.743578e+000 -1.938833e+000 -1.992863e+000 -4.559347e-003 6.495885e+001 2.450988e-002 1.302901e-002 1.918019e-002 3.316283e-003 -4.371658e-002 -7.306439e-002 -1.842394e-002 -2.444299e-002 -3.052467e-002 -2.393421e-002 -9.349622e-003 -1.425933e-002 -9.787142e-003 -5.396765e-003 4.690089e-003 -6.835332e-003 5.209368e-003 1.451201e-002 1.721763e-002 5.296492e-003 6.553777e-003 6.220506e-003 9.362569e-003 4.125166e-003 3.225525e-003 -2.743884e-002
<VARIANCE> 39
 3.864226e+001 5.281501e+001 7.391051e+001 8.135933e+001 7.677331e+001 9.463634e+001 5.724667e+001 6.897221e+001 6.326392e+001 4.839135e+001 3.680719e+001 3.395739e+001 8.727069e+001 1.372905e+000 1.793903e+000 1.710096e+000 2.409231e+000 2.706431e+000 2.777050e+000 2.585872e+000 2.606039e+000 2.707144e+000 2.455808e+000 2.104158e+000 1.735463e+000 2.419883e+000 1.985618e-001 2.764823e-001 2.480070e-001 3.283480e-001 3.897789e-001 4.118499e-001 4.453265e-001 4.204600e-001 4.511843e-001 4.197432e-001 3.712303e-001 3.108075e-001 2.378747e-001
<GCONST> 1.209395e+002
<STATE> 3
<MEAN> 39
 -5.404736e+000 2.474264e+000 3.122554e-001 -4.394701e+000 -9.639411e+000 -8.753761e+000 -1.066005e+000 -4.766325e+000 -3.743578e+000 -1.938833e+000 -1.992863e+000 -4.559347e-003 6.495885e+001 2.450988e-002 1.302901e-002 1.918019e-002 3.316283e-003 -4.371658e-002 -7.306439e-002 -1.842394e-002 -2.444299e-002 -3.052467e-002 -2.393421e-002 -9.349622e-003 -1.425933e-002 -9.787142e-003 -5.396765e-003 4.690089e-003 -6.835332e-003 5.209368e-003 1.451201e-002 1.721763e-002 5.296492e-003 6.553777e-003 6.220506e-003 9.362569e-003 4.125166e-003 3.225525e-003 -2.743884e-002
<VARIANCE> 39
 3.864226e+001 5.281501e+001 7.391051e+001 8.135933e+001 7.677331e+001 9.463634e+001 5.724667e+001 6.897221e+001 6.326392e+001 4.839135e+001 3.680719e+001 3.395739e+001 8.727069e+001 1.372905e+000 1.793903e+000 1.710096e+000 2.409231e+000 2.706431e+000 2.777050e+000 2.585872e+000 2.606039e+000 2.707144e+000 2.455808e+000 2.104158e+000 1.735463e+000 2.419883e+000 1.985618e-001 2.764823e-001 2.480070e-001 3.283480e-001 3.897789e-001 4.118499e-001 4.453265e-001 4.204600e-001 4.511843e-001 4.197432e-001 3.712303e-001 3.108075e-001 2.378747e-001
<GCONST> 1.209395e+002
<STATE> 4
<MEAN> 39
 -5.404736e+000 2.474264e+000 3.122554e-001 -4.394701e+000 -9.639411e+000 -8.753761e+000 -1.066005e+000 -4.766325e+000 -3.743578e+000 -1.938833e+000 -1.992863e+000 -4.559347e-003 6.495885e+001 2.450988e-002 1.302901e-002 1.918019e-002 3.316283e-003 -4.371658e-002 -7.306439e-002 -1.842394e-002 -2.444299e-002 -3.052467e-002 -2.393421e-002 -9.349622e-003 -1.425933e-002 -9.787142e-003 -5.396765e-003 4.690089e-003 -6.835332e-003 5.209368e-003 1.451201e-002 1.721763e-002 5.296492e-003 6.553777e-003 6.220506e-003 9.362569e-003 4.125166e-003 3.225525e-003 -2.743884e-002
<VARIANCE> 39
 3.864226e+001 5.281501e+001 7.391051e+001 8.135933e+001 7.677331e+001 9.463634e+001 5.724667e+001 6.897221e+001 6.326392e+001 4.839135e+001 3.680719e+001 3.395739e+001 8.727069e+001 1.372905e+000 1.793903e+000 1.710096e+000 2.409231e+000 2.706431e+000 2.777050e+000 2.585872e+000 2.606039e+000 2.707144e+000 2.455808e+000 2.104158e+000 1.735463e+000 2.419883e+000 1.985618e-001 2.764823e-001 2.480070e-001 3.283480e-001 3.897789e-001 4.118499e-001 4.453265e-001 4.204600e-001 4.511843e-001 4.197432e-001 3.712303e-001 3.108075e-001 2.378747e-001
<GCONST> 1.209395e+002
<TRANSP> 5
 0.000000e+000 1.000000e+000 0.000000e+000 0.000000e+000 0.000000e+000
 0.000000e+000 6.000000e-001 4.000000e-001 0.000000e+000 0.000000e+000
 0.000000e+000 0.000000e+000 6.000000e-001 4.000000e-001 0.000000e+000
 0.000000e+000 0.000000e+000 0.000000e+000 7.000000e-001 3.000000e-001
 0.000000e+000 0.000000e+000 0.000000e+000 0.000000e+000 0.000000e+000
<ENDHMM>
~h "a:"
<BEGINHMM>
<NUMSTATES> 5
<STATE> 2
<MEAN> 39
 5.737319e-002 -2.738557e+000 -1.198127e+001 -1.511615e+001 -5.084157e+000 5.101406e-001 5.886723e+000 1.751665e+000 -6.982882e+000 1.299104e+000 -6.166899e-001 -4.815687e+000 7.511613e+001 4.593430e-004 3.767658e-001 1.120221e-001 3.353695e-001 8.005635e-002 -3.333265e-001 -4.503965e-001 -1.747870e-001 3.415460e-001 1.323638e-001 4.811574e-001 1.832679e-001 -3.219803e-001 -3.175249e-002 1.411667e-001 1.071199e-001 1.889363e-001 3.638916e-002 -7.407958e-002 -9.898199e-002 -1.110680e-001 1.287142e-001 3.121172e-003 7.025472e-003 1.476139e-001 -2.091970e-001
<VARIANCE> 39
 1.026805e+001 5.113929e+001 3.809491e+001 3.276493e+001 3.709390e+001 5.499503e+001 2.758601e+001 4.274257e+001 3.742797e+001 2.136775e+001 4.570037e+001 3.844818e+001 1.351795e+001 3.734206e-001 5.678935e-001 6.722832e-001 1.290690e+000 1.010058e+000 1.750724e+000 2.165124e+000 1.646027e+000 1.534517e+000 1.455368e+000 1.737072e+000 1.878825e+000 5.722591e-001 8.253526e-002 9.165044e-002 1.217951e-001 1.952651e-001 2.334271e-001 3.051912e-001 3.339937e-001 3.008141e-001 2.350755e-001 2.605642e-001 2.321249e-001 2.937820e-001 1.150765e-001
<GCONST> 9.689643e+001
<STATE> 3
<MEAN> 39
 -9.657297e-001 2.119296e+000 -8.962802e+000 -1.092554e+001 -6.820151e+000 -2.299400e+000 2.003613e+000 -2.413131e+000 -3.194842e+000 1.468529e+000 2.097996e+000 5.071691e-002 6.237658e+001 -7.293332e-001 4.897429e-001 1.797780e-001 9.362438e-001 2.456109e-001 3.094675e-002 -3.129829e-001 1.100485e-001 7.498558e-001 -1.060796e-001 1.202764e-001 3.160356e-001 -1.808167e+000 -1.173963e-001 -1.885761e-001 -1.918906e-002 -6.560866e-002 -4.770028e-002 5.932635e-002 9.215063e-002 8.983871e-002 -7.395657e-002 -7.643295e-002 -8.765289e-002 -1.171463e-001 1.216042e-001
<VARIANCE> 39
 1.155079e+001 3.998916e+001 3.903448e+001 2.572674e+001 2.626443e+001 3.052875e+001 2.870219e+001 4.216173e+001 3.408250e+001 2.080152e+001 3.362783e+001 3.105163e+001 5.078404e+001 5.802433e-001 1.176128e+000 1.512312e+000 2.000242e+000 1.615097e+000 2.269214e+000 2.115100e+000 2.384256e+000 2.199641e+000 1.471141e+000 2.098509e+000 1.582580e+000 1.079774e+000 1.030940e-001 1.685288e-001 2.597455e-001 3.240296e-001 2.657100e-001 3.880383e-001 4.161893e-001 4.408871e-001 3.550077e-001 2.801375e-001 3.458649e-001 2.866123e-001 2.264335e-001
<GCONST> 1.054453e+002
<STATE> 4
<MEAN> 39
 -5.383479e+000 2.622886e+000 -7.709877e+000 -7.793174e+000 -6.544709e+000 -2.975270e+000 1.270032e+000 -1.337330e+000 5.166664e-001 -2.953542e-001 -9.717288e-001 -4.055215e-001 5.724327e+001 -1.256570e+000 -1.093857e+000 8.019462e-001 4.569503e-001 2.893595e-001 -2.639407e-001 -5.890930e-001 -2.397104e-001 9.843969e-002 -2.362265e-001 -3.456443e-001 1.059364e-002 4.029751e-001 2.026739e-003 -2.137261e-001 1.848155e-001 -3.176308e-001 3.349227e-002 -2.219211e-002 -2.235305e-001 -2.581724e-001 -1.730197e-001 3.198688e-002 -8.787106e-002 -1.477118e-001 1.003867e+000
<VARIANCE> 39
 1.208765e+001 3.023358e+001 2.791393e+001 2.292419e+001 2.230696e+001 3.520316e+001 2.676394e+001 1.729086e+001 2.277357e+001 2.293309e+001 3.538202e+001 3.192546e+001 4.664104e+001 1.832093e+000 2.424575e+000 2.562995e+000 2.391865e+000 2.674155e+000 2.495606e+000 2.466738e+000 1.962418e+000 3.437036e+000 2.715087e+000 1.737059e+000 2.155580e+000 7.947588e+000 3.457637e-001 4.016234e-001 4.187533e-001 3.686034e-001 4.490421e-001 4.963852e-001 4.760389e-001 3.422789e-001 6.657654e-001 5.607870e-001 4.053410e-001 3.315268e-001 7.084326e-001
<GCONST> 1.158842e+002
<TRANSP> 5
 0.000000e+000 1.000000e+000 0.000000e+000 0.000000e+000 0.000000e+000
 0.000000e+000 8.442458e-001 1.557543e-001 0.000000e+000 0.000000e+000
 0.000000e+000 0.000000e+000 8.369120e-001 1.630880e-001 0.000000e+000
 0.000000e+000 0.000000e+000 0.000000e+000 7.534384e-001 2.465616e-001
 0.000000e+000 0.000000e+000 0.000000e+000 0.000000e+000 0.000000e+000
<ENDHMM>
~h "ae"
<BEGINHMM>
<NUMSTATES> 5
<STATE> 2
<MEAN> 39
 -1.621214e+000 -7.277915e+000 -9.530822e+000 -1.452451e+001 -8.181662e+000 -4.632387e+000 -4.484307e-001 -1.736314e-001 -1.066564e+000 6.174920e+000 -2.000448e+000 -6.999236e+000 7.761855e+001 -1.672613e-001 2.549225e-002 4.106169e-001 8.050991e-001 -8.636788e-002 -1.630957e+000 -1.035599e+000 3.201061e-001 9.705356e-001 -5.147615e-002 -5.544222e-001 2.844512e-002 -1.449579e-001 -1.184309e-002 9.784282e-002 1.388814e-001 7.882281e-002 -6.732893e-002 -1.122332e-001 -2.839482e-002 1.578509e-002 2.164213e-002 -1.328979e-001 3.288788e-002 1.637537e-001 -5.275339e-002
<VARIANCE> 39
 9.532097e+000 3.133960e+001 2.959328e+001 3.585155e+001 2.352001e+001 7.553530e+001 6.788673e+001 4.160388e+001 8.036216e+001 3.031692e+001 5.331233e+001 3.406906e+001 1.504405e+001 1.830587e-001 3.857144e-001 5.777516e-001 1.289837e+000 1.127395e+000 2.400853e+000 2.036155e+000 1.624333e+000 2.112121e+000 1.711697e+000 1.704533e+000 1.613744e+000 1.788909e-001 2.659409e-002 6.480672e-002 8.577979e-002 1.441971e-001 1.852747e-001 3.531363e-001 4.210071e-001 2.805532e-001 3.650536e-001 3.081817e-001 3.439135e-001 2.602041e-001 1.665784e-002
<GCONST> 9.329704e+001
<STATE> 3
<MEAN> 39
 -3.314532e+000 -3.564609e+000 -4.146943e-001 -5.848786e+000 -1.152450e+001 -1.904481e+001 -8.318776e+000 2.389254e+000 5.398884e+000 2.372113e+000 -4.942612e+000 -2.728238e+000 7.324086e+001 -3.733695e-001 6.823522e-001 1.205629e+000 8.359888e-001 -7.020739e-001 -4.378231e-001 -4.138230e-002 -1.854365e-001 -4.455357e-001 -6.807069e-001 3.597526e-001 6.801963e-001 -6.930513e-001 -4.519874e-002 1.958749e-002 -1.015858e-001 -5.100126e-002 1.257905e-001 2.275010e-001 5.891991e-002 -6.655259e-002 -1.158463e-001 3.742383e-002 -1.386383e-002 -7.209304e-002 -6.987887e-002
<VARIANCE> 39
 1.142863e+001 3.131571e+001 4.153200e+001 2.934497e+001 2.263643e+001 4.037569e+001 3.346725e+001 5.497358e+001 4.520350e+001 2.326237e+001 4.524396e+001 3.963720e+001 1.729694e+001 1.852926e-001 5.401767e-001 5.377314e-001 1.127052e+000 8.870248e-001 1.343406e+000 1.220093e+000 1.378526e+000 1.229068e+000 1.335420e+000 1.290614e+000 1.553947e+000 1.606734e-001 2.457684e-002 9.632739e-002 8.728100e-002 2.053181e-001 1.802188e-001 1.793843e-001 2.116816e-001 2.307909e-001 2.654188e-001 2.374893e-001 2.642174e-001 1.927449e-001 2.173301e-002
<GCONST> 8.746558e+001
<STATE> 4
<MEAN> 39
 -7.727600e+000 4.818052e-001 2.244805e+000 -2.087708e-001 -1.151973e+001 -1.788666e+001 -4.779825e+000 8.736722e-001 2.074810e+000 7.762293e-002 -1.447173e+000 2.438220e+000 6.334960e+001 -3.285221e-001 2.371188e-001 -2.275257e-001 2.700768e-001 5.336341e-001 5.070363e-001 3.934010e-001 -6.130941e-002 -1.335153e-001 -3.171759e-002 3.331134e-001 2.654887e-001 -1.207292e+000 1.869276e-002 -5.099174e-002 -1.156479e-001 -6.059406e-002 1.047587e-001 1.154958e-001 5.820154e-002 5.099114e-002 3.478899e-002 4.313903e-002 -5.405370e-003 -5.751184e-002 -8.808834e-003
<VARIANCE> 39
 1.811774e+001 3.780144e+001 4.358889e+001 2.383251e+001 4.561233e+001 5.058464e+001 5.772310e+001 4.409590e+001 3.981289e+001 4.438602e+001 5.078231e+001 3.899097e+001 4.792522e+001 3.561846e-001 7.572389e-001 1.119043e+000 1.071601e+000 1.397271e+000 2.128642e+000 1.452592e+000 1.739435e+000 1.681625e+000 2.050491e+000 2.209034e+000 1.550779e+000 4.705522e-001 5.290719e-002 1.139952e-001 1.958653e-001 2.224317e-001 2.335200e-001 3.633434e-001 2.588799e-001 3.060556e-001 3.101352e-001 3.810146e-001 4.025815e-001 2.754312e-001 5.886121e-002
<GCONST> 1.018652e+002
<TRANSP> 5
 0.000000e+000 1.000000e+000 0.000000e+000 0.000000e+000 0.000000e+000
 0.000000e+000 9.118118e-001 8.818819e-002 0.000000e+000 0.000000e+000
 0.000000e+000 0.000000e+000 8.513729e-001 1.486271e-001 0.000000e+000
 0.000000e+000 0.000000e+000 0.000000e+000 9.182028e-001 8.179712e-002
 0.000000e+000 0.000000e+000 0.000000e+000 0.000000e+000 0.000000e+000
<ENDHMM>
~h "ai"
<BEGINHMM>
<NUMSTATES> 5
<STATE> 2
<MEAN> 39
 -2.327037e+000 -5.190019e+000 -2.533967e+000 -6.525065e+000 -8.860613e+000 -1.763504e+001 -9.944121e+000 -9.879254e-001 4.272570e+000 5.922112e+000 -3.127703e+000 -2.747032e+000 7.576912e+001 -7.496300e-001 1.021091e+000 2.171594e+000 2.481631e+000 -1.188007e+000 -2.123858e+000 -5.938227e-001 -6.655571e-001 -5.707547e-001 -1.975594e+000 1.094042e-001 1.455112e+000 -6.508802e-001 -9.439735e-002 3.139544e-001 8.092256e-002 -9.980787e-002 -1.468098e-001 6.583840e-001 6.298966e-001 -3.856670e-001 -6.786008e-001 -2.808094e-001 3.661402e-001 3.085187e-002 -1.631167e-001
<VARIANCE> 39
 1.404583e+001 2.492937e+001 5.764141e+001 3.324766e+001 3.827406e+001 5.626416e+001 4.633377e+001 4.594250e+001 5.658167e+001 6.490122e+001 2.074089e+001 2.989981e+001 1.376507e+001 3.516217e-001 1.087518e+000 1.047145e+000 1.565424e+000 1.698346e+000 4.231151e+000 2.365891e+000 3.974245e+000 4.823402e+000 2.907320e+000 2.670545e+000 1.745496e+000 3.061857e-001 5.691502e-002 1.205846e-001 2.863995e-001 2.708630e-001 3.356015e-001 3.653780e-001 3.435729e-001 5.058598e-001 5.648746e-001 8.811826e-001 5.123054e-001 4.827495e-001 3.892960e-002
<GCONST> 1.077077e+002
<STATE> 3
<MEAN> 39
 -6.140447e+000 1.767292e+000 6.952440e+000 1.676408e+000 -1.394790e+001 -1.962819e+001 -7.015392e+000 -7.752007e+000 -4.284560e+000 -2.703166e+000 -1.688296e+000 1.250110e+000 7.130663e+001 -7.509280e-001 1.361552e+000 1.079463e+000 9.511040e-001 7.410289e-002 5.420544e-001 1.114051e+000 -9.129604e-001 -1.478971e+000 -6.497095e-001 -2.356461e-001 -1.193934e-001 -1.168447e+000 5.801159e-002 -2.100884e-001 -3.703099e-001 -3.368855e-001 3.569479e-001 1.695450e-001 5.241147e-002 3.659977e-001 3.173469e-001 3.565867e-001 -7.007561e-002 -2.911417e-001 -8.185754e-002
<VARIANCE> 39
 1.153151e+001 2.666053e+001 5.341515e+001 2.196823e+001 4.034533e+001 5.665320e+001 4.357686e+001 3.571976e+001 8.706071e+001 3.228426e+001 3.699728e+001 2.450430e+001 1.591809e+001 3.089158e-001 5.941990e-001 9.171374e-001 7.758196e-001 1.357458e+000 7.522963e-001 1.835144e+000 2.082981e+000 2.520853e+000 2.332135e+000 2.321180e+000 1.424563e+000 1.484297e-001 3.851232e-002 7.748756e-002 9.581598e-002 1.443492e-001 1.946908e-001 2.313201e-001 3.252922e-001 3.760271e-001 4.737220e-001 2.889686e-001 4.944903e-001 2.480469e-001 1.917443e-002
<GCONST> 9.412442e+001
<STATE> 4
<MEAN> 39
 -1.058204e+001 6.060159e+000 6.396211e+000 2.463111e+000 -7.061716e+000 -1.378811e+001 -1.600957e+000 -7.487561e+000 -5.679895e+000 -2.363648e+000 -1.716518e+000 -1.041716e+000 6.111428e+001 -2.800581e-001 -4.315318e-002 -3.828114e-001 -6.826340e-002 5.849026e-001 6.139327e-001 2.960398e-001 2.430959e-001 1.111985e-001 8.782615e-003 1.868781e-001 1.943672e-002 -1.110680e+000 3.553031e-002 -9.371904e-002 -8.344179e-002 -1.892217e-002 -4.889083e-003 1.274880e-002 -7.460415e-002 6.517626e-002 9.379290e-002 3.871685e-003 -1.247575e-002 6.744397e-002 4.889644e-002
<VARIANCE> 39
 1.965897e+001 3.572482e+001 4.019140e+001 1.871170e+001 6.532997e+001 4.492005e+001 5.406450e+001 2.734778e+001 5.325098e+001 3.503050e+001 3.621256e+001 2.508501e+001 3.326738e+001 4.060119e-001 6.287006e-001 9.899723e-001 5.858667e-001 1.330923e+000 1.279042e+000 1.642365e+000 1.800343e+000 1.806032e+000 1.539617e+000 1.640023e+000 1.214458e+000 2.558493e-001 6.804099e-002 8.754771e-002 1.421473e-001 1.154470e-001 2.045622e-001 2.068379e-001 2.655131e-001 3.132352e-001 3.132898e-001 2.511444e-001 3.037682e-001 2.569980e-001 1.984798e-002
<GCONST> 9.414458e+001
<TRANSP> 5
 0.000000e+000 1.000000e+000 0.000000e+000 0.000000e+000 0.000000e+000
 0.000000e+000 7.952140e-001 2.047860e-001 0.000000e+000 0.000000e+000
 0.000000e+000 0.000000e+000 7.728871e-001 2.271129e-001 0.000000e+000
 0.000000e+000 0.000000e+000 0.000000e+000 9.188783e-001 8.112175e-002
 0.000000e+000 0.000000e+000 0.000000e+000 0.000000e+000 0.000000e+000
<ENDHMM>
~h "ao"
<BEGINHMM>
<NUMSTATES> 5
<STATE> 2
<MEAN> 39
 -9.720537e-001 -5.346477e+000 -1.027182e+001 -1.821012e+001 -1.586624e+001 -4.924931e+000 6.976372e+000 4.790179e+000 -7.432571e+000 -3.930718e+000 -3.602661e+000 -3.188321e+000 7.744844e+001 2.671673e-001 4.068254e-001 2.252020e-001 -3.846278e-001 -6.841373e-001 -1.855368e-001 -1.251813e-001 -1.806217e-001 1.207261e-001 2.429444e-001 -3.312580e-001 -5.066583e-002 -4.625313e-001 5.559537e-002 1.989278e-001 6.211868e-002 -5.112382e-004 -3.546521e-002 -6.092716e-002 -1.881881e-002 -1.255395e-001 6.964125e-002 1.202614e-001 -4.027057e-002 8.143083e-003 -1.531293e-001
<VARIANCE> 39
 6.805278e+000 3.327049e+001 1.350844e+001 1.638031e+001 3.099829e+001 3.383889e+001 4.429133e+001 4.501838e+001 5.395326e+001 4.560118e+001 2.472902e+001 1.938317e+001 1.794175e+001 5.160024e-001 1.101466e+000 4.629306e-001 1.180534e+000 1.419822e+000 1.841593e+000 1.897033e+000 2.072546e+000 3.004010e+000 2.156612e+000 1.218618e+000 1.358707e+000 8.884915e-001 8.287784e-002 1.095648e-001 7.993726e-002 2.125754e-001 2.633044e-001 3.649864e-001 3.271043e-001 3.185937e-001 5.143989e-001 3.219774e-001 2.656930e-001 2.240112e-001 7.002346e-002
<GCONST> 9.667678e+001
<STATE> 3
<MEAN> 39
 3.202596e+000 1.384643e+000 -6.165671e+000 -2.118112e+001 -2.097732e+001 -3.861713e+000 6.810350e+000 5.929245e-001 -4.450998e+000 1.336942e+000 -5.247903e+000 -3.051602e+000 6.953959e+001 2.695653e-002 8.312786e-001 3.156849e-001 2.387621e-002 -4.808589e-001 -6.715170e-001 -1.559888e-001 -1.776745e-001 2.858946e-001 2.225229e-001 -1.508106e-001 -1.407218e-001 -7.012746e-001 -5.792476e-002 2.585670e-002 -1.191254e-002 9.380595e-002 9.040527e-002 -4.760367e-002 -1.222734e-001 3.956586e-002 6.456123e-002 -7.930069e-002 1.224450e-002 1.504381e-002 -1.718264e-002
<VARIANCE> 39
 7.700330e+000 1.989121e+001 2.191323e+001 1.180168e+001 4.514310e+001 5.201202e+001 3.084470e+001 6.883857e+001 7.638131e+001 3.199833e+001 2.733971e+001 2.862072e+001 2.573109e+001 1.686666e-001 7.652485e-001 5.849096e-001 6.346402e-001 1.145381e+000 1.548696e+000 1.640375e+000 1.632543e+000 1.494573e+000 1.333206e+000 1.051930e+000 9.302663e-001 2.869932e-001 3.973342e-002 1.149322e-001 1.108457e-001 1.070337e-001 2.587844e-001 2.627830e-001 3.011174e-001 2.562203e-001 3.047619e-001 2.578435e-001 1.951210e-001 2.153810e-001 3.974515e-002
<GCONST> 8.932529e+001
<STATE> 4
<MEAN> 39
 -2.729116e-001 8.663321e+000 -3.839239e+000 -1.477144e+001 -1.780024e+001 -8.460485e+000 1.441856e+000 -3.548686e-001 -1.740866e+000 1.412121e+000 -3.660167e+000 -2.381906e+000 6.018461e+001 -5.663347e-001 5.624681e-002 5.662712e-002 8.419387e-001 8.416499e-001 7.752034e-002 -3.278708e-001 2.176718e-002 2.252018e-001 -7.357968e-002 2.996765e-001 3.402585e-001 -8.953642e-001 -5.759714e-002 -1.284849e-001 -8.158339e-003 4.559321e-002 1.099598e-001 9.494736e-002 4.897920e-002 2.248854e-002 1.027924e-002 4.364566e-003 5.696981e-002 4.406247e-002 2.998039e-002
<VARIANCE> 39
 1.474902e+001 1.848795e+001 2.548817e+001 3.238475e+001 4.342295e+001 4.147095e+001 4.721275e+001 3.441609e+001 3.823392e+001 2.483681e+001 2.868120e+001 2.768666e+001 4.886765e+001 3.722759e-001 7.785071e-001 6.031509e-001 1.057940e+000 1.554699e+000 1.306552e+000 1.361109e+000 1.776460e+000 2.142862e+000 1.696795e+000 1.543491e+000 1.376783e+000 2.653168e-001 5.226688e-002 1.088578e-001 9.612887e-002 1.801420e-001 2.096758e-001 2.137827e-001 2.215367e-001 3.077335e-001 3.847699e-001 3.229607e-001 2.588204e-001 2.589769e-001 3.243581e-002
<GCONST> 9.370231e+001
<TRANSP> 5
 0.000000e+000 1.000000e+000 0.000000e+000 0.000000e+000 0.000000e+000
 0.000000e+000 8.478783e-001 1.521217e-001 0.000000e+000 0.000000e+000
 0.000000e+000 0.000000e+000 8.736795e-001 1.263205e-001 0.000000e+000
 0.000000e+000 0.000000e+000 0.000000e+000 9.302394e-001 6.976063e-002
 0.000000e+000 0.000000e+000 0.000000e+000 0.000000e+000 0.000000e+000
<ENDHMM>
~h "au"
<BEGINHMM>
<NUMSTATES> 5
<STATE> 2
<MEAN> 39
 4.310278e-003 -2.985413e+000 -7.684532e+000 -1.497251e+001 -1.452687e+001 -4.070009e+000 -1.230014e-001 -8.068036e+000 -5.491288e+000 4.582185e+000 4.778664e+000 2.853212e-001 7.475791e+001 1.881945e-001 6.760511e-001 2.304451e-001 8.231031e-001 -4.340290e-001 -6.179820e-001 -8.542177e-001 -1.682363e+000 -5.685558e-001 -3.016124e-001 5.259969e-001 5.826370e-001 -5.160654e-001 4.424094e-002 2.129532e-001 8.843052e-003 1.803723e-001 1.073862e-001 -1.294188e-002 1.302096e-001 -1.104178e-001 -1.061083e-001 -3.389542e-001 -7.678313e-002 4.304787e-002 -1.483117e-001
<VARIANCE> 39
 8.251180e+000 3.556592e+001 2.846034e+001 2.423932e+001 2.966691e+001 6.968465e+001 3.558955e+001 5.745285e+001 6.603464e+001 6.432248e+001 2.599234e+001 3.237123e+001 2.090828e+001 3.633068e-001 9.192306e-001 7.199696e-001 1.183277e+000 1.364941e+000 2.281581e+000 2.198154e+000 1.991767e+000 2.714921e+000 2.369434e+000 1.854262e+000 1.928470e+000 3.495966e-001 5.713968e-002 8.804039e-002 1.266730e-001 1.891804e-001 1.825349e-001 3.776769e-001 2.937461e-001 3.909662e-001 3.739969e-001 3.155906e-001 3.432289e-001 2.997014e-001 2.620867e-002
<GCONST> 9.880714e+001
<STATE> 3
<MEAN> 39
 1.715299e+000 4.372522e+000 -5.458621e+000 -8.373343e+000 -1.417420e+001 -8.786079e+000 -3.251504e+000 -1.682181e+001 -1.181317e+001 -1.292624e+000 3.834652e+000 2.775890e+000 6.943351e+001 8.311561e-002 1.352885e+000 5.502233e-001 6.109551e-001 5.075002e-001 -6.414375e-002 -5.587444e-002 -3.914635e-001 -8.042700e-001 -1.339468e+000 -7.429086e-001 4.113439e-002 -1.231712e+000 -9.255653e-002 -2.709897e-002 4.323560e-002 -8.199509e-002 7.930502e-002 1.450872e-001 5.165012e-002 3.681511e-001 1.376504e-001 8.622923e-002 -1.929967e-001 -2.008747e-001 -5.775869e-002
<VARIANCE> 39
 1.202375e+001 2.549765e+001 2.456953e+001 3.107527e+001 4.241010e+001 3.927155e+001 3.635479e+001 6.457663e+001 9.655283e+001 4.846209e+001 2.497739e+001 3.305631e+001 2.553535e+001 2.711577e-001 8.682969e-001 7.335762e-001 1.590022e+000 1.334630e+000 1.467219e+000 1.704156e+000 2.507762e+000 2.030816e+000 1.523510e+000 2.453036e+000 1.617422e+000 2.047283e-001 3.739771e-002 9.210513e-002 1.465205e-001 2.380367e-001 2.623872e-001 2.181118e-001 3.433063e-001 3.234923e-001 4.038033e-001 2.576725e-001 3.522500e-001 2.757095e-001 2.024043e-002
<GCONST> 9.680037e+001
<STATE> 4
<MEAN> 39
 -1.982358e+000 1.135220e+001 -1.008635e+000 -3.702579e+000 -7.460821e+000 -5.964666e+000 -2.851560e+000 -1.132147e+001 -8.662915e+000 -6.764961e+000 -2.727295e+000 -1.735488e-001 5.874791e+001 -5.801123e-001 -9.781881e-002 1.462783e-001 4.228012e-001 6.411632e-001 2.177780e-001 -3.608296e-002 6.664596e-001 4.834308e-001 2.293431e-002 -2.719502e-001 -1.870599e-001 -9.152972e-001 -5.197905e-002 -1.637789e-001 -4.512640e-002 -2.861268e-002 1.622661e-002 8.658143e-003 4.483174e-003 3.923479e-002 7.112076e-002 1.381107e-001 1.347216e-001 7.247218e-002 4.659643e-002
<VARIANCE> 39
 1.174647e+001 2.650857e+001 1.990656e+001 3.240521e+001 3.483103e+001 3.046716e+001 3.711164e+001 4.208944e+001 5.875340e+001 3.340698e+001 3.910137e+001 3.234223e+001 3.252351e+001 2.854070e-001 8.438884e-001 6.259007e-001 8.630759e-001 1.177035e+000 1.330218e+000 2.038799e+000 1.731624e+000 2.136742e+000 2.047117e+000 1.741743e+000 1.780796e+000 2.535446e-001 3.400577e-002 9.951146e-002 9.903660e-002 1.374242e-001 1.800802e-001 2.253775e-001 3.325444e-001 3.168473e-001 3.587072e-001 3.349244e-001 3.090145e-001 3.027069e-001 2.244470e-002
<GCONST> 9.359544e+001
<TRANSP> 5
 0.000000e+000 1.000000e+000 0.000000e+000 0.000000e+000 0.000000e+000
 0.000000e+000 8.304347e-001 1.695653e-001 0.000000e+000 0.000000e+000
 0.000000e+000 0.000000e+000 8.281050e-001 1.718950e-001 0.000000e+000
 0.000000e+000 0.000000e+000 0.000000e+000 9.247838e-001 7.521614e-002
 0.000000e+000 0.000000e+000 0.000000e+000 0.000000e+000 0.000000e+000
<ENDHMM>
~h "e:"
<BEGINHMM>
<NUMSTATES> 5
<STATE> 2
<MEAN> 39
 -5.983108e+000 -1.420188e+000 9.587408e+000 7.858797e-001 -1.943569e+001 -2.374534e+001 -7.115972e+000 -6.716005e+000 -8.086428e+000 -5.861998e+000 -1.488378e+000 4.044075e+000 7.532167e+001 -2.049432e-002 -5.994219e-002 -1.741568e-002 -4.258272e-002 -2.032013e-002 -1.620477e-001 -2.462865e-002 4.307404e-002 1.092687e-001 4.164740e-005 -7.735344e-002 1.747542e-002 -8.739066e-002 -2.312138e-003 3.221184e-002 -2.414988e-002 -1.989972e-003 6.981710e-002 6.266540e-002 1.492864e-002 2.625614e-002 2.336253e-002 -8.193476e-003 3.049078e-003 -1.978456e-002 -3.918923e-002
<VARIANCE> 39
 8.920631e+000 4.576995e+001 3.235560e+001 1.806993e+001 5.462280e+001 4.029288e+001 3.022281e+001 3.204667e+001 3.257013e+001 3.799110e+001 4.298531e+001 2.612423e+001 9.949373e+000 8.825877e-002 3.010264e-001 3.218338e-001 5.509392e-001 8.217120e-001 7.748250e-001 8.658678e-001 7.458978e-001 8.582232e-001 7.328432e-001 8.412713e-001 7.052746e-001 1.132229e-001 1.713878e-002 5.146253e-002 6.006551e-002 9.916792e-002 1.408122e-001 1.677524e-001 1.627462e-001 1.401524e-001 1.687327e-001 1.409348e-001 1.617731e-001 1.274089e-001 1.590438e-002
<GCONST> 7.421922e+001
<STATE> 3
<MEAN> 39
 -4.386414e+000 -2.350972e-001 7.136922e+000 2.666861e-002 -1.889134e+001 -2.326639e+001 -7.108393e+000 -4.875420e+000 -2.875642e+000 -6.862399e+000 -3.019054e+000 1.729229e+000 7.125066e+001 -4.216575e-002 1.160934e-001 -1.479753e-001 -7.833948e-002 2.630851e-001 1.253010e-001 3.800173e-003 2.541463e-001 1.473724e-001 -1.500602e-002 -1.369784e-001 -9.904954e-002 -5.745190e-001 -1.218379e-002 1.149464e-002 -1.352248e-002 6.523625e-002 7.649636e-002 1.036630e-001 1.173128e-003 -4.203194e-003 -2.290149e-002 5.007911e-002 1.501260e-003 5.299955e-002 -8.487941e-002
<VARIANCE> 39
 1.377884e+001 2.425159e+001 2.722000e+001 2.054873e+001 9.306277e+001 4.400529e+001 2.362064e+001 4.463880e+001 6.143486e+001 2.920236e+001 4.469697e+001 2.890935e+001 9.988162e+000 2.181563e-001 4.766156e-001 5.751167e-001 1.075015e+000 1.187637e+000 8.207806e-001 1.736153e+000 1.146386e+000 1.961401e+000 1.448165e+000 1.480405e+000 1.052320e+000 1.698444e-001 3.313374e-002 8.264629e-002 1.024995e-001 2.071134e-001 2.251314e-001 1.750338e-001 2.971237e-001 2.377566e-001 3.795243e-001 2.551059e-001 2.649375e-001 2.213431e-001 2.947531e-002
<GCONST> 8.935215e+001
<STATE> 4
<MEAN> 39
 -6.962982e+000 3.774133e-001 5.606950e+000 9.963899e-001 -1.213413e+001 -1.954277e+001 -5.764637e+000 -2.467458e+000 -3.359258e+000 -3.788072e+000 -3.068568e+000 3.135518e+000 6.303778e+001 -1.808523e-001 1.022749e-001 -5.861645e-001 6.081160e-002 8.461740e-001 8.591515e-001 3.670283e-001 2.675756e-001 2.097899e-001 4.966245e-001 2.518937e-001 6.145294e-002 -1.217073e+000 -8.709763e-003 1.038739e-002 -7.319561e-002 -6.753948e-004 9.385532e-002 6.890561e-002 4.352306e-002 -5.907664e-003 -9.449978e-003 2.498785e-002 2.556262e-002 -4.451948e-002 -1.964031e-002
<VARIANCE> 39
 1.547713e+001 2.557059e+001 2.079908e+001 2.042584e+001 5.712594e+001 4.796425e+001 4.257627e+001 3.757883e+001 6.358565e+001 3.089706e+001 4.787355e+001 4.388593e+001 3.273168e+001 3.702078e-001 7.032318e-001 9.148934e-001 9.685234e-001 1.592327e+000 1.377210e+000 1.546998e+000 2.750852e+000 3.270415e+000 1.656215e+000 1.979527e+000 1.338969e+000 5.042227e-001 5.956022e-002 1.241807e-001 1.457787e-001 1.917573e-001 2.723374e-001 2.328890e-001 3.002485e-001 4.913720e-001 6.221831e-001 3.375843e-001 3.279128e-001 2.686953e-001 5.876331e-002
<GCONST> 1.004915e+002
<TRANSP> 5
 0.000000e+000 1.000000e+000 0.000000e+000 0.000000e+000 0.000000e+000
 0.000000e+000 9.317539e-001 6.824611e-002 0.000000e+000 0.000000e+000
 0.000000e+000 0.000000e+000 8.368884e-001 1.631116e-001 0.000000e+000
 0.000000e+000 0.000000e+000 0.000000e+000 8.816163e-001 1.183837e-001
 0.000000e+000 0.000000e+000 0.000000e+000 0.000000e+000 0.000000e+000
<ENDHMM>
~h "ea"
<BEGINHMM>
<NUMSTATES> 5
<STATE> 2
<MEAN> 39
 -5.404736e+000 2.474264e+000 3.122554e-001 -4.394701e+000 -9.639411e+000 -8.753761e+000 -1.066005e+000 -4.766325e+000 -3.743578e+000 -1.938833e+000 -1.992863e+000 -4.559347e-003 6.495885e+001 2.450988e-002 1.302901e-002 1.918019e-002 3.316283e-003 -4.371658e-002 -7.306439e-002 -1.842394e-002 -2.444299e-002 -3.052467e-002 -2.393421e-002 -9.349622e-003 -1.425933e-002 -9.787142e-003 -5.396765e-003 4.690089e-003 -6.835332e-003 5.209368e-003 1.451201e-002 1.721763e-002 5.296492e-003 6.553777e-003 6.220506e-003 9.362569e-003 4.125166e-003 3.225525e-003 -2.743884e-002
<VARIANCE> 39
 3.864226e+001 5.281501e+001 7.391051e+001 8.135933e+001 7.677331e+001 9.463634e+001 5.724667e+001 6.897221e+001 6.326392e+001 4.839135e+001 3.680719e+001 3.395739e+001 8.727069e+001 1.372905e+000 1.793903e+000 1.710096e+000 2.409231e+000 2.706431e+000 2.777050e+000 2.585872e+000 2.606039e+000 2.707144e+000 2.455808e+000 2.104158e+000 1.735463e+000 2.419883e+000 1.985618e-001 2.764823e-001 2.480070e-001 3.283480e-001 3.897789e-001 4.118499e-001 4.453265e-001 4.204600e-001 4.511843e-001 4.197432e-001 3.712303e-001 3.108075e-001 2.378747e-001
<GCONST> 1.209395e+002
<STATE> 3
<MEAN> 39
 -5.404736e+000 2.474264e+000 3.122554e-001 -4.394701e+000 -9.639411e+000 -8.753761e+000 -1.066005e+000 -4.766325e+000 -3.743578e+000 -1.938833e+000 -1.992863e+000 -4.559347e-003 6.495885e+001 2.450988e-002 1.302901e-002 1.918019e-002 3.316283e-003 -4.371658e-002 -7.306439e-002 -1.842394e-002 -2.444299e-002 -3.052467e-002 -2.393421e-002 -9.349622e-003 -1.425933e-002 -9.787142e-003 -5.396765e-003 4.690089e-003 -6.835332e-003 5.209368e-003 1.451201e-002 1.721763e-002 5.296492e-003 6.553777e-003 6.220506e-003 9.362569e-003 4.125166e-003 3.225525e-003 -2.743884e-002
<VARIANCE> 39
 3.864226e+001 5.281501e+001 7.391051e+001 8.135933e+001 7.677331e+001 9.463634e+001 5.724667e+001 6.897221e+001 6.326392e+001 4.839135e+001 3.680719e+001 3.395739e+001 8.727069e+001 1.372905e+000 1.793903e+000 1.710096e+000 2.409231e+000 2.706431e+000 2.777050e+000 2.585872e+000 2.606039e+000 2.707144e+000 2.455808e+000 2.104158e+000 1.735463e+000 2.419883e+000 1.985618e-001 2.764823e-001 2.480070e-001 3.283480e-001 3.897789e-001 4.118499e-001 4.453265e-001 4.204600e-001 4.511843e-001 4.197432e-001 3.712303e-001 3.108075e-001 2.378747e-001
<GCONST> 1.209395e+002
<STATE> 4
<MEAN> 39
 -5.404736e+000 2.474264e+000 3.122554e-001 -4.394701e+000 -9.639411e+000 -8.753761e+000 -1.066005e+000 -4.766325e+000 -3.743578e+000 -1.938833e+000 -1.992863e+000 -4.559347e-003 6.495885e+001 2.450988e-002 1.302901e-002 1.918019e-002 3.316283e-003 -4.371658e-002 -7.306439e-002 -1.842394e-002 -2.444299e-002 -3.052467e-002 -2.393421e-002 -9.349622e-003 -1.425933e-002 -9.787142e-003 -5.396765e-003 4.690089e-003 -6.835332e-003 5.209368e-003 1.451201e-002 1.721763e-002 5.296492e-003 6.553777e-003 6.220506e-003 9.362569e-003 4.125166e-003 3.225525e-003 -2.743884e-002
<VARIANCE> 39
 3.864226e+001 5.281501e+001 7.391051e+001 8.135933e+001 7.677331e+001 9.463634e+001 5.724667e+001 6.897221e+001 6.326392e+001 4.839135e+001 3.680719e+001 3.395739e+001 8.727069e+001 1.372905e+000 1.793903e+000 1.710096e+000 2.409231e+000 2.706431e+000 2.777050e+000 2.585872e+000 2.606039e+000 2.707144e+000 2.455808e+000 2.104158e+000 1.735463e+000 2.419883e+000 1.985618e-001 2.764823e-001 2.480070e-001 3.283480e-001 3.897789e-001 4.118499e-001 4.453265e-001 4.204600e-001 4.511843e-001 4.197432e-001 3.712303e-001 3.108075e-001 2.378747e-001
<GCONST> 1.209395e+002
<TRANSP> 5
 0.000000e+000 1.000000e+000 0.000000e+000 0.000000e+000 0.000000e+000
 0.000000e+000 6.000000e-001 4.000000e-001 0.000000e+000 0.000000e+000
 0.000000e+000 0.000000e+000 6.000000e-001 4.000000e-001 0.000000e+000
 0.000000e+000 0.000000e+000 0.000000e+000 7.000000e-001 3.000000e-001
 0.000000e+000 0.000000e+000 0.000000e+000 0.000000e+000 0.000000e+000
<ENDHMM>
~h "ei"
<BEGINHMM>
<NUMSTATES> 5
<STATE> 2
<MEAN> 39
 -4.508253e+000 -3.137896e+000 6.330816e+000 -9.497952e-001 -1.640007e+001 -2.422188e+001 -6.915789e+000 -4.593334e+000 -3.919976e+000 -3.947510e+000 -1.090182e+000 3.221437e+000 7.456271e+001 -9.790955e-002 3.800221e-001 7.041118e-001 3.695443e-001 -3.968087e-001 -5.736479e-002 3.830037e-001 -6.217727e-001 -9.014003e-001 -4.907892e-001 9.676164e-002 -6.549448e-002 -3.504361e-001 -1.956307e-002 8.876493e-002 2.685884e-002 7.906773e-002 6.454388e-002 1.501714e-001 9.668903e-003 -8.587188e-002 -3.586805e-003 2.435824e-002 -4.307845e-002 -1.101544e-001 -7.876246e-002
<VARIANCE> 39
 6.429017e+000 2.976799e+001 2.529293e+001 2.613946e+001 5.668588e+001 3.846751e+001 2.600327e+001 4.668091e+001 5.784531e+001 3.729599e+001 2.769961e+001 1.902298e+001 1.095514e+001 1.802511e-001 4.286691e-001 8.997113e-001 9.405867e-001 1.157449e+000 1.301852e+000 1.175935e+000 1.780504e+000 8.678889e-001 1.516521e+000 1.058464e+000 1.338621e+000 2.411630e-001 2.514326e-002 5.885053e-002 1.387272e-001 1.541915e-001 1.623650e-001 1.728818e-001 2.228281e-001 2.474598e-001 1.764192e-001 2.839439e-001 2.030184e-001 2.371897e-001 2.585393e-002
<GCONST> 8.566015e+001
<STATE> 3
<MEAN> 39
 -6.597564e+000 2.529281e+000 1.296516e+001 2.211766e+000 -1.853206e+001 -1.994353e+001 -2.959242e+000 -9.278618e+000 -1.043174e+001 -6.224289e+000 -2.056192e+000 9.611987e-001 6.955960e+001 -1.908534e-001 6.197685e-001 5.070980e-001 9.713731e-002 3.464456e-001 6.408700e-001 3.584940e-001 -2.886262e-001 -3.507684e-001 -1.598028e-001 -3.042858e-001 -3.873666e-001 -8.037263e-001 8.259508e-003 -2.571503e-002 -9.244343e-002 -3.012554e-002 1.046936e-001 4.153418e-002 -8.208787e-002 8.992957e-002 2.727022e-002 1.764498e-002 -2.064113e-003 1.599495e-002 -3.988048e-002
<VARIANCE> 39
 7.964592e+000 2.355247e+001 3.114263e+001 1.831467e+001 5.566299e+001 3.830038e+001 1.593774e+001 4.349287e+001 5.980089e+001 4.160381e+001 3.364791e+001 3.586172e+001 1.545737e+001 1.317531e-001 3.886678e-001 6.946243e-001 8.433952e-001 1.251325e+000 1.099856e+000 8.843612e-001 1.556633e+000 1.222823e+000 1.225974e+000 7.574105e-001 1.060234e+000 1.539941e-001 2.408805e-002 5.389858e-002 1.065581e-001 1.400698e-001 2.296201e-001 2.277192e-001 1.753760e-001 2.852199e-001 2.039581e-001 2.214344e-001 1.646283e-001 1.922109e-001 1.658585e-002
<GCONST> 8.311631e+001
<STATE> 4
<MEAN> 39
 -9.057674e+000 7.244624e+000 1.274192e+001 4.359365e+000 -1.168349e+001 -1.084517e+001 -1.608285e+000 -1.023925e+001 -9.666265e+000 -6.611181e+000 -2.734442e+000 -1.422467e+000 6.053219e+001 -1.913154e-001 -1.458180e-001 -9.253457e-001 4.692234e-002 1.063869e+000 8.599310e-001 1.544928e-001 4.151487e-001 1.411352e-001 4.634749e-001 1.769902e-001 -2.674147e-002 -1.079178e+000 -3.201862e-002 -1.277166e-001 -1.327171e-001 -6.710358e-002 6.934781e-002 2.552459e-002 6.412139e-002 1.365883e-001 1.227927e-001 1.021976e-001 7.085175e-002 7.695121e-002 2.058580e-002
<VARIANCE> 39
 9.601399e+000 3.337373e+001 4.223638e+001 1.220094e+001 8.508416e+001 4.311953e+001 2.866232e+001 2.798480e+001 2.984532e+001 2.382744e+001 2.959598e+001 3.028361e+001 3.590532e+001 2.525848e-001 6.535724e-001 1.039262e+000 7.649665e-001 1.568574e+000 1.574185e+000 1.856368e+000 2.076345e+000 1.737481e+000 1.687398e+000 1.651101e+000 1.561700e+000 2.975358e-001 4.610939e-002 1.048180e-001 1.515571e-001 1.425481e-001 2.337839e-001 3.091832e-001 3.738526e-001 3.354507e-001 2.613287e-001 2.940421e-001 2.765876e-001 2.592099e-001 4.243005e-002
<GCONST> 9.433383e+001
<TRANSP> 5
 0.000000e+000 1.000000e+000 0.000000e+000 0.000000e+000 0.000000e+000
 0.000000e+000 8.750008e-001 1.249992e-001 0.000000e+000 0.000000e+000
 0.000000e+000 0.000000e+000 8.748507e-001 1.251493e-001 0.000000e+000
 0.000000e+000 0.000000e+000 0.000000e+000 9.025031e-001 9.749696e-002
 0.000000e+000 0.000000e+000 0.000000e+000 0.000000e+000 0.000000e+000
<ENDHMM>
~h "eo"
<BEGINHMM>
<NUMSTATES> 5
<STATE> 2
<MEAN> 39
 -5.404736e+000 2.474264e+000 3.122554e-001 -4.394701e+000 -9.639411e+000 -8.753761e+000 -1.066005e+000 -4.766325e+000 -3.743578e+000 -1.938833e+000 -1.992863e+000 -4.559347e-003 6.495885e+001 2.450988e-002 1.302901e-002 1.918019e-002 3.316283e-003 -4.371658e-002 -7.306439e-002 -1.842394e-002 -2.444299e-002 -3.052467e-002 -2.393421e-002 -9.349622e-003 -1.425933e-002 -9.787142e-003 -5.396765e-003 4.690089e-003 -6.835332e-003 5.209368e-003 1.451201e-002 1.721763e-002 5.296492e-003 6.553777e-003 6.220506e-003 9.362569e-003 4.125166e-003 3.225525e-003 -2.743884e-002
<VARIANCE> 39
 3.864226e+001 5.281501e+001 7.391051e+001 8.135933e+001 7.677331e+001 9.463634e+001 5.724667e+001 6.897221e+001 6.326392e+001 4.839135e+001 3.680719e+001 3.395739e+001 8.727069e+001 1.372905e+000 1.793903e+000 1.710096e+000 2.409231e+000 2.706431e+000 2.777050e+000 2.585872e+000 2.606039e+000 2.707144e+000 2.455808e+000 2.104158e+000 1.735463e+000 2.419883e+000 1.985618e-001 2.764823e-001 2.480070e-001 3.283480e-001 3.897789e-001 4.118499e-001 4.453265e-001 4.204600e-001 4.511843e-001 4.197432e-001 3.712303e-001 3.108075e-001 2.378747e-001
<GCONST> 1.209395e+002
<STATE> 3
<MEAN> 39
 -5.404736e+000 2.474264e+000 3.122554e-001 -4.394701e+000 -9.639411e+000 -8.753761e+000 -1.066005e+000 -4.766325e+000 -3.743578e+000 -1.938833e+000 -1.992863e+000 -4.559347e-003 6.495885e+001 2.450988e-002 1.302901e-002 1.918019e-002 3.316283e-003 -4.371658e-002 -7.306439e-002 -1.842394e-002 -2.444299e-002 -3.052467e-002 -2.393421e-002 -9.349622e-003 -1.425933e-002 -9.787142e-003 -5.396765e-003 4.690089e-003 -6.835332e-003 5.209368e-003 1.451201e-002 1.721763e-002 5.296492e-003 6.553777e-003 6.220506e-003 9.362569e-003 4.125166e-003 3.225525e-003 -2.743884e-002
<VARIANCE> 39
 3.864226e+001 5.281501e+001 7.391051e+001 8.135933e+001 7.677331e+001 9.463634e+001 5.724667e+001 6.897221e+001 6.326392e+001 4.839135e+001 3.680719e+001 3.395739e+001 8.727069e+001 1.372905e+000 1.793903e+000 1.710096e+000 2.409231e+000 2.706431e+000 2.777050e+000 2.585872e+000 2.606039e+000 2.707144e+000 2.455808e+000 2.104158e+000 1.735463e+000 2.419883e+000 1.985618e-001 2.764823e-001 2.480070e-001 3.283480e-001 3.897789e-001 4.118499e-001 4.453265e-001 4.204600e-001 4.511843e-001 4.197432e-001 3.712303e-001 3.108075e-001 2.378747e-001
<GCONST> 1.209395e+002
<STATE> 4
<MEAN> 39
 -5.404736e+000 2.474264e+000 3.122554e-001 -4.394701e+000 -9.639411e+000 -8.753761e+000 -1.066005e+000 -4.766325e+000 -3.743578e+000 -1.938833e+000 -1.992863e+000 -4.559347e-003 6.495885e+001 2.450988e-002 1.302901e-002 1.918019e-002 3.316283e-003 -4.371658e-002 -7.306439e-002 -1.842394e-002 -2.444299e-002 -3.052467e-002 -2.393421e-002 -9.349622e-003 -1.425933e-002 -9.787142e-003 -5.396765e-003 4.690089e-003 -6.835332e-003 5.209368e-003 1.451201e-002 1.721763e-002 5.296492e-003 6.553777e-003 6.220506e-003 9.362569e-003 4.125166e-003 3.225525e-003 -2.743884e-002
<VARIANCE> 39
 3.864226e+001 5.281501e+001 7.391051e+001 8.135933e+001 7.677331e+001 9.463634e+001 5.724667e+001 6.897221e+001 6.326392e+001 4.839135e+001 3.680719e+001 3.395739e+001 8.727069e+001 1.372905e+000 1.793903e+000 1.710096e+000 2.409231e+000 2.706431e+000 2.777050e+000 2.585872e+000 2.606039e+000 2.707144e+000 2.455808e+000 2.104158e+000 1.735463e+000 2.419883e+000 1.985618e-001 2.764823e-001 2.480070e-001 3.283480e-001 3.897789e-001 4.118499e-001 4.453265e-001 4.204600e-001 4.511843e-001 4.197432e-001 3.712303e-001 3.108075e-001 2.378747e-001
<GCONST> 1.209395e+002
<TRANSP> 5
 0.000000e+000 1.000000e+000 0.000000e+000 0.000000e+000 0.000000e+000
 0.000000e+000 6.000000e-001 4.000000e-001 0.000000e+000 0.000000e+000
 0.000000e+000 0.000000e+000 6.000000e-001 4.000000e-001 0.000000e+000
 0.000000e+000 0.000000e+000 0.000000e+000 7.000000e-001 3.000000e-001
 0.000000e+000 0.000000e+000 0.000000e+000 0.000000e+000 0.000000e+000
<ENDHMM>
~h "eu"
<BEGINHMM>
<NUMSTATES> 5
<STATE> 2
<MEAN> 39
 -5.404736e+000 2.474264e+000 3.122554e-001 -4.394701e+000 -9.639411e+000 -8.753761e+000 -1.066005e+000 -4.766325e+000 -3.743578e+000 -1.938833e+000 -1.992863e+000 -4.559347e-003 6.495885e+001 2.450988e-002 1.302901e-002 1.918019e-002 3.316283e-003 -4.371658e-002 -7.306439e-002 -1.842394e-002 -2.444299e-002 -3.052467e-002 -2.393421e-002 -9.349622e-003 -1.425933e-002 -9.787142e-003 -5.396765e-003 4.690089e-003 -6.835332e-003 5.209368e-003 1.451201e-002 1.721763e-002 5.296492e-003 6.553777e-003 6.220506e-003 9.362569e-003 4.125166e-003 3.225525e-003 -2.743884e-002
<VARIANCE> 39
 3.864226e+001 5.281501e+001 7.391051e+001 8.135933e+001 7.677331e+001 9.463634e+001 5.724667e+001 6.897221e+001 6.326392e+001 4.839135e+001 3.680719e+001 3.395739e+001 8.727069e+001 1.372905e+000 1.793903e+000 1.710096e+000 2.409231e+000 2.706431e+000 2.777050e+000 2.585872e+000 2.606039e+000 2.707144e+000 2.455808e+000 2.104158e+000 1.735463e+000 2.419883e+000 1.985618e-001 2.764823e-001 2.480070e-001 3.283480e-001 3.897789e-001 4.118499e-001 4.453265e-001 4.204600e-001 4.511843e-001 4.197432e-001 3.712303e-001 3.108075e-001 2.378747e-001
<GCONST> 1.209395e+002
<STATE> 3
<MEAN> 39
 -5.404736e+000 2.474264e+000 3.122554e-001 -4.394701e+000 -9.639411e+000 -8.753761e+000 -1.066005e+000 -4.766325e+000 -3.743578e+000 -1.938833e+000 -1.992863e+000 -4.559347e-003 6.495885e+001 2.450988e-002 1.302901e-002 1.918019e-002 3.316283e-003 -4.371658e-002 -7.306439e-002 -1.842394e-002 -2.444299e-002 -3.052467e-002 -2.393421e-002 -9.349622e-003 -1.425933e-002 -9.787142e-003 -5.396765e-003 4.690089e-003 -6.835332e-003 5.209368e-003 1.451201e-002 1.721763e-002 5.296492e-003 6.553777e-003 6.220506e-003 9.362569e-003 4.125166e-003 3.225525e-003 -2.743884e-002
<VARIANCE> 39
 3.864226e+001 5.281501e+001 7.391051e+001 8.135933e+001 7.677331e+001 9.463634e+001 5.724667e+001 6.897221e+001 6.326392e+001 4.839135e+001 3.680719e+001 3.395739e+001 8.727069e+001 1.372905e+000 1.793903e+000 1.710096e+000 2.409231e+000 2.706431e+000 2.777050e+000 2.585872e+000 2.606039e+000 2.707144e+000 2.455808e+000 2.104158e+000 1.735463e+000 2.419883e+000 1.985618e-001 2.764823e-001 2.480070e-001 3.283480e-001 3.897789e-001 4.118499e-001 4.453265e-001 4.204600e-001 4.511843e-001 4.197432e-001 3.712303e-001 3.108075e-001 2.378747e-001
<GCONST> 1.209395e+002
<STATE> 4
<MEAN> 39
 -5.404736e+000 2.474264e+000 3.122554e-001 -4.394701e+000 -9.639411e+000 -8.753761e+000 -1.066005e+000 -4.766325e+000 -3.743578e+000 -1.938833e+000 -1.992863e+000 -4.559347e-003 6.495885e+001 2.450988e-002 1.302901e-002 1.918019e-002 3.316283e-003 -4.371658e-002 -7.306439e-002 -1.842394e-002 -2.444299e-002 -3.052467e-002 -2.393421e-002 -9.349622e-003 -1.425933e-002 -9.787142e-003 -5.396765e-003 4.690089e-003 -6.835332e-003 5.209368e-003 1.451201e-002 1.721763e-002 5.296492e-003 6.553777e-003 6.220506e-003 9.362569e-003 4.125166e-003 3.225525e-003 -2.743884e-002
<VARIANCE> 39
 3.864226e+001 5.281501e+001 7.391051e+001 8.135933e+001 7.677331e+001 9.463634e+001 5.724667e+001 6.897221e+001 6.326392e+001 4.839135e+001 3.680719e+001 3.395739e+001 8.727069e+001 1.372905e+000 1.793903e+000 1.710096e+000 2.409231e+000 2.706431e+000 2.777050e+000 2.585872e+000 2.606039e+000 2.707144e+000 2.455808e+000 2.104158e+000 1.735463e+000 2.419883e+000 1.985618e-001 2.764823e-001 2.480070e-001 3.283480e-001 3.897789e-001 4.118499e-001 4.453265e-001 4.204600e-001 4.511843e-001 4.197432e-001 3.712303e-001 3.108075e-001 2.378747e-001
<GCONST> 1.209395e+002
<TRANSP> 5
 0.000000e+000 1.000000e+000 0.000000e+000 0.000000e+000 0.000000e+000
 0.000000e+000 6.000000e-001 4.000000e-001 0.000000e+000 0.000000e+000
 0.000000e+000 0.000000e+000 6.000000e-001 4.000000e-001 0.000000e+000
 0.000000e+000 0.000000e+000 0.000000e+000 7.000000e-001 3.000000e-001
 0.000000e+000 0.000000e+000 0.000000e+000 0.000000e+000 0.000000e+000
<ENDHMM>
~h "i:"
<BEGINHMM>
<NUMSTATES> 5
<STATE> 2
<MEAN> 39
 -8.191157e+000 4.711458e+000 1.803560e+001 2.189003e+000 -1.569513e+001 -1.491973e+001 -8.947975e-001 -1.207612e+001 -1.361253e+001 -6.878204e+000 -5.580260e+000 -3.491189e-001 7.111694e+001 -2.726513e-002 1.897687e-001 2.036549e-001 1.894007e-001 1.414979e-002 2.345959e-001 1.820318e-001 6.818695e-003 1.443785e-001 1.750165e-001 2.475014e-001 -3.202773e-002 -2.596882e-001 -1.464871e-002 4.301686e-002 -4.755450e-002 2.670655e-002 1.344233e-001 2.448653e-002 -5.350382e-002 1.106132e-001 8.251406e-002 3.089059e-002 5.475041e-002 -9.987313e-003 -2.926611e-002
<VARIANCE> 39
 8.932349e+000 2.324087e+001 3.911801e+001 1.560480e+001 2.915007e+001 5.247361e+001 2.223874e+001 3.661122e+001 2.039513e+001 1.614069e+001 2.999405e+001 3.296323e+001 1.037441e+001 1.575166e-001 3.681513e-001 4.063582e-001 5.967630e-001 1.043705e+000 1.241301e+000 8.789449e-001 8.929601e-001 9.085465e-001 8.217519e-001 1.165299e+000 8.005738e-001 8.726367e-002 3.172852e-002 5.785070e-002 8.063912e-002 1.277285e-001 1.741402e-001 1.837769e-001 1.656981e-001 1.707045e-001 1.661136e-001 1.655877e-001 2.346146e-001 1.317976e-001 1.243600e-002
<GCONST> 7.610608e+001
<STATE> 3
<MEAN> 39
 -1.044880e+001 1.099066e+001 1.800783e+001 1.851725e+000 -1.004974e+001 -1.191097e+001 7.487088e-001 -1.089837e+001 -9.379711e+000 -4.559871e+000 -1.915913e+000 6.563544e-001 6.744992e+001 -8.492126e-002 3.615969e-001 -2.773592e-001 1.938434e-001 6.217144e-001 1.610792e-001 1.273116e-002 2.256959e-001 9.960285e-002 4.692031e-002 1.379679e-002 -1.004655e-001 -5.597122e-001 -1.764864e-002 -6.468444e-002 -7.476658e-002 -2.969602e-002 2.224165e-002 -5.289060e-003 1.423121e-002 -2.269119e-002 -5.861580e-002 -5.049179e-002 -5.777129e-002 -4.949731e-002 -4.771622e-002
<VARIANCE> 39
