~o
<STREAMINFO> 1 39
<VECSIZE> 39<NULLD><MFCC_D_A_0><DIAGC>
~h "N"
<BEGINHMM>
<NUMSTATES> 5
<STATE> 2
<MEAN> 39
 -4.153368e+000 1.517201e+000 -1.392376e+000 -5.586075e+000 -9.740211e+000 -8.098919e+000 -1.750134e+000 -4.930145e+000 -2.772430e+000 -2.149349e+000 -2.414108e+000 -1.465052e+000 6.529731e+001 2.300143e-002 1.509052e-002 1.401225e-002 6.290563e-003 -3.631655e-002 -5.298270e-002 -8.996384e-003 -1.725104e-002 -1.659047e-002 -1.542300e-002 -5.569575e-003 -1.004327e-002 -8.028411e-003 -5.385407e-003 7.687603e-003 -2.053345e-003 6.118431e-003 1.287798e-002 1.362365e-002 3.170662e-003 3.442815e-003 5.190067e-003 6.678457e-003 2.682982e-003 3.156542e-003 -2.769514e-002
<VARIANCE> 39
 3.821798e+001 5.290487e+001 6.815633e+001 7.505674e+001 8.069884e+001 9.922321e+001 5.842557e+001 6.155072e+001 5.897418e+001 4.395738e+001 3.820277e+001 3.717608e+001 7.774931e+001 1.322284e+000 1.757013e+000 1.593217e+000 2.179628e+000 2.557859e+000 2.732429e+000 2.388217e+000 2.481541e+000 2.572205e+000 2.280620e+000 2.045945e+000 1.732367e+000 2.160362e+000 1.858594e-001 2.637878e-001 2.274865e-001 3.046213e-001 3.726168e-001 3.977455e-001 4.053145e-001 4.021849e-001 4.302129e-001 3.929369e-001 3.596961e-001 3.057646e-001 2.198328e-001
<GCONST> 1.191859e+002
<STATE> 3
<MEAN> 39
 -4.153368e+000 1.517201e+000 -1.392376e+000 -5.586075e+000 -9.740211e+000 -8.098919e+000 -1.750134e+000 -4.930145e+000 -2.772430e+000 -2.149349e+000 -2.414108e+000 -1.465052e+000 6.529731e+001 2.300143e-002 1.509052e-002 1.401225e-002 6.290563e-003 -3.631655e-002 -5.298270e-002 -8.996384e-003 -1.725104e-002 -1.659047e-002 -1.542300e-002 -5.569575e-003 -1.004327e-002 -8.028411e-003 -5.385407e-003 7.687603e-003 -2.053345e-003 6.118431e-003 1.287798e-002 1.362365e-002 3.170662e-003 3.442815e-003 5.190067e-003 6.678457e-003 2.682982e-003 3.156542e-003 -2.769514e-002
<VARIANCE> 39
 3.821798e+001 5.290487e+001 6.815633e+001 7.505674e+001 8.069884e+001 9.922321e+001 5.842557e+001 6.155072e+001 5.897418e+001 4.395738e+001 3.820277e+001 3.717608e+001 7.774931e+001 1.322284e+000 1.757013e+000 1.593217e+000 2.179628e+000 2.557859e+000 2.732429e+000 2.388217e+000 2.481541e+000 2.572205e+000 2.280620e+000 2.045945e+000 1.732367e+000 2.160362e+000 1.858594e-001 2.637878e-001 2.274865e-001 3.046213e-001 3.726168e-001 3.977455e-001 4.053145e-001 4.021849e-001 4.302129e-001 3.929369e-001 3.596961e-001 3.057646e-001 2.198328e-001
<GCONST> 1.191859e+002
<STATE> 4
<MEAN> 39
 -4.153368e+000 1.517201e+000 -1.392376e+000 -5.586075e+000 -9.740211e+000 -8.098919e+000 -1.750134e+000 -4.930145e+000 -2.772430e+000 -2.149349e+000 -2.414108e+000 -1.465052e+000 6.529731e+001 2.300143e-002 1.509052e-002 1.401225e-002 6.290563e-003 -3.631655e-002 -5.298270e-002 -8.996384e-003 -1.725104e-002 -1.659047e-002 -1.542300e-002 -5.569575e-003 -1.004327e-002 -8.028411e-003 -5.385407e-003 7.687603e-003 -2.053345e-003 6.118431e-003 1.287798e-002 1.362365e-002 3.170662e-003 3.442815e-003 5.190067e-003 6.678457e-003 2.682982e-003 3.156542e-003 -2.769514e-002
<VARIANCE> 39
 3.821798e+001 5.290487e+001 6.815633e+001 7.505674e+001 8.069884e+001 9.922321e+001 5.842557e+001 6.155072e+001 5.897418e+001 4.395738e+001 3.820277e+001 3.717608e+001 7.774931e+001 1.322284e+000 1.757013e+000 1.593217e+000 2.179628e+000 2.557859e+000 2.732429e+000 2.388217e+000 2.481541e+000 2.572205e+000 2.280620e+000 2.045945e+000 1.732367e+000 2.160362e+000 1.858594e-001 2.637878e-001 2.274865e-001 3.046213e-001 3.726168e-001 3.977455e-001 4.053145e-001 4.021849e-001 4.302129e-001 3.929369e-001 3.596961e-001 3.057646e-001 2.198328e-001
<GCONST> 1.191859e+002
<TRANSP> 5
 0.000000e+000 1.000000e+000 0.000000e+000 0.000000e+000 0.000000e+000
 0.000000e+000 6.000000e-001 4.000000e-001 0.000000e+000 0.000000e+000
 0.000000e+000 0.000000e+000 6.000000e-001 4.000000e-001 0.000000e+000
 0.000000e+000 0.000000e+000 0.000000e+000 7.000000e-001 3.000000e-001
 0.000000e+000 0.000000e+000 0.000000e+000 0.000000e+000 0.000000e+000
<ENDHMM>
~h "a"
<BEGINHMM>
<NUMSTATES> 5
<STATE> 2
<MEAN> 39
 4.027855e-001 -4.224877e+000 -9.774859e+000 -1.097170e+001 -5.619864e+000 -3.822467e+000 -1.090579e+000 -6.903504e+000 2.498013e+000 5.604772e+000 -4.084175e+000 -5.568024e+000 7.285217e+001 -7.116136e-001 5.956481e-001 9.140345e-001 1.542992e+000 7.425588e-001 -1.276115e+000 -1.411532e+000 8.495202e-001 9.919776e-001 9.152118e-001 9.619867e-001 -2.139058e-001 -1.128524e+000 -1.540074e-001 7.138012e-001 4.215644e-001 3.226377e-001 -1.399693e-002 -1.027857e-002 -1.709934e-002 1.345394e-001 -4.427653e-001 -6.268514e-001 1.094861e-001 9.846222e-002 -9.422991e-001
<VARIANCE> 39
 8.198990e+000 2.566966e+001 4.171697e+001 5.170956e+001 5.767265e+001 5.008961e+001 4.605187e+001 4.049569e+001 2.674555e+001 2.315918e+001 6.650508e+001 5.249068e+001 2.511654e+001 5.779360e-001 3.521295e+000 1.617234e+000 3.451929e+000 2.436971e+000 2.765850e+000 3.031851e+000 2.137707e+000 3.965041e+000 3.496169e+000 3.225430e+000 3.046160e+000 3.363939e+000 1.125898e-001 6.958510e-001 5.216262e-001 1.261825e+000 5.724441e-001 7.037191e-001 6.903704e-001 5.018379e-001 5.820304e-001 4.827386e-001 7.175968e-001 4.676174e-001 3.716687e-001
<GCONST> 1.220620e+002
<STATE> 3
<MEAN> 39
 -2.892336e+000 -3.710553e-001 -7.341361e+000 -7.722276e+000 -3.880737e+000 -5.893520e+000 -3.396883e+000 -4.299536e+000 2.363756e+000 4.419169e+000 -1.160050e+000 -6.062689e+000 6.411504e+001 -9.157345e-001 4.330024e-001 4.679244e-001 2.444013e-001 2.142962e-001 5.275826e-002 -3.821846e-002 7.243886e-001 -1.728444e-001 -2.899282e-001 5.370356e-001 2.089192e-001 -2.175858e+000 -3.749533e-003 -1.959593e-001 -2.068401e-001 -2.558305e-001 -6.961071e-002 2.392778e-001 1.835524e-001 -9.030081e-002 -1.655982e-001 -1.281798e-001 -1.287581e-001 1.312158e-001 1.537125e-001
<VARIANCE> 39
 1.163417e+001 1.386096e+001 2.997391e+001 2.187668e+001 3.787173e+001 3.147126e+001 2.959722e+001 2.684711e+001 2.840560e+001 2.309980e+001 3.538078e+001 3.679008e+001 3.108839e+001 7.473142e-001 1.660454e+000 1.594446e+000 2.073637e+000 2.137975e+000 2.574563e+000 2.667864e+000 2.032575e+000 2.427420e+000 1.508339e+000 1.660398e+000 1.375923e+000 1.717368e+000 1.408634e-001 2.513454e-001 2.938954e-001 4.106370e-001 3.513423e-001 4.571693e-001 5.719113e-001 3.817460e-001 6.005298e-001 3.605551e-001 2.915993e-001 3.591256e-001 3.220842e-001
<GCONST> 1.078489e+002
<STATE> 4
<MEAN> 39
 -8.403297e+000 9.562389e-001 -5.633359e+000 -6.187249e+000 -3.013891e+000 -2.874929e+000 -1.915097e+000 -1.925890e+000 1.553698e+000 2.193753e+000 -5.099069e-001 -3.262729e+000 5.904932e+001 -1.019935e+000 7.233899e-002 5.300254e-001 -4.118110e-002 3.348534e-002 3.562455e-001 4.966222e-002 5.824209e-002 -1.572704e-001 -6.332186e-001 2.080500e-001 5.144964e-001 -2.969174e-001 -4.006650e-002 -1.265606e-001 7.436957e-002 -8.685180e-002 -1.543965e-001 -4.889794e-002 -1.787449e-002 -1.602387e-001 -3.795651e-003 -6.218680e-002 -8.027422e-002 -6.984906e-003 4.309151e-001
<VARIANCE> 39
 2.820540e+001 1.358272e+001 2.471579e+001 1.487784e+001 1.942396e+001 2.163103e+001 2.104271e+001 1.520805e+001 2.368149e+001 2.137780e+001 1.837931e+001 2.075086e+001 3.400095e+001 1.594015e+000 1.980568e+000 2.476806e+000 1.490722e+000 1.389965e+000 2.066397e+000 2.119737e+000 1.841922e+000 1.949839e+000 1.487600e+000 1.511784e+000 1.420254e+000 2.839190e+000 3.095492e-001 3.560814e-001 4.208007e-001 3.038809e-001 3.224818e-001 4.358289e-001 4.052991e-001 3.652034e-001 4.371083e-001 2.773535e-001 2.775847e-001 2.279634e-001 3.059574e-001
<GCONST> 1.045956e+002
<TRANSP> 5
 0.000000e+000 1.000000e+000 0.000000e+000 0.000000e+000 0.000000e+000
 0.000000e+000 6.867192e-001 3.132807e-001 0.000000e+000 0.000000e+000
 0.000000e+000 0.000000e+000 7.179140e-001 2.820859e-001 0.000000e+000
 0.000000e+000 0.000000e+000 0.000000e+000 8.571483e-001 1.428516e-001
 0.000000e+000 0.000000e+000 0.000000e+000 0.000000e+000 0.000000e+000
<ENDHMM>
~h "e"
<BEGINHMM>
<NUMSTATES> 5
<STATE> 2
<MEAN> 39
 -5.485103e+000 2.106830e+000 2.537252e+000 2.014934e+000 -1.115025e+001 -1.227946e+001 -5.171214e+000 -3.165890e+000 -1.121324e+000 -2.021930e+000 -2.493258e+000 -6.811064e-001 6.344714e+001 -1.604608e-001 -2.786163e-001 2.001352e-001 1.907176e-001 -8.287024e-001 -1.957567e-001 3.341830e-001 4.995396e-001 3.106738e-001 -3.746045e-002 -7.724629e-002 2.748180e-001 -3.947710e-002 -5.867910e-002 -1.236487e-001 -1.062035e-001 -1.129906e-001 2.700567e-003 1.386406e-001 7.308063e-002 -1.148271e-002 -3.162166e-002 -1.197964e-002 1.337064e-001 -2.989919e-003 7.683540e-003
<VARIANCE> 39
 2.269005e+001 2.501215e+001 4.596747e+001 4.196340e+001 6.451920e+001 7.447589e+001 4.842787e+001 4.114131e+001 5.279914e+001 3.125316e+001 3.908428e+001 3.584606e+001 4.591851e+001 1.561599e+000 1.531036e+000 2.131120e+000 1.763630e+000 4.424428e+000 3.462677e+000 3.147795e+000 2.488774e+000 3.576663e+000 2.527739e+000 2.224534e+000 2.158847e+000 1.849526e+000 2.405882e-001 3.040003e-001 3.592735e-001 3.768029e-001 7.023737e-001 6.095467e-001 4.808078e-001 5.865840e-001 7.312446e-001 4.489515e-001 4.115843e-001 4.452742e-001 3.196427e-001
<GCONST> 1.208270e+002
<STATE> 3
<MEAN> 39
 -5.529802e+000 1.022113e+000 3.965502e+000 2.064858e+000 -1.394614e+001 -1.412245e+001 -3.858619e+000 -1.740618e+000 8.474602e-002 -2.403456e+000 -2.147799e+000 8.991340e-002 6.507997e+001 -1.224935e-001 -1.112557e-001 -4.915644e-002 1.522254e-001 -1.579773e-001 9.727533e-002 4.409863e-001 4.682230e-001 -1.668581e-002 9.843538e-002 3.310709e-001 5.730934e-002 -4.677503e-001 -7.010350e-002 -2.284022e-002 -1.517997e-001 -5.513054e-002 3.721117e-001 2.063781e-001 5.178019e-002 -1.373378e-001 -8.158463e-002 3.614999e-002 7.223915e-002 -5.781648e-002 -1.758797e-001
<VARIANCE> 39
 1.818915e+001 2.351944e+001 4.648524e+001 4.851504e+001 5.901914e+001 6.662202e+001 6.510487e+001 4.763218e+001 4.564902e+001 2.654038e+001 4.634301e+001 3.844358e+001 3.260428e+001 7.803846e-001 9.756018e-001 1.131843e+000 1.521778e+000 3.400243e+000 3.613664e+000 2.101690e+000 2.563250e+000 1.660285e+000 2.111654e+000 2.190896e+000 1.810884e+000 1.113941e+000 1.500556e-001 2.129322e-001 2.261785e-001 3.274057e-001 4.416120e-001 5.279626e-001 4.685247e-001 4.359712e-001 4.453259e-001 3.573037e-001 4.163620e-001 4.079167e-001 1.632393e-001
<GCONST> 1.125323e+002
<STATE> 4
<MEAN> 39
 -6.758707e+000 8.300929e-002 3.584861e+000 1.956611e+000 -1.276076e+001 -1.267383e+001 7.071043e-001 3.383776e-001 -3.854027e-001 -1.981482e+000 -1.294552e+000 -7.650924e-001 6.183869e+001 -2.106906e-001 -1.048599e-001 -3.852068e-001 -1.150491e-001 7.894759e-001 4.218619e-001 2.651863e-001 1.241719e-001 1.310815e-001 3.493285e-001 1.134278e-001 9.668172e-003 -7.936148e-001 -4.207547e-002 -2.549900e-002 -8.542823e-002 -5.265741e-002 1.880011e-001 1.066787e-001 -9.063629e-002 -6.809713e-002 4.434983e-002 3.224066e-002 -6.386656e-002 -2.042057e-003 -4.573435e-002
<VARIANCE> 39
 1.577823e+001 1.922466e+001 3.725363e+001 4.209410e+001 7.249288e+001 5.659256e+001 6.313568e+001 3.963328e+001 3.248803e+001 2.543516e+001 4.313958e+001 2.897884e+001 4.224070e+001 3.644211e-001 8.297386e-001 8.906806e-001 1.475903e+000 2.119211e+000 2.267270e+000 1.795216e+000 1.823016e+000 1.910094e+000 1.418209e+000 1.902258e+000 1.381904e+000 6.963189e-001 5.758875e-002 1.312599e-001 1.538276e-001 2.190798e-001 3.362735e-001 3.857161e-001 2.938272e-001 3.421958e-001 3.402924e-001 2.569533e-001 3.622122e-001 2.771241e-001 1.039345e-001
<GCONST> 1.023047e+002
<TRANSP> 5
 0.000000e+000 1.000000e+000 0.000000e+000 0.000000e+000 0.000000e+000
 0.000000e+000 4.506649e-001 5.493350e-001 0.000000e+000 0.000000e+000
 0.000000e+000 0.000000e+000 3.636433e-001 6.363568e-001 0.000000e+000
 0.000000e+000 0.000000e+000 0.000000e+000 7.826102e-001 2.173898e-001
 0.000000e+000 0.000000e+000 0.000000e+000 0.000000e+000 0.000000e+000
<ENDHMM>
~h "f"
<BEGINHMM>
<NUMSTATES> 5
<STATE> 2
<MEAN> 39
 -4.153368e+000 1.517201e+000 -1.392376e+000 -5.586075e+000 -9.740211e+000 -8.098919e+000 -1.750134e+000 -4.930145e+000 -2.772430e+000 -2.149349e+000 -2.414108e+000 -1.465052e+000 6.529731e+001 2.300143e-002 1.509052e-002 1.401225e-002 6.290563e-003 -3.631655e-002 -5.298270e-002 -8.996384e-003 -1.725104e-002 -1.659047e-002 -1.542300e-002 -5.569575e-003 -1.004327e-002 -8.028411e-003 -5.385407e-003 7.687603e-003 -2.053345e-003 6.118431e-003 1.287798e-002 1.362365e-002 3.170662e-003 3.442815e-003 5.190067e-003 6.678457e-003 2.682982e-003 3.156542e-003 -2.769514e-002
<VARIANCE> 39
 3.821798e+001 5.290487e+001 6.815633e+001 7.505674e+001 8.069884e+001 9.922321e+001 5.842557e+001 6.155072e+001 5.897418e+001 4.395738e+001 3.820277e+001 3.717608e+001 7.774931e+001 1.322284e+000 1.757013e+000 1.593217e+000 2.179628e+000 2.557859e+000 2.732429e+000 2.388217e+000 2.481541e+000 2.572205e+000 2.280620e+000 2.045945e+000 1.732367e+000 2.160362e+000 1.858594e-001 2.637878e-001 2.274865e-001 3.046213e-001 3.726168e-001 3.977455e-001 4.053145e-001 4.021849e-001 4.302129e-001 3.929369e-001 3.596961e-001 3.057646e-001 2.198328e-001
<GCONST> 1.191859e+002
<STATE> 3
<MEAN> 39
 -4.153368e+000 1.517201e+000 -1.392376e+000 -5.586075e+000 -9.740211e+000 -8.098919e+000 -1.750134e+000 -4.930145e+000 -2.772430e+000 -2.149349e+000 -2.414108e+000 -1.465052e+000 6.529731e+001 2.300143e-002 1.509052e-002 1.401225e-002 6.290563e-003 -3.631655e-002 -5.298270e-002 -8.996384e-003 -1.725104e-002 -1.659047e-002 -1.542300e-002 -5.569575e-003 -1.004327e-002 -8.028411e-003 -5.385407e-003 7.687603e-003 -2.053345e-003 6.118431e-003 1.287798e-002 1.362365e-002 3.170662e-003 3.442815e-003 5.190067e-003 6.678457e-003 2.682982e-003 3.156542e-003 -2.769514e-002
<VARIANCE> 39
 3.821798e+001 5.290487e+001 6.815633e+001 7.505674e+001 8.069884e+001 9.922321e+001 5.842557e+001 6.155072e+001 5.897418e+001 4.395738e+001 3.820277e+001 3.717608e+001 7.774931e+001 1.322284e+000 1.757013e+000 1.593217e+000 2.179628e+000 2.557859e+000 2.732429e+000 2.388217e+000 2.481541e+000 2.572205e+000 2.280620e+000 2.045945e+000 1.732367e+000 2.160362e+000 1.858594e-001 2.637878e-001 2.274865e-001 3.046213e-001 3.726168e-001 3.977455e-001 4.053145e-001 4.021849e-001 4.302129e-001 3.929369e-001 3.596961e-001 3.057646e-001 2.198328e-001
<GCONST> 1.191859e+002
<STATE> 4
<MEAN> 39
 -4.153368e+000 1.517201e+000 -1.392376e+000 -5.586075e+000 -9.740211e+000 -8.098919e+000 -1.750134e+000 -4.930145e+000 -2.772430e+000 -2.149349e+000 -2.414108e+000 -1.465052e+000 6.529731e+001 2.300143e-002 1.509052e-002 1.401225e-002 6.290563e-003 -3.631655e-002 -5.298270e-002 -8.996384e-003 -1.725104e-002 -1.659047e-002 -1.542300e-002 -5.569575e-003 -1.004327e-002 -8.028411e-003 -5.385407e-003 7.687603e-003 -2.053345e-003 6.118431e-003 1.287798e-002 1.362365e-002 3.170662e-003 3.442815e-003 5.190067e-003 6.678457e-003 2.682982e-003 3.156542e-003 -2.769514e-002
<VARIANCE> 39
 3.821798e+001 5.290487e+001 6.815633e+001 7.505674e+001 8.069884e+001 9.922321e+001 5.842557e+001 6.155072e+001 5.897418e+001 4.395738e+001 3.820277e+001 3.717608e+001 7.774931e+001 1.322284e+000 1.757013e+000 1.593217e+000 2.179628e+000 2.557859e+000 2.732429e+000 2.388217e+000 2.481541e+000 2.572205e+000 2.280620e+000 2.045945e+000 1.732367e+000 2.160362e+000 1.858594e-001 2.637878e-001 2.274865e-001 3.046213e-001 3.726168e-001 3.977455e-001 4.053145e-001 4.021849e-001 4.302129e-001 3.929369e-001 3.596961e-001 3.057646e-001 2.198328e-001
<GCONST> 1.191859e+002
<TRANSP> 5
 0.000000e+000 1.000000e+000 0.000000e+000 0.000000e+000 0.000000e+000
 0.000000e+000 6.000000e-001 4.000000e-001 0.000000e+000 0.000000e+000
 0.000000e+000 0.000000e+000 6.000000e-001 4.000000e-001 0.000000e+000
 0.000000e+000 0.000000e+000 0.000000e+000 7.000000e-001 3.000000e-001
 0.000000e+000 0.000000e+000 0.000000e+000 0.000000e+000 0.000000e+000
<ENDHMM>
~h "h"
<BEGINHMM>
<NUMSTATES> 5
<STATE> 2
<MEAN> 39
 -5.546121e+000 1.064783e+000 -4.014850e+000 -1.132221e+001 -1.077725e+001 -5.764655e+000 3.698835e+000 -2.535092e+000 -1.395324e-001 -1.975132e+000 -3.363883e+000 -1.510000e+000 6.760038e+001 1.454407e+000 8.597700e-001 6.065469e-001 -1.483789e-001 -1.486024e+000 -1.279248e+000 -7.490378e-001 -8.813098e-001 -6.014132e-001 -4.116449e-001 -3.394758e-001 1.084466e-002 1.371171e+000 1.174276e-002 -2.065762e-001 -6.380884e-002 2.427713e-002 -7.126109e-003 -3.166286e-002 -1.882353e-001 -4.754215e-002 -3.020762e-002 7.018550e-002 1.956668e-001 1.715890e-001 -3.905490e-002
<VARIANCE> 39
 5.397565e+001 6.416721e+001 6.901774e+001 8.294154e+001 8.446572e+001 7.989615e+001 5.027700e+001 5.611597e+001 5.546928e+001 3.058684e+001 3.293249e+001 3.092744e+001 3.073298e+001 2.414933e+000 3.771909e+000 2.150136e+000 3.051362e+000 4.026184e+000 3.327690e+000 3.229663e+000 3.689173e+000 2.922097e+000 2.021159e+000 2.592364e+000 2.137452e+000 1.343149e+000 5.095090e-001 6.700322e-001 3.774104e-001 4.655794e-001 6.661498e-001 6.205986e-001 5.486132e-001 6.358846e-001 4.993909e-001 3.828340e-001 4.963245e-001 3.924093e-001 2.078153e-001
<GCONST> 1.263644e+002
<STATE> 3
<MEAN> 39
 -8.524567e-002 1.764059e+000 -2.330464e+000 -1.035559e+001 -1.642129e+001 -1.081148e+001 -1.478122e+000 -6.055978e+000 -3.307252e+000 -3.093764e+000 -3.560995e+000 -4.974511e-001 7.227705e+001 3.746072e-001 -5.674545e-001 -7.174543e-002 -2.171611e-001 -7.593901e-001 -6.112169e-001 -9.940857e-001 -9.382361e-001 -5.172818e-001 8.479612e-002 9.276941e-001 6.681955e-001 7.162079e-001 -3.898818e-001 -2.020427e-001 -3.825413e-002 1.718400e-001 4.367575e-001 2.195911e-001 4.896713e-002 7.869346e-002 7.937695e-002 1.403318e-001 1.838919e-001 4.357275e-003 -3.154003e-001
<VARIANCE> 39
 2.513153e+001 5.659730e+001 7.747053e+001 7.628849e+001 6.102775e+001 9.040482e+001 4.460500e+001 4.957295e+001 5.674771e+001 3.257725e+001 3.697290e+001 4.287470e+001 2.551226e+001 8.727701e-001 1.954428e+000 1.595367e+000 1.952909e+000 3.603791e+000 2.672432e+000 3.420301e+000 2.728292e+000 2.721265e+000 1.992616e+000 2.383767e+000 2.204093e+000 1.034311e+000 1.769687e-001 4.366882e-001 3.328234e-001 3.892047e-001 5.562827e-001 5.355396e-001 5.867730e-001 5.866581e-001 5.931506e-001 4.252677e-001 5.286009e-001 4.470936e-001 1.621803e-001
<GCONST> 1.201002e+002
<STATE> 4
<MEAN> 39
 1.332056e-001 1.255439e+000 -2.770880e+000 -9.320133e+000 -1.605688e+001 -1.392713e+001 -2.708592e+000 -6.868709e+000 -4.252939e+000 -3.278027e+000 -1.418969e+000 4.911225e-001 7.238917e+001 -1.053935e-001 -3.376346e-001 1.504943e-001 2.187314e-001 -3.438913e-003 -2.979852e-001 -6.221482e-001 -5.349957e-001 -2.365855e-001 2.044772e-001 8.126980e-001 3.507712e-001 1.550231e-001 -1.302954e-001 3.450934e-002 5.462921e-002 1.898867e-001 2.626054e-001 4.878138e-002 -1.444123e-002 8.854216e-002 1.357905e-001 1.115466e-001 -7.623623e-002 -1.808162e-001 -1.484537e-001
<VARIANCE> 39
 2.125834e+001 4.851041e+001 8.554998e+001 7.694483e+001 6.237386e+001 1.019262e+002 5.808158e+001 5.899767e+001 5.258732e+001 3.432205e+001 3.633962e+001 4.823313e+001 1.934644e+001 3.170339e-001 1.192656e+000 1.330657e+000 1.204139e+000 2.502977e+000 2.141462e+000 3.100103e+000 2.457722e+000 2.260319e+000 2.191495e+000 2.717835e+000 1.933389e+000 5.356765e-001 8.059460e-002 1.990799e-001 2.326402e-001 2.391690e-001 3.806758e-001 4.075308e-001 5.111314e-001 4.200915e-001 4.427433e-001 3.634296e-001 4.956338e-001 4.356931e-001 8.354121e-002
<GCONST> 1.118128e+002
<TRANSP> 5
 0.000000e+000 1.000000e+000 0.000000e+000 0.000000e+000 0.000000e+000
 0.000000e+000 7.995077e-001 2.004924e-001 0.000000e+000 0.000000e+000
 0.000000e+000 0.000000e+000 4.548555e-001 5.451444e-001 0.000000e+000
 0.000000e+000 0.000000e+000 0.000000e+000 6.062808e-001 3.937192e-001
 0.000000e+000 0.000000e+000 0.000000e+000 0.000000e+000 0.000000e+000
<ENDHMM>
~h "i"
<BEGINHMM>
<NUMSTATES> 5
<STATE> 2
<MEAN> 39
 -2.279690e+001 2.867381e-001 4.771153e+000 -6.338471e+000 -6.253864e+000 -2.768972e+000 8.434377e-002 -2.110084e+000 7.014591e-001 -3.110635e+000 7.508153e-001 -6.165776e-001 6.673918e+001 8.342259e-002 3.050280e-001 1.996224e+000 1.523787e+000 -5.089332e-001 -9.564651e-001 5.710971e-001 -5.106842e-001 -8.899021e-001 -5.788791e-001 -1.959610e-001 1.327067e-002 5.415554e-001 1.049248e+000 1.943317e-001 -1.142963e-001 3.345459e-001 -1.048308e-002 -4.833032e-001 -3.242962e-001 -1.791676e-001 -2.792265e-001 -6.415205e-002 -1.302081e-001 -4.432973e-002 -3.212227e-001
<VARIANCE> 39
 3.788010e+001 2.502869e+001 3.996050e+001 5.240099e+001 3.357153e+001 4.761283e+001 3.673150e+001 2.302196e+001 3.297206e+001 2.602379e+001 1.808681e+001 1.196161e+001 1.501753e+001 1.066315e+001 2.038808e+000 2.502085e+000 3.953192e+000 3.471029e+000 4.132438e+000 3.038694e+000 2.239190e+000 2.888904e+000 1.835771e+000 2.401346e+000 1.354313e+000 2.074713e+000 8.168993e-001 4.603590e-001 6.186591e-001 5.876664e-001 7.307606e-001 5.204483e-001 6.468028e-001 4.131809e-001 5.086762e-001 4.093118e-001 5.191467e-001 2.629308e-001 2.743844e-001
<GCONST> 1.195353e+002
<STATE> 3
<MEAN> 39
 -1.369428e+001 2.123329e+000 1.074038e+001 2.795983e+000 -9.160143e+000 -9.962328e+000 -1.232046e+000 -6.442274e+000 -5.155565e+000 -5.478234e+000 -1.346808e+000 -2.393552e-001 6.635802e+001 2.971353e+000 1.140566e+000 2.391766e-001 1.963564e+000 -1.127684e-001 -2.470716e+000 -1.244637e+000 -5.778670e-001 -9.884694e-001 -8.531380e-001 -5.444922e-001 4.075090e-001 -3.818551e-001 -2.504925e-001 -8.640033e-003 -6.443884e-001 -6.032500e-001 2.942599e-001 2.890053e-001 -8.972155e-002 1.977565e-001 4.859362e-001 1.418243e-001 9.578263e-002 2.434155e-002 -6.199564e-002
<VARIANCE> 39
 4.084291e+001 3.236646e+001 4.690422e+001 6.434943e+001 4.032476e+001 5.488247e+001 3.350494e+001 2.309007e+001 2.405859e+001 2.669306e+001 2.196407e+001 1.858379e+001 1.060014e+001 2.860866e+000 2.426026e+000 2.180721e+000 2.162678e+000 4.201638e+000 2.478506e+000 3.276122e+000 2.799725e+000 2.842768e+000 2.393583e+000 3.290133e+000 2.022982e+000 4.751993e-001 6.466392e-001 3.367721e-001 3.929375e-001 3.804123e-001 6.715457e-001 7.010263e-001 5.595822e-001 3.886257e-001 3.336919e-001 4.624780e-001 5.706575e-001 3.426761e-001 7.164310e-002
<GCONST> 1.153433e+002
<STATE> 4
<MEAN> 39
 -8.755363e+000 2.625954e+000 8.001390e+000 4.632223e+000 -7.931186e+000 -1.483165e+001 -2.742222e+000 -6.828726e+000 -5.424657e+000 -4.642006e+000 -8.618328e-001 -2.729327e-001 6.471857e+001 1.161979e+000 4.625830e-001 -1.339658e+000 -1.210733e-001 4.861875e-001 -2.620125e-001 -3.653474e-001 -1.899161e-001 2.496203e-001 3.088505e-001 4.168383e-001 -5.808686e-002 -4.578391e-001 -4.022543e-001 -6.498248e-002 -1.919602e-001 -5.214094e-001 2.001949e-001 6.806241e-001 1.449974e-001 -1.525404e-003 2.603734e-001 2.069330e-001 1.927831e-001 -3.201419e-002 -6.474710e-002
<VARIANCE> 39
 1.635964e+001 2.970497e+001 4.977101e+001 6.058258e+001 2.908416e+001 5.022978e+001 2.437112e+001 2.467163e+001 2.006641e+001 3.176545e+001 4.089128e+001 1.943895e+001 1.147892e+001 1.596405e+000 1.470803e+000 1.937488e+000 3.027893e+000 1.616679e+000 5.503163e+000 3.675872e+000 2.996925e+000 2.481226e+000 3.199955e+000 3.598558e+000 1.780688e+000 4.100213e-001 3.261948e-001 2.568864e-001 3.072888e-001 3.546937e-001 3.303896e-001 5.464655e-001 4.634001e-001 4.697967e-001 5.960670e-001 6.027450e-001 6.879718e-001 3.951693e-001 5.266716e-002
<GCONST> 1.121804e+002
<TRANSP> 5
 0.000000e+000 1.000000e+000 0.000000e+000 0.000000e+000 0.000000e+000
 0.000000e+000 7.811728e-001 2.188273e-001 0.000000e+000 0.000000e+000
 0.000000e+000 0.000000e+000 4.968085e-001 5.031916e-001 0.000000e+000
 0.000000e+000 0.000000e+000 0.000000e+000 6.254616e-001 3.745384e-001
 0.000000e+000 0.000000e+000 0.000000e+000 0.000000e+000 0.000000e+000
<ENDHMM>
~h "k"
<BEGINHMM>
<NUMSTATES> 5
<STATE> 2
<MEAN> 39
 -1.044057e+001 -2.002622e+000 4.474303e+000 -1.354518e+000 -1.348708e+001 -1.368255e+001 -2.776054e+000 -5.638478e+000 -3.334515e+000 -4.166542e+000 -2.255334e+000 -7.891541e-001 7.219728e+001 1.894296e+000 1.096068e+000 1.482158e+000 3.518678e-001 -1.163218e+000 -1.620923e+000 -6.703248e-001 -8.030356e-001 -8.902852e-001 -1.037904e+000 -2.282864e-001 -1.098248e-001 6.713454e-001 -5.169295e-002 -1.520051e-001 -2.038839e-001 -2.213411e-001 2.236472e-002 7.125176e-002 -2.663848e-002 6.652426e-002 -3.074624e-002 1.247774e-001 2.344684e-001 1.072244e-001 -1.147876e-001
<VARIANCE> 39
 4.702260e+001 4.943622e+001 5.025595e+001 2.728744e+001 5.736578e+001 7.119422e+001 4.207438e+001 5.488781e+001 4.293688e+001 2.945456e+001 2.656121e+001 3.190778e+001 2.181285e+001 2.640916e+000 4.074736e+000 2.804919e+000 2.490766e+000 3.836146e+000 3.627572e+000 3.092610e+000 2.971189e+000 4.016132e+000 2.874560e+000 2.013848e+000 2.069207e+000 1.908278e+000 7.971614e-001 8.611614e-001 5.401625e-001 5.092981e-001 7.644979e-001 6.528451e-001 5.920625e-001 5.007472e-001 5.662376e-001 5.595017e-001 3.291960e-001 3.436787e-001 5.669784e-001
<GCONST> 1.258960e+002
<STATE> 3
<MEAN> 39
 -5.142357e+000 -6.496910e-001 7.071572e+000 -2.007679e+000 -1.799177e+001 -1.865659e+001 -3.632249e+000 -8.572485e+000 -6.301256e+000 -6.419042e+000 -1.268835e+000 -4.554474e-001 7.485553e+001 1.051707e-001 -9.062337e-002 3.421377e-001 -4.498184e-001 -5.886108e-001 -4.596523e-001 -2.512895e-001 -2.987242e-001 -4.369099e-001 9.971739e-002 7.468606e-001 3.390729e-001 2.046301e-001 -4.396355e-001 4.636528e-002 -1.252426e-001 6.758394e-002 3.896125e-001 4.960609e-001 2.591520e-001 1.494109e-001 2.123833e-001 2.576911e-001 -8.048676e-002 -1.159822e-001 -3.201413e-001
<VARIANCE> 39
 1.558240e+001 5.182567e+001 5.061069e+001 3.484121e+001 7.241122e+001 7.034853e+001 4.589028e+001 8.098959e+001 6.054792e+001 2.912790e+001 3.560632e+001 4.556983e+001 1.533872e+001 5.135781e-001 1.092263e+000 1.169433e+000 9.765077e-001 1.925282e+000 2.121213e+000 1.763803e+000 2.311569e+000 1.732258e+000 1.360402e+000 1.110460e+000 9.048594e-001 6.551278e-001 2.086084e-001 3.070678e-001 2.647107e-001 1.866564e-001 4.473047e-001 6.002958e-001 4.475045e-001 3.921217e-001 4.708055e-001 3.124369e-001 3.808428e-001 2.301456e-001 6.557387e-002
<GCONST> 1.071197e+002
<STATE> 4
<MEAN> 39
 -8.217148e+000 3.927153e+000 8.469166e+000 -1.007925e+000 -1.470589e+001 -2.012108e+001 -4.234321e+000 -7.381385e+000 -6.386692e+000 -5.783597e+000 3.167898e-001 9.952617e-001 7.485573e+001 -9.461097e-002 1.698502e-001 2.233456e-001 2.073296e-002 -1.417711e-001 8.224435e-002 1.947435e-001 -9.934914e-002 2.702755e-002 6.723245e-002 3.725997e-002 -2.275713e-002 -2.186309e-001 -6.710032e-002 7.084348e-002 -8.930248e-005 7.511473e-002 1.029101e-001 6.583252e-002 7.924733e-002 3.328060e-002 6.890309e-002 1.410763e-002 -1.021619e-001 -5.565958e-002 -9.810390e-002
<VARIANCE> 39
 1.661507e+001 5.604635e+001 3.423375e+001 2.736035e+001 4.889983e+001 5.283963e+001 3.328704e+001 5.876167e+001 4.441386e+001 2.643017e+001 2.914512e+001 3.631036e+001 1.497227e+001 1.601330e-001 3.973167e-001 6.860371e-001 6.320418e-001 9.864101e-001 1.170709e+000 1.121645e+000 1.156676e+000 1.023215e+000 9.870470e-001 1.383276e+000 6.899472e-001 2.600896e-001 4.845194e-002 7.445947e-002 1.210732e-001 1.075530e-001 2.142868e-001 2.477688e-001 1.943499e-001 2.792811e-001 2.269112e-001 2.224862e-001 2.744820e-001 1.346177e-001 2.944507e-002
<GCONST> 8.733606e+001
<TRANSP> 5
 0.000000e+000 1.000000e+000 0.000000e+000 0.000000e+000 0.000000e+000
 0.000000e+000 7.989541e-001 2.010458e-001 0.000000e+000 0.000000e+000
 0.000000e+000 0.000000e+000 2.824021e-001 7.175980e-001 0.000000e+000
 0.000000e+000 0.000000e+000 0.000000e+000 7.104985e-001 2.895016e-001
 0.000000e+000 0.000000e+000 0.000000e+000 0.000000e+000 0.000000e+000
<ENDHMM>
~h "m"
<BEGINHMM>
<NUMSTATES> 5
<STATE> 2
<MEAN> 39
 4.725507e-001 7.831555e+000 5.753204e-001 -1.665629e+000 -6.796908e+000 -1.887403e+000 -4.701581e-002 -7.667519e+000 -1.001020e+001 -1.057416e+001 -5.646162e+000 -1.837750e+000 6.450127e+001 7.588964e-001 -1.065088e+000 -1.370130e+000 -2.149483e+000 -1.376488e+000 2.717215e-001 6.576193e-001 1.365216e-001 7.897608e-001 7.900206e-001 -1.856658e-001 -2.970518e-001 1.641209e+000 -2.010206e-001 -4.397069e-001 -3.374419e-001 -4.112467e-001 5.476704e-003 2.241003e-001 2.314011e-001 1.836793e-001 4.258929e-001 5.098168e-001 7.768930e-002 -3.018311e-002 7.428318e-002
<VARIANCE> 39
 1.261322e+001 3.386944e+001 6.230284e+001 6.153038e+001 7.097856e+001 7.233636e+001 4.912748e+001 5.281770e+001 6.111074e+001 6.605130e+001 4.478527e+001 3.117712e+001 2.451254e+001 8.650408e-001 2.666229e+000 3.825157e+000 5.409335e+000 3.232876e+000 2.860022e+000 2.834734e+000 4.095821e+000 5.090332e+000 6.437440e+000 3.072165e+000 1.800256e+000 1.193380e+000 1.340497e-001 3.349831e-001 5.952461e-001 8.135985e-001 6.258851e-001 4.509453e-001 4.881122e-001 6.282139e-001 8.899139e-001 9.493195e-001 6.022190e-001 3.096531e-001 1.589684e-001
<GCONST> 1.250904e+002
<STATE> 3
<MEAN> 39
 2.673361e+000 -7.428185e-001 -9.181023e+000 -1.543090e+001 -1.203998e+001 2.682993e-001 5.020961e+000 -4.733846e+000 -3.711131e+000 -1.925070e+000 -5.870581e+000 -3.652388e+000 7.223207e+001 -2.423495e-001 -1.952600e+000 -1.288066e+000 -1.910553e+000 1.017198e-001 1.356944e+000 9.783192e-001 -1.469392e-001 7.842012e-001 1.368950e+000 -4.618645e-002 -2.830190e-001 1.361189e+000 -2.490180e-001 4.031124e-001 6.300701e-001 9.906309e-001 5.733625e-001 -1.937608e-001 -4.525814e-001 -2.293280e-001 -4.675899e-001 -4.571663e-001 7.349686e-002 4.546492e-002 -4.282084e-001
<VARIANCE> 39
 9.924379e+000 3.643015e+001 3.722789e+001 3.688448e+001 7.304546e+001 5.353761e+001 5.603092e+001 7.877030e+001 4.361947e+001 6.089229e+001 4.357516e+001 4.517201e+001 1.458201e+001 7.604228e-001 1.693656e+000 2.153839e+000 4.007745e+000 3.991567e+000 4.063368e+000 3.293307e+000 4.503546e+000 4.292904e+000 4.188653e+000 3.414845e+000 2.487058e+000 1.167905e+000 8.976401e-002 2.765070e-001 3.109841e-001 4.810700e-001 6.207986e-001 6.842111e-001 5.253395e-001 8.165408e-001 5.868469e-001 9.459633e-001 5.853245e-001 3.622716e-001 1.295329e-001
<GCONST> 1.211992e+002
<STATE> 4
<MEAN> 39
 1.130205e+000 -5.240666e+000 -1.131483e+001 -1.710107e+001 -9.480299e+000 1.739751e+000 5.049176e+000 -3.531783e+000 -3.365568e+000 -2.919342e-001 -5.240439e+000 -4.302917e+000 7.458906e+001 -1.888269e-001 -3.721594e-001 2.669980e-003 -1.951488e-003 1.533071e-001 -5.409221e-002 -2.585354e-001 -7.094723e-002 1.614545e-001 3.744227e-001 2.321049e-001 2.594466e-002 1.808159e-001 3.956189e-002 3.062822e-001 2.033726e-001 2.637644e-001 -4.391890e-002 -2.756481e-001 -2.098320e-001 1.729256e-002 -9.878738e-002 -1.585587e-001 5.799579e-002 6.993192e-002 -2.313429e-001
<VARIANCE> 39
 9.415758e+000 3.807759e+001 2.843718e+001 2.955452e+001 6.320305e+001 7.277309e+001 6.268286e+001 8.872363e+001 6.244744e+001 4.085928e+001 5.285011e+001 3.847409e+001 1.533946e+001 3.298485e-001 8.602127e-001 7.421568e-001 1.342077e+000 1.197823e+000 2.171223e+000 1.778084e+000 2.027538e+000 1.880340e+000 2.150715e+000 1.657695e+000 1.205727e+000 5.071805e-001 6.102511e-002 1.350228e-001 1.849616e-001 3.172807e-001 2.855722e-001 3.910771e-001 3.540716e-001 3.952945e-001 3.825103e-001 4.062647e-001 3.424014e-001 2.482255e-001 7.229774e-002
<GCONST> 1.031814e+002
<TRANSP> 5
 0.000000e+000 1.000000e+000 0.000000e+000 0.000000e+000 0.000000e+000
 0.000000e+000 8.344059e-001 1.655941e-001 0.000000e+000 0.000000e+000
 0.000000e+000 0.000000e+000 5.154948e-001 4.845052e-001 0.000000e+000
 0.000000e+000 0.000000e+000 0.000000e+000 7.397127e-001 2.602873e-001
 0.000000e+000 0.000000e+000 0.000000e+000 0.000000e+000 0.000000e+000
<ENDHMM>
~h "n"
<BEGINHMM>
<NUMSTATES> 5
<STATE> 2
<MEAN> 39
 2.031759e-001 9.164031e-001 -2.292764e+000 -3.835706e-001 -8.593371e+000 -8.650454e+000 -5.448097e+000 -9.035971e+000 -8.069924e-001 -3.588598e+000 -6.186068e+000 -6.598547e+000 6.864716e+001 -7.838710e-003 6.000907e-001 4.342583e-001 5.250552e-001 1.431709e-001 -2.249540e-001 -2.022184e-001 1.843324e-001 1.506335e-001 -1.903357e-001 1.874672e-002 -7.874463e-002 -5.404453e-001 -9.755583e-002 -1.775087e-001 -3.678438e-003 -1.506515e-001 -1.785764e-001 1.589251e-002 1.816850e-001 1.687986e-001 5.709222e-002 8.721565e-003 2.546103e-002 1.040967e-001 1.925187e-001
<VARIANCE> 39
 1.076067e+001 2.998584e+001 5.955270e+001 4.179443e+001 8.466922e+001 8.445892e+001 4.410771e+001 3.939429e+001 4.247205e+001 4.489885e+001 2.587796e+001 6.670094e+001 2.678226e+001 4.683967e-001 2.356642e+000 1.915116e+000 2.325255e+000 3.234403e+000 2.477469e+000 3.252100e+000 2.862908e+000 4.519753e+000 2.590179e+000 2.219296e+000 2.290838e+000 1.449487e+000 5.517054e-002 2.443696e-001 2.405415e-001 3.286605e-001 4.444716e-001 4.002301e-001 5.325632e-001 4.774243e-001 7.243800e-001 4.495068e-001 3.690689e-001 3.237171e-001 1.290113e-001
<GCONST> 1.150309e+002
<STATE> 3
<MEAN> 39
 -5.792998e-001 1.990122e+000 5.279556e-001 1.185282e-001 -1.124428e+001 -9.844351e+000 -6.148911e+000 -6.292614e+000 1.038076e+000 -3.405900e+000 -6.201542e+000 -3.838620e+000 6.837632e+001 -4.911311e-001 -4.865878e-001 3.669944e-001 -9.641487e-002 -1.134666e+000 -3.416431e-001 5.253387e-001 8.112354e-001 7.082592e-001 2.080818e-002 -1.156563e-001 3.389806e-001 5.371671e-001 -3.482636e-002 -9.468389e-002 -1.845689e-002 -9.622516e-002 -6.503566e-002 -8.019122e-002 1.638688e-001 1.137271e-001 -1.304099e-001 7.856016e-002 8.516470e-002 2.843050e-002 6.563336e-002
<VARIANCE> 39
 1.292869e+001 3.327484e+001 5.356107e+001 3.637664e+001 6.368629e+001 4.596585e+001 4.830583e+001 5.263454e+001 5.972279e+001 3.900224e+001 3.374797e+001 3.128964e+001 3.121632e+001 4.730881e-001 2.949096e+000 1.551567e+000 1.478367e+000 3.315517e+000 2.461370e+000 4.627150e+000 3.346242e+000 5.018298e+000 2.631701e+000 2.351721e+000 2.303971e+000 1.390524e+000 6.959176e-002 4.116369e-001 2.404476e-001 2.718845e-001 4.850701e-001 3.917294e-001 6.146955e-001 5.881997e-001 1.012241e+000 4.585414e-001 4.395658e-001 3.732562e-001 2.097288e-001
<GCONST> 1.168028e+002
<STATE> 4
<MEAN> 39
 -3.141803e+000 1.753343e+000 3.014297e+000 -7.684823e-001 -1.537187e+001 -1.213545e+001 -1.732533e+000 -2.753874e+000 1.151710e+000 -2.386719e+000 -4.612770e+000 -2.465000e+000 6.931488e+001 -3.058158e-001 -2.435107e-002 2.788868e-001 8.776064e-002 -1.535364e-001 -3.407412e-001 3.685510e-001 2.570049e-001 -2.986839e-001 -2.255925e-002 1.847515e-001 1.836611e-001 -1.796581e-001 3.216621e-002 2.357890e-002 -3.321993e-002 4.300734e-002 1.453924e-001 7.261548e-002 -8.579880e-002 -1.192336e-001 -8.448471e-003 -9.862280e-003 -1.181822e-002 -4.255497e-002 -9.877545e-002
<VARIANCE> 39
 1.359235e+001 3.851695e+001 6.812905e+001 3.803686e+001 9.363129e+001 6.306638e+001 7.602003e+001 5.373104e+001 4.863713e+001 3.025470e+001 4.838912e+001 2.648378e+001 3.105303e+001 2.178822e-001 1.053399e+000 8.436931e-001 9.322426e-001 1.946321e+000 1.617064e+000 1.974164e+000 1.856973e+000 2.542232e+000 1.783474e+000 1.714353e+000 1.250109e+000 4.359489e-001 4.330656e-002 2.031357e-001 1.346390e-001 1.653995e-001 3.222190e-001 2.512196e-001 3.971370e-001 3.380326e-001 4.922793e-001 2.807672e-001 2.741407e-001 2.133592e-001 7.511610e-002
<GCONST> 1.023928e+002
<TRANSP> 5
 0.000000e+000 1.000000e+000 0.000000e+000 0.000000e+000 0.000000e+000
 0.000000e+000 8.001791e-001 1.998209e-001 0.000000e+000 0.000000e+000
 0.000000e+000 0.000000e+000 7.679824e-001 2.320177e-001 0.000000e+000
 0.000000e+000 0.000000e+000 0.000000e+000 8.458880e-001 1.541120e-001
 0.000000e+000 0.000000e+000 0.000000e+000 0.000000e+000 0.000000e+000
<ENDHMM>
~h "o"
<BEGINHMM>
<NUMSTATES> 5
<STATE> 2
<MEAN> 39
 -4.153368e+000 1.517201e+000 -1.392376e+000 -5.586075e+000 -9.740211e+000 -8.098919e+000 -1.750134e+000 -4.930145e+000 -2.772430e+000 -2.149349e+000 -2.414108e+000 -1.465052e+000 6.529731e+001 2.300143e-002 1.509052e-002 1.401225e-002 6.290563e-003 -3.631655e-002 -5.298270e-002 -8.996384e-003 -1.725104e-002 -1.659047e-002 -1.542300e-002 -5.569575e-003 -1.004327e-002 -8.028411e-003 -5.385407e-003 7.687603e-003 -2.053345e-003 6.118431e-003 1.287798e-002 1.362365e-002 3.170662e-003 3.442815e-003 5.190067e-003 6.678457e-003 2.682982e-003 3.156542e-003 -2.769514e-002
<VARIANCE> 39
 3.821798e+001 5.290487e+001 6.815633e+001 7.505674e+001 8.069884e+001 9.922321e+001 5.842557e+001 6.155072e+001 5.897418e+001 4.395738e+001 3.820277e+001 3.717608e+001 7.774931e+001 1.322284e+000 1.757013e+000 1.593217e+000 2.179628e+000 2.557859e+000 2.732429e+000 2.388217e+000 2.481541e+000 2.572205e+000 2.280620e+000 2.045945e+000 1.732367e+000 2.160362e+000 1.858594e-001 2.637878e-001 2.274865e-001 3.046213e-001 3.726168e-001 3.977455e-001 4.053145e-001 4.021849e-001 4.302129e-001 3.929369e-001 3.596961e-001 3.057646e-001 2.198328e-001
<GCONST> 1.191859e+002
<STATE> 3
<MEAN> 39
 -4.153368e+000 1.517201e+000 -1.392376e+000 -5.586075e+000 -9.740211e+000 -8.098919e+000 -1.750134e+000 -4.930145e+000 -2.772430e+000 -2.149349e+000 -2.414108e+000 -1.465052e+000 6.529731e+001 2.300143e-002 1.509052e-002 1.401225e-002 6.290563e-003 -3.631655e-002 -5.298270e-002 -8.996384e-003 -1.725104e-002 -1.659047e-002 -1.542300e-002 -5.569575e-003 -1.004327e-002 -8.028411e-003 -5.385407e-003 7.687603e-003 -2.053345e-003 6.118431e-003 1.287798e-002 1.362365e-002 3.170662e-003 3.442815e-003 5.190067e-003 6.678457e-003 2.682982e-003 3.156542e-003 -2.769514e-002
<VARIANCE> 39
 3.821798e+001 5.290487e+001 6.815633e+001 7.505674e+001 8.069884e+001 9.922321e+001 5.842557e+001 6.155072e+001 5.897418e+001 4.395738e+001 3.820277e+001 3.717608e+001 7.774931e+001 1.322284e+000 1.757013e+000 1.593217e+000 2.179628e+000 2.557859e+000 2.732429e+000 2.388217e+000 2.481541e+000 2.572205e+000 2.280620e+000 2.045945e+000 1.732367e+000 2.160362e+000 1.858594e-001 2.637878e-001 2.274865e-001 3.046213e-001 3.726168e-001 3.977455e-001 4.053145e-001 4.021849e-001 4.302129e-001 3.929369e-001 3.596961e-001 3.057646e-001 2.198328e-001
<GCONST> 1.191859e+002
<STATE> 4
<MEAN> 39
 -4.153368e+000 1.517201e+000 -1.392376e+000 -5.586075e+000 -9.740211e+000 -8.098919e+000 -1.750134e+000 -4.930145e+000 -2.772430e+000 -2.149349e+000 -2.414108e+000 -1.465052e+000 6.529731e+001 2.300143e-002 1.509052e-002 1.401225e-002 6.290563e-003 -3.631655e-002 -5.298270e-002 -8.996384e-003 -1.725104e-002 -1.659047e-002 -1.542300e-002 -5.569575e-003 -1.004327e-002 -8.028411e-003 -5.385407e-003 7.687603e-003 -2.053345e-003 6.118431e-003 1.287798e-002 1.362365e-002 3.170662e-003 3.442815e-003 5.190067e-003 6.678457e-003 2.682982e-003 3.156542e-003 -2.769514e-002
<VARIANCE> 39
 3.821798e+001 5.290487e+001 6.815633e+001 7.505674e+001 8.069884e+001 9.922321e+001 5.842557e+001 6.155072e+001 5.897418e+001 4.395738e+001 3.820277e+001 3.717608e+001 7.774931e+001 1.322284e+000 1.757013e+000 1.593217e+000 2.179628e+000 2.557859e+000 2.732429e+000 2.388217e+000 2.481541e+000 2.572205e+000 2.280620e+000 2.045945e+000 1.732367e+000 2.160362e+000 1.858594e-001 2.637878e-001 2.274865e-001 3.046213e-001 3.726168e-001 3.977455e-001 4.053145e-001 4.021849e-001 4.302129e-001 3.929369e-001 3.596961e-001 3.057646e-001 2.198328e-001
<GCONST> 1.191859e+002
<TRANSP> 5
 0.000000e+000 1.000000e+000 0.000000e+000 0.000000e+000 0.000000e+000
 0.000000e+000 6.000000e-001 4.000000e-001 0.000000e+000 0.000000e+000
 0.000000e+000 0.000000e+000 6.000000e-001 4.000000e-001 0.000000e+000
 0.000000e+000 0.000000e+000 0.000000e+000 7.000000e-001 3.000000e-001
 0.000000e+000 0.000000e+000 0.000000e+000 0.000000e+000 0.000000e+000
<ENDHMM>
~h "p"
<BEGINHMM>
<NUMSTATES> 5
<STATE> 2
<MEAN> 39
 1.430217e-001 -2.388576e+000 -9.429852e+000 -1.566944e+001 -1.117353e+001 -1.369791e+000 4.420126e+000 -3.010428e+000 -2.324996e+000 -8.223054e-001 -3.718427e+000 -4.613610e+000 7.258601e+001 9.068159e-001 -3.313776e-001 -6.974815e-002 -9.693820e-001 -1.280951e+000 9.307695e-003 -6.265570e-002 -2.974186e-001 -2.466486e-001 6.487324e-002 -1.847979e-001 -4.140947e-001 1.219709e+000 -4.192407e-001 -1.640653e-001 1.168097e-001 4.208784e-001 2.156473e-001 -1.782768e-001 -4.155863e-001 1.560422e-002 2.382036e-001 7.737692e-002 2.085717e-001 1.741826e-001 -2.353163e-001
<VARIANCE> 39
 1.958970e+001 5.591362e+001 3.239082e+001 2.548801e+001 6.272738e+001 9.702645e+001 5.613531e+001 5.397723e+001 4.070638e+001 3.280362e+001 3.304107e+001 5.056668e+001 3.612880e+001 2.301543e+000 4.323291e+000 1.912627e+000 3.000334e+000 4.109687e+000 4.334650e+000 4.156991e+000 3.031970e+000 3.374275e+000 3.145496e+000 2.564672e+000 2.601664e+000 1.642557e+000 3.407652e-001 6.860607e-001 3.326493e-001 4.363046e-001 5.838686e-001 6.863403e-001 6.481140e-001 5.699231e-001 4.766511e-001 5.535973e-001 4.744169e-001 4.541927e-001 3.440854e-001
<GCONST> 1.253146e+002
<STATE> 3
<MEAN> 39
 5.123655e-001 -4.472885e+000 -9.672315e+000 -1.613088e+001 -1.356501e+001 -4.172739e+000 2.503645e+000 -9.409600e-001 -5.446789e-001 -9.333141e-001 -3.682393e+000 -4.740599e+000 7.566436e+001 7.553084e-002 1.398010e-001 1.478331e-001 1.325513e-001 -2.768990e-001 -6.145105e-001 -5.724832e-001 -1.582850e-001 5.129794e-001 3.886113e-001 -6.448375e-002 2.806693e-002 -1.259792e-001 -8.884258e-002 1.567213e-001 4.880880e-002 2.074014e-001 1.608716e-001 -1.335772e-001 -2.744904e-002 4.390756e-002 3.164984e-002 -7.352075e-002 -1.440724e-002 9.909341e-002 -2.247983e-001
<VARIANCE> 39
 1.517838e+001 6.020024e+001 3.123608e+001 2.193396e+001 6.274744e+001 1.284553e+002 6.928635e+001 9.111693e+001 6.447076e+001 4.633286e+001 3.455304e+001 4.915366e+001 2.775695e+001 4.898346e-001 1.775571e+000 8.383313e-001 1.418844e+000 1.915004e+000 2.712391e+000 3.460462e+000 3.009812e+000 3.220127e+000 2.099965e+000 1.702273e+000 1.599476e+000 7.793425e-001 1.319645e-001 3.434615e-001 1.569573e-001 2.777790e-001 3.829851e-001 4.365895e-001 5.222763e-001 5.023052e-001 5.117208e-001 4.143627e-001 3.289343e-001 3.027347e-001 1.080518e-001
<GCONST> 1.127847e+002
<STATE> 4
<MEAN> 39
 2.102019e+000 4.732001e-001 -7.169310e+000 -1.565280e+001 -1.454136e+001 -5.166812e+000 3.966461e-001 -3.892336e+000 -2.002536e+000 -8.859708e-001 -3.763232e+000 -3.790881e+000 7.265297e+001 -3.722618e-002 3.109413e-001 2.881347e-001 3.337674e-001 -7.513968e-002 -6.484284e-001 -3.998275e-001 -5.400895e-002 2.348663e-001 6.507632e-002 -6.657582e-002 3.872595e-002 -2.617343e-001 -2.805822e-002 6.634270e-002 3.748187e-002 8.714483e-002 5.269712e-002 -2.155997e-002 1.456849e-002 1.106118e-002 -5.518419e-002 -8.892567e-002 2.867342e-002 2.312798e-002 -7.217465e-002
<VARIANCE> 39
 1.203856e+001 7.985452e+001 4.982701e+001 3.827787e+001 9.663042e+001 1.265638e+002 5.130921e+001 6.626434e+001 8.224361e+001 4.955186e+001 2.910390e+001 4.808039e+001 2.406863e+001 1.958234e-001 7.529377e-001 6.782426e-001 1.064593e+000 1.437340e+000 2.353728e+000 1.850184e+000 1.441880e+000 1.691735e+000 1.609255e+000 1.720953e+000 1.311906e+000 2.968477e-001 4.221783e-002 1.288563e-001 1.134749e-001 1.490162e-001 2.254448e-001 2.858933e-001 3.100624e-001 2.660632e-001 3.060493e-001 2.744827e-001 2.582825e-001 2.161266e-001 3.392747e-002
<GCONST> 9.966423e+001
<TRANSP> 5
 0.000000e+000 1.000000e+000 0.000000e+000 0.000000e+000 0.000000e+000
 0.000000e+000 7.796631e-001 2.203368e-001 0.000000e+000 0.000000e+000
 0.000000e+000 0.000000e+000 6.197115e-001 3.802885e-001 0.000000e+000
 0.000000e+000 0.000000e+000 0.000000e+000 7.218500e-001 2.781500e-001
 0.000000e+000 0.000000e+000 0.000000e+000 0.000000e+000 0.000000e+000
<ENDHMM>
~h "r"
<BEGINHMM>
<NUMSTATES> 5
<STATE> 2
<MEAN> 39
 -3.273547e+000 1.054702e+000 2.174936e+000 2.418796e+000 -1.067438e+001 -1.801988e+001 -8.182748e+000 -6.428699e+000 6.069806e-001 -3.525630e+000 8.057860e-001 -1.181289e+000 6.610137e+001 -8.553632e-002 -1.215921e-001 -6.279179e-003 3.801055e-001 3.665921e-001 3.823608e-001 3.638496e-001 -2.533657e-001 -2.387263e-001 -2.049495e-001 -1.229528e-001 -2.239876e-001 -3.451926e-001 -5.899996e-003 -5.298652e-002 5.249168e-002 -1.047125e-001 -1.591799e-001 -9.524172e-002 1.006337e-001 1.562264e-001 -6.994787e-002 -1.293535e-002 1.008084e-001 1.376605e-001 1.352200e-001
<VARIANCE> 39
 1.696901e+001 1.782574e+001 4.457740e+001 5.500246e+001 5.067430e+001 6.492049e+001 3.626328e+001 5.465245e+001 3.814201e+001 3.370792e+001 3.940400e+001 2.740686e+001 3.058100e+001 8.815742e-001 2.137218e+000 2.363076e+000 3.021807e+000 4.483181e+000 5.650465e+000 2.675609e+000 3.410597e+000 1.949515e+000 2.414494e+000 3.021965e+000 2.483303e+000 3.422939e+000 1.974700e-001 4.465774e-001 4.493183e-001 6.241001e-001 9.431382e-001 1.119482e+000 4.131814e-001 6.646949e-001 4.150377e-001 4.284601e-001 5.540431e-001 4.709046e-001 5.066656e-001
<GCONST> 1.225976e+002
<STATE> 3
<MEAN> 39
 -4.376301e+000 1.073613e+000 3.187065e+000 5.197463e+000 -1.104337e+001 -1.662610e+001 -8.094359e+000 -5.256252e+000 1.742077e+000 -2.873700e+000 -1.857152e+000 1.295919e+000 6.539514e+001 -3.310262e-001 -1.088864e-001 3.090329e-001 9.907046e-002 -3.828629e-001 1.144143e-001 4.879093e-001 4.017325e-001 -5.455108e-002 -4.563162e-003 2.690873e-001 6.726162e-001 -9.618352e-002 -3.927524e-002 5.399481e-002 7.295827e-002 -1.176515e-001 -2.121672e-001 3.710426e-002 5.406420e-002 1.683002e-001 7.072682e-002 6.222398e-003 1.334012e-001 5.315408e-002 7.401825e-002
<VARIANCE> 39
 1.801155e+001 2.085272e+001 5.316990e+001 3.373352e+001 5.740936e+001 7.804479e+001 4.168939e+001 3.900534e+001 4.564197e+001 2.087357e+001 3.195729e+001 2.825184e+001 2.494231e+001 7.524986e-001 1.451854e+000 2.280644e+000 1.965929e+000 7.240958e+000 4.187504e+000 2.999308e+000 3.409774e+000 3.932120e+000 2.068814e+000 2.556554e+000 3.137489e+000 1.398247e+000 1.282685e-001 2.945389e-001 4.683883e-001 3.603804e-001 1.322106e+000 8.272585e-001 5.798001e-001 7.135611e-001 9.384665e-001 4.124786e-001 3.644700e-001 6.579142e-001 2.913949e-001
<GCONST> 1.201617e+002
<STATE> 4
<MEAN> 39
 -2.700489e+000 -7.124042e-002 4.640244e+000 -6.838926e-001 -1.608347e+001 -1.769346e+001 -5.016741e+000 -4.406551e+000 -3.718004e+000 -3.765167e+000 3.892619e+000 9.212986e-001 6.725614e+001 -3.652941e-001 1.663739e-001 2.258299e-001 -2.437484e-001 8.188511e-002 4.825445e-001 3.447238e-001 4.153987e-001 -2.024272e-001 2.368825e-001 1.784150e-001 -2.293238e-001 -3.490985e-001 -3.038092e-002 3.112973e-002 -8.200970e-002 5.118254e-002 1.087428e-001 1.086409e-001 2.339683e-003 1.823591e-002 -7.596254e-003 8.914110e-003 -9.852812e-002 -1.334735e-001 -8.925915e-002
<VARIANCE> 39
 2.255286e+001 1.396810e+001 4.001156e+001 6.328033e+001 4.771891e+001 8.761047e+001 3.985863e+001 3.066010e+001 6.931510e+001 3.381163e+001 5.076527e+001 3.545047e+001 2.401626e+001 4.279024e-001 7.280885e-001 9.442706e-001 9.245947e-001 2.174655e+000 1.758159e+000 1.753448e+000 1.879407e+000 2.019156e+000 1.519313e+000 1.620021e+000 1.904873e+000 6.166275e-001 8.848464e-002 1.404062e-001 1.485434e-001 1.619411e-001 5.307009e-001 3.374931e-001 2.832880e-001 3.107440e-001 4.468682e-001 2.654444e-001 2.907806e-001 3.893607e-001 9.114955e-002
<GCONST> 1.031718e+002
<TRANSP> 5
 0.000000e+000 1.000000e+000 0.000000e+000 0.000000e+000 0.000000e+000
 0.000000e+000 7.752101e-001 2.247899e-001 0.000000e+000 0.000000e+000
 0.000000e+000 0.000000e+000 6.292849e-001 3.707152e-001 0.000000e+000
 0.000000e+000 0.000000e+000 0.000000e+000 8.196946e-001 1.803054e-001
 0.000000e+000 0.000000e+000 0.000000e+000 0.000000e+000 0.000000e+000
<ENDHMM>
~h "t"
<BEGINHMM>
<NUMSTATES> 5
<STATE> 2
<MEAN> 39
 -7.341928e+000 -2.389039e+000 -4.351327e+000 -7.840674e+000 -6.507638e+000 -5.127208e+000 -4.030857e+000 -4.777490e+000 3.573580e-001 -7.244127e-001 -2.220013e+000 -1.378784e+000 6.872189e+001 1.449222e+000 5.207554e-002 -1.742554e-001 -9.009476e-001 -9.067934e-001 -5.290533e-001 -1.110877e-001 -7.830469e-001 -6.125236e-001 1.707959e-002 -4.259583e-001 -3.566030e-001 1.830360e+000 2.655800e-001 1.563453e-001 -5.101498e-002 4.125563e-002 -1.271064e-001 -1.311992e-002 1.583492e-001 1.698097e-002 -1.587131e-001 6.321554e-002 8.115328e-002 9.712630e-002 -3.882786e-001
<VARIANCE> 39
 5.235181e+001 4.124908e+001 4.351323e+001 5.348242e+001 4.813736e+001 4.979143e+001 3.884987e+001 4.368635e+001 4.398737e+001 3.712404e+001 3.225055e+001 3.358984e+001 6.839490e+001 6.006450e+000 5.199354e+000 3.132908e+000 4.317568e+000 4.935233e+000 5.733715e+000 4.532272e+000 5.038977e+000 5.466895e+000 3.816994e+000 3.355512e+000 3.454138e+000 6.869321e+000 1.137317e+000 1.040040e+000 5.274779e-001 7.298020e-001 8.450178e-001 9.811647e-001 8.746485e-001 8.711120e-001 9.992240e-001 6.747222e-001 5.912188e-001 6.313580e-001 1.320580e+000
<GCONST> 1.385221e+002
<STATE> 3
<MEAN> 39
 -6.262232e-001 -2.316349e+000 -6.536491e+000 -1.164424e+001 -1.031240e+001 -7.127557e+000 -3.113560e+000 -6.582744e+000 -2.469206e+000 -2.264958e-001 -2.990817e+000 -2.107373e+000 7.333100e+001 6.818079e-001 -2.516418e-001 -1.689442e-001 -1.641375e-001 -7.147772e-001 -6.067086e-001 -6.209699e-002 -2.801009e-001 -2.942034e-001 2.904638e-001 2.095862e-001 2.948213e-001 3.050066e-001 -4.934717e-001 -5.625209e-002 1.718192e-001 2.991039e-001 2.414516e-001 2.743537e-002 -1.140806e-001 1.311598e-001 2.302455e-001 2.679309e-002 8.726139e-002 4.515362e-002 -2.547685e-001
<VARIANCE> 39
 2.934464e+001 3.924731e+001 6.074750e+001 6.600246e+001 6.510683e+001 8.356985e+001 4.771055e+001 6.348692e+001 4.971957e+001 5.722237e+001 4.390952e+001 5.194922e+001 2.868816e+001 2.215564e+000 2.474285e+000 2.255154e+000 2.850795e+000 3.624870e+000 4.879087e+000 4.432129e+000 3.359650e+000 4.083010e+000 2.840364e+000 2.863383e+000 2.573729e+000 1.432251e+000 4.233400e-001 4.199059e-001 3.280991e-001 5.221261e-001 6.250582e-001 8.474984e-001 6.761421e-001 7.112391e-001 6.256856e-001 6.291788e-001 5.331576e-001 5.367168e-001 2.622497e-001
<GCONST> 1.282447e+002
<STATE> 4
<MEAN> 39
 -5.326331e-002 -2.254434e+000 -6.551261e+000 -1.141009e+001 -1.063090e+001 -8.999355e+000 -4.127410e+000 -7.498912e+000 -2.953131e+000 4.572895e-002 -2.596300e+000 -1.561051e+000 7.300871e+001 5.789856e-002 -1.116351e-001 1.793933e-001 4.103002e-001 -2.476589e-001 -4.514239e-001 -2.210523e-001 -1.037236e-001 1.158131e-001 2.494616e-001 1.034608e-001 1.066819e-002 -1.264602e-002 -2.216468e-001 3.819510e-002 1.582597e-001 2.182520e-001 1.354395e-001 2.922132e-002 -5.167062e-002 6.497230e-002 1.382879e-001 -8.072651e-002 -2.261495e-002 -2.900460e-002 -1.135994e-001
<VARIANCE> 39
 2.815979e+001 4.083564e+001 6.500751e+001 5.906543e+001 7.248096e+001 8.871239e+001 5.624404e+001 6.285411e+001 6.000178e+001 6.396852e+001 5.159856e+001 5.375461e+001 2.488928e+001 1.146961e+000 1.383958e+000 1.518538e+000 2.337370e+000 2.261488e+000 3.476662e+000 3.291640e+000 2.637888e+000 3.257888e+000 2.556151e+000 2.280741e+000 2.420664e+000 8.153612e-001 2.008137e-001 2.430892e-001 2.488961e-001 3.596817e-001 4.620165e-001 5.138624e-001 5.460570e-001 5.432106e-001 5.509930e-001 5.397155e-001 4.384363e-001 4.270614e-001 1.423310e-001
<GCONST> 1.199646e+002
<TRANSP> 5
 0.000000e+000 1.000000e+000 0.000000e+000 0.000000e+000 0.000000e+000
 0.000000e+000 8.129512e-001 1.870488e-001 0.000000e+000 0.000000e+000
 0.000000e+000 0.000000e+000 4.221849e-001 5.778150e-001 0.000000e+000
 0.000000e+000 0.000000e+000 0.000000e+000 5.399388e-001 4.600612e-001
 0.000000e+000 0.000000e+000 0.000000e+000 0.000000e+000 0.000000e+000
<ENDHMM>
~h "u"
<BEGINHMM>
<NUMSTATES> 5
<STATE> 2
<MEAN> 39
 -6.195494e+000 5.562362e+000 9.141733e+000 2.401962e+000 -8.724255e+000 -9.859377e+000 -2.447783e+000 -9.050273e+000 -6.262969e+000 -3.950014e+000 1.125680e+000 -1.573685e+000 6.407036e+001 4.338047e-001 4.936759e-001 -7.153738e-001 -3.088561e-001 5.655742e-001 2.724505e-001 -3.122270e-001 -8.883710e-002 2.103806e-001 1.030676e-001 2.823735e-001 1.240098e-001 -5.408170e-001 -1.782547e-001 -8.724968e-002 -1.010327e-002 -8.012543e-002 8.143357e-002 2.509798e-001 2.812112e-002 1.377036e-002 5.870178e-002 6.683553e-002 -1.334713e-001 -9.295203e-002 -4.970836e-002
<VARIANCE> 39
 1.259923e+001 1.301936e+001 6.214252e+001 2.921570e+001 5.970737e+001 4.642288e+001 1.963077e+001 4.855091e+001 3.622649e+001 3.245223e+001 2.769562e+001 1.954108e+001 1.189653e+001 5.894139e-001 7.305435e-001 7.764586e-001 1.957759e+000 1.540213e+000 3.731947e+000 1.782618e+000 3.084272e+000 2.401383e+000 2.436778e+000 2.415836e+000 1.272161e+000 4.927793e-001 1.681478e-001 1.200456e-001 1.481936e-001 2.296355e-001 2.234535e-001 6.611128e-001 2.852706e-001 5.365284e-001 3.863666e-001 4.948382e-001 4.115457e-001 2.992967e-001 6.184432e-002
<GCONST> 1.025148e+002
<STATE> 3
<MEAN> 39
 -5.537265e+000 6.032481e+000 4.629702e+000 1.165141e+000 -4.789460e+000 -1.054333e+001 -4.846722e+000 -7.439567e+000 -4.375065e+000 -4.981637e+000 5.294408e-001 -5.537819e-001 6.280585e+001 4.361883e-001 3.408703e-001 -8.957863e-001 -5.015116e-001 7.293624e-001 9.259298e-001 -5.267787e-001 -3.518353e-001 2.248062e-001 3.136627e-001 -2.603177e-001 -1.499947e-001 -6.249475e-001 -1.263621e-001 -1.484378e-001 -6.554123e-003 -3.273986e-002 -5.547904e-002 1.732826e-001 1.201575e-001 -2.947605e-003 -1.279563e-001 9.978788e-002 1.044085e-002 -2.210148e-002 4.548412e-002
<VARIANCE> 39
 1.878909e+001 1.432485e+001 3.843997e+001 2.217721e+001 5.370139e+001 3.669083e+001 3.430735e+001 4.622870e+001 3.307750e+001 1.913466e+001 2.736849e+001 1.374039e+001 1.940998e+001 4.907288e-001 7.095965e-001 8.379222e-001 1.343633e+000 1.935144e+000 2.856235e+000 1.211596e+000 2.187311e+000 2.451896e+000 2.682781e+000 1.396555e+000 1.233755e+000 5.041597e-001 9.961066e-002 1.142058e-001 1.118568e-001 2.165267e-001 2.802953e-001 6.172838e-001 2.756885e-001 4.951771e-001 3.115995e-001 5.017737e-001 4.242977e-001 2.071465e-001 7.281332e-002
<GCONST> 9.896267e+001
<STATE> 4
<MEAN> 39
 -5.231546e+000 6.213708e+000 -2.558689e-001 4.916270e-001 -1.801823e+000 -5.354765e+000 -4.347664e+000 -6.551427e+000 -2.567867e+000 -2.465570e+000 -5.202990e-001 -4.163194e-001 5.879460e+001 -2.747963e-001 -2.929016e-001 -3.314450e-001 -1.073874e-001 4.223469e-001 6.412839e-001 2.581742e-001 3.634607e-001 1.253458e-001 2.104441e-001 -6.621097e-002 -2.679979e-003 -4.210965e-001 -6.777501e-002 -7.178751e-002 3.806248e-002 1.859032e-002 -6.966075e-002 -5.365763e-002 6.519333e-002 8.241241e-002 -7.686239e-003 -2.353527e-002 3.871607e-002 2.217437e-002 3.406420e-002
<VARIANCE> 39
 1.911018e+001 1.844502e+001 1.178361e+001 1.135991e+001 1.923261e+001 3.163422e+001 3.701042e+001 4.866307e+001 2.835555e+001 1.766476e+001 1.278069e+001 1.566918e+001 3.150839e+001 3.916078e-001 7.925992e-001 8.355760e-001 8.734933e-001 1.067988e+000 1.400641e+000 1.447804e+000 1.774539e+000 1.445361e+000 1.668138e+000 1.289070e+000 8.412127e-001 1.844894e-001 5.773252e-002 1.369639e-001 1.293292e-001 1.897835e-001 2.132872e-001 2.541080e-001 2.574811e-001 3.222525e-001 3.159467e-001 3.422680e-001 2.392207e-001 1.708332e-001 2.708945e-002
<GCONST> 8.746269e+001
<TRANSP> 5
 0.000000e+000 1.000000e+000 0.000000e+000 0.000000e+000 0.000000e+000
 0.000000e+000 6.530021e-001 3.469979e-001 0.000000e+000 0.000000e+000
 0.000000e+000 0.000000e+000 6.086969e-001 3.913031e-001 0.000000e+000
 0.000000e+000 0.000000e+000 0.000000e+000 9.184709e-001 8.152916e-002
 0.000000e+000 0.000000e+000 0.000000e+000 0.000000e+000 0.000000e+000
<ENDHMM>
~h "w"
<BEGINHMM>
<NUMSTATES> 5
<STATE> 2
<MEAN> 39
 -4.153368e+000 1.517201e+000 -1.392376e+000 -5.586075e+000 -9.740211e+000 -8.098919e+000 -1.750134e+000 -4.930145e+000 -2.772430e+000 -2.149349e+000 -2.414108e+000 -1.465052e+000 6.529731e+001 2.300143e-002 1.509052e-002 1.401225e-002 6.290563e-003 -3.631655e-002 -5.298270e-002 -8.996384e-003 -1.725104e-002 -1.659047e-002 -1.542300e-002 -5.569575e-003 -1.004327e-002 -8.028411e-003 -5.385407e-003 7.687603e-003 -2.053345e-003 6.118431e-003 1.287798e-002 1.362365e-002 3.170662e-003 3.442815e-003 5.190067e-003 6.678457e-003 2.682982e-003 3.156542e-003 -2.769514e-002
<VARIANCE> 39
 3.821798e+001 5.290487e+001 6.815633e+001 7.505674e+001 8.069884e+001 9.922321e+001 5.842557e+001 6.155072e+001 5.897418e+001 4.395738e+001 3.820277e+001 3.717608e+001 7.774931e+001 1.322284e+000 1.757013e+000 1.593217e+000 2.179628e+000 2.557859e+000 2.732429e+000 2.388217e+000 2.481541e+000 2.572205e+000 2.280620e+000 2.045945e+000 1.732367e+000 2.160362e+000 1.858594e-001 2.637878e-001 2.274865e-001 3.046213e-001 3.726168e-001 3.977455e-001 4.053145e-001 4.021849e-001 4.302129e-001 3.929369e-001 3.596961e-001 3.057646e-001 2.198328e-001
<GCONST> 1.191859e+002
<STATE> 3
<MEAN> 39
 -4.153368e+000 1.517201e+000 -1.392376e+000 -5.586075e+000 -9.740211e+000 -8.098919e+000 -1.750134e+000 -4.930145e+000 -2.772430e+000 -2.149349e+000 -2.414108e+000 -1.465052e+000 6.529731e+001 2.300143e-002 1.509052e-002 1.401225e-002 6.290563e-003 -3.631655e-002 -5.298270e-002 -8.996384e-003 -1.725104e-002 -1.659047e-002 -1.542300e-002 -5.569575e-003 -1.004327e-002 -8.028411e-003 -5.385407e-003 7.687603e-003 -2.053345e-003 6.118431e-003 1.287798e-002 1.362365e-002 3.170662e-003 3.442815e-003 5.190067e-003 6.678457e-003 2.682982e-003 3.156542e-003 -2.769514e-002
<VARIANCE> 39
 3.821798e+001 5.290487e+001 6.815633e+001 7.505674e+001 8.069884e+001 9.922321e+001 5.842557e+001 6.155072e+001 5.897418e+001 4.395738e+001 3.820277e+001 3.717608e+001 7.774931e+001 1.322284e+000 1.757013e+000 1.593217e+000 2.179628e+000 2.557859e+000 2.732429e+000 2.388217e+000 2.481541e+000 2.572205e+000 2.280620e+000 2.045945e+000 1.732367e+000 2.160362e+000 1.858594e-001 2.637878e-001 2.274865e-001 3.046213e-001 3.726168e-001 3.977455e-001 4.053145e-001 4.021849e-001 4.302129e-001 3.929369e-001 3.596961e-001 3.057646e-001 2.198328e-001
<GCONST> 1.191859e+002
<STATE> 4
<MEAN> 39
 -4.153368e+000 1.517201e+000 -1.392376e+000 -5.586075e+000 -9.740211e+000 -8.098919e+000 -1.750134e+000 -4.930145e+000 -2.772430e+000 -2.149349e+000 -2.414108e+000 -1.465052e+000 6.529731e+001 2.300143e-002 1.509052e-002 1.401225e-002 6.290563e-003 -3.631655e-002 -5.298270e-002 -8.996384e-003 -1.725104e-002 -1.659047e-002 -1.542300e-002 -5.569575e-003 -1.004327e-002 -8.028411e-003 -5.385407e-003 7.687603e-003 -2.053345e-003 6.118431e-003 1.287798e-002 1.362365e-002 3.170662e-003 3.442815e-003 5.190067e-003 6.678457e-003 2.682982e-003 3.156542e-003 -2.769514e-002
<VARIANCE> 39
 3.821798e+001 5.290487e+001 6.815633e+001 7.505674e+001 8.069884e+001 9.922321e+001 5.842557e+001 6.155072e+001 5.897418e+001 4.395738e+001 3.820277e+001 3.717608e+001 7.774931e+001 1.322284e+000 1.757013e+000 1.593217e+000 2.179628e+000 2.557859e+000 2.732429e+000 2.388217e+000 2.481541e+000 2.572205e+000 2.280620e+000 2.045945e+000 1.732367e+000 2.160362e+000 1.858594e-001 2.637878e-001 2.274865e-001 3.046213e-001 3.726168e-001 3.977455e-001 4.053145e-001 4.021849e-001 4.302129e-001 3.929369e-001 3.596961e-001 3.057646e-001 2.198328e-001
<GCONST> 1.191859e+002
<TRANSP> 5
 0.000000e+000 1.000000e+000 0.000000e+000 0.000000e+000 0.000000e+000
 0.000000e+000 6.000000e-001 4.000000e-001 0.000000e+000 0.000000e+000
 0.000000e+000 0.000000e+000 6.000000e-001 4.000000e-001 0.000000e+000
 0.000000e+000 0.000000e+000 0.000000e+000 7.000000e-001 3.000000e-001
 0.000000e+000 0.000000e+000 0.000000e+000 0.000000e+000 0.000000e+000
<ENDHMM>
~h "a:"
<BEGINHMM>
<NUMSTATES> 5
<STATE> 2
<MEAN> 39
 4.110358e-001 -7.434134e+000 -1.251187e+001 -1.631725e+001 -4.047925e+000 4.194728e+000 2.613670e+000 -7.524062e+000 -4.206674e+000 2.120905e+000 -8.936020e+000 -6.274394e+000 7.492038e+001 -9.036327e-003 1.989245e-001 1.184529e-002 2.562882e-001 -3.055311e-002 -2.527947e-001 -1.059412e-001 2.524337e-002 2.118052e-001 3.952924e-002 2.417045e-001 7.164659e-003 -2.513819e-001 -5.855686e-003 1.239690e-001 6.497711e-002 1.163934e-001 -3.063134e-002 -1.553296e-001 -7.174279e-002 5.126347e-002 5.932623e-002 -4.560677e-002 8.570039e-002 6.399911e-002 -1.305354e-001
<VARIANCE> 39
 1.378431e+001 2.723782e+001 3.089415e+001 3.839535e+001 4.370714e+001 5.410814e+001 5.471990e+001 4.714463e+001 5.915451e+001 3.091100e+001 4.201665e+001 3.217636e+001 2.726707e+001 4.350053e-001 6.622163e-001 6.513598e-001 9.493091e-001 1.139822e+000 2.008739e+000 1.290211e+000 1.566003e+000 1.348415e+000 1.173789e+000 1.188131e+000 1.094626e+000 6.272697e-001 8.863629e-002 1.081737e-001 1.230208e-001 1.607517e-001 1.919211e-001 3.212045e-001 2.686741e-001 2.760604e-001 2.359419e-001 2.163589e-001 2.046922e-001 2.100940e-001 8.020080e-002
<GCONST> 9.579313e+001
<STATE> 3
<MEAN> 39
 -2.845272e-001 -1.817780e+000 -1.123595e+001 -1.202084e+001 -6.413970e+000 4.041768e-001 1.452715e+000 -4.922184e+000 -1.337460e+000 2.072657e+000 -3.228145e+000 -5.336600e+000 6.678906e+001 -3.951490e-001 8.022681e-001 4.575361e-001 8.742721e-001 1.230117e-001 -6.029404e-001 -6.311148e-001 2.746668e-001 3.873015e-001 -8.143295e-002 6.450245e-001 5.288609e-001 -1.532851e+000 -1.262732e-001 -4.519569e-002 6.126308e-002 4.540306e-002 4.017897e-002 1.863776e-002 -2.129094e-002 -1.441081e-002 -4.843629e-002 -1.118895e-001 -7.137132e-002 3.640120e-002 -5.941123e-002
<VARIANCE> 39
 1.310556e+001 3.026097e+001 3.045334e+001 2.917540e+001 3.730332e+001 4.372072e+001 3.735443e+001 3.632183e+001 4.962856e+001 3.118475e+001 3.794396e+001 3.477418e+001 6.425502e+001 1.156714e+000 1.201660e+000 1.626241e+000 1.875761e+000 1.415957e+000 3.725124e+000 2.615684e+000 2.409185e+000 3.016189e+000 1.799462e+000 2.003002e+000 1.803826e+000 1.693328e+000 1.629852e-001 2.544348e-001 2.689656e-001 3.073092e-001 2.702959e-001 5.865018e-001 4.530922e-001 4.206946e-001 4.452519e-001 3.318194e-001 3.274145e-001 3.219796e-001 2.907763e-001
<GCONST> 1.116303e+002
<STATE> 4
<MEAN> 39
 -4.050698e+000 5.738082e-001 -8.848565e+000 -8.762194e+000 -5.965444e+000 -2.562386e+000 2.017902e-001 -2.044579e+000 2.334095e-001 1.969441e-001 -1.393327e+000 -1.642698e+000 6.002577e+001 -7.692533e-001 -9.081016e-002 3.579424e-001 5.093395e-001 1.526439e-001 -4.039522e-001 -3.346349e-001 2.395556e-001 1.622448e-001 -2.356516e-001 7.957983e-002 1.520214e-001 -6.323835e-001 -2.723353e-003 -1.765918e-001 2.616002e-002 -1.434571e-001 1.351664e-002 8.738312e-003 -5.122684e-002 -9.164429e-002 -4.733294e-002 -2.621514e-003 -9.406320e-002 -8.904738e-002 4.591430e-001
<VARIANCE> 39
 1.874228e+001 2.819171e+001 2.455696e+001 2.169238e+001 2.946438e+001 3.909810e+001 3.062766e+001 2.600189e+001 2.563022e+001 2.156126e+001 2.938688e+001 3.213398e+001 6.722021e+001 1.338040e+000 1.980321e+000 1.585669e+000 2.151835e+000 1.916828e+000 2.827504e+000 2.093075e+000 2.235591e+000 2.812644e+000 2.145383e+000 1.873037e+000 1.973117e+000 4.374024e+000 2.327045e-001 2.962379e-001 3.256277e-001 3.260207e-001 3.776745e-001 5.306715e-001 4.278079e-001 4.258943e-001 5.231986e-001 4.114884e-001 3.850238e-001 3.573189e-001 6.210890e-001
<GCONST> 1.131197e+002
<TRANSP> 5
 0.000000e+000 1.000000e+000 0.000000e+000 0.000000e+000 0.000000e+000
 0.000000e+000 9.046239e-001 9.537611e-002 0.000000e+000 0.000000e+000
 0.000000e+000 0.000000e+000 7.122478e-001 2.877522e-001 0.000000e+000
 0.000000e+000 0.000000e+000 0.000000e+000 8.471832e-001 1.528167e-001
 0.000000e+000 0.000000e+000 0.000000e+000 0.000000e+000 0.000000e+000
<ENDHMM>
~h "ae"
<BEGINHMM>
<NUMSTATES> 5
<STATE> 2
<MEAN> 39
 -1.022382e+000 -8.423614e+000 -9.407691e+000 -1.230915e+001 -7.562807e+000 -5.197322e+000 -2.083424e+000 -1.105857e+000 3.953635e+000 2.602618e+000 -6.853415e+000 -7.613522e+000 7.636055e+001 -1.233892e-001 2.579288e-001 5.656942e-001 6.526138e-001 -3.603992e-001 -1.435773e+000 -4.311384e-001 5.969539e-001 5.088759e-001 -2.611360e-001 -1.384549e-001 2.182768e-001 -2.841144e-001 -1.812048e-002 8.084606e-002 1.044253e-001 9.605853e-003 -8.399076e-002 1.521212e-002 2.143341e-002 -5.251547e-002 -8.360611e-002 -4.709455e-002 9.637242e-002 9.452580e-002 -4.341022e-002
<VARIANCE> 39
 9.326262e+000 2.705162e+001 3.023863e+001 4.018971e+001 3.809032e+001 1.137953e+002 6.041077e+001 6.524134e+001 4.778307e+001 3.712042e+001 5.225331e+001 5.086800e+001 1.459066e+001 1.970992e-001 5.043110e-001 7.589323e-001 1.135066e+000 1.299406e+000 2.545727e+000 2.275940e+000 2.314358e+000 2.208787e+000 1.343735e+000 1.650825e+000 1.408428e+000 2.268815e-001 3.030636e-002 7.635657e-002 1.082140e-001 1.411348e-001 1.966877e-001 3.620923e-001 3.606479e-001 3.064013e-001 3.315412e-001 2.454493e-001 2.456493e-001 2.181375e-001 2.522182e-002
<GCONST> 9.564879e+001
<STATE> 3
<MEAN> 39
 -2.614489e+000 -4.535146e+000 -1.881925e+000 -6.219840e+000 -1.308504e+001 -1.757926e+001 -3.648402e+000 3.475806e+000 5.118895e+000 4.674943e-002 -4.754362e+000 -3.473554e+000 7.285651e+001 -3.082596e-001 8.048185e-001 1.047552e+000 5.789037e-001 -7.983662e-001 -2.230888e-001 1.678761e-001 -5.177243e-001 -6.044608e-001 -2.712480e-001 7.524622e-001 6.079132e-001 -6.776676e-001 -3.252212e-002 2.103556e-002 -6.879123e-002 5.264812e-002 1.395694e-001 1.660590e-001 -5.750510e-003 -1.513282e-001 -5.308800e-002 3.687000e-002 -7.176609e-002 -1.053790e-001 -6.504766e-002
<VARIANCE> 39
 1.062604e+001 3.167045e+001 5.733984e+001 3.777584e+001 4.647290e+001 4.722772e+001 7.384573e+001 4.683779e+001 3.469925e+001 2.784206e+001 3.604856e+001 3.856495e+001 1.479640e+001 2.490432e-001 6.431677e-001 5.807522e-001 9.568288e-001 1.068921e+000 1.443483e+000 1.273953e+000 1.593406e+000 1.207028e+000 1.416184e+000 1.599282e+000 1.251685e+000 1.994500e-001 3.868838e-002 8.574662e-002 8.747905e-002 1.997157e-001 1.769058e-001 1.614536e-001 2.130656e-001 2.506459e-001 2.176867e-001 2.065854e-001 2.273744e-001 1.631931e-001 2.618884e-002
<GCONST> 8.988510e+001
<STATE> 4
<MEAN> 39
 -6.296374e+000 4.749830e-001 1.384359e+000 -7.647427e-001 -1.300726e+001 -1.658899e+001 -1.040391e+000 1.100237e+000 2.038473e+000 -1.390070e+000 -1.993405e+000 -8.389594e-001 6.544777e+001 -3.574118e-001 3.156482e-001 1.277824e-001 3.950062e-001 2.668547e-001 3.864993e-001 2.653298e-001 -3.352728e-001 -2.281487e-001 -6.407629e-002 2.726624e-001 2.098592e-001 -9.849086e-001 -1.083925e-002 -7.216246e-002 -1.043565e-001 -7.118674e-002 1.195502e-001 8.466452e-002 -5.543559e-003 6.091511e-002 5.990706e-002 4.158159e-002 -2.853067e-002 -1.814309e-002 -2.822841e-002
<VARIANCE> 39
 2.129265e+001 3.207925e+001 4.256841e+001 2.942819e+001 5.949107e+001 4.403941e+001 7.747505e+001 4.419384e+001 3.831432e+001 3.554022e+001 4.602480e+001 3.708261e+001 3.451710e+001 3.096261e-001 8.903900e-001 9.529071e-001 1.018217e+000 1.234200e+000 1.872349e+000 1.469118e+000 1.787674e+000 1.621539e+000 1.537632e+000 1.905686e+000 1.592534e+000 3.397951e-001 4.594698e-002 1.151133e-001 1.562848e-001 1.743670e-001 1.955495e-001 3.349786e-001 2.656644e-001 3.022348e-001 2.935545e-001 2.577477e-001 3.342571e-001 2.733487e-001 4.542486e-002
<GCONST> 9.881696e+001
<TRANSP> 5
 0.000000e+000 1.000000e+000 0.000000e+000 0.000000e+000 0.000000e+000
 0.000000e+000 9.204335e-001 7.956649e-002 0.000000e+000 0.000000e+000
 0.000000e+000 0.000000e+000 7.462960e-001 2.537040e-001 0.000000e+000
 0.000000e+000 0.000000e+000 0.000000e+000 9.119641e-001 8.803595e-002
 0.000000e+000 0.000000e+000 0.000000e+000 0.000000e+000 0.000000e+000
<ENDHMM>
~h "ai"
<BEGINHMM>
<NUMSTATES> 5
<STATE> 2
<MEAN> 39
 -1.911443e+000 -4.032135e+000 -1.339112e+000 -5.741311e+000 -1.178252e+001 -1.844437e+001 -7.973169e+000 -1.335334e+000 4.288002e+000 -3.509824e-002 -2.811856e+000 -1.858744e+000 7.422144e+001 -5.910409e-001 1.357681e+000 1.916590e+000 1.547750e+000 -1.188648e+000 -1.140303e+000 -2.112376e-002 -6.669492e-001 -1.355316e+000 -1.133221e+000 9.672722e-001 1.104737e+000 -7.747322e-001 -7.225404e-002 1.583028e-001 -9.067822e-002 -1.499249e-001 1.087154e-001 5.812280e-001 4.007883e-001 -3.171495e-001 -3.738305e-001 1.014776e-001 -3.191048e-002 -2.339978e-001 -9.052944e-002
<VARIANCE> 39
 1.399998e+001 2.810178e+001 6.343420e+001 4.273380e+001 7.220697e+001 7.312916e+001 5.458382e+001 4.074248e+001 5.355238e+001 4.597029e+001 4.620902e+001 4.196935e+001 1.027119e+001 4.339654e-001 8.210983e-001 1.237478e+000 1.539762e+000 1.707915e+000 4.395034e+000 2.161486e+000 4.242980e+000 3.021817e+000 3.325745e+000 2.987258e+000 2.295085e+000 2.877155e-001 5.480205e-002 1.281537e-001 2.266138e-001 1.688219e-001 3.697356e-001 3.913208e-001 3.104759e-001 5.433515e-001 5.012829e-001 5.200701e-001 7.097293e-001 3.869900e-001 2.797870e-002
<GCONST> 1.082277e+002
<STATE> 3
<MEAN> 39
 -3.794688e+000 1.536191e+000 4.452714e+000 -1.035233e+000 -1.543970e+001 -1.986928e+001 -4.574219e+000 -6.664250e+000 -5.197654e+000 -2.641870e+000 -9.721743e-001 -8.303864e-001 7.039761e+001 -5.462255e-001 1.218799e+000 9.243063e-001 8.015752e-001 9.785800e-002 6.089966e-001 7.658823e-001 -9.890088e-001 -1.366065e+000 -3.619062e-001 -5.197518e-001 -1.929524e-001 -1.027114e+000 5.158577e-002 -1.600111e-001 -2.169235e-001 -1.471524e-001 2.635299e-001 1.457244e-001 -5.380229e-002 2.064053e-001 2.693939e-001 1.210241e-001 -1.173224e-001 -1.075051e-001 -3.709079e-002
<VARIANCE> 39
 1.455564e+001 2.141289e+001 4.627786e+001 4.222301e+001 5.866982e+001 5.969081e+001 4.406075e+001 3.461604e+001 6.961020e+001 2.306444e+001 3.083168e+001 3.653599e+001 9.860648e+000 4.087331e-001 7.237366e-001 9.525324e-001 8.219035e-001 1.153953e+000 9.510982e-001 2.180262e+000 1.699598e+000 2.197966e+000 1.403634e+000 2.032815e+000 1.348691e+000 2.237171e-001 5.461209e-002 9.377734e-002 1.522752e-001 1.629079e-001 2.302322e-001 2.296478e-001 3.635129e-001 3.631428e-001 3.558656e-001 2.420383e-001 3.844628e-001 2.542427e-001 2.416916e-002
<GCONST> 9.532662e+001
<STATE> 4
<MEAN> 39
 -8.501076e+000 6.702671e+000 6.659028e+000 1.758471e+000 -1.001208e+001 -1.266113e+001 -1.053078e+000 -9.014960e+000 -5.902479e+000 -2.782798e+000 -2.982135e+000 -2.049311e+000 6.188383e+001 -3.366805e-001 -2.440440e-003 -1.801904e-001 6.752393e-002 6.524094e-001 7.820325e-001 2.292828e-001 1.020753e-001 7.367674e-002 3.314739e-002 7.251654e-002 1.830479e-002 -9.836219e-001 1.756169e-002 -1.411779e-001 -1.310237e-001 -7.142750e-002 2.300458e-002 -4.148219e-004 -6.711204e-002 1.066535e-001 1.298826e-001 2.745472e-002 2.512192e-002 4.894976e-002 3.061147e-002
<VARIANCE> 39
 2.710277e+001 3.039502e+001 3.971557e+001 2.804411e+001 6.648561e+001 5.722892e+001 5.093121e+001 3.552328e+001 5.593427e+001 3.493274e+001 3.385013e+001 2.726615e+001 2.841232e+001 4.153039e-001 8.508148e-001 9.732830e-001 8.826190e-001 1.260310e+000 1.152356e+000 1.507994e+000 1.871316e+000 1.854206e+000 1.385716e+000 1.678727e+000 1.310538e+000 2.191323e-001 6.595598e-002 9.618730e-002 1.357551e-001 1.636276e-001 2.163914e-001 1.815630e-001 2.526669e-001 3.216877e-001 2.837450e-001 2.218926e-001 3.009574e-001 2.694546e-001 2.217995e-002
<GCONST> 9.563585e+001
<TRANSP> 5
 0.000000e+000 1.000000e+000 0.000000e+000 0.000000e+000 0.000000e+000
 0.000000e+000 8.000660e-001 1.999340e-001 0.000000e+000 0.000000e+000
 0.000000e+000 0.000000e+000 7.015833e-001 2.984166e-001 0.000000e+000
 0.000000e+000 0.000000e+000 0.000000e+000 9.201525e-001 7.984745e-002
 0.000000e+000 0.000000e+000 0.000000e+000 0.000000e+000 0.000000e+000
<ENDHMM>
~h "ao"
<BEGINHMM>
<NUMSTATES> 5
<STATE> 2
<MEAN> 39
 1.329310e+000 -5.298929e+000 -1.008810e+001 -1.878103e+001 -1.479117e+001 5.124203e-001 7.265474e+000 -1.712283e+000 -3.099169e+000 -4.329976e+000 -6.538634e+000 -1.681691e+000 7.424903e+001 2.954851e-001 4.486718e-001 1.435174e-001 -4.068860e-001 -6.186393e-001 5.652482e-002 -7.793804e-002 -5.998513e-002 1.530852e-001 2.621530e-001 -1.775546e-001 6.807884e-003 -4.824359e-001 3.040027e-002 1.644902e-001 5.631298e-002 2.643843e-002 -2.265015e-002 -7.866261e-002 -7.924280e-002 -3.014757e-002 2.362871e-002 7.997457e-002 -1.837315e-002 -5.770571e-002 -1.064816e-001
<VARIANCE> 39
 1.606207e+001 3.186028e+001 3.173871e+001 2.301636e+001 9.455664e+001 6.544286e+001 4.164060e+001 1.114265e+002 6.621240e+001 4.101883e+001 3.166747e+001 3.876953e+001 2.358141e+001 5.448209e-001 8.591257e-001 5.566105e-001 7.532744e-001 1.502111e+000 1.510808e+000 1.323110e+000 1.799179e+000 1.917770e+000 2.037743e+000 1.390636e+000 1.537239e+000 7.568974e-001 1.081972e-001 9.282950e-002 1.048908e-001 1.470876e-001 3.115986e-001 3.013303e-001 2.123910e-001 3.135613e-001 3.786905e-001 3.122674e-001 2.419303e-001 2.651152e-001 6.931534e-002
<GCONST> 1.003668e+002
<STATE> 3
<MEAN> 39
 3.591863e+000 -7.081318e-001 -8.028008e+000 -2.124561e+001 -1.914472e+001 3.112698e-001 6.059387e+000 -2.439599e+000 -2.390115e+000 4.282686e-001 -7.231180e+000 -2.489332e+000 6.988083e+001 2.613318e-002 7.308710e-001 2.448914e-001 -3.863738e-003 -4.241443e-001 -5.481321e-001 -1.211091e-001 5.566064e-002 1.280577e-001 1.780468e-001 -5.948403e-002 -1.047020e-001 -5.415255e-001 -4.690262e-002 4.648291e-002 4.957032e-003 6.340275e-002 7.037773e-002 -7.565580e-002 -6.901939e-002 9.161939e-003 4.592190e-002 -6.199766e-002 2.201288e-003 7.696853e-003 -2.471976e-002
<VARIANCE> 39
 8.276147e+000 2.600984e+001 3.551951e+001 2.123592e+001 8.134328e+001 6.824976e+001 2.970445e+001 7.938890e+001 7.836361e+001 3.623720e+001 2.489101e+001 3.457577e+001 2.219032e+001 1.939001e-001 6.898261e-001 5.710917e-001 5.196753e-001 1.159924e+000 1.595898e+000 1.468638e+000 1.423005e+000 1.648771e+000 1.283686e+000 9.958924e-001 1.019809e+000 3.275445e-001 3.794614e-002 9.660430e-002 8.817766e-002 6.943447e-002 2.554580e-001 2.408650e-001 2.481437e-001 2.388672e-001 2.669385e-001 2.354464e-001 1.767036e-001 2.075117e-001 3.776816e-002
<GCONST> 8.997920e+001
<STATE> 4
<MEAN> 39
 1.577665e+000 7.396387e+000 -5.217009e+000 -1.630465e+001 -1.672274e+001 -5.383865e+000 2.190273e+000 -6.704862e-001 -4.187101e-001 -4.435646e-001 -5.783200e+000 -3.059393e+000 6.281351e+001 -3.993354e-001 2.397158e-001 2.144465e-001 6.580098e-001 4.862770e-001 -2.614436e-001 -3.928651e-001 1.382665e-001 9.545765e-002 -3.941727e-002 2.170221e-001 1.290622e-001 -7.177309e-001 -5.198520e-002 -1.002209e-001 -1.028046e-002 6.591141e-002 9.019235e-002 6.057692e-002 1.385888e-002 -3.155213e-003 3.867677e-003 1.818728e-002 5.560506e-002 3.723501e-002 1.734966e-003
<VARIANCE> 39
 1.426102e+001 2.415166e+001 3.143261e+001 3.199216e+001 6.407177e+001 5.115775e+001 4.453416e+001 3.361349e+001 4.593653e+001 4.076600e+001 2.403880e+001 2.376303e+001 4.413978e+001 3.579523e-001 7.121524e-001 5.727191e-001 1.069119e+000 1.412188e+000 1.352161e+000 1.077150e+000 1.547658e+000 1.719202e+000 1.579789e+000 1.296665e+000 1.320120e+000 2.556241e-001 4.344512e-002 8.496935e-002 9.224091e-002 1.511892e-001 1.696051e-001 2.006414e-001 1.823326e-001 2.462287e-001 2.962215e-001 2.953476e-001 2.211641e-001 2.312471e-001 2.525823e-002
<GCONST> 9.153580e+001
<TRANSP> 5
 0.000000e+000 1.000000e+000 0.000000e+000 0.000000e+000 0.000000e+000
 0.000000e+000 8.323373e-001 1.676627e-001 0.000000e+000 0.000000e+000
 0.000000e+000 0.000000e+000 8.221888e-001 1.778112e-001 0.000000e+000
 0.000000e+000 0.000000e+000 0.000000e+000 9.406300e-001 5.937007e-002
 0.000000e+000 0.000000e+000 0.000000e+000 0.000000e+000 0.000000e+000
<ENDHMM>
~h "au"
<BEGINHMM>
<NUMSTATES> 5
<STATE> 2
<MEAN> 39
 1.326714e+000 -3.492218e+000 -9.621854e+000 -1.391775e+001 -1.198077e+001 -5.311159e+000 -2.554408e+000 -6.223670e+000 -1.230265e+000 3.660357e+000 1.028413e+000 -3.401416e+000 7.396199e+001 2.454282e-001 7.812253e-001 2.106389e-001 4.277193e-001 -2.761809e-001 -4.147340e-001 -5.141948e-001 -8.789229e-001 -4.565451e-001 -2.106928e-001 5.616072e-001 4.763886e-001 -5.649973e-001 9.984622e-003 1.220069e-001 1.993470e-002 4.302585e-002 7.910420e-002 1.470461e-002 7.251895e-002 7.302125e-003 -1.052151e-001 -1.543397e-001 -7.392609e-002 2.842574e-002 -9.980851e-002
<VARIANCE> 39
 8.043234e+000 3.475020e+001 2.985422e+001 3.617232e+001 5.342760e+001 1.058792e+002 7.372712e+001 5.943882e+001 7.164050e+001 4.422038e+001 4.687427e+001 5.786250e+001 1.592231e+001 2.757356e-001 1.019216e+000 5.521544e-001 1.036402e+000 1.295391e+000 1.908217e+000 1.445750e+000 2.336680e+000 2.334563e+000 2.315127e+000 1.468831e+000 1.616070e+000 3.767465e-001 4.519828e-002 9.129763e-002 1.012923e-001 1.714907e-001 2.170398e-001 2.670939e-001 2.703194e-001 3.494014e-001 3.592328e-001 3.428539e-001 2.554753e-001 2.562758e-001 2.925651e-002
<GCONST> 9.882252e+001
<STATE> 3
<MEAN> 39
 3.264639e+000 2.806446e+000 -6.910935e+000 -1.092307e+001 -1.270191e+001 -8.407024e+000 -5.842798e+000 -1.271783e+001 -4.536916e+000 4.749768e-001 2.396431e+000 -8.090296e-001 6.903481e+001 9.577353e-002 1.233420e+000 5.288181e-001 4.326508e-001 2.351169e-001 -1.094987e-001 -2.488322e-001 -3.864823e-001 -9.691806e-001 -9.047528e-001 -3.429710e-001 2.381205e-001 -9.832881e-001 -7.844475e-002 -2.266841e-002 4.374717e-002 -9.054012e-003 7.643046e-002 1.141177e-001 5.287389e-002 1.945324e-001 2.781730e-002 -3.264270e-002 -1.878228e-001 -1.380088e-001 -3.108857e-002
<VARIANCE> 39
 6.879951e+000 3.181765e+001 2.517560e+001 4.201135e+001 5.873644e+001 8.613648e+001 6.014125e+001 6.377744e+001 1.056447e+002 4.019289e+001 3.069096e+001 4.633820e+001 1.408627e+001 2.164156e-001 8.449040e-001 6.272087e-001 1.107846e+000 1.336374e+000 1.492305e+000 1.614746e+000 1.926755e+000 1.702990e+000 1.944095e+000 2.032394e+000 1.656635e+000 2.982800e-001 3.641658e-002 9.031812e-002 1.015974e-001 1.631774e-001 2.186610e-001 1.939426e-001 2.622421e-001 2.623560e-001 3.171131e-001 2.737621e-001 2.684256e-001 2.459823e-001 2.001716e-002
<GCONST> 9.530667e+001
<STATE> 4
<MEAN> 39
 2.404683e-001 9.575168e+000 -2.921749e+000 -6.293719e+000 -8.306025e+000 -6.397711e+000 -4.796446e+000 -9.976610e+000 -7.123767e+000 -5.228574e+000 -2.299147e+000 -1.902707e+000 6.102948e+001 -4.873906e-001 1.180864e-001 2.945358e-001 4.534341e-001 5.652125e-001 1.841637e-001 1.135371e-001 4.375578e-001 1.115095e-001 -2.563899e-001 -3.342413e-001 -5.147382e-002 -7.856340e-001 -6.408276e-002 -1.568686e-001 -4.075731e-002 8.828091e-003 3.829671e-002 2.190279e-002 1.448574e-002 5.322876e-002 9.476073e-002 1.089939e-001 6.253264e-002 4.253837e-002 2.802074e-002
<VARIANCE> 39
 1.182173e+001 3.368597e+001 1.814724e+001 2.647930e+001 3.853984e+001 4.373401e+001 4.483472e+001 4.138317e+001 6.117446e+001 4.150936e+001 3.730565e+001 3.166983e+001 3.039208e+001 3.139243e-001 8.956754e-001 6.278760e-001 8.818290e-001 1.123032e+000 1.397541e+000 1.735656e+000 1.486508e+000 1.925278e+000 1.739755e+000 1.578919e+000 1.526264e+000 2.528167e-001 3.576549e-002 9.148885e-002 1.061147e-001 1.379082e-001 1.767383e-001 2.078148e-001 2.809801e-001 2.554614e-001 2.851563e-001 3.053670e-001 2.748976e-001 2.500803e-001 2.245209e-002
<GCONST> 9.257534e+001
<TRANSP> 5
 0.000000e+000 1.000000e+000 0.000000e+000 0.000000e+000 0.000000e+000
 0.000000e+000 8.659900e-001 1.340100e-001 0.000000e+000 0.000000e+000
 0.000000e+000 0.000000e+000 7.572129e-001 2.427871e-001 0.000000e+000
 0.000000e+000 0.000000e+000 0.000000e+000 9.297799e-001 7.022014e-002
 0.000000e+000 0.000000e+000 0.000000e+000 0.000000e+000 0.000000e+000
<ENDHMM>
~h "e:"
<BEGINHMM>
<NUMSTATES> 5
<STATE> 2
<MEAN> 39
 -3.940505e+000 -1.466172e+000 6.603933e+000 -3.055717e+000 -2.191633e+001 -2.001923e+001 -5.431759e+000 -8.050979e+000 -7.070760e+000 -4.679572e+000 4.665004e-001 -8.729650e-001 7.446134e+001 6.023684e-003 5.466895e-003 7.289638e-004 -6.243810e-002 4.769379e-002 -6.320591e-002 -1.778829e-002 6.256595e-002 2.564451e-002 -2.340987e-002 1.205066e-002 -1.882830e-002 -1.626847e-001 -1.909223e-003 2.850670e-002 -1.881474e-002 1.843652e-002 5.731770e-002 3.738019e-002 1.489690e-002 9.448609e-003 1.094011e-002 -1.813607e-003 -2.145623e-002 -4.408740e-003 -3.474698e-002
<VARIANCE> 39
 6.322546e+000 2.979498e+001 4.178975e+001 4.311688e+001 5.343874e+001 5.447247e+001 3.556478e+001 3.970976e+001 3.298771e+001 3.922490e+001 4.521874e+001 6.945485e+001 1.185260e+001 1.226395e-001 3.320490e-001 3.535328e-001 6.339666e-001 9.613299e-001 7.076107e-001 8.816875e-001 7.229739e-001 8.485553e-001 7.975987e-001 7.949678e-001 6.333555e-001 1.434022e-001 2.253743e-002 5.585926e-002 6.676092e-002 1.115505e-001 1.685749e-001 1.479094e-001 1.717114e-001 1.339753e-001 1.669231e-001 1.543117e-001 1.409227e-001 1.200308e-001 2.395287e-002
<GCONST> 7.826965e+001
<STATE> 3
<MEAN> 39
 -2.982739e+000 -4.543728e-002 5.671866e+000 -1.542544e+000 -1.874026e+001 -2.096670e+001 -6.373240e+000 -5.732000e+000 -4.737649e+000 -5.252600e+000 -2.100760e+000 2.018468e-001 7.044804e+001 3.210043e-002 1.928952e-001 -1.944050e-001 9.442957e-002 3.811691e-001 1.000630e-001 -2.614530e-002 2.646848e-001 1.222962e-001 -4.318948e-002 -2.674562e-001 -7.918036e-002 -5.297706e-001 -1.703748e-002 2.910232e-002 -1.107171e-002 2.019481e-002 8.385426e-002 7.296362e-002 3.798061e-002 2.960402e-002 1.980131e-002 1.767515e-002 -5.919999e-002 -4.539166e-002 -6.957683e-002
<VARIANCE> 39
 1.094295e+001 2.527106e+001 2.916349e+001 3.335228e+001 9.007547e+001 5.511644e+001 3.027118e+001 4.209861e+001 5.626265e+001 3.144249e+001 5.320910e+001 5.382308e+001 1.306147e+001 2.085118e-001 5.374367e-001 5.869590e-001 9.372503e-001 1.328957e+000 8.433882e-001 1.690241e+000 1.103179e+000 1.663117e+000 1.270996e+000 1.179866e+000 9.284986e-001 2.294071e-001 3.254356e-002 8.382171e-002 9.923005e-002 1.551748e-001 2.359601e-001 1.608819e-001 3.042338e-001 2.237066e-001 3.165488e-001 2.172364e-001 2.297212e-001 2.025153e-001 2.984522e-002
<GCONST> 8.987303e+001
<STATE> 4
<MEAN> 39
 -4.377187e+000 7.283579e-001 4.362831e+000 -5.564103e-001 -1.356969e+001 -1.789215e+001 -5.411753e+000 -2.744054e+000 -3.214336e+000 -4.087871e+000 -3.820729e+000 3.747432e-002 6.500616e+001 -2.056921e-001 9.894463e-002 -3.533736e-001 1.358721e-001 8.239743e-001 6.638668e-001 2.764459e-001 3.262645e-001 3.313098e-001 2.615038e-001 -9.689584e-002 5.030721e-002 -9.532672e-001 -2.874462e-002 -3.444478e-002 -5.391661e-002 7.457559e-004 6.239771e-002 7.892792e-002 1.799699e-002 -1.968530e-002 1.186201e-002 7.682998e-002 7.594240e-002 3.406955e-002 -3.325615e-002
<VARIANCE> 39
 1.492491e+001 2.412897e+001 2.235311e+001 2.719058e+001 6.379669e+001 6.815335e+001 4.355244e+001 4.125692e+001 5.017479e+001 3.348692e+001 4.715455e+001 5.685057e+001 2.396709e+001 3.083800e-001 8.304598e-001 6.635723e-001 1.068970e+000 1.359445e+000 1.561796e+000 1.690709e+000 2.150848e+000 2.507174e+000 1.561549e+000 1.876032e+000 1.473321e+000 4.698529e-001 4.757763e-002 1.244295e-001 1.105069e-001 1.810249e-001 2.394146e-001 2.443088e-001 2.809125e-001 3.959312e-001 4.865290e-001 2.876232e-001 3.417313e-001 2.829236e-001 4.717649e-002
<GCONST> 9.887338e+001
<TRANSP> 5
 0.000000e+000 1.000000e+000 0.000000e+000 0.000000e+000 0.000000e+000
 0.000000e+000 9.405647e-001 5.943535e-002 0.000000e+000 0.000000e+000
 0.000000e+000 0.000000e+000 7.692584e-001 2.307416e-001 0.000000e+000
 0.000000e+000 0.000000e+000 0.000000e+000 8.763270e-001 1.236730e-001
 0.000000e+000 0.000000e+000 0.000000e+000 0.000000e+000 0.000000e+000
<ENDHMM>
~h "ea"
<BEGINHMM>
<NUMSTATES> 5
<STATE> 2
<MEAN> 39
 -4.153368e+000 1.517201e+000 -1.392376e+000 -5.586075e+000 -9.740211e+000 -8.098919e+000 -1.750134e+000 -4.930145e+000 -2.772430e+000 -2.149349e+000 -2.414108e+000 -1.465052e+000 6.529731e+001 2.300143e-002 1.509052e-002 1.401225e-002 6.290563e-003 -3.631655e-002 -5.298270e-002 -8.996384e-003 -1.725104e-002 -1.659047e-002 -1.542300e-002 -5.569575e-003 -1.004327e-002 -8.028411e-003 -5.385407e-003 7.687603e-003 -2.053345e-003 6.118431e-003 1.287798e-002 1.362365e-002 3.170662e-003 3.442815e-003 5.190067e-003 6.678457e-003 2.682982e-003 3.156542e-003 -2.769514e-002
<VARIANCE> 39
 3.821798e+001 5.290487e+001 6.815633e+001 7.505674e+001 8.069884e+001 9.922321e+001 5.842557e+001 6.155072e+001 5.897418e+001 4.395738e+001 3.820277e+001 3.717608e+001 7.774931e+001 1.322284e+000 1.757013e+000 1.593217e+000 2.179628e+000 2.557859e+000 2.732429e+000 2.388217e+000 2.481541e+000 2.572205e+000 2.280620e+000 2.045945e+000 1.732367e+000 2.160362e+000 1.858594e-001 2.637878e-001 2.274865e-001 3.046213e-001 3.726168e-001 3.977455e-001 4.053145e-001 4.021849e-001 4.302129e-001 3.929369e-001 3.596961e-001 3.057646e-001 2.198328e-001
<GCONST> 1.191859e+002
<STATE> 3
<MEAN> 39
 -4.153368e+000 1.517201e+000 -1.392376e+000 -5.586075e+000 -9.740211e+000 -8.098919e+000 -1.750134e+000 -4.930145e+000 -2.772430e+000 -2.149349e+000 -2.414108e+000 -1.465052e+000 6.529731e+001 2.300143e-002 1.509052e-002 1.401225e-002 6.290563e-003 -3.631655e-002 -5.298270e-002 -8.996384e-003 -1.725104e-002 -1.659047e-002 -1.542300e-002 -5.569575e-003 -1.004327e-002 -8.028411e-003 -5.385407e-003 7.687603e-003 -2.053345e-003 6.118431e-003 1.287798e-002 1.362365e-002 3.170662e-003 3.442815e-003 5.190067e-003 6.678457e-003 2.682982e-003 3.156542e-003 -2.769514e-002
<VARIANCE> 39
 3.821798e+001 5.290487e+001 6.815633e+001 7.505674e+001 8.069884e+001 9.922321e+001 5.842557e+001 6.155072e+001 5.897418e+001 4.395738e+001 3.820277e+001 3.717608e+001 7.774931e+001 1.322284e+000 1.757013e+000 1.593217e+000 2.179628e+000 2.557859e+000 2.732429e+000 2.388217e+000 2.481541e+000 2.572205e+000 2.280620e+000 2.045945e+000 1.732367e+000 2.160362e+000 1.858594e-001 2.637878e-001 2.274865e-001 3.046213e-001 3.726168e-001 3.977455e-001 4.053145e-001 4.021849e-001 4.302129e-001 3.929369e-001 3.596961e-001 3.057646e-001 2.198328e-001
<GCONST> 1.191859e+002
<STATE> 4
<MEAN> 39
 -4.153368e+000 1.517201e+000 -1.392376e+000 -5.586075e+000 -9.740211e+000 -8.098919e+000 -1.750134e+000 -4.930145e+000 -2.772430e+000 -2.149349e+000 -2.414108e+000 -1.465052e+000 6.529731e+001 2.300143e-002 1.509052e-002 1.401225e-002 6.290563e-003 -3.631655e-002 -5.298270e-002 -8.996384e-003 -1.725104e-002 -1.659047e-002 -1.542300e-002 -5.569575e-003 -1.004327e-002 -8.028411e-003 -5.385407e-003 7.687603e-003 -2.053345e-003 6.118431e-003 1.287798e-002 1.362365e-002 3.170662e-003 3.442815e-003 5.190067e-003 6.678457e-003 2.682982e-003 3.156542e-003 -2.769514e-002
<VARIANCE> 39
 3.821798e+001 5.290487e+001 6.815633e+001 7.505674e+001 8.069884e+001 9.922321e+001 5.842557e+001 6.155072e+001 5.897418e+001 4.395738e+001 3.820277e+001 3.717608e+001 7.774931e+001 1.322284e+000 1.757013e+000 1.593217e+000 2.179628e+000 2.557859e+000 2.732429e+000 2.388217e+000 2.481541e+000 2.572205e+000 2.280620e+000 2.045945e+000 1.732367e+000 2.160362e+000 1.858594e-001 2.637878e-001 2.274865e-001 3.046213e-001 3.726168e-001 3.977455e-001 4.053145e-001 4.021849e-001 4.302129e-001 3.929369e-001 3.596961e-001 3.057646e-001 2.198328e-001
<GCONST> 1.191859e+002
<TRANSP> 5
 0.000000e+000 1.000000e+000 0.000000e+000 0.000000e+000 0.000000e+000
 0.000000e+000 6.000000e-001 4.000000e-001 0.000000e+000 0.000000e+000
 0.000000e+000 0.000000e+000 6.000000e-001 4.000000e-001 0.000000e+000
 0.000000e+000 0.000000e+000 0.000000e+000 7.000000e-001 3.000000e-001
 0.000000e+000 0.000000e+000 0.000000e+000 0.000000e+000 0.000000e+000
<ENDHMM>
~h "ei"
<BEGINHMM>
<NUMSTATES> 5
<STATE> 2
<MEAN> 39
 -3.496372e+000 -2.996850e+000 4.102152e+000 -4.247212e+000 -1.778693e+001 -2.203031e+001 -4.732491e+000 -2.862826e+000 -3.362860e+000 -4.222513e+000 3.625206e-001 -4.421342e-001 7.472887e+001 -7.192256e-002 5.104238e-001 5.121084e-001 2.371813e-001 -1.581332e-001 -3.525366e-002 2.241050e-002 -6.043463e-001 -6.919398e-001 -8.249143e-002 1.926048e-001 -1.786381e-002 -3.782944e-001 -8.571752e-003 5.929709e-002 -6.084037e-003 3.891223e-002 6.073314e-002 9.668523e-002 1.382381e-002 -3.716618e-002 -2.451472e-002 -9.017920e-003 -6.812663e-002 -3.130193e-002 -5.782646e-002
<VARIANCE> 39
 5.135408e+000 2.399150e+001 3.734597e+001 5.333879e+001 5.272294e+001 7.180885e+001 4.211668e+001 5.048461e+001 5.085648e+001 4.375497e+001 3.040017e+001 4.025485e+001 1.174786e+001 1.413492e-001 3.934564e-001 5.700865e-001 7.491454e-001 8.388534e-001 1.069061e+000 1.011122e+000 1.259915e+000 9.146752e-001 1.247625e+000 1.026992e+000 1.074514e+000 2.205223e-001 2.371716e-002 5.463299e-002 9.698890e-002 1.249224e-001 1.468408e-001 1.426494e-001 1.912397e-001 2.190818e-001 1.654197e-001 2.009090e-001 1.642777e-001 1.844580e-001 2.494729e-002
<GCONST> 8.369006e+001
<STATE> 3
<MEAN> 39
 -4.706267e+000 2.484655e+000 9.446087e+000 -6.707563e-001 -1.880808e+001 -1.805119e+001 -3.011827e+000 -8.709126e+000 -8.400684e+000 -4.085747e+000 -9.690056e-002 -8.949133e-001 7.005444e+001 -1.610098e-001 6.332174e-001 3.701631e-001 1.684471e-001 3.374764e-001 5.146908e-001 2.507414e-001 -3.111087e-001 -3.915916e-001 -1.072930e-001 -3.377198e-001 -2.899813e-001 -6.654871e-001 -9.979723e-003 -2.517504e-002 -4.527785e-002 2.490958e-003 7.555750e-002 2.993407e-002 1.757083e-002 4.055588e-002 2.887622e-002 -8.417781e-003 -3.277858e-002 3.145579e-003 -2.548183e-002
<VARIANCE> 39
 5.909512e+000 2.255650e+001 2.977501e+001 4.601966e+001 7.040662e+001 7.511001e+001 2.650215e+001 4.171403e+001 5.094878e+001 4.277516e+001 3.441999e+001 4.203157e+001 1.101299e+001 1.424226e-001 4.191884e-001 6.270826e-001 8.626741e-001 1.102501e+000 1.093741e+000 9.448003e-001 1.335759e+000 1.017505e+000 8.312731e-001 8.487575e-001 9.282220e-001 1.561176e-001 2.478496e-002 4.751521e-002 1.048052e-001 1.251230e-001 1.949289e-001 1.861503e-001 1.784318e-001 2.419696e-001 1.799376e-001 1.564134e-001 1.515685e-001 1.609174e-001 1.592013e-002
<GCONST> 8.249951e+001
<STATE> 4
<MEAN> 39
 -7.013883e+000 7.216345e+000 1.030698e+001 1.964191e+000 -1.366690e+001 -1.132771e+001 -4.625558e-001 -1.049393e+001 -8.636275e+000 -4.720490e+000 -3.176562e+000 -3.174399e+000 6.286454e+001 -2.392657e-001 3.429074e-002 -3.134712e-001 2.017656e-001 8.641575e-001 7.304252e-001 1.988853e-001 1.324288e-001 2.776575e-002 2.114603e-001 -1.112574e-001 -5.877369e-002 -8.512171e-001 -2.211686e-002 -1.232234e-001 -1.304243e-001 -4.726917e-002 6.151598e-002 1.273503e-002 4.441694e-003 1.065376e-001 8.087730e-002 6.132515e-002 7.739824e-002 5.747973e-002 -1.320183e-002
<VARIANCE> 39
 1.234832e+001 3.118506e+001 4.241319e+001 2.050334e+001 7.341619e+001 6.418786e+001 3.511166e+001 4.193090e+001 4.993592e+001 3.927732e+001 2.824669e+001 3.504464e+001 2.609053e+001 2.030306e-001 7.313735e-001 8.370129e-001 7.808174e-001 1.346422e+000 1.453523e+000 1.576054e+000 1.761295e+000 1.617271e+000 1.550566e+000 1.359389e+000 1.229722e+000 3.125873e-001 3.522352e-002 9.819715e-002 1.044335e-001 1.227228e-001 2.226340e-001 2.772794e-001 3.213369e-001 2.920085e-001 2.610476e-001 2.660147e-001 2.486725e-001 2.038510e-001 3.627644e-002
<GCONST> 9.338110e+001
<TRANSP> 5
 0.000000e+000 1.000000e+000 0.000000e+000 0.000000e+000 0.000000e+000
 0.000000e+000 8.974735e-001 1.025265e-001 0.000000e+000 0.000000e+000
 0.000000e+000 0.000000e+000 8.436617e-001 1.563383e-001 0.000000e+000
 0.000000e+000 0.000000e+000 0.000000e+000 9.126843e-001 8.731569e-002
 0.000000e+000 0.000000e+000 0.000000e+000 0.000000e+000 0.000000e+000
<ENDHMM>
~h "eo"
<BEGINHMM>
<NUMSTATES> 5
<STATE> 2
<MEAN> 39
 -4.153368e+000 1.517201e+000 -1.392376e+000 -5.586075e+000 -9.740211e+000 -8.098919e+000 -1.750134e+000 -4.930145e+000 -2.772430e+000 -2.149349e+000 -2.414108e+000 -1.465052e+000 6.529731e+001 2.300143e-002 1.509052e-002 1.401225e-002 6.290563e-003 -3.631655e-002 -5.298270e-002 -8.996384e-003 -1.725104e-002 -1.659047e-002 -1.542300e-002 -5.569575e-003 -1.004327e-002 -8.028411e-003 -5.385407e-003 7.687603e-003 -2.053345e-003 6.118431e-003 1.287798e-002 1.362365e-002 3.170662e-003 3.442815e-003 5.190067e-003 6.678457e-003 2.682982e-003 3.156542e-003 -2.769514e-002
<VARIANCE> 39
 3.821798e+001 5.290487e+001 6.815633e+001 7.505674e+001 8.069884e+001 9.922321e+001 5.842557e+001 6.155072e+001 5.897418e+001 4.395738e+001 3.820277e+001 3.717608e+001 7.774931e+001 1.322284e+000 1.757013e+000 1.593217e+000 2.179628e+000 2.557859e+000 2.732429e+000 2.388217e+000 2.481541e+000 2.572205e+000 2.280620e+000 2.045945e+000 1.732367e+000 2.160362e+000 1.858594e-001 2.637878e-001 2.274865e-001 3.046213e-001 3.726168e-001 3.977455e-001 4.053145e-001 4.021849e-001 4.302129e-001 3.929369e-001 3.596961e-001 3.057646e-001 2.198328e-001
<GCONST> 1.191859e+002
<STATE> 3
<MEAN> 39
 -4.153368e+000 1.517201e+000 -1.392376e+000 -5.586075e+000 -9.740211e+000 -8.098919e+000 -1.750134e+000 -4.930145e+000 -2.772430e+000 -2.149349e+000 -2.414108e+000 -1.465052e+000 6.529731e+001 2.300143e-002 1.509052e-002 1.401225e-002 6.290563e-003 -3.631655e-002 -5.298270e-002 -8.996384e-003 -1.725104e-002 -1.659047e-002 -1.542300e-002 -5.569575e-003 -1.004327e-002 -8.028411e-003 -5.385407e-003 7.687603e-003 -2.053345e-003 6.118431e-003 1.287798e-002 1.362365e-002 3.170662e-003 3.442815e-003 5.190067e-003 6.678457e-003 2.682982e-003 3.156542e-003 -2.769514e-002
<VARIANCE> 39
 3.821798e+001 5.290487e+001 6.815633e+001 7.505674e+001 8.069884e+001 9.922321e+001 5.842557e+001 6.155072e+001 5.897418e+001 4.395738e+001 3.820277e+001 3.717608e+001 7.774931e+001 1.322284e+000 1.757013e+000 1.593217e+000 2.179628e+000 2.557859e+000 2.732429e+000 2.388217e+000 2.481541e+000 2.572205e+000 2.280620e+000 2.045945e+000 1.732367e+000 2.160362e+000 1.858594e-001 2.637878e-001 2.274865e-001 3.046213e-001 3.726168e-001 3.977455e-001 4.053145e-001 4.021849e-001 4.302129e-001 3.929369e-001 3.596961e-001 3.057646e-001 2.198328e-001
<GCONST> 1.191859e+002
<STATE> 4
<MEAN> 39
 -4.153368e+000 1.517201e+000 -1.392376e+000 -5.586075e+000 -9.740211e+000 -8.098919e+000 -1.750134e+000 -4.930145e+000 -2.772430e+000 -2.149349e+000 -2.414108e+000 -1.465052e+000 6.529731e+001 2.300143e-002 1.509052e-002 1.401225e-002 6.290563e-003 -3.631655e-002 -5.298270e-002 -8.996384e-003 -1.725104e-002 -1.659047e-002 -1.542300e-002 -5.569575e-003 -1.004327e-002 -8.028411e-003 -5.385407e-003 7.687603e-003 -2.053345e-003 6.118431e-003 1.287798e-002 1.362365e-002 3.170662e-003 3.442815e-003 5.190067e-003 6.678457e-003 2.682982e-003 3.156542e-003 -2.769514e-002
<VARIANCE> 39
 3.821798e+001 5.290487e+001 6.815633e+001 7.505674e+001 8.069884e+001 9.922321e+001 5.842557e+001 6.155072e+001 5.897418e+001 4.395738e+001 3.820277e+001 3.717608e+001 7.774931e+001 1.322284e+000 1.757013e+000 1.593217e+000 2.179628e+000 2.557859e+000 2.732429e+000 2.388217e+000 2.481541e+000 2.572205e+000 2.280620e+000 2.045945e+000 1.732367e+000 2.160362e+000 1.858594e-001 2.637878e-001 2.274865e-001 3.046213e-001 3.726168e-001 3.977455e-001 4.053145e-001 4.021849e-001 4.302129e-001 3.929369e-001 3.596961e-001 3.057646e-001 2.198328e-001
<GCONST> 1.191859e+002
<TRANSP> 5
 0.000000e+000 1.000000e+000 0.000000e+000 0.000000e+000 0.000000e+000
 0.000000e+000 6.000000e-001 4.000000e-001 0.000000e+000 0.000000e+000
 0.000000e+000 0.000000e+000 6.000000e-001 4.000000e-001 0.000000e+000
 0.000000e+000 0.000000e+000 0.000000e+000 7.000000e-001 3.000000e-001
 0.000000e+000 0.000000e+000 0.000000e+000 0.000000e+000 0.000000e+000
<ENDHMM>
~h "eu"
<BEGINHMM>
<NUMSTATES> 5
<STATE> 2
<MEAN> 39
 -4.153368e+000 1.517201e+000 -1.392376e+000 -5.586075e+000 -9.740211e+000 -8.098919e+000 -1.750134e+000 -4.930145e+000 -2.772430e+000 -2.149349e+000 -2.414108e+000 -1.465052e+000 6.529731e+001 2.300143e-002 1.509052e-002 1.401225e-002 6.290563e-003 -3.631655e-002 -5.298270e-002 -8.996384e-003 -1.725104e-002 -1.659047e-002 -1.542300e-002 -5.569575e-003 -1.004327e-002 -8.028411e-003 -5.385407e-003 7.687603e-003 -2.053345e-003 6.118431e-003 1.287798e-002 1.362365e-002 3.170662e-003 3.442815e-003 5.190067e-003 6.678457e-003 2.682982e-003 3.156542e-003 -2.769514e-002
<VARIANCE> 39
 3.821798e+001 5.290487e+001 6.815633e+001 7.505674e+001 8.069884e+001 9.922321e+001 5.842557e+001 6.155072e+001 5.897418e+001 4.395738e+001 3.820277e+001 3.717608e+001 7.774931e+001 1.322284e+000 1.757013e+000 1.593217e+000 2.179628e+000 2.557859e+000 2.732429e+000 2.388217e+000 2.481541e+000 2.572205e+000 2.280620e+000 2.045945e+000 1.732367e+000 2.160362e+000 1.858594e-001 2.637878e-001 2.274865e-001 3.046213e-001 3.726168e-001 3.977455e-001 4.053145e-001 4.021849e-001 4.302129e-001 3.929369e-001 3.596961e-001 3.057646e-001 2.198328e-001
<GCONST> 1.191859e+002
<STATE> 3
<MEAN> 39
 -4.153368e+000 1.517201e+000 -1.392376e+000 -5.586075e+000 -9.740211e+000 -8.098919e+000 -1.750134e+000 -4.930145e+000 -2.772430e+000 -2.149349e+000 -2.414108e+000 -1.465052e+000 6.529731e+001 2.300143e-002 1.509052e-002 1.401225e-002 6.290563e-003 -3.631655e-002 -5.298270e-002 -8.996384e-003 -1.725104e-002 -1.659047e-002 -1.542300e-002 -5.569575e-003 -1.004327e-002 -8.028411e-003 -5.385407e-003 7.687603e-003 -2.053345e-003 6.118431e-003 1.287798e-002 1.362365e-002 3.170662e-003 3.442815e-003 5.190067e-003 6.678457e-003 2.682982e-003 3.156542e-003 -2.769514e-002
<VARIANCE> 39
 3.821798e+001 5.290487e+001 6.815633e+001 7.505674e+001 8.069884e+001 9.922321e+001 5.842557e+001 6.155072e+001 5.897418e+001 4.395738e+001 3.820277e+001 3.717608e+001 7.774931e+001 1.322284e+000 1.757013e+000 1.593217e+000 2.179628e+000 2.557859e+000 2.732429e+000 2.388217e+000 2.481541e+000 2.572205e+000 2.280620e+000 2.045945e+000 1.732367e+000 2.160362e+000 1.858594e-001 2.637878e-001 2.274865e-001 3.046213e-001 3.726168e-001 3.977455e-001 4.053145e-001 4.021849e-001 4.302129e-001 3.929369e-001 3.596961e-001 3.057646e-001 2.198328e-001
<GCONST> 1.191859e+002
<STATE> 4
<MEAN> 39
 -4.153368e+000 1.517201e+000 -1.392376e+000 -5.586075e+000 -9.740211e+000 -8.098919e+000 -1.750134e+000 -4.930145e+000 -2.772430e+000 -2.149349e+000 -2.414108e+000 -1.465052e+000 6.529731e+001 2.300143e-002 1.509052e-002 1.401225e-002 6.290563e-003 -3.631655e-002 -5.298270e-002 -8.996384e-003 -1.725104e-002 -1.659047e-002 -1.542300e-002 -5.569575e-003 -1.004327e-002 -8.028411e-003 -5.385407e-003 7.687603e-003 -2.053345e-003 6.118431e-003 1.287798e-002 1.362365e-002 3.170662e-003 3.442815e-003 5.190067e-003 6.678457e-003 2.682982e-003 3.156542e-003 -2.769514e-002
<VARIANCE> 39
 3.821798e+001 5.290487e+001 6.815633e+001 7.505674e+001 8.069884e+001 9.922321e+001 5.842557e+001 6.155072e+001 5.897418e+001 4.395738e+001 3.820277e+001 3.717608e+001 7.774931e+001 1.322284e+000 1.757013e+000 1.593217e+000 2.179628e+000 2.557859e+000 2.732429e+000 2.388217e+000 2.481541e+000 2.572205e+000 2.280620e+000 2.045945e+000 1.732367e+000 2.160362e+000 1.858594e-001 2.637878e-001 2.274865e-001 3.046213e-001 3.726168e-001 3.977455e-001 4.053145e-001 4.021849e-001 4.302129e-001 3.929369e-001 3.596961e-001 3.057646e-001 2.198328e-001
<GCONST> 1.191859e+002
<TRANSP> 5
 0.000000e+000 1.000000e+000 0.000000e+000 0.000000e+000 0.000000e+000
 0.000000e+000 6.000000e-001 4.000000e-001 0.000000e+000 0.000000e+000
 0.000000e+000 0.000000e+000 6.000000e-001 4.000000e-001 0.000000e+000
 0.000000e+000 0.000000e+000 0.000000e+000 7.000000e-001 3.000000e-001
 0.000000e+000 0.000000e+000 0.000000e+000 0.000000e+000 0.000000e+000
<ENDHMM>
~h "i:"
<BEGINHMM>
<NUMSTATES> 5
<STATE> 2
<MEAN> 39
 -6.078371e+000 5.512466e+000 1.245076e+001 -2.593406e+000 -1.566944e+001 -1.613066e+001 -2.867077e+000 -1.234439e+001 -1.208125e+001 -5.330333e+000 -2.823089e+000 -1.902122e+000 7.072488e+001 -4.229974e-002 3.603873e-001 1.642997e-001 2.365133e-001 1.759907e-001 2.468360e-001 1.376203e-001 6.436995e-002 1.156768e-001 5.662270e-002 9.443063e-002 -4.201552e-002 -3.105746e-001 -2.940054e-003 1.529714e-002 -5.894097e-002 5.327455e-002 9.612448e-002 3.180518e-002 -1.081615e-002 5.059412e-002 7.222250e-002 -4.182070e-003 -2.682334e-002 -1.928427e-002 -5.181122e-002
<VARIANCE> 39
 1.242392e+001 2.127052e+001 3.494448e+001 4.773521e+001 4.324013e+001 6.775699e+001 4.895595e+001 4.763542e+001 3.797869e+001 2.547662e+001 1.932305e+001 3.974628e+001 8.803269e+000 1.598615e-001 4.319517e-001 4.708362e-001 7.145319e-001 1.104449e+000 1.068763e+000 9.524877e-001 8.414083e-001 9.173204e-001 9.685321e-001 1.176318e+000 8.691470e-001 1.613329e-001 3.365191e-002 6.063193e-002 8.269009e-002 1.135854e-001 1.798206e-001 1.680744e-001 1.754143e-001 1.673985e-001 1.922352e-001 1.821325e-001 2.113725e-001 1.598139e-001 2.686466e-002
<GCONST> 8.211987e+001
<STATE> 3
<MEAN> 39
