~o
<STREAMINFO> 1 39
<VECSIZE> 39<NULLD><MFCC_D_A_0><DIAGC>
~h "proto"
<BEGINHMM>
<NUMSTATES> 5
<STATE> 2
<MEAN> 39
 -5.153443e+000 1.887341e+000 -3.998059e-001 -4.719388e+000 -1.027645e+001 -8.377604e+000 -1.314454e+000 -4.294622e+000 -2.598214e+000 -1.637859e+000 -2.417927e+000 -3.007498e-001 6.395220e+001 2.656938e-002 2.103826e-002 1.670751e-002 2.097466e-003 -4.075075e-002 -6.993482e-002 -7.360970e-003 -1.582084e-002 -2.291133e-002 -1.948875e-002 -7.798372e-003 -1.589407e-002 -1.794146e-002 -6.101388e-003 4.534691e-003 -4.683285e-003 2.991999e-003 1.307896e-002 1.532247e-002 4.297304e-003 2.199038e-003 5.607250e-003 8.410532e-003 3.306764e-003 1.353030e-003 -2.459256e-002
<VARIANCE> 39
 3.876240e+001 5.593195e+001 6.909898e+001 8.084949e+001 8.242165e+001 1.017876e+002 5.764616e+001 6.496631e+001 6.744147e+001 4.920574e+001 3.916745e+001 3.616992e+001 8.957718e+001 1.350502e+000 1.888252e+000 1.699849e+000 2.401277e+000 2.816806e+000 2.814739e+000 2.621114e+000 2.615768e+000 2.810299e+000 2.549241e+000 2.217089e+000 1.828917e+000 2.527436e+000 1.981723e-001 2.897191e-001 2.501056e-001 3.312125e-001 4.046271e-001 4.166303e-001 4.473993e-001 4.295296e-001 4.660336e-001 4.356595e-001 3.927584e-001 3.259792e-001 2.569831e-001
<GCONST> 1.219561e+002
<STATE> 3
<MEAN> 39
 -5.153443e+000 1.887341e+000 -3.998059e-001 -4.719388e+000 -1.027645e+001 -8.377604e+000 -1.314454e+000 -4.294622e+000 -2.598214e+000 -1.637859e+000 -2.417927e+000 -3.007498e-001 6.395220e+001 2.656938e-002 2.103826e-002 1.670751e-002 2.097466e-003 -4.075075e-002 -6.993482e-002 -7.360970e-003 -1.582084e-002 -2.291133e-002 -1.948875e-002 -7.798372e-003 -1.589407e-002 -1.794146e-002 -6.101388e-003 4.534691e-003 -4.683285e-003 2.991999e-003 1.307896e-002 1.532247e-002 4.297304e-003 2.199038e-003 5.607250e-003 8.410532e-003 3.306764e-003 1.353030e-003 -2.459256e-002
<VARIANCE> 39
 3.876240e+001 5.593195e+001 6.909898e+001 8.084949e+001 8.242165e+001 1.017876e+002 5.764616e+001 6.496631e+001 6.744147e+001 4.920574e+001 3.916745e+001 3.616992e+001 8.957718e+001 1.350502e+000 1.888252e+000 1.699849e+000 2.401277e+000 2.816806e+000 2.814739e+000 2.621114e+000 2.615768e+000 2.810299e+000 2.549241e+000 2.217089e+000 1.828917e+000 2.527436e+000 1.981723e-001 2.897191e-001 2.501056e-001 3.312125e-001 4.046271e-001 4.166303e-001 4.473993e-001 4.295296e-001 4.660336e-001 4.356595e-001 3.927584e-001 3.259792e-001 2.569831e-001
<GCONST> 1.219561e+002
<STATE> 4
<MEAN> 39
 -5.153443e+000 1.887341e+000 -3.998059e-001 -4.719388e+000 -1.027645e+001 -8.377604e+000 -1.314454e+000 -4.294622e+000 -2.598214e+000 -1.637859e+000 -2.417927e+000 -3.007498e-001 6.395220e+001 2.656938e-002 2.103826e-002 1.670751e-002 2.097466e-003 -4.075075e-002 -6.993482e-002 -7.360970e-003 -1.582084e-002 -2.291133e-002 -1.948875e-002 -7.798372e-003 -1.589407e-002 -1.794146e-002 -6.101388e-003 4.534691e-003 -4.683285e-003 2.991999e-003 1.307896e-002 1.532247e-002 4.297304e-003 2.199038e-003 5.607250e-003 8.410532e-003 3.306764e-003 1.353030e-003 -2.459256e-002
<VARIANCE> 39
 3.876240e+001 5.593195e+001 6.909898e+001 8.084949e+001 8.242165e+001 1.017876e+002 5.764616e+001 6.496631e+001 6.744147e+001 4.920574e+001 3.916745e+001 3.616992e+001 8.957718e+001 1.350502e+000 1.888252e+000 1.699849e+000 2.401277e+000 2.816806e+000 2.814739e+000 2.621114e+000 2.615768e+000 2.810299e+000 2.549241e+000 2.217089e+000 1.828917e+000 2.527436e+000 1.981723e-001 2.897191e-001 2.501056e-001 3.312125e-001 4.046271e-001 4.166303e-001 4.473993e-001 4.295296e-001 4.660336e-001 4.356595e-001 3.927584e-001 3.259792e-001 2.569831e-001
<GCONST> 1.219561e+002
<TRANSP> 5
 0.000000e+000 1.000000e+000 0.000000e+000 0.000000e+000 0.000000e+000
 0.000000e+000 6.000000e-001 4.000000e-001 0.000000e+000 0.000000e+000
 0.000000e+000 0.000000e+000 6.000000e-001 4.000000e-001 0.000000e+000
 0.000000e+000 0.000000e+000 0.000000e+000 7.000000e-001 3.000000e-001
 0.000000e+000 0.000000e+000 0.000000e+000 0.000000e+000 0.000000e+000
<ENDHMM>
