~o
<STREAMINFO> 1 39
<VECSIZE> 39<NULLD><MFCC_D_A_0><DIAGC>
~h "proto"
<BEGINHMM>
<NUMSTATES> 5
<STATE> 2
<MEAN> 39
 -5.404736e+000 2.474264e+000 3.122554e-001 -4.394701e+000 -9.639411e+000 -8.753761e+000 -1.066005e+000 -4.766325e+000 -3.743578e+000 -1.938833e+000 -1.992863e+000 -4.559347e-003 6.495885e+001 2.450988e-002 1.302901e-002 1.918019e-002 3.316283e-003 -4.371658e-002 -7.306439e-002 -1.842394e-002 -2.444299e-002 -3.052467e-002 -2.393421e-002 -9.349622e-003 -1.425933e-002 -9.787142e-003 -5.396765e-003 4.690089e-003 -6.835332e-003 5.209368e-003 1.451201e-002 1.721763e-002 5.296492e-003 6.553777e-003 6.220506e-003 9.362569e-003 4.125166e-003 3.225525e-003 -2.743884e-002
<VARIANCE> 39
 3.864226e+001 5.281501e+001 7.391051e+001 8.135933e+001 7.677331e+001 9.463634e+001 5.724667e+001 6.897221e+001 6.326392e+001 4.839135e+001 3.680719e+001 3.395739e+001 8.727069e+001 1.372905e+000 1.793903e+000 1.710096e+000 2.409231e+000 2.706431e+000 2.777050e+000 2.585872e+000 2.606039e+000 2.707144e+000 2.455808e+000 2.104158e+000 1.735463e+000 2.419883e+000 1.985618e-001 2.764823e-001 2.480070e-001 3.283480e-001 3.897789e-001 4.118499e-001 4.453265e-001 4.204600e-001 4.511843e-001 4.197432e-001 3.712303e-001 3.108075e-001 2.378747e-001
<GCONST> 1.209395e+002
<STATE> 3
<MEAN> 39
 -5.404736e+000 2.474264e+000 3.122554e-001 -4.394701e+000 -9.639411e+000 -8.753761e+000 -1.066005e+000 -4.766325e+000 -3.743578e+000 -1.938833e+000 -1.992863e+000 -4.559347e-003 6.495885e+001 2.450988e-002 1.302901e-002 1.918019e-002 3.316283e-003 -4.371658e-002 -7.306439e-002 -1.842394e-002 -2.444299e-002 -3.052467e-002 -2.393421e-002 -9.349622e-003 -1.425933e-002 -9.787142e-003 -5.396765e-003 4.690089e-003 -6.835332e-003 5.209368e-003 1.451201e-002 1.721763e-002 5.296492e-003 6.553777e-003 6.220506e-003 9.362569e-003 4.125166e-003 3.225525e-003 -2.743884e-002
<VARIANCE> 39
 3.864226e+001 5.281501e+001 7.391051e+001 8.135933e+001 7.677331e+001 9.463634e+001 5.724667e+001 6.897221e+001 6.326392e+001 4.839135e+001 3.680719e+001 3.395739e+001 8.727069e+001 1.372905e+000 1.793903e+000 1.710096e+000 2.409231e+000 2.706431e+000 2.777050e+000 2.585872e+000 2.606039e+000 2.707144e+000 2.455808e+000 2.104158e+000 1.735463e+000 2.419883e+000 1.985618e-001 2.764823e-001 2.480070e-001 3.283480e-001 3.897789e-001 4.118499e-001 4.453265e-001 4.204600e-001 4.511843e-001 4.197432e-001 3.712303e-001 3.108075e-001 2.378747e-001
<GCONST> 1.209395e+002
<STATE> 4
<MEAN> 39
 -5.404736e+000 2.474264e+000 3.122554e-001 -4.394701e+000 -9.639411e+000 -8.753761e+000 -1.066005e+000 -4.766325e+000 -3.743578e+000 -1.938833e+000 -1.992863e+000 -4.559347e-003 6.495885e+001 2.450988e-002 1.302901e-002 1.918019e-002 3.316283e-003 -4.371658e-002 -7.306439e-002 -1.842394e-002 -2.444299e-002 -3.052467e-002 -2.393421e-002 -9.349622e-003 -1.425933e-002 -9.787142e-003 -5.396765e-003 4.690089e-003 -6.835332e-003 5.209368e-003 1.451201e-002 1.721763e-002 5.296492e-003 6.553777e-003 6.220506e-003 9.362569e-003 4.125166e-003 3.225525e-003 -2.743884e-002
<VARIANCE> 39
 3.864226e+001 5.281501e+001 7.391051e+001 8.135933e+001 7.677331e+001 9.463634e+001 5.724667e+001 6.897221e+001 6.326392e+001 4.839135e+001 3.680719e+001 3.395739e+001 8.727069e+001 1.372905e+000 1.793903e+000 1.710096e+000 2.409231e+000 2.706431e+000 2.777050e+000 2.585872e+000 2.606039e+000 2.707144e+000 2.455808e+000 2.104158e+000 1.735463e+000 2.419883e+000 1.985618e-001 2.764823e-001 2.480070e-001 3.283480e-001 3.897789e-001 4.118499e-001 4.453265e-001 4.204600e-001 4.511843e-001 4.197432e-001 3.712303e-001 3.108075e-001 2.378747e-001
<GCONST> 1.209395e+002
<TRANSP> 5
 0.000000e+000 1.000000e+000 0.000000e+000 0.000000e+000 0.000000e+000
 0.000000e+000 6.000000e-001 4.000000e-001 0.000000e+000 0.000000e+000
 0.000000e+000 0.000000e+000 6.000000e-001 4.000000e-001 0.000000e+000
 0.000000e+000 0.000000e+000 0.000000e+000 7.000000e-001 3.000000e-001
 0.000000e+000 0.000000e+000 0.000000e+000 0.000000e+000 0.000000e+000
<ENDHMM>
