~o
<STREAMINFO> 1 39
<VECSIZE> 39<NULLD><MFCC_D_A_0><DIAGC>
~s "silst"
<MEAN> 39
 -1.048891e+001 1.775679e+000 -1.653805e+000 -7.491933e-001 -2.254218e+000 -3.715202e+000 -1.884184e-001 -1.200533e+000 -7.859032e-001 -2.759405e-001 -9.631670e-001 5.999422e-002 5.348092e+001 -8.074946e-002 -5.777743e-001 -3.624274e-001 -4.325679e-001 -2.609278e-001 3.930286e-002 1.497419e-002 -1.177319e-001 -1.129427e-002 -2.232285e-001 -1.066219e-001 -2.230084e-001 1.115667e+000 8.149101e-002 4.340391e-002 3.354887e-002 -1.499532e-001 -1.997526e-001 -9.256653e-002 -2.720391e-002 -1.346413e-001 -6.225098e-002 -7.375757e-002 -6.423908e-002 -2.453479e-002 3.960050e-001
<VARIANCE> 39
 1.183653e+001 2.985866e+001 2.351107e+001 2.697156e+001 3.841886e+001 5.074427e+001 4.619314e+001 4.069019e+001 4.535957e+001 3.213227e+001 2.512484e+001 2.164122e+001 3.117800e+001 1.295860e+000 2.757804e+000 2.095644e+000 2.458094e+000 3.655212e+000 3.343609e+000 2.871111e+000 2.597675e+000 2.977636e+000 2.806422e+000 2.614275e+000 1.862424e+000 4.308831e+000 2.200847e-001 3.526722e-001 2.995795e-001 3.754997e-001 5.049157e-001 4.539243e-001 5.317034e-001 4.315040e-001 4.209168e-001 4.411450e-001 4.039889e-001 3.049456e-001 5.660283e-001
<GCONST> 1.166929e+002
~h "N"
<BEGINHMM>
<NUMSTATES> 5
<STATE> 2
<MEAN> 39
 -5.153443e+000 1.887341e+000 -3.998059e-001 -4.719388e+000 -1.027645e+001 -8.377604e+000 -1.314454e+000 -4.294622e+000 -2.598214e+000 -1.637859e+000 -2.417927e+000 -3.007498e-001 6.395220e+001 2.656938e-002 2.103826e-002 1.670751e-002 2.097466e-003 -4.075075e-002 -6.993482e-002 -7.360970e-003 -1.582084e-002 -2.291133e-002 -1.948875e-002 -7.798372e-003 -1.589407e-002 -1.794146e-002 -6.101388e-003 4.534691e-003 -4.683285e-003 2.991999e-003 1.307896e-002 1.532247e-002 4.297304e-003 2.199038e-003 5.607250e-003 8.410532e-003 3.306764e-003 1.353030e-003 -2.459256e-002
<VARIANCE> 39
 3.876240e+001 5.593195e+001 6.909898e+001 8.084949e+001 8.242165e+001 1.017876e+002 5.764616e+001 6.496631e+001 6.744147e+001 4.920574e+001 3.916745e+001 3.616992e+001 8.957718e+001 1.350502e+000 1.888252e+000 1.699849e+000 2.401277e+000 2.816806e+000 2.814739e+000 2.621114e+000 2.615768e+000 2.810299e+000 2.549241e+000 2.217089e+000 1.828917e+000 2.527436e+000 1.981723e-001 2.897191e-001 2.501056e-001 3.312125e-001 4.046271e-001 4.166303e-001 4.473993e-001 4.295296e-001 4.660336e-001 4.356595e-001 3.927584e-001 3.259792e-001 2.569831e-001
<GCONST> 1.219561e+002
<STATE> 3
<MEAN> 39
 -5.153443e+000 1.887341e+000 -3.998059e-001 -4.719388e+000 -1.027645e+001 -8.377604e+000 -1.314454e+000 -4.294622e+000 -2.598214e+000 -1.637859e+000 -2.417927e+000 -3.007498e-001 6.395220e+001 2.656938e-002 2.103826e-002 1.670751e-002 2.097466e-003 -4.075075e-002 -6.993482e-002 -7.360970e-003 -1.582084e-002 -2.291133e-002 -1.948875e-002 -7.798372e-003 -1.589407e-002 -1.794146e-002 -6.101388e-003 4.534691e-003 -4.683285e-003 2.991999e-003 1.307896e-002 1.532247e-002 4.297304e-003 2.199038e-003 5.607250e-003 8.410532e-003 3.306764e-003 1.353030e-003 -2.459256e-002
<VARIANCE> 39
 3.876240e+001 5.593195e+001 6.909898e+001 8.084949e+001 8.242165e+001 1.017876e+002 5.764616e+001 6.496631e+001 6.744147e+001 4.920574e+001 3.916745e+001 3.616992e+001 8.957718e+001 1.350502e+000 1.888252e+000 1.699849e+000 2.401277e+000 2.816806e+000 2.814739e+000 2.621114e+000 2.615768e+000 2.810299e+000 2.549241e+000 2.217089e+000 1.828917e+000 2.527436e+000 1.981723e-001 2.897191e-001 2.501056e-001 3.312125e-001 4.046271e-001 4.166303e-001 4.473993e-001 4.295296e-001 4.660336e-001 4.356595e-001 3.927584e-001 3.259792e-001 2.569831e-001
<GCONST> 1.219561e+002
<STATE> 4
<MEAN> 39
 -5.153443e+000 1.887341e+000 -3.998059e-001 -4.719388e+000 -1.027645e+001 -8.377604e+000 -1.314454e+000 -4.294622e+000 -2.598214e+000 -1.637859e+000 -2.417927e+000 -3.007498e-001 6.395220e+001 2.656938e-002 2.103826e-002 1.670751e-002 2.097466e-003 -4.075075e-002 -6.993482e-002 -7.360970e-003 -1.582084e-002 -2.291133e-002 -1.948875e-002 -7.798372e-003 -1.589407e-002 -1.794146e-002 -6.101388e-003 4.534691e-003 -4.683285e-003 2.991999e-003 1.307896e-002 1.532247e-002 4.297304e-003 2.199038e-003 5.607250e-003 8.410532e-003 3.306764e-003 1.353030e-003 -2.459256e-002
<VARIANCE> 39
 3.876240e+001 5.593195e+001 6.909898e+001 8.084949e+001 8.242165e+001 1.017876e+002 5.764616e+001 6.496631e+001 6.744147e+001 4.920574e+001 3.916745e+001 3.616992e+001 8.957718e+001 1.350502e+000 1.888252e+000 1.699849e+000 2.401277e+000 2.816806e+000 2.814739e+000 2.621114e+000 2.615768e+000 2.810299e+000 2.549241e+000 2.217089e+000 1.828917e+000 2.527436e+000 1.981723e-001 2.897191e-001 2.501056e-001 3.312125e-001 4.046271e-001 4.166303e-001 4.473993e-001 4.295296e-001 4.660336e-001 4.356595e-001 3.927584e-001 3.259792e-001 2.569831e-001
<GCONST> 1.219561e+002
<TRANSP> 5
 0.000000e+000 1.000000e+000 0.000000e+000 0.000000e+000 0.000000e+000
 0.000000e+000 6.000000e-001 4.000000e-001 0.000000e+000 0.000000e+000
 0.000000e+000 0.000000e+000 6.000000e-001 4.000000e-001 0.000000e+000
 0.000000e+000 0.000000e+000 0.000000e+000 7.000000e-001 3.000000e-001
 0.000000e+000 0.000000e+000 0.000000e+000 0.000000e+000 0.000000e+000
<ENDHMM>
~h "a"
<BEGINHMM>
<NUMSTATES> 5
<STATE> 2
<MEAN> 39
 1.524586e-001 -5.437707e+000 -9.442990e+000 -1.312308e+001 -6.146806e+000 -2.641825e+000 -6.335167e-001 -6.180577e+000 9.752559e-001 8.079664e+000 9.808785e-001 -2.249306e+000 7.317406e+001 -8.787580e-001 6.616140e-001 6.700033e-001 2.294432e+000 1.455659e+000 -1.614710e+000 -2.065562e+000 5.110759e-001 1.047047e+000 1.302088e+000 1.066229e+000 -3.735523e-001 -8.891124e-001 -1.770079e-002 1.079896e+000 4.635054e-001 6.888864e-001 -3.616197e-001 -1.836625e-001 7.195468e-003 1.707866e-001 -2.299234e-001 -9.337637e-001 -3.071189e-001 4.642909e-002 -1.225734e+000
<VARIANCE> 39
 8.759132e+000 3.117221e+001 5.617303e+001 5.846362e+001 7.260650e+001 6.552343e+001 4.542249e+001 5.581912e+001 1.779889e+001 1.415997e+001 4.775226e+001 5.957334e+001 2.188069e+001 4.141965e-001 3.545791e+000 1.881383e+000 2.668517e+000 2.936113e+000 2.691477e+000 2.262263e+000 1.469461e+000 2.564208e+000 3.364996e+000 3.482861e+000 3.398076e+000 1.752830e+000 8.284103e-002 5.001554e-001 2.886549e-001 1.263282e+000 5.906382e-001 8.514768e-001 4.450471e-001 3.162960e-001 3.730719e-001 3.059043e-001 7.455224e-001 4.893717e-001 3.468851e-001
<GCONST> 1.176334e+002
<STATE> 3
<MEAN> 39
 -2.123520e+000 7.905686e-001 -6.618539e+000 -8.242147e+000 -7.310851e+000 -6.290318e+000 -4.791661e+000 -5.648938e+000 6.926554e-001 6.082492e+000 1.955644e+000 -2.967265e+000 6.249456e+001 -6.637297e-001 2.661078e-001 2.696533e-001 -2.306997e-002 2.649920e-002 -3.488092e-001 1.612860e-001 7.819697e-001 -9.631349e-002 -3.461220e-001 -1.054145e-002 -5.939074e-002 -2.660875e+000 3.757089e-003 -2.249280e-001 -2.620106e-001 -3.716708e-001 -7.034010e-002 2.700958e-001 2.817058e-001 -2.134957e-002 -9.581019e-002 -8.871990e-002 3.216415e-002 3.533449e-003 1.328247e-001
<VARIANCE> 39
 7.581410e+000 8.938485e+000 4.495632e+001 2.278979e+001 4.384370e+001 2.835490e+001 2.077643e+001 2.819226e+001 3.219880e+001 1.987172e+001 1.959495e+001 2.823691e+001 3.299968e+001 5.619071e-001 1.199640e+000 1.523116e+000 2.111291e+000 2.519790e+000 3.019735e+000 2.479873e+000 1.966820e+000 2.313766e+000 1.659426e+000 1.369940e+000 1.050973e+000 2.401506e+000 9.495526e-002 1.549513e-001 3.442844e-001 6.469444e-001 4.618629e-001 5.022121e-001 5.190136e-001 3.033443e-001 4.098848e-001 4.446992e-001 3.046348e-001 3.205754e-001 3.920169e-001
<GCONST> 1.055751e+002
<STATE> 4
<MEAN> 39
 -7.049757e+000 4.114999e-001 -5.061301e+000 -5.946659e+000 -3.708512e+000 -4.349929e+000 -1.825712e+000 -9.281257e-001 3.153248e+000 5.838075e+000 3.675532e+000 -1.130509e+000 5.482518e+001 -1.217457e+000 -2.209238e-002 9.250673e-001 2.503553e-003 3.138804e-001 9.992102e-001 -3.294325e-001 -1.783887e-001 1.241434e-001 -1.420610e+000 -2.544214e-001 5.237865e-001 -5.273402e-001 -2.637138e-001 -2.109812e-001 2.610044e-001 -1.282332e-001 -2.798946e-001 1.213905e-001 -1.632291e-001 -3.421082e-001 4.677251e-003 -3.542242e-001 -2.651610e-001 9.653126e-002 8.081947e-001
<VARIANCE> 39
 1.288673e+001 2.409056e+001 3.120347e+001 2.091238e+001 4.504776e+001 2.540788e+001 2.019147e+001 7.868562e+000 1.914382e+001 1.977891e+001 1.296561e+001 2.190058e+001 1.341921e+001 8.035806e-001 2.461777e+000 3.349149e+000 2.257379e+000 1.945241e+000 2.224225e+000 1.299559e+000 1.233565e+000 1.904340e+000 2.002155e+000 8.710321e-001 1.866292e+000 3.456111e+000 1.967356e-001 3.788032e-001 4.897850e-001 4.492463e-001 6.193975e-001 4.567764e-001 1.866056e-001 1.956085e-001 6.108031e-001 3.974493e-001 1.262056e-001 3.412417e-001 3.048953e-001
<GCONST> 1.034633e+002
<TRANSP> 5
 0.000000e+000 1.000000e+000 0.000000e+000 0.000000e+000 0.000000e+000
 0.000000e+000 6.417515e-001 3.582486e-001 0.000000e+000 0.000000e+000
 0.000000e+000 0.000000e+000 7.819119e-001 2.180881e-001 0.000000e+000
 0.000000e+000 0.000000e+000 0.000000e+000 7.446786e-001 2.553215e-001
 0.000000e+000 0.000000e+000 0.000000e+000 0.000000e+000 0.000000e+000
<ENDHMM>
~h "e"
<BEGINHMM>
<NUMSTATES> 5
<STATE> 2
<MEAN> 39
 -6.288945e+000 1.644869e-001 4.306061e+000 3.921058e+000 -1.186008e+001 -1.459678e+001 -6.738518e+000 -8.287058e-001 3.749107e+000 -2.861532e+000 -6.148353e+000 1.730798e-001 6.656350e+001 3.688511e-001 -3.746960e-002 2.190242e-001 -1.352428e-002 -1.434319e+000 -4.257409e-001 -2.854120e-001 6.008613e-001 2.714800e-001 4.580977e-002 5.191692e-001 6.481577e-001 -2.938479e-001 -2.276102e-001 -1.388860e-001 -2.283862e-001 -8.255956e-002 1.001600e-001 3.107698e-001 -1.507851e-002 -3.501430e-001 -1.455100e-001 9.610972e-002 4.226588e-001 5.320334e-002 -2.863976e-001
<VARIANCE> 39
 2.054166e+001 2.590209e+001 4.393083e+001 4.126299e+001 6.528980e+001 7.953273e+001 6.397890e+001 5.064403e+001 2.349799e+001 2.766249e+001 2.148722e+001 4.105971e+001 3.620195e+001 1.070980e+000 7.049743e-001 1.391778e+000 2.687436e+000 3.811896e+000 2.735062e+000 3.302211e+000 2.725457e+000 2.246416e+000 1.827651e+000 1.244848e+000 1.989298e+000 4.795509e-001 2.315727e-001 2.722912e-001 1.386138e-001 4.851514e-001 3.952739e-001 6.155095e-001 3.625845e-001 4.869419e-001 4.105262e-001 4.326332e-001 3.661878e-001 4.710713e-001 8.097085e-002
<GCONST> 1.114976e+002
<STATE> 3
<MEAN> 39
 -6.355686e+000 6.413402e-001 5.441854e+000 3.576336e+000 -1.431771e+001 -1.402690e+001 -8.205020e+000 8.862747e-002 3.945415e+000 -2.736925e+000 -3.582459e+000 1.962575e+000 6.540911e+001 -5.265995e-002 -6.492286e-002 -9.913830e-002 -1.795339e-001 -5.404887e-001 2.399816e-002 1.688434e-001 1.364187e-001 -2.547072e-001 3.170622e-002 9.885312e-001 4.616402e-001 -7.504305e-001 -1.430382e-001 -1.554250e-002 -1.784190e-001 6.734740e-002 5.566740e-001 2.049537e-001 2.673415e-001 -4.869075e-001 -3.389350e-001 1.049050e-001 1.740061e-001 -1.858770e-001 -3.422970e-001
<VARIANCE> 39
 1.496577e+001 2.052124e+001 5.409941e+001 4.709679e+001 6.265539e+001 7.508035e+001 7.258461e+001 5.458210e+001 2.964319e+001 2.002203e+001 2.717116e+001 5.077109e+001 3.108633e+001 6.039264e-001 6.755200e-001 6.887170e-001 1.747684e+000 2.491678e+000 2.732571e+000 1.703542e+000 2.338728e+000 1.529183e+000 1.745968e+000 1.305353e+000 1.996919e+000 5.167468e-001 1.323858e-001 1.569657e-001 1.639740e-001 4.605839e-001 5.387297e-001 7.543272e-001 7.298536e-001 5.226974e-001 4.481912e-001 2.873453e-001 3.953154e-001 5.511672e-001 1.017834e-001
<GCONST> 1.087302e+002
<STATE> 4
<MEAN> 39
 -8.412674e+000 -1.827057e+000 2.838790e+000 2.920081e+000 -1.343867e+001 -1.534816e+001 9.604605e-001 2.196145e+000 9.443341e-001 -9.051013e-001 -3.050275e+000 2.062801e-001 5.932457e+001 -1.634755e-001 -4.730211e-002 -4.516742e-001 -1.373647e-001 7.624762e-001 9.650157e-002 4.434945e-001 -2.247760e-001 -5.857793e-002 5.016254e-001 2.696716e-001 -1.458136e-001 -1.014276e+000 -2.486182e-002 5.966676e-003 -8.013364e-002 4.195691e-003 3.172773e-001 2.364931e-001 9.967613e-003 -4.844281e-002 1.128692e-001 9.707841e-002 -1.187222e-001 -1.060698e-001 -4.718456e-002
<VARIANCE> 39
 1.273030e+001 1.604781e+001 4.427606e+001 4.938451e+001 7.755540e+001 5.223958e+001 8.669207e+001 3.398486e+001 2.540831e+001 1.532348e+001 3.847996e+001 3.110345e+001 3.964559e+001 2.973487e-001 9.197224e-001 1.039804e+000 1.562641e+000 2.071011e+000 2.284565e+000 1.929243e+000 1.488794e+000 2.208423e+000 1.192263e+000 1.831479e+000 1.308922e+000 5.798231e-001 5.514917e-002 8.679634e-002 1.485202e-001 2.257655e-001 3.414361e-001 3.259589e-001 3.446106e-001 3.430127e-001 3.149314e-001 2.196796e-001 3.383360e-001 3.236046e-001 6.196572e-002
<GCONST> 1.000772e+002
<TRANSP> 5
 0.000000e+000 1.000000e+000 0.000000e+000 0.000000e+000 0.000000e+000
 0.000000e+000 9.490705e-002 9.050929e-001 0.000000e+000 0.000000e+000
 0.000000e+000 0.000000e+000 2.132978e-001 7.867022e-001 0.000000e+000
 0.000000e+000 0.000000e+000 0.000000e+000 7.755344e-001 2.244656e-001
 0.000000e+000 0.000000e+000 0.000000e+000 0.000000e+000 0.000000e+000
<ENDHMM>
~h "f"
<BEGINHMM>
<NUMSTATES> 5
<STATE> 2
<MEAN> 39
 -5.153443e+000 1.887341e+000 -3.998059e-001 -4.719388e+000 -1.027645e+001 -8.377604e+000 -1.314454e+000 -4.294622e+000 -2.598214e+000 -1.637859e+000 -2.417927e+000 -3.007498e-001 6.395220e+001 2.656938e-002 2.103826e-002 1.670751e-002 2.097466e-003 -4.075075e-002 -6.993482e-002 -7.360970e-003 -1.582084e-002 -2.291133e-002 -1.948875e-002 -7.798372e-003 -1.589407e-002 -1.794146e-002 -6.101388e-003 4.534691e-003 -4.683285e-003 2.991999e-003 1.307896e-002 1.532247e-002 4.297304e-003 2.199038e-003 5.607250e-003 8.410532e-003 3.306764e-003 1.353030e-003 -2.459256e-002
<VARIANCE> 39
 3.876240e+001 5.593195e+001 6.909898e+001 8.084949e+001 8.242165e+001 1.017876e+002 5.764616e+001 6.496631e+001 6.744147e+001 4.920574e+001 3.916745e+001 3.616992e+001 8.957718e+001 1.350502e+000 1.888252e+000 1.699849e+000 2.401277e+000 2.816806e+000 2.814739e+000 2.621114e+000 2.615768e+000 2.810299e+000 2.549241e+000 2.217089e+000 1.828917e+000 2.527436e+000 1.981723e-001 2.897191e-001 2.501056e-001 3.312125e-001 4.046271e-001 4.166303e-001 4.473993e-001 4.295296e-001 4.660336e-001 4.356595e-001 3.927584e-001 3.259792e-001 2.569831e-001
<GCONST> 1.219561e+002
<STATE> 3
<MEAN> 39
 -5.153443e+000 1.887341e+000 -3.998059e-001 -4.719388e+000 -1.027645e+001 -8.377604e+000 -1.314454e+000 -4.294622e+000 -2.598214e+000 -1.637859e+000 -2.417927e+000 -3.007498e-001 6.395220e+001 2.656938e-002 2.103826e-002 1.670751e-002 2.097466e-003 -4.075075e-002 -6.993482e-002 -7.360970e-003 -1.582084e-002 -2.291133e-002 -1.948875e-002 -7.798372e-003 -1.589407e-002 -1.794146e-002 -6.101388e-003 4.534691e-003 -4.683285e-003 2.991999e-003 1.307896e-002 1.532247e-002 4.297304e-003 2.199038e-003 5.607250e-003 8.410532e-003 3.306764e-003 1.353030e-003 -2.459256e-002
<VARIANCE> 39
 3.876240e+001 5.593195e+001 6.909898e+001 8.084949e+001 8.242165e+001 1.017876e+002 5.764616e+001 6.496631e+001 6.744147e+001 4.920574e+001 3.916745e+001 3.616992e+001 8.957718e+001 1.350502e+000 1.888252e+000 1.699849e+000 2.401277e+000 2.816806e+000 2.814739e+000 2.621114e+000 2.615768e+000 2.810299e+000 2.549241e+000 2.217089e+000 1.828917e+000 2.527436e+000 1.981723e-001 2.897191e-001 2.501056e-001 3.312125e-001 4.046271e-001 4.166303e-001 4.473993e-001 4.295296e-001 4.660336e-001 4.356595e-001 3.927584e-001 3.259792e-001 2.569831e-001
<GCONST> 1.219561e+002
<STATE> 4
<MEAN> 39
 -5.153443e+000 1.887341e+000 -3.998059e-001 -4.719388e+000 -1.027645e+001 -8.377604e+000 -1.314454e+000 -4.294622e+000 -2.598214e+000 -1.637859e+000 -2.417927e+000 -3.007498e-001 6.395220e+001 2.656938e-002 2.103826e-002 1.670751e-002 2.097466e-003 -4.075075e-002 -6.993482e-002 -7.360970e-003 -1.582084e-002 -2.291133e-002 -1.948875e-002 -7.798372e-003 -1.589407e-002 -1.794146e-002 -6.101388e-003 4.534691e-003 -4.683285e-003 2.991999e-003 1.307896e-002 1.532247e-002 4.297304e-003 2.199038e-003 5.607250e-003 8.410532e-003 3.306764e-003 1.353030e-003 -2.459256e-002
<VARIANCE> 39
 3.876240e+001 5.593195e+001 6.909898e+001 8.084949e+001 8.242165e+001 1.017876e+002 5.764616e+001 6.496631e+001 6.744147e+001 4.920574e+001 3.916745e+001 3.616992e+001 8.957718e+001 1.350502e+000 1.888252e+000 1.699849e+000 2.401277e+000 2.816806e+000 2.814739e+000 2.621114e+000 2.615768e+000 2.810299e+000 2.549241e+000 2.217089e+000 1.828917e+000 2.527436e+000 1.981723e-001 2.897191e-001 2.501056e-001 3.312125e-001 4.046271e-001 4.166303e-001 4.473993e-001 4.295296e-001 4.660336e-001 4.356595e-001 3.927584e-001 3.259792e-001 2.569831e-001
<GCONST> 1.219561e+002
<TRANSP> 5
 0.000000e+000 1.000000e+000 0.000000e+000 0.000000e+000 0.000000e+000
 0.000000e+000 6.000000e-001 4.000000e-001 0.000000e+000 0.000000e+000
 0.000000e+000 0.000000e+000 6.000000e-001 4.000000e-001 0.000000e+000
 0.000000e+000 0.000000e+000 0.000000e+000 7.000000e-001 3.000000e-001
 0.000000e+000 0.000000e+000 0.000000e+000 0.000000e+000 0.000000e+000
<ENDHMM>
~h "h"
<BEGINHMM>
<NUMSTATES> 5
<STATE> 2
<MEAN> 39
 -1.017427e+001 -1.214286e-001 -2.993863e+000 -1.212375e+001 -9.283560e+000 -3.393942e+000 5.184023e+000 -3.685361e-002 2.329025e+000 4.435212e-001 -2.011145e+000 -1.041088e-002 6.481029e+001 1.116943e+000 1.409760e+000 9.177058e-001 2.180895e-001 -1.074120e+000 -9.089091e-001 -2.520173e-001 -6.892170e-001 -4.287539e-001 -4.448450e-001 -6.031192e-001 -1.421081e-001 1.232339e+000 3.606179e-001 1.170228e-001 1.069875e-001 1.802087e-001 -1.650968e-001 -2.870040e-001 -2.911723e-001 -1.694051e-001 -1.199274e-001 -8.313292e-003 3.554844e-002 1.109133e-001 1.506402e-002
<VARIANCE> 39
 3.279179e+001 6.311013e+001 5.421133e+001 1.010978e+002 5.321902e+001 7.056830e+001 4.579425e+001 5.595657e+001 5.205256e+001 2.665460e+001 3.283666e+001 3.060719e+001 2.325050e+001 2.814265e+000 2.218993e+000 1.940415e+000 2.769203e+000 3.234948e+000 2.605589e+000 2.049965e+000 3.393616e+000 2.629934e+000 2.033665e+000 2.167318e+000 1.858522e+000 1.074990e+000 2.693905e-001 5.613539e-001 3.657209e-001 4.236949e-001 5.306183e-001 4.923055e-001 3.969400e-001 6.112729e-001 4.358490e-001 3.335285e-001 3.974836e-001 4.240067e-001 1.098438e-001
<GCONST> 1.195923e+002
<STATE> 3
<MEAN> 39
 -7.124500e-001 4.988960e+000 1.488659e-001 -8.848657e+000 -1.667452e+001 -1.133452e+001 -8.383432e-001 -4.525410e+000 -2.182538e+000 -2.156416e+000 -4.750841e+000 -9.130076e-001 7.155281e+001 1.066381e+000 -7.951906e-001 -4.621147e-001 -4.262263e-001 -1.414752e+000 -1.352872e+000 -1.339122e+000 -8.418294e-001 -5.143396e-001 -4.056275e-001 1.889229e-001 6.048844e-001 1.097138e+000 -5.989485e-001 -5.767031e-001 -3.952682e-001 -1.158607e-001 4.406911e-001 4.362577e-001 9.454846e-002 1.340206e-002 -3.618639e-002 5.227913e-002 3.758052e-001 2.327355e-001 -2.810383e-001
<VARIANCE> 39
 2.436691e+001 5.857086e+001 6.801167e+001 6.998548e+001 5.498795e+001 6.735897e+001 4.859265e+001 3.555387e+001 5.595108e+001 3.222510e+001 3.037768e+001 2.975085e+001 2.143181e+001 1.318445e+000 3.351018e+000 1.571797e+000 1.729469e+000 4.172430e+000 2.812580e+000 4.385376e+000 3.079640e+000 2.991748e+000 1.429175e+000 1.616382e+000 2.524511e+000 1.474183e+000 2.167702e-001 5.586698e-001 2.954870e-001 3.512873e-001 5.909671e-001 4.105264e-001 6.748076e-001 5.500538e-001 5.601218e-001 3.407313e-001 4.746424e-001 2.837308e-001 2.253616e-001
<GCONST> 1.193127e+002
<STATE> 4
<MEAN> 39
 -3.549449e-001 1.157759e+000 -1.735249e+000 -9.506012e+000 -1.817337e+001 -1.113120e+001 -2.790377e+000 -8.195453e+000 -3.161773e+000 -4.384772e+000 -2.635095e+000 3.407734e+000 7.252750e+001 -1.875335e-001 -9.325678e-001 -2.783477e-001 1.493421e-001 1.459693e-001 -7.418376e-002 -9.408007e-001 -1.172096e+000 -7.190603e-001 1.850475e-001 1.479709e+000 9.339455e-001 2.640085e-001 -2.432470e-001 -2.480798e-002 2.350872e-001 3.028751e-001 4.106334e-001 1.559117e-002 -9.714491e-002 8.029957e-002 2.730290e-001 3.784411e-001 3.656730e-002 -3.268059e-001 -1.194077e-001
<VARIANCE> 39
 1.557522e+001 6.341991e+001 6.398833e+001 7.318213e+001 5.829475e+001 8.992982e+001 5.763286e+001 4.813649e+001 7.007650e+001 3.024614e+001 3.834529e+001 4.141475e+001 2.387450e+001 3.033949e-001 1.120653e+000 1.279321e+000 1.064562e+000 3.756390e+000 1.884619e+000 3.827937e+000 2.622290e+000 2.518505e+000 2.273211e+000 3.400085e+000 2.196344e+000 7.876749e-001 9.399347e-002 3.012340e-001 2.509489e-001 2.558018e-001 3.829600e-001 5.141248e-001 7.853273e-001 4.477110e-001 4.929406e-001 4.107251e-001 6.082044e-001 5.572217e-001 1.144682e-001
<GCONST> 1.149021e+002
<TRANSP> 5
 0.000000e+000 1.000000e+000 0.000000e+000 0.000000e+000 0.000000e+000
 0.000000e+000 8.328730e-001 1.671270e-001 0.000000e+000 0.000000e+000
 0.000000e+000 0.000000e+000 6.525407e-001 3.474592e-001 0.000000e+000
 0.000000e+000 0.000000e+000 0.000000e+000 5.983102e-001 4.016898e-001
 0.000000e+000 0.000000e+000 0.000000e+000 0.000000e+000 0.000000e+000
<ENDHMM>
~h "i"
<BEGINHMM>
<NUMSTATES> 5
<STATE> 2
<MEAN> 39
 -2.548976e+001 9.990522e-001 3.818171e+000 -7.441592e+000 -6.132792e+000 -3.270339e+000 1.233433e+000 -2.056862e+000 3.018036e+000 -1.638568e+000 2.645263e-002 1.602163e-001 6.550940e+001 -1.155527e+000 4.323581e-001 2.511813e+000 1.801305e+000 1.849579e-001 -9.771850e-001 1.205091e+000 -1.584959e-001 -1.007399e+000 -7.700430e-001 -1.283719e-001 9.130336e-002 9.334944e-001 1.287606e+000 1.330002e-001 9.728449e-002 5.452096e-001 6.887005e-002 -5.270957e-001 -3.310122e-001 -7.544830e-002 -4.444267e-001 2.746257e-002 -1.103381e-001 -1.279854e-001 -4.662248e-001
<VARIANCE> 39
 3.970884e+001 1.612594e+001 4.168293e+001 4.524235e+001 2.118563e+001 2.791722e+001 4.308130e+001 2.763879e+001 3.557266e+001 1.940889e+001 1.035255e+001 1.206314e+001 1.268277e+001 1.225860e+001 1.765609e+000 3.088841e+000 5.457012e+000 2.744425e+000 5.171029e+000 2.698591e+000 1.911879e+000 3.539782e+000 1.190485e+000 2.324203e+000 1.742660e+000 3.400883e+000 8.713227e-001 3.794565e-001 7.020723e-001 4.238840e-001 8.748000e-001 6.730440e-001 6.988792e-001 4.052313e-001 5.879274e-001 2.359419e-001 3.754158e-001 2.702892e-001 3.683327e-001
<GCONST> 1.179332e+002
<STATE> 3
<MEAN> 39
 -1.583160e+001 2.513593e+000 1.240269e+001 4.638896e+000 -7.816375e+000 -1.091689e+001 -1.812841e-001 -5.750543e+000 -4.610794e+000 -4.471923e+000 -1.264845e+000 8.612094e-001 6.506371e+001 2.206751e+000 5.542758e-001 7.371894e-002 2.574826e+000 4.215510e-001 -2.608075e+000 -7.127812e-001 4.627787e-002 -7.925471e-001 -8.347328e-001 -6.886903e-001 5.494083e-001 -4.709905e-001 -2.102198e-001 -1.106811e-001 -7.335694e-001 -5.982184e-001 3.033114e-001 3.919719e-001 -1.085363e-001 1.939638e-001 5.867721e-001 -9.866763e-002 -1.894419e-001 5.497890e-002 -8.643040e-002
<VARIANCE> 39
 2.681121e+001 3.814086e+001 6.267216e+001 4.930868e+001 4.703106e+001 7.692641e+001 2.246353e+001 2.201923e+001 2.236611e+001 1.933921e+001 1.850638e+001 1.498998e+001 6.705318e+000 2.776953e+000 1.767086e+000 2.499536e+000 1.375803e+000 5.528667e+000 2.070587e+000 2.157823e+000 1.735384e+000 2.641808e+000 2.394426e+000 2.220475e+000 1.395589e+000 4.721108e-001 5.416824e-001 2.592742e-001 5.563922e-001 2.476901e-001 7.909365e-001 8.220017e-001 3.760462e-001 1.959783e-001 3.514660e-001 3.566609e-001 4.132636e-001 3.965424e-001 6.887849e-002
<GCONST> 1.099041e+002
<STATE> 4
<MEAN> 39
 -1.092849e+001 8.414453e-001 7.052484e+000 9.253649e+000 -5.932147e+000 -1.567350e+001 -1.930520e+000 -5.121202e+000 -3.148730e+000 -4.969391e+000 -2.616991e+000 6.100044e-001 6.272594e+001 8.972901e-001 -7.221129e-002 -1.961985e+000 -4.324181e-001 7.603063e-001 7.906492e-001 -4.860098e-001 -1.005815e-001 6.518956e-001 9.239889e-001 1.832452e-001 -3.567358e-001 -5.001128e-001 -8.760360e-002 6.009446e-002 -1.537143e-001 -8.658040e-001 -2.796918e-003 8.264998e-001 4.500227e-002 -3.733772e-001 -3.393417e-002 5.494817e-001 4.924631e-001 -1.900293e-002 -3.716913e-002
<VARIANCE> 39
 8.647479e+000 3.124001e+001 3.853392e+001 5.883372e+001 1.597340e+001 4.728425e+001 1.985431e+001 1.643845e+001 1.655937e+001 2.976137e+001 5.378836e+001 9.879516e+000 4.714399e+000 9.792595e-001 9.556900e-001 1.873834e+000 2.299631e+000 7.534359e-001 4.398665e+000 2.340235e+000 3.689211e+000 2.593126e+000 3.600598e+000 4.151810e+000 1.637713e+000 4.636243e-001 1.819447e-001 1.879310e-001 2.901046e-001 1.801927e-001 1.966249e-001 4.210854e-001 4.836770e-001 2.967017e-001 7.339306e-001 4.730285e-001 7.377089e-001 4.460037e-001 5.759472e-002
<GCONST> 1.037907e+002
<TRANSP> 5
 0.000000e+000 1.000000e+000 0.000000e+000 0.000000e+000 0.000000e+000
 0.000000e+000 7.318646e-001 2.681355e-001 0.000000e+000 0.000000e+000
 0.000000e+000 0.000000e+000 6.792457e-001 3.207543e-001 0.000000e+000
 0.000000e+000 0.000000e+000 0.000000e+000 6.629401e-001 3.370598e-001
 0.000000e+000 0.000000e+000 0.000000e+000 0.000000e+000 0.000000e+000
<ENDHMM>
~h "k"
<BEGINHMM>
<NUMSTATES> 5
<STATE> 2
<MEAN> 39
 -1.484025e+001 -3.808301e+000 4.182627e-001 -1.517614e+000 -9.981631e+000 -1.292610e+001 -1.899998e+000 -4.837587e+000 -1.815100e+000 -2.649832e+000 -1.441652e+000 7.526392e-001 7.278558e+001 1.393291e+000 1.312775e+000 1.606887e+000 6.028805e-001 -1.060488e+000 -1.524103e+000 -4.926222e-001 -7.261192e-001 -5.524786e-001 -8.998575e-001 -4.607326e-001 -6.580044e-002 1.181276e+000 4.178151e-001 2.266709e-001 1.515801e-001 8.225997e-002 1.008276e-001 1.028332e-001 6.483074e-002 1.870735e-001 3.757200e-002 -3.782532e-002 2.235109e-002 9.394051e-002 -6.218927e-001
<VARIANCE> 39
 3.314040e+001 4.925782e+001 6.497748e+001 2.866227e+001 3.246440e+001 4.157908e+001 3.055393e+001 3.679417e+001 4.722697e+001 2.522435e+001 2.596732e+001 2.346104e+001 1.985010e+001 3.686122e+000 3.823348e+000 3.685621e+000 3.484163e+000 3.953907e+000 3.621580e+000 2.826959e+000 3.286243e+000 4.398976e+000 3.187835e+000 2.041656e+000 1.591944e+000 5.224221e+000 6.478268e-001 1.219171e+000 9.481428e-001 8.409154e-001 8.951167e-001 5.558977e-001 5.569904e-001 5.327891e-001 6.035299e-001 5.247729e-001 4.032550e-001 3.669845e-001 9.688195e-001
<GCONST> 1.274147e+002
<STATE> 3
<MEAN> 39
 -5.387261e+000 -1.457908e+000 6.366601e+000 9.249490e-001 -1.808660e+001 -1.980672e+001 -4.320921e+000 -8.167132e+000 -4.839956e+000 -7.275751e+000 -2.849762e+000 2.112721e+000 7.526674e+001 5.974177e-001 -6.970647e-001 2.222554e-001 -4.600675e-001 -1.584429e+000 -9.349192e-001 -7.854369e-001 -3.637676e-001 -4.010035e-001 -2.502346e-001 6.222021e-001 7.197550e-001 3.692388e-001 -7.251039e-001 -1.170138e-001 -2.297444e-001 -9.090442e-002 4.760931e-001 5.367122e-001 2.266587e-001 1.413708e-001 7.070117e-002 3.760647e-001 2.065293e-001 -1.143077e-001 -2.795077e-001
<VARIANCE> 39
 1.524817e+001 5.200517e+001 5.028693e+001 1.604445e+001 7.531984e+001 5.737263e+001 4.417426e+001 7.141360e+001 6.851622e+001 2.402104e+001 2.895518e+001 2.709228e+001 9.139525e+000 1.289641e+000 2.058970e+000 1.955833e+000 8.413275e-001 3.505289e+000 2.376834e+000 2.172230e+000 2.754492e+000 2.644405e+000 1.385985e+000 1.220780e+000 9.056931e-001 6.969463e-001 1.702856e-001 4.511448e-001 4.542759e-001 3.079912e-001 5.250585e-001 6.136078e-001 4.651794e-001 4.241721e-001 7.558652e-001 3.817573e-001 3.478415e-001 2.063393e-001 6.132484e-002
<GCONST> 1.102223e+002
<STATE> 4
<MEAN> 39
 -8.347996e+000 4.398210e+000 8.717450e+000 2.976456e-001 -1.472982e+001 -1.885353e+001 -6.621748e+000 -5.759917e+000 -4.853126e+000 -7.550996e+000 2.528794e+000 1.532321e+000 7.583218e+001 -9.653591e-002 2.527864e-001 5.081524e-001 -9.047784e-002 -2.454610e-001 8.818898e-002 1.167568e-001 -1.343299e-001 -1.816490e-001 -9.907985e-002 1.287925e-001 5.662085e-002 -1.840770e-001 -1.070078e-001 1.023168e-001 6.031753e-003 6.812453e-002 1.395282e-001 1.324341e-002 2.475936e-001 3.837088e-002 1.299780e-001 5.580132e-002 -2.524858e-001 -1.166773e-001 -1.252112e-001
<VARIANCE> 39
 1.465506e+001 6.677188e+001 3.217633e+001 1.184793e+001 5.623600e+001 5.578504e+001 1.879807e+001 5.924254e+001 4.801757e+001 2.655813e+001 2.894382e+001 2.998515e+001 1.011554e+001 2.143556e-001 5.770133e-001 9.191529e-001 6.268571e-001 6.895455e-001 1.618875e+000 1.167260e+000 1.459229e+000 1.172735e+000 8.740475e-001 1.941979e+000 7.286093e-001 3.384617e-001 7.598626e-002 1.159315e-001 2.139499e-001 1.030924e-001 1.929735e-001 3.763249e-001 1.751149e-001 4.271903e-001 2.490715e-001 2.045275e-001 3.481816e-001 1.289923e-001 2.963269e-002
<GCONST> 8.973342e+001
<TRANSP> 5
 0.000000e+000 1.000000e+000 0.000000e+000 0.000000e+000 0.000000e+000
 0.000000e+000 8.498080e-001 1.501920e-001 0.000000e+000 0.000000e+000
 0.000000e+000 0.000000e+000 5.514444e-001 4.485556e-001 0.000000e+000
 0.000000e+000 0.000000e+000 0.000000e+000 6.529334e-001 3.470666e-001
 0.000000e+000 0.000000e+000 0.000000e+000 0.000000e+000 0.000000e+000
<ENDHMM>
~h "m"
<BEGINHMM>
<NUMSTATES> 5
<STATE> 2
<MEAN> 39
 -1.178379e+000 1.050084e+001 4.420636e+000 2.624166e+000 -5.920342e+000 -1.834509e+000 -5.975996e-002 -7.506004e+000 -1.039205e+001 -1.103282e+001 -6.185729e+000 -1.888672e+000 6.189146e+001 1.141551e+000 -3.727222e-001 -8.412476e-001 -1.519215e+000 -1.545656e+000 -3.236644e-001 1.974116e-001 -7.276671e-002 2.547165e-001 1.982550e-001 -1.747697e-001 -2.947854e-001 1.676673e+000 -1.984065e-001 -5.727307e-001 -5.752261e-001 -6.664708e-001 -2.042145e-001 1.560753e-001 2.844553e-001 2.978459e-001 5.234984e-001 6.281392e-001 2.239645e-001 2.590208e-002 8.742337e-002
<VARIANCE> 39
 1.003924e+001 2.440481e+001 5.094489e+001 3.636841e+001 7.248533e+001 9.486462e+001 4.496304e+001 5.193528e+001 6.778453e+001 7.005457e+001 5.039760e+001 3.046859e+001 2.056645e+001 1.036750e+000 2.514667e+000 4.551572e+000 5.373879e+000 2.645471e+000 2.141967e+000 2.560576e+000 4.019417e+000 5.040427e+000 6.600918e+000 3.332177e+000 1.461783e+000 9.495619e-001 1.446906e-001 2.807825e-001 4.542118e-001 5.266184e-001 5.014630e-001 4.060751e-001 4.821914e-001 4.678096e-001 6.675453e-001 8.572449e-001 6.118688e-001 3.002163e-001 1.078804e-001
<GCONST> 1.211842e+002
<STATE> 3
<MEAN> 39
 3.101703e+000 1.684006e+000 -8.038383e+000 -1.473312e+001 -1.626258e+001 -2.519509e+000 4.807008e+000 -1.960720e+000 -4.065601e+000 -1.209172e+000 -5.164439e+000 -3.818977e+000 7.145091e+001 7.761438e-002 -2.571630e+000 -1.685964e+000 -3.133867e+000 -1.048106e+000 1.350877e+000 1.697809e+000 3.496370e-001 7.151441e-001 1.700828e+000 5.347468e-001 -1.511246e-001 1.791131e+000 -4.068350e-001 3.028515e-001 7.504484e-001 1.066821e+000 9.401569e-001 1.760603e-001 -2.540376e-001 -4.155302e-001 -6.685202e-001 -5.903583e-001 -5.132358e-002 4.449056e-002 -5.026499e-001
<VARIANCE> 39
 5.921480e+000 3.759892e+001 2.596499e+001 2.664523e+001 3.857093e+001 3.510247e+001 3.991611e+001 7.391943e+001 3.700134e+001 6.220177e+001 4.340028e+001 3.597263e+001 9.094069e+000 7.764904e-001 1.860073e+000 2.247082e+000 4.357592e+000 5.706086e+000 3.994934e+000 2.793891e+000 4.762018e+000 4.180392e+000 7.707857e+000 3.481569e+000 2.388608e+000 1.631614e+000 6.901608e-002 3.262598e-001 2.750112e-001 3.394214e-001 6.083590e-001 6.474054e-001 6.185902e-001 8.930907e-001 5.112381e-001 1.200990e+000 7.852849e-001 2.835639e-001 1.035215e-001
<GCONST> 1.186212e+002
<STATE> 4
<MEAN> 39
 4.312047e-001 -5.374423e+000 -1.134972e+001 -1.738993e+001 -1.317173e+001 9.462071e-001 7.655333e+000 1.494702e-001 -5.433645e+000 5.751801e-001 -3.280088e+000 -5.124795e+000 7.527715e+001 -2.134309e-001 -5.402670e-001 -5.659599e-003 -1.250181e-001 1.390682e-001 2.843624e-001 -1.388865e-001 -1.563044e-001 -5.577997e-002 2.526130e-001 2.337499e-001 9.538472e-002 2.177522e-001 4.440542e-002 2.959630e-001 1.409059e-001 2.515946e-001 6.735675e-003 -2.268456e-001 -2.605864e-001 -1.684220e-002 -1.184040e-002 -6.961852e-002 3.153546e-003 6.935813e-002 -2.297942e-001
<VARIANCE> 39
 6.338282e+000 4.418933e+001 2.448787e+001 1.951478e+001 2.094341e+001 3.205353e+001 2.855495e+001 7.237045e+001 3.654243e+001 5.398247e+001 4.413075e+001 2.715835e+001 1.477872e+001 2.888751e-001 7.080887e-001 5.517070e-001 1.116256e+000 1.121990e+000 1.707029e+000 1.587964e+000 2.201041e+000 1.618713e+000 2.576137e+000 1.826832e+000 1.245881e+000 3.875596e-001 5.422194e-002 1.390688e-001 1.559866e-001 3.357065e-001 2.342141e-001 3.491997e-001 3.855625e-001 3.380533e-001 3.138033e-001 5.234158e-001 3.950329e-001 2.471656e-001 7.087061e-002
<GCONST> 9.696774e+001
<TRANSP> 5
 0.000000e+000 1.000000e+000 0.000000e+000 0.000000e+000 0.000000e+000
 0.000000e+000 8.542232e-001 1.457768e-001 0.000000e+000 0.000000e+000
 0.000000e+000 0.000000e+000 6.402878e-001 3.597122e-001 0.000000e+000
 0.000000e+000 0.000000e+000 0.000000e+000 7.760035e-001 2.239965e-001
 0.000000e+000 0.000000e+000 0.000000e+000 0.000000e+000 0.000000e+000
<ENDHMM>
~h "n"
<BEGINHMM>
<NUMSTATES> 5
<STATE> 2
<MEAN> 39
 -1.437320e+000 3.165146e+000 2.887255e+000 4.680379e+000 -1.272863e+001 -8.927915e+000 -5.630759e+000 -9.578366e+000 -2.591128e+000 -3.975156e+000 -3.957923e+000 -3.097168e+000 6.580302e+001 -2.649326e-002 6.286708e-001 2.100789e-001 4.719956e-001 3.137946e-001 8.892316e-002 -8.342592e-002 -3.291467e-001 -2.943080e-001 -6.810035e-002 8.770905e-002 -3.745775e-001 -6.770291e-001 -1.049215e-001 -2.822133e-001 -6.841224e-002 -1.883687e-001 -2.626664e-001 6.226235e-002 8.128341e-002 1.655859e-001 3.373345e-001 1.200689e-001 -7.798477e-002 9.792951e-002 2.768278e-001
<VARIANCE> 39
 1.008952e+001 3.059714e+001 9.207188e+001 3.104191e+001 1.108758e+002 6.167366e+001 5.140214e+001 4.524521e+001 5.057290e+001 6.232759e+001 3.859102e+001 4.078102e+001 3.425124e+001 4.884264e-001 1.849755e+000 2.148491e+000 2.295582e+000 3.025901e+000 3.442129e+000 3.072562e+000 2.508981e+000 4.193521e+000 3.205952e+000 2.145875e+000 2.322967e+000 1.325150e+000 5.134293e-002 2.461436e-001 2.534397e-001 3.716769e-001 4.008999e-001 5.097760e-001 5.850636e-001 5.745682e-001 8.655447e-001 5.127068e-001 4.515124e-001 3.689461e-001 1.420523e-001
<GCONST> 1.172990e+002
<STATE> 3
<MEAN> 39
 -3.920220e+000 5.530199e-001 1.884674e+000 4.570573e+000 -1.565143e+001 -6.121255e+000 -6.129263e+000 -8.461946e+000 5.411413e+000 -8.938212e-001 -6.304565e+000 -4.243278e+000 6.807685e+001 -7.696482e-001 -1.593378e+000 2.766193e-002 -7.540321e-002 -1.977292e+000 -3.900050e-001 9.391031e-002 1.679094e+000 2.825538e+000 1.834863e-001 -1.166089e+000 7.624678e-001 1.270060e+000 -3.692674e-003 1.931006e-001 1.078492e-001 -1.399439e-001 6.686909e-002 -5.574190e-001 5.894912e-002 5.437197e-001 -5.913884e-001 -1.645840e-001 3.384423e-001 1.479601e-001 -9.902684e-002
<VARIANCE> 39
 1.066844e+001 3.341708e+001 8.018032e+001 3.038812e+001 7.613993e+001 3.540474e+001 5.199762e+001 7.562206e+001 8.443111e+001 2.861352e+001 5.579607e+001 2.245104e+001 4.345085e+001 5.549590e-001 2.145484e+000 1.974798e+000 1.512561e+000 2.978324e+000 3.107057e+000 5.389534e+000 4.193849e+000 4.912173e+000 2.543102e+000 2.707707e+000 2.795766e+000 1.097969e+000 6.799947e-002 3.738381e-001 3.282047e-001 2.359446e-001 4.632111e-001 4.274059e-001 8.400378e-001 7.030248e-001 1.656345e+000 3.839598e-001 6.239589e-001 3.065552e-001 2.351304e-001
<GCONST> 1.195464e+002
<STATE> 4
<MEAN> 39
 -6.340323e+000 -6.146137e-002 6.234738e+000 1.541812e+000 -2.018209e+001 -1.181115e+001 -7.857304e+000 -2.626174e+000 5.474348e+000 -3.462213e+000 -6.494343e+000 -6.664730e-001 6.928294e+001 -3.081099e-001 1.057770e-001 2.892352e-001 -6.765675e-002 3.338315e-002 -8.830138e-001 3.035352e-001 5.561865e-001 -1.033947e+000 -3.990935e-001 2.200868e-001 3.159507e-001 -4.680032e-001 8.730311e-002 1.415369e-001 -2.849858e-002 1.635420e-003 2.242230e-001 9.075683e-002 6.850992e-002 -3.451473e-001 -1.787347e-001 -2.177372e-002 8.170421e-002 -1.059127e-001 -1.891714e-001
<VARIANCE> 39
 9.697441e+000 3.452280e+001 8.973258e+001 2.838484e+001 1.151518e+002 5.530963e+001 4.307380e+001 8.715851e+001 6.804835e+001 2.611516e+001 7.364664e+001 1.780788e+001 2.092106e+001 1.731611e-001 7.041687e-001 1.156310e+000 1.531226e+000 2.551587e+000 1.912455e+000 1.336110e+000 2.048919e+000 2.754582e+000 1.732000e+000 2.096299e+000 1.396487e+000 3.168221e-001 3.330167e-002 1.326311e-001 9.859940e-002 2.683299e-001 2.830583e-001 3.192557e-001 2.862964e-001 2.922867e-001 7.015889e-001 2.066801e-001 2.916672e-001 2.167820e-001 6.608971e-002
<GCONST> 1.012242e+002
<TRANSP> 5
 0.000000e+000 1.000000e+000 0.000000e+000 0.000000e+000 0.000000e+000
 0.000000e+000 8.599872e-001 1.400128e-001 0.000000e+000 0.000000e+000
 0.000000e+000 0.000000e+000 7.289401e-001 2.710599e-001 0.000000e+000
 0.000000e+000 0.000000e+000 0.000000e+000 8.075007e-001 1.924993e-001
 0.000000e+000 0.000000e+000 0.000000e+000 0.000000e+000 0.000000e+000
<ENDHMM>
~h "o"
<BEGINHMM>
<NUMSTATES> 5
<STATE> 2
<MEAN> 39
 -5.153443e+000 1.887341e+000 -3.998059e-001 -4.719388e+000 -1.027645e+001 -8.377604e+000 -1.314454e+000 -4.294622e+000 -2.598214e+000 -1.637859e+000 -2.417927e+000 -3.007498e-001 6.395220e+001 2.656938e-002 2.103826e-002 1.670751e-002 2.097466e-003 -4.075075e-002 -6.993482e-002 -7.360970e-003 -1.582084e-002 -2.291133e-002 -1.948875e-002 -7.798372e-003 -1.589407e-002 -1.794146e-002 -6.101388e-003 4.534691e-003 -4.683285e-003 2.991999e-003 1.307896e-002 1.532247e-002 4.297304e-003 2.199038e-003 5.607250e-003 8.410532e-003 3.306764e-003 1.353030e-003 -2.459256e-002
<VARIANCE> 39
 3.876240e+001 5.593195e+001 6.909898e+001 8.084949e+001 8.242165e+001 1.017876e+002 5.764616e+001 6.496631e+001 6.744147e+001 4.920574e+001 3.916745e+001 3.616992e+001 8.957718e+001 1.350502e+000 1.888252e+000 1.699849e+000 2.401277e+000 2.816806e+000 2.814739e+000 2.621114e+000 2.615768e+000 2.810299e+000 2.549241e+000 2.217089e+000 1.828917e+000 2.527436e+000 1.981723e-001 2.897191e-001 2.501056e-001 3.312125e-001 4.046271e-001 4.166303e-001 4.473993e-001 4.295296e-001 4.660336e-001 4.356595e-001 3.927584e-001 3.259792e-001 2.569831e-001
<GCONST> 1.219561e+002
<STATE> 3
<MEAN> 39
 -5.153443e+000 1.887341e+000 -3.998059e-001 -4.719388e+000 -1.027645e+001 -8.377604e+000 -1.314454e+000 -4.294622e+000 -2.598214e+000 -1.637859e+000 -2.417927e+000 -3.007498e-001 6.395220e+001 2.656938e-002 2.103826e-002 1.670751e-002 2.097466e-003 -4.075075e-002 -6.993482e-002 -7.360970e-003 -1.582084e-002 -2.291133e-002 -1.948875e-002 -7.798372e-003 -1.589407e-002 -1.794146e-002 -6.101388e-003 4.534691e-003 -4.683285e-003 2.991999e-003 1.307896e-002 1.532247e-002 4.297304e-003 2.199038e-003 5.607250e-003 8.410532e-003 3.306764e-003 1.353030e-003 -2.459256e-002
<VARIANCE> 39
 3.876240e+001 5.593195e+001 6.909898e+001 8.084949e+001 8.242165e+001 1.017876e+002 5.764616e+001 6.496631e+001 6.744147e+001 4.920574e+001 3.916745e+001 3.616992e+001 8.957718e+001 1.350502e+000 1.888252e+000 1.699849e+000 2.401277e+000 2.816806e+000 2.814739e+000 2.621114e+000 2.615768e+000 2.810299e+000 2.549241e+000 2.217089e+000 1.828917e+000 2.527436e+000 1.981723e-001 2.897191e-001 2.501056e-001 3.312125e-001 4.046271e-001 4.166303e-001 4.473993e-001 4.295296e-001 4.660336e-001 4.356595e-001 3.927584e-001 3.259792e-001 2.569831e-001
<GCONST> 1.219561e+002
<STATE> 4
<MEAN> 39
 -5.153443e+000 1.887341e+000 -3.998059e-001 -4.719388e+000 -1.027645e+001 -8.377604e+000 -1.314454e+000 -4.294622e+000 -2.598214e+000 -1.637859e+000 -2.417927e+000 -3.007498e-001 6.395220e+001 2.656938e-002 2.103826e-002 1.670751e-002 2.097466e-003 -4.075075e-002 -6.993482e-002 -7.360970e-003 -1.582084e-002 -2.291133e-002 -1.948875e-002 -7.798372e-003 -1.589407e-002 -1.794146e-002 -6.101388e-003 4.534691e-003 -4.683285e-003 2.991999e-003 1.307896e-002 1.532247e-002 4.297304e-003 2.199038e-003 5.607250e-003 8.410532e-003 3.306764e-003 1.353030e-003 -2.459256e-002
<VARIANCE> 39
 3.876240e+001 5.593195e+001 6.909898e+001 8.084949e+001 8.242165e+001 1.017876e+002 5.764616e+001 6.496631e+001 6.744147e+001 4.920574e+001 3.916745e+001 3.616992e+001 8.957718e+001 1.350502e+000 1.888252e+000 1.699849e+000 2.401277e+000 2.816806e+000 2.814739e+000 2.621114e+000 2.615768e+000 2.810299e+000 2.549241e+000 2.217089e+000 1.828917e+000 2.527436e+000 1.981723e-001 2.897191e-001 2.501056e-001 3.312125e-001 4.046271e-001 4.166303e-001 4.473993e-001 4.295296e-001 4.660336e-001 4.356595e-001 3.927584e-001 3.259792e-001 2.569831e-001
<GCONST> 1.219561e+002
<TRANSP> 5
 0.000000e+000 1.000000e+000 0.000000e+000 0.000000e+000 0.000000e+000
 0.000000e+000 6.000000e-001 4.000000e-001 0.000000e+000 0.000000e+000
 0.000000e+000 0.000000e+000 6.000000e-001 4.000000e-001 0.000000e+000
 0.000000e+000 0.000000e+000 0.000000e+000 7.000000e-001 3.000000e-001
 0.000000e+000 0.000000e+000 0.000000e+000 0.000000e+000 0.000000e+000
<ENDHMM>
~h "p"
<BEGINHMM>
<NUMSTATES> 5
<STATE> 2
<MEAN> 39
 -3.344520e+000 1.690309e+000 -6.084617e+000 -1.265420e+001 -1.017074e+001 -2.530579e+000 4.254941e+000 -2.387810e+000 3.335002e-002 6.779831e-001 -2.731790e+000 -1.547627e+000 6.888322e+001 2.202701e+000 1.027267e+000 1.599187e-001 -1.961886e+000 -2.272495e+000 -5.326645e-002 8.993713e-001 2.486585e-002 -6.495713e-001 -4.463520e-002 -1.207322e-001 -2.668201e-001 1.533467e+000 -2.000366e-001 -2.238111e-001 4.749202e-002 2.641186e-001 4.377678e-002 -2.186852e-002 -3.666693e-001 -9.490457e-002 1.466075e-002 -4.804600e-002 2.028509e-001 1.132624e-001 -4.125529e-001
<VARIANCE> 39
 2.804846e+001 3.790008e+001 3.350107e+001 3.480988e+001 5.780644e+001 8.967635e+001 5.069793e+001 4.101456e+001 3.248553e+001 2.493750e+001 2.642118e+001 2.389297e+001 1.899315e+001 1.949054e+000 4.799486e+000 2.676223e+000 2.649671e+000 4.620519e+000 5.220922e+000 4.870909e+000 4.614758e+000 2.561255e+000 3.148155e+000 2.717027e+000 2.270064e+000 1.929462e+000 5.594878e-001 9.248539e-001 5.344340e-001 4.796916e-001 8.574829e-001 8.020319e-001 8.614754e-001 6.619270e-001 3.922354e-001 5.827678e-001 4.547957e-001 3.522481e-001 4.723125e-001
<GCONST> 1.260306e+002
<STATE> 3
<MEAN> 39
 9.791790e-001 -1.454197e+000 -8.348815e+000 -1.730563e+001 -1.392873e+001 -3.448328e+000 3.885547e+000 -8.300049e-001 -2.292493e+000 4.756568e-003 -1.157360e+000 -1.797102e+000 7.381794e+001 -5.282431e-002 -1.000702e+000 -3.299101e-001 3.521616e-002 -2.135557e-001 1.930246e-002 -8.009638e-001 -4.766601e-001 1.353595e-001 3.384594e-001 4.099126e-001 -4.522267e-001 3.558137e-001 -2.962033e-001 1.918633e-002 4.094897e-002 3.646802e-001 3.710760e-001 -5.230930e-002 -1.536160e-001 -2.780559e-002 1.510553e-001 1.494630e-001 -1.141956e-001 -9.157363e-002 -2.839139e-001
<VARIANCE> 39
 9.716399e+000 5.713119e+001 4.839135e+001 2.238078e+001 5.324252e+001 9.943805e+001 4.665450e+001 7.679614e+001 6.042463e+001 2.861877e+001 3.482663e+001 3.992268e+001 1.915586e+001 5.988461e-001 1.508396e+000 1.001894e+000 1.826565e+000 1.868336e+000 2.109514e+000 3.653349e+000 2.111099e+000 2.508500e+000 2.995509e+000 1.523092e+000 2.131220e+000 7.820774e-001 1.979407e-001 4.543596e-001 2.510448e-001 3.465970e-001 4.378891e-001 5.591024e-001 6.781716e-001 4.536884e-001 5.129323e-001 4.865531e-001 3.671843e-001 4.625297e-001 1.448690e-001
<GCONST> 1.137239e+002
<STATE> 4
<MEAN> 39
 1.280354e+000 1.557270e+000 -4.520132e+000 -1.638669e+001 -1.802309e+001 -3.432165e+000 2.011768e+000 -3.856170e+000 1.289678e+000 5.901973e-001 -1.728272e+000 -3.654030e+000 7.255975e+001 -1.059819e-001 -1.625976e-001 1.237341e-002 3.399228e-001 5.457922e-002 -4.742018e-001 -5.830613e-001 -5.281557e-002 1.870757e-001 3.809550e-001 -1.520029e-001 -2.113167e-001 -6.742053e-002 -2.808326e-002 1.355746e-001 1.085858e-001 1.058366e-001 3.099598e-002 -8.500185e-002 -8.405692e-004 3.203345e-002 3.799466e-002 -9.611882e-002 -5.569961e-002 7.832649e-002 -8.458554e-002
<VARIANCE> 39
 1.118938e+001 6.451384e+001 9.129428e+001 1.601507e+001 8.194704e+001 1.667751e+002 4.724761e+001 1.016516e+002 7.195322e+001 5.153526e+001 2.419726e+001 4.074271e+001 1.690300e+001 1.885887e-001 6.715202e-001 6.408660e-001 1.031215e+000 1.595059e+000 1.996956e+000 2.542394e+000 1.238312e+000 2.328701e+000 1.513851e+000 1.823960e+000 1.070459e+000 3.070032e-001 5.452822e-002 1.339205e-001 1.153569e-001 1.866073e-001 2.341563e-001 2.759899e-001 4.165876e-001 2.737963e-001 3.310891e-001 3.331671e-001 2.511743e-001 2.253156e-001 3.937699e-002
<GCONST> 1.000795e+002
<TRANSP> 5
 0.000000e+000 1.000000e+000 0.000000e+000 0.000000e+000 0.000000e+000
 0.000000e+000 7.772539e-001 2.227461e-001 0.000000e+000 0.000000e+000
 0.000000e+000 0.000000e+000 6.545596e-001 3.454404e-001 0.000000e+000
 0.000000e+000 0.000000e+000 0.000000e+000 7.072414e-001 2.927587e-001
 0.000000e+000 0.000000e+000 0.000000e+000 0.000000e+000 0.000000e+000
<ENDHMM>
~h "r"
<BEGINHMM>
<NUMSTATES> 5
<STATE> 2
<MEAN> 39
 -1.304758e+000 -4.603683e-001 -1.499413e+000 5.507552e+000 -1.028557e+001 -1.682276e+001 -1.020311e+001 -1.185228e+001 3.724617e+000 2.644426e-001 -9.650528e-001 -1.786235e+000 6.618571e+001 3.432553e-002 -6.295740e-002 -2.603087e-002 5.435833e-001 2.905472e-001 9.245701e-001 1.010215e+000 -6.013592e-001 -3.205957e-001 1.704808e-001 -1.629674e-001 -4.508718e-001 -8.557919e-001 -1.091880e-001 7.523011e-002 1.918661e-001 -7.522872e-002 1.034168e-001 -2.733378e-001 6.598140e-003 4.710219e-001 -8.825769e-002 -3.080043e-003 -2.779558e-001 7.197168e-002 8.569159e-002
<VARIANCE> 39
 1.083340e+001 1.927782e+001 5.269279e+001 4.699356e+001 2.695583e+001 5.706095e+001 1.776043e+001 6.117142e+001 1.369286e+001 1.862012e+001 1.564201e+001 3.449319e+001 3.163286e+001 3.208926e-001 1.636751e+000 1.999379e+000 3.480658e+000 7.733808e-001 3.416333e+000 1.557659e+000 5.021579e+000 1.823933e+000 2.456260e+000 1.198019e+000 1.893993e+000 2.257971e+000 7.184306e-002 3.773046e-001 3.038871e-001 6.371794e-001 3.695656e-001 9.701009e-001 2.008684e-001 5.973890e-001 4.093086e-001 4.955640e-001 1.261225e-001 4.108013e-001 3.433660e-001
<GCONST> 1.078861e+002
<STATE> 3
<MEAN> 39
 -5.938386e+000 8.334038e-001 1.343049e+000 6.210549e+000 -9.096218e+000 -1.962074e+001 -6.254780e+000 -7.019755e+000 2.593285e+000 -9.504704e-001 -6.430444e+000 1.893932e+000 6.508595e+001 -7.987977e-001 -9.103325e-004 3.617749e-001 4.655273e-001 4.116079e-001 -5.234064e-001 1.187339e+000 4.515665e-001 2.640390e-001 -3.960849e-001 -8.931146e-001 1.117186e+000 -2.129800e-001 -8.816075e-002 -3.196591e-002 -1.279362e-001 -1.912832e-001 -2.137685e-001 1.934673e-001 -1.880754e-001 2.196113e-001 4.355113e-001 -1.211979e-001 3.403411e-001 2.180229e-001 2.289807e-001
<VARIANCE> 39
 1.392887e+001 1.869173e+001 7.265600e+001 1.786016e+001 5.321405e+001 8.160024e+001 1.506904e+001 4.296117e+001 3.151741e+001 1.807904e+001 2.002670e+001 2.976741e+001 3.793497e+001 3.466983e-001 1.513176e+000 1.266119e+000 9.836807e-001 6.425987e+000 4.726355e+000 1.533988e+000 3.984213e+000 4.773419e+000 1.714545e+000 1.196394e+000 2.322268e+000 1.293428e+000 5.403353e-002 1.297540e-001 3.409887e-001 2.475314e-001 7.365451e-001 7.276254e-001 4.396363e-001 9.991735e-001 9.123034e-001 4.298761e-001 2.312856e-001 5.789430e-001 3.243675e-001
<GCONST> 1.108564e+002
<STATE> 4
<MEAN> 39
 -5.932460e+000 1.495520e+000 6.704363e+000 6.464685e+000 -1.250612e+001 -1.156461e+001 -7.451729e+000 -5.041756e+000 6.303522e+000 -1.901727e+000 -2.048069e+000 3.755381e+000 6.462078e+001 -2.984727e-001 -1.216256e-001 4.514074e-001 4.205143e-002 1.004543e-001 1.000880e+000 2.644126e-001 1.421021e+000 -4.183985e-001 2.467873e-001 1.525349e-001 -7.313597e-001 -2.607203e-001 7.253540e-002 -8.102119e-002 -4.408902e-002 -1.241255e-001 -5.222722e-002 1.727792e-002 3.271139e-002 2.014660e-001 -2.588235e-001 -6.710155e-002 -3.383762e-002 -1.413713e-001 2.313964e-002
<VARIANCE> 39
 3.496955e+001 2.745063e+001 4.699398e+001 1.640082e+001 4.985309e+001 3.307995e+001 5.742064e+001 2.269336e+001 1.573807e+001 2.271803e+001 2.494758e+001 3.273973e+001 1.262585e+001 5.569689e-001 1.038110e+000 2.034763e+000 1.476902e+000 6.171030e+000 1.787600e+000 2.688782e+000 2.109769e+000 2.637241e+000 2.070341e+000 2.328298e+000 3.579418e+000 4.194488e-001 1.533491e-001 2.665970e-001 3.736677e-001 2.702962e-001 1.524700e+000 5.225987e-001 3.686397e-001 3.955833e-001 6.406490e-001 2.575328e-001 3.190549e-001 7.521700e-001 7.710017e-002
<GCONST> 1.090963e+002
<TRANSP> 5
 0.000000e+000 1.000000e+000 0.000000e+000 0.000000e+000 0.000000e+000
 0.000000e+000 7.292020e-001 2.707980e-001 0.000000e+000 0.000000e+000
 0.000000e+000 0.000000e+000 6.566371e-001 3.433629e-001 0.000000e+000
 0.000000e+000 0.000000e+000 0.000000e+000 7.898172e-001 2.101828e-001
 0.000000e+000 0.000000e+000 0.000000e+000 0.000000e+000 0.000000e+000
<ENDHMM>
~h "t"
<BEGINHMM>
<NUMSTATES> 5
<STATE> 2
<MEAN> 39
 -1.006329e+001 -2.798790e+000 -1.831983e+000 -5.679538e+000 -6.467481e+000 -4.446244e+000 -5.084284e+000 -5.446780e+000 1.440886e+000 -4.907318e-001 -2.155348e+000 -9.674442e-001 6.795153e+001 1.417730e+000 3.623063e-001 1.566342e-001 -1.043222e+000 -6.725730e-001 -6.596823e-001 -5.184333e-001 -9.301286e-001 -7.230237e-001 2.126043e-001 -2.851032e-001 -3.898967e-001 2.718413e+000 6.968291e-001 4.357760e-001 -2.222892e-001 -6.413931e-002 -1.885430e-001 -8.342563e-002 3.581907e-001 4.933064e-002 -3.812814e-001 1.123059e-001 1.168504e-001 1.099153e-001 -6.931995e-001
<VARIANCE> 39
 3.671727e+001 4.271505e+001 3.677461e+001 4.779051e+001 3.386212e+001 4.327615e+001 3.779064e+001 3.857496e+001 3.744583e+001 3.271416e+001 2.749989e+001 2.640130e+001 7.593320e+001 7.434216e+000 6.150469e+000 3.281275e+000 5.047564e+000 4.936591e+000 6.022554e+000 4.573941e+000 5.350613e+000 5.676625e+000 4.337956e+000 2.942132e+000 3.131839e+000 9.066488e+000 9.748753e-001 1.120134e+000 5.818718e-001 7.809969e-001 7.808484e-001 9.159784e-001 9.136856e-001 8.880538e-001 9.570847e-001 7.371511e-001 5.410075e-001 5.544134e-001 1.646151e+000
<GCONST> 1.376586e+002
<STATE> 3
<MEAN> 39
 -3.832516e-001 -1.411699e-001 -5.381392e+000 -1.267281e+001 -1.066358e+001 -6.000112e+000 -2.822223e+000 -6.755776e+000 -3.812493e+000 1.135721e+000 -2.433468e+000 -8.853413e-001 7.291234e+001 1.586234e+000 -3.166263e-001 -9.841007e-001 -1.104547e+000 -1.515476e+000 -2.212104e-001 1.029955e+000 2.004584e-001 -1.018210e+000 2.298336e-001 2.402218e-001 4.436443e-001 1.918966e-001 -8.775852e-001 -4.694154e-001 9.567648e-002 3.982861e-001 2.188050e-001 2.233871e-001 1.698494e-002 2.332788e-001 4.331129e-001 -1.756866e-002 1.497453e-001 1.735003e-001 -3.498934e-001
<VARIANCE> 39
 2.024908e+001 3.542277e+001 5.580621e+001 6.377121e+001 7.333752e+001 7.454996e+001 4.274543e+001 6.523131e+001 3.903124e+001 5.253519e+001 3.223117e+001 4.111112e+001 2.778714e+001 2.469195e+000 2.945368e+000 2.349493e+000 2.721004e+000 3.802458e+000 4.505025e+000 3.668893e+000 4.301257e+000 3.840938e+000 3.487613e+000 3.203041e+000 2.608123e+000 1.243745e+000 3.483662e-001 5.036331e-001 3.693991e-001 5.497275e-001 8.620867e-001 8.453526e-001 7.889305e-001 9.078206e-001 5.618833e-001 6.237547e-001 4.635218e-001 5.654042e-001 4.185787e-001
<GCONST> 1.282407e+002
<STATE> 4
<MEAN> 39
 3.054957e-001 -1.553810e+000 -6.631543e+000 -1.339264e+001 -1.289366e+001 -5.669908e+000 -1.549977e+000 -6.955401e+000 -3.673751e+000 1.528677e+000 -2.006641e-001 -2.720095e-001 7.313496e+001 5.050314e-002 -2.562279e-001 -2.336106e-002 1.614311e-001 -2.367377e-001 -2.908685e-001 -2.832410e-001 -2.471077e-001 -1.170016e-003 4.322125e-001 2.600667e-001 2.015632e-001 -7.892957e-002 -2.812905e-001 -3.237735e-003 2.166659e-001 3.766830e-001 2.596065e-001 -1.130831e-001 -3.372276e-001 -7.678054e-002 2.661512e-001 2.526878e-002 -9.296612e-002 -7.396474e-002 -5.744982e-002
<VARIANCE> 39
 2.156006e+001 3.277485e+001 5.681029e+001 5.630988e+001 7.616621e+001 8.947991e+001 4.550161e+001 7.494218e+001 6.942135e+001 5.966590e+001 4.545401e+001 4.912970e+001 2.654798e+001 8.706623e-001 1.458231e+000 1.153667e+000 2.158544e+000 2.641111e+000 3.904851e+000 4.702131e+000 2.921099e+000 3.715973e+000 2.276974e+000 2.476174e+000 2.360523e+000 7.070491e-001 1.845624e-001 2.607093e-001 2.292569e-001 3.720669e-001 5.173091e-001 6.502108e-001 6.646578e-001 5.699376e-001 5.876324e-001 6.062092e-001 4.525578e-001 5.073019e-001 1.201513e-001
<GCONST> 1.200690e+002
<TRANSP> 5
 0.000000e+000 1.000000e+000 0.000000e+000 0.000000e+000 0.000000e+000
 0.000000e+000 7.665257e-001 2.334743e-001 0.000000e+000 0.000000e+000
 0.000000e+000 0.000000e+000 5.219205e-001 4.780795e-001 0.000000e+000
 0.000000e+000 0.000000e+000 0.000000e+000 6.409216e-001 3.590784e-001
 0.000000e+000 0.000000e+000 0.000000e+000 0.000000e+000 0.000000e+000
<ENDHMM>
~h "u"
<BEGINHMM>
<NUMSTATES> 5
<STATE> 2
<MEAN> 39
 -8.008951e+000 3.893469e+000 3.442950e+000 5.332297e+000 -4.312746e+000 -8.183633e+000 -2.122200e-001 -1.006993e+001 -4.169988e+000 -3.984930e-001 8.500255e-001 1.441568e+000 6.155308e+001 8.313232e-001 9.781417e-001 -9.508260e-001 -2.176021e+000 3.010763e-001 1.995893e+000 4.193535e-001 -5.555302e-001 -8.943976e-001 6.430672e-001 1.346115e+000 7.142753e-001 -1.148665e+000 -2.113040e-001 2.034141e-001 1.697269e-001 -4.681145e-002 -2.035395e-001 -1.810382e-002 1.845443e-001 3.844210e-001 -5.980500e-002 -5.268098e-001 -4.004701e-001 -9.672193e-002 -1.784632e-001
<VARIANCE> 39
 1.083159e+001 3.446313e+001 3.229334e+001 5.322558e+001 1.647893e+001 3.220207e+001 1.189015e+001 8.875266e+001 5.284168e+001 4.988866e+001 5.090868e+001 1.856409e+001 6.038775e+000 2.363792e-001 9.439567e-001 5.501854e-001 1.084406e+000 6.511224e-001 5.509611e+000 2.385375e+000 5.136240e+000 2.040095e+000 2.892847e+000 4.880743e+000 1.722679e+000 2.379072e-001 6.613451e-002 1.297031e-001 2.811664e-001 4.607596e-001 9.998908e-002 6.332350e-001 2.139987e-001 1.273492e+000 6.642660e-001 1.163409e+000 6.641161e-001 5.068697e-001 4.370759e-002
<GCONST> 1.037077e+002
<STATE> 3
<MEAN> 39
 -7.823746e+000 4.963532e+000 1.506892e+000 -1.529855e+000 -7.461670e-001 -8.048715e+000 -5.068361e+000 -6.789317e+000 -5.618611e+000 -3.098379e+000 -8.698263e-001 1.123131e+000 5.872348e+001 5.779079e-001 4.652280e-001 -1.163091e+000 -8.321723e-001 3.627960e-002 9.169593e-001 -2.265053e-001 -8.357483e-001 -8.337204e-001 -1.184664e-002 -7.961799e-002 -3.751174e-001 -9.573818e-001 -1.487940e-001 -2.398999e-001 -6.818041e-003 9.570637e-002 -9.164873e-002 -1.970657e-002 1.441568e-001 -2.111089e-002 -1.177846e-001 -5.700786e-002 8.259313e-002 6.120183e-002 1.421937e-001
<VARIANCE> 39
 1.669831e+001 1.524039e+001 3.941052e+001 3.320565e+001 6.476766e+001 2.756235e+001 4.956129e+001 2.952035e+001 2.736348e+001 1.778616e+001 4.203996e+001 1.458963e+001 4.287818e+000 2.154361e-001 1.336344e+000 1.165947e+000 1.257562e+000 1.563694e+000 2.686440e+000 1.093475e+000 3.238538e+000 2.139688e+000 4.553309e+000 1.495752e+000 1.143143e+000 3.515937e-001 5.837126e-002 1.454345e-001 1.301100e-001 2.234234e-001 2.489334e-001 9.679741e-001 2.682227e-001 5.741595e-001 2.946101e-001 6.256071e-001 5.669011e-001 3.555047e-001 2.483061e-002
<GCONST> 9.824653e+001
<STATE> 4
<MEAN> 39
 -7.814983e+000 5.369945e+000 -1.282062e+000 -2.246919e-001 -1.887224e+000 -1.579385e+000 9.310284e-001 -2.563423e+000 -1.794702e+000 -1.924931e+000 8.604462e-002 1.580316e+000 5.310696e+001 -1.990087e-001 -1.692602e-001 -1.007610e-001 -1.050208e-001 3.680175e-001 2.051103e-001 1.296926e-002 6.438607e-001 3.375436e-001 4.267161e-002 -2.103630e-001 -6.089780e-002 -4.258156e-001 -3.492544e-002 -7.286542e-002 1.323122e-002 6.377698e-002 -8.320198e-003 -2.757910e-002 1.104881e-003 2.699317e-002 8.920273e-002 4.552409e-002 -1.088853e-003 -1.950936e-002 5.058116e-002
<VARIANCE> 39
 1.480016e+001 2.272717e+001 5.948014e+000 1.194672e+001 2.176614e+001 1.545188e+001 1.388779e+001 3.660186e+001 4.103181e+001 2.474139e+001 1.276256e+001 1.562870e+001 1.208398e+001 2.423036e-001 7.804658e-001 6.960979e-001 7.353904e-001 1.118099e+000 1.099284e+000 1.170480e+000 1.640409e+000 1.731902e+000 1.822623e+000 1.590196e+000 1.240105e+000 1.968662e-001 4.471484e-002 1.303028e-001 1.057265e-001 1.477679e-001 2.025119e-001 1.987954e-001 1.959719e-001 3.608097e-001 4.063492e-001 3.597316e-001 2.692492e-001 2.364353e-001 2.634632e-002
<GCONST> 8.376583e+001
<TRANSP> 5
 0.000000e+000 1.000000e+000 0.000000e+000 0.000000e+000 0.000000e+000
 0.000000e+000 5.228259e-001 4.771741e-001 0.000000e+000 0.000000e+000
 0.000000e+000 0.000000e+000 7.014364e-001 2.985636e-001 0.000000e+000
 0.000000e+000 0.000000e+000 0.000000e+000 8.978650e-001 1.021350e-001
 0.000000e+000 0.000000e+000 0.000000e+000 0.000000e+000 0.000000e+000
<ENDHMM>
~h "w"
<BEGINHMM>
<NUMSTATES> 5
<STATE> 2
<MEAN> 39
 -5.153443e+000 1.887341e+000 -3.998059e-001 -4.719388e+000 -1.027645e+001 -8.377604e+000 -1.314454e+000 -4.294622e+000 -2.598214e+000 -1.637859e+000 -2.417927e+000 -3.007498e-001 6.395220e+001 2.656938e-002 2.103826e-002 1.670751e-002 2.097466e-003 -4.075075e-002 -6.993482e-002 -7.360970e-003 -1.582084e-002 -2.291133e-002 -1.948875e-002 -7.798372e-003 -1.589407e-002 -1.794146e-002 -6.101388e-003 4.534691e-003 -4.683285e-003 2.991999e-003 1.307896e-002 1.532247e-002 4.297304e-003 2.199038e-003 5.607250e-003 8.410532e-003 3.306764e-003 1.353030e-003 -2.459256e-002
<VARIANCE> 39
 3.876240e+001 5.593195e+001 6.909898e+001 8.084949e+001 8.242165e+001 1.017876e+002 5.764616e+001 6.496631e+001 6.744147e+001 4.920574e+001 3.916745e+001 3.616992e+001 8.957718e+001 1.350502e+000 1.888252e+000 1.699849e+000 2.401277e+000 2.816806e+000 2.814739e+000 2.621114e+000 2.615768e+000 2.810299e+000 2.549241e+000 2.217089e+000 1.828917e+000 2.527436e+000 1.981723e-001 2.897191e-001 2.501056e-001 3.312125e-001 4.046271e-001 4.166303e-001 4.473993e-001 4.295296e-001 4.660336e-001 4.356595e-001 3.927584e-001 3.259792e-001 2.569831e-001
<GCONST> 1.219561e+002
<STATE> 3
<MEAN> 39
 -5.153443e+000 1.887341e+000 -3.998059e-001 -4.719388e+000 -1.027645e+001 -8.377604e+000 -1.314454e+000 -4.294622e+000 -2.598214e+000 -1.637859e+000 -2.417927e+000 -3.007498e-001 6.395220e+001 2.656938e-002 2.103826e-002 1.670751e-002 2.097466e-003 -4.075075e-002 -6.993482e-002 -7.360970e-003 -1.582084e-002 -2.291133e-002 -1.948875e-002 -7.798372e-003 -1.589407e-002 -1.794146e-002 -6.101388e-003 4.534691e-003 -4.683285e-003 2.991999e-003 1.307896e-002 1.532247e-002 4.297304e-003 2.199038e-003 5.607250e-003 8.410532e-003 3.306764e-003 1.353030e-003 -2.459256e-002
<VARIANCE> 39
 3.876240e+001 5.593195e+001 6.909898e+001 8.084949e+001 8.242165e+001 1.017876e+002 5.764616e+001 6.496631e+001 6.744147e+001 4.920574e+001 3.916745e+001 3.616992e+001 8.957718e+001 1.350502e+000 1.888252e+000 1.699849e+000 2.401277e+000 2.816806e+000 2.814739e+000 2.621114e+000 2.615768e+000 2.810299e+000 2.549241e+000 2.217089e+000 1.828917e+000 2.527436e+000 1.981723e-001 2.897191e-001 2.501056e-001 3.312125e-001 4.046271e-001 4.166303e-001 4.473993e-001 4.295296e-001 4.660336e-001 4.356595e-001 3.927584e-001 3.259792e-001 2.569831e-001
<GCONST> 1.219561e+002
<STATE> 4
<MEAN> 39
 -5.153443e+000 1.887341e+000 -3.998059e-001 -4.719388e+000 -1.027645e+001 -8.377604e+000 -1.314454e+000 -4.294622e+000 -2.598214e+000 -1.637859e+000 -2.417927e+000 -3.007498e-001 6.395220e+001 2.656938e-002 2.103826e-002 1.670751e-002 2.097466e-003 -4.075075e-002 -6.993482e-002 -7.360970e-003 -1.582084e-002 -2.291133e-002 -1.948875e-002 -7.798372e-003 -1.589407e-002 -1.794146e-002 -6.101388e-003 4.534691e-003 -4.683285e-003 2.991999e-003 1.307896e-002 1.532247e-002 4.297304e-003 2.199038e-003 5.607250e-003 8.410532e-003 3.306764e-003 1.353030e-003 -2.459256e-002
<VARIANCE> 39
 3.876240e+001 5.593195e+001 6.909898e+001 8.084949e+001 8.242165e+001 1.017876e+002 5.764616e+001 6.496631e+001 6.744147e+001 4.920574e+001 3.916745e+001 3.616992e+001 8.957718e+001 1.350502e+000 1.888252e+000 1.699849e+000 2.401277e+000 2.816806e+000 2.814739e+000 2.621114e+000 2.615768e+000 2.810299e+000 2.549241e+000 2.217089e+000 1.828917e+000 2.527436e+000 1.981723e-001 2.897191e-001 2.501056e-001 3.312125e-001 4.046271e-001 4.166303e-001 4.473993e-001 4.295296e-001 4.660336e-001 4.356595e-001 3.927584e-001 3.259792e-001 2.569831e-001
<GCONST> 1.219561e+002
<TRANSP> 5
 0.000000e+000 1.000000e+000 0.000000e+000 0.000000e+000 0.000000e+000
 0.000000e+000 6.000000e-001 4.000000e-001 0.000000e+000 0.000000e+000
 0.000000e+000 0.000000e+000 6.000000e-001 4.000000e-001 0.000000e+000
 0.000000e+000 0.000000e+000 0.000000e+000 7.000000e-001 3.000000e-001
 0.000000e+000 0.000000e+000 0.000000e+000 0.000000e+000 0.000000e+000
<ENDHMM>
~h "a:"
<BEGINHMM>
<NUMSTATES> 5
<STATE> 2
<MEAN> 39
 7.501543e-001 -4.922981e+000 -1.146385e+001 -1.863894e+001 -7.414836e+000 4.221616e+000 5.519369e+000 -1.381374e+000 -6.556411e+000 3.345195e+000 -6.113019e+000 -5.510639e+000 7.317561e+001 -1.492706e-002 2.575673e-001 -4.856404e-002 2.139501e-001 1.678117e-002 -4.699923e-001 -1.891070e-001 -7.798195e-002 3.958993e-001 5.459416e-002 3.004701e-001 1.606711e-001 -2.286582e-001 -1.972855e-002 1.565500e-001 1.070318e-001 2.172286e-001 -2.682275e-002 -2.243444e-001 -1.420963e-001 -3.446883e-002 1.364696e-001 -6.322615e-002 1.014931e-001 1.185543e-001 -1.289995e-001
<VARIANCE> 39
 8.639774e+000 3.681448e+001 4.784344e+001 3.252241e+001 2.897854e+001 5.203575e+001 2.158603e+001 2.587364e+001 5.546402e+001 2.513702e+001 4.066219e+001 3.297707e+001 1.118496e+001 3.597948e-001 5.552592e-001 7.164707e-001 9.824683e-001 1.054914e+000 1.799134e+000 1.730463e+000 1.407428e+000 1.536571e+000 1.530277e+000 1.379725e+000 1.416085e+000 2.702234e-001 7.072649e-002 1.135280e-001 1.319380e-001 1.736933e-001 2.052738e-001 3.136489e-001 3.663547e-001 2.823237e-001 2.753049e-001 2.476727e-001 2.404431e-001 2.528181e-001 7.754840e-002
<GCONST> 9.341937e+001
<STATE> 3
<MEAN> 39
 2.600702e-001 -2.763604e-001 -9.519353e+000 -1.328099e+001 -9.677721e+000 -6.154765e-001 1.174996e+000 -5.235635e+000 -3.169779e+000 3.359604e+000 -1.523839e+000 -3.242582e+000 6.486214e+001 -6.274507e-001 1.150035e+000 4.746765e-001 1.458079e+000 5.746389e-001 -7.126878e-001 -7.658117e-001 -1.253691e-001 7.127734e-001 -2.954991e-001 6.101677e-001 7.459543e-001 -2.148461e+000 -1.699680e-001 -8.993115e-002 -3.910558e-002 2.311930e-002 1.217698e-001 1.715858e-001 2.091207e-001 1.673190e-001 -4.865303e-002 -2.181660e-001 -1.701780e-001 -1.629111e-001 -1.426224e-001
<VARIANCE> 39
 8.189644e+000 3.506528e+001 3.904300e+001 2.242458e+001 3.527470e+001 3.985765e+001 3.296009e+001 4.566579e+001 6.028699e+001 2.795805e+001 4.082413e+001 3.677025e+001 5.913110e+001 5.664301e-001 1.151818e+000 1.993548e+000 2.512938e+000 1.777998e+000 3.126309e+000 2.923317e+000 2.973462e+000 3.111991e+000 1.986892e+000 2.716465e+000 2.028357e+000 1.099270e+000 1.055952e-001 2.648703e-001 3.076974e-001 3.817123e-001 3.686671e-001 5.411866e-001 4.436131e-001 6.392444e-001 4.795975e-001 3.814015e-001 3.298934e-001 3.608358e-001 3.012372e-001
<GCONST> 1.125685e+002
<STATE> 4
<MEAN> 39
 -4.538109e+000 2.211844e+000 -8.964003e+000 -8.793679e+000 -7.328763e+000 -4.022992e+000 1.224398e+000 -1.007659e+000 2.952160e-002 -8.232791e-001 -1.209565e+000 3.300836e-002 5.669690e+001 -1.057187e+000 -5.956720e-001 3.359765e-001 5.560666e-001 3.156598e-001 -8.637460e-002 -3.517368e-001 2.295823e-001 3.553850e-001 -2.145579e-001 -8.619560e-002 -6.165374e-002 -5.436025e-001 -3.310669e-002 -3.008743e-001 1.398825e-001 -1.971794e-001 -5.200308e-002 3.304086e-002 -1.779947e-001 -1.996471e-001 -1.048459e-001 5.913490e-002 -5.846484e-002 -9.455704e-002 8.227940e-001
<VARIANCE> 39
 1.085248e+001 2.301527e+001 2.208684e+001 1.253884e+001 2.023865e+001 3.586800e+001 2.669479e+001 2.213082e+001 2.577915e+001 2.161001e+001 3.257697e+001 3.451693e+001 4.158702e+001 1.317613e+000 2.149365e+000 1.801082e+000 1.890193e+000 2.476681e+000 2.091884e+000 1.946136e+000 2.265443e+000 3.578361e+000 2.613770e+000 1.534416e+000 1.910528e+000 5.536901e+000 2.333396e-001 2.805483e-001 3.822149e-001 3.346592e-001 4.517816e-001 3.836979e-001 4.098172e-001 3.569168e-001 6.480974e-001 4.839091e-001 4.093241e-001 3.335149e-001 6.422296e-001
<GCONST> 1.112322e+002
<TRANSP> 5
 0.000000e+000 1.000000e+000 0.000000e+000 0.000000e+000 0.000000e+000
 0.000000e+000 8.744860e-001 1.255140e-001 0.000000e+000 0.000000e+000
 0.000000e+000 0.000000e+000 7.631645e-001 2.368355e-001 0.000000e+000
 0.000000e+000 0.000000e+000 0.000000e+000 8.320746e-001 1.679254e-001
 0.000000e+000 0.000000e+000 0.000000e+000 0.000000e+000 0.000000e+000
<ENDHMM>
~h "ae"
<BEGINHMM>
<NUMSTATES> 5
<STATE> 2
<MEAN> 39
 -1.480394e+000 -8.579818e+000 -1.065984e+001 -1.357848e+001 -7.881502e+000 -3.449601e+000 -1.914596e+000 -2.459637e-001 2.178387e+000 6.628284e+000 -3.817024e+000 -8.347149e+000 7.700479e+001 -1.046019e-001 6.125188e-002 4.328626e-001 8.800887e-001 -2.570634e-002 -1.774181e+000 -9.930584e-001 5.570234e-001 9.780298e-001 -1.320508e-001 -6.370150e-001 -5.822761e-002 -2.199627e-001 -1.039894e-002 1.184934e-001 1.663231e-001 4.953536e-002 -9.929907e-002 -8.162633e-002 -4.652082e-002 1.386821e-002 2.667377e-002 -1.615402e-001 4.615694e-002 1.577899e-001 -5.057243e-002
<VARIANCE> 39
 1.113211e+001 3.018810e+001 2.770500e+001 3.275133e+001 2.322324e+001 8.340798e+001 6.650016e+001 5.320319e+001 5.931386e+001 2.626653e+001 5.558543e+001 3.942656e+001 1.689536e+001 1.808576e-001 3.948501e-001 7.498357e-001 1.101896e+000 1.029698e+000 2.262326e+000 2.494874e+000 1.264603e+000 2.585761e+000 1.693296e+000 1.693741e+000 1.599403e+000 1.742757e-001 2.736511e-002 7.306398e-002 9.558873e-002 1.466502e-001 1.679597e-001 3.958278e-001 5.176731e-001 2.746031e-001 4.344728e-001 2.772532e-001 3.376752e-001 2.787476e-001 1.980923e-002
<GCONST> 9.426131e+001
<STATE> 3
<MEAN> 39
 -2.922761e+000 -3.963615e+000 -1.094668e+000 -6.558918e+000 -1.106242e+001 -1.837481e+001 -8.952715e+000 2.923688e+000 7.189389e+000 2.417529e+000 -6.308083e+000 -3.675971e+000 7.280573e+001 -3.030463e-001 7.811257e-001 1.161924e+000 7.312021e-001 -7.327347e-001 -4.062759e-001 4.318394e-002 -1.871536e-001 -4.067796e-001 -6.012297e-001 3.460538e-001 7.215480e-001 -6.930141e-001 -6.769899e-002 6.277085e-003 -6.461075e-002 4.538053e-002 8.714376e-002 2.102178e-001 7.429907e-002 -8.399128e-002 -1.447002e-001 5.032665e-002 -2.615564e-002 -8.945223e-002 -5.058680e-002
<VARIANCE> 39
 1.298001e+001 3.324571e+001 3.947578e+001 2.713421e+001 2.134626e+001 3.484567e+001 2.558370e+001 6.660239e+001 4.042656e+001 2.350510e+001 4.688065e+001 4.450666e+001 1.564571e+001 1.875972e-001 5.902782e-001 5.091701e-001 9.373385e-001 9.133787e-001 1.551139e+000 1.405009e+000 1.461232e+000 1.348937e+000 1.198533e+000 1.252504e+000 1.449082e+000 1.685665e-001 2.139405e-002 9.102320e-002 5.256801e-002 1.775632e-001 1.611427e-001 1.864886e-001 2.135722e-001 2.365521e-001 2.990687e-001 1.984980e-001 2.291635e-001 1.669364e-001 2.044212e-002
<GCONST> 8.606388e+001
<STATE> 4
<MEAN> 39
 -7.591796e+000 1.025815e+000 3.362122e+000 2.650559e-001 -1.251296e+001 -1.668606e+001 -4.436180e+000 1.686699e+000 2.598448e+000 -9.485671e-001 -2.949134e+000 1.047691e+000 6.344147e+001 -3.823331e-001 1.797059e-001 -1.384670e-001 1.810822e-001 3.885271e-001 2.821935e-001 4.260104e-001 -1.522255e-001 -2.117723e-001 -9.526289e-002 3.596539e-001 2.920123e-001 -1.076393e+000 2.026224e-002 -5.532414e-002 -1.413518e-001 -9.996507e-002 1.336622e-001 8.265037e-002 2.591024e-002 6.784468e-002 4.116800e-002 8.417683e-002 2.842598e-002 -4.126769e-002 -3.626306e-002
<VARIANCE> 39
 2.277238e+001 3.217808e+001 3.986172e+001 2.457323e+001 5.491103e+001 4.347866e+001 6.863953e+001 5.503894e+001 3.891418e+001 4.717231e+001 5.646336e+001 3.915703e+001 3.458062e+001 3.973143e-001 7.939082e-001 1.117165e+000 1.065159e+000 1.449972e+000 2.180394e+000 1.556410e+000 1.899557e+000 1.725917e+000 1.752158e+000 2.267034e+000 1.699901e+000 4.832577e-001 6.171864e-002 1.244230e-001 1.991972e-001 2.002952e-001 2.653870e-001 3.892678e-001 2.940953e-001 3.029976e-001 3.029642e-001 2.942627e-001 4.120763e-001 2.993996e-001 5.934905e-002
<GCONST> 1.028064e+002
<TRANSP> 5
 0.000000e+000 1.000000e+000 0.000000e+000 0.000000e+000 0.000000e+000
 0.000000e+000 9.065633e-001 9.343669e-002 0.000000e+000 0.000000e+000
 0.000000e+000 0.000000e+000 8.585356e-001 1.414644e-001 0.000000e+000
 0.000000e+000 0.000000e+000 0.000000e+000 9.220778e-001 7.792225e-002
 0.000000e+000 0.000000e+000 0.000000e+000 0.000000e+000 0.000000e+000
<ENDHMM>
~h "ai"
<BEGINHMM>
<NUMSTATES> 5
<STATE> 2
<MEAN> 39
 -2.012510e+000 -5.485559e+000 -3.476058e+000 -6.636525e+000 -9.385341e+000 -1.768886e+001 -1.092955e+001 -3.246156e-001 6.481343e+000 5.754918e+000 -2.821792e+000 -2.869804e+000 7.483078e+001 -6.606621e-001 9.860272e-001 2.194817e+000 2.505655e+000 -1.257010e+000 -2.241408e+000 -6.811047e-001 -2.430431e-001 -6.629001e-001 -1.948722e+000 1.593554e-001 1.676882e+000 -7.455611e-001 -1.332678e-001 3.301802e-001 1.444443e-001 -5.420082e-002 -2.001836e-001 7.027988e-001 6.371880e-001 -4.619860e-001 -6.286142e-001 -2.337741e-001 3.408789e-001 -7.115142e-003 -1.267723e-001
<VARIANCE> 39
 1.641086e+001 2.283595e+001 6.377045e+001 3.238647e+001 4.125742e+001 6.377226e+001 4.440258e+001 5.472415e+001 4.911242e+001 4.836065e+001 2.460653e+001 3.342703e+001 1.144894e+001 4.295849e-001 1.057164e+000 1.209494e+000 1.589373e+000 1.718790e+000 4.702625e+000 2.129606e+000 4.244564e+000 4.534379e+000 2.692861e+000 2.681690e+000 1.969739e+000 2.573481e-001 5.909679e-002 1.264887e-001 3.376254e-001 2.891752e-001 3.492409e-001 3.493017e-001 3.301111e-001 5.712276e-001 5.369319e-001 7.381582e-001 5.391682e-001 5.447096e-001 4.339717e-002
<GCONST> 1.085123e+002
<STATE> 3
<MEAN> 39
 -5.578569e+000 1.350079e+000 5.786300e+000 1.708982e+000 -1.444928e+001 -2.057924e+001 -7.619519e+000 -6.094182e+000 -2.381730e+000 -2.408909e+000 -9.563701e-001 1.461760e+000 7.055764e+001 -8.956826e-001 1.442774e+000 1.315469e+000 1.023754e+000 -1.983045e-001 4.882426e-001 1.183875e+000 -1.060884e+000 -1.908342e+000 -7.402923e-001 -5.187535e-001 6.985770e-002 -1.109701e+000 2.763729e-002 -1.733730e-001 -2.987783e-001 -2.770698e-001 3.811504e-001 2.151469e-001 7.396282e-002 2.616279e-001 1.588190e-001 3.097027e-001 -1.383759e-001 -2.968521e-001 -6.330480e-002
<VARIANCE> 39
 1.582776e+001 2.735867e+001 5.490141e+001 2.173825e+001 4.214452e+001 6.497234e+001 4.239134e+001 3.569660e+001 1.007308e+002 2.955369e+001 3.521559e+001 3.018293e+001 1.065031e+001 3.126378e-001 6.827224e-001 7.567716e-001 6.488854e-001 1.228051e+000 9.932788e-001 2.079931e+000 2.430379e+000 1.885131e+000 2.393117e+000 2.301074e+000 1.398706e+000 1.502151e-001 4.412010e-002 7.070135e-002 9.852606e-002 1.013019e-001 1.795061e-001 2.730555e-001 3.926916e-001 4.168466e-001 4.654031e-001 2.862417e-001 4.891670e-001 2.464989e-001 1.615719e-002
<GCONST> 9.428679e+001
<STATE> 4
<MEAN> 39
 -1.166515e+001 6.937155e+000 7.727162e+000 2.885598e+000 -8.508227e+000 -1.398711e+001 -1.072994e+000 -7.619881e+000 -6.310553e+000 -2.968486e+000 -3.028287e+000 -1.274840e+000 6.025381e+001 -2.936385e-001 -2.828836e-002 -2.928853e-001 -7.870408e-002 6.429160e-001 6.988389e-001 4.551151e-001 1.230433e-001 -1.284515e-002 7.150770e-003 1.993846e-001 -8.137354e-002 -1.155431e+000 6.560031e-002 -1.242331e-001 -1.349382e-001 -3.569477e-002 9.383437e-003 -3.235448e-003 -1.242689e-001 7.853770e-002 1.594931e-001 2.958723e-002 2.977175e-002 9.203039e-002 3.019387e-002
<VARIANCE> 39
 2.092831e+001 3.457777e+001 4.303838e+001 2.435617e+001 8.078608e+001 5.203450e+001 5.528206e+001 2.933227e+001 6.239456e+001 4.393086e+001 4.473866e+001 3.125574e+001 2.466386e+001 4.533273e-001 6.926209e-001 9.710189e-001 5.703303e-001 1.430183e+000 1.138928e+000 1.558585e+000 2.121109e+000 1.872409e+000 1.531480e+000 1.919996e+000 1.427045e+000 1.764364e-001 7.282268e-002 9.118368e-002 1.243066e-001 1.137918e-001 2.153032e-001 1.572170e-001 2.311491e-001 3.716327e-001 3.359805e-001 2.556234e-001 3.663655e-001 3.142830e-001 1.587611e-002
<GCONST> 9.570389e+001
<TRANSP> 5
 0.000000e+000 1.000000e+000 0.000000e+000 0.000000e+000 0.000000e+000
 0.000000e+000 7.907597e-001 2.092403e-001 0.000000e+000 0.000000e+000
 0.000000e+000 0.000000e+000 7.808897e-001 2.191103e-001 0.000000e+000
 0.000000e+000 0.000000e+000 0.000000e+000 9.157825e-001 8.421747e-002
 0.000000e+000 0.000000e+000 0.000000e+000 0.000000e+000 0.000000e+000
<ENDHMM>
~h "ao"
<BEGINHMM>
<NUMSTATES> 5
<STATE> 2
<MEAN> 39
 -8.599785e-002 -6.994947e+000 -9.318658e+000 -1.874129e+001 -1.815916e+001 -3.898027e+000 7.499531e+000 5.469746e+000 -5.105154e+000 -5.986477e+000 -4.355267e+000 -3.383059e+000 7.539966e+001 4.746740e-001 6.117486e-001 3.667469e-001 -5.364190e-001 -1.091224e+000 1.529240e-001 -1.246540e-001 -2.633502e-001 1.150300e-001 4.003371e-001 -2.931721e-001 -2.124801e-001 -7.725137e-001 1.098853e-001 2.760612e-001 9.892049e-002 2.243523e-002 -8.150221e-002 -4.277395e-002 -7.868560e-002 -1.271123e-001 5.119846e-002 2.173663e-001 -5.414833e-002 -5.707579e-002 -2.026180e-001
<VARIANCE> 39
 9.305773e+000 1.986735e+001 1.723175e+001 1.723078e+001 4.736864e+001 3.658375e+001 2.491996e+001 3.773298e+001 5.284132e+001 3.507104e+001 2.914150e+001 2.167887e+001 2.637643e+001 7.890026e-001 9.483013e-001 6.676474e-001 7.944300e-001 1.997326e+000 2.111969e+000 1.851617e+000 2.763752e+000 3.144724e+000 3.434808e+000 1.371417e+000 2.122350e+000 1.265164e+000 1.318903e-001 7.298397e-002 1.282568e-001 1.924852e-001 3.870381e-001 4.209709e-001 2.579098e-001 4.828709e-001 5.472234e-001 4.412352e-001 3.091728e-001 3.401502e-001 1.110118e-001
<GCONST> 1.018572e+002
<STATE> 3
<MEAN> 39
 3.529911e+000 5.777960e-001 -7.581643e+000 -1.999850e+001 -2.007603e+001 -1.837917e+000 5.582238e+000 3.825857e-001 -2.405580e+000 2.707561e+000 -6.106804e+000 -3.677941e+000 6.950017e+001 4.778714e-002 7.396072e-001 2.917760e-001 9.759250e-003 -3.579463e-001 -6.931534e-001 -1.675825e-001 -1.147773e-002 1.028910e-001 3.163628e-001 -6.185852e-002 -1.426477e-001 -5.750650e-001 -5.624495e-002 6.367450e-002 1.183761e-002 4.405518e-002 8.497659e-002 -6.682145e-002 -1.068874e-001 -1.308073e-002 6.499999e-002 -6.129543e-002 -7.476937e-003 3.012749e-002 -1.793533e-002
<VARIANCE> 39
 7.070421e+000 1.902316e+001 2.303376e+001 1.631395e+001 6.027560e+001 5.554825e+001 2.407555e+001 4.799632e+001 7.533371e+001 3.351055e+001 2.140291e+001 2.220978e+001 2.712682e+001 1.675720e-001 9.294817e-001 5.770340e-001 5.039706e-001 1.151255e+000 1.833513e+000 1.726696e+000 1.693831e+000 1.630701e+000 1.466462e+000 1.148887e+000 1.054349e+000 3.634629e-001 4.073533e-002 1.152931e-001 1.010841e-001 6.476947e-002 2.612449e-001 3.067354e-001 3.003324e-001 2.909133e-001 3.076155e-001 3.089848e-001 2.104062e-001 2.423091e-001 4.280765e-002
<GCONST> 8.991990e+001
<STATE> 4
<MEAN> 39
 5.244814e-001 8.934937e+000 -3.272704e+000 -1.606153e+001 -1.874288e+001 -7.432358e+000 1.003004e+000 -8.733431e-001 -1.044111e+000 1.737239e+000 -4.862637e+000 -3.452880e+000 5.976631e+001 -4.976351e-001 1.947422e-001 7.347663e-002 7.538700e-001 7.266955e-001 -1.034258e-001 -3.479421e-001 2.756294e-002 1.593775e-001 -1.244491e-001 2.388831e-001 3.430907e-001 -8.908756e-001 -5.977674e-002 -1.468642e-001 -2.458798e-002 7.670434e-002 1.110602e-001 8.552700e-002 5.718009e-002 3.659605e-002 2.855272e-003 6.137733e-003 7.666991e-002 4.692790e-002 1.296474e-002
<VARIANCE> 39
 1.435636e+001 1.478866e+001 2.576012e+001 2.972638e+001 4.809798e+001 4.841172e+001 4.823186e+001 3.565546e+001 4.552234e+001 2.583690e+001 2.821194e+001 2.566375e+001 4.426336e+001 4.110384e-001 7.701331e-001 6.317593e-001 1.240440e+000 1.678323e+000 1.405138e+000 1.242271e+000 1.691524e+000 2.157812e+000 1.934206e+000 1.611740e+000 1.496488e+000 2.732017e-001 5.829132e-002 1.011812e-001 1.022725e-001 1.907080e-001 2.048479e-001 2.293927e-001 2.092419e-001 2.760548e-001 3.684031e-001 3.690806e-001 2.609108e-001 2.799574e-001 3.407688e-002
<GCONST> 9.457153e+001
<TRANSP> 5
 0.000000e+000 1.000000e+000 0.000000e+000 0.000000e+000 0.000000e+000
 0.000000e+000 7.551461e-001 2.448539e-001 0.000000e+000 0.000000e+000
 0.000000e+000 0.000000e+000 8.860439e-001 1.139561e-001 0.000000e+000
 0.000000e+000 0.000000e+000 0.000000e+000 9.332584e-001 6.674160e-002
 0.000000e+000 0.000000e+000 0.000000e+000 0.000000e+000 0.000000e+000
<ENDHMM>
~h "au"
<BEGINHMM>
<NUMSTATES> 5
<STATE> 2
<MEAN> 39
 2.304875e-001 -3.879949e+000 -8.337685e+000 -1.695834e+001 -1.529701e+001 -1.028394e+000 2.139051e+000 -4.426867e+000 -4.491275e+000 3.607232e+000 4.385789e+000 8.255848e-002 7.425024e+001 2.323362e-001 5.360495e-001 1.285612e-001 5.305378e-001 -4.577907e-001 -4.502755e-001 -5.492660e-001 -1.323657e+000 -4.989506e-001 -1.945440e-001 7.715859e-001 4.819229e-001 -4.305969e-001 5.389764e-002 1.532801e-001 -3.037563e-002 1.742872e-001 6.624878e-002 -4.302625e-002 9.858476e-002 -1.417710e-001 -1.471556e-001 -2.364441e-001 -6.354163e-002 6.497059e-002 -1.236076e-001
<VARIANCE> 39
 5.727312e+000 3.935228e+001 2.718126e+001 1.894480e+001 2.059439e+001 6.508570e+001 3.489116e+001 5.161327e+001 4.656255e+001 6.148958e+001 2.791304e+001 3.356557e+001 1.744635e+001 3.244195e-001 7.388150e-001 5.628996e-001 1.107238e+000 1.400432e+000 2.378520e+000 1.303582e+000 1.867446e+000 1.876918e+000 2.168938e+000 1.416290e+000 1.833258e+000 3.379716e-001 3.907821e-002 8.379021e-002 1.094507e-001 1.510969e-001 1.391079e-001 3.958000e-001 2.548893e-001 3.710018e-001 3.011367e-001 3.292957e-001 2.612095e-001 2.984097e-001 2.933109e-002
<GCONST> 9.368875e+001
<STATE> 3
<MEAN> 39
 3.312540e+000 3.040088e+000 -7.270502e+000 -1.027037e+001 -1.675197e+001 -6.609537e+000 -1.688983e+000 -1.444010e+001 -1.181322e+001 -1.234661e+000 5.297003e+000 1.929641e+000 6.789218e+001 1.484935e-001 1.560690e+000 4.510832e-001 3.846960e-001 3.638608e-001 -8.719569e-002 -7.656719e-002 -4.505934e-001 -1.127836e+000 -1.320808e+000 -6.851234e-001 2.841557e-001 -1.248461e+000 -1.305788e-001 4.636566e-002 8.072905e-002 -1.229127e-001 1.261809e-001 1.143149e-001 1.286241e-002 3.654551e-001 1.299192e-001 1.030069e-002 -2.516617e-001 -1.950409e-001 -5.905757e-002
<VARIANCE> 39
 7.952278e+000 3.325324e+001 2.292165e+001 2.769791e+001 3.370022e+001 3.368315e+001 3.026823e+001 4.421103e+001 8.925143e+001 3.957257e+001 2.602609e+001 3.926914e+001 1.688074e+001 3.375968e-001 1.023354e+000 9.097958e-001 1.739595e+000 1.436603e+000 1.757959e+000 1.852931e+000 2.539491e+000 2.326987e+000 1.804486e+000 2.680315e+000 2.060279e+000 2.566011e-001 4.762826e-002 1.154359e-001 1.695763e-001 2.701005e-001 2.574544e-001 2.045120e-001 3.119541e-001 3.153765e-001 3.963977e-001 3.262438e-001 3.474387e-001 3.361045e-001 2.414016e-002
<GCONST> 9.805545e+001
<STATE> 4
<MEAN> 39
 -1.023341e+000 1.272768e+001 -2.216899e+000 -6.834745e+000 -9.514803e+000 -4.621806e+000 -8.223730e-001 -9.941554e+000 -8.690560e+000 -8.390025e+000 -3.689560e+000 -5.122203e-001 5.769059e+001 -5.864640e-001 -2.836156e-002 2.354605e-001 5.376564e-001 7.678233e-001 6.521603e-002 8.837436e-003 5.880245e-001 5.132402e-001 -4.740876e-002 -3.674605e-001 -2.226606e-001 -9.431217e-001 -5.558078e-002 -2.167118e-001 -3.637994e-002 1.831337e-002 3.110088e-002 1.556835e-003 -2.177509e-002 3.448819e-002 9.123123e-002 1.726615e-001 1.482316e-001 9.560275e-002 3.888842e-002
<VARIANCE> 39
 1.018350e+001 2.397655e+001 1.622139e+001 1.859692e+001 3.400918e+001 2.928619e+001 3.404515e+001 3.295413e+001 6.863406e+001 3.187148e+001 4.683861e+001 4.045015e+001 2.608351e+001 3.264686e-001 1.085172e+000 7.157656e-001 8.476017e-001 1.090358e+000 1.502771e+000 2.193224e+000 1.609145e+000 2.328479e+000 2.170134e+000 2.015214e+000 2.049798e+000 2.652261e-001 3.692497e-002 1.126432e-001 1.165267e-001 1.413263e-001 1.828528e-001 2.565676e-001 3.501206e-001 2.995021e-001 3.611074e-001 3.367510e-001 3.245992e-001 3.317914e-001 2.764632e-002
<GCONST> 9.441135e+001
<TRANSP> 5
 0.000000e+000 1.000000e+000 0.000000e+000 0.000000e+000 0.000000e+000
 0.000000e+000 8.464780e-001 1.535220e-001 0.000000e+000 0.000000e+000
 0.000000e+000 0.000000e+000 8.341027e-001 1.658973e-001 0.000000e+000
 0.000000e+000 0.000000e+000 0.000000e+000 9.219087e-001 7.809126e-002
 0.000000e+000 0.000000e+000 0.000000e+000 0.000000e+000 0.000000e+000
<ENDHMM>
~h "e:"
<BEGINHMM>
<NUMSTATES> 5
<STATE> 2
<MEAN> 39
 -4.917515e+000 -2.869747e+000 8.457051e+000 8.642938e-001 -2.136757e+001 -2.219795e+001 -7.769455e+000 -6.481650e+000 -5.913327e+000 -5.660885e+000 -1.700811e+000 5.476137e+000 7.443784e+001 -1.172826e-002 -4.548092e-002 8.103121e-003 -2.496235e-002 2.415138e-002 -1.955350e-001 2.497327e-002 2.364637e-002 -3.483984e-003 3.539822e-002 -3.928299e-002 -1.228801e-003 -1.288573e-001 -2.939976e-003 2.806149e-002 -3.129676e-002 -6.704205e-003 8.974522e-002 5.837049e-002 2.005594e-002 2.054664e-002 2.112653e-002 1.022844e-002 1.043538e-002 -3.788315e-002 -3.238617e-002
<VARIANCE> 39
 8.996664e+000 5.425148e+001 3.882608e+001 1.564233e+001 7.020276e+001 4.585347e+001 1.870580e+001 3.172253e+001 4.050156e+001 4.458263e+001 5.483151e+001 2.958559e+001 1.167508e+001 1.130208e-001 3.459874e-001 3.108571e-001 5.515425e-001 1.001796e+000 7.729239e-001 8.172160e-001 7.519727e-001 9.633024e-001 7.574050e-001 8.722199e-001 6.954041e-001 1.181899e-001 2.055548e-002 5.780831e-002 6.201451e-002 1.050426e-001 1.620817e-001 1.665655e-001 1.504265e-001 1.346698e-001 1.917145e-001 1.452859e-001 1.535726e-001 1.206709e-001 2.337007e-002
<GCONST> 7.678316e+001
<STATE> 3
<MEAN> 39
 -3.304638e+000 -2.182763e-001 5.416632e+000 7.247877e-001 -1.701586e+001 -2.412847e+001 -7.657479e+000 -3.797083e+000 -2.892772e+000 -5.215461e+000 -4.542313e+000 1.897706e+000 7.075647e+001 -7.190123e-002 1.913126e-001 -1.628505e-001 -2.157190e-001 2.707869e-001 1.006680e-001 -1.492781e-001 3.140254e-001 2.151847e-001 1.118723e-001 -2.036211e-001 -2.088530e-001 -4.932464e-001 -1.597283e-002 -1.995768e-003 2.122216e-002 7.397776e-003 7.052163e-003 1.107851e-001 -9.722829e-003 -8.056960e-003 5.787426e-003 1.596818e-002 -2.496386e-002 2.574190e-002 -4.609151e-002
<VARIANCE> 39
 1.413566e+001 3.207045e+001 2.101707e+001 1.693353e+001 1.154502e+002 3.844716e+001 2.051563e+001 4.295125e+001 6.140157e+001 3.123120e+001 4.191592e+001 3.431958e+001 6.583122e+000 2.065332e-001 5.526590e-001 6.452346e-001 1.055018e+000 1.459213e+000 8.601625e-001 1.524052e+000 1.239313e+000 2.021420e+000 1.600160e+000 1.590921e+000 9.183369e-001 1.036634e-001 3.540892e-002 7.879762e-002 1.073769e-001 1.815409e-001 2.722426e-001 1.923222e-001 2.586789e-001 2.411572e-001 3.932371e-001 2.934861e-001 2.816615e-001 1.867858e-001 1.383757e-002
<GCONST> 8.822935e+001
<STATE> 4
<MEAN> 39
 -6.617151e+000 5.152860e-002 4.847111e+000 5.580227e-002 -1.253351e+001 -1.946364e+001 -5.937359e+000 -1.190564e+000 -1.088010e+000 -3.221605e+000 -4.903690e+000 2.448582e+000 6.301226e+001 -2.556230e-001 -1.466777e-002 -4.062371e-001 5.328409e-002 8.144624e-001 7.117253e-001 5.708097e-001 2.938711e-001 2.911533e-001 3.283395e-001 1.678871e-001 2.810126e-002 -1.114075e+000 -1.921889e-002 1.977108e-002 -8.572984e-002 5.531183e-002 1.257816e-001 5.812006e-002 5.250451e-002 -2.106177e-002 -5.064198e-002 7.756086e-002 8.557356e-002 4.897619e-004 -7.227248e-002
<VARIANCE> 39
 1.618732e+001 2.335203e+001 1.921311e+001 2.345516e+001 7.511951e+001 4.590504e+001 4.323693e+001 3.397963e+001 5.419714e+001 2.603706e+001 4.411805e+001 4.959694e+001 1.763080e+001 3.816037e-001 5.980663e-001 6.658714e-001 8.775970e-001 1.271216e+000 1.391860e+000 1.748896e+000 3.127403e+000 3.264883e+000 1.527147e+000 1.903893e+000 1.180387e+000 4.901734e-001 6.583689e-002 1.163717e-001 1.041228e-001 1.810404e-001 2.618963e-001 2.584576e-001 3.387333e-001 5.391381e-001 6.656193e-001 2.809669e-001 3.164283e-001 2.473232e-001 4.443499e-002
<GCONST> 9.835810e+001
<TRANSP> 5
 0.000000e+000 1.000000e+000 0.000000e+000 0.000000e+000 0.000000e+000
 0.000000e+000 9.232883e-001 7.671173e-002 0.000000e+000 0.000000e+000
 0.000000e+000 0.000000e+000 8.723797e-001 1.276203e-001 0.000000e+000
 0.000000e+000 0.000000e+000 0.000000e+000 8.803828e-001 1.196172e-001
 0.000000e+000 0.000000e+000 0.000000e+000 0.000000e+000 0.000000e+000
<ENDHMM>
~h "ea"
<BEGINHMM>
<NUMSTATES> 5
<STATE> 2
<MEAN> 39
 -5.153443e+000 1.887341e+000 -3.998059e-001 -4.719388e+000 -1.027645e+001 -8.377604e+000 -1.314454e+000 -4.294622e+000 -2.598214e+000 -1.637859e+000 -2.417927e+000 -3.007498e-001 6.395220e+001 2.656938e-002 2.103826e-002 1.670751e-002 2.097466e-003 -4.075075e-002 -6.993482e-002 -7.360970e-003 -1.582084e-002 -2.291133e-002 -1.948875e-002 -7.798372e-003 -1.589407e-002 -1.794146e-002 -6.101388e-003 4.534691e-003 -4.683285e-003 2.991999e-003 1.307896e-002 1.532247e-002 4.297304e-003 2.199038e-003 5.607250e-003 8.410532e-003 3.306764e-003 1.353030e-003 -2.459256e-002
<VARIANCE> 39
 3.876240e+001 5.593195e+001 6.909898e+001 8.084949e+001 8.242165e+001 1.017876e+002 5.764616e+001 6.496631e+001 6.744147e+001 4.920574e+001 3.916745e+001 3.616992e+001 8.957718e+001 1.350502e+000 1.888252e+000 1.699849e+000 2.401277e+000 2.816806e+000 2.814739e+000 2.621114e+000 2.615768e+000 2.810299e+000 2.549241e+000 2.217089e+000 1.828917e+000 2.527436e+000 1.981723e-001 2.897191e-001 2.501056e-001 3.312125e-001 4.046271e-001 4.166303e-001 4.473993e-001 4.295296e-001 4.660336e-001 4.356595e-001 3.927584e-001 3.259792e-001 2.569831e-001
<GCONST> 1.219561e+002
<STATE> 3
<MEAN> 39
 -5.153443e+000 1.887341e+000 -3.998059e-001 -4.719388e+000 -1.027645e+001 -8.377604e+000 -1.314454e+000 -4.294622e+000 -2.598214e+000 -1.637859e+000 -2.417927e+000 -3.007498e-001 6.395220e+001 2.656938e-002 2.103826e-002 1.670751e-002 2.097466e-003 -4.075075e-002 -6.993482e-002 -7.360970e-003 -1.582084e-002 -2.291133e-002 -1.948875e-002 -7.798372e-003 -1.589407e-002 -1.794146e-002 -6.101388e-003 4.534691e-003 -4.683285e-003 2.991999e-003 1.307896e-002 1.532247e-002 4.297304e-003 2.199038e-003 5.607250e-003 8.410532e-003 3.306764e-003 1.353030e-003 -2.459256e-002
<VARIANCE> 39
 3.876240e+001 5.593195e+001 6.909898e+001 8.084949e+001 8.242165e+001 1.017876e+002 5.764616e+001 6.496631e+001 6.744147e+001 4.920574e+001 3.916745e+001 3.616992e+001 8.957718e+001 1.350502e+000 1.888252e+000 1.699849e+000 2.401277e+000 2.816806e+000 2.814739e+000 2.621114e+000 2.615768e+000 2.810299e+000 2.549241e+000 2.217089e+000 1.828917e+000 2.527436e+000 1.981723e-001 2.897191e-001 2.501056e-001 3.312125e-001 4.046271e-001 4.166303e-001 4.473993e-001 4.295296e-001 4.660336e-001 4.356595e-001 3.927584e-001 3.259792e-001 2.569831e-001
<GCONST> 1.219561e+002
<STATE> 4
<MEAN> 39
 -5.153443e+000 1.887341e+000 -3.998059e-001 -4.719388e+000 -1.027645e+001 -8.377604e+000 -1.314454e+000 -4.294622e+000 -2.598214e+000 -1.637859e+000 -2.417927e+000 -3.007498e-001 6.395220e+001 2.656938e-002 2.103826e-002 1.670751e-002 2.097466e-003 -4.075075e-002 -6.993482e-002 -7.360970e-003 -1.582084e-002 -2.291133e-002 -1.948875e-002 -7.798372e-003 -1.589407e-002 -1.794146e-002 -6.101388e-003 4.534691e-003 -4.683285e-003 2.991999e-003 1.307896e-002 1.532247e-002 4.297304e-003 2.199038e-003 5.607250e-003 8.410532e-003 3.306764e-003 1.353030e-003 -2.459256e-002
<VARIANCE> 39
 3.876240e+001 5.593195e+001 6.909898e+001 8.084949e+001 8.242165e+001 1.017876e+002 5.764616e+001 6.496631e+001 6.744147e+001 4.920574e+001 3.916745e+001 3.616992e+001 8.957718e+001 1.350502e+000 1.888252e+000 1.699849e+000 2.401277e+000 2.816806e+000 2.814739e+000 2.621114e+000 2.615768e+000 2.810299e+000 2.549241e+000 2.217089e+000 1.828917e+000 2.527436e+000 1.981723e-001 2.897191e-001 2.501056e-001 3.312125e-001 4.046271e-001 4.166303e-001 4.473993e-001 4.295296e-001 4.660336e-001 4.356595e-001 3.927584e-001 3.259792e-001 2.569831e-001
<GCONST> 1.219561e+002
<TRANSP> 5
 0.000000e+000 1.000000e+000 0.000000e+000 0.000000e+000 0.000000e+000
 0.000000e+000 6.000000e-001 4.000000e-001 0.000000e+000 0.000000e+000
 0.000000e+000 0.000000e+000 6.000000e-001 4.000000e-001 0.000000e+000
 0.000000e+000 0.000000e+000 0.000000e+000 7.000000e-001 3.000000e-001
 0.000000e+000 0.000000e+000 0.000000e+000 0.000000e+000 0.000000e+000
<ENDHMM>
~h "ei"
<BEGINHMM>
<NUMSTATES> 5
<STATE> 2
<MEAN> 39
 -3.881095e+000 -4.194127e+000 5.227870e+000 -1.366311e+000 -1.650241e+001 -2.428978e+001 -7.200785e+000 -4.268071e+000 -2.216230e+000 -2.997116e+000 -1.266888e+000 2.932907e+000 7.471890e+001 -4.102245e-002 3.317499e-001 5.634996e-001 3.051405e-001 -2.400060e-001 -2.799335e-001 2.514992e-001 -4.244867e-001 -8.690019e-001 -4.787135e-001 1.012116e-001 1.222554e-001 -2.736660e-001 -1.185245e-002 9.675236e-002 -1.400553e-002 5.822322e-002 5.729634e-002 1.179743e-001 -3.231030e-002 -5.881632e-002 -6.794988e-002 -1.940219e-002 -4.730504e-002 -5.471391e-002 -7.521839e-002
<VARIANCE> 39
 4.094133e+000 3.170032e+001 2.461087e+001 2.918225e+001 5.732779e+001 4.322849e+001 2.255674e+001 3.834781e+001 5.554005e+001 2.468037e+001 2.366442e+001 1.851641e+001 1.141163e+001 1.446237e-001 3.590111e-001 6.743904e-001 8.516044e-001 7.686221e-001 1.337897e+000 1.000808e+000 1.417772e+000 7.835295e-001 1.530478e+000 1.048277e+000 1.013468e+000 2.490140e-001 2.157426e-002 6.398211e-002 1.250611e-001 1.250250e-001 1.324167e-001 1.661159e-001 2.007535e-001 2.343477e-001 1.414843e-001 2.495485e-001 2.020550e-001 1.964837e-001 3.083730e-002
<GCONST> 8.148920e+001
<STATE> 3
<MEAN> 39
 -5.337089e+000 9.109071e-001 1.029629e+001 1.597927e+000 -1.821030e+001 -2.167932e+001 -3.859487e+000 -7.116869e+000 -9.434620e+000 -5.940331e+000 -1.925363e+000 1.797667e+000 6.954245e+001 -1.907021e-001 6.234294e-001 3.444082e-001 9.310710e-002 2.673570e-001 3.943023e-001 3.561833e-001 -1.269797e-001 -4.348493e-001 -1.322608e-001 -3.485186e-001 -4.294946e-001 -7.188573e-001 -2.769404e-002 -1.688771e-002 -1.776858e-003 -8.822195e-003 7.193734e-002 8.551719e-002 -3.092313e-002 -3.762989e-003 3.231703e-002 3.306269e-002 -8.001348e-003 -4.153753e-003 -2.427030e-002
<VARIANCE> 39
 2.720020e+000 1.889785e+001 1.931235e+001 2.012502e+001 7.734821e+001 3.846202e+001 1.380335e+001 4.171730e+001 6.958322e+001 3.801222e+001 3.809748e+001 3.195406e+001 9.249514e+000 1.568746e-001 4.804617e-001 7.190878e-001 9.714932e-001 1.416703e+000 1.089783e+000 1.020657e+000 1.518182e+000 9.265239e-001 8.596134e-001 7.975436e-001 1.113889e+000 1.589413e-001 2.652581e-002 4.603015e-002 1.185891e-001 1.713408e-001 2.422842e-001 2.156437e-001 2.128232e-001 3.098421e-001 1.777267e-001 1.772610e-001 1.688914e-001 1.686598e-001 1.537198e-002
<GCONST> 8.141971e+001
<STATE> 4
<MEAN> 39
 -9.209568e+000 7.928979e+000 1.321678e+001 4.273999e+000 -1.437702e+001 -1.315383e+001 -6.085715e-001 -1.041471e+001 -9.109608e+000 -7.191120e+000 -3.687404e+000 -1.487165e+000 6.041093e+001 -2.730134e-001 -5.607191e-002 -5.036765e-001 1.110686e-001 1.002674e+000 8.623617e-001 2.693833e-001 9.818317e-002 -1.120737e-001 4.691169e-001 6.486093e-002 -2.332480e-001 -1.109140e+000 1.260405e-003 -1.528463e-001 -2.002438e-001 -7.992032e-002 9.615565e-002 5.200767e-002 1.605295e-002 1.556882e-001 1.532702e-001 1.337675e-001 8.489744e-002 5.530100e-002 -3.042408e-002
<VARIANCE> 39
 1.144623e+001 3.514033e+001 3.983433e+001 1.621306e+001 9.894772e+001 4.064231e+001 3.004073e+001 3.585954e+001 5.372179e+001 3.193272e+001 2.624236e+001 4.037845e+001 2.506404e+001 2.298659e-001 9.361757e-001 1.065902e+000 8.188349e-001 1.411889e+000 1.767655e+000 1.843322e+000 2.096964e+000 2.266943e+000 1.900057e+000 1.698636e+000 1.245181e+000 2.785274e-001 4.035436e-002 1.181855e-001 1.081729e-001 1.444049e-001 2.441681e-001 3.941379e-001 3.644486e-001 2.942414e-001 3.477717e-001 3.385761e-001 2.605204e-001 2.255848e-001 3.583209e-002
<GCONST> 9.620582e+001
<TRANSP> 5
 0.000000e+000 1.000000e+000 0.000000e+000 0.000000e+000 0.000000e+000
 0.000000e+000 8.749044e-001 1.250956e-001 0.000000e+000 0.000000e+000
 0.000000e+000 0.000000e+000 8.859064e-001 1.140936e-001 0.000000e+000
 0.000000e+000 0.000000e+000 0.000000e+000 8.997664e-001 1.002336e-001
 0.000000e+000 0.000000e+000 0.000000e+000 0.000000e+000 0.000000e+000
<ENDHMM>
~h "eo"
<BEGINHMM>
<NUMSTATES> 5
<STATE> 2
<MEAN> 39
 -5.153443e+000 1.887341e+000 -3.998059e-001 -4.719388e+000 -1.027645e+001 -8.377604e+000 -1.314454e+000 -4.294622e+000 -2.598214e+000 -1.637859e+000 -2.417927e+000 -3.007498e-001 6.395220e+001 2.656938e-002 2.103826e-002 1.670751e-002 2.097466e-003 -4.075075e-002 -6.993482e-002 -7.360970e-003 -1.582084e-002 -2.291133e-002 -1.948875e-002 -7.798372e-003 -1.589407e-002 -1.794146e-002 -6.101388e-003 4.534691e-003 -4.683285e-003 2.991999e-003 1.307896e-002 1.532247e-002 4.297304e-003 2.199038e-003 5.607250e-003 8.410532e-003 3.306764e-003 1.353030e-003 -2.459256e-002
<VARIANCE> 39
 3.876240e+001 5.593195e+001 6.909898e+001 8.084949e+001 8.242165e+001 1.017876e+002 5.764616e+001 6.496631e+001 6.744147e+001 4.920574e+001 3.916745e+001 3.616992e+001 8.957718e+001 1.350502e+000 1.888252e+000 1.699849e+000 2.401277e+000 2.816806e+000 2.814739e+000 2.621114e+000 2.615768e+000 2.810299e+000 2.549241e+000 2.217089e+000 1.828917e+000 2.527436e+000 1.981723e-001 2.897191e-001 2.501056e-001 3.312125e-001 4.046271e-001 4.166303e-001 4.473993e-001 4.295296e-001 4.660336e-001 4.356595e-001 3.927584e-001 3.259792e-001 2.569831e-001
<GCONST> 1.219561e+002
<STATE> 3
<MEAN> 39
 -5.153443e+000 1.887341e+000 -3.998059e-001 -4.719388e+000 -1.027645e+001 -8.377604e+000 -1.314454e+000 -4.294622e+000 -2.598214e+000 -1.637859e+000 -2.417927e+000 -3.007498e-001 6.395220e+001 2.656938e-002 2.103826e-002 1.670751e-002 2.097466e-003 -4.075075e-002 -6.993482e-002 -7.360970e-003 -1.582084e-002 -2.291133e-002 -1.948875e-002 -7.798372e-003 -1.589407e-002 -1.794146e-002 -6.101388e-003 4.534691e-003 -4.683285e-003 2.991999e-003 1.307896e-002 1.532247e-002 4.297304e-003 2.199038e-003 5.607250e-003 8.410532e-003 3.306764e-003 1.353030e-003 -2.459256e-002
<VARIANCE> 39
 3.876240e+001 5.593195e+001 6.909898e+001 8.084949e+001 8.242165e+001 1.017876e+002 5.764616e+001 6.496631e+001 6.744147e+001 4.920574e+001 3.916745e+001 3.616992e+001 8.957718e+001 1.350502e+000 1.888252e+000 1.699849e+000 2.401277e+000 2.816806e+000 2.814739e+000 2.621114e+000 2.615768e+000 2.810299e+000 2.549241e+000 2.217089e+000 1.828917e+000 2.527436e+000 1.981723e-001 2.897191e-001 2.501056e-001 3.312125e-001 4.046271e-001 4.166303e-001 4.473993e-001 4.295296e-001 4.660336e-001 4.356595e-001 3.927584e-001 3.259792e-001 2.569831e-001
<GCONST> 1.219561e+002
<STATE> 4
<MEAN> 39
 -5.153443e+000 1.887341e+000 -3.998059e-001 -4.719388e+000 -1.027645e+001 -8.377604e+000 -1.314454e+000 -4.294622e+000 -2.598214e+000 -1.637859e+000 -2.417927e+000 -3.007498e-001 6.395220e+001 2.656938e-002 2.103826e-002 1.670751e-002 2.097466e-003 -4.075075e-002 -6.993482e-002 -7.360970e-003 -1.582084e-002 -2.291133e-002 -1.948875e-002 -7.798372e-003 -1.589407e-002 -1.794146e-002 -6.101388e-003 4.534691e-003 -4.683285e-003 2.991999e-003 1.307896e-002 1.532247e-002 4.297304e-003 2.199038e-003 5.607250e-003 8.410532e-003 3.306764e-003 1.353030e-003 -2.459256e-002
<VARIANCE> 39
 3.876240e+001 5.593195e+001 6.909898e+001 8.084949e+001 8.242165e+001 1.017876e+002 5.764616e+001 6.496631e+001 6.744147e+001 4.920574e+001 3.916745e+001 3.616992e+001 8.957718e+001 1.350502e+000 1.888252e+000 1.699849e+000 2.401277e+000 2.816806e+000 2.814739e+000 2.621114e+000 2.615768e+000 2.810299e+000 2.549241e+000 2.217089e+000 1.828917e+000 2.527436e+000 1.981723e-001 2.897191e-001 2.501056e-001 3.312125e-001 4.046271e-001 4.166303e-001 4.473993e-001 4.295296e-001 4.660336e-001 4.356595e-001 3.927584e-001 3.259792e-001 2.569831e-001
<GCONST> 1.219561e+002
<TRANSP> 5
 0.000000e+000 1.000000e+000 0.000000e+000 0.000000e+000 0.000000e+000
 0.000000e+000 6.000000e-001 4.000000e-001 0.000000e+000 0.000000e+000
 0.000000e+000 0.000000e+000 6.000000e-001 4.000000e-001 0.000000e+000
 0.000000e+000 0.000000e+000 0.000000e+000 7.000000e-001 3.000000e-001
 0.000000e+000 0.000000e+000 0.000000e+000 0.000000e+000 0.000000e+000
<ENDHMM>
~h "eu"
<BEGINHMM>
<NUMSTATES> 5
<STATE> 2
<MEAN> 39
 -5.153443e+000 1.887341e+000 -3.998059e-001 -4.719388e+000 -1.027645e+001 -8.377604e+000 -1.314454e+000 -4.294622e+000 -2.598214e+000 -1.637859e+000 -2.417927e+000 -3.007498e-001 6.395220e+001 2.656938e-002 2.103826e-002 1.670751e-002 2.097466e-003 -4.075075e-002 -6.993482e-002 -7.360970e-003 -1.582084e-002 -2.291133e-002 -1.948875e-002 -7.798372e-003 -1.589407e-002 -1.794146e-002 -6.101388e-003 4.534691e-003 -4.683285e-003 2.991999e-003 1.307896e-002 1.532247e-002 4.297304e-003 2.199038e-003 5.607250e-003 8.410532e-003 3.306764e-003 1.353030e-003 -2.459256e-002
<VARIANCE> 39
 3.876240e+001 5.593195e+001 6.909898e+001 8.084949e+001 8.242165e+001 1.017876e+002 5.764616e+001 6.496631e+001 6.744147e+001 4.920574e+001 3.916745e+001 3.616992e+001 8.957718e+001 1.350502e+000 1.888252e+000 1.699849e+000 2.401277e+000 2.816806e+000 2.814739e+000 2.621114e+000 2.615768e+000 2.810299e+000 2.549241e+000 2.217089e+000 1.828917e+000 2.527436e+000 1.981723e-001 2.897191e-001 2.501056e-001 3.312125e-001 4.046271e-001 4.166303e-001 4.473993e-001 4.295296e-001 4.660336e-001 4.356595e-001 3.927584e-001 3.259792e-001 2.569831e-001
<GCONST> 1.219561e+002
<STATE> 3
<MEAN> 39
 -5.153443e+000 1.887341e+000 -3.998059e-001 -4.719388e+000 -1.027645e+001 -8.377604e+000 -1.314454e+000 -4.294622e+000 -2.598214e+000 -1.637859e+000 -2.417927e+000 -3.007498e-001 6.395220e+001 2.656938e-002 2.103826e-002 1.670751e-002 2.097466e-003 -4.075075e-002 -6.993482e-002 -7.360970e-003 -1.582084e-002 -2.291133e-002 -1.948875e-002 -7.798372e-003 -1.589407e-002 -1.794146e-002 -6.101388e-003 4.534691e-003 -4.683285e-003 2.991999e-003 1.307896e-002 1.532247e-002 4.297304e-003 2.199038e-003 5.607250e-003 8.410532e-003 3.306764e-003 1.353030e-003 -2.459256e-002
<VARIANCE> 39
 3.876240e+001 5.593195e+001 6.909898e+001 8.084949e+001 8.242165e+001 1.017876e+002 5.764616e+001 6.496631e+001 6.744147e+001 4.920574e+001 3.916745e+001 3.616992e+001 8.957718e+001 1.350502e+000 1.888252e+000 1.699849e+000 2.401277e+000 2.816806e+000 2.814739e+000 2.621114e+000 2.615768e+000 2.810299e+000 2.549241e+000 2.217089e+000 1.828917e+000 2.527436e+000 1.981723e-001 2.897191e-001 2.501056e-001 3.312125e-001 4.046271e-001 4.166303e-001 4.473993e-001 4.295296e-001 4.660336e-001 4.356595e-001 3.927584e-001 3.259792e-001 2.569831e-001
<GCONST> 1.219561e+002
<STATE> 4
<MEAN> 39
 -5.153443e+000 1.887341e+000 -3.998059e-001 -4.719388e+000 -1.027645e+001 -8.377604e+000 -1.314454e+000 -4.294622e+000 -2.598214e+000 -1.637859e+000 -2.417927e+000 -3.007498e-001 6.395220e+001 2.656938e-002 2.103826e-002 1.670751e-002 2.097466e-003 -4.075075e-002 -6.993482e-002 -7.360970e-003 -1.582084e-002 -2.291133e-002 -1.948875e-002 -7.798372e-003 -1.589407e-002 -1.794146e-002 -6.101388e-003 4.534691e-003 -4.683285e-003 2.991999e-003 1.307896e-002 1.532247e-002 4.297304e-003 2.199038e-003 5.607250e-003 8.410532e-003 3.306764e-003 1.353030e-003 -2.459256e-002
<VARIANCE> 39
 3.876240e+001 5.593195e+001 6.909898e+001 8.084949e+001 8.242165e+001 1.017876e+002 5.764616e+001 6.496631e+001 6.744147e+001 4.920574e+001 3.916745e+001 3.616992e+001 8.957718e+001 1.350502e+000 1.888252e+000 1.699849e+000 2.401277e+000 2.816806e+000 2.814739e+000 2.621114e+000 2.615768e+000 2.810299e+000 2.549241e+000 2.217089e+000 1.828917e+000 2.527436e+000 1.981723e-001 2.897191e-001 2.501056e-001 3.312125e-001 4.046271e-001 4.166303e-001 4.473993e-001 4.295296e-001 4.660336e-001 4.356595e-001 3.927584e-001 3.259792e-001 2.569831e-001
<GCONST> 1.219561e+002
<TRANSP> 5
 0.000000e+000 1.000000e+000 0.000000e+000 0.000000e+000 0.000000e+000
 0.000000e+000 6.000000e-001 4.000000e-001 0.000000e+000 0.000000e+000
 0.000000e+000 0.000000e+000 6.000000e-001 4.000000e-001 0.000000e+000
 0.000000e+000 0.000000e+000 0.000000e+000 7.000000e-001 3.000000e-001
 0.000000e+000 0.000000e+000 0.000000e+000 0.000000e+000 0.000000e+000
<ENDHMM>
~h "i:"
<BEGINHMM>
<NUMSTATES> 5
<STATE> 2
<MEAN> 39
