~o
<STREAMINFO> 1 39
<VECSIZE> 39<NULLD><MFCC_D_A_0><DIAGC>
~h "N"
<BEGINHMM>
<NUMSTATES> 5
<STATE> 2
<MEAN> 39
 -5.404736e+000 2.474264e+000 3.122554e-001 -4.394701e+000 -9.639411e+000 -8.753761e+000 -1.066005e+000 -4.766325e+000 -3.743578e+000 -1.938833e+000 -1.992863e+000 -4.559347e-003 6.495885e+001 2.450988e-002 1.302901e-002 1.918019e-002 3.316283e-003 -4.371658e-002 -7.306439e-002 -1.842394e-002 -2.444299e-002 -3.052467e-002 -2.393421e-002 -9.349622e-003 -1.425933e-002 -9.787142e-003 -5.396765e-003 4.690089e-003 -6.835332e-003 5.209368e-003 1.451201e-002 1.721763e-002 5.296492e-003 6.553777e-003 6.220506e-003 9.362569e-003 4.125166e-003 3.225525e-003 -2.743884e-002
<VARIANCE> 39
 3.864226e+001 5.281501e+001 7.391051e+001 8.135933e+001 7.677331e+001 9.463634e+001 5.724667e+001 6.897221e+001 6.326392e+001 4.839135e+001 3.680719e+001 3.395739e+001 8.727069e+001 1.372905e+000 1.793903e+000 1.710096e+000 2.409231e+000 2.706431e+000 2.777050e+000 2.585872e+000 2.606039e+000 2.707144e+000 2.455808e+000 2.104158e+000 1.735463e+000 2.419883e+000 1.985618e-001 2.764823e-001 2.480070e-001 3.283480e-001 3.897789e-001 4.118499e-001 4.453265e-001 4.204600e-001 4.511843e-001 4.197432e-001 3.712303e-001 3.108075e-001 2.378747e-001
<GCONST> 1.209395e+002
<STATE> 3
<MEAN> 39
 -5.404736e+000 2.474264e+000 3.122554e-001 -4.394701e+000 -9.639411e+000 -8.753761e+000 -1.066005e+000 -4.766325e+000 -3.743578e+000 -1.938833e+000 -1.992863e+000 -4.559347e-003 6.495885e+001 2.450988e-002 1.302901e-002 1.918019e-002 3.316283e-003 -4.371658e-002 -7.306439e-002 -1.842394e-002 -2.444299e-002 -3.052467e-002 -2.393421e-002 -9.349622e-003 -1.425933e-002 -9.787142e-003 -5.396765e-003 4.690089e-003 -6.835332e-003 5.209368e-003 1.451201e-002 1.721763e-002 5.296492e-003 6.553777e-003 6.220506e-003 9.362569e-003 4.125166e-003 3.225525e-003 -2.743884e-002
<VARIANCE> 39
 3.864226e+001 5.281501e+001 7.391051e+001 8.135933e+001 7.677331e+001 9.463634e+001 5.724667e+001 6.897221e+001 6.326392e+001 4.839135e+001 3.680719e+001 3.395739e+001 8.727069e+001 1.372905e+000 1.793903e+000 1.710096e+000 2.409231e+000 2.706431e+000 2.777050e+000 2.585872e+000 2.606039e+000 2.707144e+000 2.455808e+000 2.104158e+000 1.735463e+000 2.419883e+000 1.985618e-001 2.764823e-001 2.480070e-001 3.283480e-001 3.897789e-001 4.118499e-001 4.453265e-001 4.204600e-001 4.511843e-001 4.197432e-001 3.712303e-001 3.108075e-001 2.378747e-001
<GCONST> 1.209395e+002
<STATE> 4
<MEAN> 39
 -5.404736e+000 2.474264e+000 3.122554e-001 -4.394701e+000 -9.639411e+000 -8.753761e+000 -1.066005e+000 -4.766325e+000 -3.743578e+000 -1.938833e+000 -1.992863e+000 -4.559347e-003 6.495885e+001 2.450988e-002 1.302901e-002 1.918019e-002 3.316283e-003 -4.371658e-002 -7.306439e-002 -1.842394e-002 -2.444299e-002 -3.052467e-002 -2.393421e-002 -9.349622e-003 -1.425933e-002 -9.787142e-003 -5.396765e-003 4.690089e-003 -6.835332e-003 5.209368e-003 1.451201e-002 1.721763e-002 5.296492e-003 6.553777e-003 6.220506e-003 9.362569e-003 4.125166e-003 3.225525e-003 -2.743884e-002
<VARIANCE> 39
 3.864226e+001 5.281501e+001 7.391051e+001 8.135933e+001 7.677331e+001 9.463634e+001 5.724667e+001 6.897221e+001 6.326392e+001 4.839135e+001 3.680719e+001 3.395739e+001 8.727069e+001 1.372905e+000 1.793903e+000 1.710096e+000 2.409231e+000 2.706431e+000 2.777050e+000 2.585872e+000 2.606039e+000 2.707144e+000 2.455808e+000 2.104158e+000 1.735463e+000 2.419883e+000 1.985618e-001 2.764823e-001 2.480070e-001 3.283480e-001 3.897789e-001 4.118499e-001 4.453265e-001 4.204600e-001 4.511843e-001 4.197432e-001 3.712303e-001 3.108075e-001 2.378747e-001
<GCONST> 1.209395e+002
<TRANSP> 5
 0.000000e+000 1.000000e+000 0.000000e+000 0.000000e+000 0.000000e+000
 0.000000e+000 6.000000e-001 4.000000e-001 0.000000e+000 0.000000e+000
 0.000000e+000 0.000000e+000 6.000000e-001 4.000000e-001 0.000000e+000
 0.000000e+000 0.000000e+000 0.000000e+000 7.000000e-001 3.000000e-001
 0.000000e+000 0.000000e+000 0.000000e+000 0.000000e+000 0.000000e+000
<ENDHMM>
~h "a"
<BEGINHMM>
<NUMSTATES> 5
<STATE> 2
<MEAN> 39
 -2.466099e+000 1.479401e+000 -5.798275e+000 -9.166466e+000 -5.812254e+000 -3.780020e+000 -8.443749e-001 -4.496998e+000 -1.349221e+000 3.068093e+000 1.464183e+000 -1.053985e+000 6.588670e+001 -7.420304e-001 -2.271962e-001 -1.180890e-002 -6.208646e-002 1.918998e-001 -6.582783e-002 -5.300269e-001 1.925425e-001 6.395132e-001 6.034327e-001 3.316038e-001 1.679141e-004 -7.033376e-001 -1.416508e-001 1.063965e-001 1.645271e-001 1.719677e-001 -2.289313e-002 8.000881e-003 3.852406e-002 8.772472e-003 -4.823336e-002 -2.173018e-001 -6.322619e-002 1.796428e-002 -1.730092e-001
<VARIANCE> 39
 3.085135e+001 3.353830e+001 4.633950e+001 4.262292e+001 5.668008e+001 4.375299e+001 4.354967e+001 4.530901e+001 3.944931e+001 5.066749e+001 3.857136e+001 4.072271e+001 6.055448e+001 1.705180e+000 3.111087e+000 3.093975e+000 4.984585e+000 3.501487e+000 2.885660e+000 2.594546e+000 1.896906e+000 2.697398e+000 4.809126e+000 3.342134e+000 2.079497e+000 5.217783e+000 2.761473e-001 5.487246e-001 5.675116e-001 9.158620e-001 6.925802e-001 5.600741e-001 4.734178e-001 3.195678e-001 4.893867e-001 6.602664e-001 6.174155e-001 4.172197e-001 7.646328e-001
<GCONST> 1.270073e+002
<STATE> 3
<MEAN> 39
 -4.719598e+000 1.321131e+000 -5.288090e+000 -8.749961e+000 -5.412822e+000 -3.968902e+000 -1.977188e+000 -3.918218e+000 -3.470792e-002 3.683754e+000 2.010690e+000 -9.815647e-001 6.372194e+001 -1.045915e+000 -2.429232e-002 3.294127e-001 2.416436e-001 8.327943e-002 -4.858155e-002 -3.284622e-001 1.947961e-001 4.853464e-001 6.466889e-002 1.651064e-001 7.660323e-002 -8.358081e-001 -1.184707e-001 6.288685e-002 1.305007e-001 9.485236e-002 -4.293108e-002 4.425320e-003 8.918629e-002 -5.877719e-003 -6.786840e-002 -2.005795e-001 -6.551256e-002 3.254728e-002 2.242133e-002
<VARIANCE> 39
 4.776326e+001 2.792891e+001 4.409095e+001 3.795396e+001 4.847847e+001 3.761923e+001 3.552066e+001 3.488981e+001 3.574681e+001 3.770846e+001 2.982274e+001 3.665912e+001 6.009166e+001 2.313487e+000 2.414581e+000 2.714004e+000 3.401418e+000 2.999505e+000 2.851075e+000 2.479017e+000 1.721530e+000 2.649675e+000 3.748186e+000 2.540484e+000 1.963319e+000 5.020365e+000 3.972233e-001 4.497665e-001 4.973352e-001 7.118182e-001 5.822713e-001 5.410767e-001 4.388822e-001 2.893905e-001 5.132719e-001 5.428902e-001 4.803203e-001 3.964290e-001 7.912354e-001
<GCONST> 1.231324e+002
<STATE> 4
<MEAN> 39
 -8.182013e+000 1.516762e+000 -3.591422e+000 -7.544908e+000 -5.375726e+000 -4.051674e+000 -2.426149e+000 -3.359132e+000 1.005310e+000 2.861546e+000 2.086108e+000 -6.153105e-001 6.178172e+001 -1.299279e+000 3.806739e-002 6.710992e-001 4.319324e-001 -1.649421e-002 -7.593652e-002 -3.912119e-002 1.455054e-001 2.740197e-001 -3.932460e-001 -8.798695e-003 1.804027e-001 -4.101850e-001 -5.809953e-002 1.213425e-002 1.144202e-001 5.802782e-002 -2.843612e-002 -1.768127e-002 8.768515e-002 -2.693477e-002 -7.814300e-002 -1.228124e-001 -5.586886e-002 2.484778e-002 1.734135e-001
<VARIANCE> 39
 7.407782e+001 2.534675e+001 5.283311e+001 4.083484e+001 3.747791e+001 3.415471e+001 2.982255e+001 2.527588e+001 3.341644e+001 3.536510e+001 2.338559e+001 3.116470e+001 5.146950e+001 3.726194e+000 2.104270e+000 2.969071e+000 2.627381e+000 2.736845e+000 3.022663e+000 2.347432e+000 1.682169e+000 3.012444e+000 2.822686e+000 1.971107e+000 1.793578e+000 5.210771e+000 6.327708e-001 3.989278e-001 5.021783e-001 5.684351e-001 5.173675e-001 5.477455e-001 4.192065e-001 2.895594e-001 5.978014e-001 4.813911e-001 3.800334e-001 3.673606e-001 7.415530e-001
<GCONST> 1.214190e+002
<TRANSP> 5
 0.000000e+000 1.000000e+000 0.000000e+000 0.000000e+000 0.000000e+000
 0.000000e+000 5.949947e-001 4.050053e-001 0.000000e+000 0.000000e+000
 0.000000e+000 0.000000e+000 5.949946e-001 4.050054e-001 0.000000e+000
 0.000000e+000 0.000000e+000 0.000000e+000 6.920805e-001 3.079195e-001
 0.000000e+000 0.000000e+000 0.000000e+000 0.000000e+000 0.000000e+000
<ENDHMM>
~h "e"
<BEGINHMM>
<NUMSTATES> 5
<STATE> 2
<MEAN> 39
 -6.027202e+000 1.670837e+000 3.328423e+000 2.381458e+000 -9.294278e+000 -1.300304e+001 -5.282048e+000 -3.936314e+000 3.767755e-001 -2.214339e+000 -2.775339e+000 7.763280e-001 6.451594e+001 -1.957871e-001 -1.463662e-001 2.109843e-001 2.260440e-001 -2.271981e-001 -4.459105e-001 6.059667e-002 3.323258e-001 1.473320e-001 -1.848316e-002 -2.747459e-003 6.260527e-002 -2.378715e-002 2.254220e-002 1.540244e-002 -3.762064e-002 -2.398722e-002 2.641440e-002 3.453030e-002 3.281790e-002 -3.468585e-002 -3.780601e-002 1.704751e-002 2.374512e-002 -5.262056e-003 -4.509940e-002
<VARIANCE> 39
 2.321341e+001 3.157203e+001 5.607663e+001 4.433574e+001 6.439787e+001 8.218026e+001 6.155919e+001 5.144224e+001 4.138926e+001 3.044349e+001 3.098516e+001 3.681266e+001 5.598463e+001 1.473431e+000 1.765025e+000 1.793063e+000 2.088310e+000 3.190464e+000 4.133375e+000 2.998242e+000 2.769123e+000 3.471570e+000 2.350045e+000 2.348977e+000 2.175803e+000 3.111182e+000 2.672561e-001 3.289522e-001 2.893817e-001 3.793339e-001 5.490873e-001 6.869786e-001 5.447360e-001 4.928406e-001 6.630920e-001 4.488136e-001 4.536968e-001 4.190660e-001 4.471611e-001
<GCONST> 1.221602e+002
<STATE> 3
<MEAN> 39
 -6.470374e+000 1.346201e+000 3.818813e+000 2.894705e+000 -9.832236e+000 -1.406951e+001 -5.027395e+000 -3.201528e+000 6.136085e-001 -2.245023e+000 -2.749545e+000 9.412340e-001 6.432725e+001 -1.529687e-001 -1.022127e-001 8.891794e-002 1.498300e-001 -1.135911e-001 -3.132632e-001 1.545013e-001 2.273799e-001 4.831552e-002 3.600213e-002 5.413982e-002 5.472197e-002 -1.930130e-001 9.756031e-003 1.500530e-002 -5.329017e-002 -3.771129e-002 6.101943e-002 7.932821e-002 3.225322e-002 -3.733479e-002 -2.512579e-002 2.700630e-002 1.326033e-002 -8.327530e-004 -7.498089e-002
<VARIANCE> 39
 2.096066e+001 2.786901e+001 5.199753e+001 4.304345e+001 6.336976e+001 8.239040e+001 6.630492e+001 5.373045e+001 3.732696e+001 3.043960e+001 3.066200e+001 3.591519e+001 5.431056e+001 1.263042e+000 1.531336e+000 1.693284e+000 2.110694e+000 3.133056e+000 3.987833e+000 2.784428e+000 2.653351e+000 3.233563e+000 2.298869e+000 2.258220e+000 2.091306e+000 2.762106e+000 2.314142e-001 2.848812e-001 2.599425e-001 3.741850e-001 5.170345e-001 6.494266e-001 5.117257e-001 4.780990e-001 6.137276e-001 4.351241e-001 4.488181e-001 4.113097e-001 3.730418e-001
<GCONST> 1.200220e+002
<STATE> 4
<MEAN> 39
 -6.807749e+000 1.037065e+000 3.994540e+000 3.093014e+000 -1.012725e+001 -1.452371e+001 -4.457005e+000 -2.724871e+000 5.991217e-001 -2.116770e+000 -2.634616e+000 9.952431e-001 6.350206e+001 -1.515563e-001 -5.272173e-002 -7.657271e-002 3.596876e-002 1.018173e-001 -5.967924e-002 2.391668e-001 1.266304e-001 1.011347e-004 1.048948e-001 8.146673e-002 6.932078e-002 -4.192474e-001 -4.995980e-003 8.673915e-003 -5.214273e-002 -3.344623e-002 7.519419e-002 1.043954e-001 2.303085e-002 -1.680045e-002 2.695928e-003 2.758589e-002 4.549558e-003 3.059070e-003 -6.057705e-002
<VARIANCE> 39
 1.838378e+001 2.498190e+001 5.154510e+001 3.968071e+001 6.410839e+001 8.197160e+001 7.022146e+001 5.500088e+001 3.363070e+001 3.057380e+001 3.158128e+001 3.635699e+001 5.415946e+001 9.503971e-001 1.307604e+000 1.576661e+000 2.041859e+000 3.112831e+000 3.846966e+000 2.585630e+000 2.483640e+000 2.855503e+000 2.217729e+000 2.112242e+000 1.947225e+000 2.247429e+000 1.739231e-001 2.357538e-001 2.338026e-001 3.562974e-001 4.901263e-001 6.228898e-001 4.859593e-001 4.565039e-001 5.484286e-001 4.111990e-001 4.349255e-001 3.874452e-001 2.969058e-001
<GCONST> 1.171721e+002
<TRANSP> 5
 0.000000e+000 1.000000e+000 0.000000e+000 0.000000e+000 0.000000e+000
 0.000000e+000 6.175596e-001 3.824405e-001 0.000000e+000 0.000000e+000
 0.000000e+000 0.000000e+000 6.175594e-001 3.824405e-001 0.000000e+000
 0.000000e+000 0.000000e+000 0.000000e+000 7.196174e-001 2.803827e-001
 0.000000e+000 0.000000e+000 0.000000e+000 0.000000e+000 0.000000e+000
<ENDHMM>
~h "f"
<BEGINHMM>
<NUMSTATES> 5
<STATE> 2
<MEAN> 39
 -5.404736e+000 2.474264e+000 3.122554e-001 -4.394701e+000 -9.639411e+000 -8.753761e+000 -1.066005e+000 -4.766325e+000 -3.743578e+000 -1.938833e+000 -1.992863e+000 -4.559347e-003 6.495885e+001 2.450988e-002 1.302901e-002 1.918019e-002 3.316283e-003 -4.371658e-002 -7.306439e-002 -1.842394e-002 -2.444299e-002 -3.052467e-002 -2.393421e-002 -9.349622e-003 -1.425933e-002 -9.787142e-003 -5.396765e-003 4.690089e-003 -6.835332e-003 5.209368e-003 1.451201e-002 1.721763e-002 5.296492e-003 6.553777e-003 6.220506e-003 9.362569e-003 4.125166e-003 3.225525e-003 -2.743884e-002
<VARIANCE> 39
 3.864226e+001 5.281501e+001 7.391051e+001 8.135933e+001 7.677331e+001 9.463634e+001 5.724667e+001 6.897221e+001 6.326392e+001 4.839135e+001 3.680719e+001 3.395739e+001 8.727069e+001 1.372905e+000 1.793903e+000 1.710096e+000 2.409231e+000 2.706431e+000 2.777050e+000 2.585872e+000 2.606039e+000 2.707144e+000 2.455808e+000 2.104158e+000 1.735463e+000 2.419883e+000 1.985618e-001 2.764823e-001 2.480070e-001 3.283480e-001 3.897789e-001 4.118499e-001 4.453265e-001 4.204600e-001 4.511843e-001 4.197432e-001 3.712303e-001 3.108075e-001 2.378747e-001
<GCONST> 1.209395e+002
<STATE> 3
<MEAN> 39
 -5.404736e+000 2.474264e+000 3.122554e-001 -4.394701e+000 -9.639411e+000 -8.753761e+000 -1.066005e+000 -4.766325e+000 -3.743578e+000 -1.938833e+000 -1.992863e+000 -4.559347e-003 6.495885e+001 2.450988e-002 1.302901e-002 1.918019e-002 3.316283e-003 -4.371658e-002 -7.306439e-002 -1.842394e-002 -2.444299e-002 -3.052467e-002 -2.393421e-002 -9.349622e-003 -1.425933e-002 -9.787142e-003 -5.396765e-003 4.690089e-003 -6.835332e-003 5.209368e-003 1.451201e-002 1.721763e-002 5.296492e-003 6.553777e-003 6.220506e-003 9.362569e-003 4.125166e-003 3.225525e-003 -2.743884e-002
<VARIANCE> 39
 3.864226e+001 5.281501e+001 7.391051e+001 8.135933e+001 7.677331e+001 9.463634e+001 5.724667e+001 6.897221e+001 6.326392e+001 4.839135e+001 3.680719e+001 3.395739e+001 8.727069e+001 1.372905e+000 1.793903e+000 1.710096e+000 2.409231e+000 2.706431e+000 2.777050e+000 2.585872e+000 2.606039e+000 2.707144e+000 2.455808e+000 2.104158e+000 1.735463e+000 2.419883e+000 1.985618e-001 2.764823e-001 2.480070e-001 3.283480e-001 3.897789e-001 4.118499e-001 4.453265e-001 4.204600e-001 4.511843e-001 4.197432e-001 3.712303e-001 3.108075e-001 2.378747e-001
<GCONST> 1.209395e+002
<STATE> 4
<MEAN> 39
 -5.404736e+000 2.474264e+000 3.122554e-001 -4.394701e+000 -9.639411e+000 -8.753761e+000 -1.066005e+000 -4.766325e+000 -3.743578e+000 -1.938833e+000 -1.992863e+000 -4.559347e-003 6.495885e+001 2.450988e-002 1.302901e-002 1.918019e-002 3.316283e-003 -4.371658e-002 -7.306439e-002 -1.842394e-002 -2.444299e-002 -3.052467e-002 -2.393421e-002 -9.349622e-003 -1.425933e-002 -9.787142e-003 -5.396765e-003 4.690089e-003 -6.835332e-003 5.209368e-003 1.451201e-002 1.721763e-002 5.296492e-003 6.553777e-003 6.220506e-003 9.362569e-003 4.125166e-003 3.225525e-003 -2.743884e-002
<VARIANCE> 39
 3.864226e+001 5.281501e+001 7.391051e+001 8.135933e+001 7.677331e+001 9.463634e+001 5.724667e+001 6.897221e+001 6.326392e+001 4.839135e+001 3.680719e+001 3.395739e+001 8.727069e+001 1.372905e+000 1.793903e+000 1.710096e+000 2.409231e+000 2.706431e+000 2.777050e+000 2.585872e+000 2.606039e+000 2.707144e+000 2.455808e+000 2.104158e+000 1.735463e+000 2.419883e+000 1.985618e-001 2.764823e-001 2.480070e-001 3.283480e-001 3.897789e-001 4.118499e-001 4.453265e-001 4.204600e-001 4.511843e-001 4.197432e-001 3.712303e-001 3.108075e-001 2.378747e-001
<GCONST> 1.209395e+002
<TRANSP> 5
 0.000000e+000 1.000000e+000 0.000000e+000 0.000000e+000 0.000000e+000
 0.000000e+000 6.000000e-001 4.000000e-001 0.000000e+000 0.000000e+000
 0.000000e+000 0.000000e+000 6.000000e-001 4.000000e-001 0.000000e+000
 0.000000e+000 0.000000e+000 0.000000e+000 7.000000e-001 3.000000e-001
 0.000000e+000 0.000000e+000 0.000000e+000 0.000000e+000 0.000000e+000
<ENDHMM>
~h "h"
<BEGINHMM>
<NUMSTATES> 5
<STATE> 2
<MEAN> 39
 -5.703814e+000 1.902979e+000 1.150710e+000 -6.468620e+000 -1.164148e+001 -1.040300e+001 7.564791e-003 -4.975672e+000 -2.608036e+000 -1.691997e+000 -2.367476e+000 7.079669e-001 6.914976e+001 3.746872e-001 1.805194e-001 2.744365e-001 7.190033e-002 -4.526096e-001 -5.137855e-001 -3.735919e-001 -4.868960e-001 -3.900655e-001 -2.138179e-001 -3.227617e-002 8.272844e-002 5.608450e-001 -2.332215e-002 -3.749936e-002 -3.495689e-003 5.989006e-002 3.929976e-002 6.284196e-003 -3.461082e-002 -1.120384e-002 2.006019e-003 -3.925829e-003 2.655318e-002 1.397443e-002 -6.467856e-002
<VARIANCE> 39
 4.009077e+001 6.247440e+001 7.674012e+001 9.173022e+001 8.148421e+001 1.110697e+002 6.173519e+001 7.742096e+001 6.671404e+001 4.094379e+001 3.905259e+001 3.126151e+001 4.931404e+001 1.610526e+000 2.425513e+000 1.846987e+000 2.620370e+000 3.604350e+000 3.439091e+000 3.187300e+000 3.112517e+000 2.606322e+000 2.198865e+000 2.553931e+000 2.074626e+000 1.024974e+000 2.408963e-001 3.780020e-001 3.034206e-001 3.638843e-001 5.284330e-001 5.690155e-001 5.621233e-001 5.109164e-001 4.408379e-001 4.173477e-001 4.639938e-001 4.076321e-001 9.795549e-002
<GCONST> 1.233221e+002
<STATE> 3
<MEAN> 39
 -4.668217e+000 2.251602e+000 2.064608e+000 -5.879680e+000 -1.289693e+001 -1.203860e+001 -1.351410e+000 -6.596535e+000 -3.842160e+000 -2.439762e+000 -2.332055e+000 1.026427e+000 7.053403e+001 2.448180e-001 5.716868e-002 2.707429e-001 2.473511e-001 -2.932003e-001 -4.677483e-001 -4.065488e-001 -4.396380e-001 -3.249300e-001 -2.130091e-001 4.257113e-002 9.302936e-002 3.183120e-001 -4.451225e-002 -2.929394e-002 3.936571e-003 5.044559e-002 5.236514e-002 1.568427e-002 1.101607e-003 2.805104e-002 2.620209e-002 3.890096e-004 1.715242e-002 -2.980221e-003 -7.605093e-002
<VARIANCE> 39
 3.623639e+001 5.898587e+001 8.608900e+001 9.262009e+001 7.778064e+001 1.110967e+002 6.350477e+001 7.524419e+001 6.971778e+001 4.423098e+001 4.155086e+001 3.248066e+001 4.034260e+001 1.387453e+000 2.104135e+000 1.769295e+000 2.632143e+000 3.483146e+000 3.335602e+000 3.309058e+000 3.073850e+000 2.654417e+000 2.294934e+000 2.742014e+000 2.191566e+000 9.607173e-001 1.960591e-001 3.130224e-001 2.919075e-001 3.526902e-001 5.026881e-001 5.626962e-001 5.899388e-001 5.111232e-001 4.525240e-001 4.399102e-001 5.007619e-001 4.325744e-001 8.938728e-002
<GCONST> 1.226611e+002
<STATE> 4
<MEAN> 39
 -4.188264e+000 2.413203e+000 3.748349e+000 -4.317853e+000 -1.383627e+001 -1.389144e+001 -2.867769e+000 -7.931120e+000 -4.944354e+000 -3.429637e+000 -2.180673e+000 1.233079e+000 7.092245e+001 6.125995e-002 5.030717e-002 2.873179e-001 3.656014e-001 -6.731089e-002 -3.256589e-001 -2.906497e-001 -2.337436e-001 -1.738989e-001 -1.883439e-001 5.421774e-002 3.482981e-002 -2.679777e-002 -3.896923e-002 4.589521e-003 1.306742e-003 1.775289e-002 4.992044e-002 3.470368e-002 3.175823e-002 4.997716e-002 3.105610e-002 5.780816e-003 -2.909631e-003 -1.528299e-002 -7.408345e-002
<VARIANCE> 39
 2.979817e+001 5.422035e+001 9.384647e+001 8.795181e+001 7.167801e+001 1.085591e+002 6.081652e+001 6.589697e+001 7.088328e+001 4.593919e+001 4.233203e+001 3.244263e+001 3.292005e+001 1.006993e+000 1.614523e+000 1.577343e+000 2.451491e+000 3.097714e+000 3.254852e+000 3.096473e+000 2.845989e+000 2.579077e+000 2.374370e+000 2.725928e+000 2.131388e+000 8.194017e-001 1.369323e-001 2.279704e-001 2.528082e-001 3.225991e-001 4.550107e-001 5.166220e-001 5.470610e-001 4.714304e-001 4.469878e-001 4.505271e-001 4.986017e-001 4.230449e-001 7.247018e-002
<GCONST> 1.192843e+002
<TRANSP> 5
 0.000000e+000 1.000000e+000 0.000000e+000 0.000000e+000 0.000000e+000
 0.000000e+000 7.122465e-001 2.877536e-001 0.000000e+000 0.000000e+000
 0.000000e+000 0.000000e+000 7.122462e-001 2.877538e-001 0.000000e+000
 0.000000e+000 0.000000e+000 0.000000e+000 8.255336e-001 1.744664e-001
 0.000000e+000 0.000000e+000 0.000000e+000 0.000000e+000 0.000000e+000
<ENDHMM>
~h "i"
<BEGINHMM>
<NUMSTATES> 5
<STATE> 2
<MEAN> 39
 -1.616307e+001 2.060463e+000 6.193081e+000 1.090880e+000 -6.013216e+000 -7.687900e+000 -4.874149e-001 -4.198245e+000 -1.323411e+000 -2.924706e+000 4.521194e-002 1.174990e+000 6.419335e+001 4.420601e-001 1.900235e-001 4.897667e-001 9.189824e-001 1.041004e-001 -3.622881e-001 9.615076e-002 -2.209817e-001 -4.911206e-001 -3.398070e-001 -2.229624e-001 1.926328e-002 9.114707e-003 2.024321e-001 2.650718e-002 -1.742826e-001 -5.137365e-002 8.186749e-002 3.561310e-002 -4.472635e-002 1.512327e-002 2.182284e-002 5.244470e-002 1.739356e-002 -1.043024e-002 -1.143820e-001
<VARIANCE> 39
 7.399199e+001 2.862950e+001 7.227171e+001 1.005050e+002 2.219046e+001 6.186734e+001 2.586068e+001 2.396178e+001 3.558914e+001 3.152914e+001 2.660160e+001 1.843595e+001 3.174759e+001 6.169419e+000 1.951418e+000 4.849604e+000 5.147131e+000 2.796931e+000 5.030211e+000 2.379568e+000 2.481716e+000 3.703717e+000 2.732821e+000 2.423966e+000 1.602564e+000 2.050918e+000 8.433513e-001 3.819183e-001 5.630451e-001 7.451611e-001 5.435015e-001 7.418675e-001 4.570090e-001 4.881477e-001 7.345418e-001 4.650471e-001 4.656631e-001 3.374464e-001 3.070299e-001
<GCONST> 1.245559e+002
<STATE> 3
<MEAN> 39
 -1.446252e+001 2.612793e+000 6.725209e+000 3.105641e+000 -5.562419e+000 -8.449896e+000 -3.714104e-001 -4.726127e+000 -2.417670e+000 -3.499515e+000 -3.616009e-001 1.217733e+000 6.383945e+001 7.953194e-001 2.487400e-001 2.732775e-002 6.634215e-001 3.255421e-001 -1.880170e-001 -8.494122e-003 -1.504392e-001 -3.603179e-001 -2.169597e-001 -1.637095e-001 1.665720e-002 -2.737187e-001 8.540896e-002 1.348361e-002 -1.709560e-001 -1.237913e-001 8.967230e-002 7.307756e-002 -4.151198e-002 4.392721e-002 6.819470e-002 4.291730e-002 1.720034e-002 7.082232e-003 -1.024749e-001
<VARIANCE> 39
 6.529540e+001 2.968395e+001 6.803873e+001 9.300488e+001 2.498935e+001 6.293263e+001 2.285980e+001 2.767902e+001 3.244822e+001 3.257856e+001 2.830543e+001 1.796149e+001 3.045853e+001 4.194403e+000 1.746740e+000 4.343451e+000 5.112518e+000 2.647544e+000 5.098958e+000 2.155527e+000 2.791043e+000 3.248719e+000 2.879920e+000 2.583413e+000 1.640854e+000 1.339813e+000 6.488361e-001 3.375419e-001 4.791504e-001 6.529998e-001 5.006511e-001 7.114952e-001 4.132716e-001 5.421970e-001 6.308835e-001 4.899872e-001 4.931912e-001 3.510582e-001 1.925666e-001
<GCONST> 1.220993e+002
<STATE> 4
<MEAN> 39
 -1.187609e+001 3.405358e+000 5.985076e+000 4.426306e+000 -4.513249e+000 -8.529019e+000 -4.040855e-001 -5.093587e+000 -3.129464e+000 -3.781030e+000 -6.108608e-001 1.337287e+000 6.267416e+001 8.206055e-001 2.600587e-001 -3.914827e-001 2.112520e-001 5.213579e-001 1.056771e-001 -7.963814e-002 -1.359806e-002 -1.398945e-001 -1.082099e-001 -1.096395e-001 3.862073e-002 -5.030588e-001 -3.767539e-002 -1.272112e-002 -1.093301e-001 -1.431218e-001 5.031969e-002 9.182651e-002 -2.236056e-002 5.194503e-002 7.127831e-002 3.908906e-002 6.284395e-003 -1.240683e-003 -6.610385e-002
<VARIANCE> 39
 4.952112e+001 3.004103e+001 6.383581e+001 7.882203e+001 2.832399e+001 6.000456e+001 2.172943e+001 3.369409e+001 3.000861e+001 3.534333e+001 2.923093e+001 1.834816e+001 3.143065e+001 2.482187e+000 1.619899e+000 3.173409e+000 4.363030e+000 2.236073e+000 4.789613e+000 1.911679e+000 3.161615e+000 2.664020e+000 3.034900e+000 2.631588e+000 1.633447e+000 7.837682e-001 4.031191e-001 2.892603e-001 3.756748e-001 5.124050e-001 4.154477e-001 6.517571e-001 3.543335e-001 6.059582e-001 5.048531e-001 5.282952e-001 5.047991e-001 3.496622e-001 1.159525e-001
<GCONST> 1.178812e+002
<TRANSP> 5
 0.000000e+000 1.000000e+000 0.000000e+000 0.000000e+000 0.000000e+000
 0.000000e+000 5.949863e-001 4.050137e-001 0.000000e+000 0.000000e+000
 0.000000e+000 0.000000e+000 5.949863e-001 4.050138e-001 0.000000e+000
 0.000000e+000 0.000000e+000 0.000000e+000 6.920668e-001 3.079332e-001
 0.000000e+000 0.000000e+000 0.000000e+000 0.000000e+000 0.000000e+000
<ENDHMM>
~h "k"
<BEGINHMM>
<NUMSTATES> 5
<STATE> 2
<MEAN> 39
 -9.736778e+000 6.244136e-001 8.123968e+000 -1.511118e-001 -1.333769e+001 -1.616422e+001 -3.656954e+000 -6.119558e+000 -5.669842e+000 -4.838768e+000 -1.992184e+000 1.581702e+000 7.226237e+001 4.796607e-001 3.340141e-001 6.732411e-001 2.110289e-001 -5.914525e-001 -5.662313e-001 -1.774893e-001 -3.858121e-001 -3.778562e-001 -3.237311e-001 -9.620479e-002 2.723251e-002 2.423379e-001 -3.202047e-002 -1.878701e-002 -5.075193e-002 -8.319488e-003 4.571382e-002 8.203696e-002 2.813259e-002 1.909815e-002 2.185602e-002 3.374076e-002 3.003727e-002 4.138886e-003 -9.587825e-002
<VARIANCE> 39
 3.744597e+001 5.392453e+001 6.087643e+001 2.095131e+001 8.189974e+001 9.828024e+001 4.149576e+001 6.731129e+001 5.903337e+001 3.671363e+001 2.850417e+001 2.964923e+001 5.519437e+001 1.986559e+000 1.968862e+000 1.995626e+000 1.621482e+000 2.436860e+000 2.568794e+000 1.887692e+000 2.233978e+000 2.316543e+000 2.056120e+000 1.693573e+000 1.215781e+000 2.030795e+000 3.392253e-001 3.763237e-001 3.513767e-001 3.109422e-001 4.241996e-001 4.094771e-001 3.365793e-001 3.795596e-001 4.008201e-001 3.561493e-001 3.056465e-001 2.278080e-001 3.379930e-001
<GCONST> 1.168251e+002
<STATE> 3
<MEAN> 39
 -8.473624e+000 1.569311e+000 9.990472e+000 4.030479e-001 -1.509158e+001 -1.758614e+001 -4.090100e+000 -7.300848e+000 -6.813374e+000 -5.660558e+000 -2.121215e+000 1.658494e+000 7.257650e+001 2.866147e-001 2.643859e-001 4.623208e-001 1.532260e-001 -3.910119e-001 -2.973803e-001 -7.090455e-002 -2.913959e-001 -2.806128e-001 -1.725677e-001 -1.138365e-002 -2.706556e-004 -8.172325e-003 -5.594173e-002 -1.596180e-002 -5.712657e-002 -1.502590e-002 6.260592e-002 7.182921e-002 2.994683e-002 2.977517e-002 2.918838e-002 4.080208e-002 1.875671e-002 -1.020555e-002 -6.406761e-002
<VARIANCE> 39
 2.807209e+001 5.708762e+001 5.503859e+001 1.920332e+001 8.285817e+001 8.643506e+001 4.131471e+001 6.580838e+001 5.811564e+001 3.509400e+001 3.071545e+001 3.325922e+001 4.059642e+001 1.347153e+000 1.275077e+000 1.482413e+000 1.131073e+000 2.026017e+000 2.087715e+000 1.667980e+000 1.940827e+000 2.002031e+000 1.754102e+000 1.520898e+000 1.151519e+000 1.176749e+000 2.190373e-001 2.378143e-001 2.421944e-001 2.076919e-001 3.186649e-001 3.338612e-001 2.918736e-001 3.198821e-001 3.409495e-001 3.067367e-001 2.791953e-001 2.103813e-001 1.733813e-001
<GCONST> 1.093103e+002
<STATE> 4
<MEAN> 39
 -7.763984e+000 2.536788e+000 1.141056e+001 8.651821e-001 -1.632029e+001 -1.829902e+001 -4.173728e+000 -8.037700e+000 -7.752308e+000 -6.012506e+000 -2.188380e+000 1.580183e+000 7.181781e+001 7.347712e-002 2.202809e-001 2.338701e-001 1.130873e-001 -6.004359e-002 -5.854512e-002 3.655526e-002 -1.126952e-001 -1.442373e-001 -3.856445e-002 -5.166645e-003 -4.379579e-002 -2.340769e-001 -3.640055e-002 -5.489254e-003 -4.347274e-002 -7.184354e-003 6.731945e-002 4.716561e-002 2.179736e-002 3.444215e-002 2.720091e-002 1.977779e-002 -1.975791e-003 -8.666224e-003 -4.502038e-002
<VARIANCE> 39
 2.082227e+001 6.148422e+001 4.969838e+001 1.836862e+001 8.487241e+001 7.446088e+001 4.042121e+001 5.638876e+001 5.531669e+001 3.295748e+001 3.280158e+001 3.615491e+001 3.222547e+001 7.161853e-001 7.663466e-001 1.049058e+000 8.412673e-001 1.714888e+000 1.657332e+000 1.459480e+000 1.695653e+000 1.660894e+000 1.422523e+000 1.334915e+000 1.123875e+000 7.034885e-001 1.189287e-001 1.386726e-001 1.601822e-001 1.497199e-001 2.430313e-001 2.725708e-001 2.590197e-001 2.714294e-001 2.815079e-001 2.614654e-001 2.526791e-001 2.034173e-001 8.208053e-002
<GCONST> 1.010487e+002
<TRANSP> 5
 0.000000e+000 1.000000e+000 0.000000e+000 0.000000e+000 0.000000e+000
 0.000000e+000 7.258048e-001 2.741952e-001 0.000000e+000 0.000000e+000
 0.000000e+000 0.000000e+000 7.258049e-001 2.741950e-001 0.000000e+000
 0.000000e+000 0.000000e+000 0.000000e+000 8.404183e-001 1.595816e-001
 0.000000e+000 0.000000e+000 0.000000e+000 0.000000e+000 0.000000e+000
<ENDHMM>
~h "m"
<BEGINHMM>
<NUMSTATES> 5
<STATE> 2
<MEAN> 39
 -4.440114e-001 3.760673e+000 -4.042687e+000 -7.650520e+000 -8.771658e+000 -2.119287e+000 4.460104e+000 -2.838442e+000 -7.426228e+000 -4.517352e+000 -3.205029e+000 -2.352582e+000 6.896883e+001 3.849362e-001 -4.696804e-001 -6.289212e-001 -1.045898e+000 -6.810718e-001 -9.923009e-003 2.291685e-001 -6.999490e-002 1.816186e-001 4.532526e-001 6.334903e-002 -7.627860e-002 8.637286e-001 -7.719733e-002 -3.791673e-002 -7.700172e-003 -5.545024e-003 4.257702e-002 1.007104e-002 -3.340911e-002 -2.788658e-003 5.055788e-002 7.005548e-002 3.803870e-002 3.880296e-002 -1.065183e-001
<VARIANCE> 39
 1.982774e+001 6.191774e+001 7.302663e+001 1.031137e+002 6.613747e+001 5.451707e+001 4.725689e+001 8.157143e+001 5.078322e+001 7.574982e+001 4.379586e+001 2.993550e+001 6.173794e+001 1.032573e+000 2.391016e+000 2.764741e+000 4.346008e+000 3.131878e+000 2.276359e+000 2.615869e+000 3.083193e+000 3.550523e+000 4.772028e+000 2.577627e+000 1.485561e+000 1.687850e+000 1.315489e-001 3.308570e-001 4.613196e-001 6.830744e-001 5.361502e-001 3.893333e-001 4.798245e-001 5.047580e-001 6.423240e-001 8.259888e-001 4.759417e-001 2.534409e-001 1.541532e-001
<GCONST> 1.239657e+002
<STATE> 3
<MEAN> 39
 2.773423e-001 2.248396e+000 -5.859748e+000 -1.073801e+001 -1.051630e+001 -2.078588e+000 4.913291e+000 -2.996948e+000 -6.645979e+000 -2.825446e+000 -2.808960e+000 -2.396485e+000 7.082404e+001 1.736819e-001 -3.963189e-001 -4.670291e-001 -8.290191e-001 -4.568761e-001 -9.777523e-003 4.958191e-002 -1.114215e-001 2.181618e-001 4.877253e-001 1.391442e-001 2.491968e-002 4.331935e-001 -6.650642e-002 3.627507e-002 6.420171e-002 9.031250e-002 8.273320e-002 -8.330366e-004 -6.094869e-002 -1.150022e-002 7.890029e-003 -6.877810e-003 1.790115e-002 2.856053e-002 -1.432222e-001
<VARIANCE> 39
 1.596617e+001 6.156218e+001 6.537064e+001 8.611004e+001 6.122279e+001 5.345345e+001 4.487010e+001 8.465871e+001 5.122065e+001 6.925326e+001 4.802192e+001 3.295813e+001 4.845529e+001 8.965915e-001 2.212855e+000 2.285246e+000 4.221850e+000 2.999074e+000 2.409497e+000 2.613865e+000 2.890319e+000 3.133589e+000 4.114355e+000 2.485526e+000 1.506415e+000 1.953799e+000 1.196715e-001 3.032493e-001 3.735058e-001 5.983717e-001 4.914117e-001 4.095837e-001 4.628456e-001 4.751840e-001 5.549108e-001 7.032771e-001 4.584357e-001 2.547570e-001 1.634351e-001
<GCONST> 1.216273e+002
<STATE> 4
<MEAN> 39
 4.304763e-001 1.113971e+000 -7.126989e+000 -1.329394e+001 -1.173245e+001 -2.016949e+000 4.555467e+000 -3.145558e+000 -5.517473e+000 -9.432418e-001 -2.090601e+000 -2.071184e+000 7.112498e+001 -1.445567e-002 -7.273951e-002 -1.186602e-001 -2.965710e-001 -1.421514e-001 -8.206570e-002 -1.913775e-001 -1.517741e-001 1.728435e-001 3.015913e-001 1.517550e-001 1.058038e-001 -1.538602e-001 -4.122726e-002 6.614369e-002 7.118338e-002 1.134544e-001 6.795032e-002 -1.515578e-002 -4.498828e-002 -3.307317e-003 -7.194565e-003 -4.499447e-002 -3.124881e-003 1.149960e-002 -1.174498e-001
<VARIANCE> 39
 1.529627e+001 5.718817e+001 5.143736e+001 6.297934e+001 5.595107e+001 5.303670e+001 4.322562e+001 8.423006e+001 5.913300e+001 5.891290e+001 5.172847e+001 3.667900e+001 4.488766e+001 8.223865e-001 1.936215e+000 1.664798e+000 3.460801e+000 2.374511e+000 2.466107e+000 2.456515e+000 2.494302e+000 2.745683e+000 3.110090e+000 2.223126e+000 1.477937e+000 2.022916e+000 1.266215e-001 2.596344e-001 2.701389e-001 4.467619e-001 3.933881e-001 4.167962e-001 4.402786e-001 4.189026e-001 4.687483e-001 5.200968e-001 4.034418e-001 2.538929e-001 1.975609e-001
<GCONST> 1.177335e+002
<TRANSP> 5
 0.000000e+000 1.000000e+000 0.000000e+000 0.000000e+000 0.000000e+000
 0.000000e+000 6.975147e-001 3.024854e-001 0.000000e+000 0.000000e+000
 0.000000e+000 0.000000e+000 6.975151e-001 3.024848e-001 0.000000e+000
 0.000000e+000 0.000000e+000 0.000000e+000 8.148227e-001 1.851774e-001
 0.000000e+000 0.000000e+000 0.000000e+000 0.000000e+000 0.000000e+000
<ENDHMM>
~h "n"
<BEGINHMM>
<NUMSTATES> 5
<STATE> 2
<MEAN> 39
 -2.203168e+000 3.989523e-001 -7.357367e-001 -1.309031e+000 -1.242780e+001 -9.276939e+000 -3.541013e+000 -5.102160e+000 -1.644860e+000 -2.517700e+000 -2.605438e+000 -2.604662e+000 6.981941e+001 -2.212481e-001 9.073021e-002 3.465112e-001 3.015094e-001 -2.612748e-001 -4.113823e-001 -1.774374e-001 -6.203106e-002 2.144260e-001 4.841797e-002 5.919978e-003 6.219959e-002 -1.773956e-001 -3.273489e-002 -2.088686e-002 4.710845e-002 -2.682319e-003 -4.453801e-002 -2.790600e-002 2.693889e-002 2.695980e-002 -2.057570e-003 -2.047473e-002 -1.418329e-002 2.783049e-002 1.612361e-002
<VARIANCE> 39
 1.857371e+001 4.883708e+001 1.114907e+002 6.743276e+001 1.112415e+002 8.375484e+001 5.518438e+001 6.323272e+001 6.761194e+001 6.635101e+001 4.343157e+001 4.790012e+001 4.039648e+001 5.195591e-001 1.599138e+000 1.722419e+000 1.951046e+000 2.622604e+000 2.319657e+000 2.844341e+000 2.861306e+000 4.342425e+000 2.816608e+000 2.288789e+000 2.414610e+000 1.246455e+000 6.227497e-002 2.069726e-001 2.328405e-001 2.739177e-001 3.752893e-001 3.956861e-001 5.026205e-001 4.922690e-001 8.114854e-001 4.785385e-001 3.982694e-001 4.003792e-001 1.508827e-001
<GCONST> 1.187396e+002
<STATE> 3
<MEAN> 39
 -2.998874e+000 5.170588e-001 4.808864e-001 -5.014673e-001 -1.345114e+001 -1.060447e+001 -3.930803e+000 -5.117905e+000 -1.042642e+000 -2.455225e+000 -2.613736e+000 -2.300439e+000 6.939608e+001 -3.001649e-001 3.961576e-002 4.752271e-001 2.748963e-001 -3.749124e-001 -4.553098e-001 -7.981160e-002 5.036739e-003 1.860623e-001 -3.561056e-002 -4.821408e-002 1.394530e-001 -1.516532e-001 -1.854797e-002 -1.217194e-002 3.311350e-002 -8.533445e-003 -2.547877e-002 -3.826693e-003 3.843870e-002 2.074494e-002 -2.200769e-002 -3.120936e-002 -1.725824e-002 2.265997e-002 -2.809644e-003
<VARIANCE> 39
 1.957084e+001 4.628326e+001 1.034646e+002 5.400008e+001 1.141855e+002 7.573346e+001 5.500779e+001 6.578581e+001 7.095605e+001 5.991039e+001 4.574893e+001 4.683157e+001 4.231592e+001 4.870119e-001 1.466316e+000 1.672364e+000 1.811229e+000 2.713390e+000 2.211832e+000 2.846846e+000 2.960791e+000 4.487878e+000 2.699351e+000 2.356163e+000 2.357726e+000 1.200218e+000 6.086935e-002 1.906808e-001 2.306559e-001 2.585233e-001 3.953017e-001 3.818554e-001 4.992350e-001 5.159944e-001 8.299778e-001 4.617245e-001 4.006853e-001 3.860435e-001 1.463504e-001
<GCONST> 1.179596e+002
<STATE> 4
<MEAN> 39
 -4.174188e+000 3.322867e-001 2.518252e+000 3.860867e-001 -1.541274e+001 -1.203886e+001 -3.947146e+000 -5.022104e+000 -4.010395e-001 -2.800624e+000 -2.793645e+000 -1.680617e+000 6.868070e+001 -3.250026e-001 3.124308e-002 5.394379e-001 2.220929e-001 -3.827758e-001 -3.970993e-001 5.896328e-002 4.289770e-002 5.568731e-002 -1.475345e-001 -1.085957e-001 1.802332e-001 -2.198497e-001 1.286645e-004 5.618722e-003 1.047287e-004 -6.942329e-003 2.047041e-002 2.408861e-002 3.822087e-002 6.396575e-003 -4.431735e-002 -2.448385e-002 -8.656606e-003 3.255988e-003 -3.532409e-002
<VARIANCE> 39
 1.875304e+001 4.325422e+001 9.331718e+001 4.131310e+001 1.131531e+002 7.044608e+001 5.728715e+001 7.250278e+001 7.157195e+001 5.249718e+001 4.842485e+001 4.451571e+001 4.518619e+001 4.235467e-001 1.286208e+000 1.485049e+000 1.559020e+000 2.732912e+000 2.081731e+000 2.655647e+000 2.873778e+000 4.292064e+000 2.428355e+000 2.341786e+000 2.138636e+000 1.058717e+000 5.494371e-002 1.662208e-001 2.075929e-001 2.319036e-001 3.838520e-001 3.532706e-001 4.692040e-001 5.038195e-001 7.692800e-001 4.195643e-001 3.915817e-001 3.456568e-001 1.248077e-001
<GCONST> 1.152999e+002
<TRANSP> 5
 0.000000e+000 1.000000e+000 0.000000e+000 0.000000e+000 0.000000e+000
 0.000000e+000 6.757091e-001 3.242909e-001 0.000000e+000 0.000000e+000
 0.000000e+000 0.000000e+000 6.757091e-001 3.242909e-001 0.000000e+000
 0.000000e+000 0.000000e+000 0.000000e+000 7.852984e-001 2.147016e-001
 0.000000e+000 0.000000e+000 0.000000e+000 0.000000e+000 0.000000e+000
<ENDHMM>
~h "o"
<BEGINHMM>
<NUMSTATES> 5
<STATE> 2
<MEAN> 39
 -5.404736e+000 2.474264e+000 3.122554e-001 -4.394701e+000 -9.639411e+000 -8.753761e+000 -1.066005e+000 -4.766325e+000 -3.743578e+000 -1.938833e+000 -1.992863e+000 -4.559347e-003 6.495885e+001 2.450988e-002 1.302901e-002 1.918019e-002 3.316283e-003 -4.371658e-002 -7.306439e-002 -1.842394e-002 -2.444299e-002 -3.052467e-002 -2.393421e-002 -9.349622e-003 -1.425933e-002 -9.787142e-003 -5.396765e-003 4.690089e-003 -6.835332e-003 5.209368e-003 1.451201e-002 1.721763e-002 5.296492e-003 6.553777e-003 6.220506e-003 9.362569e-003 4.125166e-003 3.225525e-003 -2.743884e-002
<VARIANCE> 39
 3.864226e+001 5.281501e+001 7.391051e+001 8.135933e+001 7.677331e+001 9.463634e+001 5.724667e+001 6.897221e+001 6.326392e+001 4.839135e+001 3.680719e+001 3.395739e+001 8.727069e+001 1.372905e+000 1.793903e+000 1.710096e+000 2.409231e+000 2.706431e+000 2.777050e+000 2.585872e+000 2.606039e+000 2.707144e+000 2.455808e+000 2.104158e+000 1.735463e+000 2.419883e+000 1.985618e-001 2.764823e-001 2.480070e-001 3.283480e-001 3.897789e-001 4.118499e-001 4.453265e-001 4.204600e-001 4.511843e-001 4.197432e-001 3.712303e-001 3.108075e-001 2.378747e-001
<GCONST> 1.209395e+002
<STATE> 3
<MEAN> 39
 -5.404736e+000 2.474264e+000 3.122554e-001 -4.394701e+000 -9.639411e+000 -8.753761e+000 -1.066005e+000 -4.766325e+000 -3.743578e+000 -1.938833e+000 -1.992863e+000 -4.559347e-003 6.495885e+001 2.450988e-002 1.302901e-002 1.918019e-002 3.316283e-003 -4.371658e-002 -7.306439e-002 -1.842394e-002 -2.444299e-002 -3.052467e-002 -2.393421e-002 -9.349622e-003 -1.425933e-002 -9.787142e-003 -5.396765e-003 4.690089e-003 -6.835332e-003 5.209368e-003 1.451201e-002 1.721763e-002 5.296492e-003 6.553777e-003 6.220506e-003 9.362569e-003 4.125166e-003 3.225525e-003 -2.743884e-002
<VARIANCE> 39
 3.864226e+001 5.281501e+001 7.391051e+001 8.135933e+001 7.677331e+001 9.463634e+001 5.724667e+001 6.897221e+001 6.326392e+001 4.839135e+001 3.680719e+001 3.395739e+001 8.727069e+001 1.372905e+000 1.793903e+000 1.710096e+000 2.409231e+000 2.706431e+000 2.777050e+000 2.585872e+000 2.606039e+000 2.707144e+000 2.455808e+000 2.104158e+000 1.735463e+000 2.419883e+000 1.985618e-001 2.764823e-001 2.480070e-001 3.283480e-001 3.897789e-001 4.118499e-001 4.453265e-001 4.204600e-001 4.511843e-001 4.197432e-001 3.712303e-001 3.108075e-001 2.378747e-001
<GCONST> 1.209395e+002
<STATE> 4
<MEAN> 39
 -5.404736e+000 2.474264e+000 3.122554e-001 -4.394701e+000 -9.639411e+000 -8.753761e+000 -1.066005e+000 -4.766325e+000 -3.743578e+000 -1.938833e+000 -1.992863e+000 -4.559347e-003 6.495885e+001 2.450988e-002 1.302901e-002 1.918019e-002 3.316283e-003 -4.371658e-002 -7.306439e-002 -1.842394e-002 -2.444299e-002 -3.052467e-002 -2.393421e-002 -9.349622e-003 -1.425933e-002 -9.787142e-003 -5.396765e-003 4.690089e-003 -6.835332e-003 5.209368e-003 1.451201e-002 1.721763e-002 5.296492e-003 6.553777e-003 6.220506e-003 9.362569e-003 4.125166e-003 3.225525e-003 -2.743884e-002
<VARIANCE> 39
 3.864226e+001 5.281501e+001 7.391051e+001 8.135933e+001 7.677331e+001 9.463634e+001 5.724667e+001 6.897221e+001 6.326392e+001 4.839135e+001 3.680719e+001 3.395739e+001 8.727069e+001 1.372905e+000 1.793903e+000 1.710096e+000 2.409231e+000 2.706431e+000 2.777050e+000 2.585872e+000 2.606039e+000 2.707144e+000 2.455808e+000 2.104158e+000 1.735463e+000 2.419883e+000 1.985618e-001 2.764823e-001 2.480070e-001 3.283480e-001 3.897789e-001 4.118499e-001 4.453265e-001 4.204600e-001 4.511843e-001 4.197432e-001 3.712303e-001 3.108075e-001 2.378747e-001
<GCONST> 1.209395e+002
<TRANSP> 5
 0.000000e+000 1.000000e+000 0.000000e+000 0.000000e+000 0.000000e+000
 0.000000e+000 6.000000e-001 4.000000e-001 0.000000e+000 0.000000e+000
 0.000000e+000 0.000000e+000 6.000000e-001 4.000000e-001 0.000000e+000
 0.000000e+000 0.000000e+000 0.000000e+000 7.000000e-001 3.000000e-001
 0.000000e+000 0.000000e+000 0.000000e+000 0.000000e+000 0.000000e+000
<ENDHMM>
~h "p"
<BEGINHMM>
<NUMSTATES> 5
<STATE> 2
<MEAN> 39
 -1.156815e+000 2.009965e+000 -5.285966e+000 -1.346861e+001 -1.277774e+001 -5.721914e+000 2.421609e+000 -2.355591e+000 -2.439419e+000 8.785893e-001 -1.860422e+000 -2.027881e+000 7.071397e+001 3.686716e-001 1.005787e-001 1.237738e-001 -2.565852e-001 -6.646219e-001 -3.626221e-001 -1.963002e-001 -2.864379e-001 -2.931986e-002 1.532332e-002 -7.828015e-002 -9.910364e-002 3.586045e-001 -8.708654e-002 1.636251e-002 5.201899e-002 1.372221e-001 7.749503e-002 -1.847972e-002 -7.550193e-002 -3.552959e-002 4.420387e-002 -2.094807e-002 -5.708660e-003 2.559461e-002 -1.392864e-001
<VARIANCE> 39
 2.774258e+001 6.813882e+001 4.924755e+001 4.934025e+001 7.244500e+001 8.946734e+001 6.363861e+001 8.558524e+001 6.563210e+001 3.654087e+001 3.197198e+001 3.012305e+001 5.554911e+001 1.485628e+000 2.209637e+000 1.401875e+000 2.701111e+000 2.959918e+000 2.738740e+000 3.263217e+000 2.859904e+000 2.410519e+000 2.289809e+000 1.838515e+000 1.747409e+000 1.806713e+000 2.224822e-001 3.547600e-001 2.231857e-001 3.331508e-001 4.377651e-001 4.237841e-001 5.416442e-001 4.471774e-001 3.946308e-001 3.875557e-001 3.387451e-001 3.095704e-001 2.215820e-001
<GCONST> 1.194995e+002
<STATE> 3
<MEAN> 39
 -4.751810e-001 2.501871e+000 -4.597385e+000 -1.346964e+001 -1.444374e+001 -7.114480e+000 1.420224e+000 -3.445675e+000 -2.306287e+000 7.829694e-001 -2.194866e+000 -2.221014e+000 7.110296e+001 1.310913e-001 2.067647e-001 2.655247e-001 1.289487e-001 -4.140197e-001 -4.353422e-001 -3.307803e-001 -3.456805e-001 5.518986e-002 -6.193021e-002 -1.107165e-001 -2.341415e-002 -2.684990e-002 -6.358692e-002 3.423554e-002 3.903095e-002 1.029007e-001 7.650602e-002 -1.167775e-002 -2.221216e-002 -3.489583e-003 1.349025e-002 -2.519932e-002 -5.518804e-003 2.130903e-002 -1.090742e-001
<VARIANCE> 39
 2.193307e+001 8.011214e+001 5.639557e+001 5.016145e+001 7.195232e+001 9.384731e+001 6.910471e+001 9.941226e+001 7.359425e+001 4.436275e+001 3.550984e+001 3.312735e+001 4.573478e+001 1.026294e+000 1.637724e+000 1.288936e+000 2.255090e+000 2.543444e+000 2.468859e+000 3.162622e+000 2.648824e+000 2.407859e+000 2.262539e+000 1.811812e+000 1.739558e+000 1.266325e+000 1.496320e-001 2.404664e-001 1.904509e-001 2.660220e-001 3.683989e-001 3.548843e-001 5.152298e-001 4.050938e-001 3.817266e-001 3.721418e-001 3.307133e-001 3.048360e-001 1.401428e-001
<GCONST> 1.162415e+002
<STATE> 4
<MEAN> 39
 -4.871576e-001 3.888426e+000 -3.058680e+000 -1.207746e+001 -1.556344e+001 -8.852362e+000 1.450925e-001 -4.489323e+000 -1.995625e+000 2.869985e-001 -2.666688e+000 -2.251082e+000 6.998141e+001 -5.241998e-002 3.511089e-001 3.745137e-001 3.887191e-001 -1.546036e-001 -3.931908e-001 -2.666776e-001 -2.549084e-001 8.197952e-003 -1.284515e-001 -1.012310e-001 5.477516e-002 -3.789400e-001 -3.659152e-002 1.980250e-002 1.378786e-002 4.260331e-002 6.155537e-002 2.444968e-002 1.979876e-002 3.172313e-002 -1.522822e-002 -1.337663e-002 8.318798e-003 1.232318e-002 -7.352441e-002
<VARIANCE> 39
 2.125312e+001 8.601855e+001 6.385619e+001 6.235138e+001 7.406184e+001 8.912732e+001 6.822477e+001 1.074825e+002 7.870279e+001 5.182738e+001 3.894076e+001 3.669763e+001 4.298440e+001 6.703566e-001 1.209977e+000 1.216500e+000 1.773466e+000 2.182449e+000 2.237019e+000 2.876469e+000 2.453568e+000 2.367921e+000 2.152020e+000 1.831574e+000 1.660415e+000 8.540471e-001 9.203412e-002 1.606694e-001 1.699201e-001 2.177167e-001 3.060368e-001 2.979814e-001 4.607730e-001 3.651190e-001 3.600088e-001 3.519374e-001 3.297312e-001 2.801388e-001 8.508442e-002
<GCONST> 1.125940e+002
<TRANSP> 5
 0.000000e+000 1.000000e+000 0.000000e+000 0.000000e+000 0.000000e+000
 0.000000e+000 7.042651e-001 2.957349e-001 0.000000e+000 0.000000e+000
 0.000000e+000 0.000000e+000 7.042653e-001 2.957347e-001 0.000000e+000
 0.000000e+000 0.000000e+000 0.000000e+000 8.170412e-001 1.829588e-001
 0.000000e+000 0.000000e+000 0.000000e+000 0.000000e+000 0.000000e+000
<ENDHMM>
~h "r"
<BEGINHMM>
<NUMSTATES> 5
<STATE> 2
<MEAN> 39
 -5.462022e+000 1.276310e+000 4.519253e+000 4.150498e+000 -9.615096e+000 -1.586060e+001 -7.933515e+000 -5.737035e+000 2.203353e+000 -1.722700e+000 -2.817191e+000 2.036167e+000 6.660844e+001 5.364552e-003 -7.455880e-002 1.976685e-001 3.236874e-001 -1.839247e-001 -6.716227e-002 4.023496e-001 1.222548e-001 4.718482e-002 -3.887492e-002 -6.530619e-002 1.789164e-001 -9.361033e-002 -3.851631e-002 7.881711e-003 -2.470919e-002 -4.900371e-002 2.544622e-002 6.008519e-002 5.991570e-002 5.502301e-002 -4.123095e-002 -2.900274e-002 1.655788e-002 3.428287e-003 -6.607465e-002
<VARIANCE> 39
 1.904676e+001 2.058981e+001 6.082456e+001 3.712114e+001 4.462349e+001 8.121455e+001 4.386434e+001 4.872913e+001 3.208763e+001 2.820342e+001 1.924758e+001 3.299891e+001 4.730122e+001 1.287403e+000 1.579200e+000 1.855440e+000 2.342690e+000 3.776563e+000 5.525057e+000 3.192803e+000 3.340001e+000 2.649031e+000 2.369094e+000 1.761343e+000 2.526606e+000 3.175884e+000 2.507075e-001 3.172612e-001 3.444186e-001 4.739282e-001 6.869888e-001 9.557737e-001 6.254669e-001 6.452044e-001 5.351850e-001 4.578474e-001 3.831646e-001 5.049145e-001 5.102462e-001
<GCONST> 1.210272e+002
<STATE> 3
<MEAN> 39
 -5.524811e+000 1.111470e+000 4.940806e+000 4.791566e+000 -9.987651e+000 -1.588207e+001 -6.831172e+000 -5.274553e+000 2.246760e+000 -1.894167e+000 -2.946206e+000 2.464898e+000 6.627343e+001 -9.123134e-002 -5.569173e-002 1.358809e-001 2.068343e-001 -1.287711e-001 2.902528e-002 4.953893e-001 2.855400e-001 -3.557291e-002 -9.785217e-002 -4.056116e-003 1.609710e-001 -2.238169e-001 -3.392479e-002 9.129000e-003 -2.622472e-002 -4.365329e-002 1.827621e-002 1.448580e-002 1.904364e-002 5.602631e-002 -3.379898e-002 -1.414376e-002 3.930405e-002 -1.589553e-002 -4.306630e-002
<VARIANCE> 39
 1.793247e+001 2.056868e+001 5.910934e+001 3.376011e+001 4.125163e+001 7.735337e+001 4.742281e+001 4.660935e+001 3.152805e+001 2.698812e+001 2.134737e+001 3.348585e+001 3.979178e+001 9.681382e-001 1.348240e+000 1.873421e+000 2.080684e+000 3.711969e+000 5.097471e+000 3.022555e+000 3.114143e+000 2.655333e+000 2.198038e+000 1.865599e+000 2.578576e+000 2.294631e+000 1.836969e-001 2.667913e-001 3.514713e-001 4.232473e-001 7.012296e-001 9.284805e-001 6.147767e-001 5.878801e-001 5.548443e-001 4.159072e-001 3.958772e-001 5.079845e-001 3.988386e-001
<GCONST> 1.185744e+002
<STATE> 4
<MEAN> 39
 -5.707228e+000 9.733031e-001 5.281168e+000 5.127094e+000 -1.023925e+001 -1.570280e+001 -5.656531e+000 -4.394020e+000 2.074709e+000 -2.205857e+000 -2.798260e+000 2.750766e+000 6.572142e+001 -1.694633e-001 -2.647054e-002 6.679563e-002 1.041557e-001 -6.163817e-002 2.860906e-002 4.762539e-001 4.216365e-001 -1.380794e-001 -1.023010e-001 1.139402e-001 7.657532e-002 -3.278992e-001 -2.528226e-002 8.194054e-003 -3.503655e-002 -4.092113e-002 3.382269e-002 -4.270978e-003 -9.798026e-003 2.379345e-002 -4.072389e-002 1.286483e-002 4.340460e-002 -3.339420e-002 -4.955526e-002
<VARIANCE> 39
 1.796125e+001 2.110716e+001 5.323952e+001 3.280009e+001 4.040262e+001 7.437189e+001 5.220734e+001 4.421360e+001 3.175131e+001 2.620405e+001 2.359450e+001 3.437326e+001 3.491311e+001 7.525793e-001 1.158970e+000 1.887654e+000 1.850557e+000 3.486974e+000 4.470511e+000 2.823976e+000 2.683507e+000 2.692666e+000 2.061361e+000 2.019927e+000 2.575147e+000 1.570610e+000 1.396262e-001 2.283238e-001 3.489517e-001 3.783142e-001 6.791264e-001 8.371453e-001 5.754134e-001 4.934428e-001 5.722509e-001 3.855052e-001 4.245667e-001 5.048484e-001 2.865081e-001
<GCONST> 1.159118e+002
<TRANSP> 5
 0.000000e+000 1.000000e+000 0.000000e+000 0.000000e+000 0.000000e+000
 0.000000e+000 6.018022e-001 3.981978e-001 0.000000e+000 0.000000e+000
 0.000000e+000 0.000000e+000 6.018023e-001 3.981977e-001 0.000000e+000
 0.000000e+000 0.000000e+000 0.000000e+000 6.994315e-001 3.005685e-001
 0.000000e+000 0.000000e+000 0.000000e+000 0.000000e+000 0.000000e+000
<ENDHMM>
~h "t"
<BEGINHMM>
<NUMSTATES> 5
<STATE> 2
<MEAN> 39
 -3.390357e+000 -2.181515e-003 -3.605030e+000 -8.752197e+000 -9.208424e+000 -6.500078e+000 -1.881741e+000 -6.104411e+000 -3.474118e+000 3.763299e-001 -1.676145e+000 -5.983790e-001 6.967704e+001 2.436916e-001 6.515058e-003 1.377128e-001 5.469989e-002 -3.209652e-001 -3.775434e-001 -1.736772e-001 -1.437924e-001 -1.370755e-001 -2.133142e-002 -6.814625e-002 7.407900e-003 1.695396e-001 -5.961605e-002 -8.110438e-003 3.175076e-002 7.833745e-002 2.692635e-002 -1.249219e-002 -2.459814e-002 1.716940e-002 4.217149e-002 -1.674922e-002 1.955572e-003 1.832693e-002 -7.007808e-002
<VARIANCE> 39
 4.091843e+001 4.989529e+001 6.129280e+001 8.144754e+001 5.934550e+001 7.562231e+001 5.874042e+001 7.864409e+001 6.092711e+001 5.127530e+001 3.989103e+001 3.739896e+001 7.929156e+001 3.092472e+000 2.371353e+000 1.961789e+000 3.344468e+000 3.139241e+000 3.624683e+000 3.601176e+000 3.313595e+000 3.795678e+000 2.703977e+000 2.497228e+000 2.218142e+000 3.776685e+000 4.994379e-001 4.240035e-001 3.243078e-001 4.620628e-001 5.187455e-001 6.097178e-001 6.568269e-001 5.852607e-001 6.436601e-001 5.066488e-001 4.606672e-001 4.248924e-001 5.635810e-001
<GCONST> 1.296607e+002
<STATE> 3
<MEAN> 39
 -2.946078e+000 1.912574e-003 -3.011436e+000 -8.234866e+000 -1.001040e+001 -7.764434e+000 -2.603070e+000 -6.498698e+000 -3.654424e+000 2.198314e-001 -1.904762e+000 -4.927504e-001 6.990676e+001 7.677724e-002 2.271708e-002 2.375111e-001 2.661802e-001 -2.128690e-001 -4.265551e-001 -2.387165e-001 -1.006735e-001 -3.041348e-002 -7.758361e-002 -8.122574e-002 3.988303e-002 1.121555e-002 -4.712271e-002 1.229900e-002 3.177747e-002 6.678138e-002 3.760621e-002 -7.888895e-003 -1.137412e-002 1.295497e-002 2.756977e-002 -2.328169e-002 -6.316590e-003 7.124739e-003 -5.334604e-002
<VARIANCE> 39
 3.773714e+001 5.258115e+001 6.417640e+001 8.683181e+001 6.016636e+001 8.522567e+001 6.111998e+001 8.241039e+001 6.498026e+001 5.542545e+001 4.113881e+001 3.814835e+001 7.165543e+001 2.488405e+000 2.068764e+000 1.896032e+000 3.240170e+000 2.855519e+000 3.645752e+000 3.440856e+000 3.158134e+000 3.600212e+000 2.750055e+000 2.434992e+000 2.128447e+000 3.169502e+000 4.097171e-001 3.547514e-001 2.992009e-001 4.344914e-001 4.789422e-001 5.969949e-001 6.218123e-001 5.579355e-001 6.170416e-001 5.133384e-001 4.540213e-001 4.052519e-001 4.462415e-001
<GCONST> 1.281273e+002
<STATE> 4
<MEAN> 39
 -2.746695e+000 2.553455e-001 -2.111262e+000 -7.086831e+000 -1.072318e+001 -9.322159e+000 -3.408339e+000 -6.733219e+000 -3.682602e+000 -2.152062e-001 -2.285000e+000 -3.443035e-001 6.952783e+001 -2.777415e-002 1.327219e-001 3.037083e-001 4.013271e-001 -9.967551e-002 -3.687673e-001 -1.883514e-001 -4.905640e-002 2.229501e-003 -1.586912e-001 -8.942172e-002 5.005069e-002 -1.991327e-001 -2.247011e-002 2.652317e-002 9.738843e-003 2.563413e-002 2.998046e-002 2.609320e-002 2.082445e-002 1.229863e-002 2.671607e-003 -1.950489e-002 6.310637e-004 8.708656e-004 -5.388577e-002
<VARIANCE> 39
 3.489468e+001 5.560783e+001 6.565121e+001 9.300523e+001 6.037341e+001 9.120925e+001 6.383780e+001 8.357336e+001 6.923753e+001 5.687090e+001 4.299131e+001 3.826364e+001 6.292138e+001 1.903207e+000 1.806171e+000 1.810625e+000 2.933927e+000 2.599831e+000 3.552880e+000 3.160002e+000 2.915134e+000 3.321276e+000 2.751156e+000 2.356751e+000 1.999672e+000 2.613470e+000 3.186992e-001 2.944721e-001 2.741367e-001 3.925200e-001 4.300182e-001 5.491835e-001 5.610409e-001 5.116227e-001 5.749105e-001 5.018177e-001 4.351246e-001 3.711273e-001 3.457320e-001
<GCONST> 1.256429e+002
<TRANSP> 5
 0.000000e+000 1.000000e+000 0.000000e+000 0.000000e+000 0.000000e+000
 0.000000e+000 6.833714e-001 3.166286e-001 0.000000e+000 0.000000e+000
 0.000000e+000 0.000000e+000 6.833723e-001 3.166277e-001 0.000000e+000
 0.000000e+000 0.000000e+000 0.000000e+000 7.956219e-001 2.043781e-001
 0.000000e+000 0.000000e+000 0.000000e+000 0.000000e+000 0.000000e+000
<ENDHMM>
~h "u"
<BEGINHMM>
<NUMSTATES> 5
<STATE> 2
<MEAN> 39
 -9.892844e+000 4.086592e+000 4.455849e+000 4.208481e+000 -2.802946e+000 -7.786495e+000 -7.223437e-001 -4.888855e+000 -3.225621e+000 -4.010387e+000 -8.537214e-001 1.441157e+000 6.104485e+001 5.927608e-001 1.824728e-001 -5.732506e-001 -1.344632e-001 6.115301e-001 3.496316e-001 -1.218378e-001 1.495557e-001 4.107673e-002 -1.370342e-002 -1.298850e-001 1.601215e-004 -6.415009e-001 -1.014722e-001 -4.367439e-002 -5.203640e-002 -1.006391e-001 -1.489295e-002 8.251884e-002 -2.617487e-003 2.268079e-002 3.823761e-002 6.261388e-002 1.573277e-002 -2.656286e-002 -3.490276e-002
<VARIANCE> 39
 3.172189e+001 2.848738e+001 5.447656e+001 6.585088e+001 3.285196e+001 5.350263e+001 2.196095e+001 4.062569e+001 2.958039e+001 3.555728e+001 2.714673e+001 1.901761e+001 3.211620e+001 1.439583e+000 1.521282e+000 2.053573e+000 2.860113e+000 1.819036e+000 4.061660e+000 1.659528e+000 3.354646e+000 2.140152e+000 3.009385e+000 2.278907e+000 1.553427e+000 4.864609e-001 1.982646e-001 2.408971e-001 2.669665e-001 3.599354e-001 3.309837e-001 5.873637e-001 2.828242e-001 6.339616e-001 3.912787e-001 5.322304e-001 4.509319e-001 3.284896e-001 7.242388e-002
<GCONST> 1.114414e+002
<STATE> 3
<MEAN> 39
 -8.775409e+000 4.423716e+000 2.947163e+000 3.555616e+000 -1.390333e+000 -6.644598e+000 -9.606600e-001 -4.397820e+000 -2.968223e+000 -3.905090e+000 -1.115276e+000 1.363141e+000 5.941444e+001 3.171182e-001 5.282829e-002 -6.265002e-001 -3.033683e-001 5.311243e-001 5.181627e-001 -1.110390e-001 1.923494e-001 1.041136e-001 1.417908e-001 -8.405650e-002 -8.103315e-002 -6.928986e-001 -1.050697e-001 -5.462738e-002 -1.968977e-002 -5.800315e-002 -6.224841e-002 6.271154e-002 1.024336e-002 -1.506088e-002 -9.087514e-004 6.592549e-002 4.118231e-002 -2.042999e-002 -6.589436e-003
<VARIANCE> 39
 2.071915e+001 2.654263e+001 4.168736e+001 5.602484e+001 3.562595e+001 4.590416e+001 2.412824e+001 4.356150e+001 3.170002e+001 3.250928e+001 2.410724e+001 1.987451e+001 3.167553e+001 9.236308e-001 1.342498e+000 1.439537e+000 1.795727e+000 1.530174e+000 3.194898e+000 1.490748e+000 3.307398e+000 1.987163e+000 2.812035e+000 1.957911e+000 1.421528e+000 3.671870e-001 1.032117e-001 2.019310e-001 1.874698e-001 2.523713e-001 2.746486e-001 5.100520e-001 2.420705e-001 5.963295e-001 3.548368e-001 5.129828e-001 3.944768e-001 3.005133e-001 5.168325e-002
<GCONST> 1.051336e+002
<STATE> 4
<MEAN> 39
 -8.215272e+000 4.464310e+000 1.277971e+000 2.641284e+000 -3.182657e-001 -4.981076e+000 -1.032177e+000 -3.785016e+000 -2.541243e+000 -3.313988e+000 -1.153660e+000 1.101725e+000 5.754612e+001 4.769082e-002 -7.875951e-002 -5.862135e-001 -3.758514e-001 3.470984e-001 5.871498e-001 -8.257906e-002 1.814418e-001 1.024041e-001 2.806355e-001 1.175152e-002 -1.116006e-001 -6.670379e-001 -7.277045e-002 -3.262969e-002 1.891951e-002 -2.251822e-002 -8.570168e-002 7.365534e-003 1.811183e-002 -1.152156e-002 -1.742163e-002 2.033668e-002 3.411343e-002 8.305182e-003 2.786037e-002
<VARIANCE> 39
 1.488482e+001 2.506669e+001 2.688676e+001 4.611273e+001 3.631148e+001 3.558640e+001 2.650783e+001 4.275566e+001 3.521275e+001 2.762666e+001 2.029434e+001 2.093836e+001 3.017869e+001 5.437228e-001 1.058551e+000 1.133418e+000 1.192715e+000 1.355180e+000 2.276100e+000 1.310422e+000 2.943933e+000 2.007867e+000 2.385540e+000 1.689288e+000 1.282675e+000 2.859425e-001 5.668641e-002 1.616685e-001 1.315667e-001 1.788739e-001 2.461999e-001 3.909927e-001 2.187478e-001 5.117598e-001 3.651314e-001 4.690503e-001 3.237001e-001 2.742620e-001 3.523470e-002
<GCONST> 9.806741e+001
<TRANSP> 5
 0.000000e+000 1.000000e+000 0.000000e+000 0.000000e+000 0.000000e+000
 0.000000e+000 5.949709e-001 4.050291e-001 0.000000e+000 0.000000e+000
 0.000000e+000 0.000000e+000 5.949711e-001 4.050289e-001 0.000000e+000
 0.000000e+000 0.000000e+000 0.000000e+000 6.920406e-001 3.079594e-001
 0.000000e+000 0.000000e+000 0.000000e+000 0.000000e+000 0.000000e+000
<ENDHMM>
~h "w"
<BEGINHMM>
<NUMSTATES> 5
<STATE> 2
<MEAN> 39
 -5.404736e+000 2.474264e+000 3.122554e-001 -4.394701e+000 -9.639411e+000 -8.753761e+000 -1.066005e+000 -4.766325e+000 -3.743578e+000 -1.938833e+000 -1.992863e+000 -4.559347e-003 6.495885e+001 2.450988e-002 1.302901e-002 1.918019e-002 3.316283e-003 -4.371658e-002 -7.306439e-002 -1.842394e-002 -2.444299e-002 -3.052467e-002 -2.393421e-002 -9.349622e-003 -1.425933e-002 -9.787142e-003 -5.396765e-003 4.690089e-003 -6.835332e-003 5.209368e-003 1.451201e-002 1.721763e-002 5.296492e-003 6.553777e-003 6.220506e-003 9.362569e-003 4.125166e-003 3.225525e-003 -2.743884e-002
<VARIANCE> 39
 3.864226e+001 5.281501e+001 7.391051e+001 8.135933e+001 7.677331e+001 9.463634e+001 5.724667e+001 6.897221e+001 6.326392e+001 4.839135e+001 3.680719e+001 3.395739e+001 8.727069e+001 1.372905e+000 1.793903e+000 1.710096e+000 2.409231e+000 2.706431e+000 2.777050e+000 2.585872e+000 2.606039e+000 2.707144e+000 2.455808e+000 2.104158e+000 1.735463e+000 2.419883e+000 1.985618e-001 2.764823e-001 2.480070e-001 3.283480e-001 3.897789e-001 4.118499e-001 4.453265e-001 4.204600e-001 4.511843e-001 4.197432e-001 3.712303e-001 3.108075e-001 2.378747e-001
<GCONST> 1.209395e+002
<STATE> 3
<MEAN> 39
 -5.404736e+000 2.474264e+000 3.122554e-001 -4.394701e+000 -9.639411e+000 -8.753761e+000 -1.066005e+000 -4.766325e+000 -3.743578e+000 -1.938833e+000 -1.992863e+000 -4.559347e-003 6.495885e+001 2.450988e-002 1.302901e-002 1.918019e-002 3.316283e-003 -4.371658e-002 -7.306439e-002 -1.842394e-002 -2.444299e-002 -3.052467e-002 -2.393421e-002 -9.349622e-003 -1.425933e-002 -9.787142e-003 -5.396765e-003 4.690089e-003 -6.835332e-003 5.209368e-003 1.451201e-002 1.721763e-002 5.296492e-003 6.553777e-003 6.220506e-003 9.362569e-003 4.125166e-003 3.225525e-003 -2.743884e-002
<VARIANCE> 39
 3.864226e+001 5.281501e+001 7.391051e+001 8.135933e+001 7.677331e+001 9.463634e+001 5.724667e+001 6.897221e+001 6.326392e+001 4.839135e+001 3.680719e+001 3.395739e+001 8.727069e+001 1.372905e+000 1.793903e+000 1.710096e+000 2.409231e+000 2.706431e+000 2.777050e+000 2.585872e+000 2.606039e+000 2.707144e+000 2.455808e+000 2.104158e+000 1.735463e+000 2.419883e+000 1.985618e-001 2.764823e-001 2.480070e-001 3.283480e-001 3.897789e-001 4.118499e-001 4.453265e-001 4.204600e-001 4.511843e-001 4.197432e-001 3.712303e-001 3.108075e-001 2.378747e-001
<GCONST> 1.209395e+002
<STATE> 4
<MEAN> 39
 -5.404736e+000 2.474264e+000 3.122554e-001 -4.394701e+000 -9.639411e+000 -8.753761e+000 -1.066005e+000 -4.766325e+000 -3.743578e+000 -1.938833e+000 -1.992863e+000 -4.559347e-003 6.495885e+001 2.450988e-002 1.302901e-002 1.918019e-002 3.316283e-003 -4.371658e-002 -7.306439e-002 -1.842394e-002 -2.444299e-002 -3.052467e-002 -2.393421e-002 -9.349622e-003 -1.425933e-002 -9.787142e-003 -5.396765e-003 4.690089e-003 -6.835332e-003 5.209368e-003 1.451201e-002 1.721763e-002 5.296492e-003 6.553777e-003 6.220506e-003 9.362569e-003 4.125166e-003 3.225525e-003 -2.743884e-002
<VARIANCE> 39
 3.864226e+001 5.281501e+001 7.391051e+001 8.135933e+001 7.677331e+001 9.463634e+001 5.724667e+001 6.897221e+001 6.326392e+001 4.839135e+001 3.680719e+001 3.395739e+001 8.727069e+001 1.372905e+000 1.793903e+000 1.710096e+000 2.409231e+000 2.706431e+000 2.777050e+000 2.585872e+000 2.606039e+000 2.707144e+000 2.455808e+000 2.104158e+000 1.735463e+000 2.419883e+000 1.985618e-001 2.764823e-001 2.480070e-001 3.283480e-001 3.897789e-001 4.118499e-001 4.453265e-001 4.204600e-001 4.511843e-001 4.197432e-001 3.712303e-001 3.108075e-001 2.378747e-001
<GCONST> 1.209395e+002
<TRANSP> 5
 0.000000e+000 1.000000e+000 0.000000e+000 0.000000e+000 0.000000e+000
 0.000000e+000 6.000000e-001 4.000000e-001 0.000000e+000 0.000000e+000
 0.000000e+000 0.000000e+000 6.000000e-001 4.000000e-001 0.000000e+000
 0.000000e+000 0.000000e+000 0.000000e+000 7.000000e-001 3.000000e-001
 0.000000e+000 0.000000e+000 0.000000e+000 0.000000e+000 0.000000e+000
<ENDHMM>
~h "a:"
<BEGINHMM>
<NUMSTATES> 5
<STATE> 2
<MEAN> 39
 -9.326669e-001 -5.514128e-001 -9.527806e+000 -1.359447e+001 -7.380992e+000 -6.853716e-001 3.949047e+000 -1.384231e+000 -4.745499e+000 8.138064e-001 -1.880913e+000 -2.904263e+000 6.950810e+001 -1.594146e-001 1.938434e-002 6.763560e-002 1.517696e-001 -1.731216e-002 -1.389595e-001 -2.424031e-001 -1.312001e-001 2.425969e-001 7.033337e-002 1.423540e-001 1.277105e-001 -3.620837e-001 -1.740321e-002 2.488151e-002 3.908263e-002 5.595406e-002 -7.232897e-004 -3.349188e-002 -3.358193e-002 -1.032360e-002 -9.006842e-003 -2.242905e-002 1.838651e-003 6.713460e-003 -2.426081e-002
<VARIANCE> 39
 2.152092e+001 5.577913e+001 4.518457e+001 5.059105e+001 3.550779e+001 4.801877e+001 3.924907e+001 5.151828e+001 4.806040e+001 3.017036e+001 5.636058e+001 3.784991e+001 5.850412e+001 1.290049e+000 1.732560e+000 1.539696e+000 2.599699e+000 1.762881e+000 2.583641e+000 2.469286e+000 2.067516e+000 2.619556e+000 2.286408e+000 1.936020e+000 1.677865e+000 2.988019e+000 2.316485e-001 2.758507e-001 2.756652e-001 3.487828e-001 3.234605e-001 4.451281e-001 4.708561e-001 3.742186e-001 4.455596e-001 4.216441e-001 3.268347e-001 2.980981e-001 3.645026e-001
<GCONST> 1.161932e+002
<STATE> 3
<MEAN> 39
 -1.582145e+000 -3.767546e-001 -9.080622e+000 -1.277849e+001 -7.472420e+000 -1.350481e+000 2.961045e+000 -1.862032e+000 -4.050570e+000 9.138545e-001 -1.400822e+000 -2.431485e+000 6.820702e+001 -1.824574e-001 6.261469e-002 1.567847e-001 2.553250e-001 -5.342542e-002 -2.321543e-001 -3.129309e-001 -1.476688e-001 1.631517e-001 1.604548e-002 1.304494e-001 1.232033e-001 -3.367117e-001 -5.999174e-004 9.844239e-003 2.373013e-002 1.721006e-002 -1.605402e-002 -2.368850e-002 -1.437165e-002 -2.711373e-003 -2.814615e-002 -1.210321e-002 -7.099120e-003 -2.929523e-003 2.070079e-002
<VARIANCE> 39
 2.430289e+001 5.300246e+001 4.731966e+001 5.295710e+001 3.682008e+001 4.577116e+001 4.084594e+001 4.636133e+001 4.827446e+001 2.927124e+001 5.074480e+001 3.816829e+001 6.748055e+001 1.645260e+000 1.847912e+000 1.637005e+000 2.513877e+000 1.836142e+000 2.568351e+000 2.577907e+000 2.094880e+000 2.886453e+000 2.276342e+000 2.053559e+000 1.754636e+000 3.679817e+000 3.059039e-001 3.080589e-001 3.012685e-001 3.637552e-001 3.351871e-001 4.523015e-001 5.023555e-001 3.750634e-001 4.927407e-001 4.198314e-001 3.530889e-001 3.124066e-001 4.612877e-001
<GCONST> 1.182236e+002
<STATE> 4
<MEAN> 39
 -2.399159e+000 -2.530511e-001 -8.252757e+000 -1.182317e+001 -8.144809e+000 -2.592392e+000 1.646139e+000 -2.274073e+000 -3.819554e+000 7.987313e-001 -8.843141e-001 -1.798260e+000 6.714410e+001 -1.242553e-001 6.129978e-002 2.051496e-001 1.955550e-001 -1.606112e-001 -2.846914e-001 -2.976464e-001 -1.271390e-001 -1.902367e-003 -5.972522e-003 6.822442e-002 9.134267e-002 -1.224046e-001 1.854596e-002 3.948614e-003 1.224927e-002 -1.800624e-002 -2.695208e-002 -7.202033e-003 1.001792e-002 3.784952e-003 -3.128173e-002 -4.341454e-003 -1.654109e-002 -4.267277e-003 4.503176e-002
<VARIANCE> 39
 2.722607e+001 5.179596e+001 5.153899e+001 5.672689e+001 4.247229e+001 4.221686e+001 4.287779e+001 4.303537e+001 4.921412e+001 3.147855e+001 4.286752e+001 3.560835e+001 7.699635e+001 2.247619e+000 2.050861e+000 1.840781e+000 2.653340e+000 2.140565e+000 2.578665e+000 2.724956e+000 2.264139e+000 3.293495e+000 2.422955e+000 2.195713e+000 1.827953e+000 4.442370e+000 4.210333e-001 3.449157e-001 3.392835e-001 3.918460e-001 3.794084e-001 4.591724e-001 5.277839e-001 4.030588e-001 5.693849e-001 4.467583e-001 3.931553e-001 3.210611e-001 5.656925e-001
<GCONST> 1.212904e+002
<TRANSP> 5
 0.000000e+000 1.000000e+000 0.000000e+000 0.000000e+000 0.000000e+000
 0.000000e+000 7.079834e-001 2.920166e-001 0.000000e+000 0.000000e+000
 0.000000e+000 0.000000e+000 7.079826e-001 2.920173e-001 0.000000e+000
 0.000000e+000 0.000000e+000 0.000000e+000 8.226556e-001 1.773444e-001
 0.000000e+000 0.000000e+000 0.000000e+000 0.000000e+000 0.000000e+000
<ENDHMM>
~h "ae"
<BEGINHMM>
<NUMSTATES> 5
<STATE> 2
<MEAN> 39
 -3.205392e+000 -4.215346e+000 -3.163995e+000 -8.281181e+000 -1.023953e+001 -1.348882e+001 -4.892106e+000 1.301596e+000 2.425469e+000 3.173462e+000 -3.364074e+000 -2.981611e+000 7.360684e+001 -2.413096e-001 3.147159e-001 5.966333e-001 7.941498e-001 -1.662416e-001 -8.385513e-001 -3.680832e-001 2.472035e-002 2.143931e-001 -2.456514e-001 -9.931485e-002 4.375328e-001 -5.709751e-001 -1.935242e-002 3.280954e-002 -2.581111e-003 -7.789429e-003 2.965947e-003 8.065712e-002 7.087149e-002 -1.933784e-002 -4.791752e-002 -1.567429e-002 4.413954e-002 1.529155e-002 -5.779302e-002
<VARIANCE> 39
 1.947315e+001 4.445452e+001 6.377362e+001 6.315637e+001 2.694962e+001 1.074129e+002 6.341205e+001 5.358407e+001 5.634017e+001 3.424238e+001 5.261439e+001 5.331696e+001 2.921742e+001 3.259221e-001 6.196200e-001 9.883249e-001 1.361475e+000 1.389958e+000 2.964683e+000 1.995199e+000 1.891376e+000 2.174398e+000 1.801405e+000 2.020733e+000 1.680141e+000 4.025035e-001 4.846440e-002 9.310294e-002 1.390649e-001 2.138976e-001 2.204443e-001 3.656066e-001 3.043950e-001 3.108585e-001 3.226149e-001 3.168491e-001 3.386152e-001 2.532249e-001 4.050418e-002
<GCONST> 1.031054e+002
<STATE> 3
<MEAN> 39
 -4.124162e+000 -2.986391e+000 -1.201663e+000 -5.659915e+000 -1.086104e+001 -1.584916e+001 -5.686860e+000 1.244087e+000 2.877606e+000 2.250880e+000 -3.362191e+000 -1.359824e+000 7.141549e+001 -2.943772e-001 3.875621e-001 5.125611e-001 7.027469e-001 -1.209100e-001 -5.058628e-001 -1.226962e-001 -5.340059e-002 5.470683e-002 -2.694389e-001 5.190678e-002 4.317400e-001 -7.559047e-001 -1.598117e-002 1.340332e-002 -4.388108e-002 -3.876584e-002 2.935898e-002 1.053772e-001 7.073615e-002 -1.762950e-002 -4.240363e-002 8.491000e-004 4.086699e-002 -1.598821e-002 -5.427011e-002
<VARIANCE> 39
 2.083855e+001 4.605048e+001 6.104773e+001 5.731469e+001 3.104208e+001 8.690797e+001 5.547376e+001 5.126888e+001 5.150001e+001 3.627547e+001 5.270704e+001 5.157967e+001 3.718345e+001 3.162994e-001 6.533461e-001 1.122006e+000 1.307525e+000 1.387722e+000 2.824056e+000 1.854985e+000 1.866590e+000 1.986905e+000 1.790507e+000 2.025649e+000 1.518294e+000 4.009896e-001 4.554192e-002 9.974328e-002 1.546382e-001 2.201894e-001 2.199754e-001 3.519322e-001 2.911282e-001 3.123696e-001 3.154632e-001 3.195696e-001 3.465817e-001 2.322921e-001 3.772761e-002
<GCONST> 1.026851e+002
<STATE> 4
<MEAN> 39
 -5.690291e+000 -1.092102e+000 6.786730e-001 -2.905707e+000 -1.129879e+001 -1.731011e+001 -5.420512e+000 1.125048e+000 2.773035e+000 9.217933e-001 -2.655929e+000 4.800818e-001 6.806787e+001 -3.342924e-001 3.448972e-001 2.639740e-001 5.085220e-001 6.463522e-002 -8.819835e-002 1.426300e-001 -9.850592e-002 -8.149583e-002 -2.207272e-001 1.754085e-001 3.336859e-001 -9.286538e-001 -1.068243e-002 -1.989519e-002 -6.604522e-002 -4.568513e-002 6.269085e-002 1.006149e-001 5.235149e-002 1.163886e-002 -2.272878e-002 1.840438e-002 2.330361e-002 -3.223114e-002 -3.552856e-002
<VARIANCE> 39
 2.281985e+001 4.515717e+001 5.098485e+001 4.517622e+001 3.894538e+001 6.458128e+001 5.163309e+001 4.685584e+001 5.027178e+001 4.000127e+001 5.006179e+001 4.713723e+001 4.619345e+001 3.318672e-001 7.485078e-001 1.220395e+000 1.262134e+000 1.408700e+000 2.665090e+000 1.672130e+000 1.768157e+000 1.816861e+000 1.817232e+000 2.007437e+000 1.420940e+000 4.627261e-001 5.002344e-002 1.084849e-001 1.681146e-001 2.214060e-001 2.188858e-001 3.898734e-001 2.705780e-001 3.024793e-001 3.129314e-001 3.260882e-001 3.517951e-001 2.254947e-001 5.065443e-002
<GCONST> 1.028315e+002
<TRANSP> 5
 0.000000e+000 1.000000e+000 0.000000e+000 0.000000e+000 0.000000e+000
 0.000000e+000 7.104126e-001 2.895874e-001 0.000000e+000 0.000000e+000
 0.000000e+000 0.000000e+000 7.104126e-001 2.895873e-001 0.000000e+000
 0.000000e+000 0.000000e+000 0.000000e+000 8.231299e-001 1.768701e-001
 0.000000e+000 0.000000e+000 0.000000e+000 0.000000e+000 0.000000e+000
<ENDHMM>
~h "ai"
<BEGINHMM>
<NUMSTATES> 5
<STATE> 2
<MEAN> 39
 -5.903861e+000 5.440866e-001 2.868352e+000 -2.096329e+000 -1.037023e+001 -1.574837e+001 -5.299014e+000 -5.725351e+000 -1.468910e+000 8.482428e-001 -1.482718e+000 -1.311505e+000 7.056715e+001 -4.771586e-001 6.398671e-001 8.548437e-001 8.918591e-001 4.624876e-005 -4.056012e-001 1.064557e-001 -4.040855e-001 -5.451788e-001 -7.014729e-001 -1.468792e-002 2.021503e-001 -9.050040e-001 -1.124001e-003 -1.966215e-003 -8.204916e-002 -8.491289e-002 7.304066e-002 1.633197e-001 7.561313e-002 5.335739e-002 -3.530106e-002 2.299875e-002 2.304461e-002 -1.518420e-002 -6.734352e-002
<VARIANCE> 39
 3.077435e+001 5.473764e+001 8.060584e+001 6.638742e+001 5.661591e+001 8.472787e+001 6.056515e+001 4.285291e+001 7.429345e+001 6.016651e+001 3.126577e+001 3.080206e+001 4.008199e+001 5.668518e-001 1.139410e+000 2.082595e+000 2.348961e+000 1.985523e+000 3.777913e+000 2.904457e+000 2.470288e+000 3.383399e+000 2.939283e+000 2.271533e+000 2.066644e+000 6.742443e-001 7.842882e-002 1.411444e-001 2.533245e-001 2.763318e-001 2.867652e-001 4.140194e-001 4.392168e-001 4.067368e-001 5.544121e-001 5.046795e-001 4.531194e-001 3.772317e-001 7.357213e-002
<GCONST> 1.149145e+002
<STATE> 3
<MEAN> 39
 -7.331393e+000 2.483574e+000 5.108484e+000 1.851574e-001 -1.004918e+001 -1.615450e+001 -4.630736e+000 -6.698460e+000 -3.301907e+000 -1.120920e+000 -1.411932e+000 -8.029078e-001 6.760509e+001 -4.479523e-001 5.505946e-001 5.210570e-001 5.819586e-001 2.197760e-001 6.544271e-002 2.755252e-001 -2.144417e-001 -5.457318e-001 -5.293124e-001 2.971398e-002 1.393711e-001 -1.053904e+000 1.858305e-002 -5.292121e-002 -1.313394e-001 -1.002815e-001 6.620757e-002 1.286335e-001 3.344541e-002 6.815585e-002 3.906978e-002 7.747051e-002 9.151809e-003 -1.659792e-002 -3.031017e-002
<VARIANCE> 39
 2.890189e+001 5.300322e+001 6.681856e+001 4.417595e+001 6.364274e+001 6.817216e+001 6.064965e+001 3.639731e+001 7.232947e+001 4.976834e+001 3.245586e+001 2.993711e+001 4.354908e+001 4.944215e-001 1.008238e+000 2.061161e+000 1.766173e+000 1.758045e+000 2.708493e+000 2.396535e+000 2.174099e+000 2.935768e+000 2.494208e+000 2.003217e+000 1.723933e+000 3.710198e-001 7.057858e-002 1.204555e-001 2.191013e-001 1.964233e-001 2.515032e-001 3.183528e-001 3.829813e-001 3.526463e-001 4.542329e-001 3.937048e-001 3.925418e-001 3.230693e-001 4.537439e-002
<GCONST> 1.086447e+002
<STATE> 4
<MEAN> 39
 -8.791764e+000 4.241629e+000 6.465454e+000 1.754500e+000 -9.037551e+000 -1.505649e+001 -3.419831e+000 -7.063718e+000 -5.102510e+000 -2.469415e+000 -1.285728e+000 -5.261669e-001 6.385102e+001 -3.690294e-001 3.020819e-001 2.858519e-002 2.501836e-001 4.130978e-001 4.202153e-001 3.289402e-001 1.764516e-002 -3.042110e-001 -2.033779e-001 3.835100e-002 9.579770e-002 -1.099366e+000 2.608650e-002 -7.622781e-002 -1.371135e-001 -7.237658e-002 3.869011e-002 7.384289e-002 3.408449e-003 6.924593e-002 9.525742e-002 8.890884e-002 9.815276e-003 -3.881709e-004 5.927599e-003
<VARIANCE> 39
 2.445077e+001 4.663920e+001 5.253388e+001 2.692300e+001 6.830911e+001 6.133814e+001 5.854578e+001 3.277364e+001 6.546614e+001 4.048573e+001 3.458136e+001 2.881464e+001 4.349118e+001 4.781618e-001 9.520501e-001 1.831527e+000 1.183394e+000 1.658401e+000 1.827604e+000 1.998437e+000 1.971392e+000 2.596107e+000 2.122952e+000 1.793271e+000 1.419731e+000 2.783777e-001 7.271294e-002 1.127367e-001 1.835589e-001 1.436573e-001 2.556971e-001 2.651502e-001 3.364666e-001 3.225347e-001 3.687469e-001 3.163881e-001 3.408947e-001 2.776891e-001 3.382393e-002
<GCONST> 1.030150e+002
<TRANSP> 5
 0.000000e+000 1.000000e+000 0.000000e+000 0.000000e+000 0.000000e+000
 0.000000e+000 6.742579e-001 3.257421e-001 0.000000e+000 0.000000e+000
 0.000000e+000 0.000000e+000 6.742576e-001 3.257424e-001 0.000000e+000
 0.000000e+000 0.000000e+000 0.000000e+000 7.789561e-001 2.210440e-001
 0.000000e+000 0.000000e+000 0.000000e+000 0.000000e+000 0.000000e+000
<ENDHMM>
~h "ao"
<BEGINHMM>
<NUMSTATES> 5
<STATE> 2
<MEAN> 39
 1.189426e+000 1.186824e+000 -6.308514e+000 -1.838818e+001 -1.819535e+001 -4.521545e+000 5.065999e+000 9.979809e-001 -3.906363e+000 -3.956982e-002 -4.450804e+000 -3.069153e+000 7.002448e+001 8.970707e-002 4.376828e-001 1.337547e-001 -9.282964e-002 -3.072084e-001 -2.970240e-001 -1.231308e-001 -1.418061e-001 1.552014e-001 2.233454e-001 -5.462893e-002 9.212447e-004 -4.945753e-001 -3.073736e-002 3.517313e-002 1.731794e-002 6.829236e-002 5.530163e-002 -4.831165e-003 -2.052577e-002 -8.287538e-003 5.304085e-003 -9.550982e-003 1.454259e-002 9.400572e-003 -6.331678e-002
<VARIANCE> 39
 1.659765e+001 5.140396e+001 3.351981e+001 3.107397e+001 5.635270e+001 5.367542e+001 4.540957e+001 5.676431e+001 6.249797e+001 4.386725e+001 3.286525e+001 2.565284e+001 5.089861e+001 8.749850e-001 1.344652e+000 9.486510e-001 1.782099e+000 2.087978e+000 2.004613e+000 2.075349e+000 2.130342e+000 2.494105e+000 2.091882e+000 1.616270e+000 1.343564e+000 1.364705e+000 1.561480e-001 1.689593e-001 1.597491e-001 2.503387e-001 3.235964e-001 3.297069e-001 3.532802e-001 3.746337e-001 4.219124e-001 3.730521e-001 3.091418e-001 2.503980e-001 1.609551e-001
<GCONST> 1.088227e+002
<STATE> 3
<MEAN> 39
 1.369825e+000 2.939344e+000 -5.729191e+000 -1.835398e+001 -1.900561e+001 -5.634719e+000 4.527944e+000 4.488894e-001 -3.400792e+000 6.678580e-001 -4.569980e+000 -3.011980e+000 6.796842e+001 -3.915941e-002 5.036591e-001 1.693001e-001 1.518736e-001 -8.782795e-002 -2.905798e-001 -1.928886e-001 -1.428424e-001 1.646665e-001 1.657633e-001 1.139204e-002 3.886246e-002 -6.873588e-001 -4.301843e-002 -5.145826e-003 1.490343e-003 6.894019e-002 7.603619e-002 1.681847e-002 -1.954641e-002 8.970795e-003 2.932733e-003 -2.018733e-002 2.492017e-002 1.509858e-002 -4.321170e-002
<VARIANCE> 39
 1.536933e+001 5.131064e+001 3.048164e+001 3.042792e+001 5.217512e+001 5.583448e+001 4.754182e+001 5.335707e+001 5.731496e+001 3.887517e+001 3.146624e+001 2.639793e+001 5.362066e+001 7.264996e-001 1.173905e+000 8.137664e-001 1.553567e+000 2.163793e+000 1.849582e+000 1.942909e+000 2.106986e+000 2.396476e+000 1.972969e+000 1.554736e+000 1.338367e+000 9.645842e-001 1.160745e-001 1.532561e-001 1.381283e-001 2.153672e-001 3.066406e-001 2.982429e-001 3.311974e-001 3.671685e-001 4.121200e-001 3.568472e-001 2.870944e-001 2.492957e-001 1.136703e-001
<GCONST> 1.057590e+002
<STATE> 4
<MEAN> 39
 9.675068e-001 5.053235e+000 -5.012352e+000 -1.720506e+001 -1.884968e+001 -6.769024e+000 3.330235e+000 -1.933156e-001 -2.707254e+000 1.160708e+000 -4.337276e+000 -2.659396e+000 6.489845e+001 -2.266780e-001 3.975983e-001 1.426465e-001 4.222599e-001 2.393543e-001 -1.754616e-001 -2.583805e-001 -7.977086e-002 1.724027e-001 5.301668e-002 1.168278e-001 1.072392e-001 -8.142121e-001 -4.674213e-002 -4.470329e-002 -1.022363e-002 5.893316e-002 8.458080e-002 4.387818e-002 -6.308890e-003 1.801716e-002 7.076770e-003 -1.987169e-002 2.887184e-002 2.136497e-002 -1.768443e-002
<VARIANCE> 39
 1.599603e+001 4.497326e+001 2.889702e+001 3.591595e+001 5.008671e+001 5.422537e+001 4.931112e+001 4.710534e+001 5.108624e+001 3.340902e+001 3.017142e+001 2.727406e+001 5.779411e+001 5.903000e-001 1.053276e+000 7.078297e-001 1.334891e+000 2.117951e+000 1.666355e+000 1.743151e+000 2.034397e+000 2.257135e+000 1.868266e+000 1.538658e+000 1.348554e+000 6.392260e-001 8.281823e-002 1.333338e-001 1.187821e-001 1.892112e-001 2.780314e-001 2.556090e-001 2.922031e-001 3.505887e-001 4.011616e-001 3.433082e-001 2.709137e-001 2.476950e-001 7.607449e-002
<GCONST> 1.023026e+002
<TRANSP> 5
 0.000000e+000 1.000000e+000 0.000000e+000 0.000000e+000 0.000000e+000
 0.000000e+000 7.253242e-001 2.746758e-001 0.000000e+000 0.000000e+000
 0.000000e+000 0.000000e+000 7.253237e-001 2.746764e-001 0.000000e+000
 0.000000e+000 0.000000e+000 0.000000e+000 8.407810e-001 1.592190e-001
 0.000000e+000 0.000000e+000 0.000000e+000 0.000000e+000 0.000000e+000
<ENDHMM>
~h "au"
<BEGINHMM>
<NUMSTATES> 5
<STATE> 2
<MEAN> 39
 -1.554804e-001 2.948934e+000 -5.143154e+000 -1.017319e+001 -1.227807e+001 -5.386257e+000 -8.718413e-001 -1.099254e+001 -7.278542e+000 -5.278252e-001 1.459733e+000 5.490155e-001 6.973020e+001 4.927826e-002 5.812751e-001 2.660914e-001 3.881278e-001 6.226835e-002 -1.502334e-001 -2.844785e-001 -4.190877e-001 -2.696877e-001 -3.906913e-001 -1.014595e-001 7.648069e-002 -6.574430e-001 -2.989877e-002 1.896358e-002 1.272195e-002 3.277331e-002 7.163476e-002 3.402818e-002 2.366008e-002 6.813771e-002 1.377099e-002 -2.295932e-002 -3.445327e-002 -1.956672e-002 -7.639737e-002
<VARIANCE> 39
 1.451790e+001 6.997633e+001 4.124258e+001 5.438025e+001 4.649686e+001 5.898668e+001 4.554726e+001 8.620446e+001 7.390057e+001 7.315849e+001 3.969934e+001 3.502969e+001 4.962839e+001 7.209517e-001 1.355912e+000 1.000338e+000 2.008164e+000 1.838823e+000 2.115494e+000 2.059282e+000 3.028474e+000 2.688342e+000 2.583708e+000 2.261802e+000 1.926585e+000 1.073303e+000 1.142077e-001 1.489066e-001 1.705237e-001 2.794461e-001 2.528979e-001 3.435440e-001 3.424000e-001 4.302250e-001 4.290025e-001 3.713488e-001 3.763954e-001 3.170871e-001 8.431710e-002
<GCONST> 1.116781e+002
<STATE> 3
<MEAN> 39
 -9.061459e-002 5.075720e+000 -4.178890e+000 -8.636707e+000 -1.173403e+001 -5.787625e+000 -1.727008e+000 -1.210754e+001 -8.226853e+000 -1.946344e+000 9.466923e-001 7.215609e-001 6.712470e+001 -7.037017e-002 5.803329e-001 2.776599e-001 4.617057e-001 2.849910e-001 -3.784130e-002 -1.946836e-001 -1.501660e-001 -1.857757e-001 -4.169824e-001 -2.058105e-001 -6.147634e-003 -8.586894e-001 -4.252684e-002 -3.200547e-002 -6.250742e-003 5.460854e-003 5.366983e-002 3.288197e-002 2.583408e-002 8.685146e-002 4.030406e-002 1.864693e-002 -1.853677e-002 -2.164825e-002 -3.491765e-002
<VARIANCE> 39
 1.356162e+001 6.890969e+001 3.756792e+001 5.507614e+001 4.861095e+001 5.177355e+001 4.131443e+001 7.621198e+001 7.765942e+001 7.047208e+001 4.215114e+001 3.340795e+001 5.613207e+001 5.942693e-001 1.245399e+000 8.407720e-001 1.576774e+000 1.661969e+000 1.865779e+000 1.957737e+000 2.808501e+000 2.637187e+000 2.423785e+000 2.160364e+000 1.852546e+000 6.952790e-001 8.223314e-002 1.316468e-001 1.435830e-001 2.338503e-001 2.364181e-001 2.997854e-001 3.324119e-001 3.882301e-001 4.092043e-001 3.614095e-001 3.549305e-001 3.032422e-001 5.787826e-002
<GCONST> 1.080146e+002
<STATE> 4
<MEAN> 39
 -5.735105e-001 7.274330e+000 -3.147407e+000 -6.787913e+000 -1.046080e+001 -5.644865e+000 -2.192721e+000 -1.218902e+001 -8.893156e+000 -3.338116e+000 7.750976e-002 7.191464e-001 6.354988e+001 -2.557486e-001 3.798363e-001 2.202141e-001 4.586990e-001 4.636404e-001 4.466686e-002 -1.065392e-001 1.743214e-001 -1.006058e-002 -3.089586e-001 -2.364983e-001 -8.300395e-002 -9.119433e-001 -4.824311e-002 -7.616911e-002 -2.011844e-002 -1.443831e-002 2.931420e-002 2.520315e-002 2.217511e-002 7.703511e-002 5.594272e-002 5.208113e-002 9.397707e-003 -4.484403e-003 6.943285e-003
<VARIANCE> 39
 1.484361e+001 5.892380e+001 3.217769e+001 5.072848e+001 5.159439e+001 4.355647e+001 3.935986e+001 6.216059e+001 7.963971e+001 6.246365e+001 4.467387e+001 3.300648e+001 5.787214e+001 4.893367e-001 1.246983e+000 7.417160e-001 1.243406e+000 1.432937e+000 1.639738e+000 1.975587e+000 2.408370e+000 2.542287e+000 2.333015e+000 2.068398e+000 1.736962e+000 4.475953e-001 5.768479e-002 1.196676e-001 1.233426e-001 1.920865e-001 2.103463e-001 2.630340e-001 3.372791e-001 3.455790e-001 3.780559e-001 3.513894e-001 3.319480e-001 2.904185e-001 3.983301e-002
<GCONST> 1.039865e+002
<TRANSP> 5
 0.000000e+000 1.000000e+000 0.000000e+000 0.000000e+000 0.000000e+000
 0.000000e+000 7.156143e-001 2.843857e-001 0.000000e+000 0.000000e+000
 0.000000e+000 0.000000e+000 7.156142e-001 2.843858e-001 0.000000e+000
 0.000000e+000 0.000000e+000 0.000000e+000 8.303874e-001 1.696125e-001
 0.000000e+000 0.000000e+000 0.000000e+000 0.000000e+000 0.000000e+000
<ENDHMM>
~h "e:"
<BEGINHMM>
<NUMSTATES> 5
<STATE> 2
<MEAN> 39
 -5.380313e+000 -3.263642e-001 8.333592e+000 1.005067e+000 -1.871279e+001 -2.148039e+001 -6.933788e+000 -5.857764e+000 -5.370027e+000 -6.416771e+000 -2.485963e+000 2.839825e+000 7.270882e+001 3.920643e-002 7.480957e-002 -5.709808e-002 -1.737384e-002 1.768792e-001 3.471737e-003 -3.920905e-002 6.442032e-002 7.617564e-002 2.643718e-002 -4.160966e-002 -3.599315e-002 -3.246122e-001 -1.772605e-002 2.517526e-003 -2.080565e-002 -4.597560e-003 4.904067e-002 3.759250e-002 2.217768e-002 2.100219e-002 1.666798e-002 1.970192e-002 9.611941e-003 -3.510479e-003 -4.232890e-002
<VARIANCE> 39
 1.488921e+001 3.930831e+001 3.750897e+001 2.107656e+001 7.285184e+001 5.809820e+001 3.223893e+001 3.992881e+001 5.850737e+001 4.074245e+001 4.449921e+001 3.044080e+001 2.209122e+001 3.291567e-001 7.848449e-001 6.611857e-001 8.499393e-001 1.543436e+000 1.350292e+000 1.531610e+000 1.270900e+000 1.914361e+000 1.362461e+000 1.353445e+000 1.125780e+000 5.382539e-001 5.016563e-002 1.290436e-001 1.121546e-001 1.646115e-001 2.377898e-001 2.260686e-001 2.767618e-001 2.336395e-001 3.730355e-001 2.459173e-001 2.506088e-001 2.062512e-001 6.084978e-002
<GCONST> 9.570202e+001
<STATE> 3
<MEAN> 39
 -5.363698e+000 -7.939159e-002 8.028112e+000 9.152449e-001 -1.778136e+001 -2.132204e+001 -6.943377e+000 -5.461162e+000 -4.990713e+000 -6.191257e+000 -2.581979e+000 2.702295e+000 7.132156e+001 -2.439164e-002 7.673477e-002 -1.286420e-001 -2.941602e-002 3.177133e-001 1.285719e-001 4.660004e-002 1.405279e-001 1.312683e-001 9.891599e-002 -6.606809e-004 -4.169009e-002 -4.645116e-001 -1.903373e-002 -2.628418e-003 -2.107345e-002 -2.890167e-003 3.195719e-002 3.288019e-002 2.380092e-002 1.847404e-002 1.103873e-002 2.246460e-002 1.155275e-002 6.039024e-004 -3.688436e-002
<VARIANCE> 39
 1.478010e+001 3.643699e+001 3.853828e+001 2.136608e+001 7.128762e+001 5.784872e+001 3.413275e+001 3.991873e+001 5.789650e+001 4.199780e+001 4.693635e+001 3.213590e+001 2.892182e+001 2.917080e-001 7.815738e-001 6.997083e-001 8.786450e-001 1.545510e+000 1.366061e+000 1.539840e+000 1.464463e+000 2.125699e+000 1.453316e+000 1.412571e+000 1.166364e+000 5.674617e-001 4.277200e-002 1.241837e-001 1.171111e-001 1.703621e-001 2.460383e-001 2.250162e-001 2.745662e-001 2.740673e-001 4.130033e-001 2.640755e-001 2.587412e-001 2.161359e-001 5.852830e-002
<GCONST> 9.678606e+001
<STATE> 4
<MEAN> 39
 -5.680517e+000 8.854131e-002 7.399766e+000 6.732258e-001 -1.617682e+001 -2.075151e+001 -6.556450e+000 -4.411120e+000 -4.394272e+000 -5.490017e+000 -2.559004e+000 2.535737e+000 6.885773e+001 -1.171343e-001 5.773374e-002 -2.298122e-001 -3.764693e-002 4.318707e-001 2.684957e-001 1.772818e-001 2.159984e-001 1.785485e-001 2.068330e-001 5.585962e-002 -3.130895e-002 -6.326543e-001 -1.962496e-002 -4.885126e-003 -2.249054e-002 1.184184e-003 2.163363e-002 3.388649e-002 2.603647e-002 6.016508e-003 5.352735e-003 2.467281e-002 1.205534e-002 3.847256e-003 -3.149965e-002
<VARIANCE> 39
 1.518007e+001 3.175340e+001 3.913181e+001 2.170712e+001 7.172295e+001 5.842432e+001 3.819501e+001 4.322552e+001 5.746227e+001 4.024065e+001 4.687129e+001 3.533678e+001 4.223444e+001 3.000468e-001 8.209522e-001 8.123257e-001 9.257125e-001 1.658967e+000 1.403781e+000 1.636403e+000 1.843405e+000 2.391180e+000 1.536026e+000 1.522395e+000 1.223608e+000 6.945784e-001 4.489508e-002 1.303056e-001 1.333554e-001 1.743502e-001 2.617854e-001 2.268034e-001 2.884361e-001 3.419840e-001 4.536638e-001 2.803684e-001 2.752804e-001 2.336360e-001 6.437413e-002
<GCONST> 9.948105e+001
<TRANSP> 5
 0.000000e+000 1.000000e+000 0.000000e+000 0.000000e+000 0.000000e+000
 0.000000e+000 7.293505e-001 2.706495e-001 0.000000e+000 0.000000e+000
 0.000000e+000 0.000000e+000 7.293496e-001 2.706504e-001 0.000000e+000
 0.000000e+000 0.000000e+000 0.000000e+000 8.453926e-001 1.546074e-001
 0.000000e+000 0.000000e+000 0.000000e+000 0.000000e+000 0.000000e+000
<ENDHMM>
~h "ea"
<BEGINHMM>
<NUMSTATES> 5
<STATE> 2
<MEAN> 39
 -5.404736e+000 2.474264e+000 3.122554e-001 -4.394701e+000 -9.639411e+000 -8.753761e+000 -1.066005e+000 -4.766325e+000 -3.743578e+000 -1.938833e+000 -1.992863e+000 -4.559347e-003 6.495885e+001 2.450988e-002 1.302901e-002 1.918019e-002 3.316283e-003 -4.371658e-002 -7.306439e-002 -1.842394e-002 -2.444299e-002 -3.052467e-002 -2.393421e-002 -9.349622e-003 -1.425933e-002 -9.787142e-003 -5.396765e-003 4.690089e-003 -6.835332e-003 5.209368e-003 1.451201e-002 1.721763e-002 5.296492e-003 6.553777e-003 6.220506e-003 9.362569e-003 4.125166e-003 3.225525e-003 -2.743884e-002
<VARIANCE> 39
 3.864226e+001 5.281501e+001 7.391051e+001 8.135933e+001 7.677331e+001 9.463634e+001 5.724667e+001 6.897221e+001 6.326392e+001 4.839135e+001 3.680719e+001 3.395739e+001 8.727069e+001 1.372905e+000 1.793903e+000 1.710096e+000 2.409231e+000 2.706431e+000 2.777050e+000 2.585872e+000 2.606039e+000 2.707144e+000 2.455808e+000 2.104158e+000 1.735463e+000 2.419883e+000 1.985618e-001 2.764823e-001 2.480070e-001 3.283480e-001 3.897789e-001 4.118499e-001 4.453265e-001 4.204600e-001 4.511843e-001 4.197432e-001 3.712303e-001 3.108075e-001 2.378747e-001
<GCONST> 1.209395e+002
<STATE> 3
<MEAN> 39
 -5.404736e+000 2.474264e+000 3.122554e-001 -4.394701e+000 -9.639411e+000 -8.753761e+000 -1.066005e+000 -4.766325e+000 -3.743578e+000 -1.938833e+000 -1.992863e+000 -4.559347e-003 6.495885e+001 2.450988e-002 1.302901e-002 1.918019e-002 3.316283e-003 -4.371658e-002 -7.306439e-002 -1.842394e-002 -2.444299e-002 -3.052467e-002 -2.393421e-002 -9.349622e-003 -1.425933e-002 -9.787142e-003 -5.396765e-003 4.690089e-003 -6.835332e-003 5.209368e-003 1.451201e-002 1.721763e-002 5.296492e-003 6.553777e-003 6.220506e-003 9.362569e-003 4.125166e-003 3.225525e-003 -2.743884e-002
<VARIANCE> 39
 3.864226e+001 5.281501e+001 7.391051e+001 8.135933e+001 7.677331e+001 9.463634e+001 5.724667e+001 6.897221e+001 6.326392e+001 4.839135e+001 3.680719e+001 3.395739e+001 8.727069e+001 1.372905e+000 1.793903e+000 1.710096e+000 2.409231e+000 2.706431e+000 2.777050e+000 2.585872e+000 2.606039e+000 2.707144e+000 2.455808e+000 2.104158e+000 1.735463e+000 2.419883e+000 1.985618e-001 2.764823e-001 2.480070e-001 3.283480e-001 3.897789e-001 4.118499e-001 4.453265e-001 4.204600e-001 4.511843e-001 4.197432e-001 3.712303e-001 3.108075e-001 2.378747e-001
<GCONST> 1.209395e+002
<STATE> 4
<MEAN> 39
 -5.404736e+000 2.474264e+000 3.122554e-001 -4.394701e+000 -9.639411e+000 -8.753761e+000 -1.066005e+000 -4.766325e+000 -3.743578e+000 -1.938833e+000 -1.992863e+000 -4.559347e-003 6.495885e+001 2.450988e-002 1.302901e-002 1.918019e-002 3.316283e-003 -4.371658e-002 -7.306439e-002 -1.842394e-002 -2.444299e-002 -3.052467e-002 -2.393421e-002 -9.349622e-003 -1.425933e-002 -9.787142e-003 -5.396765e-003 4.690089e-003 -6.835332e-003 5.209368e-003 1.451201e-002 1.721763e-002 5.296492e-003 6.553777e-003 6.220506e-003 9.362569e-003 4.125166e-003 3.225525e-003 -2.743884e-002
<VARIANCE> 39
 3.864226e+001 5.281501e+001 7.391051e+001 8.135933e+001 7.677331e+001 9.463634e+001 5.724667e+001 6.897221e+001 6.326392e+001 4.839135e+001 3.680719e+001 3.395739e+001 8.727069e+001 1.372905e+000 1.793903e+000 1.710096e+000 2.409231e+000 2.706431e+000 2.777050e+000 2.585872e+000 2.606039e+000 2.707144e+000 2.455808e+000 2.104158e+000 1.735463e+000 2.419883e+000 1.985618e-001 2.764823e-001 2.480070e-001 3.283480e-001 3.897789e-001 4.118499e-001 4.453265e-001 4.204600e-001 4.511843e-001 4.197432e-001 3.712303e-001 3.108075e-001 2.378747e-001
<GCONST> 1.209395e+002
<TRANSP> 5
 0.000000e+000 1.000000e+000 0.000000e+000 0.000000e+000 0.000000e+000
 0.000000e+000 6.000000e-001 4.000000e-001 0.000000e+000 0.000000e+000
 0.000000e+000 0.000000e+000 6.000000e-001 4.000000e-001 0.000000e+000
 0.000000e+000 0.000000e+000 0.000000e+000 7.000000e-001 3.000000e-001
 0.000000e+000 0.000000e+000 0.000000e+000 0.000000e+000 0.000000e+000
<ENDHMM>
~h "ei"
<BEGINHMM>
<NUMSTATES> 5
<STATE> 2
<MEAN> 39
 -6.516520e+000 1.533707e+000 1.057059e+001 1.540126e+000 -1.708779e+001 -1.898193e+001 -4.564783e+000 -7.968045e+000 -6.177475e+000 -5.623116e+000 -1.584457e+000 1.381060e+000 7.065942e+001 -1.125440e-001 3.803403e-001 3.965659e-001 1.817781e-001 7.332416e-002 3.132752e-001 2.335845e-001 -2.896028e-001 -3.947383e-001 -1.855183e-001 -3.192240e-002 -1.136263e-001 -5.473806e-001 -9.075532e-003 1.483651e-003 -5.574871e-002 -9.215929e-004 7.821606e-002 5.154867e-002 1.595140e-002 4.385723e-002 1.689053e-002 2.298917e-002 -2.041583e-002 -1.202276e-002 -6.168666e-002
<VARIANCE> 39
 1.315686e+001 4.775331e+001 4.947461e+001 2.466441e+001 6.245620e+001 6.505898e+001 2.857535e+001 5.311147e+001 7.398588e+001 3.927752e+001 3.203286e+001 3.255953e+001 3.156124e+001 3.725298e-001 6.552144e-001 1.177301e+000 1.031099e+000 1.817605e+000 1.787410e+000 1.454886e+000 1.966556e+000 1.718722e+000 1.612711e+000 1.317525e+000 1.450482e+000 6.726732e-001 6.113616e-002 9.535229e-002 1.621446e-001 1.813668e-001 2.247277e-001 2.837068e-001 2.730453e-001 3.139521e-001 2.709010e-001 2.863494e-001 2.380098e-001 2.566867e-001 5.788346e-002
<GCONST> 9.943992e+001
<STATE> 3
<MEAN> 39
 -6.946355e+000 2.873833e+000 1.168653e+001 2.143450e+000 -1.649675e+001 -1.769323e+001 -3.695240e+000 -8.751601e+000 -7.437112e+000 -6.142002e+000 -1.854407e+000 9.393324e-001 6.851875e+001 -1.368305e-001 3.575973e-001 1.679461e-001 1.713642e-001 3.276424e-001 4.636252e-001 2.572522e-001 -1.263958e-001 -3.220287e-001 -8.222276e-002 -9.078566e-002 -1.554254e-001 -7.336276e-001 -6.700375e-003 -2.127691e-002 -8.409470e-002 -6.669733e-003 7.163017e-002 3.452025e-002 -1.990333e-003 5.213881e-002 2.819681e-002 3.746754e-002 -9.023856e-003 -6.417317e-003 -4.545886e-002
<VARIANCE> 39
 1.166842e+001 4.649453e+001 4.348063e+001 2.225275e+001 6.964870e+001 6.829860e+001 2.587031e+001 4.538303e+001 6.697510e+001 3.783268e+001 3.068540e+001 3.270659e+001 3.711990e+001 2.955379e-001 6.064839e-001 1.296031e+000 9.716561e-001 1.758708e+000 1.671722e+000 1.344569e+000 1.961296e+000 1.657150e+000 1.567931e+000 1.260115e+000 1.381557e+000 4.971784e-001 4.934127e-002 8.625542e-002 1.472714e-001 1.690906e-001 2.244779e-001 2.849522e-001 2.638938e-001 3.156047e-001 2.598063e-001 2.706927e-001 2.326578e-001 2.449664e-001 4.441829e-002
<GCONST> 9.709628e+001
<STATE> 4
<MEAN> 39
 -7.569398e+000 4.230319e+000 1.201809e+001 2.789572e+000 -1.509813e+001 -1.571312e+001 -2.648569e+000 -9.092304e+000 -8.621342e+000 -6.247815e+000 -2.435407e+000 2.604007e-001 6.522293e+001 -1.709275e-001 2.308641e-001 -1.904493e-001 1.301371e-001 5.899523e-001 5.710059e-001 2.256109e-001 8.306970e-002 -1.854969e-001 9.574401e-002 -8.668178e-002 -1.756949e-001 -8.811864e-001 -1.077682e-002 -4.648514e-002 -9.600390e-002 -1.998883e-002 6.507082e-002 2.189879e-002 -9.637251e-003 5.732936e-002 4.568704e-002 4.874352e-002 1.820102e-002 9.048540e-003 -2.157556e-002
<VARIANCE> 39
 1.053966e+001 4.166691e+001 3.889087e+001 1.978527e+001 8.072991e+001 7.180503e+001 2.514400e+001 4.068395e+001 5.839244e+001 3.512715e+001 3.021558e+001 3.232170e+001 4.506973e+001 2.697714e-001 6.685256e-001 1.427467e+000 9.556245e-001 1.756133e+000 1.639590e+000 1.506213e+000 2.016014e+000 1.647846e+000 1.588765e+000 1.295948e+000 1.351065e+000 3.887676e-001 4.590620e-002 9.385274e-002 1.432371e-001 1.645005e-001 2.347509e-001 3.019085e-001 3.082904e-001 3.289104e-001 2.577903e-001 2.638083e-001 2.383900e-001 2.376581e-001 4.144081e-002
<GCONST> 9.679226e+001
<TRANSP> 5
 0.000000e+000 1.000000e+000 0.000000e+000 0.000000e+000 0.000000e+000
 0.000000e+000 7.114978e-001 2.885022e-001 0.000000e+000 0.000000e+000
 0.000000e+000 0.000000e+000 7.114978e-001 2.885022e-001 0.000000e+000
 0.000000e+000 0.000000e+000 0.000000e+000 8.235975e-001 1.764025e-001
 0.000000e+000 0.000000e+000 0.000000e+000 0.000000e+000 0.000000e+000
<ENDHMM>
~h "eo"
<BEGINHMM>
<NUMSTATES> 5
<STATE> 2
<MEAN> 39
 -5.404736e+000 2.474264e+000 3.122554e-001 -4.394701e+000 -9.639411e+000 -8.753761e+000 -1.066005e+000 -4.766325e+000 -3.743578e+000 -1.938833e+000 -1.992863e+000 -4.559347e-003 6.495885e+001 2.450988e-002 1.302901e-002 1.918019e-002 3.316283e-003 -4.371658e-002 -7.306439e-002 -1.842394e-002 -2.444299e-002 -3.052467e-002 -2.393421e-002 -9.349622e-003 -1.425933e-002 -9.787142e-003 -5.396765e-003 4.690089e-003 -6.835332e-003 5.209368e-003 1.451201e-002 1.721763e-002 5.296492e-003 6.553777e-003 6.220506e-003 9.362569e-003 4.125166e-003 3.225525e-003 -2.743884e-002
<VARIANCE> 39
 3.864226e+001 5.281501e+001 7.391051e+001 8.135933e+001 7.677331e+001 9.463634e+001 5.724667e+001 6.897221e+001 6.326392e+001 4.839135e+001 3.680719e+001 3.395739e+001 8.727069e+001 1.372905e+000 1.793903e+000 1.710096e+000 2.409231e+000 2.706431e+000 2.777050e+000 2.585872e+000 2.606039e+000 2.707144e+000 2.455808e+000 2.104158e+000 1.735463e+000 2.419883e+000 1.985618e-001 2.764823e-001 2.480070e-001 3.283480e-001 3.897789e-001 4.118499e-001 4.453265e-001 4.204600e-001 4.511843e-001 4.197432e-001 3.712303e-001 3.108075e-001 2.378747e-001
<GCONST> 1.209395e+002
<STATE> 3
<MEAN> 39
 -5.404736e+000 2.474264e+000 3.122554e-001 -4.394701e+000 -9.639411e+000 -8.753761e+000 -1.066005e+000 -4.766325e+000 -3.743578e+000 -1.938833e+000 -1.992863e+000 -4.559347e-003 6.495885e+001 2.450988e-002 1.302901e-002 1.918019e-002 3.316283e-003 -4.371658e-002 -7.306439e-002 -1.842394e-002 -2.444299e-002 -3.052467e-002 -2.393421e-002 -9.349622e-003 -1.425933e-002 -9.787142e-003 -5.396765e-003 4.690089e-003 -6.835332e-003 5.209368e-003 1.451201e-002 1.721763e-002 5.296492e-003 6.553777e-003 6.220506e-003 9.362569e-003 4.125166e-003 3.225525e-003 -2.743884e-002
<VARIANCE> 39
 3.864226e+001 5.281501e+001 7.391051e+001 8.135933e+001 7.677331e+001 9.463634e+001 5.724667e+001 6.897221e+001 6.326392e+001 4.839135e+001 3.680719e+001 3.395739e+001 8.727069e+001 1.372905e+000 1.793903e+000 1.710096e+000 2.409231e+000 2.706431e+000 2.777050e+000 2.585872e+000 2.606039e+000 2.707144e+000 2.455808e+000 2.104158e+000 1.735463e+000 2.419883e+000 1.985618e-001 2.764823e-001 2.480070e-001 3.283480e-001 3.897789e-001 4.118499e-001 4.453265e-001 4.204600e-001 4.511843e-001 4.197432e-001 3.712303e-001 3.108075e-001 2.378747e-001
<GCONST> 1.209395e+002
<STATE> 4
<MEAN> 39
 -5.404736e+000 2.474264e+000 3.122554e-001 -4.394701e+000 -9.639411e+000 -8.753761e+000 -1.066005e+000 -4.766325e+000 -3.743578e+000 -1.938833e+000 -1.992863e+000 -4.559347e-003 6.495885e+001 2.450988e-002 1.302901e-002 1.918019e-002 3.316283e-003 -4.371658e-002 -7.306439e-002 -1.842394e-002 -2.444299e-002 -3.052467e-002 -2.393421e-002 -9.349622e-003 -1.425933e-002 -9.787142e-003 -5.396765e-003 4.690089e-003 -6.835332e-003 5.209368e-003 1.451201e-002 1.721763e-002 5.296492e-003 6.553777e-003 6.220506e-003 9.362569e-003 4.125166e-003 3.225525e-003 -2.743884e-002
<VARIANCE> 39
 3.864226e+001 5.281501e+001 7.391051e+001 8.135933e+001 7.677331e+001 9.463634e+001 5.724667e+001 6.897221e+001 6.326392e+001 4.839135e+001 3.680719e+001 3.395739e+001 8.727069e+001 1.372905e+000 1.793903e+000 1.710096e+000 2.409231e+000 2.706431e+000 2.777050e+000 2.585872e+000 2.606039e+000 2.707144e+000 2.455808e+000 2.104158e+000 1.735463e+000 2.419883e+000 1.985618e-001 2.764823e-001 2.480070e-001 3.283480e-001 3.897789e-001 4.118499e-001 4.453265e-001 4.204600e-001 4.511843e-001 4.197432e-001 3.712303e-001 3.108075e-001 2.378747e-001
<GCONST> 1.209395e+002
<TRANSP> 5
 0.000000e+000 1.000000e+000 0.000000e+000 0.000000e+000 0.000000e+000
 0.000000e+000 6.000000e-001 4.000000e-001 0.000000e+000 0.000000e+000
 0.000000e+000 0.000000e+000 6.000000e-001 4.000000e-001 0.000000e+000
 0.000000e+000 0.000000e+000 0.000000e+000 7.000000e-001 3.000000e-001
 0.000000e+000 0.000000e+000 0.000000e+000 0.000000e+000 0.000000e+000
<ENDHMM>
~h "eu"
<BEGINHMM>
<NUMSTATES> 5
<STATE> 2
<MEAN> 39
 -5.404736e+000 2.474264e+000 3.122554e-001 -4.394701e+000 -9.639411e+000 -8.753761e+000 -1.066005e+000 -4.766325e+000 -3.743578e+000 -1.938833e+000 -1.992863e+000 -4.559347e-003 6.495885e+001 2.450988e-002 1.302901e-002 1.918019e-002 3.316283e-003 -4.371658e-002 -7.306439e-002 -1.842394e-002 -2.444299e-002 -3.052467e-002 -2.393421e-002 -9.349622e-003 -1.425933e-002 -9.787142e-003 -5.396765e-003 4.690089e-003 -6.835332e-003 5.209368e-003 1.451201e-002 1.721763e-002 5.296492e-003 6.553777e-003 6.220506e-003 9.362569e-003 4.125166e-003 3.225525e-003 -2.743884e-002
<VARIANCE> 39
 3.864226e+001 5.281501e+001 7.391051e+001 8.135933e+001 7.677331e+001 9.463634e+001 5.724667e+001 6.897221e+001 6.326392e+001 4.839135e+001 3.680719e+001 3.395739e+001 8.727069e+001 1.372905e+000 1.793903e+000 1.710096e+000 2.409231e+000 2.706431e+000 2.777050e+000 2.585872e+000 2.606039e+000 2.707144e+000 2.455808e+000 2.104158e+000 1.735463e+000 2.419883e+000 1.985618e-001 2.764823e-001 2.480070e-001 3.283480e-001 3.897789e-001 4.118499e-001 4.453265e-001 4.204600e-001 4.511843e-001 4.197432e-001 3.712303e-001 3.108075e-001 2.378747e-001
<GCONST> 1.209395e+002
<STATE> 3
<MEAN> 39
 -5.404736e+000 2.474264e+000 3.122554e-001 -4.394701e+000 -9.639411e+000 -8.753761e+000 -1.066005e+000 -4.766325e+000 -3.743578e+000 -1.938833e+000 -1.992863e+000 -4.559347e-003 6.495885e+001 2.450988e-002 1.302901e-002 1.918019e-002 3.316283e-003 -4.371658e-002 -7.306439e-002 -1.842394e-002 -2.444299e-002 -3.052467e-002 -2.393421e-002 -9.349622e-003 -1.425933e-002 -9.787142e-003 -5.396765e-003 4.690089e-003 -6.835332e-003 5.209368e-003 1.451201e-002 1.721763e-002 5.296492e-003 6.553777e-003 6.220506e-003 9.362569e-003 4.125166e-003 3.225525e-003 -2.743884e-002
<VARIANCE> 39
 3.864226e+001 5.281501e+001 7.391051e+001 8.135933e+001 7.677331e+001 9.463634e+001 5.724667e+001 6.897221e+001 6.326392e+001 4.839135e+001 3.680719e+001 3.395739e+001 8.727069e+001 1.372905e+000 1.793903e+000 1.710096e+000 2.409231e+000 2.706431e+000 2.777050e+000 2.585872e+000 2.606039e+000 2.707144e+000 2.455808e+000 2.104158e+000 1.735463e+000 2.419883e+000 1.985618e-001 2.764823e-001 2.480070e-001 3.283480e-001 3.897789e-001 4.118499e-001 4.453265e-001 4.204600e-001 4.511843e-001 4.197432e-001 3.712303e-001 3.108075e-001 2.378747e-001
<GCONST> 1.209395e+002
<STATE> 4
<MEAN> 39
 -5.404736e+000 2.474264e+000 3.122554e-001 -4.394701e+000 -9.639411e+000 -8.753761e+000 -1.066005e+000 -4.766325e+000 -3.743578e+000 -1.938833e+000 -1.992863e+000 -4.559347e-003 6.495885e+001 2.450988e-002 1.302901e-002 1.918019e-002 3.316283e-003 -4.371658e-002 -7.306439e-002 -1.842394e-002 -2.444299e-002 -3.052467e-002 -2.393421e-002 -9.349622e-003 -1.425933e-002 -9.787142e-003 -5.396765e-003 4.690089e-003 -6.835332e-003 5.209368e-003 1.451201e-002 1.721763e-002 5.296492e-003 6.553777e-003 6.220506e-003 9.362569e-003 4.125166e-003 3.225525e-003 -2.743884e-002
<VARIANCE> 39
 3.864226e+001 5.281501e+001 7.391051e+001 8.135933e+001 7.677331e+001 9.463634e+001 5.724667e+001 6.897221e+001 6.326392e+001 4.839135e+001 3.680719e+001 3.395739e+001 8.727069e+001 1.372905e+000 1.793903e+000 1.710096e+000 2.409231e+000 2.706431e+000 2.777050e+000 2.585872e+000 2.606039e+000 2.707144e+000 2.455808e+000 2.104158e+000 1.735463e+000 2.419883e+000 1.985618e-001 2.764823e-001 2.480070e-001 3.283480e-001 3.897789e-001 4.118499e-001 4.453265e-001 4.204600e-001 4.511843e-001 4.197432e-001 3.712303e-001 3.108075e-001 2.378747e-001
<GCONST> 1.209395e+002
<TRANSP> 5
 0.000000e+000 1.000000e+000 0.000000e+000 0.000000e+000 0.000000e+000
 0.000000e+000 6.000000e-001 4.000000e-001 0.000000e+000 0.000000e+000
 0.000000e+000 0.000000e+000 6.000000e-001 4.000000e-001 0.000000e+000
 0.000000e+000 0.000000e+000 0.000000e+000 7.000000e-001 3.000000e-001
 0.000000e+000 0.000000e+000 0.000000e+000 0.000000e+000 0.000000e+000
<ENDHMM>
~h "i:"
<BEGINHMM>
<NUMSTATES> 5
<STATE> 2
<MEAN> 39
 -9.318427e+000 7.799500e+000 1.617843e+001 2.307016e+000 -1.230005e+001 -1.291857e+001 1.082585e-001 -1.061097e+001 -1.012475e+001 -5.567264e+000 -3.101310e+000 -1.007174e+000 6.732018e+001 -2.408018e-002 2.137241e-001 -6.335382e-002 1.124722e-001 2.555966e-001 1.164268e-001 1.105298e-001 4.225127e-002 8.418214e-002 5.918489e-002 9.476867e-002 -9.144809e-002 -3.639832e-001 -2.852990e-002 -2.402696e-002 -5.672475e-002 -1.170024e-002 4.564656e-002 3.353989e-002 7.287090e-003 1.988711e-002 1.587922e-002 4.110892e-003 -8.273901e-003 -1.580321e-003 -3.654734e-002
<VARIANCE> 39
 1.423590e+001 3.104815e+001 4.809509e+001 1.760361e+001 5.769030e+001 5.874851e+001 2.689930e+001 4.395293e+001 3.964838e+001 2.335359e+001 2.561453e+001 2.890431e+001 2.867530e+001 4.620731e-001 6.474872e-001 9.802096e-001 7.595546e-001 1.378868e+000 1.589797e+000 1.218319e+000 1.494713e+000 1.361772e+000 1.345037e+000 1.270576e+000 9.966699e-001 4.200815e-001 7.761046e-002 1.071159e-001 1.455963e-001 1.319456e-001 2.017307e-001 2.422686e-001 2.144906e-001 2.386850e-001 2.544472e-001 2.507738e-001 2.326825e-001 1.933380e-001 3.448429e-002
<GCONST> 9.241064e+001
<STATE> 3
<MEAN> 39
 -9.548199e+000 8.464922e+000 1.565300e+001 2.719661e+000 -1.109484e+001 -1.231358e+001 5.096759e-001 -1.039407e+001 -9.781909e+000 -5.388269e+000 -2.850498e+000 -1.348883e+000 6.581702e+001 -9.569771e-002 1.126072e-001 -2.658267e-001 8.037131e-002 3.896340e-001 2.240283e-001 1.358729e-001 8.242125e-002 1.145641e-001 5.645533e-002 5.160011e-002 -8.061433e-002 -4.895952e-001 -1.614877e-002 -3.794909e-002 -5.886350e-002 -9.022389e-003 2.919274e-002 3.096648e-002 5.839278e-003 1.168515e-002 8.906849e-003 6.332172e-004 -1.068043e-002 8.838853e-003 -3.416155e-002
<VARIANCE> 39
