~o
<STREAMINFO> 1 39
<VECSIZE> 39<NULLD><MFCC_D_A_0><DIAGC>
~s "silst"
<MEAN> 39
 -1.068282e+001 -9.705751e-001 -3.376583e+000 -3.099976e+000 -4.321912e+000 -4.258305e+000 -1.264076e+000 -1.628899e+000 -1.081973e-001 -5.246357e-001 -3.659681e-001 -3.627152e-001 5.966402e+001 2.673462e-002 -7.545556e-001 -5.853812e-001 -9.760171e-001 -7.407694e-001 -1.250094e-001 1.255507e-001 -2.736154e-001 1.811752e-003 -1.975069e-001 -8.700560e-002 -1.732298e-001 1.733773e+000 1.796991e-001 2.702373e-001 1.336171e-001 -5.591526e-002 -3.037651e-002 9.275391e-002 1.227818e-001 -9.749177e-002 -7.903599e-002 -4.592676e-002 -1.348267e-001 -3.166834e-002 1.009285e-002
<VARIANCE> 39
 1.783280e+001 3.842108e+001 3.369191e+001 3.863210e+001 4.867838e+001 6.025365e+001 4.706697e+001 3.555889e+001 4.024296e+001 3.213469e+001 2.527949e+001 2.296321e+001 6.751820e+001 2.045269e+000 3.359791e+000 2.831316e+000 3.229271e+000 4.141550e+000 3.730112e+000 3.291345e+000 3.272860e+000 3.032097e+000 2.784593e+000 2.597734e+000 1.936545e+000 5.254266e+000 3.487146e-001 5.956134e-001 4.585345e-001 6.183993e-001 7.437652e-001 6.199573e-001 6.825376e-001 6.278464e-001 6.149468e-001 5.352909e-001 4.708487e-001 3.810690e-001 1.072436e+000
<GCONST> 1.259760e+002
~h "N"
<BEGINHMM>
<NUMSTATES> 5
<STATE> 2
<MEAN> 39
 -4.153368e+000 1.517201e+000 -1.392376e+000 -5.586075e+000 -9.740211e+000 -8.098919e+000 -1.750134e+000 -4.930145e+000 -2.772430e+000 -2.149349e+000 -2.414108e+000 -1.465052e+000 6.529731e+001 2.300143e-002 1.509052e-002 1.401225e-002 6.290563e-003 -3.631655e-002 -5.298270e-002 -8.996384e-003 -1.725104e-002 -1.659047e-002 -1.542300e-002 -5.569575e-003 -1.004327e-002 -8.028411e-003 -5.385407e-003 7.687603e-003 -2.053345e-003 6.118431e-003 1.287798e-002 1.362365e-002 3.170662e-003 3.442815e-003 5.190067e-003 6.678457e-003 2.682982e-003 3.156542e-003 -2.769514e-002
<VARIANCE> 39
 3.821798e+001 5.290487e+001 6.815633e+001 7.505674e+001 8.069884e+001 9.922321e+001 5.842557e+001 6.155072e+001 5.897418e+001 4.395738e+001 3.820277e+001 3.717608e+001 7.774931e+001 1.322284e+000 1.757013e+000 1.593217e+000 2.179628e+000 2.557859e+000 2.732429e+000 2.388217e+000 2.481541e+000 2.572205e+000 2.280620e+000 2.045945e+000 1.732367e+000 2.160362e+000 1.858594e-001 2.637878e-001 2.274865e-001 3.046213e-001 3.726168e-001 3.977455e-001 4.053145e-001 4.021849e-001 4.302129e-001 3.929369e-001 3.596961e-001 3.057646e-001 2.198328e-001
<GCONST> 1.191859e+002
<STATE> 3
<MEAN> 39
 -4.153368e+000 1.517201e+000 -1.392376e+000 -5.586075e+000 -9.740211e+000 -8.098919e+000 -1.750134e+000 -4.930145e+000 -2.772430e+000 -2.149349e+000 -2.414108e+000 -1.465052e+000 6.529731e+001 2.300143e-002 1.509052e-002 1.401225e-002 6.290563e-003 -3.631655e-002 -5.298270e-002 -8.996384e-003 -1.725104e-002 -1.659047e-002 -1.542300e-002 -5.569575e-003 -1.004327e-002 -8.028411e-003 -5.385407e-003 7.687603e-003 -2.053345e-003 6.118431e-003 1.287798e-002 1.362365e-002 3.170662e-003 3.442815e-003 5.190067e-003 6.678457e-003 2.682982e-003 3.156542e-003 -2.769514e-002
<VARIANCE> 39
 3.821798e+001 5.290487e+001 6.815633e+001 7.505674e+001 8.069884e+001 9.922321e+001 5.842557e+001 6.155072e+001 5.897418e+001 4.395738e+001 3.820277e+001 3.717608e+001 7.774931e+001 1.322284e+000 1.757013e+000 1.593217e+000 2.179628e+000 2.557859e+000 2.732429e+000 2.388217e+000 2.481541e+000 2.572205e+000 2.280620e+000 2.045945e+000 1.732367e+000 2.160362e+000 1.858594e-001 2.637878e-001 2.274865e-001 3.046213e-001 3.726168e-001 3.977455e-001 4.053145e-001 4.021849e-001 4.302129e-001 3.929369e-001 3.596961e-001 3.057646e-001 2.198328e-001
<GCONST> 1.191859e+002
<STATE> 4
<MEAN> 39
 -4.153368e+000 1.517201e+000 -1.392376e+000 -5.586075e+000 -9.740211e+000 -8.098919e+000 -1.750134e+000 -4.930145e+000 -2.772430e+000 -2.149349e+000 -2.414108e+000 -1.465052e+000 6.529731e+001 2.300143e-002 1.509052e-002 1.401225e-002 6.290563e-003 -3.631655e-002 -5.298270e-002 -8.996384e-003 -1.725104e-002 -1.659047e-002 -1.542300e-002 -5.569575e-003 -1.004327e-002 -8.028411e-003 -5.385407e-003 7.687603e-003 -2.053345e-003 6.118431e-003 1.287798e-002 1.362365e-002 3.170662e-003 3.442815e-003 5.190067e-003 6.678457e-003 2.682982e-003 3.156542e-003 -2.769514e-002
<VARIANCE> 39
 3.821798e+001 5.290487e+001 6.815633e+001 7.505674e+001 8.069884e+001 9.922321e+001 5.842557e+001 6.155072e+001 5.897418e+001 4.395738e+001 3.820277e+001 3.717608e+001 7.774931e+001 1.322284e+000 1.757013e+000 1.593217e+000 2.179628e+000 2.557859e+000 2.732429e+000 2.388217e+000 2.481541e+000 2.572205e+000 2.280620e+000 2.045945e+000 1.732367e+000 2.160362e+000 1.858594e-001 2.637878e-001 2.274865e-001 3.046213e-001 3.726168e-001 3.977455e-001 4.053145e-001 4.021849e-001 4.302129e-001 3.929369e-001 3.596961e-001 3.057646e-001 2.198328e-001
<GCONST> 1.191859e+002
<TRANSP> 5
 0.000000e+000 1.000000e+000 0.000000e+000 0.000000e+000 0.000000e+000
 0.000000e+000 6.000000e-001 4.000000e-001 0.000000e+000 0.000000e+000
 0.000000e+000 0.000000e+000 6.000000e-001 4.000000e-001 0.000000e+000
 0.000000e+000 0.000000e+000 0.000000e+000 7.000000e-001 3.000000e-001
 0.000000e+000 0.000000e+000 0.000000e+000 0.000000e+000 0.000000e+000
<ENDHMM>
~h "a"
<BEGINHMM>
<NUMSTATES> 5
<STATE> 2
<MEAN> 39
 6.085616e-001 -5.191999e+000 -9.437255e+000 -1.057566e+001 -5.702477e+000 -4.019006e+000 -1.234005e+000 -6.630848e+000 3.356720e+000 6.457133e+000 -5.662275e+000 -6.635822e+000 7.296390e+001 -6.628634e-001 1.328946e+000 1.083720e+000 2.023857e+000 5.654656e-001 -1.623907e+000 -1.604169e+000 9.292693e-001 1.017506e+000 4.599939e-001 1.228597e+000 -1.829294e-001 -1.462620e+000 -1.688882e-001 7.634481e-001 3.143226e-001 1.015376e-001 -7.684505e-003 1.268286e-001 8.894990e-002 1.898422e-001 -5.191343e-001 -6.844902e-001 2.123140e-001 1.600923e-001 -9.647434e-001
<VARIANCE> 39
 8.065991e+000 2.232318e+001 4.214133e+001 5.184521e+001 5.757456e+001 6.087693e+001 4.677056e+001 3.424057e+001 2.538599e+001 1.989580e+001 6.624226e+001 5.240412e+001 1.966224e+001 6.796304e-001 2.034283e+000 1.260751e+000 2.146620e+000 2.062256e+000 2.158794e+000 3.026232e+000 1.935146e+000 3.456609e+000 2.250739e+000 2.399364e+000 3.108064e+000 1.916177e+000 1.195584e-001 4.734434e-001 3.056655e-001 7.121316e-001 5.521052e-001 7.518449e-001 5.722837e-001 3.052846e-001 6.656518e-001 3.486102e-001 6.100697e-001 4.574934e-001 2.267862e-001
<GCONST> 1.155065e+002
<STATE> 3
<MEAN> 39
 -2.971088e+000 -1.518561e-001 -6.813020e+000 -7.661026e+000 -3.938484e+000 -6.503468e+000 -3.864649e+000 -4.416379e+000 2.685748e+000 4.746197e+000 -6.359059e-001 -5.584252e+000 6.363630e+001 -8.818043e-001 2.999903e-001 4.283099e-001 1.593547e-001 2.560607e-001 2.399512e-001 -2.100395e-002 7.937074e-001 -2.420933e-001 -3.337865e-001 5.056080e-001 1.347234e-001 -2.299698e+000 1.423588e-002 -2.715917e-001 -2.773837e-001 -2.830576e-001 -8.320519e-002 2.603382e-001 1.522909e-001 -7.475249e-002 -1.224131e-001 -9.009604e-002 -1.212745e-001 1.114734e-001 2.411082e-001
<VARIANCE> 39
 1.149858e+001 1.276288e+001 3.288487e+001 2.160011e+001 3.988749e+001 2.628645e+001 2.565393e+001 2.688010e+001 2.482557e+001 2.222317e+001 3.733572e+001 3.944812e+001 2.491981e+001 6.972598e-001 1.283887e+000 1.720119e+000 1.877302e+000 2.198812e+000 2.664321e+000 2.559938e+000 2.030275e+000 2.304154e+000 1.332185e+000 1.687041e+000 1.192383e+000 1.600006e+000 1.252062e-001 1.981442e-001 2.599313e-001 4.922904e-001 3.522138e-001 4.224105e-001 5.386638e-001 3.732469e-001 4.931284e-001 3.016053e-001 2.862115e-001 3.567401e-001 1.957624e-001
<GCONST> 1.052342e+002
<STATE> 4
<MEAN> 39
 -7.621113e+000 1.244979e+000 -5.967076e+000 -5.869622e+000 -2.591798e+000 -2.463594e+000 -2.038615e+000 -1.910578e+000 8.919113e-001 1.631750e+000 -7.026618e-001 -3.671544e+000 5.764181e+001 -9.116215e-001 5.461376e-002 2.160397e-001 9.798609e-003 1.562115e-001 3.241453e-001 5.501079e-002 1.397395e-001 -1.622889e-001 -5.789500e-001 2.605873e-001 7.102189e-001 -4.497609e-001 -1.500408e-001 -1.323848e-001 1.146883e-001 -1.184104e-001 -1.577056e-001 -8.652313e-003 -3.672293e-002 -1.303478e-001 8.122402e-002 -7.808685e-002 -8.825254e-002 2.361479e-002 5.007856e-001
<VARIANCE> 39
 1.368572e+001 1.060063e+001 1.577864e+001 1.364482e+001 1.759756e+001 1.822452e+001 1.948200e+001 1.521397e+001 2.492189e+001 2.221498e+001 1.563074e+001 1.699424e+001 2.312752e+001 8.405744e-001 1.091358e+000 1.481810e+000 1.453894e+000 1.080892e+000 1.727865e+000 1.838185e+000 1.570628e+000 1.800228e+000 1.474872e+000 1.356946e+000 1.255064e+000 1.643170e+000 1.942654e-001 2.568892e-001 3.457195e-001 2.185206e-001 2.783719e-001 3.348976e-001 4.063566e-001 3.912706e-001 3.817064e-001 2.958423e-001 2.724708e-001 2.239380e-001 2.375617e-001
<GCONST> 9.669292e+001
<TRANSP> 5
 0.000000e+000 1.000000e+000 0.000000e+000 0.000000e+000 0.000000e+000
 0.000000e+000 6.367440e-001 3.632559e-001 0.000000e+000 0.000000e+000
 0.000000e+000 0.000000e+000 7.618614e-001 2.381386e-001 0.000000e+000
 0.000000e+000 0.000000e+000 0.000000e+000 8.249949e-001 1.750050e-001
 0.000000e+000 0.000000e+000 0.000000e+000 0.000000e+000 0.000000e+000
<ENDHMM>
~h "e"
<BEGINHMM>
<NUMSTATES> 5
<STATE> 2
<MEAN> 39
 -5.924299e+000 2.359869e+000 2.530931e+000 2.105093e+000 -1.187008e+001 -1.214897e+001 -4.160357e+000 -2.803643e+000 -2.474097e+000 -1.559978e+000 -1.443020e+000 -7.819865e-001 6.279942e+001 -2.226914e-001 -1.785325e-001 1.247449e-001 1.474911e-001 -3.520711e-001 1.211873e-001 3.889324e-001 6.249929e-001 1.511483e-001 5.903236e-002 -1.021064e-001 1.090187e-001 -2.584617e-001 7.734276e-003 -8.549405e-002 -8.988567e-002 -1.139425e-001 1.016468e-001 1.223541e-001 -1.045857e-002 -5.220374e-002 -2.532092e-003 -4.987724e-002 1.472988e-001 3.775088e-002 -3.170279e-005
<VARIANCE> 39
 2.044044e+001 2.525487e+001 4.778814e+001 3.989740e+001 5.288170e+001 6.432504e+001 4.561320e+001 4.332477e+001 5.764840e+001 2.349725e+001 3.792341e+001 3.138005e+001 3.932969e+001 1.402249e+000 1.257180e+000 2.352905e+000 1.788378e+000 3.596652e+000 2.936574e+000 3.115716e+000 2.137326e+000 3.311492e+000 2.583074e+000 2.191362e+000 1.528540e+000 2.091316e+000 2.616858e-001 2.670497e-001 3.938676e-001 3.550425e-001 6.443792e-001 5.614225e-001 5.554582e-001 4.456840e-001 7.830569e-001 3.123205e-001 3.683273e-001 4.503697e-001 3.411936e-001
<GCONST> 1.181918e+002
<STATE> 3
<MEAN> 39
 -5.454833e+000 1.472929e+000 7.211580e+000 1.897337e+000 -1.618372e+001 -1.380799e+001 -5.757125e+000 -6.585469e-001 3.063634e-001 -2.625060e+000 -1.581906e+000 1.747371e+000 6.472356e+001 -1.222116e-001 1.273688e-001 -2.448068e-001 2.512779e-001 5.387281e-001 2.951359e-001 5.098196e-001 1.270924e-001 -2.582407e-001 1.549723e-001 4.357989e-001 -1.845247e-001 -9.856018e-001 -4.609741e-002 -3.214414e-002 -1.972605e-001 7.388210e-002 5.679608e-001 2.690606e-001 1.292379e-001 -2.548630e-001 -3.102129e-003 6.122534e-002 2.751433e-003 -6.637064e-002 -2.373406e-001
<VARIANCE> 39
 1.384950e+001 1.957709e+001 6.038918e+001 3.551149e+001 5.808453e+001 6.158381e+001 7.500469e+001 5.277277e+001 4.466109e+001 2.825564e+001 4.485022e+001 4.202020e+001 2.543682e+001 4.391104e-001 8.539121e-001 1.104263e+000 1.503156e+000 2.785411e+000 4.869363e+000 1.832746e+000 2.606900e+000 1.498839e+000 1.654206e+000 1.852967e+000 1.964895e+000 1.141671e+000 9.787536e-002 1.852274e-001 2.800892e-001 2.789935e-001 4.624904e-001 6.339850e-001 5.588268e-001 4.226851e-001 4.078506e-001 3.737472e-001 3.843203e-001 4.255638e-001 1.417953e-001
<GCONST> 1.104899e+002
<STATE> 4
<MEAN> 39
 -7.624626e+000 -5.266257e-001 2.047219e+000 2.176670e+000 -1.125772e+001 -1.087807e+001 2.970801e+000 6.461416e-001 6.499720e-001 -1.973954e+000 -2.418169e+000 -1.642100e+000 6.070059e+001 -2.177520e-001 -2.672807e-001 -4.562761e-001 -2.218752e-001 8.094551e-001 5.268104e-001 7.011907e-002 3.434021e-002 2.043201e-001 3.108047e-001 1.186991e-001 3.196796e-002 -7.168207e-001 -1.203647e-002 -1.644189e-002 -6.198109e-002 -7.644951e-002 1.026394e-001 5.193564e-002 -1.035802e-001 -2.547009e-002 2.105650e-002 9.915462e-003 -4.231871e-002 -5.195380e-003 2.704362e-003
<VARIANCE> 39
 1.415550e+001 1.973233e+001 3.105659e+001 3.509836e+001 6.138315e+001 4.991961e+001 5.366180e+001 3.364108e+001 2.772911e+001 2.647967e+001 4.340619e+001 2.880330e+001 3.753600e+001 3.290787e-001 6.874359e-001 8.313798e-001 1.201214e+000 1.747349e+000 2.041153e+000 1.735546e+000 1.746686e+000 1.839697e+000 1.293718e+000 1.744612e+000 1.219165e+000 4.193836e-001 3.960850e-002 9.243985e-002 1.355632e-001 1.649666e-001 2.801380e-001 3.126527e-001 2.789966e-001 2.971804e-001 3.317055e-001 2.247804e-001 3.209187e-001 2.192404e-001 4.119172e-002
<GCONST> 9.605554e+001
<TRANSP> 5
 0.000000e+000 1.000000e+000 0.000000e+000 0.000000e+000 0.000000e+000
 0.000000e+000 4.886262e-001 5.113738e-001 0.000000e+000 0.000000e+000
 0.000000e+000 0.000000e+000 3.918392e-001 6.081607e-001 0.000000e+000
 0.000000e+000 0.000000e+000 0.000000e+000 8.051165e-001 1.948835e-001
 0.000000e+000 0.000000e+000 0.000000e+000 0.000000e+000 0.000000e+000
<ENDHMM>
~h "f"
<BEGINHMM>
<NUMSTATES> 5
<STATE> 2
<MEAN> 39
 -4.153368e+000 1.517201e+000 -1.392376e+000 -5.586075e+000 -9.740211e+000 -8.098919e+000 -1.750134e+000 -4.930145e+000 -2.772430e+000 -2.149349e+000 -2.414108e+000 -1.465052e+000 6.529731e+001 2.300143e-002 1.509052e-002 1.401225e-002 6.290563e-003 -3.631655e-002 -5.298270e-002 -8.996384e-003 -1.725104e-002 -1.659047e-002 -1.542300e-002 -5.569575e-003 -1.004327e-002 -8.028411e-003 -5.385407e-003 7.687603e-003 -2.053345e-003 6.118431e-003 1.287798e-002 1.362365e-002 3.170662e-003 3.442815e-003 5.190067e-003 6.678457e-003 2.682982e-003 3.156542e-003 -2.769514e-002
<VARIANCE> 39
 3.821798e+001 5.290487e+001 6.815633e+001 7.505674e+001 8.069884e+001 9.922321e+001 5.842557e+001 6.155072e+001 5.897418e+001 4.395738e+001 3.820277e+001 3.717608e+001 7.774931e+001 1.322284e+000 1.757013e+000 1.593217e+000 2.179628e+000 2.557859e+000 2.732429e+000 2.388217e+000 2.481541e+000 2.572205e+000 2.280620e+000 2.045945e+000 1.732367e+000 2.160362e+000 1.858594e-001 2.637878e-001 2.274865e-001 3.046213e-001 3.726168e-001 3.977455e-001 4.053145e-001 4.021849e-001 4.302129e-001 3.929369e-001 3.596961e-001 3.057646e-001 2.198328e-001
<GCONST> 1.191859e+002
<STATE> 3
<MEAN> 39
 -4.153368e+000 1.517201e+000 -1.392376e+000 -5.586075e+000 -9.740211e+000 -8.098919e+000 -1.750134e+000 -4.930145e+000 -2.772430e+000 -2.149349e+000 -2.414108e+000 -1.465052e+000 6.529731e+001 2.300143e-002 1.509052e-002 1.401225e-002 6.290563e-003 -3.631655e-002 -5.298270e-002 -8.996384e-003 -1.725104e-002 -1.659047e-002 -1.542300e-002 -5.569575e-003 -1.004327e-002 -8.028411e-003 -5.385407e-003 7.687603e-003 -2.053345e-003 6.118431e-003 1.287798e-002 1.362365e-002 3.170662e-003 3.442815e-003 5.190067e-003 6.678457e-003 2.682982e-003 3.156542e-003 -2.769514e-002
<VARIANCE> 39
 3.821798e+001 5.290487e+001 6.815633e+001 7.505674e+001 8.069884e+001 9.922321e+001 5.842557e+001 6.155072e+001 5.897418e+001 4.395738e+001 3.820277e+001 3.717608e+001 7.774931e+001 1.322284e+000 1.757013e+000 1.593217e+000 2.179628e+000 2.557859e+000 2.732429e+000 2.388217e+000 2.481541e+000 2.572205e+000 2.280620e+000 2.045945e+000 1.732367e+000 2.160362e+000 1.858594e-001 2.637878e-001 2.274865e-001 3.046213e-001 3.726168e-001 3.977455e-001 4.053145e-001 4.021849e-001 4.302129e-001 3.929369e-001 3.596961e-001 3.057646e-001 2.198328e-001
<GCONST> 1.191859e+002
<STATE> 4
<MEAN> 39
 -4.153368e+000 1.517201e+000 -1.392376e+000 -5.586075e+000 -9.740211e+000 -8.098919e+000 -1.750134e+000 -4.930145e+000 -2.772430e+000 -2.149349e+000 -2.414108e+000 -1.465052e+000 6.529731e+001 2.300143e-002 1.509052e-002 1.401225e-002 6.290563e-003 -3.631655e-002 -5.298270e-002 -8.996384e-003 -1.725104e-002 -1.659047e-002 -1.542300e-002 -5.569575e-003 -1.004327e-002 -8.028411e-003 -5.385407e-003 7.687603e-003 -2.053345e-003 6.118431e-003 1.287798e-002 1.362365e-002 3.170662e-003 3.442815e-003 5.190067e-003 6.678457e-003 2.682982e-003 3.156542e-003 -2.769514e-002
<VARIANCE> 39
 3.821798e+001 5.290487e+001 6.815633e+001 7.505674e+001 8.069884e+001 9.922321e+001 5.842557e+001 6.155072e+001 5.897418e+001 4.395738e+001 3.820277e+001 3.717608e+001 7.774931e+001 1.322284e+000 1.757013e+000 1.593217e+000 2.179628e+000 2.557859e+000 2.732429e+000 2.388217e+000 2.481541e+000 2.572205e+000 2.280620e+000 2.045945e+000 1.732367e+000 2.160362e+000 1.858594e-001 2.637878e-001 2.274865e-001 3.046213e-001 3.726168e-001 3.977455e-001 4.053145e-001 4.021849e-001 4.302129e-001 3.929369e-001 3.596961e-001 3.057646e-001 2.198328e-001
<GCONST> 1.191859e+002
<TRANSP> 5
 0.000000e+000 1.000000e+000 0.000000e+000 0.000000e+000 0.000000e+000
 0.000000e+000 6.000000e-001 4.000000e-001 0.000000e+000 0.000000e+000
 0.000000e+000 0.000000e+000 6.000000e-001 4.000000e-001 0.000000e+000
 0.000000e+000 0.000000e+000 0.000000e+000 7.000000e-001 3.000000e-001
 0.000000e+000 0.000000e+000 0.000000e+000 0.000000e+000 0.000000e+000
<ENDHMM>
~h "h"
<BEGINHMM>
<NUMSTATES> 5
<STATE> 2
<MEAN> 39
 -8.333195e+000 2.119997e-001 -3.721659e+000 -1.023819e+001 -8.195066e+000 -3.670326e+000 4.641384e+000 -1.226637e+000 6.909598e-001 -9.858636e-001 -2.850221e+000 -1.401250e+000 6.539001e+001 1.612140e+000 1.573414e+000 9.263040e-001 -1.796061e-002 -1.456603e+000 -1.252672e+000 -5.407233e-001 -9.541019e-001 -7.444468e-001 -6.133071e-001 -6.933373e-001 -3.427818e-001 1.377581e+000 3.100097e-001 -5.772378e-002 -2.782842e-003 -3.345718e-002 -2.927610e-001 -3.150163e-001 -3.087112e-001 -1.507735e-001 -8.999395e-002 3.891794e-003 1.130926e-001 1.662918e-001 1.424053e-001
<VARIANCE> 39
 3.638585e+001 6.287817e+001 6.683722e+001 8.917080e+001 6.950962e+001 6.634925e+001 4.622709e+001 5.689724e+001 5.213911e+001 3.018962e+001 3.324085e+001 3.317921e+001 2.623748e+001 2.541236e+000 1.875543e+000 1.899692e+000 3.129190e+000 3.631327e+000 2.999755e+000 2.446091e+000 3.522583e+000 2.999442e+000 1.981905e+000 2.262139e+000 1.968444e+000 1.276001e+000 3.342287e-001 6.184786e-001 4.120656e-001 4.315102e-001 5.253947e-001 4.925717e-001 3.999791e-001 6.238450e-001 4.893616e-001 3.698750e-001 4.447124e-001 4.097630e-001 1.681924e-001
<GCONST> 1.222187e+002
<STATE> 3
<MEAN> 39
 3.219756e-001 2.742918e+000 -2.519581e+000 -1.086157e+001 -1.680502e+001 -1.195873e+001 -1.508027e+000 -5.193758e+000 -3.210819e+000 -3.193984e+000 -4.929732e+000 -2.048444e+000 7.210907e+001 7.432369e-001 -8.805941e-001 -3.336378e-001 -6.610764e-001 -1.305979e+000 -9.553418e-001 -1.150119e+000 -7.053735e-001 -4.734924e-001 -8.486083e-002 5.116084e-001 7.492557e-001 1.163545e+000 -5.980116e-001 -3.558029e-001 -1.525454e-001 9.959763e-002 5.702164e-001 5.634897e-001 1.844344e-001 7.375322e-002 6.883946e-002 1.541891e-001 3.677392e-001 1.947723e-001 -3.685573e-001
<VARIANCE> 39
 2.296291e+001 6.503510e+001 7.242422e+001 7.176949e+001 5.357619e+001 7.422855e+001 4.075435e+001 4.504714e+001 5.127974e+001 3.003029e+001 3.307990e+001 3.743067e+001 2.850303e+001 1.218897e+000 2.826060e+000 1.670142e+000 2.300752e+000 3.879109e+000 3.474224e+000 4.461802e+000 3.075070e+000 2.897858e+000 1.840026e+000 2.173000e+000 2.292820e+000 2.051467e+000 2.344187e-001 6.074432e-001 3.104458e-001 4.465185e-001 5.248981e-001 3.973295e-001 6.247666e-001 6.072266e-001 5.684887e-001 3.541062e-001 5.297000e-001 3.398287e-001 2.127030e-001
<GCONST> 1.216300e+002
<STATE> 4
<MEAN> 39
 6.580162e-001 1.108782e+000 -2.897895e+000 -1.190489e+001 -1.751329e+001 -9.719422e+000 -2.610609e+000 -8.415853e+000 -4.819107e+000 -4.810371e+000 -1.675658e+000 1.920772e+000 7.255438e+001 -1.868639e-001 -6.920964e-001 -5.790497e-002 1.188993e-001 3.716253e-001 -1.531728e-002 -9.051278e-001 -1.034515e+000 -4.205537e-001 5.983303e-001 1.440763e+000 6.131551e-001 3.408771e-001 -1.712107e-001 -2.925507e-003 1.247128e-001 3.801412e-001 3.987868e-001 -1.130253e-001 -1.823007e-001 9.152469e-002 3.052076e-001 2.950090e-001 -9.202720e-002 -4.084607e-001 -1.605406e-001
<VARIANCE> 39
 2.336292e+001 4.796880e+001 8.292957e+001 7.489586e+001 5.816682e+001 9.076437e+001 4.989490e+001 5.362282e+001 5.690580e+001 3.096272e+001 3.925268e+001 5.236312e+001 2.437515e+001 2.638672e-001 1.133995e+000 1.270488e+000 1.113397e+000 3.206267e+000 1.846278e+000 3.011270e+000 2.786328e+000 2.191213e+000 2.328285e+000 2.964481e+000 1.856729e+000 4.325510e-001 7.870347e-002 2.123213e-001 2.471431e-001 2.583393e-001 4.006507e-001 5.009213e-001 6.011207e-001 4.273742e-001 5.682991e-001 4.044358e-001 5.458027e-001 5.793823e-001 1.230778e-001
<GCONST> 1.132105e+002
<TRANSP> 5
 0.000000e+000 1.000000e+000 0.000000e+000 0.000000e+000 0.000000e+000
 0.000000e+000 7.891148e-001 2.108851e-001 0.000000e+000 0.000000e+000
 0.000000e+000 0.000000e+000 6.427811e-001 3.572189e-001 0.000000e+000
 0.000000e+000 0.000000e+000 0.000000e+000 5.970414e-001 4.029586e-001
 0.000000e+000 0.000000e+000 0.000000e+000 0.000000e+000 0.000000e+000
<ENDHMM>
~h "i"
<BEGINHMM>
<NUMSTATES> 5
<STATE> 2
<MEAN> 39
 -2.437622e+001 -1.569479e-001 3.638786e+000 -7.431789e+000 -6.139076e+000 -1.768174e+000 4.735736e-001 -2.078928e+000 1.156766e+000 -2.062755e+000 8.688417e-001 -7.020870e-001 6.728399e+001 -2.610175e-001 1.129371e-001 2.177159e+000 1.534274e+000 -4.371662e-001 -8.697391e-001 9.546208e-001 -5.225660e-001 -7.124909e-001 -4.747247e-001 -1.749522e-001 -2.519981e-001 5.426784e-001 1.289327e+000 2.305114e-001 -2.455944e-002 4.631681e-001 -1.550336e-002 -6.000296e-001 -3.672065e-001 -1.612162e-001 -3.520887e-001 -1.462304e-001 -1.270868e-001 -1.829484e-002 -3.655705e-001
<VARIANCE> 39
 2.064450e+001 2.077079e+001 2.804965e+001 3.877703e+001 3.300871e+001 3.690549e+001 3.363991e+001 2.220885e+001 3.052948e+001 2.166176e+001 1.777305e+001 1.223289e+001 1.481784e+001 8.297749e+000 2.138413e+000 2.688734e+000 3.444757e+000 3.823440e+000 3.496126e+000 2.383470e+000 2.144588e+000 2.169757e+000 1.459686e+000 2.102723e+000 1.031267e+000 1.915486e+000 4.648913e-001 5.838112e-001 4.782545e-001 4.702761e-001 7.538322e-001 4.578512e-001 5.806639e-001 4.230221e-001 4.835905e-001 3.609270e-001 4.979949e-001 2.294116e-001 2.561807e-001
<GCONST> 1.143856e+002
<STATE> 3
<MEAN> 39
 -1.291848e+001 2.872775e+000 1.256954e+001 1.960240e+000 -8.587045e+000 -8.857827e+000 -2.356744e+000 -6.364979e+000 -5.192722e+000 -6.334452e+000 -1.263593e+000 -6.311635e-001 6.696512e+001 3.814004e+000 1.807909e+000 6.279657e-001 1.893315e+000 -7.902821e-001 -3.085143e+000 -1.557969e+000 -6.200250e-001 -1.465535e+000 -1.187312e+000 -4.708878e-001 6.031911e-001 -2.657511e-001 -3.805745e-001 -9.441091e-002 -9.314758e-001 -6.302935e-001 2.104782e-001 1.194246e-001 5.002493e-002 2.627937e-001 4.250620e-001 2.857572e-001 5.987323e-002 5.171667e-002 -4.778817e-002
<VARIANCE> 39
 3.493953e+001 3.137374e+001 2.662417e+001 4.776551e+001 3.845779e+001 2.935984e+001 3.292042e+001 2.511251e+001 2.246952e+001 2.291405e+001 1.677049e+001 1.524871e+001 8.925483e+000 1.690383e+000 2.001365e+000 1.888504e+000 2.650796e+000 3.490800e+000 1.547346e+000 2.950854e+000 3.140415e+000 1.729840e+000 2.023631e+000 3.493692e+000 2.018729e+000 5.511904e-001 5.735097e-001 3.588532e-001 3.080088e-001 3.385464e-001 5.394152e-001 5.571111e-001 7.077399e-001 3.939625e-001 3.229615e-001 3.654206e-001 5.572544e-001 3.003488e-001 7.185441e-002
<GCONST> 1.100232e+002
<STATE> 4
<MEAN> 39
 -9.490036e+000 2.679253e+000 7.647276e+000 6.359398e+000 -8.034661e+000 -1.566872e+001 -2.145580e+000 -5.558434e+000 -4.006155e+000 -4.886687e+000 -1.823974e+000 4.745950e-001 6.393448e+001 9.482844e-001 2.119858e-001 -1.881871e+000 -8.805201e-002 7.656522e-001 1.633283e-001 -1.703565e-001 -3.496600e-001 5.875375e-001 7.726948e-001 2.045875e-001 -4.200880e-001 -5.049274e-001 -4.002997e-001 -1.197603e-001 -1.980742e-001 -5.891739e-001 2.814981e-001 9.090230e-001 1.654483e-001 -2.564244e-001 1.649017e-001 3.295149e-001 3.460541e-001 -1.429364e-001 -7.096002e-002
<VARIANCE> 39
 1.228746e+001 3.048730e+001 4.361436e+001 6.229104e+001 2.956934e+001 4.111816e+001 2.069332e+001 2.137150e+001 2.096239e+001 2.536146e+001 4.177963e+001 1.671675e+001 1.130019e+001 8.065603e-001 9.150257e-001 9.487844e-001 3.095253e+000 1.260830e+000 5.434611e+000 3.235569e+000 3.049282e+000 2.123853e+000 2.766173e+000 3.782839e+000 1.478422e+000 4.580937e-001 2.931720e-001 2.941322e-001 3.071162e-001 3.196115e-001 3.381659e-001 4.444762e-001 3.864423e-001 4.385611e-001 6.899303e-001 5.629933e-001 7.097026e-001 4.550561e-001 4.394460e-002
<GCONST> 1.080109e+002
<TRANSP> 5
 0.000000e+000 1.000000e+000 0.000000e+000 0.000000e+000 0.000000e+000
 0.000000e+000 7.735301e-001 2.264699e-001 0.000000e+000 0.000000e+000
 0.000000e+000 0.000000e+000 5.980684e-001 4.019316e-001 0.000000e+000
 0.000000e+000 0.000000e+000 0.000000e+000 6.247311e-001 3.752689e-001
 0.000000e+000 0.000000e+000 0.000000e+000 0.000000e+000 0.000000e+000
<ENDHMM>
~h "k"
<BEGINHMM>
<NUMSTATES> 5
<STATE> 2
<MEAN> 39
 -1.274508e+001 -2.363919e+000 2.911623e+000 -1.701882e+000 -1.169510e+001 -1.183158e+001 -1.415426e+000 -5.288900e+000 -3.077738e+000 -3.134188e+000 -1.802325e+000 -7.641464e-001 7.117226e+001 2.133655e+000 1.522266e+000 1.694829e+000 6.461084e-001 -1.327701e+000 -1.971057e+000 -5.833785e-001 -1.014666e+000 -1.015931e+000 -1.332658e+000 -5.052991e-001 -3.558432e-001 1.211072e+000 3.045413e-001 3.285208e-002 -7.616309e-002 -1.440074e-001 -8.237215e-002 -7.906258e-002 -7.879142e-002 7.926285e-002 1.968001e-002 -5.077812e-003 1.467993e-001 9.322461e-002 -1.977906e-001
<VARIANCE> 39
 4.370572e+001 4.774571e+001 5.467799e+001 2.635008e+001 3.917221e+001 4.934369e+001 3.754246e+001 4.327963e+001 3.713230e+001 3.060822e+001 2.910226e+001 3.110392e+001 2.336092e+001 2.893103e+000 3.647693e+000 2.870520e+000 3.162797e+000 3.956804e+000 3.339579e+000 3.625791e+000 2.882538e+000 4.286914e+000 2.694491e+000 2.375196e+000 1.994466e+000 3.755019e+000 8.355089e-001 1.256644e+000 7.734518e-001 7.342147e-001 7.461812e-001 6.133244e-001 6.538166e-001 4.750051e-001 6.071975e-001 6.622415e-001 4.560820e-001 3.794642e-001 9.574139e-001
<GCONST> 1.281874e+002
<STATE> 3
<MEAN> 39
 -4.572589e+000 -2.137499e+000 5.591668e+000 -1.509387e+000 -1.870852e+001 -1.920996e+001 -3.714849e+000 -7.813457e+000 -6.107944e+000 -6.233003e+000 -1.647995e+000 -7.199564e-001 7.542825e+001 2.859573e-001 -7.250030e-001 1.331026e-001 -6.040020e-001 -9.447712e-001 -7.032334e-001 -5.303645e-001 -2.160486e-001 -2.213154e-001 2.404070e-001 6.131975e-001 4.571357e-001 5.035625e-001 -6.058782e-001 -1.899515e-002 -9.774087e-002 7.893207e-003 4.599062e-001 5.960385e-001 2.722782e-001 1.067216e-001 2.236320e-001 3.253122e-001 7.179421e-002 -1.591540e-002 -3.790901e-001
<VARIANCE> 39
 1.257278e+001 4.663581e+001 5.560400e+001 3.151258e+001 6.753237e+001 6.901610e+001 5.118395e+001 8.171573e+001 5.917932e+001 2.858070e+001 3.007279e+001 4.241074e+001 1.397316e+001 6.760802e-001 1.598913e+000 1.794605e+000 1.127488e+000 2.779099e+000 2.538594e+000 1.990175e+000 2.605995e+000 1.861952e+000 1.567269e+000 1.127362e+000 1.068211e+000 8.812233e-001 2.208011e-001 3.768818e-001 3.768489e-001 2.588100e-001 5.745144e-001 6.269105e-001 4.887372e-001 4.635818e-001 5.999634e-001 2.957946e-001 3.752901e-001 2.530334e-001 8.917283e-002
<GCONST> 1.112194e+002
<STATE> 4
<MEAN> 39
 -9.172632e+000 6.399377e+000 8.940610e+000 -4.305413e-001 -1.344689e+001 -2.010764e+001 -5.165350e+000 -5.551026e+000 -4.811817e+000 -6.640225e+000 1.398848e+000 1.370326e+000 7.470017e+001 -1.219519e-001 2.396882e-001 3.149710e-001 4.339722e-002 -1.159979e-001 8.696392e-002 2.712032e-001 -1.833288e-001 6.086996e-002 -5.743306e-003 6.100228e-003 4.217390e-002 -2.708491e-001 -6.848760e-002 7.591683e-002 -7.502039e-003 9.505802e-002 1.046198e-001 4.141193e-002 8.690675e-002 -1.138413e-002 6.075431e-002 4.304483e-002 -1.201688e-001 -7.764659e-002 -1.005565e-001
<VARIANCE> 39
 1.883683e+001 6.043223e+001 3.563475e+001 2.043166e+001 5.289652e+001 5.254251e+001 2.294793e+001 5.049040e+001 3.729782e+001 2.587971e+001 2.642536e+001 3.148148e+001 1.522767e+001 1.644642e-001 3.791181e-001 7.422758e-001 6.661073e-001 8.768891e-001 1.283971e+000 1.063330e+000 1.493490e+000 1.054405e+000 9.698849e-001 1.594321e+000 6.823504e-001 2.651837e-001 3.994164e-002 8.777691e-002 1.328629e-001 9.696002e-002 1.787407e-001 2.250662e-001 1.471052e-001 3.259981e-001 2.457342e-001 2.410772e-001 2.929836e-001 1.225706e-001 3.069117e-002
<GCONST> 8.659776e+001
<TRANSP> 5
 0.000000e+000 1.000000e+000 0.000000e+000 0.000000e+000 0.000000e+000
 0.000000e+000 7.962653e-001 2.037347e-001 0.000000e+000 0.000000e+000
 0.000000e+000 0.000000e+000 6.003429e-001 3.996571e-001 0.000000e+000
 0.000000e+000 0.000000e+000 0.000000e+000 6.941917e-001 3.058083e-001
 0.000000e+000 0.000000e+000 0.000000e+000 0.000000e+000 0.000000e+000
<ENDHMM>
~h "m"
<BEGINHMM>
<NUMSTATES> 5
<STATE> 2
<MEAN> 39
 -3.290358e-002 8.909651e+000 1.916712e+000 9.374480e-001 -4.523522e+000 -3.005796e+000 -1.423588e+000 -8.371083e+000 -1.104951e+001 -1.062102e+001 -5.084180e+000 -1.580381e+000 6.239789e+001 1.036526e+000 -2.661064e-001 -7.520189e-001 -1.255340e+000 -1.115463e+000 -2.011383e-001 2.075395e-001 -1.836672e-001 -2.377282e-004 2.950078e-002 -1.610617e-001 -1.505556e-001 1.396065e+000 -2.005017e-001 -5.077160e-001 -4.884022e-001 -5.456367e-001 -1.407373e-001 1.805277e-001 2.521985e-001 2.642702e-001 5.321429e-001 5.540295e-001 1.005343e-001 -8.336389e-003 9.350949e-002
<VARIANCE> 39
 1.156320e+001 2.357973e+001 4.201202e+001 3.356182e+001 5.728407e+001 6.277036e+001 4.652325e+001 3.966507e+001 4.965541e+001 4.938538e+001 4.455445e+001 2.661921e+001 2.003809e+001 1.245651e+000 2.204547e+000 3.204858e+000 4.320238e+000 2.360338e+000 2.028759e+000 2.231532e+000 3.230110e+000 4.625366e+000 4.926317e+000 2.623268e+000 1.528418e+000 1.020511e+000 1.486058e-001 2.721599e-001 3.550820e-001 4.501466e-001 3.889956e-001 3.649313e-001 4.191020e-001 4.246852e-001 5.868292e-001 6.437299e-001 5.082760e-001 2.948287e-001 1.274721e-001
<GCONST> 1.161890e+002
<STATE> 3
<MEAN> 39
 3.248536e+000 5.272524e-001 -9.153738e+000 -1.515398e+001 -1.292744e+001 -1.293257e+000 3.753847e+000 -4.115322e+000 -3.939550e+000 -2.031624e+000 -5.374053e+000 -3.246145e+000 7.180521e+001 -5.831939e-002 -2.446139e+000 -1.792770e+000 -2.710195e+000 -4.602537e-001 1.577569e+000 1.533065e+000 3.102706e-002 1.197648e+000 1.793734e+000 -6.775963e-002 -3.650034e-001 1.762900e+000 -3.519344e-001 3.090412e-001 7.088007e-001 1.076022e+000 7.820864e-001 3.165465e-002 -3.126953e-001 -3.467019e-001 -5.754753e-001 -4.799660e-001 -2.174180e-003 7.832542e-003 -4.550695e-001
<VARIANCE> 39
 6.638661e+000 3.726968e+001 2.690926e+001 2.885382e+001 6.216704e+001 5.113184e+001 5.408499e+001 7.249548e+001 3.699676e+001 5.172388e+001 4.051619e+001 4.003350e+001 1.232919e+001 9.102536e-001 1.805048e+000 2.364743e+000 4.619113e+000 5.058742e+000 3.998026e+000 3.236076e+000 5.021801e+000 5.248067e+000 5.848682e+000 3.843739e+000 2.847211e+000 1.428557e+000 7.816336e-002 2.990027e-001 2.677479e-001 3.331456e-001 5.425421e-001 7.377914e-001 5.582467e-001 8.209964e-001 5.542618e-001 9.194673e-001 6.434991e-001 3.278815e-001 1.117953e-001
<GCONST> 1.202075e+002
<STATE> 4
<MEAN> 39
 2.118126e-001 -5.481272e+000 -1.123144e+001 -1.699877e+001 -1.002705e+001 1.070114e+000 6.210367e+000 -1.917708e+000 -4.932848e+000 -5.722716e-001 -4.147409e+000 -5.153486e+000 7.587879e+001 -2.506641e-001 -4.754055e-001 5.095632e-003 -2.336341e-003 2.000103e-001 4.299344e-002 -2.323226e-001 -1.677395e-001 6.284790e-003 3.435556e-001 1.738066e-001 -3.738486e-002 2.638918e-001 8.110952e-002 3.177324e-001 1.784268e-001 2.616772e-001 -7.253764e-002 -3.287129e-001 -2.865104e-001 4.006965e-002 -4.725123e-002 -1.538925e-001 5.618786e-002 1.135533e-001 -2.514724e-001
<VARIANCE> 39
 8.271218e+000 4.071584e+001 2.381054e+001 2.316772e+001 5.600837e+001 4.525282e+001 6.252422e+001 8.591605e+001 4.527590e+001 4.071762e+001 4.820842e+001 4.069905e+001 1.518588e+001 3.024716e-001 5.780182e-001 5.605296e-001 1.063944e+000 1.211711e+000 1.982118e+000 1.625462e+000 2.083764e+000 1.696557e+000 2.247458e+000 1.622993e+000 1.220725e+000 2.666754e-001 6.352137e-002 1.446529e-001 1.895634e-001 2.885250e-001 2.392762e-001 3.824318e-001 3.893290e-001 3.641249e-001 3.871032e-001 4.756686e-001 3.372613e-001 2.730606e-001 8.648773e-002
<GCONST> 1.001279e+002
<TRANSP> 5
 0.000000e+000 1.000000e+000 0.000000e+000 0.000000e+000 0.000000e+000
 0.000000e+000 8.691185e-001 1.308815e-001 0.000000e+000 0.000000e+000
 0.000000e+000 0.000000e+000 6.584476e-001 3.415523e-001 0.000000e+000
 0.000000e+000 0.000000e+000 0.000000e+000 7.227021e-001 2.772978e-001
 0.000000e+000 0.000000e+000 0.000000e+000 0.000000e+000 0.000000e+000
<ENDHMM>
~h "n"
<BEGINHMM>
<NUMSTATES> 5
<STATE> 2
<MEAN> 39
 7.691476e-001 3.906873e+000 6.477059e-003 -1.421818e-001 -8.231405e+000 -9.733673e+000 -6.509877e+000 -7.880140e+000 -3.047678e+000 -5.112461e+000 -5.643256e+000 -6.291843e+000 6.704305e+001 8.782329e-002 7.274786e-001 1.652137e-001 3.601769e-001 5.294353e-001 -3.026283e-001 -4.229125e-001 1.547457e-001 -3.773771e-001 -1.463745e-001 3.023091e-001 -5.910519e-002 -5.809996e-001 -9.949350e-002 -2.788544e-001 -2.942032e-002 -1.546316e-001 -2.576357e-001 7.544322e-002 1.129309e-001 5.285973e-002 1.780795e-001 9.107278e-002 -5.211435e-002 1.182535e-001 2.343769e-001
<VARIANCE> 39
 1.140396e+001 2.465203e+001 4.918230e+001 3.908802e+001 6.956152e+001 6.684872e+001 4.061578e+001 3.145130e+001 3.937989e+001 4.707680e+001 2.059621e+001 5.922206e+001 2.197721e+001 3.343589e-001 9.410057e-001 1.261556e+000 1.809282e+000 2.144639e+000 1.492046e+000 2.400679e+000 1.585152e+000 2.108167e+000 2.199863e+000 1.356388e+000 1.426189e+000 5.491751e-001 4.758362e-002 1.529045e-001 1.817697e-001 2.725995e-001 2.810625e-001 2.638006e-001 4.199837e-001 3.092231e-001 4.820684e-001 4.219725e-001 2.681713e-001 2.712739e-001 5.993132e-002
<GCONST> 1.023605e+002
<STATE> 3
<MEAN> 39
 -1.325193e+000 1.038815e+000 1.028600e+000 7.088263e-001 -1.292424e+001 -9.947007e+000 -7.046447e+000 -5.864483e+000 2.122293e+000 -3.482171e+000 -6.664869e+000 -3.355346e+000 6.875787e+001 -7.778881e-001 -1.583017e+000 3.373494e-001 -2.173212e-001 -2.024351e+000 -2.432901e-001 1.031101e+000 1.135233e+000 1.665988e+000 3.137541e-001 -6.649861e-001 6.385826e-001 1.293718e+000 -2.925032e-002 5.615759e-002 1.702942e-002 -7.486720e-002 -7.564703e-002 -2.012472e-001 2.857279e-001 1.804296e-001 -3.043855e-001 7.995117e-003 2.016695e-001 -4.040693e-002 -8.280077e-003
<VARIANCE> 39
 1.215412e+001 3.562066e+001 5.148161e+001 3.598198e+001 7.490508e+001 3.880180e+001 4.793608e+001 6.139579e+001 6.889514e+001 3.303696e+001 4.404258e+001 3.332580e+001 3.709697e+001 4.655696e-001 1.918621e+000 1.911909e+000 1.420177e+000 3.056836e+000 3.040414e+000 5.617114e+000 4.506472e+000 4.962248e+000 2.973953e+000 2.908098e+000 2.837119e+000 7.199556e-001 7.482217e-002 4.962440e-001 2.866570e-001 2.312055e-001 6.568180e-001 4.661074e-001 7.066697e-001 7.978422e-001 1.244533e+000 4.983916e-001 5.864522e-001 4.399714e-001 2.765107e-001
<GCONST> 1.198076e+002
<STATE> 4
<MEAN> 39
 -3.994970e+000 8.958426e-001 3.126816e+000 -1.313994e+000 -1.799987e+001 -1.350151e+001 -1.604306e+000 -1.863323e+000 2.391210e+000 -1.731750e+000 -4.572489e+000 -8.155625e-001 7.004961e+001 -3.076529e-001 3.123033e-001 4.195732e-001 5.878749e-002 -5.941617e-002 -4.318706e-001 4.885084e-001 7.945629e-002 -6.569105e-001 -7.130209e-002 2.552331e-001 1.651075e-001 -3.648150e-001 7.137939e-002 1.002512e-001 -1.914383e-002 9.253749e-002 2.743922e-001 1.419653e-001 -1.681675e-001 -1.897105e-001 -2.982416e-002 -1.049454e-001 -3.142263e-002 -9.581092e-002 -1.774799e-001
<VARIANCE> 39
 1.473591e+001 3.915234e+001 6.230148e+001 3.942465e+001 8.015322e+001 5.809710e+001 7.673396e+001 6.080133e+001 4.041490e+001 2.898441e+001 4.576051e+001 2.104130e+001 2.859839e+001 1.521599e-001 5.009061e-001 5.813622e-001 8.742452e-001 1.745322e+000 1.405166e+000 1.139054e+000 1.431621e+000 1.783501e+000 1.776861e+000 1.541440e+000 1.316100e+000 2.557491e-001 4.366557e-002 1.484090e-001 1.068622e-001 1.773936e-001 2.928689e-001 2.254086e-001 3.359608e-001 2.992093e-001 2.880208e-001 2.740549e-001 2.758368e-001 1.996907e-001 5.195572e-002
<GCONST> 9.624173e+001
<TRANSP> 5
 0.000000e+000 1.000000e+000 0.000000e+000 0.000000e+000 0.000000e+000
 0.000000e+000 8.729597e-001 1.270403e-001 0.000000e+000 0.000000e+000
 0.000000e+000 0.000000e+000 7.719412e-001 2.280588e-001 0.000000e+000
 0.000000e+000 0.000000e+000 0.000000e+000 7.987677e-001 2.012323e-001
 0.000000e+000 0.000000e+000 0.000000e+000 0.000000e+000 0.000000e+000
<ENDHMM>
~h "o"
<BEGINHMM>
<NUMSTATES> 5
<STATE> 2
<MEAN> 39
 -4.153368e+000 1.517201e+000 -1.392376e+000 -5.586075e+000 -9.740211e+000 -8.098919e+000 -1.750134e+000 -4.930145e+000 -2.772430e+000 -2.149349e+000 -2.414108e+000 -1.465052e+000 6.529731e+001 2.300143e-002 1.509052e-002 1.401225e-002 6.290563e-003 -3.631655e-002 -5.298270e-002 -8.996384e-003 -1.725104e-002 -1.659047e-002 -1.542300e-002 -5.569575e-003 -1.004327e-002 -8.028411e-003 -5.385407e-003 7.687603e-003 -2.053345e-003 6.118431e-003 1.287798e-002 1.362365e-002 3.170662e-003 3.442815e-003 5.190067e-003 6.678457e-003 2.682982e-003 3.156542e-003 -2.769514e-002
<VARIANCE> 39
 3.821798e+001 5.290487e+001 6.815633e+001 7.505674e+001 8.069884e+001 9.922321e+001 5.842557e+001 6.155072e+001 5.897418e+001 4.395738e+001 3.820277e+001 3.717608e+001 7.774931e+001 1.322284e+000 1.757013e+000 1.593217e+000 2.179628e+000 2.557859e+000 2.732429e+000 2.388217e+000 2.481541e+000 2.572205e+000 2.280620e+000 2.045945e+000 1.732367e+000 2.160362e+000 1.858594e-001 2.637878e-001 2.274865e-001 3.046213e-001 3.726168e-001 3.977455e-001 4.053145e-001 4.021849e-001 4.302129e-001 3.929369e-001 3.596961e-001 3.057646e-001 2.198328e-001
<GCONST> 1.191859e+002
<STATE> 3
<MEAN> 39
 -4.153368e+000 1.517201e+000 -1.392376e+000 -5.586075e+000 -9.740211e+000 -8.098919e+000 -1.750134e+000 -4.930145e+000 -2.772430e+000 -2.149349e+000 -2.414108e+000 -1.465052e+000 6.529731e+001 2.300143e-002 1.509052e-002 1.401225e-002 6.290563e-003 -3.631655e-002 -5.298270e-002 -8.996384e-003 -1.725104e-002 -1.659047e-002 -1.542300e-002 -5.569575e-003 -1.004327e-002 -8.028411e-003 -5.385407e-003 7.687603e-003 -2.053345e-003 6.118431e-003 1.287798e-002 1.362365e-002 3.170662e-003 3.442815e-003 5.190067e-003 6.678457e-003 2.682982e-003 3.156542e-003 -2.769514e-002
<VARIANCE> 39
 3.821798e+001 5.290487e+001 6.815633e+001 7.505674e+001 8.069884e+001 9.922321e+001 5.842557e+001 6.155072e+001 5.897418e+001 4.395738e+001 3.820277e+001 3.717608e+001 7.774931e+001 1.322284e+000 1.757013e+000 1.593217e+000 2.179628e+000 2.557859e+000 2.732429e+000 2.388217e+000 2.481541e+000 2.572205e+000 2.280620e+000 2.045945e+000 1.732367e+000 2.160362e+000 1.858594e-001 2.637878e-001 2.274865e-001 3.046213e-001 3.726168e-001 3.977455e-001 4.053145e-001 4.021849e-001 4.302129e-001 3.929369e-001 3.596961e-001 3.057646e-001 2.198328e-001
<GCONST> 1.191859e+002
<STATE> 4
<MEAN> 39
 -4.153368e+000 1.517201e+000 -1.392376e+000 -5.586075e+000 -9.740211e+000 -8.098919e+000 -1.750134e+000 -4.930145e+000 -2.772430e+000 -2.149349e+000 -2.414108e+000 -1.465052e+000 6.529731e+001 2.300143e-002 1.509052e-002 1.401225e-002 6.290563e-003 -3.631655e-002 -5.298270e-002 -8.996384e-003 -1.725104e-002 -1.659047e-002 -1.542300e-002 -5.569575e-003 -1.004327e-002 -8.028411e-003 -5.385407e-003 7.687603e-003 -2.053345e-003 6.118431e-003 1.287798e-002 1.362365e-002 3.170662e-003 3.442815e-003 5.190067e-003 6.678457e-003 2.682982e-003 3.156542e-003 -2.769514e-002
<VARIANCE> 39
 3.821798e+001 5.290487e+001 6.815633e+001 7.505674e+001 8.069884e+001 9.922321e+001 5.842557e+001 6.155072e+001 5.897418e+001 4.395738e+001 3.820277e+001 3.717608e+001 7.774931e+001 1.322284e+000 1.757013e+000 1.593217e+000 2.179628e+000 2.557859e+000 2.732429e+000 2.388217e+000 2.481541e+000 2.572205e+000 2.280620e+000 2.045945e+000 1.732367e+000 2.160362e+000 1.858594e-001 2.637878e-001 2.274865e-001 3.046213e-001 3.726168e-001 3.977455e-001 4.053145e-001 4.021849e-001 4.302129e-001 3.929369e-001 3.596961e-001 3.057646e-001 2.198328e-001
<GCONST> 1.191859e+002
<TRANSP> 5
 0.000000e+000 1.000000e+000 0.000000e+000 0.000000e+000 0.000000e+000
 0.000000e+000 6.000000e-001 4.000000e-001 0.000000e+000 0.000000e+000
 0.000000e+000 0.000000e+000 6.000000e-001 4.000000e-001 0.000000e+000
 0.000000e+000 0.000000e+000 0.000000e+000 7.000000e-001 3.000000e-001
 0.000000e+000 0.000000e+000 0.000000e+000 0.000000e+000 0.000000e+000
<ENDHMM>
~h "p"
<BEGINHMM>
<NUMSTATES> 5
<STATE> 2
<MEAN> 39
 1.885901e-001 6.490350e-001 -8.310385e+000 -1.492039e+001 -1.089450e+001 -2.013587e+000 4.250583e+000 -3.645791e+000 -1.780173e+000 -1.065659e+000 -4.193243e+000 -3.454035e+000 6.992496e+001 1.737973e+000 -6.799579e-002 -3.240442e-001 -1.782632e+000 -1.923000e+000 -1.515087e-001 4.350777e-001 -3.830830e-001 -7.627820e-001 -2.388530e-001 -4.541563e-001 -5.721942e-001 1.875336e+000 -5.879151e-001 -5.121959e-001 9.807198e-002 4.689170e-001 2.065649e-001 -1.041201e-001 -5.284715e-001 7.245881e-002 2.522112e-001 1.572352e-001 3.529488e-001 2.259965e-001 -1.669910e-001
<VARIANCE> 39
 2.126499e+001 4.936337e+001 3.934616e+001 2.804285e+001 6.518094e+001 9.574697e+001 4.691031e+001 4.763700e+001 3.470947e+001 2.972558e+001 3.013167e+001 3.910565e+001 2.827271e+001 2.614937e+000 5.399279e+000 2.756575e+000 3.246946e+000 4.819613e+000 5.053785e+000 4.614374e+000 3.573768e+000 3.329539e+000 3.428916e+000 2.798575e+000 3.022498e+000 2.111136e+000 3.519350e-001 5.759164e-001 4.548495e-001 4.589964e-001 7.405147e-001 8.214748e-001 6.023428e-001 5.878445e-001 4.761656e-001 5.462974e-001 4.026175e-001 4.181915e-001 4.893689e-001
<GCONST> 1.270547e+002
<STATE> 3
<MEAN> 39
 -2.781755e-001 -5.492034e+000 -9.563258e+000 -1.566604e+001 -1.309802e+001 -5.179102e+000 2.294427e+000 -8.362030e-001 -1.885054e+000 -1.393870e+000 -3.001443e+000 -5.023196e+000 7.620263e+001 4.248299e-002 -8.847152e-002 1.431022e-001 -2.328135e-002 -3.520062e-001 -1.499372e-001 -4.724311e-001 -2.078460e-001 3.126576e-001 4.038955e-001 1.303639e-002 -1.251950e-001 1.492268e-002 -8.881963e-002 2.497253e-001 4.926722e-002 1.850798e-001 1.650240e-001 -1.138224e-001 -3.761458e-003 -2.859490e-003 8.201071e-002 1.408704e-002 -4.296226e-002 8.642592e-002 -3.218768e-001
<VARIANCE> 39
 1.572851e+001 4.800749e+001 2.528174e+001 2.087038e+001 5.812386e+001 1.109115e+002 9.225206e+001 8.381623e+001 6.152458e+001 4.369854e+001 3.436561e+001 4.778537e+001 3.171555e+001 6.115233e-001 2.549020e+000 9.164153e-001 1.327216e+000 1.942913e+000 3.109170e+000 4.689055e+000 3.045154e+000 3.855585e+000 2.744882e+000 1.988177e+000 1.773332e+000 1.210989e+000 1.725573e-001 3.923060e-001 1.827462e-001 3.505198e-001 4.561408e-001 5.332131e-001 7.131945e-001 5.784004e-001 5.747044e-001 5.005005e-001 4.235003e-001 3.760717e-001 1.839336e-001
<GCONST> 1.174456e+002
<STATE> 4
<MEAN> 39
 1.704230e+000 -7.690572e-001 -8.234161e+000 -1.504582e+001 -1.150180e+001 -5.311686e-001 2.082555e+000 -4.217099e+000 -5.403142e-001 -2.748778e-001 -4.042562e+000 -5.167511e+000 7.308588e+001 -5.359297e-002 7.355137e-002 6.943210e-002 3.415291e-001 -7.368192e-002 -5.095010e-001 -3.623694e-001 -1.652620e-002 2.858028e-001 1.626174e-001 7.767389e-003 2.852906e-002 -1.101630e-001 -4.710530e-002 8.501266e-002 9.309760e-002 1.574190e-001 5.714458e-002 -1.224123e-001 -2.297444e-002 1.967387e-002 9.915354e-003 -1.004809e-001 -3.168189e-002 2.482901e-002 -9.918504e-002
<VARIANCE> 39
 1.036308e+001 5.881493e+001 5.360194e+001 2.457609e+001 9.642574e+001 1.224732e+002 4.179756e+001 5.817177e+001 4.334712e+001 4.715665e+001 3.622870e+001 5.299088e+001 1.801254e+001 1.963768e-001 7.577081e-001 7.627178e-001 1.092546e+000 1.573369e+000 2.173445e+000 1.591795e+000 1.318838e+000 1.356693e+000 1.302140e+000 1.660441e+000 1.264166e+000 2.682202e-001 5.258881e-002 1.585971e-001 1.275639e-001 1.720619e-001 2.818183e-001 2.856483e-001 3.541499e-001 2.588043e-001 2.700763e-001 3.029690e-001 2.598410e-001 2.195979e-001 5.117443e-002
<GCONST> 9.854385e+001
<TRANSP> 5
 0.000000e+000 1.000000e+000 0.000000e+000 0.000000e+000 0.000000e+000
 0.000000e+000 7.163904e-001 2.836097e-001 0.000000e+000 0.000000e+000
 0.000000e+000 0.000000e+000 7.136098e-001 2.863902e-001 0.000000e+000
 0.000000e+000 0.000000e+000 0.000000e+000 6.951523e-001 3.048477e-001
 0.000000e+000 0.000000e+000 0.000000e+000 0.000000e+000 0.000000e+000
<ENDHMM>
~h "r"
<BEGINHMM>
<NUMSTATES> 5
<STATE> 2
<MEAN> 39
 -2.516275e+000 5.809563e-001 1.593808e+000 1.704021e+000 -1.114639e+001 -1.749571e+001 -7.382923e+000 -7.279089e+000 -9.173443e-001 -3.503684e+000 1.893654e+000 -1.902247e+000 6.566416e+001 -1.391275e-001 -1.099607e-001 -9.297177e-003 3.033199e-001 5.774462e-001 3.087650e-001 4.232613e-001 -1.648081e-001 -8.570629e-002 -3.446671e-001 -3.050317e-001 2.086751e-002 -2.893310e-001 2.317326e-002 -4.757631e-002 7.044658e-002 -1.100114e-001 -2.049921e-001 -1.656645e-001 5.931352e-002 2.261534e-001 -5.259345e-002 8.185836e-003 9.910000e-002 8.958951e-002 1.577025e-001
<VARIANCE> 39
 1.743191e+001 2.169522e+001 3.814145e+001 6.461929e+001 3.916882e+001 5.990892e+001 3.625260e+001 5.187027e+001 3.447527e+001 3.372650e+001 3.581963e+001 2.266550e+001 3.677246e+001 8.819009e-001 2.500589e+000 2.399138e+000 3.346250e+000 3.985668e+000 5.859496e+000 2.319384e+000 3.245206e+000 1.451235e+000 2.310226e+000 3.232711e+000 2.098971e+000 3.631270e+000 1.772472e-001 5.102250e-001 3.545280e-001 7.184278e-001 5.789090e-001 1.069468e+000 3.641707e-001 6.333517e-001 2.733789e-001 4.933515e-001 5.903903e-001 3.194718e-001 5.497437e-001
<GCONST> 1.205553e+002
<STATE> 3
<MEAN> 39
 -6.088366e+000 1.452446e+000 3.342061e+000 6.265046e+000 -1.000393e+001 -1.553816e+001 -8.124570e+000 -5.058481e+000 2.786482e+000 -2.538868e+000 -2.827018e+000 2.852069e+000 6.449158e+001 -4.240682e-001 -2.557565e-001 4.037032e-001 3.179851e-001 -1.094710e+000 1.236607e-001 6.520129e-001 7.303716e-001 -2.239454e-002 -1.040672e-001 4.661563e-001 7.845998e-001 7.888790e-002 -2.108348e-003 6.174574e-002 4.938790e-002 -1.299485e-001 -3.224867e-001 3.588630e-002 7.727022e-002 2.941153e-001 3.239016e-003 6.889658e-004 2.029801e-001 -4.325339e-002 1.449320e-001
<VARIANCE> 39
 2.038799e+001 2.151783e+001 4.606048e+001 2.191093e+001 6.303171e+001 7.311271e+001 4.672525e+001 2.672153e+001 3.999607e+001 1.972681e+001 2.885403e+001 3.378015e+001 1.985780e+001 7.332645e-001 1.305207e+000 1.623975e+000 1.488230e+000 5.739913e+000 3.378740e+000 3.188976e+000 3.236440e+000 4.890831e+000 1.589927e+000 2.733438e+000 3.352634e+000 6.425039e-001 1.230450e-001 2.533999e-001 4.733427e-001 3.129958e-001 1.508367e+000 7.571113e-001 6.525202e-001 6.925870e-001 1.113631e+000 2.998255e-001 3.139589e-001 8.778167e-001 2.588831e-001
<GCONST> 1.169705e+002
<STATE> 4
<MEAN> 39
 -1.760956e+000 -1.397202e+000 3.622741e+000 -4.099520e+000 -1.488748e+001 -1.988321e+001 -4.880307e+000 -4.152212e+000 -5.083253e+000 -3.470506e+000 2.923156e+000 -7.227919e-001 6.856582e+001 -2.792629e-001 3.243056e-001 2.617129e-001 -2.013633e-001 2.554671e-001 2.826269e-001 1.988798e-001 3.858142e-001 -3.103510e-001 2.442934e-001 -1.108442e-002 -5.063922e-001 -3.706148e-001 -5.730026e-002 6.333568e-002 -8.957508e-002 1.278785e-001 1.220163e-001 1.027655e-001 4.390736e-002 -7.897454e-002 3.435281e-002 1.903242e-002 -1.756389e-001 -7.265978e-002 -1.274030e-001
<VARIANCE> 39
 1.583101e+001 9.566985e+000 3.349580e+001 5.537239e+001 7.100599e+001 9.338983e+001 3.092752e+001 2.499507e+001 5.461847e+001 3.476867e+001 6.639775e+001 2.597566e+001 2.100124e+001 2.955193e-001 4.823431e-001 5.967959e-001 9.747404e-001 1.201141e+000 9.591399e-001 1.412668e+000 1.478587e+000 1.362876e+000 1.541123e+000 1.407497e+000 1.366953e+000 4.943281e-001 7.620479e-002 1.038100e-001 9.121178e-002 1.277622e-001 2.955090e-001 1.768498e-001 1.712630e-001 1.512614e-001 2.982451e-001 2.240289e-001 2.296287e-001 2.787920e-001 4.995688e-002
<GCONST> 9.245205e+001
<TRANSP> 5
 0.000000e+000 1.000000e+000 0.000000e+000 0.000000e+000 0.000000e+000
 0.000000e+000 7.764369e-001 2.235631e-001 0.000000e+000 0.000000e+000
 0.000000e+000 0.000000e+000 7.069949e-001 2.930051e-001 0.000000e+000
 0.000000e+000 0.000000e+000 0.000000e+000 8.132831e-001 1.867169e-001
 0.000000e+000 0.000000e+000 0.000000e+000 0.000000e+000 0.000000e+000
<ENDHMM>
~h "t"
<BEGINHMM>
<NUMSTATES> 5
<STATE> 2
<MEAN> 39
 -1.057948e+001 -2.854779e+000 -2.929199e+000 -5.461535e+000 -5.087788e+000 -5.248275e+000 -4.615698e+000 -3.856535e+000 1.823380e+000 -1.501890e+000 -1.742981e+000 -4.656712e-001 6.715927e+001 1.207994e+000 1.814875e-001 9.814673e-002 -6.845936e-001 -6.440333e-001 -8.183651e-001 -5.185014e-001 -9.585969e-001 -3.872142e-001 -1.049952e-001 -6.124002e-001 -6.141455e-001 2.356695e+000 6.922486e-001 4.172055e-001 -1.001094e-001 -9.486585e-002 -2.404307e-001 -5.168408e-002 2.328992e-001 -1.111967e-001 -3.743607e-001 9.440003e-002 6.608755e-003 -8.170908e-003 -4.185974e-001
<VARIANCE> 39
 3.388897e+001 4.123444e+001 3.873880e+001 4.163871e+001 3.649096e+001 4.691077e+001 3.677970e+001 3.834048e+001 3.724648e+001 3.218738e+001 2.816012e+001 2.663042e+001 7.056278e+001 6.593880e+000 5.496637e+000 3.307257e+000 4.696030e+000 4.564072e+000 5.896216e+000 4.256073e+000 4.896021e+000 5.462353e+000 3.851955e+000 3.091438e+000 3.319604e+000 8.402130e+000 7.666713e-001 9.382607e-001 5.695087e-001 7.659273e-001 7.956787e-001 1.000785e+000 8.632585e-001 8.376259e-001 8.737986e-001 7.020797e-001 5.950233e-001 5.939839e-001 1.552182e+000
<GCONST> 1.363335e+002
<STATE> 3
<MEAN> 39
 2.221556e-001 -7.840437e-001 -6.050215e+000 -1.168222e+001 -1.025891e+001 -7.465799e+000 -3.510234e+000 -7.312716e+000 -2.967017e+000 -4.792717e-001 -3.930987e+000 -2.708354e+000 7.296832e+001 1.744299e+000 -3.486302e-001 -8.505725e-001 -1.227726e+000 -1.615757e+000 -1.646375e-001 7.458385e-001 -3.117883e-001 -9.722241e-001 3.707542e-001 1.862070e-001 4.113483e-001 6.642871e-001 -9.038528e-001 -4.824070e-001 4.921869e-002 3.001605e-001 2.671886e-001 3.130789e-001 7.790716e-002 3.567809e-001 3.546016e-001 6.571848e-002 2.893582e-001 3.041862e-001 -3.502840e-001
<VARIANCE> 39
 1.766608e+001 3.571269e+001 5.556874e+001 5.954549e+001 6.630215e+001 7.823251e+001 4.414233e+001 5.439849e+001 4.279031e+001 5.013561e+001 3.740145e+001 4.671637e+001 2.507272e+001 2.956177e+000 3.391862e+000 2.163294e+000 2.647300e+000 4.148826e+000 5.221221e+000 3.757047e+000 4.479029e+000 4.219140e+000 3.194919e+000 3.344580e+000 2.981653e+000 1.724085e+000 2.270830e-001 5.000138e-001 3.641621e-001 5.342816e-001 8.033956e-001 7.630884e-001 7.581246e-001 7.389610e-001 6.732743e-001 5.799670e-001 5.171572e-001 5.396667e-001 3.880330e-001
<GCONST> 1.282753e+002
<STATE> 4
<MEAN> 39
 5.353970e-001 -2.441264e+000 -7.820526e+000 -1.342384e+001 -1.181625e+001 -5.924727e+000 -1.628561e+000 -6.777949e+000 -3.574020e+000 -3.256626e-001 -1.438070e+000 -9.533593e-001 7.339371e+001 -7.299989e-003 -2.687764e-001 -7.744674e-002 1.712969e-001 -4.437379e-002 -7.767979e-002 -1.765229e-001 -2.954701e-001 -2.424878e-002 3.865562e-001 3.300360e-001 9.058391e-002 -2.079658e-002 -2.334469e-001 2.626283e-002 1.997939e-001 3.497863e-001 3.069670e-001 -1.684931e-001 -3.106795e-001 -1.947345e-002 2.261385e-001 7.243031e-002 -7.809527e-002 -1.659368e-001 -1.041979e-001
<VARIANCE> 39
 2.293964e+001 4.278930e+001 5.489497e+001 5.207183e+001 7.394622e+001 9.001965e+001 5.187329e+001 6.204274e+001 6.088879e+001 6.273110e+001 5.080302e+001 5.859972e+001 2.630558e+001 8.084353e-001 1.361359e+000 1.171462e+000 1.905056e+000 2.402547e+000 3.253259e+000 3.417390e+000 2.654252e+000 2.770279e+000 2.470612e+000 2.379412e+000 2.267760e+000 7.694582e-001 1.749441e-001 2.546800e-001 2.230192e-001 3.675853e-001 4.718725e-001 6.148795e-001 5.508499e-001 5.536961e-001 5.206372e-001 5.271205e-001 4.270706e-001 4.783405e-001 1.198026e-001
<GCONST> 1.183872e+002
<TRANSP> 5
 0.000000e+000 1.000000e+000 0.000000e+000 0.000000e+000 0.000000e+000
 0.000000e+000 7.757509e-001 2.242490e-001 0.000000e+000 0.000000e+000
 0.000000e+000 0.000000e+000 5.784482e-001 4.215517e-001 0.000000e+000
 0.000000e+000 0.000000e+000 0.000000e+000 6.717938e-001 3.282062e-001
 0.000000e+000 0.000000e+000 0.000000e+000 0.000000e+000 0.000000e+000
<ENDHMM>
~h "u"
<BEGINHMM>
<NUMSTATES> 5
<STATE> 2
<MEAN> 39
 -5.309758e+000 7.483465e+000 7.878275e+000 2.290476e+000 -1.021741e+001 -1.112076e+001 5.924563e-001 -1.174489e+001 -8.444854e+000 -1.950515e+000 1.966849e+000 -3.211202e+000 6.498083e+001 3.725534e-001 3.758496e-001 -6.380892e-001 -2.413732e-001 3.472013e-001 1.255602e-001 -1.108039e-001 2.343141e-001 -1.373710e-001 -2.627727e-001 4.897839e-001 2.219654e-001 -6.127466e-001 -1.593354e-001 -6.870020e-002 4.692530e-002 1.468747e-002 1.602395e-001 1.944606e-001 -1.695301e-001 1.932415e-001 2.582909e-001 -2.364570e-001 -3.394611e-001 2.094064e-002 -9.137985e-002
<VARIANCE> 39
 6.791328e+000 1.236818e+001 7.249903e+001 1.993422e+001 3.900573e+001 7.188709e+001 3.926823e+001 4.528749e+001 2.573129e+001 2.962092e+001 2.233434e+001 2.787334e+001 2.542097e+001 2.756335e-001 5.378408e-001 5.281357e-001 2.248671e+000 1.122212e+000 3.275214e+000 2.030225e+000 2.955135e+000 2.378409e+000 2.116640e+000 1.924628e+000 1.456613e+000 3.956993e-001 9.297439e-002 1.089041e-001 9.130906e-002 1.799390e-001 1.869415e-001 5.858798e-001 3.425227e-001 5.510120e-001 3.234056e-001 4.408392e-001 3.724495e-001 2.871569e-001 3.392068e-002
<GCONST> 9.804085e+001
<STATE> 3
<MEAN> 39
 -5.186481e+000 5.511600e+000 3.524359e+000 2.893561e-001 -2.690338e+000 -1.094489e+001 -7.113437e+000 -6.928140e+000 -3.115123e+000 -5.916346e+000 -3.329390e-001 -9.632127e-001 6.327218e+001 3.523505e-001 2.657917e-001 -9.599121e-001 -4.647323e-001 8.090240e-001 1.058474e+000 -6.221529e-001 -7.327526e-001 1.867472e-001 3.224714e-001 -3.958872e-001 -1.759625e-001 -5.333148e-001 -9.067681e-002 -8.474796e-002 5.129389e-002 -3.804926e-002 -2.053380e-001 9.799962e-002 2.618959e-001 4.356459e-003 -2.827302e-001 1.747913e-001 1.457330e-001 1.096701e-002 6.353386e-002
<VARIANCE> 39
 2.232258e+001 1.340794e+001 2.773970e+001 2.398990e+001 4.751804e+001 3.166878e+001 2.720999e+001 3.725461e+001 2.976385e+001 1.506549e+001 2.424687e+001 9.877297e+000 2.032027e+001 5.129507e-001 7.200675e-001 8.996946e-001 7.803893e-001 2.186913e+000 2.261327e+000 1.094050e+000 1.723792e+000 2.560736e+000 3.004091e+000 1.135845e+000 9.551216e-001 4.873559e-001 1.137413e-001 9.691311e-002 1.008292e-001 1.871222e-001 2.640527e-001 5.379087e-001 2.146887e-001 3.415869e-001 1.679572e-001 4.571190e-001 2.148921e-001 1.784079e-001 8.803456e-002
<GCONST> 9.369833e+001
<STATE> 4
<MEAN> 39
 -3.552228e+000 7.404234e+000 -5.688782e-001 -3.866209e-002 -2.593049e+000 -7.054817e+000 -5.921628e+000 -9.268861e+000 -4.225690e+000 -3.189459e+000 -7.936301e-001 -1.060008e+000 6.088994e+001 -3.633394e-001 -3.708534e-001 -2.795579e-001 -9.237517e-002 3.788101e-001 6.627197e-001 4.239798e-001 4.162168e-001 8.652777e-002 2.670388e-001 -9.346166e-002 7.450972e-002 -4.346592e-001 -8.992376e-002 -1.127574e-001 4.456065e-002 2.806597e-002 -2.884111e-002 -1.001693e-002 6.989013e-002 1.673919e-001 7.586999e-002 1.182091e-003 3.644623e-002 2.428134e-002 2.458042e-002
<VARIANCE> 39
 1.165819e+001 1.838396e+001 1.237570e+001 1.247806e+001 1.727965e+001 1.907251e+001 3.112782e+001 3.308462e+001 2.497833e+001 1.462819e+001 1.313470e+001 1.688215e+001 1.804351e+001 3.029148e-001 7.607550e-001 7.345814e-001 9.340642e-001 9.189845e-001 1.373395e+000 1.569690e+000 1.578987e+000 1.084189e+000 1.532862e+000 1.205210e+000 7.201472e-001 1.614075e-001 4.366558e-002 1.055357e-001 1.256373e-001 1.929708e-001 2.006090e-001 2.392563e-001 2.578677e-001 2.903309e-001 2.670605e-001 3.298765e-001 2.037637e-001 1.301778e-001 2.308302e-002
<GCONST> 8.229739e+001
<TRANSP> 5
 0.000000e+000 1.000000e+000 0.000000e+000 0.000000e+000 0.000000e+000
 0.000000e+000 7.036137e-001 2.963863e-001 0.000000e+000 0.000000e+000
 0.000000e+000 0.000000e+000 7.191305e-001 2.808696e-001 0.000000e+000
 0.000000e+000 0.000000e+000 0.000000e+000 8.742813e-001 1.257187e-001
 0.000000e+000 0.000000e+000 0.000000e+000 0.000000e+000 0.000000e+000
<ENDHMM>
~h "w"
<BEGINHMM>
<NUMSTATES> 5
<STATE> 2
<MEAN> 39
 -4.153368e+000 1.517201e+000 -1.392376e+000 -5.586075e+000 -9.740211e+000 -8.098919e+000 -1.750134e+000 -4.930145e+000 -2.772430e+000 -2.149349e+000 -2.414108e+000 -1.465052e+000 6.529731e+001 2.300143e-002 1.509052e-002 1.401225e-002 6.290563e-003 -3.631655e-002 -5.298270e-002 -8.996384e-003 -1.725104e-002 -1.659047e-002 -1.542300e-002 -5.569575e-003 -1.004327e-002 -8.028411e-003 -5.385407e-003 7.687603e-003 -2.053345e-003 6.118431e-003 1.287798e-002 1.362365e-002 3.170662e-003 3.442815e-003 5.190067e-003 6.678457e-003 2.682982e-003 3.156542e-003 -2.769514e-002
<VARIANCE> 39
 3.821798e+001 5.290487e+001 6.815633e+001 7.505674e+001 8.069884e+001 9.922321e+001 5.842557e+001 6.155072e+001 5.897418e+001 4.395738e+001 3.820277e+001 3.717608e+001 7.774931e+001 1.322284e+000 1.757013e+000 1.593217e+000 2.179628e+000 2.557859e+000 2.732429e+000 2.388217e+000 2.481541e+000 2.572205e+000 2.280620e+000 2.045945e+000 1.732367e+000 2.160362e+000 1.858594e-001 2.637878e-001 2.274865e-001 3.046213e-001 3.726168e-001 3.977455e-001 4.053145e-001 4.021849e-001 4.302129e-001 3.929369e-001 3.596961e-001 3.057646e-001 2.198328e-001
<GCONST> 1.191859e+002
<STATE> 3
<MEAN> 39
 -4.153368e+000 1.517201e+000 -1.392376e+000 -5.586075e+000 -9.740211e+000 -8.098919e+000 -1.750134e+000 -4.930145e+000 -2.772430e+000 -2.149349e+000 -2.414108e+000 -1.465052e+000 6.529731e+001 2.300143e-002 1.509052e-002 1.401225e-002 6.290563e-003 -3.631655e-002 -5.298270e-002 -8.996384e-003 -1.725104e-002 -1.659047e-002 -1.542300e-002 -5.569575e-003 -1.004327e-002 -8.028411e-003 -5.385407e-003 7.687603e-003 -2.053345e-003 6.118431e-003 1.287798e-002 1.362365e-002 3.170662e-003 3.442815e-003 5.190067e-003 6.678457e-003 2.682982e-003 3.156542e-003 -2.769514e-002
<VARIANCE> 39
 3.821798e+001 5.290487e+001 6.815633e+001 7.505674e+001 8.069884e+001 9.922321e+001 5.842557e+001 6.155072e+001 5.897418e+001 4.395738e+001 3.820277e+001 3.717608e+001 7.774931e+001 1.322284e+000 1.757013e+000 1.593217e+000 2.179628e+000 2.557859e+000 2.732429e+000 2.388217e+000 2.481541e+000 2.572205e+000 2.280620e+000 2.045945e+000 1.732367e+000 2.160362e+000 1.858594e-001 2.637878e-001 2.274865e-001 3.046213e-001 3.726168e-001 3.977455e-001 4.053145e-001 4.021849e-001 4.302129e-001 3.929369e-001 3.596961e-001 3.057646e-001 2.198328e-001
<GCONST> 1.191859e+002
<STATE> 4
<MEAN> 39
 -4.153368e+000 1.517201e+000 -1.392376e+000 -5.586075e+000 -9.740211e+000 -8.098919e+000 -1.750134e+000 -4.930145e+000 -2.772430e+000 -2.149349e+000 -2.414108e+000 -1.465052e+000 6.529731e+001 2.300143e-002 1.509052e-002 1.401225e-002 6.290563e-003 -3.631655e-002 -5.298270e-002 -8.996384e-003 -1.725104e-002 -1.659047e-002 -1.542300e-002 -5.569575e-003 -1.004327e-002 -8.028411e-003 -5.385407e-003 7.687603e-003 -2.053345e-003 6.118431e-003 1.287798e-002 1.362365e-002 3.170662e-003 3.442815e-003 5.190067e-003 6.678457e-003 2.682982e-003 3.156542e-003 -2.769514e-002
<VARIANCE> 39
 3.821798e+001 5.290487e+001 6.815633e+001 7.505674e+001 8.069884e+001 9.922321e+001 5.842557e+001 6.155072e+001 5.897418e+001 4.395738e+001 3.820277e+001 3.717608e+001 7.774931e+001 1.322284e+000 1.757013e+000 1.593217e+000 2.179628e+000 2.557859e+000 2.732429e+000 2.388217e+000 2.481541e+000 2.572205e+000 2.280620e+000 2.045945e+000 1.732367e+000 2.160362e+000 1.858594e-001 2.637878e-001 2.274865e-001 3.046213e-001 3.726168e-001 3.977455e-001 4.053145e-001 4.021849e-001 4.302129e-001 3.929369e-001 3.596961e-001 3.057646e-001 2.198328e-001
<GCONST> 1.191859e+002
<TRANSP> 5
 0.000000e+000 1.000000e+000 0.000000e+000 0.000000e+000 0.000000e+000
 0.000000e+000 6.000000e-001 4.000000e-001 0.000000e+000 0.000000e+000
 0.000000e+000 0.000000e+000 6.000000e-001 4.000000e-001 0.000000e+000
 0.000000e+000 0.000000e+000 0.000000e+000 7.000000e-001 3.000000e-001
 0.000000e+000 0.000000e+000 0.000000e+000 0.000000e+000 0.000000e+000
<ENDHMM>
~h "a:"
<BEGINHMM>
<NUMSTATES> 5
<STATE> 2
<MEAN> 39
 1.030099e+000 -7.640502e+000 -1.255142e+001 -1.669805e+001 -3.849008e+000 5.008653e+000 2.811959e+000 -8.252198e+000 -3.590829e+000 2.050786e+000 -1.000659e+001 -5.461086e+000 7.494379e+001 -3.378873e-002 8.411461e-002 -5.404902e-002 1.098747e-001 -3.252842e-002 -2.175107e-001 -8.739204e-002 7.893844e-002 2.388272e-001 -1.770037e-004 1.249794e-001 -3.451874e-002 -1.013316e-001 1.301480e-002 1.286625e-001 6.937725e-002 8.002572e-002 -8.426247e-002 -1.803368e-001 -6.169060e-002 7.319175e-002 5.420563e-002 -4.385094e-002 1.036459e-001 4.632600e-002 -8.418302e-002
<VARIANCE> 39
 1.249535e+001 2.451019e+001 3.242522e+001 4.182347e+001 4.846014e+001 6.458257e+001 5.581293e+001 5.029951e+001 7.031023e+001 2.986300e+001 3.634719e+001 3.168397e+001 2.225501e+001 1.679983e-001 3.612421e-001 4.618492e-001 5.402402e-001 9.527965e-001 1.295044e+000 8.954883e-001 1.198217e+000 1.061972e+000 8.874291e-001 8.561968e-001 8.003412e-001 1.672908e-001 3.617316e-002 7.728429e-002 8.663019e-002 9.875827e-002 1.467323e-001 2.294842e-001 2.017210e-001 2.384277e-001 1.975649e-001 1.660472e-001 1.563820e-001 1.559542e-001 3.269365e-002
<GCONST> 8.465094e+001
<STATE> 3
<MEAN> 39
 8.078393e-001 -2.565752e+000 -1.062606e+001 -1.327650e+001 -7.464816e+000 -4.477827e-001 1.231493e+000 -5.593204e+000 -2.441974e+000 1.906156e+000 -4.198377e+000 -4.964811e+000 6.939793e+001 -3.221139e-001 1.225234e+000 6.924908e-001 1.341402e+000 1.808992e-001 -1.048100e+000 -9.011519e-001 9.389111e-002 4.222911e-001 -2.023816e-001 8.365142e-001 7.174460e-001 -1.834031e+000 -1.817305e-001 2.795685e-002 6.411728e-002 1.319430e-001 1.920886e-001 1.488147e-001 7.422929e-002 3.903950e-002 -1.015060e-001 -1.578525e-001 -7.693842e-002 -1.542870e-002 -2.806771e-001
<VARIANCE> 39
 8.506066e+000 3.845773e+001 3.867271e+001 3.698718e+001 4.669510e+001 4.981516e+001 4.027946e+001 4.112943e+001 6.081789e+001 3.875143e+001 4.648573e+001 3.880510e+001 4.495961e+001 9.395341e-001 1.168406e+000 1.978810e+000 2.106582e+000 2.074698e+000 4.180223e+000 2.980977e+000 2.900930e+000 3.640123e+000 2.082219e+000 2.581120e+000 2.003828e+000 1.236362e+000 1.258662e-001 2.931109e-001 3.202206e-001 3.620495e-001 3.548242e-001 6.789036e-001 5.649090e-001 5.386072e-001 5.777930e-001 3.442895e-001 4.262137e-001 3.836828e-001 2.373061e-001
<GCONST> 1.157538e+002
<STATE> 4
<MEAN> 39
 -4.795815e+000 1.167299e+000 -8.725386e+000 -8.020573e+000 -5.216540e+000 -2.273267e+000 6.516291e-001 -1.608320e+000 1.772942e-001 -1.113085e-001 -1.344027e+000 -1.439137e+000 5.771346e+001 -9.613144e-001 -2.809339e-001 3.429343e-001 3.956048e-001 2.053784e-001 -1.903861e-001 -2.495843e-001 3.768768e-001 1.950911e-001 -1.387974e-001 6.448434e-002 1.484462e-001 -6.391426e-001 7.995373e-003 -2.348555e-001 4.458635e-002 -1.705794e-001 -4.424117e-002 -6.742780e-002 -1.483584e-001 -1.419758e-001 -1.324208e-002 3.151333e-002 -6.395961e-002 -4.457384e-002 6.603131e-001
<VARIANCE> 39
 1.366580e+001 1.854975e+001 2.159224e+001 1.487659e+001 2.375231e+001 3.778602e+001 2.912055e+001 2.002617e+001 2.231297e+001 2.245250e+001 2.786578e+001 2.859599e+001 3.797127e+001 1.017562e+000 1.740404e+000 1.297888e+000 1.488586e+000 1.667319e+000 2.296821e+000 1.795878e+000 2.074270e+000 2.787241e+000 2.056202e+000 1.585456e+000 1.773195e+000 3.606958e+000 1.854655e-001 2.297973e-001 2.935269e-001 2.971557e-001 3.153189e-001 4.033878e-001 3.519961e-001 3.555686e-001 4.655636e-001 3.825755e-001 3.728313e-001 3.104054e-001 4.414913e-001
<GCONST> 1.062029e+002
<TRANSP> 5
 0.000000e+000 1.000000e+000 0.000000e+000 0.000000e+000 0.000000e+000
 0.000000e+000 8.969497e-001 1.030503e-001 0.000000e+000 0.000000e+000
 0.000000e+000 0.000000e+000 7.900628e-001 2.099372e-001 0.000000e+000
 0.000000e+000 0.000000e+000 0.000000e+000 8.434518e-001 1.565482e-001
 0.000000e+000 0.000000e+000 0.000000e+000 0.000000e+000 0.000000e+000
<ENDHMM>
~h "ae"
<BEGINHMM>
<NUMSTATES> 5
<STATE> 2
<MEAN> 39
 -8.482807e-001 -9.188147e+000 -1.050836e+001 -1.339473e+001 -6.801173e+000 -2.513739e+000 -1.657832e+000 -2.727097e+000 2.602303e+000 3.356667e+000 -7.479493e+000 -8.635772e+000 7.663702e+001 -1.379561e-001 8.977491e-002 4.727109e-001 7.402095e-001 -1.773091e-001 -1.578123e+000 -6.426397e-001 8.709946e-001 8.152697e-001 -2.666926e-001 -3.905823e-001 2.085715e-002 -1.585999e-001 -1.261968e-002 9.825023e-002 1.143538e-001 2.429325e-002 -9.568956e-002 -9.290161e-002 2.095406e-002 4.709782e-002 -2.660511e-002 -9.770805e-002 1.133980e-001 1.346487e-001 -4.591049e-002
<VARIANCE> 39
 9.656878e+000 2.449042e+001 2.274692e+001 3.871013e+001 3.470814e+001 8.586244e+001 5.422351e+001 6.447593e+001 5.690057e+001 3.729398e+001 5.016580e+001 4.172181e+001 1.436920e+001 1.938986e-001 3.773932e-001 6.491610e-001 1.073704e+000 1.234058e+000 2.320534e+000 2.298346e+000 1.954367e+000 2.317672e+000 1.502448e+000 1.450373e+000 1.318817e+000 1.517839e-001 2.957662e-002 6.821325e-002 1.024659e-001 1.369884e-001 2.027905e-001 3.441794e-001 4.198150e-001 2.936452e-001 3.866175e-001 2.490917e-001 2.660158e-001 2.172872e-001 1.931466e-002
<GCONST> 9.327848e+001
<STATE> 3
<MEAN> 39
 -2.520953e+000 -4.691334e+000 -2.452955e+000 -6.703750e+000 -1.282819e+001 -1.785315e+001 -3.877742e+000 3.151024e+000 4.911312e+000 -1.553674e-002 -4.831294e+000 -3.916866e+000 7.310125e+001 -2.615649e-001 8.114164e-001 9.643288e-001 6.205000e-001 -7.124735e-001 -4.416002e-001 1.498763e-001 -3.946401e-001 -6.129901e-001 -2.493890e-001 7.180324e-001 5.840198e-001 -6.720144e-001 -3.069883e-002 2.546332e-002 -6.743339e-002 2.891582e-002 1.212242e-001 2.048929e-001 6.842833e-003 -1.573579e-001 -6.962954e-002 2.964346e-002 -7.260049e-002 -5.958552e-002 -5.992537e-002
<VARIANCE> 39
 1.015731e+001 3.365231e+001 4.941554e+001 3.612788e+001 5.359386e+001 4.359814e+001 6.672747e+001 4.511991e+001 3.793090e+001 2.774803e+001 3.745228e+001 4.297315e+001 1.523960e+001 2.371422e-001 5.942274e-001 6.569803e-001 9.040496e-001 1.072014e+000 1.516871e+000 1.210330e+000 1.611942e+000 1.079750e+000 1.299670e+000 1.455383e+000 1.352680e+000 2.013968e-001 3.734194e-002 9.463996e-002 8.367375e-002 1.881768e-001 1.678825e-001 1.801627e-001 1.760943e-001 2.572668e-001 2.272398e-001 2.098893e-001 2.175480e-001 1.638435e-001 2.764753e-002
<GCONST> 8.956477e+001
<STATE> 4
<MEAN> 39
 -7.025735e+000 7.837128e-001 1.835143e+000 1.219664e-001 -1.279366e+001 -1.537162e+001 -8.269262e-001 1.762786e-001 2.095601e+000 -1.385572e+000 -1.577087e+000 -4.137800e-001 6.350276e+001 -3.677511e-001 1.962440e-001 -1.065145e-001 2.079030e-001 5.245869e-001 5.087926e-001 2.275763e-001 -9.943971e-002 -1.341889e-001 7.750746e-002 1.470540e-001 1.434785e-001 -1.100410e+000 8.698016e-003 -7.384732e-002 -1.183662e-001 -7.941866e-002 1.191307e-001 9.297410e-002 -1.780176e-002 8.168567e-002 4.787138e-002 7.448240e-002 1.247310e-002 -3.755622e-002 -8.835201e-003
<VARIANCE> 39
 2.020918e+001 2.754669e+001 4.065340e+001 2.373985e+001 5.914537e+001 4.734617e+001 8.652442e+001 5.019839e+001 3.712702e+001 3.912828e+001 5.110463e+001 3.691009e+001 3.266605e+001 3.604816e-001 8.639621e-001 1.114267e+000 1.053340e+000 1.548363e+000 2.040663e+000 1.666291e+000 1.956532e+000 1.688664e+000 1.723849e+000 2.295757e+000 1.714776e+000 5.440996e-001 5.396121e-002 1.242001e-001 1.842826e-001 1.797737e-001 2.302235e-001 3.683400e-001 3.270630e-001 3.515467e-001 3.152905e-001 2.907837e-001 3.969081e-001 3.151417e-001 6.936656e-002
<GCONST> 1.024716e+002
<TRANSP> 5
 0.000000e+000 1.000000e+000 0.000000e+000 0.000000e+000 0.000000e+000
 0.000000e+000 9.030639e-001 9.693605e-002 0.000000e+000 0.000000e+000
 0.000000e+000 0.000000e+000 8.752277e-001 1.247723e-001 0.000000e+000
 0.000000e+000 0.000000e+000 0.000000e+000 9.149750e-001 8.502505e-002
 0.000000e+000 0.000000e+000 0.000000e+000 0.000000e+000 0.000000e+000
<ENDHMM>
~h "ai"
<BEGINHMM>
<NUMSTATES> 5
<STATE> 2
<MEAN> 39
 -1.305279e+000 -5.570609e+000 -3.445022e+000 -7.242303e+000 -1.036424e+001 -1.686195e+001 -7.704640e+000 -2.996329e-001 5.732948e+000 1.092698e+000 -4.423048e+000 -3.254427e+000 7.503167e+001 -4.624820e-001 1.087266e+000 2.000247e+000 1.728270e+000 -1.415984e+000 -1.810678e+000 -4.598590e-001 -2.023678e-001 -7.762863e-001 -1.235830e+000 9.024232e-001 1.412989e+000 -6.858240e-001 -9.808943e-002 2.464605e-001 6.114840e-002 -6.391006e-002 -5.010340e-002 5.796025e-001 3.694259e-001 -4.278941e-001 -5.572401e-001 -3.032533e-002 2.273356e-001 -1.124836e-001 -1.101785e-001
<VARIANCE> 39
 1.323314e+001 2.526781e+001 6.546010e+001 4.176345e+001 7.357632e+001 7.965194e+001 5.633355e+001 4.507736e+001 4.404141e+001 5.118328e+001 4.552575e+001 4.594571e+001 1.061771e+001 5.468460e-001 9.289148e-001 1.198494e+000 1.751830e+000 1.666440e+000 4.253256e+000 2.049457e+000 4.182401e+000 3.909754e+000 3.233164e+000 3.426849e+000 2.059628e+000 3.108930e-001 6.233882e-002 1.275252e-001 2.887689e-001 2.105686e-001 4.153315e-001 4.829013e-001 2.972406e-001 5.312929e-001 4.400392e-001 5.753598e-001 6.331580e-001 4.502406e-001 3.683094e-002
<GCONST> 1.101244e+002
<STATE> 3
<MEAN> 39
 -3.717981e+000 1.753191e+000 4.360730e+000 -1.230352e+000 -1.537601e+001 -2.006355e+001 -4.343822e+000 -7.061146e+000 -5.551350e+000 -2.905216e+000 -7.908862e-001 -9.248759e-001 7.025500e+001 -5.340186e-001 1.266131e+000 8.699787e-001 6.926498e-001 1.967244e-001 7.221308e-001 6.080372e-001 -1.062362e+000 -1.306476e+000 -2.699803e-001 -4.173103e-001 -2.420048e-001 -1.068014e+000 3.967937e-002 -1.498675e-001 -2.293110e-001 -1.265536e-001 2.848665e-001 1.526356e-001 -2.631643e-002 2.159524e-001 2.674772e-001 1.316540e-001 -1.896707e-001 -1.478102e-001 -3.818574e-002
<VARIANCE> 39
 1.343566e+001 2.215625e+001 4.304593e+001 4.343940e+001 5.238410e+001 5.499479e+001 4.620876e+001 3.688648e+001 6.965893e+001 2.356170e+001 2.985509e+001 3.238821e+001 1.043713e+001 4.019734e-001 7.290380e-001 1.018850e+000 9.006662e-001 1.106968e+000 9.135594e-001 2.118318e+000 1.756234e+000 2.146160e+000 1.311498e+000 1.912562e+000 1.238264e+000 2.392604e-001 5.547767e-002 8.915917e-002 1.525904e-001 1.506189e-001 2.054347e-001 2.242647e-001 3.600952e-001 3.355296e-001 3.049857e-001 2.247693e-001 4.072825e-001 2.596780e-001 2.372822e-002
<GCONST> 9.447402e+001
<STATE> 4
<MEAN> 39
 -9.243243e+000 7.300264e+000 6.844739e+000 2.052877e+000 -9.391949e+000 -1.179122e+001 -8.440247e-001 -9.120612e+000 -5.503586e+000 -2.787232e+000 -3.262390e+000 -2.177279e+000 6.108803e+001 -3.369355e-001 -1.306345e-001 -2.481376e-001 2.693122e-002 6.497194e-001 7.484521e-001 2.532508e-001 1.874357e-001 1.592558e-001 6.668030e-002 1.349555e-001 6.080891e-002 -9.666684e-001 1.274061e-002 -1.524545e-001 -1.208166e-001 -7.253065e-002 -1.955755e-003 -1.470011e-002 -5.896328e-002 9.820769e-002 1.211590e-001 1.957306e-002 3.494713e-002 8.156551e-002 3.906944e-002
<VARIANCE> 39
 2.628455e+001 2.993077e+001 4.083784e+001 2.587372e+001 6.883069e+001 5.199592e+001 5.245653e+001 3.327272e+001 5.473673e+001 3.742887e+001 3.465739e+001 2.766057e+001 2.389811e+001 4.450887e-001 7.720421e-001 8.958126e-001 8.955032e-001 1.439657e+000 1.239073e+000 1.518897e+000 1.880554e+000 1.744167e+000 1.492156e+000 1.681803e+000 1.309538e+000 2.197210e-001 6.908404e-002 9.710237e-002 1.352488e-001 1.817293e-001 2.296220e-001 1.851543e-001 2.466137e-001 3.160011e-001 2.949217e-001 2.347591e-001 3.048561e-001 2.661240e-001 2.216478e-002
<GCONST> 9.577879e+001
<TRANSP> 5
 0.000000e+000 1.000000e+000 0.000000e+000 0.000000e+000 0.000000e+000
 0.000000e+000 8.190727e-001 1.809273e-001 0.000000e+000 0.000000e+000
 0.000000e+000 0.000000e+000 8.207640e-001 1.792360e-001 0.000000e+000
 0.000000e+000 0.000000e+000 0.000000e+000 9.099433e-001 9.005672e-002
 0.000000e+000 0.000000e+000 0.000000e+000 0.000000e+000 0.000000e+000
<ENDHMM>
~h "ao"
<BEGINHMM>
<NUMSTATES> 5
<STATE> 2
<MEAN> 39
 -2.484587e-001 -6.059889e+000 -9.281704e+000 -1.790111e+001 -1.586825e+001 -2.683950e+000 6.589719e+000 2.938254e+000 -4.334471e+000 -6.615221e+000 -5.645964e+000 -4.000286e+000 7.541928e+001 3.356286e-001 5.303417e-001 3.156365e-001 -3.820274e-001 -8.440446e-001 -4.166615e-003 -2.879619e-001 -1.653361e-001 3.958997e-001 3.812917e-001 -3.217685e-001 4.392690e-002 -6.697875e-001 4.504143e-002 1.770730e-001 5.028160e-002 1.834588e-002 1.163765e-002 -6.303519e-002 -6.423991e-002 -7.146665e-002 2.883042e-002 1.252803e-001 -5.803483e-002 -3.946113e-002 -1.213173e-001
<VARIANCE> 39
 1.703564e+001 2.697509e+001 1.881976e+001 2.227986e+001 8.163776e+001 5.130614e+001 3.664490e+001 6.644849e+001 4.731435e+001 3.794220e+001 2.808011e+001 3.659612e+001 2.864251e+001 7.824913e-001 9.332471e-001 5.184388e-001 9.247283e-001 1.676403e+000 1.875031e+000 1.383682e+000 2.198399e+000 2.407846e+000 2.968479e+000 1.469896e+000 2.092542e+000 9.561127e-001 1.496188e-001 1.021159e-001 1.018441e-001 1.789323e-001 3.840418e-001 3.616550e-001 1.983503e-001 3.635266e-001 4.516165e-001 4.077726e-001 2.738972e-001 3.605745e-001 9.218131e-002
<GCONST> 1.028392e+002
<STATE> 3
<MEAN> 39
 4.263732e+000 5.020120e-001 -8.519811e+000 -2.066547e+001 -1.767822e+001 9.905112e-001 5.639677e+000 -3.878435e+000 -6.381196e-001 -1.438286e-001 -7.387573e+000 -8.826579e-001 6.975261e+001 2.651516e-002 6.448513e-001 2.738177e-001 2.178800e-002 -3.248534e-001 -5.821148e-001 -2.052746e-001 2.005825e-001 6.849436e-002 8.744855e-002 -2.035784e-002 -1.151695e-001 -4.431829e-001 -3.486928e-002 4.873097e-002 1.056353e-002 5.315339e-002 4.485374e-002 -4.605688e-002 -4.317493e-002 -5.832900e-003 1.649611e-002 -3.839017e-002 1.893029e-002 -1.234198e-002 -2.875943e-002
<VARIANCE> 39
 6.200012e+000 3.516478e+001 4.571961e+001 2.438543e+001 8.574442e+001 6.182134e+001 3.370261e+001 7.491467e+001 7.679854e+001 4.399930e+001 2.146343e+001 2.686268e+001 1.799206e+001 1.319867e-001 5.863977e-001 5.247408e-001 5.379236e-001 8.751999e-001 1.341913e+000 1.276234e+000 1.251158e+000 1.338274e+000 1.168378e+000 8.980368e-001 8.766640e-001 2.121855e-001 2.380375e-002 7.279234e-002 7.462183e-002 7.207545e-002 1.744242e-001 1.876024e-001 1.868511e-001 2.098128e-001 2.163848e-001 2.119969e-001 1.616935e-001 1.666293e-001 2.194665e-002
<GCONST> 8.456569e+001
<STATE> 4
<MEAN> 39
 3.237278e-001 8.871940e+000 -4.013262e+000 -1.509561e+001 -1.724913e+001 -7.471212e+000 1.037320e+000 -4.855587e-001 -6.351255e-001 2.991576e-001 -5.047096e+000 -3.322212e+000 5.981977e+001 -6.078400e-001 3.256744e-002 1.332273e-001 8.808981e-001 8.472265e-001 -3.212665e-002 -3.194542e-001 7.396862e-002 1.486013e-001 -5.795093e-002 3.085805e-001 2.577513e-001 -8.313353e-001 -5.487490e-002 -1.473651e-001 -2.849403e-002 5.592752e-002 9.786317e-002 1.001433e-001 3.911489e-002 2.815755e-002 1.441091e-002 2.965413e-002 7.462072e-002 5.762797e-002 1.876332e-002
<VARIANCE> 39
 1.356284e+001 1.778449e+001 2.536005e+001 2.964483e+001 5.281309e+001 4.049999e+001 4.675340e+001 3.269017e+001 4.191140e+001 3.050038e+001 2.706810e+001 2.385894e+001 3.554141e+001 4.196528e-001 8.098304e-001 6.587531e-001 1.148616e+000 1.601372e+000 1.426260e+000 1.174718e+000 1.719597e+000 1.955593e+000 1.653861e+000 1.519577e+000 1.496581e+000 2.675228e-001 5.419623e-002 9.253341e-002 1.071094e-001 1.816857e-001 2.031200e-001 2.237835e-001 2.087474e-001 2.789551e-001 3.436226e-001 3.219065e-001 2.475645e-001 2.742920e-001 3.063679e-002
<GCONST> 9.328169e+001
<TRANSP> 5
 0.000000e+000 1.000000e+000 0.000000e+000 0.000000e+000 0.000000e+000
 0.000000e+000 7.747843e-001 2.252157e-001 0.000000e+000 0.000000e+000
 0.000000e+000 0.000000e+000 9.088617e-001 9.113827e-002 0.000000e+000
 0.000000e+000 0.000000e+000 0.000000e+000 9.240516e-001 7.594834e-002
 0.000000e+000 0.000000e+000 0.000000e+000 0.000000e+000 0.000000e+000
<ENDHMM>
~h "au"
<BEGINHMM>
<NUMSTATES> 5
<STATE> 2
<MEAN> 39
 1.273754e+000 -3.459540e+000 -9.671948e+000 -1.349620e+001 -1.001874e+001 -6.365663e+000 -2.838736e+000 -4.377906e+000 5.327413e-001 3.575667e+000 -1.483157e-001 -4.718707e+000 7.424740e+001 2.050159e-001 6.816144e-001 3.014501e-001 4.733642e-001 -2.758735e-001 -6.918125e-001 -7.664191e-001 -8.343011e-001 -1.235123e-001 3.880064e-002 6.821890e-001 4.433360e-001 -4.706104e-001 2.311563e-002 1.301335e-001 8.527798e-003 7.194275e-002 6.916098e-002 5.187298e-002 6.959941e-002 -1.429639e-001 -1.505320e-001 -1.499433e-001 -1.887805e-002 7.978892e-002 -1.003142e-001
<VARIANCE> 39
 7.904437e+000 3.043573e+001 3.299977e+001 4.318266e+001 5.506334e+001 1.271399e+002 5.985967e+001 3.647899e+001 5.744712e+001 4.397604e+001 4.803629e+001 5.564199e+001 1.344520e+001 2.455138e-001 7.446720e-001 4.601907e-001 7.473134e-001 1.173156e+000 1.446566e+000 1.198810e+000 2.032713e+000 1.826339e+000 1.669229e+000 1.352855e+000 1.666724e+000 2.261666e-001 3.013202e-002 7.892669e-002 8.385219e-002 1.094989e-001 1.676773e-001 2.498478e-001 2.399592e-001 2.502099e-001 3.076971e-001 3.157351e-001 2.536301e-001 2.460109e-001 2.132429e-002
<GCONST> 9.271202e+001
<STATE> 3
<MEAN> 39
 3.638959e+000 3.839509e+000 -6.472675e+000 -9.872185e+000 -1.215682e+001 -8.312434e+000 -7.139627e+000 -1.413899e+001 -6.384593e+000 8.458607e-002 2.470576e+000 -8.767936e-001 6.797482e+001 3.324309e-002 1.207689e+000 4.357884e-001 3.480358e-001 2.454900e-001 1.626879e-001 -2.101596e-002 -3.206458e-001 -1.072252e+000 -9.585815e-001 -4.364039e-001 1.778209e-001 -9.949284e-001 -9.227904e-002 -2.833401e-002 3.000422e-002 -3.792013e-002 3.149876e-002 7.689863e-002 1.100305e-001 2.948312e-001 1.055697e-001 -2.102243e-002 -1.721522e-001 -1.247396e-001 -2.449342e-002
<VARIANCE> 39
 5.702781e+000 2.930630e+001 2.393375e+001 4.144158e+001 5.638678e+001 7.407942e+001 5.714137e+001 5.490484e+001 1.011729e+002 3.630746e+001 2.829887e+001 4.204207e+001 1.233788e+001 2.432885e-001 8.473645e-001 7.368039e-001 1.099049e+000 1.213923e+000 1.653967e+000 1.674400e+000 1.894522e+000 1.847175e+000 1.840374e+000 1.860935e+000 1.573341e+000 2.658932e-001 3.366360e-002 7.539406e-002 1.132555e-001 1.754021e-001 2.183623e-001 1.900018e-001 2.763364e-001 2.839513e-001 3.248917e-001 2.554651e-001 2.692645e-001 2.476630e-001 1.862255e-002
<GCONST> 9.411902e+001
<STATE> 4
<MEAN> 39
 -8.704641e-001 1.111667e+001 -2.156070e+000 -5.752898e+000 -7.899043e+000 -5.348205e+000 -3.430005e+000 -9.285226e+000 -7.204950e+000 -6.736963e+000 -3.527341e+000 -1.709424e+000 5.900796e+001 -6.251834e-001 -1.527862e-001 2.533234e-001 5.354648e-001 6.782948e-001 1.860321e-001 1.673671e-001 5.772392e-001 3.890033e-001 -8.454722e-002 -2.557873e-001 -1.289340e-002 -7.860150e-001 -5.807562e-002 -1.990498e-001 -5.396631e-002 2.142686e-003 4.271197e-002 1.078637e-003 -2.801684e-002 2.052863e-002 8.524353e-002 1.433801e-001 1.253543e-001 7.899365e-002 3.976284e-002
<VARIANCE> 39
 9.802727e+000 2.681778e+001 1.434598e+001 2.182986e+001 3.365883e+001 3.319011e+001 3.976304e+001 3.265830e+001 5.125750e+001 3.649864e+001 3.571108e+001 3.000960e+001 2.426345e+001 3.605663e-001 8.804104e-001 6.529738e-001 9.359306e-001 1.118382e+000 1.477790e+000 1.856421e+000 1.651723e+000 1.812039e+000 1.901016e+000 1.648747e+000 1.684749e+000 2.714775e-001 3.988853e-002 1.012083e-001 1.162631e-001 1.520264e-001 1.816257e-001 2.314948e-001 2.953192e-001 2.732968e-001 2.881075e-001 3.124696e-001 2.857437e-001 2.621540e-001 2.576281e-002
<GCONST> 9.192924e+001
<TRANSP> 5
 0.000000e+000 1.000000e+000 0.000000e+000 0.000000e+000 0.000000e+000
 0.000000e+000 8.636431e-001 1.363569e-001 0.000000e+000 0.000000e+000
 0.000000e+000 0.000000e+000 8.643368e-001 1.356632e-001 0.000000e+000
 0.000000e+000 0.000000e+000 0.000000e+000 9.137304e-001 8.626960e-002
 0.000000e+000 0.000000e+000 0.000000e+000 0.000000e+000 0.000000e+000
<ENDHMM>
~h "e:"
<BEGINHMM>
<NUMSTATES> 5
<STATE> 2
<MEAN> 39
 -4.224761e+000 -1.544761e+000 6.146139e+000 -3.698103e+000 -2.201909e+001 -1.955530e+001 -4.800076e+000 -8.827544e+000 -7.310636e+000 -3.845616e+000 7.887413e-001 -1.459029e+000 7.489505e+001 -1.635218e-002 1.418156e-002 2.924578e-002 -4.140338e-002 5.847809e-002 -1.908785e-002 -2.862128e-002 6.088948e-002 -7.470156e-003 1.542308e-003 1.520413e-002 -1.902365e-002 -1.482069e-001 5.087223e-003 2.333537e-002 -2.089783e-002 1.685324e-002 4.524535e-002 3.086755e-002 3.276296e-003 6.811976e-003 2.324655e-002 -1.972939e-002 -1.764862e-002 8.205867e-004 -3.532483e-002
<VARIANCE> 39
 5.151248e+000 3.204007e+001 4.742128e+001 4.545393e+001 4.675164e+001 5.626751e+001 3.879777e+001 3.977026e+001 2.652804e+001 4.032354e+001 4.741602e+001 7.482626e+001 1.200684e+001 8.621418e-002 2.603197e-001 3.009318e-001 5.222793e-001 7.442725e-001 6.858348e-001 6.493225e-001 6.156973e-001 7.133980e-001 6.852195e-001 6.494688e-001 5.186000e-001 1.004895e-001 1.544950e-002 4.262058e-002 5.826881e-002 9.479478e-002 1.317881e-001 1.407211e-001 1.303664e-001 1.120480e-001 1.397724e-001 1.382463e-001 1.202828e-001 1.035054e-001 1.780484e-002
<GCONST> 7.287337e+001
<STATE> 3
<MEAN> 39
 -3.086251e+000 -4.892614e-001 6.648172e+000 -6.926671e-001 -1.903310e+001 -2.320712e+001 -7.171818e+000 -4.374829e+000 -4.551953e+000 -5.791199e+000 -2.661288e+000 1.717665e+000 7.055504e+001 5.932720e-003 8.960354e-002 -1.562124e-001 -1.126364e-002 1.983135e-001 7.280603e-002 1.373838e-001 2.041314e-001 2.531492e-001 -5.633387e-002 -2.348702e-001 -1.237914e-001 -4.678325e-001 -6.102517e-004 2.840982e-002 -1.662224e-002 3.555341e-002 9.265331e-002 8.585527e-002 3.240351e-002 2.522113e-002 -1.395206e-002 2.388827e-002 -6.193030e-002 -5.266844e-002 -7.553255e-002
<VARIANCE> 39
 9.709599e+000 2.106471e+001 2.224760e+001 2.929775e+001 9.693690e+001 4.335895e+001 2.242764e+001 4.175906e+001 6.019078e+001 2.963679e+001 4.482989e+001 3.397614e+001 1.108539e+001 2.112768e-001 5.206025e-001 5.486102e-001 9.438555e-001 1.210016e+000 8.228145e-001 1.645054e+000 1.218444e+000 1.623413e+000 1.395877e+000 1.452385e+000 1.108510e+000 1.904852e-001 3.445793e-002 8.910551e-002 9.682558e-002 1.735143e-001 2.201324e-001 1.734351e-001 2.733124e-001 2.462518e-001 2.908800e-001 2.541918e-001 2.607388e-001 2.068335e-001 2.590250e-002
<GCONST> 8.833137e+001
<STATE> 4
<MEAN> 39
 -5.408612e+000 1.922283e-002 4.329371e+000 -3.326935e-001 -1.342406e+001 -1.549605e+001 -3.988210e+000 -2.564831e+000 -2.308542e+000 -3.151755e+000 -2.868608e+000 -6.842627e-001 6.281677e+001 -3.038945e-001 1.119891e-001 -5.533577e-001 2.128087e-001 1.129776e+000 8.049542e-001 2.785382e-001 2.453205e-001 2.684067e-001 3.979249e-001 3.973559e-002 1.784507e-001 -1.201905e+000 -4.551083e-002 -1.126102e-002 -7.876208e-002 -3.779186e-003 1.174637e-001 6.409761e-002 -1.473793e-003 -6.246181e-003 -3.763507e-002 4.423014e-002 1.196624e-001 4.668730e-002 -2.058874e-002
<VARIANCE> 39
 1.181035e+001 2.071532e+001 2.193284e+001 2.329006e+001 6.372600e+001 5.647173e+001 4.624545e+001 4.110616e+001 5.260554e+001 3.023006e+001 5.288450e+001 5.772565e+001 2.967242e+001 4.594177e-001 1.019511e+000 7.532412e-001 1.195605e+000 1.532769e+000 1.854237e+000 1.655988e+000 2.910822e+000 2.754200e+000 1.755046e+000 2.236392e+000 1.596593e+000 5.706058e-001 6.996951e-002 1.593857e-001 1.094498e-001 1.869268e-001 2.705183e-001 2.884833e-001 3.361258e-001 4.978789e-001 5.425456e-001 2.899605e-001 3.488219e-001 3.075579e-001 6.940496e-002
<GCONST> 1.025055e+002
<TRANSP> 5
 0.000000e+000 1.000000e+000 0.000000e+000 0.000000e+000 0.000000e+000
 0.000000e+000 9.292552e-001 7.074481e-002 0.000000e+000 0.000000e+000
 0.000000e+000 0.000000e+000 8.698562e-001 1.301438e-001 0.000000e+000
 0.000000e+000 0.000000e+000 0.000000e+000 8.674915e-001 1.325085e-001
 0.000000e+000 0.000000e+000 0.000000e+000 0.000000e+000 0.000000e+000
<ENDHMM>
~h "ea"
<BEGINHMM>
<NUMSTATES> 5
<STATE> 2
<MEAN> 39
 -4.153368e+000 1.517201e+000 -1.392376e+000 -5.586075e+000 -9.740211e+000 -8.098919e+000 -1.750134e+000 -4.930145e+000 -2.772430e+000 -2.149349e+000 -2.414108e+000 -1.465052e+000 6.529731e+001 2.300143e-002 1.509052e-002 1.401225e-002 6.290563e-003 -3.631655e-002 -5.298270e-002 -8.996384e-003 -1.725104e-002 -1.659047e-002 -1.542300e-002 -5.569575e-003 -1.004327e-002 -8.028411e-003 -5.385407e-003 7.687603e-003 -2.053345e-003 6.118431e-003 1.287798e-002 1.362365e-002 3.170662e-003 3.442815e-003 5.190067e-003 6.678457e-003 2.682982e-003 3.156542e-003 -2.769514e-002
<VARIANCE> 39
 3.821798e+001 5.290487e+001 6.815633e+001 7.505674e+001 8.069884e+001 9.922321e+001 5.842557e+001 6.155072e+001 5.897418e+001 4.395738e+001 3.820277e+001 3.717608e+001 7.774931e+001 1.322284e+000 1.757013e+000 1.593217e+000 2.179628e+000 2.557859e+000 2.732429e+000 2.388217e+000 2.481541e+000 2.572205e+000 2.280620e+000 2.045945e+000 1.732367e+000 2.160362e+000 1.858594e-001 2.637878e-001 2.274865e-001 3.046213e-001 3.726168e-001 3.977455e-001 4.053145e-001 4.021849e-001 4.302129e-001 3.929369e-001 3.596961e-001 3.057646e-001 2.198328e-001
<GCONST> 1.191859e+002
<STATE> 3
<MEAN> 39
 -4.153368e+000 1.517201e+000 -1.392376e+000 -5.586075e+000 -9.740211e+000 -8.098919e+000 -1.750134e+000 -4.930145e+000 -2.772430e+000 -2.149349e+000 -2.414108e+000 -1.465052e+000 6.529731e+001 2.300143e-002 1.509052e-002 1.401225e-002 6.290563e-003 -3.631655e-002 -5.298270e-002 -8.996384e-003 -1.725104e-002 -1.659047e-002 -1.542300e-002 -5.569575e-003 -1.004327e-002 -8.028411e-003 -5.385407e-003 7.687603e-003 -2.053345e-003 6.118431e-003 1.287798e-002 1.362365e-002 3.170662e-003 3.442815e-003 5.190067e-003 6.678457e-003 2.682982e-003 3.156542e-003 -2.769514e-002
<VARIANCE> 39
 3.821798e+001 5.290487e+001 6.815633e+001 7.505674e+001 8.069884e+001 9.922321e+001 5.842557e+001 6.155072e+001 5.897418e+001 4.395738e+001 3.820277e+001 3.717608e+001 7.774931e+001 1.322284e+000 1.757013e+000 1.593217e+000 2.179628e+000 2.557859e+000 2.732429e+000 2.388217e+000 2.481541e+000 2.572205e+000 2.280620e+000 2.045945e+000 1.732367e+000 2.160362e+000 1.858594e-001 2.637878e-001 2.274865e-001 3.046213e-001 3.726168e-001 3.977455e-001 4.053145e-001 4.021849e-001 4.302129e-001 3.929369e-001 3.596961e-001 3.057646e-001 2.198328e-001
<GCONST> 1.191859e+002
<STATE> 4
<MEAN> 39
 -4.153368e+000 1.517201e+000 -1.392376e+000 -5.586075e+000 -9.740211e+000 -8.098919e+000 -1.750134e+000 -4.930145e+000 -2.772430e+000 -2.149349e+000 -2.414108e+000 -1.465052e+000 6.529731e+001 2.300143e-002 1.509052e-002 1.401225e-002 6.290563e-003 -3.631655e-002 -5.298270e-002 -8.996384e-003 -1.725104e-002 -1.659047e-002 -1.542300e-002 -5.569575e-003 -1.004327e-002 -8.028411e-003 -5.385407e-003 7.687603e-003 -2.053345e-003 6.118431e-003 1.287798e-002 1.362365e-002 3.170662e-003 3.442815e-003 5.190067e-003 6.678457e-003 2.682982e-003 3.156542e-003 -2.769514e-002
<VARIANCE> 39
 3.821798e+001 5.290487e+001 6.815633e+001 7.505674e+001 8.069884e+001 9.922321e+001 5.842557e+001 6.155072e+001 5.897418e+001 4.395738e+001 3.820277e+001 3.717608e+001 7.774931e+001 1.322284e+000 1.757013e+000 1.593217e+000 2.179628e+000 2.557859e+000 2.732429e+000 2.388217e+000 2.481541e+000 2.572205e+000 2.280620e+000 2.045945e+000 1.732367e+000 2.160362e+000 1.858594e-001 2.637878e-001 2.274865e-001 3.046213e-001 3.726168e-001 3.977455e-001 4.053145e-001 4.021849e-001 4.302129e-001 3.929369e-001 3.596961e-001 3.057646e-001 2.198328e-001
<GCONST> 1.191859e+002
<TRANSP> 5
 0.000000e+000 1.000000e+000 0.000000e+000 0.000000e+000 0.000000e+000
 0.000000e+000 6.000000e-001 4.000000e-001 0.000000e+000 0.000000e+000
 0.000000e+000 0.000000e+000 6.000000e-001 4.000000e-001 0.000000e+000
 0.000000e+000 0.000000e+000 0.000000e+000 7.000000e-001 3.000000e-001
 0.000000e+000 0.000000e+000 0.000000e+000 0.000000e+000 0.000000e+000
<ENDHMM>
~h "ei"
<BEGINHMM>
<NUMSTATES> 5
<STATE> 2
<MEAN> 39
 -3.231469e+000 -3.530825e+000 2.389876e+000 -4.551436e+000 -1.637171e+001 -2.269510e+001 -3.944178e+000 -2.058490e+000 -2.389686e+000 -4.081383e+000 1.430620e-001 -9.070100e-001 7.550202e+001 -5.658323e-002 4.343204e-001 5.034615e-001 1.655868e-001 -2.183426e-001 -1.025321e-001 -5.887422e-003 -6.759061e-001 -6.976013e-001 -1.849603e-002 3.116634e-001 6.367194e-002 -3.039986e-001 -6.568342e-003 8.161593e-002 1.469089e-003 4.893137e-002 4.739552e-002 7.553056e-002 -1.677288e-002 -4.226770e-002 -6.561346e-002 -4.728492e-003 -8.117901e-002 -2.256516e-002 -6.277992e-002
<VARIANCE> 39
 4.746427e+000 2.424872e+001 3.473682e+001 4.921478e+001 4.786997e+001 6.729214e+001 5.241822e+001 5.008081e+001 4.106584e+001 4.517417e+001 3.142954e+001 3.789960e+001 1.009196e+001 1.446723e-001 3.352129e-001 4.934452e-001 5.929062e-001 6.714123e-001 8.259239e-001 8.693708e-001 1.156151e+000 9.686697e-001 1.407879e+000 1.034705e+000 8.685213e-001 1.927620e-001 2.309156e-002 5.620870e-002 8.978780e-002 1.027600e-001 1.160489e-001 1.248096e-001 1.807306e-001 1.885944e-001 1.622527e-001 2.023678e-001 1.825117e-001 1.527632e-001 2.649525e-002
<GCONST> 8.088165e+001
<STATE> 3
<MEAN> 39
 -4.313195e+000 2.304752e+000 9.510628e+000 -1.422716e+000 -1.874431e+001 -1.784112e+001 -3.124598e+000 -9.072772e+000 -9.778468e+000 -3.581826e+000 -5.828711e-001 -1.440974e+000 6.949125e+001 -1.258573e-001 6.733279e-001 3.366595e-001 2.455483e-001 2.994120e-001 4.863224e-001 2.176367e-001 -2.189749e-001 -3.248699e-001 -1.432591e-001 -3.853297e-001 -3.962731e-001 -6.734651e-001 -2.222845e-002 -2.251399e-002 -3.255310e-002 1.577766e-002 8.542132e-002 5.569708e-002 -3.949731e-003 3.097112e-002 8.558471e-002 -1.189259e-002 -1.900447e-002 7.714008e-003 -2.246033e-002
<VARIANCE> 39
 4.504009e+000 2.470384e+001 2.529892e+001 4.552012e+001 6.899183e+001 7.727549e+001 2.622436e+001 4.132834e+001 4.560592e+001 4.272649e+001 3.789781e+001 3.831207e+001 1.113608e+001 1.195369e-001 3.920038e-001 6.375699e-001 9.222938e-001 1.035389e+000 1.094818e+000 1.077101e+000 1.297461e+000 9.110032e-001 8.839065e-001 7.578370e-001 9.854074e-001 1.594546e-001 2.210169e-002 4.390270e-002 1.012298e-001 1.406028e-001 1.883275e-001 1.837704e-001 1.883805e-001 2.577999e-001 1.508931e-001 1.639418e-001 1.521916e-001 1.809745e-001 1.475990e-002
<GCONST> 8.171135e+001
<STATE> 4
<MEAN> 39
 -7.751895e+000 7.294874e+000 1.067885e+001 2.903446e+000 -1.340677e+001 -1.007918e+001 -3.985299e-001 -1.055002e+001 -7.970556e+000 -4.937257e+000 -3.316815e+000 -2.739319e+000 6.139722e+001 -3.391021e-001 -1.883135e-001 -5.550409e-001 1.432199e-001 1.027924e+000 8.432873e-001 1.941886e-001 2.518350e-001 9.881342e-002 2.710215e-001 4.199815e-003 4.832838e-002 -9.467171e-001 -2.219642e-002 -1.568423e-001 -1.705719e-001 -9.549914e-002 3.771894e-002 1.202524e-002 1.512212e-002 1.461565e-001 8.928020e-002 9.028287e-002 8.184280e-002 5.492239e-002 -1.253856e-002
<VARIANCE> 39
 1.188678e+001 2.867977e+001 4.019148e+001 1.894960e+001 8.362341e+001 5.497652e+001 3.878431e+001 3.882638e+001 5.132006e+001 3.803882e+001 2.526067e+001 4.088082e+001 2.679167e+001 3.053343e-001 9.600474e-001 1.096832e+000 9.059092e-001 1.710329e+000 1.720104e+000 1.981708e+000 2.156839e+000 1.878549e+000 1.725292e+000 1.616217e+000 1.356680e+000 3.641783e-001 5.486128e-002 1.261279e-001 1.242161e-001 1.350249e-001 2.745641e-001 3.301458e-001 4.027567e-001 3.273168e-001 2.963510e-001 2.890011e-001 2.656670e-001 2.371921e-001 4.873686e-002
<GCONST> 9.821664e+001
<TRANSP> 5
 0.000000e+000 1.000000e+000 0.000000e+000 0.000000e+000 0.000000e+000
 0.000000e+000 8.863273e-001 1.136727e-001 0.000000e+000 0.000000e+000
 0.000000e+000 0.000000e+000 8.933285e-001 1.066715e-001 0.000000e+000
 0.000000e+000 0.000000e+000 0.000000e+000 9.042198e-001 9.578025e-002
 0.000000e+000 0.000000e+000 0.000000e+000 0.000000e+000 0.000000e+000
<ENDHMM>
~h "eo"
<BEGINHMM>
<NUMSTATES> 5
<STATE> 2
<MEAN> 39
 -4.153368e+000 1.517201e+000 -1.392376e+000 -5.586075e+000 -9.740211e+000 -8.098919e+000 -1.750134e+000 -4.930145e+000 -2.772430e+000 -2.149349e+000 -2.414108e+000 -1.465052e+000 6.529731e+001 2.300143e-002 1.509052e-002 1.401225e-002 6.290563e-003 -3.631655e-002 -5.298270e-002 -8.996384e-003 -1.725104e-002 -1.659047e-002 -1.542300e-002 -5.569575e-003 -1.004327e-002 -8.028411e-003 -5.385407e-003 7.687603e-003 -2.053345e-003 6.118431e-003 1.287798e-002 1.362365e-002 3.170662e-003 3.442815e-003 5.190067e-003 6.678457e-003 2.682982e-003 3.156542e-003 -2.769514e-002
<VARIANCE> 39
 3.821798e+001 5.290487e+001 6.815633e+001 7.505674e+001 8.069884e+001 9.922321e+001 5.842557e+001 6.155072e+001 5.897418e+001 4.395738e+001 3.820277e+001 3.717608e+001 7.774931e+001 1.322284e+000 1.757013e+000 1.593217e+000 2.179628e+000 2.557859e+000 2.732429e+000 2.388217e+000 2.481541e+000 2.572205e+000 2.280620e+000 2.045945e+000 1.732367e+000 2.160362e+000 1.858594e-001 2.637878e-001 2.274865e-001 3.046213e-001 3.726168e-001 3.977455e-001 4.053145e-001 4.021849e-001 4.302129e-001 3.929369e-001 3.596961e-001 3.057646e-001 2.198328e-001
<GCONST> 1.191859e+002
<STATE> 3
<MEAN> 39
 -4.153368e+000 1.517201e+000 -1.392376e+000 -5.586075e+000 -9.740211e+000 -8.098919e+000 -1.750134e+000 -4.930145e+000 -2.772430e+000 -2.149349e+000 -2.414108e+000 -1.465052e+000 6.529731e+001 2.300143e-002 1.509052e-002 1.401225e-002 6.290563e-003 -3.631655e-002 -5.298270e-002 -8.996384e-003 -1.725104e-002 -1.659047e-002 -1.542300e-002 -5.569575e-003 -1.004327e-002 -8.028411e-003 -5.385407e-003 7.687603e-003 -2.053345e-003 6.118431e-003 1.287798e-002 1.362365e-002 3.170662e-003 3.442815e-003 5.190067e-003 6.678457e-003 2.682982e-003 3.156542e-003 -2.769514e-002
<VARIANCE> 39
 3.821798e+001 5.290487e+001 6.815633e+001 7.505674e+001 8.069884e+001 9.922321e+001 5.842557e+001 6.155072e+001 5.897418e+001 4.395738e+001 3.820277e+001 3.717608e+001 7.774931e+001 1.322284e+000 1.757013e+000 1.593217e+000 2.179628e+000 2.557859e+000 2.732429e+000 2.388217e+000 2.481541e+000 2.572205e+000 2.280620e+000 2.045945e+000 1.732367e+000 2.160362e+000 1.858594e-001 2.637878e-001 2.274865e-001 3.046213e-001 3.726168e-001 3.977455e-001 4.053145e-001 4.021849e-001 4.302129e-001 3.929369e-001 3.596961e-001 3.057646e-001 2.198328e-001
<GCONST> 1.191859e+002
<STATE> 4
<MEAN> 39
 -4.153368e+000 1.517201e+000 -1.392376e+000 -5.586075e+000 -9.740211e+000 -8.098919e+000 -1.750134e+000 -4.930145e+000 -2.772430e+000 -2.149349e+000 -2.414108e+000 -1.465052e+000 6.529731e+001 2.300143e-002 1.509052e-002 1.401225e-002 6.290563e-003 -3.631655e-002 -5.298270e-002 -8.996384e-003 -1.725104e-002 -1.659047e-002 -1.542300e-002 -5.569575e-003 -1.004327e-002 -8.028411e-003 -5.385407e-003 7.687603e-003 -2.053345e-003 6.118431e-003 1.287798e-002 1.362365e-002 3.170662e-003 3.442815e-003 5.190067e-003 6.678457e-003 2.682982e-003 3.156542e-003 -2.769514e-002
<VARIANCE> 39
 3.821798e+001 5.290487e+001 6.815633e+001 7.505674e+001 8.069884e+001 9.922321e+001 5.842557e+001 6.155072e+001 5.897418e+001 4.395738e+001 3.820277e+001 3.717608e+001 7.774931e+001 1.322284e+000 1.757013e+000 1.593217e+000 2.179628e+000 2.557859e+000 2.732429e+000 2.388217e+000 2.481541e+000 2.572205e+000 2.280620e+000 2.045945e+000 1.732367e+000 2.160362e+000 1.858594e-001 2.637878e-001 2.274865e-001 3.046213e-001 3.726168e-001 3.977455e-001 4.053145e-001 4.021849e-001 4.302129e-001 3.929369e-001 3.596961e-001 3.057646e-001 2.198328e-001
<GCONST> 1.191859e+002
<TRANSP> 5
 0.000000e+000 1.000000e+000 0.000000e+000 0.000000e+000 0.000000e+000
 0.000000e+000 6.000000e-001 4.000000e-001 0.000000e+000 0.000000e+000
 0.000000e+000 0.000000e+000 6.000000e-001 4.000000e-001 0.000000e+000
 0.000000e+000 0.000000e+000 0.000000e+000 7.000000e-001 3.000000e-001
 0.000000e+000 0.000000e+000 0.000000e+000 0.000000e+000 0.000000e+000
<ENDHMM>
~h "eu"
<BEGINHMM>
<NUMSTATES> 5
<STATE> 2
<MEAN> 39
 -4.153368e+000 1.517201e+000 -1.392376e+000 -5.586075e+000 -9.740211e+000 -8.098919e+000 -1.750134e+000 -4.930145e+000 -2.772430e+000 -2.149349e+000 -2.414108e+000 -1.465052e+000 6.529731e+001 2.300143e-002 1.509052e-002 1.401225e-002 6.290563e-003 -3.631655e-002 -5.298270e-002 -8.996384e-003 -1.725104e-002 -1.659047e-002 -1.542300e-002 -5.569575e-003 -1.004327e-002 -8.028411e-003 -5.385407e-003 7.687603e-003 -2.053345e-003 6.118431e-003 1.287798e-002 1.362365e-002 3.170662e-003 3.442815e-003 5.190067e-003 6.678457e-003 2.682982e-003 3.156542e-003 -2.769514e-002
<VARIANCE> 39
 3.821798e+001 5.290487e+001 6.815633e+001 7.505674e+001 8.069884e+001 9.922321e+001 5.842557e+001 6.155072e+001 5.897418e+001 4.395738e+001 3.820277e+001 3.717608e+001 7.774931e+001 1.322284e+000 1.757013e+000 1.593217e+000 2.179628e+000 2.557859e+000 2.732429e+000 2.388217e+000 2.481541e+000 2.572205e+000 2.280620e+000 2.045945e+000 1.732367e+000 2.160362e+000 1.858594e-001 2.637878e-001 2.274865e-001 3.046213e-001 3.726168e-001 3.977455e-001 4.053145e-001 4.021849e-001 4.302129e-001 3.929369e-001 3.596961e-001 3.057646e-001 2.198328e-001
<GCONST> 1.191859e+002
<STATE> 3
<MEAN> 39
 -4.153368e+000 1.517201e+000 -1.392376e+000 -5.586075e+000 -9.740211e+000 -8.098919e+000 -1.750134e+000 -4.930145e+000 -2.772430e+000 -2.149349e+000 -2.414108e+000 -1.465052e+000 6.529731e+001 2.300143e-002 1.509052e-002 1.401225e-002 6.290563e-003 -3.631655e-002 -5.298270e-002 -8.996384e-003 -1.725104e-002 -1.659047e-002 -1.542300e-002 -5.569575e-003 -1.004327e-002 -8.028411e-003 -5.385407e-003 7.687603e-003 -2.053345e-003 6.118431e-003 1.287798e-002 1.362365e-002 3.170662e-003 3.442815e-003 5.190067e-003 6.678457e-003 2.682982e-003 3.156542e-003 -2.769514e-002
<VARIANCE> 39
 3.821798e+001 5.290487e+001 6.815633e+001 7.505674e+001 8.069884e+001 9.922321e+001 5.842557e+001 6.155072e+001 5.897418e+001 4.395738e+001 3.820277e+001 3.717608e+001 7.774931e+001 1.322284e+000 1.757013e+000 1.593217e+000 2.179628e+000 2.557859e+000 2.732429e+000 2.388217e+000 2.481541e+000 2.572205e+000 2.280620e+000 2.045945e+000 1.732367e+000 2.160362e+000 1.858594e-001 2.637878e-001 2.274865e-001 3.046213e-001 3.726168e-001 3.977455e-001 4.053145e-001 4.021849e-001 4.302129e-001 3.929369e-001 3.596961e-001 3.057646e-001 2.198328e-001
<GCONST> 1.191859e+002
<STATE> 4
<MEAN> 39
 -4.153368e+000 1.517201e+000 -1.392376e+000 -5.586075e+000 -9.740211e+000 -8.098919e+000 -1.750134e+000 -4.930145e+000 -2.772430e+000 -2.149349e+000 -2.414108e+000 -1.465052e+000 6.529731e+001 2.300143e-002 1.509052e-002 1.401225e-002 6.290563e-003 -3.631655e-002 -5.298270e-002 -8.996384e-003 -1.725104e-002 -1.659047e-002 -1.542300e-002 -5.569575e-003 -1.004327e-002 -8.028411e-003 -5.385407e-003 7.687603e-003 -2.053345e-003 6.118431e-003 1.287798e-002 1.362365e-002 3.170662e-003 3.442815e-003 5.190067e-003 6.678457e-003 2.682982e-003 3.156542e-003 -2.769514e-002
<VARIANCE> 39
 3.821798e+001 5.290487e+001 6.815633e+001 7.505674e+001 8.069884e+001 9.922321e+001 5.842557e+001 6.155072e+001 5.897418e+001 4.395738e+001 3.820277e+001 3.717608e+001 7.774931e+001 1.322284e+000 1.757013e+000 1.593217e+000 2.179628e+000 2.557859e+000 2.732429e+000 2.388217e+000 2.481541e+000 2.572205e+000 2.280620e+000 2.045945e+000 1.732367e+000 2.160362e+000 1.858594e-001 2.637878e-001 2.274865e-001 3.046213e-001 3.726168e-001 3.977455e-001 4.053145e-001 4.021849e-001 4.302129e-001 3.929369e-001 3.596961e-001 3.057646e-001 2.198328e-001
<GCONST> 1.191859e+002
<TRANSP> 5
 0.000000e+000 1.000000e+000 0.000000e+000 0.000000e+000 0.000000e+000
 0.000000e+000 6.000000e-001 4.000000e-001 0.000000e+000 0.000000e+000
 0.000000e+000 0.000000e+000 6.000000e-001 4.000000e-001 0.000000e+000
 0.000000e+000 0.000000e+000 0.000000e+000 7.000000e-001 3.000000e-001
 0.000000e+000 0.000000e+000 0.000000e+000 0.000000e+000 0.000000e+000
<ENDHMM>
~h "i:"
<BEGINHMM>
<NUMSTATES> 5
<STATE> 2
<MEAN> 39
