~o
<STREAMINFO> 1 39
<VECSIZE> 39<NULLD><MFCC_D_A_0><DIAGC>
~s "silst"
<MEAN> 39
 -1.039813e+001 -3.123059e+000 -5.418355e+000 -6.515124e+000 -6.639364e+000 -4.896307e+000 -2.058283e+000 -1.480697e+000 5.042731e-001 -1.048189e+000 8.762573e-002 -9.859613e-001 6.502167e+001 4.447078e-001 -3.777086e-001 -4.351819e-001 -9.595947e-001 -7.335660e-001 -1.367892e-001 2.326071e-001 -3.116224e-001 -9.328549e-002 -2.190762e-001 -2.296322e-001 -2.795363e-001 1.310037e+000 3.345451e-001 4.789195e-001 1.957295e-001 1.758723e-001 1.346190e-001 1.612272e-001 2.025042e-001 -9.187926e-002 -1.734597e-001 -7.879663e-002 -2.286119e-001 -9.686565e-002 -4.682302e-001
<VARIANCE> 39
 3.090673e+001 3.620002e+001 3.673484e+001 4.079194e+001 5.268201e+001 4.801838e+001 3.797168e+001 2.835185e+001 3.825386e+001 2.925911e+001 2.741770e+001 2.567782e+001 5.873198e+001 3.216887e+000 3.891282e+000 3.308741e+000 3.111051e+000 3.471718e+000 3.683111e+000 3.106603e+000 2.977204e+000 2.964065e+000 2.831714e+000 2.570008e+000 2.178976e+000 5.590579e+000 3.805210e-001 5.876691e-001 4.909166e-001 6.536150e-001 6.886352e-001 6.516114e-001 6.285454e-001 5.678699e-001 6.439437e-001 5.914621e-001 4.890423e-001 4.867114e-001 7.455048e-001
<GCONST> 1.265195e+002
~h "N"
<BEGINHMM>
<NUMSTATES> 5
<STATE> 2
<MEAN> 39
 -2.798081e+000 1.015603e+000 -2.737489e+000 -6.760623e+000 -9.013508e+000 -7.721240e+000 -2.340556e+000 -5.791430e+000 -3.008503e+000 -2.842516e+000 -2.408931e+000 -3.042888e+000 6.712006e+001 1.816639e-002 7.030336e-003 1.035966e-002 1.197295e-002 -3.030741e-002 -3.000990e-002 -1.121263e-002 -1.918899e-002 -8.024712e-003 -9.913054e-003 -2.549139e-003 -2.114425e-003 5.405467e-003 -4.415081e-003 1.196028e-002 1.510665e-003 1.035524e-002 1.260583e-002 1.132140e-002 1.643880e-003 5.128350e-003 4.624746e-003 4.331185e-003 1.837649e-003 5.600615e-003 -3.189945e-002
<VARIANCE> 39
 3.428817e+001 4.836518e+001 6.373507e+001 6.480933e+001 7.744907e+001 9.549992e+001 5.887634e+001 5.563300e+001 4.740282e+001 3.601039e+001 3.689566e+001 3.421291e+001 5.592876e+001 1.284020e+000 1.579060e+000 1.448692e+000 1.879212e+000 2.206893e+000 2.620023e+000 2.072583e+000 2.299653e+000 2.249433e+000 1.916542e+000 1.814010e+000 1.601416e+000 1.662629e+000 1.691740e-001 2.286167e-001 1.968112e-001 2.685542e-001 3.292408e-001 3.721457e-001 3.482843e-001 3.651308e-001 3.816728e-001 3.350308e-001 3.148932e-001 2.783629e-001 1.694588e-001
<GCONST> 1.144672e+002
<STATE> 3
<MEAN> 39
 -2.798081e+000 1.015603e+000 -2.737489e+000 -6.760623e+000 -9.013508e+000 -7.721240e+000 -2.340556e+000 -5.791430e+000 -3.008503e+000 -2.842516e+000 -2.408931e+000 -3.042888e+000 6.712006e+001 1.816639e-002 7.030336e-003 1.035966e-002 1.197295e-002 -3.030741e-002 -3.000990e-002 -1.121263e-002 -1.918899e-002 -8.024712e-003 -9.913054e-003 -2.549139e-003 -2.114425e-003 5.405467e-003 -4.415081e-003 1.196028e-002 1.510665e-003 1.035524e-002 1.260583e-002 1.132140e-002 1.643880e-003 5.128350e-003 4.624746e-003 4.331185e-003 1.837649e-003 5.600615e-003 -3.189945e-002
<VARIANCE> 39
 3.428817e+001 4.836518e+001 6.373507e+001 6.480933e+001 7.744907e+001 9.549992e+001 5.887634e+001 5.563300e+001 4.740282e+001 3.601039e+001 3.689566e+001 3.421291e+001 5.592876e+001 1.284020e+000 1.579060e+000 1.448692e+000 1.879212e+000 2.206893e+000 2.620023e+000 2.072583e+000 2.299653e+000 2.249433e+000 1.916542e+000 1.814010e+000 1.601416e+000 1.662629e+000 1.691740e-001 2.286167e-001 1.968112e-001 2.685542e-001 3.292408e-001 3.721457e-001 3.482843e-001 3.651308e-001 3.816728e-001 3.350308e-001 3.148932e-001 2.783629e-001 1.694588e-001
<GCONST> 1.144672e+002
<STATE> 4
<MEAN> 39
 -2.798081e+000 1.015603e+000 -2.737489e+000 -6.760623e+000 -9.013508e+000 -7.721240e+000 -2.340556e+000 -5.791430e+000 -3.008503e+000 -2.842516e+000 -2.408931e+000 -3.042888e+000 6.712006e+001 1.816639e-002 7.030336e-003 1.035966e-002 1.197295e-002 -3.030741e-002 -3.000990e-002 -1.121263e-002 -1.918899e-002 -8.024712e-003 -9.913054e-003 -2.549139e-003 -2.114425e-003 5.405467e-003 -4.415081e-003 1.196028e-002 1.510665e-003 1.035524e-002 1.260583e-002 1.132140e-002 1.643880e-003 5.128350e-003 4.624746e-003 4.331185e-003 1.837649e-003 5.600615e-003 -3.189945e-002
<VARIANCE> 39
 3.428817e+001 4.836518e+001 6.373507e+001 6.480933e+001 7.744907e+001 9.549992e+001 5.887634e+001 5.563300e+001 4.740282e+001 3.601039e+001 3.689566e+001 3.421291e+001 5.592876e+001 1.284020e+000 1.579060e+000 1.448692e+000 1.879212e+000 2.206893e+000 2.620023e+000 2.072583e+000 2.299653e+000 2.249433e+000 1.916542e+000 1.814010e+000 1.601416e+000 1.662629e+000 1.691740e-001 2.286167e-001 1.968112e-001 2.685542e-001 3.292408e-001 3.721457e-001 3.482843e-001 3.651308e-001 3.816728e-001 3.350308e-001 3.148932e-001 2.783629e-001 1.694588e-001
<GCONST> 1.144672e+002
<TRANSP> 5
 0.000000e+000 1.000000e+000 0.000000e+000 0.000000e+000 0.000000e+000
 0.000000e+000 6.000000e-001 4.000000e-001 0.000000e+000 0.000000e+000
 0.000000e+000 0.000000e+000 6.000000e-001 4.000000e-001 0.000000e+000
 0.000000e+000 0.000000e+000 0.000000e+000 7.000000e-001 3.000000e-001
 0.000000e+000 0.000000e+000 0.000000e+000 0.000000e+000 0.000000e+000
<ENDHMM>
~h "a"
<BEGINHMM>
<NUMSTATES> 5
<STATE> 2
<MEAN> 39
 1.360166e+000 -4.995969e+000 -9.936739e+000 -1.042921e+001 -5.230033e+000 -5.949663e+000 -1.150897e+000 -6.505138e+000 4.064414e+000 3.606702e+000 -9.671548e+000 -9.020436e+000 7.353674e+001 -5.773636e-001 1.611955e+000 1.270967e+000 1.492772e+000 3.545612e-001 -1.170718e+000 -1.345669e+000 1.011981e+000 8.140061e-001 1.543788e-001 1.611595e+000 -3.565443e-002 -1.549073e+000 -3.548988e-001 5.370640e-001 1.915386e-001 -2.127738e-002 3.136955e-001 4.280748e-001 -2.564433e-002 3.358262e-002 -4.903286e-001 -4.067974e-001 4.035343e-001 7.112779e-002 -7.535979e-001
<VARIANCE> 39
 4.411486e+000 1.706118e+001 2.526926e+001 4.716764e+001 4.223631e+001 4.869803e+001 5.426710e+001 2.280248e+001 2.645264e+001 1.079423e+001 2.749901e+001 2.567257e+001 1.488113e+001 7.623910e-001 1.091745e+000 9.641605e-001 2.024603e+000 1.869925e+000 1.546422e+000 3.057265e+000 2.351263e+000 3.774585e+000 1.677111e+000 1.621001e+000 2.188828e+000 1.665004e+000 9.298152e-002 4.872454e-001 2.796925e-001 3.797296e-001 2.267296e-001 4.211380e-001 9.458196e-001 3.009466e-001 9.192010e-001 2.729985e-001 3.429441e-001 3.949981e-001 1.546072e-001
<GCONST> 1.056961e+002
<STATE> 3
<MEAN> 39
 -3.936689e+000 -1.593531e-001 -6.351326e+000 -6.860962e+000 -1.281601e+000 -4.276905e+000 -2.820871e+000 -3.839531e+000 1.956588e+000 1.857757e+000 -3.950165e+000 -9.072988e+000 6.474690e+001 -9.487984e-001 6.593279e-002 2.825483e-001 3.734651e-001 1.088300e-001 4.072168e-001 4.455335e-002 7.532697e-001 -7.107601e-001 -3.655420e-001 9.699273e-001 5.592610e-001 -1.891508e+000 1.225164e-001 -2.858452e-001 -3.144374e-001 -1.959123e-001 -2.589204e-001 5.588091e-002 1.247705e-001 -5.870140e-002 1.137402e-001 6.993107e-002 -2.375845e-001 2.480570e-001 2.585423e-001
<VARIANCE> 39
 5.971699e+000 1.616729e+001 1.698374e+001 1.414811e+001 1.348653e+001 2.409490e+001 2.829917e+001 1.877554e+001 3.537598e+001 1.828467e+001 2.182444e+001 1.983804e+001 1.577372e+001 8.748771e-001 1.327538e+000 1.307987e+000 9.985655e-001 1.358932e+000 2.589131e+000 3.058917e+000 2.552821e+000 2.943132e+000 1.457640e+000 1.270665e+000 1.655876e+000 7.800875e-001 1.305979e-001 3.581274e-001 2.395902e-001 1.898084e-001 2.087568e-001 2.952516e-001 5.817838e-001 6.079521e-001 8.048495e-001 2.798071e-001 2.629350e-001 2.400591e-001 1.334029e-001
<GCONST> 9.852430e+001
<STATE> 4
<MEAN> 39
 -8.930351e+000 1.156968e+000 -6.029830e+000 -5.782067e+000 -1.819228e+000 -2.436391e+000 -2.049349e+000 -1.531806e+000 1.528400e+000 3.901794e-001 -1.670403e+000 -3.609765e+000 5.853792e+001 -8.925944e-001 5.247961e-002 1.425098e-001 -9.395874e-002 1.416945e-001 7.103568e-002 7.057716e-002 2.266365e-001 -2.729590e-002 -2.824617e-001 2.745227e-001 6.548387e-001 -1.102107e-001 -1.090732e-001 -7.535977e-002 1.034171e-001 -1.365062e-001 -4.409173e-002 -3.188097e-002 -6.881656e-002 -9.638788e-002 -1.196799e-001 -4.273322e-002 -5.355589e-003 -1.874594e-002 3.916444e-001
<VARIANCE> 39
 1.411495e+001 6.420505e+000 1.304680e+001 1.298243e+001 6.448245e+000 2.048035e+001 1.707770e+001 1.637455e+001 1.879073e+001 2.391397e+001 1.035222e+001 1.366685e+001 2.497851e+001 9.434690e-001 9.846537e-001 1.221753e+000 1.518411e+000 7.109746e-001 1.534260e+000 1.802860e+000 1.479249e+000 1.030647e+000 8.563779e-001 1.547754e+000 1.059094e+000 1.656702e+000 1.894677e-001 1.631027e-001 2.329335e-001 2.300514e-001 1.613015e-001 3.568420e-001 3.883412e-001 3.327781e-001 1.630265e-001 1.890895e-001 3.181196e-001 2.028058e-001 1.930111e-001
<GCONST> 8.942753e+001
<TRANSP> 5
 0.000000e+000 1.000000e+000 0.000000e+000 0.000000e+000 0.000000e+000
 0.000000e+000 6.722958e-001 3.277041e-001 0.000000e+000 0.000000e+000
 0.000000e+000 0.000000e+000 7.816567e-001 2.183433e-001 0.000000e+000
 0.000000e+000 0.000000e+000 0.000000e+000 8.596196e-001 1.403804e-001
 0.000000e+000 0.000000e+000 0.000000e+000 0.000000e+000 0.000000e+000
<ENDHMM>
~h "e"
<BEGINHMM>
<NUMSTATES> 5
<STATE> 2
<MEAN> 39
 -2.601004e+000 3.887633e+000 2.755207e+000 1.357682e+000 -1.025327e+001 -1.312450e+001 -5.382895e+000 -5.105607e+000 -4.948083e+000 -3.974472e+000 -5.470787e-001 -2.324291e+000 6.419136e+001 -6.485906e-001 -2.930686e-001 2.323003e-001 4.075461e-001 1.806384e-001 6.190975e-001 4.151800e-001 4.373752e-001 4.513087e-001 1.139563e-001 -2.300966e-001 5.733624e-001 -7.578914e-001 -7.050408e-002 -2.123866e-002 -1.844293e-001 -2.285941e-001 -7.765439e-002 2.229580e-001 2.618983e-001 -7.373120e-003 6.898982e-002 1.459193e-001 1.665561e-001 8.863804e-002 9.288792e-002
<VARIANCE> 39
 1.869403e+001 2.626272e+001 2.647855e+001 2.930798e+001 5.066536e+001 4.560199e+001 4.624888e+001 2.389679e+001 3.557492e+001 3.371421e+001 4.013573e+001 3.339207e+001 3.214599e+001 9.895000e-001 1.493206e+000 2.668597e+000 2.098110e+000 3.690302e+000 2.036607e+000 4.251900e+000 2.079086e+000 2.610634e+000 3.486452e+000 1.779004e+000 2.001607e+000 1.854401e+000 1.872651e-001 3.285389e-001 4.637698e-001 3.055829e-001 5.814199e-001 4.055322e-001 5.691562e-001 4.693033e-001 4.606386e-001 5.711923e-001 3.549160e-001 4.092068e-001 1.902183e-001
<GCONST> 1.150151e+002
<STATE> 3
<MEAN> 39
 -4.723255e+000 3.711293e+000 3.051579e+000 -4.624290e-001 -1.394654e+001 -1.299298e+001 -2.350422e-001 -3.850300e+000 -4.200568e+000 -1.794625e+000 1.637423e+000 -9.055285e-001 6.316557e+001 -5.104572e-001 1.367637e-002 -2.035174e-001 1.361494e-001 5.219423e-001 1.467827e+000 8.654321e-001 3.613689e-001 4.754045e-001 2.389872e-001 -1.967459e-002 -2.244324e-001 -7.244363e-001 2.991079e-002 -1.550898e-001 -1.550602e-001 -4.318831e-002 2.899172e-001 2.569041e-001 -1.307739e-001 1.339917e-001 7.568028e-002 -1.672133e-001 -2.166780e-001 -1.365581e-001 1.574806e-002
<VARIANCE> 39
 8.219263e+000 1.684577e+001 2.651576e+001 3.239839e+001 4.516558e+001 5.174559e+001 5.043301e+001 3.420795e+001 2.850104e+001 2.715150e+001 4.412607e+001 2.719565e+001 2.610971e+001 7.041142e-001 9.441482e-001 1.420991e+000 1.435715e+000 3.165841e+000 2.500936e+000 2.081587e+000 2.367457e+000 9.299603e-001 2.037337e+000 2.339024e+000 1.765813e+000 1.079881e+000 1.206269e-001 1.665186e-001 2.680288e-001 2.682172e-001 3.493330e-001 2.884771e-001 4.465121e-001 3.557129e-001 1.915891e-001 3.006843e-001 3.238548e-001 2.166160e-001 1.336269e-001
<GCONST> 1.034812e+002
<STATE> 4
<MEAN> 39
 -6.367336e+000 1.001073e+000 1.365540e+000 -1.244509e+000 -7.301328e+000 -6.674621e+000 1.545781e+000 -1.444609e+000 -2.990645e-001 -3.024862e+000 -1.348583e+000 -2.087148e+000 6.301395e+001 -3.509584e-001 -3.452995e-001 -3.726700e-001 -1.837175e-001 6.888220e-001 7.430328e-001 -4.344529e-002 2.451443e-001 2.453150e-001 1.686143e-001 2.319400e-002 2.645181e-001 -5.375307e-001 8.111891e-003 -2.997867e-002 -3.002384e-002 -5.715100e-002 7.884911e-003 -1.345426e-001 -1.007638e-001 -3.952745e-002 -6.310178e-002 -5.777992e-002 1.701206e-002 2.410819e-002 9.285066e-002
<VARIANCE> 39
 7.410917e+000 1.474450e+001 2.256377e+001 2.389113e+001 3.148078e+001 2.520972e+001 5.741498e+001 3.169442e+001 2.106231e+001 2.745522e+001 2.873884e+001 2.142748e+001 2.311487e+001 2.529452e-001 5.087203e-001 5.975190e-001 8.151601e-001 1.068763e+000 1.507903e+000 1.527400e+000 1.649108e+000 1.586874e+000 1.119416e+000 1.237783e+000 9.973335e-001 2.106139e-001 4.243074e-002 9.079072e-002 1.147739e-001 1.161831e-001 1.961424e-001 2.426400e-001 2.755028e-001 3.132637e-001 3.393914e-001 2.370647e-001 2.360778e-001 2.118675e-001 8.693561e-002
<GCONST> 8.729670e+001
<TRANSP> 5
 0.000000e+000 1.000000e+000 0.000000e+000 0.000000e+000 0.000000e+000
 0.000000e+000 6.864539e-001 3.135460e-001 0.000000e+000 0.000000e+000
 0.000000e+000 0.000000e+000 6.027121e-001 3.972878e-001 0.000000e+000
 0.000000e+000 0.000000e+000 0.000000e+000 8.414057e-001 1.585943e-001
 0.000000e+000 0.000000e+000 0.000000e+000 0.000000e+000 0.000000e+000
<ENDHMM>
~h "f"
<BEGINHMM>
<NUMSTATES> 5
<STATE> 2
<MEAN> 39
 -2.798081e+000 1.015603e+000 -2.737489e+000 -6.760623e+000 -9.013508e+000 -7.721240e+000 -2.340556e+000 -5.791430e+000 -3.008503e+000 -2.842516e+000 -2.408931e+000 -3.042888e+000 6.712006e+001 1.816639e-002 7.030336e-003 1.035966e-002 1.197295e-002 -3.030741e-002 -3.000990e-002 -1.121263e-002 -1.918899e-002 -8.024712e-003 -9.913054e-003 -2.549139e-003 -2.114425e-003 5.405467e-003 -4.415081e-003 1.196028e-002 1.510665e-003 1.035524e-002 1.260583e-002 1.132140e-002 1.643880e-003 5.128350e-003 4.624746e-003 4.331185e-003 1.837649e-003 5.600615e-003 -3.189945e-002
<VARIANCE> 39
 3.428817e+001 4.836518e+001 6.373507e+001 6.480933e+001 7.744907e+001 9.549992e+001 5.887634e+001 5.563300e+001 4.740282e+001 3.601039e+001 3.689566e+001 3.421291e+001 5.592876e+001 1.284020e+000 1.579060e+000 1.448692e+000 1.879212e+000 2.206893e+000 2.620023e+000 2.072583e+000 2.299653e+000 2.249433e+000 1.916542e+000 1.814010e+000 1.601416e+000 1.662629e+000 1.691740e-001 2.286167e-001 1.968112e-001 2.685542e-001 3.292408e-001 3.721457e-001 3.482843e-001 3.651308e-001 3.816728e-001 3.350308e-001 3.148932e-001 2.783629e-001 1.694588e-001
<GCONST> 1.144672e+002
<STATE> 3
<MEAN> 39
 -2.798081e+000 1.015603e+000 -2.737489e+000 -6.760623e+000 -9.013508e+000 -7.721240e+000 -2.340556e+000 -5.791430e+000 -3.008503e+000 -2.842516e+000 -2.408931e+000 -3.042888e+000 6.712006e+001 1.816639e-002 7.030336e-003 1.035966e-002 1.197295e-002 -3.030741e-002 -3.000990e-002 -1.121263e-002 -1.918899e-002 -8.024712e-003 -9.913054e-003 -2.549139e-003 -2.114425e-003 5.405467e-003 -4.415081e-003 1.196028e-002 1.510665e-003 1.035524e-002 1.260583e-002 1.132140e-002 1.643880e-003 5.128350e-003 4.624746e-003 4.331185e-003 1.837649e-003 5.600615e-003 -3.189945e-002
<VARIANCE> 39
 3.428817e+001 4.836518e+001 6.373507e+001 6.480933e+001 7.744907e+001 9.549992e+001 5.887634e+001 5.563300e+001 4.740282e+001 3.601039e+001 3.689566e+001 3.421291e+001 5.592876e+001 1.284020e+000 1.579060e+000 1.448692e+000 1.879212e+000 2.206893e+000 2.620023e+000 2.072583e+000 2.299653e+000 2.249433e+000 1.916542e+000 1.814010e+000 1.601416e+000 1.662629e+000 1.691740e-001 2.286167e-001 1.968112e-001 2.685542e-001 3.292408e-001 3.721457e-001 3.482843e-001 3.651308e-001 3.816728e-001 3.350308e-001 3.148932e-001 2.783629e-001 1.694588e-001
<GCONST> 1.144672e+002
<STATE> 4
<MEAN> 39
 -2.798081e+000 1.015603e+000 -2.737489e+000 -6.760623e+000 -9.013508e+000 -7.721240e+000 -2.340556e+000 -5.791430e+000 -3.008503e+000 -2.842516e+000 -2.408931e+000 -3.042888e+000 6.712006e+001 1.816639e-002 7.030336e-003 1.035966e-002 1.197295e-002 -3.030741e-002 -3.000990e-002 -1.121263e-002 -1.918899e-002 -8.024712e-003 -9.913054e-003 -2.549139e-003 -2.114425e-003 5.405467e-003 -4.415081e-003 1.196028e-002 1.510665e-003 1.035524e-002 1.260583e-002 1.132140e-002 1.643880e-003 5.128350e-003 4.624746e-003 4.331185e-003 1.837649e-003 5.600615e-003 -3.189945e-002
<VARIANCE> 39
 3.428817e+001 4.836518e+001 6.373507e+001 6.480933e+001 7.744907e+001 9.549992e+001 5.887634e+001 5.563300e+001 4.740282e+001 3.601039e+001 3.689566e+001 3.421291e+001 5.592876e+001 1.284020e+000 1.579060e+000 1.448692e+000 1.879212e+000 2.206893e+000 2.620023e+000 2.072583e+000 2.299653e+000 2.249433e+000 1.916542e+000 1.814010e+000 1.601416e+000 1.662629e+000 1.691740e-001 2.286167e-001 1.968112e-001 2.685542e-001 3.292408e-001 3.721457e-001 3.482843e-001 3.651308e-001 3.816728e-001 3.350308e-001 3.148932e-001 2.783629e-001 1.694588e-001
<GCONST> 1.144672e+002
<TRANSP> 5
 0.000000e+000 1.000000e+000 0.000000e+000 0.000000e+000 0.000000e+000
 0.000000e+000 6.000000e-001 4.000000e-001 0.000000e+000 0.000000e+000
 0.000000e+000 0.000000e+000 6.000000e-001 4.000000e-001 0.000000e+000
 0.000000e+000 0.000000e+000 0.000000e+000 7.000000e-001 3.000000e-001
 0.000000e+000 0.000000e+000 0.000000e+000 0.000000e+000 0.000000e+000
<ENDHMM>
~h "h"
<BEGINHMM>
<NUMSTATES> 5
<STATE> 2
<MEAN> 39
 -2.964241e+000 1.011915e+000 -6.455942e+000 -9.701783e+000 -9.371150e+000 -5.820815e+000 1.618344e+000 -4.692426e+000 -3.995733e+000 -4.295660e+000 -4.677464e+000 -4.133463e+000 6.665067e+001 2.119826e+000 9.986876e-001 4.807007e-001 -1.231376e+000 -2.376285e+000 -1.702528e+000 -1.029840e+000 -1.239123e+000 -9.978330e-001 -5.575524e-001 -4.992836e-001 -3.025582e-001 2.009099e+000 -7.395811e-002 -4.043732e-001 -6.874389e-002 -1.415164e-001 -1.538768e-001 6.764360e-003 -1.335954e-001 6.300471e-002 1.166061e-001 2.134304e-001 3.820217e-001 3.247876e-001 1.895009e-001
<VARIANCE> 39
 3.866264e+001 5.545597e+001 6.524240e+001 5.829571e+001 9.498775e+001 7.325871e+001 4.649647e+001 5.511472e+001 3.062066e+001 2.895054e+001 2.944894e+001 2.835900e+001 4.475581e+001 1.744192e+000 2.929958e+000 2.556004e+000 3.311275e+000 3.473133e+000 4.179856e+000 3.089920e+000 3.585142e+000 3.852891e+000 2.537370e+000 2.862894e+000 2.608660e+000 1.916312e+000 5.552628e-001 4.771912e-001 3.762589e-001 4.764927e-001 8.232839e-001 7.984146e-001 4.977068e-001 6.577148e-001 5.640652e-001 4.645319e-001 4.911007e-001 3.403193e-001 3.443734e-001
<GCONST> 1.266147e+002
<STATE> 3
<MEAN> 39
 2.226047e-001 -1.443458e+000 -4.233961e+000 -1.164691e+001 -1.665803e+001 -1.024006e+001 -2.478857e+000 -6.194506e+000 -4.880463e+000 -3.496370e+000 -2.102915e+000 -3.391156e+000 7.487585e+001 9.150212e-002 -6.861429e-001 2.521102e-001 -5.117857e-001 -4.785889e-001 -1.637906e-001 -1.186942e+000 -6.623408e-001 -1.406309e-001 5.661612e-001 1.077725e+000 6.391570e-001 9.571624e-001 -4.085279e-001 8.093885e-002 -1.464449e-002 2.936068e-001 5.918744e-001 3.370425e-001 1.658053e-001 8.355368e-002 1.433503e-001 9.122638e-002 1.800098e-002 -9.403063e-002 -6.051605e-001
<VARIANCE> 39
 2.241307e+001 4.298724e+001 8.066807e+001 6.608425e+001 6.474276e+001 9.987128e+001 4.484653e+001 6.103563e+001 5.563534e+001 2.138432e+001 3.507698e+001 5.516804e+001 2.780057e+001 5.861588e-001 1.480187e+000 1.245256e+000 1.720163e+000 2.588683e+000 2.821581e+000 2.615087e+000 2.997293e+000 1.971727e+000 1.678182e+000 2.117963e+000 1.592362e+000 7.826084e-001 2.297819e-001 3.893777e-001 2.680366e-001 4.261582e-001 5.552977e-001 4.520291e-001 5.039088e-001 6.307560e-001 6.841609e-001 3.787961e-001 4.373375e-001 4.831954e-001 1.107836e-001
<GCONST> 1.164102e+002
<STATE> 4
<MEAN> 39
 1.875029e+000 8.131179e-001 -4.445849e+000 -1.434876e+001 -1.622856e+001 -9.517867e+000 -3.634384e+000 -6.754772e+000 -6.281122e+000 -5.516320e+000 -1.310089e+000 -2.415603e+000 7.296916e+001 -3.857002e-002 -1.494125e-001 7.874244e-002 1.995572e-001 1.902026e-001 -8.299987e-002 -5.414641e-001 -5.771644e-001 -2.253079e-001 5.510633e-001 9.269086e-001 5.457189e-002 1.090583e-001 -1.193061e-001 2.218010e-002 1.391734e-002 3.279189e-001 2.965242e-001 -1.106878e-001 -9.944762e-002 3.150250e-002 2.661364e-001 1.647263e-001 -1.064084e-001 -2.261376e-001 -1.345696e-001
<VARIANCE> 39
 2.739044e+001 3.620309e+001 8.565074e+001 5.985751e+001 5.850736e+001 7.239564e+001 4.277907e+001 4.771275e+001 2.909144e+001 2.955989e+001 4.707455e+001 5.194051e+001 2.505445e+001 2.240897e-001 1.172557e+000 1.048446e+000 1.242094e+000 2.745460e+000 1.803364e+000 2.259566e+000 2.685690e+000 1.779424e+000 2.687471e+000 2.529577e+000 1.916972e+000 3.873610e-001 4.605411e-002 1.372684e-001 1.784647e-001 2.226101e-001 4.119830e-001 4.554066e-001 3.403313e-001 4.191868e-001 4.686510e-001 4.019686e-001 4.783430e-001 4.446266e-001 7.036983e-002
<GCONST> 1.076154e+002
<TRANSP> 5
 0.000000e+000 1.000000e+000 0.000000e+000 0.000000e+000 0.000000e+000
 0.000000e+000 7.554167e-001 2.445833e-001 0.000000e+000 0.000000e+000
 0.000000e+000 0.000000e+000 5.109817e-001 4.890184e-001 0.000000e+000
 0.000000e+000 0.000000e+000 0.000000e+000 6.351105e-001 3.648895e-001
 0.000000e+000 0.000000e+000 0.000000e+000 0.000000e+000 0.000000e+000
<ENDHMM>
~h "i"
<BEGINHMM>
<NUMSTATES> 5
<STATE> 2
<MEAN> 39
 -2.362724e+001 -6.960039e-001 4.205902e+000 -7.120673e+000 -6.604154e+000 -6.583441e-001 5.277951e-001 -1.195776e+000 5.865835e-001 -2.810079e+000 1.618051e+000 -1.532687e+000 6.876482e+001 4.371571e-001 -1.317502e-001 2.123523e+000 1.339575e+000 -1.276243e+000 -8.090248e-001 8.406260e-001 -9.153202e-001 -5.001177e-001 -4.629172e-001 -2.557372e-001 -4.021716e-001 2.977325e-001 1.313640e+000 3.158493e-001 -1.937335e-001 4.387686e-001 -1.086912e-001 -6.957045e-001 -4.299901e-001 -3.360945e-001 -3.690463e-001 -2.062675e-001 -1.942040e-001 3.606160e-002 -3.062085e-001
<VARIANCE> 39
 8.722124e+000 2.244853e+001 2.269063e+001 3.848725e+001 4.538110e+001 4.142020e+001 2.573717e+001 9.817873e+000 2.025654e+001 2.472708e+001 2.324588e+001 1.083291e+001 1.330273e+001 6.559844e+000 2.472812e+000 1.969979e+000 2.360549e+000 2.573751e+000 3.119608e+000 2.300663e+000 2.080808e+000 1.522220e+000 1.963419e+000 2.454955e+000 7.705733e-001 1.161340e+000 2.299645e-001 7.334495e-001 3.564623e-001 4.853693e-001 6.753973e-001 3.134184e-001 5.248220e-001 3.886120e-001 3.436028e-001 4.469495e-001 6.032927e-001 1.733922e-001 1.569830e-001
<GCONST> 1.083253e+002
<STATE> 3
<MEAN> 39
 -1.113564e+001 2.195075e+000 1.136978e+001 2.651359e-001 -9.964065e+000 -8.558347e+000 -3.233745e+000 -8.052710e+000 -5.616052e+000 -7.172938e+000 -1.980996e+000 -1.099551e+000 6.787502e+001 4.331313e+000 2.466466e+000 5.475309e-001 1.217754e+000 -7.041927e-001 -2.892460e+000 -2.069636e+000 -1.796548e+000 -1.582684e+000 -8.572184e-001 -4.706642e-001 2.626146e-001 -2.857954e-002 -3.577282e-001 1.620852e-002 -8.299960e-001 -6.300452e-001 2.342520e-001 1.235389e-001 9.346886e-002 3.426079e-001 3.876567e-001 4.538869e-001 5.174472e-001 -8.317978e-002 6.322999e-002
<VARIANCE> 39
 2.351544e+001 2.738547e+001 1.262786e+001 4.628663e+001 2.271195e+001 1.679320e+001 2.889971e+001 2.163402e+001 1.800309e+001 2.842592e+001 1.159805e+001 1.354798e+001 8.252497e+000 1.176009e+000 9.855012e-001 1.288950e+000 2.700639e+000 3.968245e+000 1.627046e+000 2.718588e+000 2.261696e+000 1.885511e+000 2.353067e+000 3.434066e+000 2.741987e+000 6.457796e-001 4.682030e-001 3.967426e-001 2.769923e-001 4.226713e-001 3.130664e-001 7.136578e-001 7.993339e-001 5.246497e-001 2.766484e-001 3.473443e-001 3.193264e-001 3.278051e-001 4.895601e-002
<GCONST> 1.048622e+002
<STATE> 4
<MEAN> 39
 -4.806671e+000 6.597561e+000 1.464240e+001 -6.004845e-001 -1.507677e+001 -8.269764e+000 -2.610298e+000 -1.243518e+001 -8.974820e+000 -2.728428e+000 1.150991e+000 -4.029652e+000 6.521392e+001 8.555233e-001 4.678409e-001 -6.233546e-001 4.277256e-001 -2.570647e-001 -1.120392e+000 1.187234e-001 3.464737e-001 -2.783499e-001 1.197110e-001 1.049870e+000 -2.597224e-001 -4.618463e-002 -5.400479e-001 -3.067971e-001 -2.302294e-001 -1.344082e-003 4.161269e-001 1.893543e-001 1.664196e-001 3.327507e-001 2.411079e-001 3.847198e-003 2.512634e-002 6.202058e-002 -7.249513e-002
<VARIANCE> 39
 2.431440e+000 4.841125e+000 2.923731e+001 1.116224e+001 1.514854e+001 3.473535e+001 1.405823e+001 2.393955e+001 9.725687e+000 1.549714e+001 1.263150e+001 1.518183e+001 9.649759e+000 1.490371e+000 6.794572e-001 1.223942e+000 1.190003e+000 7.233661e-001 2.585958e+000 2.855783e+000 1.362062e+000 9.671307e-001 6.714584e-001 8.348809e-001 1.114775e+000 1.981351e-001 3.670844e-001 1.799008e-001 1.008987e-001 1.246061e-001 2.567608e-001 4.216954e-001 2.644651e-001 2.275261e-001 3.140377e-001 2.102970e-001 2.374236e-001 2.338509e-001 2.230063e-002
<GCONST> 8.326576e+001
<TRANSP> 5
 0.000000e+000 1.000000e+000 0.000000e+000 0.000000e+000 0.000000e+000
 0.000000e+000 7.869466e-001 2.130534e-001 0.000000e+000 0.000000e+000
 0.000000e+000 0.000000e+000 5.697128e-001 4.302873e-001 0.000000e+000
 0.000000e+000 0.000000e+000 0.000000e+000 6.791635e-001 3.208364e-001
 0.000000e+000 0.000000e+000 0.000000e+000 0.000000e+000 0.000000e+000
<ENDHMM>
~h "k"
<BEGINHMM>
<NUMSTATES> 5
<STATE> 2
<MEAN> 39
 -7.968491e+000 -1.372711e+000 4.304447e+000 -4.007693e+000 -1.514622e+001 -1.044547e+001 -4.785688e-001 -5.835409e+000 -4.311594e+000 -4.637071e+000 -1.620591e+000 -4.723118e+000 6.949860e+001 2.383190e+000 1.287552e+000 1.038477e+000 -2.051100e-004 -1.535404e+000 -2.008084e+000 -6.519961e-001 -1.213223e+000 -1.345950e+000 -1.334236e+000 -2.943262e-001 -8.347445e-001 1.199166e+000 -1.446071e-001 -2.654791e-001 -1.651986e-001 -3.792884e-001 -1.367638e-001 -1.278174e-001 -2.313075e-001 3.638993e-002 -4.876781e-003 2.623692e-001 3.355941e-001 1.684515e-001 3.245697e-001
<VARIANCE> 39
 4.002058e+001 3.528862e+001 3.640341e+001 2.595848e+001 5.067219e+001 5.832593e+001 4.399249e+001 5.356487e+001 2.929932e+001 3.942509e+001 3.314525e+001 2.836283e+001 3.090574e+001 2.163692e+000 3.261448e+000 1.709449e+000 2.691764e+000 3.031133e+000 3.256986e+000 4.497272e+000 3.473892e+000 3.109778e+000 2.726713e+000 3.161105e+000 2.128124e+000 1.703197e+000 7.602511e-001 5.725194e-001 2.112881e-001 3.373849e-001 6.070012e-001 6.618634e-001 6.860226e-001 5.447519e-001 5.116099e-001 6.568605e-001 4.895249e-001 3.387397e-001 4.101274e-001
<GCONST> 1.228140e+002
<STATE> 3
<MEAN> 39
 -3.083607e+000 -8.939911e-001 6.267126e+000 -6.599358e+000 -1.982692e+001 -1.676718e+001 -2.545940e+000 -7.572278e+000 -7.832614e+000 -4.978836e+000 5.589339e-001 -5.025147e+000 7.477795e+001 -4.105092e-002 -2.567387e-001 1.709348e-001 -6.124296e-001 1.192207e-001 -4.389100e-001 -2.819583e-001 -2.222450e-002 -1.468636e-001 8.614528e-001 3.452044e-001 1.666598e-001 5.053427e-001 -3.844030e-001 7.558104e-002 -1.101554e-001 2.270132e-001 5.081586e-001 6.278813e-001 1.111989e-001 8.710127e-002 3.314568e-001 2.068437e-001 -1.546765e-001 3.293981e-002 -4.990890e-001
<VARIANCE> 39
 6.563922e+000 3.758775e+001 6.178540e+001 4.887793e+001 7.221382e+001 9.778884e+001 5.825043e+001 1.096279e+002 2.917133e+001 3.954849e+001 4.042784e+001 2.683186e+001 1.956716e+001 3.030934e-001 1.172316e+000 1.103576e+000 1.283855e+000 1.307629e+000 1.745845e+000 1.316046e+000 1.877416e+000 9.840338e-001 1.063702e+000 1.371688e+000 8.994203e-001 4.646532e-001 1.783713e-001 2.821156e-001 1.804456e-001 1.625160e-001 4.231489e-001 4.067018e-001 5.065226e-001 4.822693e-001 3.194166e-001 2.620441e-001 2.686736e-001 2.069781e-001 6.414693e-002
<GCONST> 1.025651e+002
<STATE> 4
<MEAN> 39
 -3.708511e+000 -3.730512e-001 4.491555e+000 -1.270025e+001 -1.927207e+001 -1.722074e+001 -4.131442e+000 -8.041925e+000 -7.990936e+000 -2.335351e+000 -1.176270e+000 -4.736674e+000 7.486365e+001 -5.301638e-002 2.091083e-001 1.566490e-001 -1.288616e-002 2.570297e-002 6.805865e-002 -1.918782e-001 -1.440282e-001 -1.817969e-001 1.298933e-001 1.674800e-001 -3.343737e-002 -1.751451e-001 1.629809e-002 5.171696e-002 -1.986169e-002 8.093481e-002 -1.266931e-003 2.438790e-002 1.337989e-002 -1.353532e-002 -1.606024e-002 -4.409666e-002 -1.591046e-002 -1.018926e-002 -7.699651e-002
<VARIANCE> 39
 2.541299e+000 2.372694e+001 8.553458e+001 6.123949e+001 5.373050e+001 1.295032e+002 4.127910e+001 1.391952e+002 4.225344e+001 6.639766e+001 1.785041e+001 1.733266e+001 9.662359e+000 1.230477e-001 1.760007e-001 2.453644e-001 3.603726e-001 4.967189e-001 5.605879e-001 7.570848e-001 5.983641e-001 7.502110e-001 5.952275e-001 5.286567e-001 3.742058e-001 1.049338e-001 1.680931e-002 3.398035e-002 3.378573e-002 7.347936e-002 8.189154e-002 1.108415e-001 9.107089e-002 9.868067e-002 1.348666e-001 1.068346e-001 9.806546e-002 7.555979e-002 1.845270e-002
<GCONST> 6.875922e+001
<TRANSP> 5
 0.000000e+000 1.000000e+000 0.000000e+000 0.000000e+000 0.000000e+000
 0.000000e+000 7.749003e-001 2.250997e-001 0.000000e+000 0.000000e+000
 0.000000e+000 0.000000e+000 5.898294e-001 4.101706e-001 0.000000e+000
 0.000000e+000 0.000000e+000 0.000000e+000 8.046858e-001 1.953142e-001
 0.000000e+000 0.000000e+000 0.000000e+000 0.000000e+000 0.000000e+000
<ENDHMM>
~h "m"
<BEGINHMM>
<NUMSTATES> 5
<STATE> 2
<MEAN> 39
 2.118823e+000 6.682393e+000 -1.800510e+000 -1.821219e+000 -3.539589e+000 -4.259217e+000 -2.869572e+000 -9.989213e+000 -1.201279e+001 -1.004902e+001 -3.392790e+000 -8.647309e-001 6.375526e+001 7.098864e-001 -4.336234e-001 -8.197238e-001 -1.114264e+000 -5.766194e-001 1.037632e-001 3.472340e-001 -1.921350e-001 6.466216e-002 1.214945e-001 -9.766066e-002 5.560832e-002 1.009741e+000 -2.222101e-001 -3.849622e-001 -3.178800e-001 -3.429635e-001 7.081732e-003 2.273628e-001 2.349725e-001 1.989357e-001 5.395606e-001 4.341749e-001 -9.760571e-002 -8.506979e-002 8.506054e-002
<VARIANCE> 39
 5.984336e+000 1.459316e+001 1.108376e+001 2.468000e+001 3.416409e+001 2.428776e+001 4.524852e+001 2.129524e+001 3.142682e+001 2.266797e+001 3.410500e+001 2.171201e+001 1.261611e+001 9.401463e-001 1.604370e+000 1.810777e+000 3.123836e+000 1.539756e+000 1.980410e+000 1.756081e+000 2.334280e+000 3.794181e+000 2.633766e+000 1.548987e+000 1.526417e+000 8.655729e-001 1.467063e-001 2.431767e-001 2.229355e-001 3.622034e-001 2.378815e-001 3.194730e-001 3.389867e-001 4.154960e-001 5.571380e-001 3.870117e-001 3.259479e-001 2.852373e-001 1.492171e-001
<GCONST> 1.025498e+002
<STATE> 3
<MEAN> 39
 3.530910e+000 -2.142946e+000 -1.136396e+001 -1.573430e+001 -7.240431e+000 1.947935e+000 2.451367e+000 -8.588284e+000 -2.668849e+000 -3.329215e+000 -6.540185e+000 -2.728571e+000 7.261044e+001 -3.141969e-001 -2.156960e+000 -1.866589e+000 -1.993315e+000 6.043556e-001 1.924494e+000 1.224261e+000 -4.329658e-001 1.903247e+000 1.864674e+000 -1.043807e+000 -7.338837e-001 1.686453e+000 -2.641705e-001 3.452785e-001 6.912645e-001 1.035539e+000 4.995742e-001 -2.830299e-001 -4.550274e-001 -1.746304e-001 -5.294136e-001 -3.200198e-001 1.662834e-001 2.395718e-003 -3.878255e-001
<VARIANCE> 39
 8.728059e+000 2.975648e+001 2.086104e+001 3.008553e+001 6.153367e+001 7.890189e+001 7.316599e+001 4.888889e+001 3.682137e+001 3.168128e+001 3.115258e+001 4.633814e+001 1.820021e+001 1.069925e+000 1.637907e+000 2.360483e+000 4.326266e+000 2.834490e+000 3.931420e+000 3.822666e+000 4.953184e+000 5.630002e+000 2.312358e+000 2.432378e+000 3.130029e+000 8.976358e-001 9.298739e-002 2.216795e-001 2.338441e-001 3.295348e-001 3.832000e-001 8.164715e-001 4.471777e-001 7.831323e-001 6.159307e-001 4.181386e-001 3.150480e-001 4.317986e-001 1.027541e-001
<GCONST> 1.160286e+002
<STATE> 4
<MEAN> 39
 1.354123e+000 -4.351412e+000 -1.284570e+001 -1.538962e+001 -1.797469e+000 6.887204e-002 1.659747e+000 -8.584894e+000 -1.953364e+000 1.808785e-001 -8.123004e+000 -5.206845e+000 7.562704e+001 -2.465674e-001 -3.261086e-001 1.888591e-001 4.219054e-001 7.928831e-002 -5.872005e-001 -6.462007e-001 3.927141e-002 1.916834e-001 3.711118e-001 1.150253e-001 -2.937594e-001 3.111827e-001 1.135617e-001 3.697023e-001 3.181445e-001 2.852121e-001 -2.629986e-001 -4.077557e-001 -2.621391e-001 7.845559e-002 -1.619550e-001 -3.326420e-001 2.184202e-001 1.816077e-001 -3.007924e-001
<VARIANCE> 39
 1.319726e+001 2.980324e+001 2.936025e+001 3.448580e+001 6.518382e+001 8.415901e+001 1.205431e+002 5.187649e+001 4.964631e+001 3.508223e+001 4.286475e+001 6.020249e+001 1.678911e+001 3.459216e-001 6.559742e-001 6.433311e-001 8.344254e-001 1.289150e+000 2.074644e+000 1.680394e+000 1.995274e+000 1.805684e+000 1.723456e+000 1.311651e+000 1.229797e+000 2.279385e-001 7.961326e-002 1.555600e-001 1.927077e-001 2.379226e-001 2.736637e-001 3.378668e-001 3.601446e-001 4.341648e-001 4.643593e-001 3.019449e-001 2.348888e-001 2.929378e-001 8.407529e-002
<GCONST> 1.014576e+002
<TRANSP> 5
 0.000000e+000 1.000000e+000 0.000000e+000 0.000000e+000 0.000000e+000
 0.000000e+000 8.763403e-001 1.236597e-001 0.000000e+000 0.000000e+000
 0.000000e+000 0.000000e+000 6.482367e-001 3.517633e-001 0.000000e+000
 0.000000e+000 0.000000e+000 0.000000e+000 6.412696e-001 3.587305e-001
 0.000000e+000 0.000000e+000 0.000000e+000 0.000000e+000 0.000000e+000
<ENDHMM>
~h "n"
<BEGINHMM>
<NUMSTATES> 5
<STATE> 2
<MEAN> 39
 1.897804e+000 4.136326e-001 -1.929304e+000 -2.052255e+000 -8.381410e+000 -1.416726e+001 -7.156966e+000 -7.972279e+000 -4.387640e+000 -5.627497e+000 -6.313519e+000 -9.095016e+000 6.947747e+001 4.177051e-001 9.345893e-001 1.501593e-001 5.906520e-001 9.540248e-001 -3.285047e-001 -1.260680e+000 3.469889e-001 -5.610004e-001 2.869956e-001 5.091712e-001 -6.117004e-002 -7.904274e-001 -1.587104e-001 -1.830787e-001 -3.600810e-002 -3.436499e-001 -1.561909e-001 1.952570e-001 2.830888e-001 6.191976e-002 9.678918e-002 -8.618657e-003 -2.658032e-002 6.665619e-002 2.544333e-001
<VARIANCE> 39
 7.529881e+000 1.794184e+001 1.962111e+001 2.321317e+001 4.202235e+001 4.934297e+001 3.729495e+001 1.049392e+001 3.865791e+001 4.206305e+001 1.244085e+001 6.310139e+001 1.734517e+001 3.689942e-001 1.259599e+000 1.023234e+000 1.964547e+000 3.008217e+000 1.129735e+000 2.415120e+000 8.004826e-001 2.731329e+000 2.083378e+000 1.398844e+000 1.148007e+000 5.723705e-001 4.286575e-002 1.610296e-001 1.389021e-001 2.445617e-001 3.351880e-001 1.368419e-001 4.487411e-001 1.469889e-001 4.619516e-001 3.336575e-001 2.573360e-001 3.198617e-001 6.415334e-002
<GCONST> 9.542081e+001
<STATE> 3
<MEAN> 39
 2.296277e+000 3.061399e+000 -2.762309e+000 -3.104297e+000 -7.757163e+000 -1.288526e+001 -7.211883e+000 -3.385701e+000 -1.628248e+000 -3.063766e+000 -6.777594e+000 -4.343225e+000 6.836349e+001 -3.987761e-001 -4.645786e-001 2.383237e-001 -3.912350e-001 -6.011438e-001 -2.688970e-001 5.559650e-001 8.880763e-001 3.932450e-001 -3.211156e-001 -2.385975e-001 4.084561e-001 5.388438e-001 -7.098284e-002 -2.341004e-001 2.607454e-002 -3.228926e-002 -2.595025e-001 4.424549e-002 3.211230e-001 -1.507142e-002 -8.100649e-003 6.191086e-002 4.784533e-003 2.549349e-002 1.578661e-001
<VARIANCE> 39
 4.732600e+000 2.327487e+001 1.136320e+001 2.510622e+001 2.461312e+001 2.190565e+001 2.719483e+001 2.507655e+001 2.588208e+001 3.192566e+001 1.753810e+001 2.955720e+001 1.614390e+001 2.800608e-001 2.293677e+000 9.632143e-001 9.244972e-001 3.999988e+000 1.406540e+000 3.198377e+000 1.488703e+000 2.375540e+000 2.286462e+000 1.718459e+000 1.881688e+000 8.530152e-001 3.010190e-002 3.214183e-001 1.417119e-001 1.755243e-001 4.459135e-001 2.055407e-001 4.149218e-001 3.250269e-001 4.202848e-001 4.648240e-001 3.258076e-001 3.131234e-001 1.021060e-001
<GCONST> 9.711035e+001
<STATE> 4
<MEAN> 39
 -7.027054e-001 2.268781e+000 7.971516e-001 -5.216093e+000 -1.409073e+001 -1.316015e+001 -2.347089e-001 -2.057957e+000 -2.234576e+000 -4.092525e+000 -4.627038e+000 -5.124115e-001 6.932441e+001 -2.851455e-001 1.819036e-001 4.469993e-001 1.701876e-001 -4.922079e-001 -1.494738e-001 7.606094e-001 -2.495551e-002 -1.375751e-001 3.121505e-001 4.067710e-001 -6.090877e-003 -5.582554e-002 5.065540e-002 1.056929e-001 -5.580946e-002 1.292897e-001 2.330216e-001 1.798750e-002 -2.046355e-001 -8.713843e-002 2.890334e-003 4.635443e-002 5.663248e-004 -1.756387e-001 -1.574282e-001
<VARIANCE> 39
 7.523483e+000 4.465331e+001 2.057568e+001 2.250379e+001 4.950340e+001 6.127718e+001 8.704428e+001 3.172833e+001 2.520277e+001 4.168702e+001 2.023092e+001 3.314328e+001 4.358171e+001 2.420759e-001 7.054780e-001 8.638950e-001 5.510120e-001 1.502122e+000 8.170688e-001 2.112484e+000 1.558004e+000 8.311749e-001 1.655084e+000 8.597607e-001 9.081526e-001 2.799441e-001 5.227867e-002 1.951359e-001 1.758251e-001 8.470719e-002 3.694970e-001 1.669786e-001 3.762546e-001 2.761130e-001 1.617767e-001 2.824874e-001 1.744049e-001 1.654909e-001 6.419445e-002
<GCONST> 9.127893e+001
<TRANSP> 5
 0.000000e+000 1.000000e+000 0.000000e+000 0.000000e+000 0.000000e+000
 0.000000e+000 7.161665e-001 2.838336e-001 0.000000e+000 0.000000e+000
 0.000000e+000 0.000000e+000 8.462961e-001 1.537040e-001 0.000000e+000
 0.000000e+000 0.000000e+000 0.000000e+000 8.466868e-001 1.533132e-001
 0.000000e+000 0.000000e+000 0.000000e+000 0.000000e+000 0.000000e+000
<ENDHMM>
~h "o"
<BEGINHMM>
<NUMSTATES> 5
<STATE> 2
<MEAN> 39
 -2.798081e+000 1.015603e+000 -2.737489e+000 -6.760623e+000 -9.013508e+000 -7.721240e+000 -2.340556e+000 -5.791430e+000 -3.008503e+000 -2.842516e+000 -2.408931e+000 -3.042888e+000 6.712006e+001 1.816639e-002 7.030336e-003 1.035966e-002 1.197295e-002 -3.030741e-002 -3.000990e-002 -1.121263e-002 -1.918899e-002 -8.024712e-003 -9.913054e-003 -2.549139e-003 -2.114425e-003 5.405467e-003 -4.415081e-003 1.196028e-002 1.510665e-003 1.035524e-002 1.260583e-002 1.132140e-002 1.643880e-003 5.128350e-003 4.624746e-003 4.331185e-003 1.837649e-003 5.600615e-003 -3.189945e-002
<VARIANCE> 39
 3.428817e+001 4.836518e+001 6.373507e+001 6.480933e+001 7.744907e+001 9.549992e+001 5.887634e+001 5.563300e+001 4.740282e+001 3.601039e+001 3.689566e+001 3.421291e+001 5.592876e+001 1.284020e+000 1.579060e+000 1.448692e+000 1.879212e+000 2.206893e+000 2.620023e+000 2.072583e+000 2.299653e+000 2.249433e+000 1.916542e+000 1.814010e+000 1.601416e+000 1.662629e+000 1.691740e-001 2.286167e-001 1.968112e-001 2.685542e-001 3.292408e-001 3.721457e-001 3.482843e-001 3.651308e-001 3.816728e-001 3.350308e-001 3.148932e-001 2.783629e-001 1.694588e-001
<GCONST> 1.144672e+002
<STATE> 3
<MEAN> 39
 -2.798081e+000 1.015603e+000 -2.737489e+000 -6.760623e+000 -9.013508e+000 -7.721240e+000 -2.340556e+000 -5.791430e+000 -3.008503e+000 -2.842516e+000 -2.408931e+000 -3.042888e+000 6.712006e+001 1.816639e-002 7.030336e-003 1.035966e-002 1.197295e-002 -3.030741e-002 -3.000990e-002 -1.121263e-002 -1.918899e-002 -8.024712e-003 -9.913054e-003 -2.549139e-003 -2.114425e-003 5.405467e-003 -4.415081e-003 1.196028e-002 1.510665e-003 1.035524e-002 1.260583e-002 1.132140e-002 1.643880e-003 5.128350e-003 4.624746e-003 4.331185e-003 1.837649e-003 5.600615e-003 -3.189945e-002
<VARIANCE> 39
 3.428817e+001 4.836518e+001 6.373507e+001 6.480933e+001 7.744907e+001 9.549992e+001 5.887634e+001 5.563300e+001 4.740282e+001 3.601039e+001 3.689566e+001 3.421291e+001 5.592876e+001 1.284020e+000 1.579060e+000 1.448692e+000 1.879212e+000 2.206893e+000 2.620023e+000 2.072583e+000 2.299653e+000 2.249433e+000 1.916542e+000 1.814010e+000 1.601416e+000 1.662629e+000 1.691740e-001 2.286167e-001 1.968112e-001 2.685542e-001 3.292408e-001 3.721457e-001 3.482843e-001 3.651308e-001 3.816728e-001 3.350308e-001 3.148932e-001 2.783629e-001 1.694588e-001
<GCONST> 1.144672e+002
<STATE> 4
<MEAN> 39
 -2.798081e+000 1.015603e+000 -2.737489e+000 -6.760623e+000 -9.013508e+000 -7.721240e+000 -2.340556e+000 -5.791430e+000 -3.008503e+000 -2.842516e+000 -2.408931e+000 -3.042888e+000 6.712006e+001 1.816639e-002 7.030336e-003 1.035966e-002 1.197295e-002 -3.030741e-002 -3.000990e-002 -1.121263e-002 -1.918899e-002 -8.024712e-003 -9.913054e-003 -2.549139e-003 -2.114425e-003 5.405467e-003 -4.415081e-003 1.196028e-002 1.510665e-003 1.035524e-002 1.260583e-002 1.132140e-002 1.643880e-003 5.128350e-003 4.624746e-003 4.331185e-003 1.837649e-003 5.600615e-003 -3.189945e-002
<VARIANCE> 39
 3.428817e+001 4.836518e+001 6.373507e+001 6.480933e+001 7.744907e+001 9.549992e+001 5.887634e+001 5.563300e+001 4.740282e+001 3.601039e+001 3.689566e+001 3.421291e+001 5.592876e+001 1.284020e+000 1.579060e+000 1.448692e+000 1.879212e+000 2.206893e+000 2.620023e+000 2.072583e+000 2.299653e+000 2.249433e+000 1.916542e+000 1.814010e+000 1.601416e+000 1.662629e+000 1.691740e-001 2.286167e-001 1.968112e-001 2.685542e-001 3.292408e-001 3.721457e-001 3.482843e-001 3.651308e-001 3.816728e-001 3.350308e-001 3.148932e-001 2.783629e-001 1.694588e-001
<GCONST> 1.144672e+002
<TRANSP> 5
 0.000000e+000 1.000000e+000 0.000000e+000 0.000000e+000 0.000000e+000
 0.000000e+000 6.000000e-001 4.000000e-001 0.000000e+000 0.000000e+000
 0.000000e+000 0.000000e+000 6.000000e-001 4.000000e-001 0.000000e+000
 0.000000e+000 0.000000e+000 0.000000e+000 7.000000e-001 3.000000e-001
 0.000000e+000 0.000000e+000 0.000000e+000 0.000000e+000 0.000000e+000
<ENDHMM>
~h "p"
<BEGINHMM>
<NUMSTATES> 5
<STATE> 2
<MEAN> 39
 8.670282e-001 -4.184939e+000 -1.046689e+001 -1.515100e+001 -1.117681e+001 -3.483966e+000 1.926548e+000 -3.735497e+000 -2.483663e+000 -2.214471e+000 -4.689867e+000 -6.168062e+000 7.393848e+001 7.552904e-001 -3.558943e-001 -1.449238e-001 -1.044277e+000 -9.083351e-001 1.150302e-001 -8.628938e-002 -4.890387e-001 -3.146414e-001 5.943875e-002 -3.553888e-001 -3.846195e-001 1.226148e+000 -4.343714e-001 -1.058373e-001 1.909203e-001 3.288600e-001 1.595054e-001 -5.819349e-002 -2.512271e-001 1.842875e-001 2.839943e-001 1.216206e-001 2.254909e-001 2.151941e-001 -2.226541e-001
<VARIANCE> 39
 1.590937e+001 4.465049e+001 1.768413e+001 2.216169e+001 6.873334e+001 1.041203e+002 8.744749e+001 7.062057e+001 4.014690e+001 4.858888e+001 2.984118e+001 4.424225e+001 3.920942e+001 2.042718e+000 4.051708e+000 1.625170e+000 3.041034e+000 3.585388e+000 4.517782e+000 3.967286e+000 3.259947e+000 4.019097e+000 3.551719e+000 2.714437e+000 2.701682e+000 3.165399e+000 3.328229e-001 6.029052e-001 2.899922e-001 5.011448e-001 5.784581e-001 6.880199e-001 6.290038e-001 5.975827e-001 5.668536e-001 5.544098e-001 5.049531e-001 3.843976e-001 4.118041e-001
<GCONST> 1.259889e+002
<STATE> 3
<MEAN> 39
 2.971579e-001 -7.267364e+000 -1.082629e+001 -1.678283e+001 -9.862575e+000 7.380306e-001 2.824755e+000 -3.964907e+000 -2.028111e+000 -9.290054e-001 -6.853607e+000 -7.298341e+000 7.695103e+001 -1.773074e-001 -1.287052e-001 3.135772e-001 3.210635e-001 -3.048675e-001 -8.250675e-001 -6.415441e-001 3.860984e-001 9.565868e-001 -2.130483e-002 -3.784403e-001 1.463053e-001 9.350183e-002 -6.375606e-002 2.575424e-001 6.024963e-002 3.173986e-001 1.257366e-001 -3.786899e-001 -6.982746e-002 1.089040e-001 1.139917e-001 -1.515094e-001 2.359445e-002 1.638544e-001 -3.133371e-001
<VARIANCE> 39
 2.466764e+001 5.183418e+001 1.956968e+001 2.413857e+001 6.256557e+001 9.524764e+001 6.809497e+001 4.875728e+001 4.618179e+001 4.167807e+001 3.300624e+001 6.235791e+001 3.430854e+001 3.810697e-001 8.993989e-001 7.012708e-001 7.323034e-001 1.437200e+000 3.379107e+000 1.480467e+000 2.791310e+000 2.433148e+000 2.857177e+000 1.478361e+000 1.684989e+000 3.152276e-001 1.222782e-001 3.210809e-001 1.418383e-001 2.414058e-001 3.170006e-001 5.024281e-001 3.267686e-001 4.511174e-001 4.724227e-001 4.005302e-001 2.801748e-001 3.628547e-001 1.127106e-001
<GCONST> 1.069783e+002
<STATE> 4
<MEAN> 39
 1.988898e+000 -2.091186e+000 -9.846802e+000 -1.548713e+001 -1.096850e+001 -3.951115e+000 -3.004922e-001 -3.066344e+000 -1.233304e+000 -5.781494e-001 -5.760220e+000 -4.208918e+000 7.412977e+001 3.368534e-003 5.727060e-001 3.375270e-001 2.761644e-001 -3.534537e-002 -5.967890e-001 -3.243333e-001 -4.152155e-002 4.450600e-001 -2.988170e-002 -9.215292e-003 1.133711e-001 -2.957295e-001 -8.815447e-003 8.830992e-002 4.404495e-002 6.527442e-002 5.608477e-002 -7.235782e-002 1.208920e-002 -1.090135e-002 -6.778187e-002 -4.935793e-002 1.030687e-001 -1.436081e-003 -9.933375e-002
<VARIANCE> 39
 9.352905e+000 6.393696e+001 2.148763e+001 4.045361e+001 8.313617e+001 7.794598e+001 4.405567e+001 4.447564e+001 4.063841e+001 3.994560e+001 2.315996e+001 3.690625e+001 2.070116e+001 1.688422e-001 1.089001e+000 6.301338e-001 1.277644e+000 1.370229e+000 2.415482e+000 1.393943e+000 1.501274e+000 1.129013e+000 1.303990e+000 1.351459e+000 1.012864e+000 2.459310e-001 3.317780e-002 1.839542e-001 1.105277e-001 1.941152e-001 2.288640e-001 2.816909e-001 2.058970e-001 2.838714e-001 2.718922e-001 2.333577e-001 1.970057e-001 1.897977e-001 3.934049e-002
<GCONST> 9.389029e+001
<TRANSP> 5
 0.000000e+000 1.000000e+000 0.000000e+000 0.000000e+000 0.000000e+000
 0.000000e+000 8.068477e-001 1.931523e-001 0.000000e+000 0.000000e+000
 0.000000e+000 0.000000e+000 5.809474e-001 4.190526e-001 0.000000e+000
 0.000000e+000 0.000000e+000 0.000000e+000 6.572598e-001 3.427402e-001
 0.000000e+000 0.000000e+000 0.000000e+000 0.000000e+000 0.000000e+000
<ENDHMM>
~h "r"
<BEGINHMM>
<NUMSTATES> 5
<STATE> 2
<MEAN> 39
 -6.801788e+000 -2.687629e-001 1.467977e+000 -3.216829e+000 -9.194016e+000 -1.387591e+001 -3.839396e+000 -2.573631e+000 -3.473480e+000 -5.416102e+000 1.694661e+000 -7.135606e-001 6.571755e+001 3.007577e-001 -5.958846e-002 3.920154e-001 3.199808e-001 -4.621156e-001 -8.909683e-001 1.637149e-001 -6.055827e-002 -2.714886e-001 -3.831048e-001 6.750985e-002 -2.468091e-001 8.102677e-001 1.671689e-001 2.744769e-002 4.132640e-002 3.865061e-002 -2.460321e-001 -2.028446e-001 -8.322424e-002 -5.066811e-002 -1.089722e-001 8.328818e-002 1.696227e-001 3.339659e-002 5.103638e-002
<VARIANCE> 39
 2.726056e+001 1.930296e+001 4.429241e+001 3.541629e+001 7.960373e+001 6.353688e+001 2.630938e+001 2.694334e+001 3.284281e+001 2.940766e+001 4.254031e+001 1.716360e+001 4.318341e+001 3.018820e+000 2.819784e+000 2.844510e+000 3.753005e+000 4.974910e+000 5.630101e+000 2.106361e+000 2.827812e+000 2.050068e+000 2.251478e+000 3.637360e+000 1.498811e+000 4.744383e+000 5.139707e-001 5.852428e-001 5.384811e-001 7.173579e-001 8.105578e-001 9.523699e-001 2.309438e-001 5.138645e-001 4.201098e-001 3.822734e-001 6.933360e-001 3.164038e-001 8.243206e-001
<GCONST> 1.239520e+002
<STATE> 3
<MEAN> 39
 2.006954e-001 -1.741517e+000 1.687097e+000 -2.779809e+000 -1.499681e+001 -2.305681e+001 -8.137660e+000 -2.031847e+000 -4.067302e+000 -4.745177e+000 3.539847e+000 8.602178e-001 7.076125e+001 2.615646e-001 -6.572096e-002 -2.325272e-001 7.748826e-002 -1.045370e+000 -5.468405e-001 5.594890e-002 -1.174183e-002 -8.436070e-002 2.794468e-001 6.769904e-001 4.597352e-001 3.107501e-001 -2.152317e-001 1.257110e-001 1.445660e-002 -5.278886e-002 3.443800e-001 2.853765e-001 1.343797e-001 5.697332e-002 7.870155e-002 -8.754395e-002 -1.382146e-001 -9.316380e-002 -2.218962e-001
<VARIANCE> 39
 1.005425e+001 1.648679e+001 1.824251e+001 5.262292e+001 2.638695e+001 3.532483e+001 6.097664e+001 2.996190e+001 2.133082e+001 2.162368e+001 2.800777e+001 1.480422e+001 1.851461e+001 1.019232e+000 1.781074e+000 1.562103e+000 1.812359e+000 3.142981e+000 4.207413e+000 2.692504e+000 2.392535e+000 2.054936e+000 1.284853e+000 4.052745e+000 1.709230e+000 1.306239e+000 1.961475e-001 3.481273e-001 2.544077e-001 3.446835e-001 5.261659e-001 6.669793e-001 5.099800e-001 5.039488e-001 3.416763e-001 2.506267e-001 5.409677e-001 3.325291e-001 2.680215e-001
<GCONST> 1.093241e+002
<STATE> 4
<MEAN> 39
 -6.987739e-001 -1.564159e-001 5.130449e+000 -4.480815e+000 -1.905584e+001 -1.903574e+001 -3.670096e+000 -5.637425e+000 -8.320537e+000 -5.312029e+000 7.255886e+000 -1.933165e+000 6.958501e+001 -2.245890e-001 3.281098e-001 5.578483e-002 -7.835060e-002 1.788739e-001 5.169216e-002 -1.099720e-001 -5.256103e-002 -1.233223e-001 5.660236e-002 9.457050e-002 -2.016797e-001 -3.617002e-001 -5.896479e-002 1.067744e-002 -4.051374e-002 9.004143e-002 1.168658e-001 1.539884e-001 -3.507885e-002 -4.383775e-002 9.894048e-002 6.116324e-002 -1.613071e-001 6.160753e-002 -1.382297e-001
<VARIANCE> 39
 8.327296e+000 8.040735e+000 2.724273e+001 4.842834e+001 2.578514e+001 9.451627e+001 3.307650e+001 2.377284e+001 3.333176e+001 4.301862e+001 1.934035e+001 3.424735e+001 1.781499e+001 2.141959e-001 3.831194e-001 3.150530e-001 3.883037e-001 3.989943e-001 7.257381e-001 8.533827e-001 6.255407e-001 1.299855e+000 1.355430e+000 7.471831e-001 6.754328e-001 3.379532e-001 4.789805e-002 9.181387e-002 8.735997e-002 8.215337e-002 1.714108e-001 1.851873e-001 1.721903e-001 1.298095e-001 3.059588e-001 2.526945e-001 1.643129e-001 1.528630e-001 4.513400e-002
<GCONST> 7.954875e+001
<TRANSP> 5
 0.000000e+000 1.000000e+000 0.000000e+000 0.000000e+000 0.000000e+000
 0.000000e+000 9.176385e-001 8.236150e-002 0.000000e+000 0.000000e+000
 0.000000e+000 0.000000e+000 8.324988e-001 1.675012e-001 0.000000e+000
 0.000000e+000 0.000000e+000 0.000000e+000 8.930860e-001 1.069140e-001
 0.000000e+000 0.000000e+000 0.000000e+000 0.000000e+000 0.000000e+000
<ENDHMM>
~h "t"
<BEGINHMM>
<NUMSTATES> 5
<STATE> 2
<MEAN> 39
 -8.502971e+000 -3.180775e+000 -5.694387e+000 -7.179494e+000 -4.293451e+000 -6.675481e+000 -4.552947e+000 -2.628179e+000 1.539381e+000 -2.149930e+000 -2.549851e+000 -1.885029e+000 6.824583e+001 1.821423e+000 1.991344e-001 -4.252121e-001 -6.891834e-001 -9.888421e-001 -6.645710e-001 -2.710171e-001 -1.293993e+000 -4.711236e-001 -4.432682e-001 -9.952601e-001 -9.677457e-001 1.621574e+000 4.178797e-001 1.540931e-001 -2.985025e-002 -6.011962e-002 -2.795774e-001 1.577452e-001 1.171637e-001 -2.268628e-001 -2.215424e-001 7.245333e-002 4.513813e-003 1.039199e-003 -1.554494e-001
<VARIANCE> 39
 4.260079e+001 3.434260e+001 3.449961e+001 3.741138e+001 4.592688e+001 5.162939e+001 3.585291e+001 3.617860e+001 3.932622e+001 2.873918e+001 3.345147e+001 3.750724e+001 4.151099e+001 5.369309e+000 4.506483e+000 2.644368e+000 3.850523e+000 4.718385e+000 5.773481e+000 4.260794e+000 4.531404e+000 6.067407e+000 3.037736e+000 3.608566e+000 3.748311e+000 4.292512e+000 7.701235e-001 8.319716e-001 4.049353e-001 6.372323e-001 7.497901e-001 1.081446e+000 7.326276e-001 7.860476e-001 9.697711e-001 6.209891e-001 6.671470e-001 7.321157e-001 8.029215e-001
<GCONST> 1.337013e+002
<STATE> 3
<MEAN> 39
 1.178891e+000 -2.839466e+000 -8.575906e+000 -1.154544e+001 -1.025439e+001 -7.402149e+000 -3.427557e+000 -8.349994e+000 -2.050145e+000 -2.740877e+000 -5.045427e+000 -4.442612e+000 7.346633e+001 7.716181e-001 -6.795792e-001 -2.970397e-001 -8.260257e-001 -1.023671e+000 8.176431e-002 5.073088e-002 -8.407010e-001 -3.035739e-001 4.363298e-001 3.054619e-001 5.345554e-001 1.042046e+000 -7.904740e-001 -2.142895e-001 2.124183e-001 2.523165e-001 4.561036e-001 2.062967e-001 -4.307934e-002 4.008258e-001 3.034412e-001 1.881669e-001 3.180093e-001 2.496051e-001 -3.688273e-001
<VARIANCE> 39
 2.153984e+001 4.424954e+001 4.845693e+001 5.329741e+001 5.577356e+001 8.397673e+001 6.642191e+001 3.655660e+001 4.898115e+001 4.225603e+001 4.655266e+001 6.036103e+001 2.768092e+001 2.251024e+000 3.208378e+000 2.227924e+000 2.196387e+000 3.797133e+000 5.374141e+000 3.186905e+000 2.910645e+000 3.178792e+000 2.986728e+000 2.384930e+000 2.601308e+000 1.779127e+000 2.713516e-001 5.194921e-001 2.911629e-001 4.709844e-001 6.926634e-001 6.337394e-001 6.616069e-001 5.412615e-001 7.637202e-001 4.851244e-001 5.437128e-001 6.187729e-001 1.910872e-001
<GCONST> 1.254638e+002
<STATE> 4
<MEAN> 39
 3.175853e-001 -3.247742e+000 -9.449023e+000 -1.243060e+001 -8.476552e+000 -7.957806e+000 -3.031021e+000 -7.008202e+000 -2.564861e+000 -3.392961e+000 -5.038652e+000 -4.706576e+000 7.457447e+001 -8.548690e-002 -2.327134e-002 9.463196e-002 1.012203e-001 1.467648e-001 -3.776941e-002 -2.709773e-002 -1.008570e-001 7.284105e-002 3.706532e-001 2.606186e-001 -4.814700e-002 -5.376992e-002 -1.222398e-001 4.718444e-002 1.293204e-001 2.714851e-001 1.827409e-001 -1.244435e-001 -1.080621e-001 6.092156e-002 1.663592e-001 8.294450e-002 5.108902e-002 -1.236105e-001 -1.398667e-001
<VARIANCE> 39
 3.061817e+001 4.914186e+001 4.769128e+001 4.219404e+001 6.526936e+001 8.191335e+001 4.277550e+001 4.109413e+001 4.103679e+001 3.939558e+001 4.597359e+001 7.757023e+001 2.720679e+001 7.618253e-001 1.164127e+000 1.037977e+000 1.276551e+000 1.663902e+000 2.679047e+000 1.930952e+000 2.369825e+000 1.994653e+000 2.351523e+000 2.005579e+000 1.797144e+000 5.760556e-001 1.325433e-001 2.107014e-001 1.929206e-001 2.499181e-001 3.967968e-001 4.796493e-001 4.092158e-001 4.363818e-001 4.000115e-001 4.385929e-001 3.821062e-001 3.682893e-001 1.138228e-001
<GCONST> 1.111138e+002
<TRANSP> 5
 0.000000e+000 1.000000e+000 0.000000e+000 0.000000e+000 0.000000e+000
 0.000000e+000 7.556745e-001 2.443255e-001 0.000000e+000 0.000000e+000
 0.000000e+000 0.000000e+000 5.467327e-001 4.532673e-001 0.000000e+000
 0.000000e+000 0.000000e+000 0.000000e+000 6.804363e-001 3.195637e-001
 0.000000e+000 0.000000e+000 0.000000e+000 0.000000e+000 0.000000e+000
<ENDHMM>
~h "u"
<BEGINHMM>
<NUMSTATES> 5
<STATE> 2
<MEAN> 39
 -4.537754e+000 8.017651e+000 4.249184e+000 2.184477e+000 -9.905073e+000 -1.905627e+001 1.147929e+000 -9.399946e+000 -9.531309e+000 -4.306278e+000 2.318192e+000 -5.330745e+000 6.899496e+001 4.378718e-001 2.409757e-001 -8.542958e-001 6.404072e-001 1.044128e+000 -6.253498e-001 -6.447178e-001 3.432791e-001 8.476140e-001 -7.736739e-001 -2.068091e-001 3.532656e-001 -4.575533e-001 -2.582289e-001 -1.129354e-001 4.921180e-002 -1.702378e-001 3.652663e-001 7.770320e-001 -2.960301e-001 -1.187114e-001 5.338807e-001 8.471740e-002 -4.215724e-001 7.164587e-002 -1.031553e-001
<VARIANCE> 39
 7.027441e+000 7.885936e+000 4.756576e+001 1.022594e+001 1.937435e+001 2.910946e+001 5.564453e+001 2.598144e+001 2.022516e+001 2.635677e+001 1.821504e+001 2.244467e+001 1.860435e+001 2.313665e-001 5.345495e-001 7.125393e-001 1.036171e+000 1.497681e+000 2.088110e+000 3.192684e+000 2.091406e+000 2.795862e+000 1.422546e+000 1.065208e+000 1.667400e+000 2.150723e-001 1.492065e-001 8.185829e-002 1.231470e-001 1.199472e-001 2.019279e-001 1.458686e-001 3.889754e-001 2.086015e-001 1.024260e-001 2.207454e-001 2.596901e-001 2.140459e-001 4.578976e-002
<GCONST> 8.734991e+001
<STATE> 3
<MEAN> 39
 -1.612232e+000 7.528134e+000 4.486202e+000 2.470054e+000 -5.575714e+000 -1.418198e+001 -1.014659e+001 -6.348584e+000 -2.357617e+000 -6.848729e+000 -2.164842e-001 -9.561680e-001 6.562408e+001 1.635246e-001 1.798036e-001 -8.042108e-001 -1.934406e-001 1.109362e+000 1.230420e+000 -5.936309e-001 -6.185760e-001 7.594153e-001 6.532321e-001 -5.843409e-001 -2.974911e-001 -4.453771e-001 -1.208946e-001 -7.796025e-002 -5.498249e-003 -1.499690e-001 -1.851323e-001 1.916584e-001 2.464949e-001 -6.760963e-002 -2.466257e-001 3.008710e-001 1.547643e-001 -3.262778e-002 2.789734e-002
<VARIANCE> 39
 1.177507e+001 1.075961e+001 1.462076e+001 7.276792e+000 1.270041e+001 1.180328e+001 2.140742e+001 2.958833e+001 1.490066e+001 5.624782e+000 1.124784e+001 1.242799e+001 5.008190e+000 1.239643e-001 3.801216e-001 3.522508e-001 6.569879e-001 1.373844e+000 1.031648e+000 1.030391e+000 5.181291e-001 1.315846e+000 8.324183e-001 9.010878e-001 5.939832e-001 1.098025e-001 2.341992e-002 8.430818e-002 6.086858e-002 1.627333e-001 1.291029e-001 2.561242e-001 2.183704e-001 2.153360e-001 2.127840e-001 1.825064e-001 2.233457e-001 1.024230e-001 4.326201e-002
<GCONST> 6.861156e+001
<STATE> 4
<MEAN> 39
 -3.593970e+000 7.920241e+000 -5.162044e-001 5.246041e-001 -1.735838e+000 -7.199354e+000 -7.287581e+000 -1.211848e+001 -3.612750e+000 -2.097946e+000 -7.756820e-001 -2.026982e+000 6.177054e+001 -4.088407e-001 -3.429015e-001 -2.731293e-001 1.135824e-002 5.618249e-001 9.042606e-001 6.528310e-001 4.181470e-001 -1.228046e-001 3.988314e-001 1.996259e-001 1.852920e-001 -4.016990e-001 -1.064638e-001 -1.196803e-001 6.143721e-002 5.934952e-002 -8.242562e-002 -5.479916e-002 1.227686e-001 1.856447e-001 -5.685804e-002 -1.285051e-001 1.092773e-002 4.251408e-003 1.727001e-002
<VARIANCE> 39
 1.061395e+001 9.340962e+000 1.090441e+001 9.926154e+000 1.096587e+001 1.575735e+001 1.993462e+001 3.153258e+001 2.287905e+001 1.242752e+001 1.044942e+001 1.014468e+001 7.181532e+000 3.506349e-001 7.620937e-001 7.908778e-001 1.099400e+000 8.616019e-001 1.403466e+000 1.637132e+000 1.731616e+000 1.205687e+000 1.910432e+000 8.243405e-001 4.177066e-001 2.134791e-001 4.928090e-002 1.421677e-001 1.503627e-001 2.458426e-001 2.045245e-001 2.611890e-001 3.339295e-001 3.135026e-001 2.558244e-001 3.803294e-001 1.550874e-001 8.985095e-002 3.175373e-002
<GCONST> 7.933710e+001
<TRANSP> 5
 0.000000e+000 1.000000e+000 0.000000e+000 0.000000e+000 0.000000e+000
 0.000000e+000 6.541928e-001 3.458072e-001 0.000000e+000 0.000000e+000
 0.000000e+000 0.000000e+000 7.869472e-001 2.130528e-001 0.000000e+000
 0.000000e+000 0.000000e+000 0.000000e+000 8.837754e-001 1.162246e-001
 0.000000e+000 0.000000e+000 0.000000e+000 0.000000e+000 0.000000e+000
<ENDHMM>
~h "w"
<BEGINHMM>
<NUMSTATES> 5
<STATE> 2
<MEAN> 39
 -2.798081e+000 1.015603e+000 -2.737489e+000 -6.760623e+000 -9.013508e+000 -7.721240e+000 -2.340556e+000 -5.791430e+000 -3.008503e+000 -2.842516e+000 -2.408931e+000 -3.042888e+000 6.712006e+001 1.816639e-002 7.030336e-003 1.035966e-002 1.197295e-002 -3.030741e-002 -3.000990e-002 -1.121263e-002 -1.918899e-002 -8.024712e-003 -9.913054e-003 -2.549139e-003 -2.114425e-003 5.405467e-003 -4.415081e-003 1.196028e-002 1.510665e-003 1.035524e-002 1.260583e-002 1.132140e-002 1.643880e-003 5.128350e-003 4.624746e-003 4.331185e-003 1.837649e-003 5.600615e-003 -3.189945e-002
<VARIANCE> 39
 3.428817e+001 4.836518e+001 6.373507e+001 6.480933e+001 7.744907e+001 9.549992e+001 5.887634e+001 5.563300e+001 4.740282e+001 3.601039e+001 3.689566e+001 3.421291e+001 5.592876e+001 1.284020e+000 1.579060e+000 1.448692e+000 1.879212e+000 2.206893e+000 2.620023e+000 2.072583e+000 2.299653e+000 2.249433e+000 1.916542e+000 1.814010e+000 1.601416e+000 1.662629e+000 1.691740e-001 2.286167e-001 1.968112e-001 2.685542e-001 3.292408e-001 3.721457e-001 3.482843e-001 3.651308e-001 3.816728e-001 3.350308e-001 3.148932e-001 2.783629e-001 1.694588e-001
<GCONST> 1.144672e+002
<STATE> 3
<MEAN> 39
 -2.798081e+000 1.015603e+000 -2.737489e+000 -6.760623e+000 -9.013508e+000 -7.721240e+000 -2.340556e+000 -5.791430e+000 -3.008503e+000 -2.842516e+000 -2.408931e+000 -3.042888e+000 6.712006e+001 1.816639e-002 7.030336e-003 1.035966e-002 1.197295e-002 -3.030741e-002 -3.000990e-002 -1.121263e-002 -1.918899e-002 -8.024712e-003 -9.913054e-003 -2.549139e-003 -2.114425e-003 5.405467e-003 -4.415081e-003 1.196028e-002 1.510665e-003 1.035524e-002 1.260583e-002 1.132140e-002 1.643880e-003 5.128350e-003 4.624746e-003 4.331185e-003 1.837649e-003 5.600615e-003 -3.189945e-002
<VARIANCE> 39
 3.428817e+001 4.836518e+001 6.373507e+001 6.480933e+001 7.744907e+001 9.549992e+001 5.887634e+001 5.563300e+001 4.740282e+001 3.601039e+001 3.689566e+001 3.421291e+001 5.592876e+001 1.284020e+000 1.579060e+000 1.448692e+000 1.879212e+000 2.206893e+000 2.620023e+000 2.072583e+000 2.299653e+000 2.249433e+000 1.916542e+000 1.814010e+000 1.601416e+000 1.662629e+000 1.691740e-001 2.286167e-001 1.968112e-001 2.685542e-001 3.292408e-001 3.721457e-001 3.482843e-001 3.651308e-001 3.816728e-001 3.350308e-001 3.148932e-001 2.783629e-001 1.694588e-001
<GCONST> 1.144672e+002
<STATE> 4
<MEAN> 39
 -2.798081e+000 1.015603e+000 -2.737489e+000 -6.760623e+000 -9.013508e+000 -7.721240e+000 -2.340556e+000 -5.791430e+000 -3.008503e+000 -2.842516e+000 -2.408931e+000 -3.042888e+000 6.712006e+001 1.816639e-002 7.030336e-003 1.035966e-002 1.197295e-002 -3.030741e-002 -3.000990e-002 -1.121263e-002 -1.918899e-002 -8.024712e-003 -9.913054e-003 -2.549139e-003 -2.114425e-003 5.405467e-003 -4.415081e-003 1.196028e-002 1.510665e-003 1.035524e-002 1.260583e-002 1.132140e-002 1.643880e-003 5.128350e-003 4.624746e-003 4.331185e-003 1.837649e-003 5.600615e-003 -3.189945e-002
<VARIANCE> 39
 3.428817e+001 4.836518e+001 6.373507e+001 6.480933e+001 7.744907e+001 9.549992e+001 5.887634e+001 5.563300e+001 4.740282e+001 3.601039e+001 3.689566e+001 3.421291e+001 5.592876e+001 1.284020e+000 1.579060e+000 1.448692e+000 1.879212e+000 2.206893e+000 2.620023e+000 2.072583e+000 2.299653e+000 2.249433e+000 1.916542e+000 1.814010e+000 1.601416e+000 1.662629e+000 1.691740e-001 2.286167e-001 1.968112e-001 2.685542e-001 3.292408e-001 3.721457e-001 3.482843e-001 3.651308e-001 3.816728e-001 3.350308e-001 3.148932e-001 2.783629e-001 1.694588e-001
<GCONST> 1.144672e+002
<TRANSP> 5
 0.000000e+000 1.000000e+000 0.000000e+000 0.000000e+000 0.000000e+000
 0.000000e+000 6.000000e-001 4.000000e-001 0.000000e+000 0.000000e+000
 0.000000e+000 0.000000e+000 6.000000e-001 4.000000e-001 0.000000e+000
 0.000000e+000 0.000000e+000 0.000000e+000 7.000000e-001 3.000000e-001
 0.000000e+000 0.000000e+000 0.000000e+000 0.000000e+000 0.000000e+000
<ENDHMM>
~h "a:"
<BEGINHMM>
<NUMSTATES> 5
<STATE> 2
<MEAN> 39
 8.837646e-001 -9.376172e+000 -1.255687e+001 -1.531497e+001 -1.138119e+000 6.146918e+000 1.791550e-001 -1.254106e+001 -1.672737e+000 8.124905e-001 -1.225515e+001 -6.118997e+000 7.603197e+001 -2.726012e-002 6.844304e-002 -2.411459e-002 9.230617e-002 -1.103880e-002 -1.163051e-001 -3.217787e-002 3.608514e-002 1.785142e-001 3.568206e-002 6.490681e-002 -6.306735e-002 -4.861410e-002 3.090114e-002 1.027371e-001 2.903958e-002 3.583567e-002 -8.314334e-002 -1.804910e-001 -5.624114e-004 1.353476e-001 3.106587e-002 -9.693560e-003 6.670851e-002 1.003422e-002 -6.959967e-002
<VARIANCE> 39
 1.482970e+001 1.176814e+001 2.022351e+001 4.503083e+001 4.048888e+001 6.858244e+001 6.539245e+001 2.238778e+001 8.125073e+001 3.284187e+001 2.567062e+001 2.643981e+001 2.519492e+001 1.337785e-001 2.831353e-001 3.633348e-001 4.791634e-001 8.598458e-001 9.663376e-001 7.304131e-001 1.230032e+000 8.060268e-001 5.550316e-001 6.801536e-001 6.303423e-001 1.274963e-001 2.688821e-002 5.345063e-002 6.475437e-002 8.964245e-002 1.293007e-001 1.833587e-001 1.294607e-001 2.084240e-001 1.601707e-001 1.205995e-001 1.302782e-001 1.150283e-001 1.959126e-002
<GCONST> 7.635390e+001
<STATE> 3
<MEAN> 39
 1.471937e+000 -5.421761e+000 -1.255410e+001 -1.161227e+001 -2.952801e+000 -3.945156e-001 1.088587e+000 -8.092381e+000 3.131563e-001 2.449068e-001 -8.206624e+000 -7.308434e+000 7.300695e+001 7.140250e-002 1.269525e+000 8.173206e-001 1.125905e+000 -4.085785e-001 -1.384482e+000 -8.299234e-001 8.776696e-001 2.407310e-001 7.696488e-002 9.431806e-001 3.882438e-001 -1.609305e+000 -1.730414e-001 1.263741e-001 1.944189e-001 1.304488e-001 1.430866e-001 1.242184e-001 -1.315210e-001 -7.131960e-002 -2.591170e-001 -1.768761e-001 7.880086e-002 2.019940e-001 -3.226135e-001
<VARIANCE> 39
 1.131659e+001 2.148771e+001 2.955334e+001 4.143779e+001 4.321336e+001 6.648132e+001 4.760426e+001 2.489705e+001 5.417151e+001 3.771519e+001 2.924131e+001 2.743433e+001 2.891364e+001 1.094467e+000 1.287808e+000 2.136177e+000 1.366837e+000 1.919523e+000 5.452901e+000 2.632855e+000 2.318914e+000 3.716223e+000 1.743022e+000 2.032151e+000 1.473738e+000 1.231026e+000 1.727415e-001 3.061858e-001 3.150084e-001 2.446721e-001 3.767991e-001 8.914655e-001 4.559188e-001 3.624541e-001 5.106053e-001 2.583223e-001 3.907281e-001 2.294703e-001 1.905455e-001
<GCONST> 1.112522e+002
<STATE> 4
<MEAN> 39
 -4.740824e+000 -2.776399e-001 -8.266535e+000 -6.748827e+000 -2.600377e+000 -7.884375e-001 -1.015980e+000 -2.474546e+000 6.067150e-001 3.591900e-001 -1.794369e+000 -2.821435e+000 5.993972e+001 -8.776015e-001 5.207725e-002 4.662648e-001 2.323671e-001 4.826210e-002 -4.062351e-001 -2.489951e-001 4.539548e-001 -1.279232e-001 -1.762509e-001 2.423168e-001 4.452937e-001 -5.043807e-001 7.710126e-002 -1.609833e-001 -9.725311e-002 -2.015831e-001 -2.757537e-002 -1.617734e-001 -4.221223e-002 -9.943526e-002 7.607803e-002 1.515831e-002 -1.020231e-001 -6.143802e-002 4.583189e-001
<VARIANCE> 39
 1.828197e+001 1.205948e+001 1.982111e+001 1.468170e+001 1.190613e+001 3.744751e+001 2.821607e+001 1.731547e+001 1.418350e+001 2.206880e+001 1.989699e+001 1.709822e+001 3.347332e+001 8.566039e-001 1.207978e+000 8.965308e-001 1.411227e+000 1.066844e+000 3.157516e+000 2.025053e+000 1.767855e+000 1.833368e+000 1.589977e+000 1.641990e+000 1.786950e+000 2.747362e+000 1.594588e-001 1.493183e-001 1.861776e-001 2.567151e-001 1.808449e-001 4.761173e-001 3.562100e-001 3.454247e-001 3.215919e-001 2.821632e-001 3.502921e-001 3.079374e-001 2.066497e-001
<GCONST> 9.851134e+001
<TRANSP> 5
 0.000000e+000 1.000000e+000 0.000000e+000 0.000000e+000 0.000000e+000
 0.000000e+000 9.188900e-001 8.111002e-002 0.000000e+000 0.000000e+000
 0.000000e+000 0.000000e+000 7.788958e-001 2.211042e-001 0.000000e+000
 0.000000e+000 0.000000e+000 0.000000e+000 8.663924e-001 1.336076e-001
 0.000000e+000 0.000000e+000 0.000000e+000 0.000000e+000 0.000000e+000
<ENDHMM>
~h "ae"
<BEGINHMM>
<NUMSTATES> 5
<STATE> 2
<MEAN> 39
 3.814937e-002 -9.894423e+000 -9.778129e+000 -1.186995e+001 -5.934689e+000 -2.950684e+000 -1.548058e+000 -3.944949e+000 4.707926e+000 -1.214159e+000 -1.127683e+001 -9.289895e+000 7.610892e+001 -1.516780e-001 2.190175e-001 4.731146e-001 6.116150e-001 -4.859052e-001 -1.666840e+000 -1.806054e-002 1.418717e+000 2.960735e-001 -2.968810e-001 7.762598e-002 2.178965e-001 -1.643421e-001 -2.217551e-002 9.202705e-002 7.134284e-002 1.054884e-002 -1.332171e-001 -5.935566e-002 9.309378e-002 -2.265264e-002 -1.586877e-001 1.924066e-002 1.887600e-001 9.744786e-002 -4.448781e-002
<VARIANCE> 39
 7.546956e+000 1.795750e+001 1.827172e+001 3.666468e+001 5.000616e+001 9.943253e+001 3.917178e+001 7.185500e+001 4.481502e+001 2.135696e+001 1.699836e+001 4.731048e+001 1.025038e+001 2.168001e-001 5.359167e-001 8.725033e-001 1.189252e+000 1.561727e+000 2.160988e+000 1.685152e+000 2.286587e+000 1.768037e+000 1.096948e+000 1.139989e+000 1.089994e+000 1.969967e-001 3.599796e-002 6.960062e-002 1.146253e-001 1.353616e-001 2.311397e-001 3.107621e-001 2.755638e-001 3.546341e-001 2.398517e-001 2.084432e-001 1.918506e-001 1.491329e-001 2.131358e-002
<GCONST> 8.962112e+001
<STATE> 3
<MEAN> 39
 -1.907379e+000 -5.622310e+000 -4.459352e+000 -6.224066e+000 -1.391555e+001 -1.771610e+001 2.371836e+000 4.206190e+000 2.851481e+000 -2.913262e+000 -3.794258e+000 -3.669999e+000 7.351097e+001 -2.477215e-001 8.557493e-001 7.460426e-001 3.883281e-001 -7.846205e-001 -3.333655e-001 4.802667e-001 -8.174655e-001 -7.587396e-001 1.898319e-001 1.361319e+000 6.366802e-001 -6.530361e-001 -1.008044e-002 9.637582e-003 -3.721223e-002 1.101106e-002 1.437660e-001 2.477665e-001 -1.124335e-001 -2.753568e-001 6.452806e-002 7.892885e-002 -9.974554e-002 -7.320238e-002 -5.050872e-002
<VARIANCE> 39
 5.189238e+000 2.744864e+001 6.901629e+001 4.794534e+001 8.275506e+001 5.763812e+001 5.560426e+001 1.660183e+001 1.098104e+001 2.033796e+001 2.621977e+001 4.200474e+001 1.223226e+001 2.843548e-001 5.849546e-001 8.502017e-001 8.736206e-001 1.239244e+000 1.367224e+000 9.039058e-001 1.273014e+000 1.052767e+000 1.485914e+000 1.274606e+000 1.050760e+000 2.605246e-001 5.323642e-002 1.024990e-001 1.834678e-001 2.270811e-001 1.938426e-001 2.085826e-001 1.571746e-001 2.473736e-001 1.859378e-001 2.522938e-001 1.992510e-001 1.497249e-001 3.474662e-002
<GCONST> 8.815064e+001
<STATE> 4
<MEAN> 39
 -5.147286e+000 1.634149e-001 -9.688416e-001 -1.099362e+000 -1.470952e+001 -1.378438e+001 5.256198e+000 -2.722044e+000 4.533217e-001 -1.804166e+000 7.152935e-001 -3.524043e+000 6.558150e+001 -3.514308e-001 3.049277e-001 1.503089e-001 4.440712e-001 4.537427e-001 7.250196e-001 -1.748496e-001 -2.870784e-001 -1.418392e-001 2.013106e-001 -1.111918e-001 -7.990510e-002 -1.028410e+000 -9.834644e-003 -9.374061e-002 -1.176463e-001 -6.270733e-002 1.312222e-001 8.515552e-002 -6.027098e-002 1.675132e-001 4.419472e-002 -9.506025e-003 -6.058738e-002 -5.650107e-003 -1.260158e-002
<VARIANCE> 39
 1.167910e+001 2.263264e+001 3.566445e+001 2.588644e+001 7.076358e+001 5.172755e+001 5.420656e+001 2.914218e+001 3.557194e+001 2.142124e+001 3.518982e+001 2.043757e+001 2.361156e+001 2.943504e-001 1.006332e+000 8.791452e-001 1.028711e+000 1.254121e+000 1.596181e+000 1.600605e+000 1.991317e+000 1.463535e+000 1.483796e+000 1.856593e+000 1.533059e+000 5.610721e-001 4.167580e-002 1.271655e-001 1.296349e-001 1.323599e-001 1.730033e-001 2.996909e-001 3.361409e-001 4.059210e-001 2.919676e-001 2.568455e-001 3.477068e-001 3.119684e-001 7.660583e-002
<GCONST> 9.617067e+001
<TRANSP> 5
 0.000000e+000 1.000000e+000 0.000000e+000 0.000000e+000 0.000000e+000
 0.000000e+000 9.025117e-001 9.748823e-002 0.000000e+000 0.000000e+000
 0.000000e+000 0.000000e+000 8.550879e-001 1.449120e-001 0.000000e+000
 0.000000e+000 0.000000e+000 0.000000e+000 9.029536e-001 9.704644e-002
 0.000000e+000 0.000000e+000 0.000000e+000 0.000000e+000 0.000000e+000
<ENDHMM>
~h "ai"
<BEGINHMM>
<NUMSTATES> 5
<STATE> 2
<MEAN> 39
 -3.923239e-001 -5.245965e+000 -3.384295e+000 -8.012422e+000 -1.231235e+001 -1.760204e+001 -3.908228e+000 -1.276480e-002 3.599780e+000 -2.882435e+000 -4.419206e+000 -2.889827e+000 7.496544e+001 -2.549219e-001 1.305161e+000 1.699000e+000 8.689109e-001 -1.419692e+000 -1.120577e+000 -1.911855e-001 -5.939987e-001 -1.308003e+000 -2.066402e-001 2.030080e+000 9.337850e-001 -6.780808e-001 -5.081531e-002 1.071532e-001 -8.150060e-002 -9.310006e-002 1.831679e-001 5.458854e-001 1.594334e-001 -3.775540e-001 -3.527366e-001 2.084224e-002 -9.030374e-002 -3.357544e-001 -6.716011e-002
<VARIANCE> 39
 6.399915e+000 2.678184e+001 5.347208e+001 5.304638e+001 9.732216e+001 8.097552e+001 5.021313e+001 3.164607e+001 2.821258e+001 2.236632e+001 5.558564e+001 4.091589e+001 7.416660e+000 5.495511e-001 7.302154e-001 1.352406e+000 7.632429e-001 2.024706e+000 3.603473e+000 2.077064e+000 3.546254e+000 2.710403e+000 2.057547e+000 1.948322e+000 2.155960e+000 3.170237e-001 6.834220e-002 1.107326e-001 2.089488e-001 1.196747e-001 3.638147e-001 4.694763e-001 1.915263e-001 4.407031e-001 2.890423e-001 4.039760e-001 7.214953e-001 2.880426e-001 2.322497e-002
<GCONST> 1.021099e+002
<STATE> 3
<MEAN> 39
 -1.951284e+000 2.781228e+000 4.602327e+000 -3.723513e+000 -1.725383e+001 -1.665865e+001 -2.092516e+000 -8.253671e+000 -6.444704e+000 -3.478928e+000 -5.003880e-001 -3.208584e+000 6.987610e+001 -1.882053e-001 1.160882e+000 5.955729e-001 5.156278e-001 4.941553e-001 8.968469e-001 4.858546e-003 -1.025798e+000 -6.566254e-001 -4.738200e-002 -6.591114e-001 -3.920858e-001 -9.999480e-001 2.200058e-002 -1.525895e-001 -1.422189e-001 2.458498e-002 1.794229e-001 3.113285e-002 -6.138174e-002 1.602965e-001 2.575462e-001 7.801158e-002 -1.539142e-001 2.540781e-002 -5.165275e-003
<VARIANCE> 39
 3.922272e+000 1.698629e+001 3.902710e+001 4.809477e+001 6.222503e+001 5.980363e+001 3.802094e+001 3.621044e+001 3.692888e+001 2.153347e+001 2.340520e+001 2.867233e+001 8.850119e+000 2.344066e-001 6.084287e-001 5.677544e-001 1.151661e+000 6.654695e-001 8.655264e-001 1.440229e+000 1.224171e+000 1.473758e+000 8.075469e-001 1.181816e+000 8.250349e-001 2.733002e-001 4.977754e-002 7.453198e-002 9.706232e-002 1.915469e-001 1.294226e-001 1.864725e-001 3.081211e-001 2.460707e-001 3.122057e-001 1.488815e-001 2.956603e-001 2.087647e-001 2.610970e-002
<GCONST> 8.534097e+001
<STATE> 4
<MEAN> 39
 -5.130186e+000 7.242304e+000 5.246442e+000 9.576150e-001 -1.081547e+001 -1.076665e+001 -1.029839e+000 -1.134417e+001 -5.389608e+000 -2.233018e+000 -3.703492e+000 -3.240594e+000 6.324677e+001 -4.470546e-001 -2.429915e-001 -1.261604e-001 2.368252e-001 6.709532e-001 8.402284e-001 7.299615e-002 2.760945e-001 2.889855e-001 1.010646e-001 8.640698e-002 1.802403e-001 -7.381204e-001 -5.578442e-002 -1.771620e-001 -1.327342e-001 -1.586187e-001 1.328822e-003 3.923272e-002 1.830198e-002 1.715260e-001 1.120697e-001 1.315287e-002 5.724788e-002 7.083104e-002 3.195826e-002
<VARIANCE> 39
 8.666553e+000 2.625720e+001 3.431230e+001 2.306543e+001 3.618205e+001 6.060031e+001 4.638263e+001 3.257386e+001 5.134541e+001 2.338656e+001 2.176202e+001 1.854346e+001 1.575470e+001 4.514045e-001 9.075359e-001 1.070281e+000 1.250942e+000 1.587963e+000 1.341175e+000 1.377509e+000 1.664129e+000 1.647818e+000 1.323606e+000 1.258308e+000 1.219553e+000 2.097233e-001 6.371150e-002 1.227593e-001 2.243863e-001 2.526040e-001 2.943812e-001 2.239159e-001 2.869745e-001 2.562903e-001 2.318083e-001 2.014222e-001 2.322018e-001 2.101845e-001 3.349694e-002
<GCONST> 9.274018e+001
<TRANSP> 5
 0.000000e+000 1.000000e+000 0.000000e+000 0.000000e+000 0.000000e+000
 0.000000e+000 8.233526e-001 1.766474e-001 0.000000e+000 0.000000e+000
 0.000000e+000 0.000000e+000 8.377113e-001 1.622887e-001 0.000000e+000
 0.000000e+000 0.000000e+000 0.000000e+000 9.003531e-001 9.964698e-002
 0.000000e+000 0.000000e+000 0.000000e+000 0.000000e+000 0.000000e+000
<ENDHMM>
~h "ao"
<BEGINHMM>
<NUMSTATES> 5
<STATE> 2
<MEAN> 39
 2.130923e+000 -4.838547e+000 -1.006037e+001 -1.858250e+001 -9.420588e+000 4.423304e+000 5.778490e+000 -8.139265e+000 -2.537403e+000 -3.937074e+000 -8.418496e+000 -1.858291e+000 7.363528e+001 1.338903e-001 3.390645e-001 5.062243e-002 -2.514704e-001 -3.640790e-001 -9.847517e-002 5.543597e-002 8.488901e-002 6.421097e-002 -9.744563e-002 -1.576006e-001 3.612409e-001 -2.133343e-001 1.320454e-002 7.243948e-002 -1.327339e-003 2.822154e-003 -2.894328e-002 -3.105275e-002 -2.571726e-002 5.631468e-002 -3.695703e-002 -5.171254e-002 -5.039351e-003 -5.336238e-002 -3.772188e-002
<VARIANCE> 39
 1.448542e+001 3.309464e+001 4.006315e+001 3.740796e+001 9.700107e+001 6.865382e+001 5.078327e+001 8.708708e+001 5.534530e+001 4.124819e+001 2.548902e+001 6.311813e+001 1.038702e+001 2.619107e-001 3.856023e-001 4.843070e-001 4.992727e-001 9.245799e-001 6.557622e-001 9.884079e-001 9.610935e-001 1.249364e+000 9.358141e-001 1.178917e+000 1.071618e+000 1.761772e-001 4.281271e-002 5.211177e-002 8.447436e-002 8.413826e-002 1.797368e-001 1.230919e-001 1.451464e-001 1.403401e-001 1.929721e-001 1.600569e-001 1.936877e-001 1.670689e-001 2.097512e-002
<GCONST> 8.467770e+001
<STATE> 3
<MEAN> 39
 5.267354e+000 3.200344e+000 -1.006784e+001 -2.085466e+001 -1.581172e+001 2.254640e+000 6.497488e+000 -5.310977e+000 8.176149e-001 -5.357332e+000 -8.196362e+000 1.294884e+000 6.847295e+001 -2.278291e-002 6.811522e-001 3.402846e-001 1.883894e-001 -3.452672e-001 -6.411064e-001 -4.438095e-001 5.407345e-001 4.238060e-002 -1.856261e-001 1.034995e-001 -2.050652e-001 -4.468578e-001 -4.348392e-002 6.677686e-003 1.082256e-002 6.210427e-002 6.939480e-002 -6.449804e-002 -3.497067e-002 1.017170e-002 -1.013532e-003 1.704664e-002 2.780573e-003 -4.914252e-002 -1.911613e-002
<VARIANCE> 39
 5.706240e+000 2.720853e+001 4.522042e+001 2.940787e+001 9.711286e+001 5.113198e+001 4.274782e+001 6.476183e+001 5.754956e+001 3.187795e+001 1.817255e+001 2.089106e+001 1.032322e+001 6.047762e-002 3.045388e-001 3.890637e-001 5.065430e-001 6.405221e-001 7.668347e-001 7.455065e-001 7.608480e-001 1.276752e+000 9.533383e-001 6.475837e-001 6.341326e-001 9.533746e-002 1.307291e-002 2.898593e-002 4.307093e-002 6.351339e-002 9.690539e-002 9.942658e-002 1.229360e-001 1.356284e-001 1.909559e-001 1.724849e-001 1.233407e-001 9.772161e-002 8.229611e-003
<GCONST> 7.105176e+001
<STATE> 4
<MEAN> 39
 5.408447e-001 7.915958e+000 -5.465485e+000 -1.329434e+001 -1.331011e+001 -6.475238e+000 1.362817e+000 6.468534e-001 5.577390e-001 -3.469708e+000 -6.213019e+000 -3.387670e+000 6.231138e+001 -7.224181e-001 -2.065720e-001 3.452992e-001 9.739287e-001 8.166261e-001 1.945229e-002 -3.422162e-001 1.217004e-001 1.372093e-001 1.543571e-001 3.630937e-001 -7.167504e-002 -6.075593e-001 -6.727020e-002 -1.521504e-001 -2.977641e-002 2.813774e-002 9.940451e-002 1.174304e-001 1.955608e-002 -3.256799e-002 2.077803e-002 9.096846e-002 8.110610e-002 7.522595e-002 7.248488e-003
<VARIANCE> 39
 1.092484e+001 2.917834e+001 2.468712e+001 2.972071e+001 6.241508e+001 2.683695e+001 4.077205e+001 2.492143e+001 3.659709e+001 3.365327e+001 2.049928e+001 1.680939e+001 1.735899e+001 2.910054e-001 6.987678e-001 6.564661e-001 1.029904e+000 1.278641e+000 1.342267e+000 9.255352e-001 1.578488e+000 1.324949e+000 1.046744e+000 1.145076e+000 1.185003e+000 1.560197e-001 3.520045e-002 6.224000e-002 1.150438e-001 1.549357e-001 1.850866e-001 1.905068e-001 1.649428e-001 2.774331e-001 2.566823e-001 1.862708e-001 1.985666e-001 2.186936e-001 1.582216e-002
<GCONST> 8.500561e+001
<TRANSP> 5
 0.000000e+000 1.000000e+000 0.000000e+000 0.000000e+000 0.000000e+000
 0.000000e+000 8.990156e-001 1.009844e-001 0.000000e+000 0.000000e+000
 0.000000e+000 0.000000e+000 8.905205e-001 1.094796e-001 0.000000e+000
 0.000000e+000 0.000000e+000 0.000000e+000 9.057006e-001 9.429939e-002
 0.000000e+000 0.000000e+000 0.000000e+000 0.000000e+000 0.000000e+000
<ENDHMM>
~h "au"
<BEGINHMM>
<NUMSTATES> 5
<STATE> 2
<MEAN> 39
 2.225816e+000 -4.320680e+000 -1.025074e+001 -1.109745e+001 -7.042007e+000 -1.096426e+001 -6.281053e+000 -4.662785e+000 4.295026e+000 3.486085e+000 -2.844808e+000 -7.263789e+000 7.445229e+001 1.832005e-001 7.499138e-001 3.730535e-001 4.156147e-001 -2.816338e-001 -7.907723e-001 -8.694068e-001 -5.631653e-001 1.339660e-001 3.201752e-001 7.181817e-001 4.231772e-001 -4.959868e-001 1.839711e-004 9.196298e-002 3.716970e-002 2.911280e-002 9.638156e-002 8.111969e-002 -3.241762e-003 -1.277558e-001 -1.899693e-001 -1.100514e-001 2.823924e-002 6.278117e-002 -8.365876e-002
<VARIANCE> 39
 8.804081e+000 2.388152e+001 3.029283e+001 4.725534e+001 4.567762e+001 1.329329e+002 6.394528e+001 4.269183e+001 4.771324e+001 1.689105e+001 3.843475e+001 4.895405e+001 8.942719e+000 2.097126e-001 6.516953e-001 3.899300e-001 5.535908e-001 9.702749e-001 6.461606e-001 9.027430e-001 1.732754e+000 1.566729e+000 1.095353e+000 1.140001e+000 1.334903e+000 1.777833e-001 2.636323e-002 6.623723e-002 6.717667e-002 7.830917e-002 1.560492e-001 1.374512e-001 1.800262e-001 2.017429e-001 2.995519e-001 2.566068e-001 1.937248e-001 1.844666e-001 1.351902e-002
<GCONST> 8.407190e+001
<STATE> 3
<MEAN> 39
 3.895002e+000 3.967467e+000 -6.389426e+000 -9.374679e+000 -8.223785e+000 -1.017664e+001 -1.157846e+001 -1.306366e+001 -2.038239e+000 1.761399e+000 4.846236e-001 -3.544806e+000 6.837520e+001 -4.439169e-002 9.086222e-001 4.966750e-001 3.595290e-001 1.660651e-001 2.856973e-001 -7.311447e-002 -3.009757e-001 -1.076174e+000 -6.712332e-001 -1.455907e-001 1.864396e-001 -7.738913e-001 -5.905419e-002 -6.222799e-002 9.536074e-003 -1.577559e-002 -8.813068e-003 7.240415e-002 1.600834e-001 1.897063e-001 7.510512e-002 -5.346471e-002 -1.374750e-001 -4.978961e-002 5.952894e-003
<VARIANCE> 39
 3.750818e+000 2.372849e+001 2.639671e+001 5.778643e+001 4.386331e+001 1.082778e+002 3.373578e+001 5.917573e+001 4.804686e+001 2.493392e+001 2.030563e+001 3.011566e+001 8.874828e+000 1.770172e-001 4.928075e-001 5.270924e-001 5.491499e-001 8.763530e-001 1.287234e+000 1.481374e+000 1.116428e+000 1.316163e+000 1.345259e+000 1.038234e+000 1.204982e+000 1.586394e-001 2.369416e-002 4.854476e-002 6.818872e-002 8.895177e-002 1.655621e-001 1.565987e-001 2.325059e-001 2.029208e-001 2.249850e-001 2.048566e-001 1.962475e-001 1.763907e-001 1.390997e-002
<GCONST> 8.185222e+001
<STATE> 4
<MEAN> 39
 -4.368863e-001 8.056774e+000 -2.034549e+000 -4.548503e+000 -5.547451e+000 -6.422359e+000 -7.234117e+000 -8.152843e+000 -5.000733e+000 -4.137798e+000 -2.744552e+000 -3.094332e+000 6.171685e+001 -5.846645e-001 -1.853207e-001 2.413731e-001 4.408462e-001 4.756555e-001 2.803836e-001 3.706524e-001 5.413984e-001 1.407965e-001 -1.880304e-001 -1.834415e-001 1.604536e-001 -5.541826e-001 -6.574266e-002 -1.490000e-001 -7.312089e-002 9.538788e-003 5.474423e-002 1.632593e-002 -1.311053e-002 1.259855e-002 7.352470e-002 1.063981e-001 6.503341e-002 2.652048e-002 3.065660e-002
<VARIANCE> 39
 9.954370e+000 2.601823e+001 1.364544e+001 2.543613e+001 3.238386e+001 3.382066e+001 2.351461e+001 3.672511e+001 2.984861e+001 3.463053e+001 1.930079e+001 1.478191e+001 1.398538e+001 3.443630e-001 5.542454e-001 5.361303e-001 1.049737e+000 1.134191e+000 1.305071e+000 1.297006e+000 1.476103e+000 1.051869e+000 1.450545e+000 1.153642e+000 9.951838e-001 2.109940e-001 4.333925e-002 8.456333e-002 1.062596e-001 1.567109e-001 1.821842e-001 1.830610e-001 2.228080e-001 2.276401e-001 2.009857e-001 2.753415e-001 2.156854e-001 1.640005e-001 2.139520e-002
<GCONST> 8.372418e+001
<TRANSP> 5
 0.000000e+000 1.000000e+000 0.000000e+000 0.000000e+000 0.000000e+000
 0.000000e+000 8.675069e-001 1.324931e-001 0.000000e+000 0.000000e+000
 0.000000e+000 0.000000e+000 8.804483e-001 1.195517e-001 0.000000e+000
 0.000000e+000 0.000000e+000 0.000000e+000 9.099928e-001 9.000728e-002
 0.000000e+000 0.000000e+000 0.000000e+000 0.000000e+000 0.000000e+000
<ENDHMM>
~h "e:"
<BEGINHMM>
<NUMSTATES> 5
<STATE> 2
<MEAN> 39
 -3.469450e+000 4.576405e-001 5.335356e+000 -6.014512e+000 -2.199696e+001 -1.847780e+001 -3.571162e+000 -8.893503e+000 -7.841569e+000 -3.699991e+000 3.629833e+000 -6.446271e+000 7.492100e+001 1.195568e-003 1.017639e-002 2.595912e-002 -9.173717e-002 3.902099e-002 5.516212e-002 -2.013260e-002 5.340235e-002 9.364927e-003 -6.457454e-002 4.626161e-002 -5.206184e-002 -1.110863e-001 2.693195e-003 -1.038451e-003 2.705989e-003 1.126005e-002 2.187658e-002 1.794176e-003 -1.144612e-002 2.099027e-002 2.287604e-003 -4.275632e-002 -3.631179e-002 3.204853e-002 -1.878560e-002
<VARIANCE> 39
 4.285897e+000 7.625415e+000 3.525831e+001 3.360383e+001 3.572504e+001 4.504098e+001 4.252452e+001 3.572397e+001 1.637822e+001 2.759044e+001 2.280931e+001 4.366610e+001 1.182460e+001 7.500210e-002 2.642498e-001 3.281991e-001 4.720519e-001 6.129527e-001 5.919380e-001 6.208777e-001 6.574639e-001 5.149661e-001 6.508405e-001 6.256149e-001 5.039679e-001 7.261967e-002 1.294656e-002 3.753680e-002 5.828210e-002 8.176989e-002 1.179638e-001 1.066258e-001 1.186077e-001 1.212757e-001 9.918962e-002 1.336611e-001 1.180619e-001 1.047103e-001 1.239167e-002
<GCONST> 6.517230e+001
<STATE> 3
<MEAN> 39
 -3.004274e+000 -9.998071e-001 7.289439e+000 -6.852162e+000 -2.226288e+001 -1.740077e+001 -4.562277e+000 -5.938084e+000 -9.173679e+000 -5.097072e+000 4.325696e+000 -4.768645e+000 7.165518e+001 2.315908e-001 2.619531e-001 -3.387203e-001 5.639570e-001 2.199203e-001 1.414126e-001 3.290800e-001 7.571997e-002 3.364027e-001 -3.302445e-001 -3.242793e-001 2.379150e-001 -6.392161e-001 4.097009e-002 1.929101e-001 -1.550173e-001 2.124678e-001 1.628694e-001 1.724056e-002 7.655149e-002 -3.589787e-002 1.301709e-001 8.724078e-002 -1.830375e-001 -1.285950e-001 -1.863509e-001
<VARIANCE> 39
 3.677884e+000 1.006521e+001 1.972944e+001 4.226351e+001 4.284928e+001 6.037236e+001 3.081496e+001 2.588187e+001 2.213008e+001 3.792545e+001 2.760968e+001 3.032865e+001 2.226791e+001 2.266188e-001 5.563620e-001 5.257981e-001 7.747051e-001 9.006308e-001 6.957814e-001 9.463654e-001 1.231935e+000 6.745647e-001 1.026375e+000 7.083890e-001 9.795435e-001 2.945217e-001 3.892479e-002 8.676168e-002 9.202465e-002 1.813658e-001 1.876349e-001 1.629035e-001 2.819112e-001 2.491324e-001 9.365857e-002 2.322819e-001 1.320480e-001 1.698879e-001 4.520819e-002
<GCONST> 8.123304e+001
<STATE> 4
<MEAN> 39
 -4.382694e+000 3.274237e+000 3.157426e+000 -1.714540e+000 -1.519321e+001 -1.313914e+001 -7.014169e-001 -7.298870e+000 -4.906856e+000 -3.499887e+000 2.524171e-001 -5.043462e+000 6.484483e+001 -3.947558e-001 1.462344e-001 -5.064083e-001 5.626914e-001 1.263239e+000 8.293966e-001 1.748108e-001 2.707227e-001 3.580813e-001 8.180413e-002 -3.823681e-001 4.216976e-001 -1.117030e+000 -6.398308e-002 -1.261261e-001 -3.681140e-002 -6.249804e-002 1.040950e-001 9.789018e-002 -4.040304e-002 6.369315e-002 -1.268712e-002 2.673575e-002 1.074060e-001 8.288803e-002 3.126308e-002
<VARIANCE> 39
 6.850247e+000 2.652886e+001 2.284410e+001 2.869113e+001 4.040424e+001 4.897981e+001 2.556403e+001 4.599807e+001 2.319401e+001 3.371259e+001 3.893714e+001 3.487911e+001 3.333295e+001 3.807263e-001 1.195974e+000 7.189501e-001 1.143268e+000 1.401310e+000 1.994129e+000 1.654010e+000 1.687841e+000 1.305778e+000 1.743723e+000 2.086009e+000 1.923441e+000 5.133885e-001 5.533518e-002 1.532933e-001 8.564349e-002 1.544147e-001 1.969582e-001 2.498859e-001 2.969377e-001 2.956356e-001 2.519782e-001 2.453416e-001 3.731191e-001 3.896435e-001 6.564797e-002
<GCONST> 9.604910e+001
<TRANSP> 5
 0.000000e+000 1.000000e+000 0.000000e+000 0.000000e+000 0.000000e+000
 0.000000e+000 9.391685e-001 6.083154e-002 0.000000e+000 0.000000e+000
 0.000000e+000 0.000000e+000 7.683803e-001 2.316197e-001 0.000000e+000
 0.000000e+000 0.000000e+000 0.000000e+000 8.685420e-001 1.314580e-001
 0.000000e+000 0.000000e+000 0.000000e+000 0.000000e+000 0.000000e+000
<ENDHMM>
~h "ea"
<BEGINHMM>
<NUMSTATES> 5
<STATE> 2
<MEAN> 39
 -2.798081e+000 1.015603e+000 -2.737489e+000 -6.760623e+000 -9.013508e+000 -7.721240e+000 -2.340556e+000 -5.791430e+000 -3.008503e+000 -2.842516e+000 -2.408931e+000 -3.042888e+000 6.712006e+001 1.816639e-002 7.030336e-003 1.035966e-002 1.197295e-002 -3.030741e-002 -3.000990e-002 -1.121263e-002 -1.918899e-002 -8.024712e-003 -9.913054e-003 -2.549139e-003 -2.114425e-003 5.405467e-003 -4.415081e-003 1.196028e-002 1.510665e-003 1.035524e-002 1.260583e-002 1.132140e-002 1.643880e-003 5.128350e-003 4.624746e-003 4.331185e-003 1.837649e-003 5.600615e-003 -3.189945e-002
<VARIANCE> 39
 3.428817e+001 4.836518e+001 6.373507e+001 6.480933e+001 7.744907e+001 9.549992e+001 5.887634e+001 5.563300e+001 4.740282e+001 3.601039e+001 3.689566e+001 3.421291e+001 5.592876e+001 1.284020e+000 1.579060e+000 1.448692e+000 1.879212e+000 2.206893e+000 2.620023e+000 2.072583e+000 2.299653e+000 2.249433e+000 1.916542e+000 1.814010e+000 1.601416e+000 1.662629e+000 1.691740e-001 2.286167e-001 1.968112e-001 2.685542e-001 3.292408e-001 3.721457e-001 3.482843e-001 3.651308e-001 3.816728e-001 3.350308e-001 3.148932e-001 2.783629e-001 1.694588e-001
<GCONST> 1.144672e+002
<STATE> 3
<MEAN> 39
 -2.798081e+000 1.015603e+000 -2.737489e+000 -6.760623e+000 -9.013508e+000 -7.721240e+000 -2.340556e+000 -5.791430e+000 -3.008503e+000 -2.842516e+000 -2.408931e+000 -3.042888e+000 6.712006e+001 1.816639e-002 7.030336e-003 1.035966e-002 1.197295e-002 -3.030741e-002 -3.000990e-002 -1.121263e-002 -1.918899e-002 -8.024712e-003 -9.913054e-003 -2.549139e-003 -2.114425e-003 5.405467e-003 -4.415081e-003 1.196028e-002 1.510665e-003 1.035524e-002 1.260583e-002 1.132140e-002 1.643880e-003 5.128350e-003 4.624746e-003 4.331185e-003 1.837649e-003 5.600615e-003 -3.189945e-002
<VARIANCE> 39
 3.428817e+001 4.836518e+001 6.373507e+001 6.480933e+001 7.744907e+001 9.549992e+001 5.887634e+001 5.563300e+001 4.740282e+001 3.601039e+001 3.689566e+001 3.421291e+001 5.592876e+001 1.284020e+000 1.579060e+000 1.448692e+000 1.879212e+000 2.206893e+000 2.620023e+000 2.072583e+000 2.299653e+000 2.249433e+000 1.916542e+000 1.814010e+000 1.601416e+000 1.662629e+000 1.691740e-001 2.286167e-001 1.968112e-001 2.685542e-001 3.292408e-001 3.721457e-001 3.482843e-001 3.651308e-001 3.816728e-001 3.350308e-001 3.148932e-001 2.783629e-001 1.694588e-001
<GCONST> 1.144672e+002
<STATE> 4
<MEAN> 39
 -2.798081e+000 1.015603e+000 -2.737489e+000 -6.760623e+000 -9.013508e+000 -7.721240e+000 -2.340556e+000 -5.791430e+000 -3.008503e+000 -2.842516e+000 -2.408931e+000 -3.042888e+000 6.712006e+001 1.816639e-002 7.030336e-003 1.035966e-002 1.197295e-002 -3.030741e-002 -3.000990e-002 -1.121263e-002 -1.918899e-002 -8.024712e-003 -9.913054e-003 -2.549139e-003 -2.114425e-003 5.405467e-003 -4.415081e-003 1.196028e-002 1.510665e-003 1.035524e-002 1.260583e-002 1.132140e-002 1.643880e-003 5.128350e-003 4.624746e-003 4.331185e-003 1.837649e-003 5.600615e-003 -3.189945e-002
<VARIANCE> 39
 3.428817e+001 4.836518e+001 6.373507e+001 6.480933e+001 7.744907e+001 9.549992e+001 5.887634e+001 5.563300e+001 4.740282e+001 3.601039e+001 3.689566e+001 3.421291e+001 5.592876e+001 1.284020e+000 1.579060e+000 1.448692e+000 1.879212e+000 2.206893e+000 2.620023e+000 2.072583e+000 2.299653e+000 2.249433e+000 1.916542e+000 1.814010e+000 1.601416e+000 1.662629e+000 1.691740e-001 2.286167e-001 1.968112e-001 2.685542e-001 3.292408e-001 3.721457e-001 3.482843e-001 3.651308e-001 3.816728e-001 3.350308e-001 3.148932e-001 2.783629e-001 1.694588e-001
<GCONST> 1.144672e+002
<TRANSP> 5
 0.000000e+000 1.000000e+000 0.000000e+000 0.000000e+000 0.000000e+000
 0.000000e+000 6.000000e-001 4.000000e-001 0.000000e+000 0.000000e+000
 0.000000e+000 0.000000e+000 6.000000e-001 4.000000e-001 0.000000e+000
 0.000000e+000 0.000000e+000 0.000000e+000 7.000000e-001 3.000000e-001
 0.000000e+000 0.000000e+000 0.000000e+000 0.000000e+000 0.000000e+000
<ENDHMM>
~h "ei"
<BEGINHMM>
<NUMSTATES> 5
<STATE> 2
<MEAN> 39
 -2.328324e+000 -1.978130e+000 5.336469e-001 -6.141215e+000 -1.706014e+001 -2.083911e+001 2.615389e-001 -1.387290e+000 -3.782747e+000 -3.436568e+000 1.467914e+000 -4.331172e+000 7.569594e+001 -6.161218e-002 5.762826e-001 4.291161e-001 1.359648e-001 -1.549210e-001 6.293223e-002 -1.330014e-001 -8.788170e-001 -5.043077e-001 3.852090e-001 4.668296e-001 1.447382e-002 -3.539599e-001 -7.870908e-003 5.615011e-002 2.133346e-003 4.676062e-002 4.422875e-002 7.098479e-002 2.464379e-002 -4.476668e-002 4.246276e-003 -3.963413e-002 -8.759353e-002 -3.081409e-002 -4.432436e-002
<VARIANCE> 39
 4.554541e+000 1.163900e+001 3.966719e+001 4.314087e+001 3.607868e+001 9.891146e+001 5.007952e+001 3.760054e+001 3.093589e+001 5.417301e+001 3.172137e+001 3.843645e+001 9.818749e+000 1.459628e-001 3.091489e-001 3.629226e-001 5.475593e-001 6.264144e-001 7.815843e-001 7.823448e-001 9.986791e-001 9.666647e-001 7.848246e-001 8.602072e-001 8.358766e-001 1.611777e-001 2.619143e-002 5.093769e-002 6.464435e-002 9.087519e-002 1.039005e-001 9.734527e-002 1.660675e-001 1.722725e-001 1.631610e-001 1.310549e-001 1.232273e-001 1.061040e-001 2.223749e-002
<GCONST> 7.562855e+001
<STATE> 3
<MEAN> 39
 -3.392915e+000 5.123389e+000 7.767193e+000 -2.313491e+000 -1.868963e+001 -1.185136e+001 -4.130141e-001 -1.175358e+001 -8.234222e+000 -1.786969e+000 1.321554e+000 -5.756955e+000 6.927602e+001 -1.007043e-001 6.203869e-001 2.217401e-001 3.041601e-001 4.762632e-001 7.157301e-001 9.621067e-002 -4.316853e-001 -6.697594e-002 -5.408318e-002 -4.179404e-001 -8.992045e-002 -5.947871e-001 -2.428565e-002 -4.124293e-002 -6.492373e-002 1.871385e-002 1.026950e-001 -4.025399e-002 2.757456e-002 1.092805e-001 7.247835e-002 -2.583710e-002 -1.210853e-002 5.887158e-002 -1.581298e-002
<VARIANCE> 39
 5.232024e+000 1.713905e+001 3.544782e+001 3.284632e+001 4.419532e+001 6.418518e+001 5.011190e+001 4.143647e+001 2.565527e+001 4.274745e+001 2.732295e+001 2.852463e+001 1.406928e+001 1.056496e-001 4.793770e-001 4.085662e-001 6.502261e-001 4.911419e-001 9.388375e-001 9.819602e-001 1.101037e+000 8.794261e-001 8.222764e-001 8.712958e-001 7.579432e-001 1.137289e-001 2.115665e-002 4.434273e-002 6.905188e-002 8.624437e-002 8.778609e-002 1.459391e-001 1.922530e-001 2.010941e-001 1.453256e-001 1.670372e-001 1.664297e-001 1.331464e-001 1.303187e-002
<GCONST> 7.563352e+001
<STATE> 4
<MEAN> 39
 -5.851972e+000 7.942679e+000 7.317441e+000 5.357916e-001 -1.114924e+001 -6.486678e+000 3.156931e-002 -1.139642e+001 -7.347921e+000 -1.423559e+000 -3.047869e+000 -4.521854e+000 6.283538e+001 -3.600377e-001 -2.364116e-001 -4.895090e-001 3.146352e-001 1.055312e+000 6.790960e-001 1.177571e-001 4.584004e-001 3.741941e-001 -3.428010e-002 -1.188156e-001 2.534381e-001 -7.529852e-001 -4.038003e-002 -1.624822e-001 -1.012892e-001 -8.616031e-002 -2.651447e-002 1.021326e-002 -7.890158e-003 1.324746e-001 3.475475e-002 1.371961e-002 5.476790e-002 6.291315e-002 -4.574047e-003
<VARIANCE> 39
 8.497665e+000 2.133594e+001 2.172363e+001 1.698703e+001 5.330250e+001 5.315297e+001 3.668756e+001 3.386718e+001 4.657489e+001 2.356405e+001 2.686963e+001 1.927385e+001 1.863615e+001 3.311742e-001 9.267699e-001 9.700464e-001 9.290297e-001 1.899514e+000 1.443191e+000 2.031274e+000 1.740271e+000 1.127133e+000 1.446856e+000 1.362947e+000 1.299482e+000 4.283260e-001 6.155705e-002 1.164766e-001 1.337826e-001 1.184285e-001 3.078111e-001 2.361884e-001 3.968260e-001 3.077015e-001 2.103327e-001 2.309772e-001 2.571333e-001 2.333634e-001 5.812957e-002
<GCONST> 9.274669e+001
<TRANSP> 5
 0.000000e+000 1.000000e+000 0.000000e+000 0.000000e+000 0.000000e+000
 0.000000e+000 8.903616e-001 1.096384e-001 0.000000e+000 0.000000e+000
 0.000000e+000 0.000000e+000 8.891522e-001 1.108478e-001 0.000000e+000
 0.000000e+000 0.000000e+000 0.000000e+000 8.963501e-001 1.036499e-001
 0.000000e+000 0.000000e+000 0.000000e+000 0.000000e+000 0.000000e+000
<ENDHMM>
~h "eo"
<BEGINHMM>
<NUMSTATES> 5
<STATE> 2
<MEAN> 39
 -2.798081e+000 1.015603e+000 -2.737489e+000 -6.760623e+000 -9.013508e+000 -7.721240e+000 -2.340556e+000 -5.791430e+000 -3.008503e+000 -2.842516e+000 -2.408931e+000 -3.042888e+000 6.712006e+001 1.816639e-002 7.030336e-003 1.035966e-002 1.197295e-002 -3.030741e-002 -3.000990e-002 -1.121263e-002 -1.918899e-002 -8.024712e-003 -9.913054e-003 -2.549139e-003 -2.114425e-003 5.405467e-003 -4.415081e-003 1.196028e-002 1.510665e-003 1.035524e-002 1.260583e-002 1.132140e-002 1.643880e-003 5.128350e-003 4.624746e-003 4.331185e-003 1.837649e-003 5.600615e-003 -3.189945e-002
<VARIANCE> 39
 3.428817e+001 4.836518e+001 6.373507e+001 6.480933e+001 7.744907e+001 9.549992e+001 5.887634e+001 5.563300e+001 4.740282e+001 3.601039e+001 3.689566e+001 3.421291e+001 5.592876e+001 1.284020e+000 1.579060e+000 1.448692e+000 1.879212e+000 2.206893e+000 2.620023e+000 2.072583e+000 2.299653e+000 2.249433e+000 1.916542e+000 1.814010e+000 1.601416e+000 1.662629e+000 1.691740e-001 2.286167e-001 1.968112e-001 2.685542e-001 3.292408e-001 3.721457e-001 3.482843e-001 3.651308e-001 3.816728e-001 3.350308e-001 3.148932e-001 2.783629e-001 1.694588e-001
<GCONST> 1.144672e+002
<STATE> 3
<MEAN> 39
 -2.798081e+000 1.015603e+000 -2.737489e+000 -6.760623e+000 -9.013508e+000 -7.721240e+000 -2.340556e+000 -5.791430e+000 -3.008503e+000 -2.842516e+000 -2.408931e+000 -3.042888e+000 6.712006e+001 1.816639e-002 7.030336e-003 1.035966e-002 1.197295e-002 -3.030741e-002 -3.000990e-002 -1.121263e-002 -1.918899e-002 -8.024712e-003 -9.913054e-003 -2.549139e-003 -2.114425e-003 5.405467e-003 -4.415081e-003 1.196028e-002 1.510665e-003 1.035524e-002 1.260583e-002 1.132140e-002 1.643880e-003 5.128350e-003 4.624746e-003 4.331185e-003 1.837649e-003 5.600615e-003 -3.189945e-002
<VARIANCE> 39
 3.428817e+001 4.836518e+001 6.373507e+001 6.480933e+001 7.744907e+001 9.549992e+001 5.887634e+001 5.563300e+001 4.740282e+001 3.601039e+001 3.689566e+001 3.421291e+001 5.592876e+001 1.284020e+000 1.579060e+000 1.448692e+000 1.879212e+000 2.206893e+000 2.620023e+000 2.072583e+000 2.299653e+000 2.249433e+000 1.916542e+000 1.814010e+000 1.601416e+000 1.662629e+000 1.691740e-001 2.286167e-001 1.968112e-001 2.685542e-001 3.292408e-001 3.721457e-001 3.482843e-001 3.651308e-001 3.816728e-001 3.350308e-001 3.148932e-001 2.783629e-001 1.694588e-001
<GCONST> 1.144672e+002
<STATE> 4
<MEAN> 39
 -2.798081e+000 1.015603e+000 -2.737489e+000 -6.760623e+000 -9.013508e+000 -7.721240e+000 -2.340556e+000 -5.791430e+000 -3.008503e+000 -2.842516e+000 -2.408931e+000 -3.042888e+000 6.712006e+001 1.816639e-002 7.030336e-003 1.035966e-002 1.197295e-002 -3.030741e-002 -3.000990e-002 -1.121263e-002 -1.918899e-002 -8.024712e-003 -9.913054e-003 -2.549139e-003 -2.114425e-003 5.405467e-003 -4.415081e-003 1.196028e-002 1.510665e-003 1.035524e-002 1.260583e-002 1.132140e-002 1.643880e-003 5.128350e-003 4.624746e-003 4.331185e-003 1.837649e-003 5.600615e-003 -3.189945e-002
<VARIANCE> 39
 3.428817e+001 4.836518e+001 6.373507e+001 6.480933e+001 7.744907e+001 9.549992e+001 5.887634e+001 5.563300e+001 4.740282e+001 3.601039e+001 3.689566e+001 3.421291e+001 5.592876e+001 1.284020e+000 1.579060e+000 1.448692e+000 1.879212e+000 2.206893e+000 2.620023e+000 2.072583e+000 2.299653e+000 2.249433e+000 1.916542e+000 1.814010e+000 1.601416e+000 1.662629e+000 1.691740e-001 2.286167e-001 1.968112e-001 2.685542e-001 3.292408e-001 3.721457e-001 3.482843e-001 3.651308e-001 3.816728e-001 3.350308e-001 3.148932e-001 2.783629e-001 1.694588e-001
<GCONST> 1.144672e+002
<TRANSP> 5
 0.000000e+000 1.000000e+000 0.000000e+000 0.000000e+000 0.000000e+000
 0.000000e+000 6.000000e-001 4.000000e-001 0.000000e+000 0.000000e+000
 0.000000e+000 0.000000e+000 6.000000e-001 4.000000e-001 0.000000e+000
 0.000000e+000 0.000000e+000 0.000000e+000 7.000000e-001 3.000000e-001
 0.000000e+000 0.000000e+000 0.000000e+000 0.000000e+000 0.000000e+000
<ENDHMM>
~h "eu"
<BEGINHMM>
<NUMSTATES> 5
<STATE> 2
<MEAN> 39
 -2.798081e+000 1.015603e+000 -2.737489e+000 -6.760623e+000 -9.013508e+000 -7.721240e+000 -2.340556e+000 -5.791430e+000 -3.008503e+000 -2.842516e+000 -2.408931e+000 -3.042888e+000 6.712006e+001 1.816639e-002 7.030336e-003 1.035966e-002 1.197295e-002 -3.030741e-002 -3.000990e-002 -1.121263e-002 -1.918899e-002 -8.024712e-003 -9.913054e-003 -2.549139e-003 -2.114425e-003 5.405467e-003 -4.415081e-003 1.196028e-002 1.510665e-003 1.035524e-002 1.260583e-002 1.132140e-002 1.643880e-003 5.128350e-003 4.624746e-003 4.331185e-003 1.837649e-003 5.600615e-003 -3.189945e-002
<VARIANCE> 39
 3.428817e+001 4.836518e+001 6.373507e+001 6.480933e+001 7.744907e+001 9.549992e+001 5.887634e+001 5.563300e+001 4.740282e+001 3.601039e+001 3.689566e+001 3.421291e+001 5.592876e+001 1.284020e+000 1.579060e+000 1.448692e+000 1.879212e+000 2.206893e+000 2.620023e+000 2.072583e+000 2.299653e+000 2.249433e+000 1.916542e+000 1.814010e+000 1.601416e+000 1.662629e+000 1.691740e-001 2.286167e-001 1.968112e-001 2.685542e-001 3.292408e-001 3.721457e-001 3.482843e-001 3.651308e-001 3.816728e-001 3.350308e-001 3.148932e-001 2.783629e-001 1.694588e-001
<GCONST> 1.144672e+002
<STATE> 3
<MEAN> 39
 -2.798081e+000 1.015603e+000 -2.737489e+000 -6.760623e+000 -9.013508e+000 -7.721240e+000 -2.340556e+000 -5.791430e+000 -3.008503e+000 -2.842516e+000 -2.408931e+000 -3.042888e+000 6.712006e+001 1.816639e-002 7.030336e-003 1.035966e-002 1.197295e-002 -3.030741e-002 -3.000990e-002 -1.121263e-002 -1.918899e-002 -8.024712e-003 -9.913054e-003 -2.549139e-003 -2.114425e-003 5.405467e-003 -4.415081e-003 1.196028e-002 1.510665e-003 1.035524e-002 1.260583e-002 1.132140e-002 1.643880e-003 5.128350e-003 4.624746e-003 4.331185e-003 1.837649e-003 5.600615e-003 -3.189945e-002
<VARIANCE> 39
 3.428817e+001 4.836518e+001 6.373507e+001 6.480933e+001 7.744907e+001 9.549992e+001 5.887634e+001 5.563300e+001 4.740282e+001 3.601039e+001 3.689566e+001 3.421291e+001 5.592876e+001 1.284020e+000 1.579060e+000 1.448692e+000 1.879212e+000 2.206893e+000 2.620023e+000 2.072583e+000 2.299653e+000 2.249433e+000 1.916542e+000 1.814010e+000 1.601416e+000 1.662629e+000 1.691740e-001 2.286167e-001 1.968112e-001 2.685542e-001 3.292408e-001 3.721457e-001 3.482843e-001 3.651308e-001 3.816728e-001 3.350308e-001 3.148932e-001 2.783629e-001 1.694588e-001
<GCONST> 1.144672e+002
<STATE> 4
<MEAN> 39
 -2.798081e+000 1.015603e+000 -2.737489e+000 -6.760623e+000 -9.013508e+000 -7.721240e+000 -2.340556e+000 -5.791430e+000 -3.008503e+000 -2.842516e+000 -2.408931e+000 -3.042888e+000 6.712006e+001 1.816639e-002 7.030336e-003 1.035966e-002 1.197295e-002 -3.030741e-002 -3.000990e-002 -1.121263e-002 -1.918899e-002 -8.024712e-003 -9.913054e-003 -2.549139e-003 -2.114425e-003 5.405467e-003 -4.415081e-003 1.196028e-002 1.510665e-003 1.035524e-002 1.260583e-002 1.132140e-002 1.643880e-003 5.128350e-003 4.624746e-003 4.331185e-003 1.837649e-003 5.600615e-003 -3.189945e-002
<VARIANCE> 39
 3.428817e+001 4.836518e+001 6.373507e+001 6.480933e+001 7.744907e+001 9.549992e+001 5.887634e+001 5.563300e+001 4.740282e+001 3.601039e+001 3.689566e+001 3.421291e+001 5.592876e+001 1.284020e+000 1.579060e+000 1.448692e+000 1.879212e+000 2.206893e+000 2.620023e+000 2.072583e+000 2.299653e+000 2.249433e+000 1.916542e+000 1.814010e+000 1.601416e+000 1.662629e+000 1.691740e-001 2.286167e-001 1.968112e-001 2.685542e-001 3.292408e-001 3.721457e-001 3.482843e-001 3.651308e-001 3.816728e-001 3.350308e-001 3.148932e-001 2.783629e-001 1.694588e-001
<GCONST> 1.144672e+002
<TRANSP> 5
 0.000000e+000 1.000000e+000 0.000000e+000 0.000000e+000 0.000000e+000
 0.000000e+000 6.000000e-001 4.000000e-001 0.000000e+000 0.000000e+000
 0.000000e+000 0.000000e+000 6.000000e-001 4.000000e-001 0.000000e+000
 0.000000e+000 0.000000e+000 0.000000e+000 7.000000e-001 3.000000e-001
 0.000000e+000 0.000000e+000 0.000000e+000 0.000000e+000 0.000000e+000
<ENDHMM>
~h "i:"
<BEGINHMM>
<NUMSTATES> 5
<STATE> 2
<MEAN> 39
 -4.447614e+000 6.113203e+000 1.352984e+001 -7.065072e+000 -2.017095e+001 -5.577666e+000 -8.166478e+000 -1.585595e+001 -1.192812e+001 -1.894134e+000 -2.321461e+000 -9.118067e+000 6.958089e+001 1.687565e-002 3.303320e-001 -1.537336e-001 2.819306e-001 3.724098e-001 2.689317e-001 1.225523e-001 2.256500e-002 2.433549e-001 -1.832483e-001 -3.259273e-002 -2.208619e-002 -4.079294e-001 2.452817e-002 9.991542e-003 -8.719017e-002 1.018946e-001 5.390814e-002 1.430854e-002 2.446567e-002 2.287674e-002 6.803601e-002 -7.248824e-002 -5.939349e-002 3.610706e-002 -7.676076e-002
