~o
<STREAMINFO> 1 39
<VECSIZE> 39<NULLD><MFCC_D_A_0><DIAGC>
~h "proto"
<BEGINHMM>
<NUMSTATES> 5
<STATE> 2
<MEAN> 39
 -4.153368e+000 1.517201e+000 -1.392376e+000 -5.586075e+000 -9.740211e+000 -8.098919e+000 -1.750134e+000 -4.930145e+000 -2.772430e+000 -2.149349e+000 -2.414108e+000 -1.465052e+000 6.529731e+001 2.300143e-002 1.509052e-002 1.401225e-002 6.290563e-003 -3.631655e-002 -5.298270e-002 -8.996384e-003 -1.725104e-002 -1.659047e-002 -1.542300e-002 -5.569575e-003 -1.004327e-002 -8.028411e-003 -5.385407e-003 7.687603e-003 -2.053345e-003 6.118431e-003 1.287798e-002 1.362365e-002 3.170662e-003 3.442815e-003 5.190067e-003 6.678457e-003 2.682982e-003 3.156542e-003 -2.769514e-002
<VARIANCE> 39
 3.821798e+001 5.290487e+001 6.815633e+001 7.505674e+001 8.069884e+001 9.922321e+001 5.842557e+001 6.155072e+001 5.897418e+001 4.395738e+001 3.820277e+001 3.717608e+001 7.774931e+001 1.322284e+000 1.757013e+000 1.593217e+000 2.179628e+000 2.557859e+000 2.732429e+000 2.388217e+000 2.481541e+000 2.572205e+000 2.280620e+000 2.045945e+000 1.732367e+000 2.160362e+000 1.858594e-001 2.637878e-001 2.274865e-001 3.046213e-001 3.726168e-001 3.977455e-001 4.053145e-001 4.021849e-001 4.302129e-001 3.929369e-001 3.596961e-001 3.057646e-001 2.198328e-001
<GCONST> 1.191859e+002
<STATE> 3
<MEAN> 39
 -4.153368e+000 1.517201e+000 -1.392376e+000 -5.586075e+000 -9.740211e+000 -8.098919e+000 -1.750134e+000 -4.930145e+000 -2.772430e+000 -2.149349e+000 -2.414108e+000 -1.465052e+000 6.529731e+001 2.300143e-002 1.509052e-002 1.401225e-002 6.290563e-003 -3.631655e-002 -5.298270e-002 -8.996384e-003 -1.725104e-002 -1.659047e-002 -1.542300e-002 -5.569575e-003 -1.004327e-002 -8.028411e-003 -5.385407e-003 7.687603e-003 -2.053345e-003 6.118431e-003 1.287798e-002 1.362365e-002 3.170662e-003 3.442815e-003 5.190067e-003 6.678457e-003 2.682982e-003 3.156542e-003 -2.769514e-002
<VARIANCE> 39
 3.821798e+001 5.290487e+001 6.815633e+001 7.505674e+001 8.069884e+001 9.922321e+001 5.842557e+001 6.155072e+001 5.897418e+001 4.395738e+001 3.820277e+001 3.717608e+001 7.774931e+001 1.322284e+000 1.757013e+000 1.593217e+000 2.179628e+000 2.557859e+000 2.732429e+000 2.388217e+000 2.481541e+000 2.572205e+000 2.280620e+000 2.045945e+000 1.732367e+000 2.160362e+000 1.858594e-001 2.637878e-001 2.274865e-001 3.046213e-001 3.726168e-001 3.977455e-001 4.053145e-001 4.021849e-001 4.302129e-001 3.929369e-001 3.596961e-001 3.057646e-001 2.198328e-001
<GCONST> 1.191859e+002
<STATE> 4
<MEAN> 39
 -4.153368e+000 1.517201e+000 -1.392376e+000 -5.586075e+000 -9.740211e+000 -8.098919e+000 -1.750134e+000 -4.930145e+000 -2.772430e+000 -2.149349e+000 -2.414108e+000 -1.465052e+000 6.529731e+001 2.300143e-002 1.509052e-002 1.401225e-002 6.290563e-003 -3.631655e-002 -5.298270e-002 -8.996384e-003 -1.725104e-002 -1.659047e-002 -1.542300e-002 -5.569575e-003 -1.004327e-002 -8.028411e-003 -5.385407e-003 7.687603e-003 -2.053345e-003 6.118431e-003 1.287798e-002 1.362365e-002 3.170662e-003 3.442815e-003 5.190067e-003 6.678457e-003 2.682982e-003 3.156542e-003 -2.769514e-002
<VARIANCE> 39
 3.821798e+001 5.290487e+001 6.815633e+001 7.505674e+001 8.069884e+001 9.922321e+001 5.842557e+001 6.155072e+001 5.897418e+001 4.395738e+001 3.820277e+001 3.717608e+001 7.774931e+001 1.322284e+000 1.757013e+000 1.593217e+000 2.179628e+000 2.557859e+000 2.732429e+000 2.388217e+000 2.481541e+000 2.572205e+000 2.280620e+000 2.045945e+000 1.732367e+000 2.160362e+000 1.858594e-001 2.637878e-001 2.274865e-001 3.046213e-001 3.726168e-001 3.977455e-001 4.053145e-001 4.021849e-001 4.302129e-001 3.929369e-001 3.596961e-001 3.057646e-001 2.198328e-001
<GCONST> 1.191859e+002
<TRANSP> 5
 0.000000e+000 1.000000e+000 0.000000e+000 0.000000e+000 0.000000e+000
 0.000000e+000 6.000000e-001 4.000000e-001 0.000000e+000 0.000000e+000
 0.000000e+000 0.000000e+000 6.000000e-001 4.000000e-001 0.000000e+000
 0.000000e+000 0.000000e+000 0.000000e+000 7.000000e-001 3.000000e-001
 0.000000e+000 0.000000e+000 0.000000e+000 0.000000e+000 0.000000e+000
<ENDHMM>
