~o
<STREAMINFO> 1 39
<VECSIZE> 39<NULLD><MFCC_D_A_0><DIAGC>
~s "silst"
<MEAN> 39
 -1.080190e+001 2.675909e+000 -1.137128e+000 -6.891970e-002 -1.303634e+000 -2.289389e+000 2.923181e-001 -2.270916e-001 -2.484924e-001 5.377529e-001 -5.686124e-001 -4.139951e-001 5.299306e+001 -2.108450e-001 -8.541293e-001 -4.839615e-001 -6.226535e-001 -6.753054e-001 2.915178e-002 1.597800e-001 -1.111897e-001 -2.075768e-002 -3.023638e-001 2.758406e-002 -1.609986e-001 1.344057e+000 -5.498070e-002 -2.097886e-001 -1.758573e-003 -2.937437e-001 -3.495318e-001 -1.517865e-001 -1.034151e-001 -2.372156e-001 -1.210555e-003 -1.238458e-001 -4.055678e-002 7.777113e-003 7.818531e-001
<VARIANCE> 39
 8.766923e+000 1.726374e+001 1.394635e+001 2.450955e+001 4.242251e+001 5.444336e+001 4.696922e+001 4.181520e+001 4.578403e+001 3.897598e+001 2.391226e+001 1.977369e+001 2.009178e+001 1.175419e+000 2.663777e+000 2.093565e+000 3.047748e+000 4.451751e+000 3.388536e+000 3.477768e+000 2.693237e+000 2.894866e+000 2.565499e+000 2.743151e+000 1.857217e+000 3.730888e+000 2.594186e-001 3.542641e-001 4.212191e-001 5.112897e-001 7.046263e-001 5.523079e-001 6.611010e-001 5.336922e-001 5.455467e-001 5.180851e-001 4.747035e-001 3.380079e-001 7.744962e-001
<GCONST> 1.181432e+002
~h "N"
<BEGINHMM>
<NUMSTATES> 5
<STATE> 2
<MEAN> 39
 -5.153443e+000 1.887341e+000 -3.998059e-001 -4.719388e+000 -1.027645e+001 -8.377604e+000 -1.314454e+000 -4.294622e+000 -2.598214e+000 -1.637859e+000 -2.417927e+000 -3.007498e-001 6.395220e+001 2.656938e-002 2.103826e-002 1.670751e-002 2.097466e-003 -4.075075e-002 -6.993482e-002 -7.360970e-003 -1.582084e-002 -2.291133e-002 -1.948875e-002 -7.798372e-003 -1.589407e-002 -1.794146e-002 -6.101388e-003 4.534691e-003 -4.683285e-003 2.991999e-003 1.307896e-002 1.532247e-002 4.297304e-003 2.199038e-003 5.607250e-003 8.410532e-003 3.306764e-003 1.353030e-003 -2.459256e-002
<VARIANCE> 39
 3.876240e+001 5.593195e+001 6.909898e+001 8.084949e+001 8.242165e+001 1.017876e+002 5.764616e+001 6.496631e+001 6.744147e+001 4.920574e+001 3.916745e+001 3.616992e+001 8.957718e+001 1.350502e+000 1.888252e+000 1.699849e+000 2.401277e+000 2.816806e+000 2.814739e+000 2.621114e+000 2.615768e+000 2.810299e+000 2.549241e+000 2.217089e+000 1.828917e+000 2.527436e+000 1.981723e-001 2.897191e-001 2.501056e-001 3.312125e-001 4.046271e-001 4.166303e-001 4.473993e-001 4.295296e-001 4.660336e-001 4.356595e-001 3.927584e-001 3.259792e-001 2.569831e-001
<GCONST> 1.219561e+002
<STATE> 3
<MEAN> 39
 -5.153443e+000 1.887341e+000 -3.998059e-001 -4.719388e+000 -1.027645e+001 -8.377604e+000 -1.314454e+000 -4.294622e+000 -2.598214e+000 -1.637859e+000 -2.417927e+000 -3.007498e-001 6.395220e+001 2.656938e-002 2.103826e-002 1.670751e-002 2.097466e-003 -4.075075e-002 -6.993482e-002 -7.360970e-003 -1.582084e-002 -2.291133e-002 -1.948875e-002 -7.798372e-003 -1.589407e-002 -1.794146e-002 -6.101388e-003 4.534691e-003 -4.683285e-003 2.991999e-003 1.307896e-002 1.532247e-002 4.297304e-003 2.199038e-003 5.607250e-003 8.410532e-003 3.306764e-003 1.353030e-003 -2.459256e-002
<VARIANCE> 39
 3.876240e+001 5.593195e+001 6.909898e+001 8.084949e+001 8.242165e+001 1.017876e+002 5.764616e+001 6.496631e+001 6.744147e+001 4.920574e+001 3.916745e+001 3.616992e+001 8.957718e+001 1.350502e+000 1.888252e+000 1.699849e+000 2.401277e+000 2.816806e+000 2.814739e+000 2.621114e+000 2.615768e+000 2.810299e+000 2.549241e+000 2.217089e+000 1.828917e+000 2.527436e+000 1.981723e-001 2.897191e-001 2.501056e-001 3.312125e-001 4.046271e-001 4.166303e-001 4.473993e-001 4.295296e-001 4.660336e-001 4.356595e-001 3.927584e-001 3.259792e-001 2.569831e-001
<GCONST> 1.219561e+002
<STATE> 4
<MEAN> 39
 -5.153443e+000 1.887341e+000 -3.998059e-001 -4.719388e+000 -1.027645e+001 -8.377604e+000 -1.314454e+000 -4.294622e+000 -2.598214e+000 -1.637859e+000 -2.417927e+000 -3.007498e-001 6.395220e+001 2.656938e-002 2.103826e-002 1.670751e-002 2.097466e-003 -4.075075e-002 -6.993482e-002 -7.360970e-003 -1.582084e-002 -2.291133e-002 -1.948875e-002 -7.798372e-003 -1.589407e-002 -1.794146e-002 -6.101388e-003 4.534691e-003 -4.683285e-003 2.991999e-003 1.307896e-002 1.532247e-002 4.297304e-003 2.199038e-003 5.607250e-003 8.410532e-003 3.306764e-003 1.353030e-003 -2.459256e-002
<VARIANCE> 39
 3.876240e+001 5.593195e+001 6.909898e+001 8.084949e+001 8.242165e+001 1.017876e+002 5.764616e+001 6.496631e+001 6.744147e+001 4.920574e+001 3.916745e+001 3.616992e+001 8.957718e+001 1.350502e+000 1.888252e+000 1.699849e+000 2.401277e+000 2.816806e+000 2.814739e+000 2.621114e+000 2.615768e+000 2.810299e+000 2.549241e+000 2.217089e+000 1.828917e+000 2.527436e+000 1.981723e-001 2.897191e-001 2.501056e-001 3.312125e-001 4.046271e-001 4.166303e-001 4.473993e-001 4.295296e-001 4.660336e-001 4.356595e-001 3.927584e-001 3.259792e-001 2.569831e-001
<GCONST> 1.219561e+002
<TRANSP> 5
 0.000000e+000 1.000000e+000 0.000000e+000 0.000000e+000 0.000000e+000
 0.000000e+000 6.000000e-001 4.000000e-001 0.000000e+000 0.000000e+000
 0.000000e+000 0.000000e+000 6.000000e-001 4.000000e-001 0.000000e+000
 0.000000e+000 0.000000e+000 0.000000e+000 7.000000e-001 3.000000e-001
 0.000000e+000 0.000000e+000 0.000000e+000 0.000000e+000 0.000000e+000
<ENDHMM>
~h "a"
<BEGINHMM>
<NUMSTATES> 5
<STATE> 2
<MEAN> 39
 -2.659183e-001 -5.248573e+000 -8.773243e+000 -1.136004e+001 -5.932551e+000 -2.583078e+000 -1.023203e+000 -6.283385e+000 2.213734e+000 8.933892e+000 3.646212e-001 -3.501220e+000 7.253920e+001 -8.560405e-001 1.187752e+000 7.381583e-001 2.410265e+000 1.160780e+000 -1.645165e+000 -1.804880e+000 6.765114e-001 1.108510e+000 9.055573e-001 1.081980e+000 -4.008716e-001 -1.507719e+000 3.727471e-002 9.117974e-001 3.101803e-001 3.327453e-001 -4.128617e-001 -4.834964e-002 1.247154e-001 2.410621e-001 -3.536104e-001 -9.040342e-001 -2.350270e-001 1.596996e-001 -1.151223e+000
<VARIANCE> 39
 9.293754e+000 3.053922e+001 5.794427e+001 5.685163e+001 7.043291e+001 7.153198e+001 4.932869e+001 5.459184e+001 1.749002e+001 1.397991e+001 4.513626e+001 5.940982e+001 2.176600e+001 6.087766e-001 2.496686e+000 1.519823e+000 2.345443e+000 2.259253e+000 2.644914e+000 2.933890e+000 1.276949e+000 2.363382e+000 2.616234e+000 2.798558e+000 3.478174e+000 1.777834e+000 8.368015e-002 4.825743e-001 3.224488e-001 1.022263e+000 5.606913e-001 9.632652e-001 4.227403e-001 2.757709e-001 4.115513e-001 3.744068e-001 7.614076e-001 5.102081e-001 2.552273e-001
<GCONST> 1.165277e+002
<STATE> 3
<MEAN> 39
 -2.250754e+000 1.144647e+000 -6.862127e+000 -8.224868e+000 -7.419102e+000 -6.563502e+000 -4.552129e+000 -5.685571e+000 5.338666e-001 5.730209e+000 2.215055e+000 -2.548048e+000 6.161648e+001 -6.750626e-001 1.614427e-001 2.442034e-001 -1.805475e-001 4.245058e-002 -2.678041e-001 1.375687e-001 8.034546e-001 -1.923866e-001 -4.067928e-001 -2.868747e-002 1.667189e-003 -2.582002e+000 -7.069920e-003 -2.826874e-001 -2.549376e-001 -3.345905e-001 -2.892695e-002 3.094282e-001 2.415858e-001 -6.476521e-002 -6.064862e-002 -1.520862e-002 1.569733e-002 -3.169071e-002 2.360439e-001
<VARIANCE> 39
 9.185667e+000 5.692058e+000 4.868820e+001 2.422588e+001 4.705231e+001 2.271647e+001 2.040124e+001 2.886760e+001 3.437054e+001 1.848064e+001 1.926972e+001 2.630550e+001 1.983582e+001 4.675276e-001 1.010470e+000 1.594576e+000 1.897686e+000 2.747682e+000 3.083594e+000 2.647431e+000 2.045537e+000 1.983783e+000 1.533933e+000 1.358981e+000 9.052113e-001 2.429235e+000 1.001044e-001 1.283173e-001 3.671220e-001 7.017620e-001 4.451652e-001 4.321981e-001 5.539523e-001 3.100052e-001 4.191357e-001 3.542804e-001 2.804417e-001 3.337069e-001 2.377195e-001
<GCONST> 1.032864e+002
<STATE> 4
<MEAN> 39
 -7.080045e+000 4.202208e-001 -5.092901e+000 -5.821015e+000 -3.758807e+000 -4.510225e+000 -1.951992e+000 -1.010545e+000 3.043202e+000 5.856771e+000 3.992459e+000 -6.484077e-001 5.457556e+001 -1.223307e+000 -8.494573e-002 9.755922e-001 6.959776e-002 3.520048e-001 1.034965e+000 -4.041401e-001 -2.481264e-001 3.890756e-002 -1.507924e+000 -3.075821e-001 5.530269e-001 -4.531862e-001 -2.746767e-001 -1.953049e-001 2.603441e-001 -1.474512e-001 -2.895522e-001 1.033255e-001 -1.555797e-001 -3.453574e-001 1.191942e-002 -3.740965e-001 -3.034281e-001 4.719729e-002 8.417508e-001
<VARIANCE> 39
 1.216055e+001 2.482067e+001 2.815818e+001 1.807888e+001 4.528960e+001 2.441184e+001 1.962519e+001 6.219543e+000 1.691612e+001 1.959894e+001 1.214422e+001 1.847485e+001 1.153630e+001 8.538220e-001 2.273544e+000 3.567965e+000 2.363020e+000 1.912541e+000 2.327009e+000 1.184779e+000 1.020084e+000 2.036013e+000 2.033074e+000 8.134949e-001 2.023042e+000 3.440274e+000 1.665534e-001 3.855214e-001 4.878844e-001 4.544300e-001 6.203126e-001 4.029117e-001 1.928310e-001 1.891016e-001 5.109892e-001 4.003089e-001 9.366349e-002 2.920008e-001 2.788499e-001
<GCONST> 1.013138e+002
<TRANSP> 5
 0.000000e+000 1.000000e+000 0.000000e+000 0.000000e+000 0.000000e+000
 0.000000e+000 6.498541e-001 3.501459e-001 0.000000e+000 0.000000e+000
 0.000000e+000 0.000000e+000 7.676299e-001 2.323702e-001 0.000000e+000
 0.000000e+000 0.000000e+000 0.000000e+000 7.200307e-001 2.799693e-001
 0.000000e+000 0.000000e+000 0.000000e+000 0.000000e+000 0.000000e+000
<ENDHMM>
~h "e"
<BEGINHMM>
<NUMSTATES> 5
<STATE> 2
<MEAN> 39
 -6.252859e+000 -1.000162e-001 4.288551e+000 3.975375e+000 -1.216072e+001 -1.496250e+001 -5.990709e+000 -5.083962e-001 3.691532e+000 -2.873889e+000 -6.247120e+000 1.229905e+000 6.648937e+001 2.407969e-001 -3.404808e-002 8.424029e-002 -3.826633e-001 -1.110020e+000 -2.610877e-001 -3.567885e-001 6.577132e-001 2.417191e-001 -1.864077e-003 5.234183e-001 6.385418e-001 -4.198648e-001 -2.459461e-001 -6.842399e-002 -1.600544e-001 -5.028328e-002 2.198589e-001 2.964141e-001 -2.534898e-002 -3.328177e-001 -1.863681e-001 7.488589e-002 3.518865e-001 -5.128149e-002 -2.768626e-001
<VARIANCE> 39
 2.197962e+001 2.343853e+001 4.332393e+001 4.253783e+001 6.763821e+001 8.167426e+001 6.935988e+001 6.137219e+001 2.595187e+001 2.977952e+001 2.170674e+001 5.266036e+001 3.594259e+001 5.063944e-001 7.852713e-001 1.431892e+000 2.271769e+000 2.661543e+000 2.238003e+000 2.847954e+000 2.201439e+000 1.747013e+000 2.039878e+000 1.401183e+000 1.698184e+000 4.404797e-001 2.460935e-001 2.236467e-001 1.144630e-001 4.188117e-001 4.730276e-001 6.249779e-001 3.689313e-001 5.941927e-001 3.696902e-001 3.086991e-001 4.355594e-001 5.860983e-001 5.753651e-002
<GCONST> 1.098177e+002
<STATE> 3
<MEAN> 39
 -6.150984e+000 1.306052e+000 7.415307e+000 2.907952e+000 -1.565018e+001 -1.421941e+001 -9.134414e+000 -1.581624e-001 4.442154e+000 -3.349050e+000 -2.727838e+000 3.652744e+000 6.549388e+001 -3.843874e-002 2.295727e-001 -1.741308e-001 -5.459151e-002 -2.480601e-002 -1.363771e-001 2.037390e-001 8.420001e-002 -4.623386e-001 2.534742e-001 8.726286e-001 -9.268881e-002 -9.905166e-001 -8.302113e-002 -3.284316e-002 -1.942579e-001 1.914708e-001 6.805020e-001 2.624041e-001 3.244473e-001 -4.746222e-001 -3.244168e-001 1.807586e-001 2.507347e-002 -3.194381e-001 -3.390413e-001
<VARIANCE> 39
 1.259986e+001 1.684047e+001 6.932637e+001 3.953563e+001 6.160673e+001 6.652125e+001 5.802967e+001 5.538934e+001 3.262050e+001 2.131855e+001 2.292421e+001 4.842104e+001 2.936659e+001 3.921752e-001 8.895359e-001 6.650315e-001 1.583325e+000 1.948715e+000 4.096901e+000 1.653235e+000 2.452067e+000 1.339996e+000 1.483480e+000 1.132491e+000 2.256705e+000 5.706981e-001 8.750590e-002 1.254474e-001 2.777107e-001 3.677929e-001 4.917701e-001 6.171041e-001 5.988695e-001 4.543777e-001 4.023937e-001 2.981993e-001 3.542939e-001 5.276306e-001 1.166794e-001
<GCONST> 1.065879e+002
<STATE> 4
<MEAN> 39
 -8.355780e+000 -2.082598e+000 1.832608e+000 2.240648e+000 -1.176985e+001 -1.554572e+001 1.383089e+000 1.804338e+000 1.023064e+000 -3.369096e-001 -4.225946e+000 -9.149812e-001 5.892648e+001 -2.135440e-001 -1.078443e-001 -4.575035e-001 -1.338934e-001 8.424878e-001 3.861711e-001 3.794611e-001 -2.191429e-001 2.599842e-002 5.510592e-001 2.088538e-001 -2.155119e-001 -9.755172e-001 -3.130241e-002 -7.250297e-003 -8.261923e-002 -2.337525e-002 2.228556e-001 2.190372e-001 1.235331e-002 -1.752352e-002 8.563891e-002 5.148428e-002 -9.174149e-002 -5.457119e-002 -6.407304e-003
<VARIANCE> 39
 1.280502e+001 1.680491e+001 3.816718e+001 4.876188e+001 8.442106e+001 5.778372e+001 7.707660e+001 3.083803e+001 2.528676e+001 1.732704e+001 4.239533e+001 2.982364e+001 3.827087e+001 3.222794e-001 7.802790e-001 1.106488e+000 1.517617e+000 1.970781e+000 1.948788e+000 1.797683e+000 1.509114e+000 1.974067e+000 1.215131e+000 1.700524e+000 1.356438e+000 5.900261e-001 4.481938e-002 9.522029e-002 1.333159e-001 2.030939e-001 3.240264e-001 3.449084e-001 3.298247e-001 2.918596e-001 3.085355e-001 2.171536e-001 3.275444e-001 2.627722e-001 3.803509e-002
<GCONST> 9.835520e+001
<TRANSP> 5
 0.000000e+000 1.000000e+000 0.000000e+000 0.000000e+000 0.000000e+000
 0.000000e+000 6.731128e-002 9.326887e-001 0.000000e+000 0.000000e+000
 0.000000e+000 0.000000e+000 4.237947e-001 5.762053e-001 0.000000e+000
 0.000000e+000 0.000000e+000 0.000000e+000 7.917783e-001 2.082217e-001
 0.000000e+000 0.000000e+000 0.000000e+000 0.000000e+000 0.000000e+000
<ENDHMM>
~h "f"
<BEGINHMM>
<NUMSTATES> 5
<STATE> 2
<MEAN> 39
 -5.153443e+000 1.887341e+000 -3.998059e-001 -4.719388e+000 -1.027645e+001 -8.377604e+000 -1.314454e+000 -4.294622e+000 -2.598214e+000 -1.637859e+000 -2.417927e+000 -3.007498e-001 6.395220e+001 2.656938e-002 2.103826e-002 1.670751e-002 2.097466e-003 -4.075075e-002 -6.993482e-002 -7.360970e-003 -1.582084e-002 -2.291133e-002 -1.948875e-002 -7.798372e-003 -1.589407e-002 -1.794146e-002 -6.101388e-003 4.534691e-003 -4.683285e-003 2.991999e-003 1.307896e-002 1.532247e-002 4.297304e-003 2.199038e-003 5.607250e-003 8.410532e-003 3.306764e-003 1.353030e-003 -2.459256e-002
<VARIANCE> 39
 3.876240e+001 5.593195e+001 6.909898e+001 8.084949e+001 8.242165e+001 1.017876e+002 5.764616e+001 6.496631e+001 6.744147e+001 4.920574e+001 3.916745e+001 3.616992e+001 8.957718e+001 1.350502e+000 1.888252e+000 1.699849e+000 2.401277e+000 2.816806e+000 2.814739e+000 2.621114e+000 2.615768e+000 2.810299e+000 2.549241e+000 2.217089e+000 1.828917e+000 2.527436e+000 1.981723e-001 2.897191e-001 2.501056e-001 3.312125e-001 4.046271e-001 4.166303e-001 4.473993e-001 4.295296e-001 4.660336e-001 4.356595e-001 3.927584e-001 3.259792e-001 2.569831e-001
<GCONST> 1.219561e+002
<STATE> 3
<MEAN> 39
 -5.153443e+000 1.887341e+000 -3.998059e-001 -4.719388e+000 -1.027645e+001 -8.377604e+000 -1.314454e+000 -4.294622e+000 -2.598214e+000 -1.637859e+000 -2.417927e+000 -3.007498e-001 6.395220e+001 2.656938e-002 2.103826e-002 1.670751e-002 2.097466e-003 -4.075075e-002 -6.993482e-002 -7.360970e-003 -1.582084e-002 -2.291133e-002 -1.948875e-002 -7.798372e-003 -1.589407e-002 -1.794146e-002 -6.101388e-003 4.534691e-003 -4.683285e-003 2.991999e-003 1.307896e-002 1.532247e-002 4.297304e-003 2.199038e-003 5.607250e-003 8.410532e-003 3.306764e-003 1.353030e-003 -2.459256e-002
<VARIANCE> 39
 3.876240e+001 5.593195e+001 6.909898e+001 8.084949e+001 8.242165e+001 1.017876e+002 5.764616e+001 6.496631e+001 6.744147e+001 4.920574e+001 3.916745e+001 3.616992e+001 8.957718e+001 1.350502e+000 1.888252e+000 1.699849e+000 2.401277e+000 2.816806e+000 2.814739e+000 2.621114e+000 2.615768e+000 2.810299e+000 2.549241e+000 2.217089e+000 1.828917e+000 2.527436e+000 1.981723e-001 2.897191e-001 2.501056e-001 3.312125e-001 4.046271e-001 4.166303e-001 4.473993e-001 4.295296e-001 4.660336e-001 4.356595e-001 3.927584e-001 3.259792e-001 2.569831e-001
<GCONST> 1.219561e+002
<STATE> 4
<MEAN> 39
 -5.153443e+000 1.887341e+000 -3.998059e-001 -4.719388e+000 -1.027645e+001 -8.377604e+000 -1.314454e+000 -4.294622e+000 -2.598214e+000 -1.637859e+000 -2.417927e+000 -3.007498e-001 6.395220e+001 2.656938e-002 2.103826e-002 1.670751e-002 2.097466e-003 -4.075075e-002 -6.993482e-002 -7.360970e-003 -1.582084e-002 -2.291133e-002 -1.948875e-002 -7.798372e-003 -1.589407e-002 -1.794146e-002 -6.101388e-003 4.534691e-003 -4.683285e-003 2.991999e-003 1.307896e-002 1.532247e-002 4.297304e-003 2.199038e-003 5.607250e-003 8.410532e-003 3.306764e-003 1.353030e-003 -2.459256e-002
<VARIANCE> 39
 3.876240e+001 5.593195e+001 6.909898e+001 8.084949e+001 8.242165e+001 1.017876e+002 5.764616e+001 6.496631e+001 6.744147e+001 4.920574e+001 3.916745e+001 3.616992e+001 8.957718e+001 1.350502e+000 1.888252e+000 1.699849e+000 2.401277e+000 2.816806e+000 2.814739e+000 2.621114e+000 2.615768e+000 2.810299e+000 2.549241e+000 2.217089e+000 1.828917e+000 2.527436e+000 1.981723e-001 2.897191e-001 2.501056e-001 3.312125e-001 4.046271e-001 4.166303e-001 4.473993e-001 4.295296e-001 4.660336e-001 4.356595e-001 3.927584e-001 3.259792e-001 2.569831e-001
<GCONST> 1.219561e+002
<TRANSP> 5
 0.000000e+000 1.000000e+000 0.000000e+000 0.000000e+000 0.000000e+000
 0.000000e+000 6.000000e-001 4.000000e-001 0.000000e+000 0.000000e+000
 0.000000e+000 0.000000e+000 6.000000e-001 4.000000e-001 0.000000e+000
 0.000000e+000 0.000000e+000 0.000000e+000 7.000000e-001 3.000000e-001
 0.000000e+000 0.000000e+000 0.000000e+000 0.000000e+000 0.000000e+000
<ENDHMM>
~h "h"
<BEGINHMM>
<NUMSTATES> 5
<STATE> 2
<MEAN> 39
 -1.131620e+001 -2.119764e+000 -3.283656e+000 -1.154528e+001 -8.339362e+000 -3.350475e+000 4.785450e+000 6.319398e-001 2.325243e+000 8.617086e-001 -1.535431e+000 5.498304e-001 6.365350e+001 5.548289e-001 1.059585e+000 7.297668e-001 -1.317255e-003 -7.596512e-001 -5.893479e-001 6.593106e-003 -4.303545e-001 -3.820392e-001 -3.892516e-001 -5.412651e-001 -1.755165e-001 1.154596e+000 3.942823e-001 2.923228e-001 2.193890e-001 2.679586e-001 -1.401893e-001 -2.608400e-001 -2.538036e-001 -1.609136e-001 -1.045362e-001 -2.643458e-002 -2.480303e-002 5.222054e-002 1.769076e-002
<VARIANCE> 39
 2.473244e+001 5.211185e+001 5.386855e+001 9.754212e+001 5.231219e+001 7.505431e+001 4.521874e+001 5.783815e+001 5.032915e+001 2.722283e+001 3.243671e+001 3.175730e+001 2.217247e+001 2.397346e+000 2.161555e+000 1.914667e+000 2.795242e+000 2.679297e+000 2.072873e+000 1.898064e+000 3.357447e+000 2.438348e+000 1.968421e+000 2.014215e+000 1.911708e+000 1.044614e+000 2.068699e-001 3.647337e-001 2.673522e-001 3.349214e-001 4.903331e-001 4.980009e-001 3.408334e-001 5.328326e-001 4.453154e-001 3.332610e-001 3.921127e-001 4.109965e-001 9.278890e-002
<GCONST> 1.164350e+002
<STATE> 3
<MEAN> 39
 -1.419944e+000 5.763165e+000 9.059324e-001 -8.407047e+000 -1.549841e+001 -1.073595e+001 2.286507e-001 -4.368143e+000 -1.808779e+000 -1.910433e+000 -4.630674e+000 -9.526442e-001 7.056068e+001 1.523329e+000 -2.670805e-001 -1.253508e-001 -2.451257e-001 -1.815139e+000 -1.761877e+000 -1.488423e+000 -8.837503e-001 -4.796166e-001 -3.716351e-001 -7.195544e-002 5.009715e-001 1.170962e+000 -5.631747e-001 -7.324767e-001 -4.791557e-001 -2.067638e-001 3.166028e-001 3.378826e-001 -3.040967e-002 5.021498e-002 2.076700e-002 5.177696e-002 3.265589e-001 2.315812e-001 -2.094840e-001
<VARIANCE> 39
 2.435518e+001 5.648660e+001 6.106454e+001 7.318231e+001 5.635678e+001 7.143890e+001 4.988591e+001 3.726299e+001 5.698247e+001 3.024450e+001 3.135202e+001 2.854371e+001 2.178865e+001 1.809298e+000 4.358023e+000 2.050900e+000 1.956566e+000 4.122769e+000 2.592046e+000 3.894341e+000 3.094362e+000 3.114108e+000 1.470574e+000 1.832248e+000 2.300586e+000 1.565441e+000 2.057912e-001 4.265152e-001 3.000249e-001 3.651237e-001 5.989795e-001 4.413452e-001 6.522020e-001 5.583000e-001 4.923896e-001 3.285515e-001 4.467152e-001 2.938241e-001 2.190247e-001
<GCONST> 1.198324e+002
<STATE> 4
<MEAN> 39
 5.546707e-002 1.072474e+000 -2.716692e+000 -1.035771e+001 -1.804076e+001 -1.049599e+001 -2.962618e+000 -7.966292e+000 -3.160763e+000 -4.535310e+000 -2.763419e+000 3.463565e+000 7.263522e+001 -2.586056e-001 -9.279033e-001 -2.813296e-001 1.343808e-001 2.595175e-001 1.175310e-001 -8.644298e-001 -1.132778e+000 -7.983411e-001 1.781368e-001 1.584056e+000 9.795198e-001 3.117205e-001 -2.295529e-001 2.330845e-002 2.310104e-001 3.434416e-001 3.926304e-001 6.809279e-003 -7.268484e-002 2.587983e-003 2.327140e-001 3.948845e-001 8.539782e-002 -3.625263e-001 -1.439667e-001
<VARIANCE> 39
 1.496795e+001 6.354066e+001 5.903225e+001 6.880521e+001 5.548191e+001 8.374168e+001 5.484815e+001 4.959507e+001 6.441454e+001 2.965348e+001 3.975972e+001 4.497548e+001 2.629104e+001 2.653514e-001 1.193768e+000 1.160269e+000 1.210636e+000 3.374201e+000 1.655572e+000 3.740865e+000 2.853870e+000 2.671043e+000 2.665779e+000 3.283788e+000 2.107699e+000 7.060962e-001 9.501808e-002 3.512438e-001 2.324720e-001 2.836391e-001 4.237419e-001 5.386120e-001 8.648534e-001 5.164346e-001 5.845929e-001 3.821321e-001 6.787283e-001 6.827779e-001 1.324050e-001
<GCONST> 1.156454e+002
<TRANSP> 5
 0.000000e+000 1.000000e+000 0.000000e+000 0.000000e+000 0.000000e+000
 0.000000e+000 8.522733e-001 1.477266e-001 0.000000e+000 0.000000e+000
 0.000000e+000 0.000000e+000 7.135806e-001 2.864193e-001 0.000000e+000
 0.000000e+000 0.000000e+000 0.000000e+000 6.347684e-001 3.652316e-001
 0.000000e+000 0.000000e+000 0.000000e+000 0.000000e+000 0.000000e+000
<ENDHMM>
~h "i"
<BEGINHMM>
<NUMSTATES> 5
<STATE> 2
<MEAN> 39
 -2.464554e+001 1.051722e+000 2.996979e+000 -8.059677e+000 -5.898030e+000 -3.228325e+000 7.685897e-001 -1.984838e+000 3.107545e+000 -9.532407e-001 1.991773e-001 -1.206709e-001 6.477493e+001 -1.601358e+000 3.273692e-001 2.524778e+000 1.689941e+000 2.770013e-001 -9.228061e-001 1.228749e+000 -1.004102e-001 -7.722871e-001 -7.760383e-001 -6.376518e-002 9.530263e-002 1.068398e+000 1.177831e+000 1.459977e-001 1.639315e-001 5.634083e-001 1.420678e-001 -4.571670e-001 -3.050893e-001 -9.132358e-002 -4.426196e-001 -3.709380e-002 -1.347382e-001 -1.194102e-001 -3.945273e-001
<VARIANCE> 39
 6.049542e+001 1.443383e+001 3.893094e+001 4.075669e+001 1.977833e+001 2.679074e+001 4.761009e+001 2.631413e+001 3.459956e+001 2.068919e+001 1.242724e+001 1.198127e+001 2.409055e+001 1.179819e+001 1.723000e+000 3.105190e+000 5.263684e+000 2.392262e+000 4.742136e+000 2.589290e+000 1.970358e+000 3.399189e+000 1.261708e+000 2.392447e+000 1.836617e+000 3.503797e+000 1.210774e+000 3.829730e-001 5.740983e-001 3.663171e-001 7.947483e-001 6.949075e-001 7.119886e-001 3.822372e-001 5.614348e-001 2.139206e-001 4.001244e-001 2.971916e-001 5.224028e-001
<GCONST> 1.189164e+002
<STATE> 3
<MEAN> 39
 -1.606059e+001 2.082639e+000 1.204481e+001 5.087494e+000 -7.155258e+000 -1.069088e+001 7.396962e-002 -5.196793e+000 -4.382980e+000 -4.667942e+000 -6.039194e-001 1.027856e+000 6.501541e+001 2.464958e+000 7.062603e-001 2.879429e-001 2.480645e+000 3.181957e-001 -2.770471e+000 -8.947724e-001 2.787451e-001 -8.441166e-001 -1.037267e+000 -8.456286e-001 7.808657e-001 -4.503376e-001 -1.966793e-001 -5.607128e-002 -7.843990e-001 -6.305220e-001 1.521430e-001 3.995477e-001 -1.039071e-001 1.569657e-001 5.347056e-001 7.221463e-003 -3.092284e-001 9.343577e-003 -1.116048e-001
<VARIANCE> 39
 2.209740e+001 3.943367e+001 6.366531e+001 4.148404e+001 4.646706e+001 7.405923e+001 1.714903e+001 2.329668e+001 2.167023e+001 1.965377e+001 2.106056e+001 1.396856e+001 5.978020e+000 2.794069e+000 2.206581e+000 2.707223e+000 1.635511e+000 5.530563e+000 1.859947e+000 2.041199e+000 2.077843e+000 2.456415e+000 2.116686e+000 2.164859e+000 9.500490e-001 4.897047e-001 5.019857e-001 2.768948e-001 5.691140e-001 2.101884e-001 8.319642e-001 9.250180e-001 3.459890e-001 2.082555e-001 3.666789e-001 4.223126e-001 4.296703e-001 3.575236e-001 7.453065e-002
<GCONST> 1.094008e+002
<STATE> 4
<MEAN> 39
 -1.128539e+001 1.618684e+000 7.532494e+000 9.126287e+000 -5.935293e+000 -1.583290e+001 -1.517673e+000 -4.058129e+000 -3.337545e+000 -6.536194e+000 -4.112517e+000 1.338387e+000 6.217562e+001 8.017235e-001 2.944537e-002 -2.107987e+000 -3.169460e-001 8.925510e-001 8.047413e-001 -7.910326e-001 -1.309285e-001 1.044850e+000 8.796316e-001 -2.937426e-001 -7.207216e-001 -6.996024e-001 -1.337522e-001 -5.919765e-002 -2.226784e-001 -8.874076e-001 9.294114e-002 8.645062e-001 1.279820e-002 -5.082608e-001 1.440876e-002 7.239861e-001 6.073842e-001 -2.514016e-001 -1.032593e-002
<VARIANCE> 39
 5.389363e+000 2.508595e+001 3.794071e+001 4.952297e+001 2.279606e+001 3.630557e+001 1.514664e+001 1.449661e+001 2.590836e+001 1.799556e+001 3.649804e+001 1.064259e+001 5.917644e+000 7.418419e-001 9.242140e-001 8.904653e-001 1.409639e+000 8.583590e-001 3.866715e+000 2.034563e+000 2.490975e+000 1.781228e+000 2.552975e+000 3.107066e+000 1.718589e+000 4.776601e-001 1.933155e-001 1.495548e-001 2.486458e-001 1.923734e-001 1.576202e-001 3.553968e-001 4.449127e-001 3.269330e-001 6.900106e-001 2.653901e-001 4.970250e-001 3.601565e-001 4.370084e-002
<GCONST> 9.729894e+001
<TRANSP> 5
 0.000000e+000 1.000000e+000 0.000000e+000 0.000000e+000 0.000000e+000
 0.000000e+000 7.384276e-001 2.615724e-001 0.000000e+000 0.000000e+000
 0.000000e+000 0.000000e+000 6.941344e-001 3.058656e-001 0.000000e+000
 0.000000e+000 0.000000e+000 0.000000e+000 6.734767e-001 3.265233e-001
 0.000000e+000 0.000000e+000 0.000000e+000 0.000000e+000 0.000000e+000
<ENDHMM>
~h "k"
<BEGINHMM>
<NUMSTATES> 5
<STATE> 2
<MEAN> 39
 -1.675796e+001 -5.729160e+000 -1.305243e+000 -2.252278e+000 -9.181832e+000 -1.179215e+001 -1.564109e+000 -4.533027e+000 -1.416023e+000 -1.779703e+000 -1.014450e+000 1.125607e+000 7.236609e+001 9.616585e-001 1.293819e+000 1.654679e+000 7.011865e-001 -8.950945e-001 -1.472488e+000 -4.344367e-001 -7.744116e-001 -5.382349e-001 -7.744502e-001 -5.311408e-001 -1.457091e-001 1.462387e+000 6.871465e-001 5.728435e-001 3.547440e-001 2.298305e-001 2.029977e-001 7.600629e-002 9.159612e-002 2.325289e-001 1.915427e-002 -1.337255e-001 -6.225801e-002 4.401165e-002 -7.613751e-001
<VARIANCE> 39
 1.703930e+001 4.537246e+001 5.795819e+001 3.132096e+001 2.883689e+001 3.344555e+001 2.541068e+001 3.103343e+001 4.412584e+001 2.294290e+001 2.638219e+001 2.419744e+001 2.224679e+001 3.809870e+000 4.278623e+000 3.819706e+000 3.674685e+000 3.734429e+000 3.292522e+000 2.673651e+000 3.225539e+000 3.848180e+000 3.018758e+000 1.989104e+000 1.425956e+000 6.979688e+000 3.722604e-001 1.042943e+000 8.215488e-001 8.604397e-001 9.428014e-001 5.702852e-001 5.256895e-001 5.267361e-001 5.637960e-001 5.347962e-001 3.977610e-001 4.094456e-001 1.028511e+000
<GCONST> 1.252060e+002
<STATE> 3
<MEAN> 39
 -5.512472e+000 -8.546237e-002 6.700109e+000 1.068940e+000 -1.668459e+001 -1.900596e+001 -3.918858e+000 -7.512686e+000 -4.599266e+000 -7.081794e+000 -3.168632e+000 1.242163e+000 7.469409e+001 1.402377e+000 -3.662159e-001 3.677500e-001 -4.815744e-001 -1.885470e+000 -1.432301e+000 -8.622478e-001 -4.941920e-001 -4.581881e-001 -5.947320e-001 2.437875e-001 5.835165e-001 6.193161e-001 -7.817640e-001 -4.372545e-001 -4.083714e-001 -2.533573e-001 2.013139e-001 4.525679e-001 1.318558e-001 6.321980e-002 1.202979e-001 3.746800e-001 2.889454e-001 7.912843e-003 -1.939278e-001
<VARIANCE> 39
 1.606476e+001 4.754818e+001 4.809896e+001 1.528717e+001 6.984864e+001 5.550628e+001 5.094241e+001 6.926103e+001 6.465353e+001 2.316238e+001 2.506554e+001 2.644931e+001 8.823402e+000 2.338116e+000 2.775944e+000 2.551691e+000 1.449913e+000 3.734805e+000 3.279332e+000 2.478159e+000 2.984212e+000 4.120599e+000 2.369952e+000 1.651984e+000 1.283386e+000 8.145545e-001 1.331168e-001 6.173850e-001 5.196676e-001 3.728933e-001 6.713955e-001 5.473819e-001 5.610955e-001 4.469538e-001 7.421392e-001 3.799748e-001 2.936601e-001 2.634298e-001 1.008166e-001
<GCONST> 1.151994e+002
<STATE> 4
<MEAN> 39
 -9.154357e+000 6.291859e+000 8.583817e+000 4.414161e-001 -1.357386e+001 -2.069510e+001 -6.946357e+000 -5.056845e+000 -4.325607e+000 -6.670311e+000 2.681307e+000 1.229120e+000 7.602519e+001 -1.258007e-001 2.282517e-001 4.098817e-001 -7.956080e-002 -1.781442e-001 8.016632e-002 4.029302e-002 -1.825721e-001 -1.935258e-001 -1.143420e-001 1.095462e-001 6.499092e-002 -1.908892e-001 -8.957557e-002 8.188982e-002 -8.531277e-003 4.523787e-002 1.186996e-001 4.881122e-002 1.799072e-001 2.409030e-002 7.184951e-002 6.421603e-002 -1.803961e-001 -6.434982e-002 -1.233485e-001
<VARIANCE> 39
 1.346920e+001 6.051765e+001 2.726534e+001 8.905182e+000 4.778347e+001 5.488021e+001 1.628691e+001 5.009356e+001 3.681314e+001 2.469057e+001 2.363039e+001 2.278961e+001 8.731812e+000 1.854531e-001 5.046244e-001 8.863285e-001 5.710129e-001 8.116553e-001 1.319476e+000 9.978122e-001 1.411626e+000 1.038005e+000 9.091111e-001 1.896851e+000 7.895939e-001 3.087791e-001 6.660078e-002 1.060035e-001 1.877540e-001 9.595457e-002 2.102100e-001 3.310145e-001 1.622005e-001 3.973447e-001 2.298455e-001 2.280050e-001 3.790868e-001 1.380333e-001 2.671445e-002
<GCONST> 8.635053e+001
<TRANSP> 5
 0.000000e+000 1.000000e+000 0.000000e+000 0.000000e+000 0.000000e+000
 0.000000e+000 8.285101e-001 1.714899e-001 0.000000e+000 0.000000e+000
 0.000000e+000 0.000000e+000 6.993739e-001 3.006261e-001 0.000000e+000
 0.000000e+000 0.000000e+000 0.000000e+000 7.248296e-001 2.751705e-001
 0.000000e+000 0.000000e+000 0.000000e+000 0.000000e+000 0.000000e+000
<ENDHMM>
~h "m"
<BEGINHMM>
<NUMSTATES> 5
<STATE> 2
<MEAN> 39
 -1.752356e+000 1.053886e+001 4.161065e+000 3.032071e+000 -5.074981e+000 -1.936093e+000 -1.443399e-001 -7.339027e+000 -1.052343e+001 -1.078352e+001 -6.147120e+000 -1.836436e+000 6.092101e+001 1.229265e+000 -8.861441e-002 -5.648030e-001 -1.168898e+000 -1.343775e+000 -4.517263e-001 7.493900e-002 -2.069578e-001 -1.032461e-001 -1.444155e-001 -3.406888e-001 -3.247804e-001 1.603410e+000 -1.757527e-001 -5.607873e-001 -5.799835e-001 -6.472027e-001 -2.348735e-001 1.173719e-001 2.377532e-001 2.927031e-001 5.183265e-001 5.994155e-001 2.345100e-001 4.363380e-002 9.654760e-002
<VARIANCE> 39
 1.176961e+001 2.260441e+001 4.779628e+001 3.010213e+001 6.959476e+001 8.562903e+001 4.448058e+001 5.134445e+001 6.137878e+001 6.515228e+001 4.878984e+001 2.839456e+001 2.262157e+001 1.293047e+000 2.589615e+000 4.151073e+000 4.754968e+000 2.301255e+000 1.983884e+000 2.530320e+000 3.603322e+000 4.865951e+000 5.852049e+000 3.197270e+000 1.415827e+000 8.758678e-001 1.545826e-001 2.860387e-001 4.062609e-001 4.890679e-001 4.549718e-001 3.811234e-001 4.674985e-001 4.298254e-001 6.052181e-001 8.209468e-001 5.664805e-001 2.861701e-001 1.104401e-001
<GCONST> 1.194377e+002
<STATE> 3
<MEAN> 39
 3.029126e+000 2.325398e+000 -7.879625e+000 -1.405925e+001 -1.568551e+001 -3.072415e+000 3.974972e+000 -2.160345e+000 -4.301685e+000 -1.417397e+000 -5.127807e+000 -3.737222e+000 7.105235e+001 1.513894e-001 -2.561087e+000 -1.829872e+000 -3.327836e+000 -1.269543e+000 1.253287e+000 1.699414e+000 4.402641e-001 9.630523e-001 1.896871e+000 5.669609e-001 -1.605661e-001 1.894791e+000 -4.133843e-001 2.407987e-001 7.187542e-001 9.796109e-001 8.996853e-001 2.340828e-001 -1.879883e-001 -3.921702e-001 -6.302933e-001 -5.356454e-001 -6.540221e-002 4.892125e-002 -4.710336e-001
<VARIANCE> 39
 5.841538e+000 3.926473e+001 2.714259e+001 2.970544e+001 3.960680e+001 3.601585e+001 4.400668e+001 7.112333e+001 3.683651e+001 6.065139e+001 4.274012e+001 3.546556e+001 1.075491e+001 7.995895e-001 1.902155e+000 2.452108e+000 4.340755e+000 6.076402e+000 3.877036e+000 2.706232e+000 4.882031e+000 4.449925e+000 8.226968e+000 3.604114e+000 2.300609e+000 1.687924e+000 6.918664e-002 3.578786e-001 2.872353e-001 4.075420e-001 5.959506e-001 6.478168e-001 6.435356e-001 8.431110e-001 5.168148e-001 1.168276e+000 7.618806e-001 2.796872e-001 1.159072e-001
<GCONST> 1.196790e+002
<STATE> 4
<MEAN> 39
 -1.625008e-001 -6.201972e+000 -1.114362e+001 -1.715286e+001 -1.341745e+001 5.460477e-001 8.586170e+000 1.323923e+000 -6.028783e+000 -4.745395e-001 -2.373550e+000 -5.046102e+000 7.617458e+001 -2.292157e-001 -5.086098e-001 1.809260e-003 -1.219449e-001 9.323462e-002 2.893756e-001 -1.117511e-001 -2.145977e-001 -1.292173e-001 2.079849e-001 2.987467e-001 2.182172e-002 2.184407e-001 6.376056e-002 2.877581e-001 1.162934e-001 2.306678e-001 2.674124e-002 -2.377270e-001 -2.831703e-001 2.489664e-002 1.373619e-002 -5.921907e-002 -1.526752e-002 8.807763e-002 -2.281292e-001
<VARIANCE> 39
 6.310710e+000 3.975105e+001 2.174101e+001 1.846221e+001 1.995487e+001 2.666900e+001 2.651348e+001 6.981537e+001 3.499760e+001 4.873269e+001 3.631977e+001 2.894931e+001 1.570040e+001 2.726997e-001 6.113047e-001 5.072479e-001 9.678913e-001 1.102887e+000 1.643916e+000 1.468205e+000 2.022316e+000 1.480459e+000 2.327261e+000 1.841993e+000 1.203421e+000 3.012863e-001 4.693393e-002 1.467752e-001 1.428021e-001 3.519006e-001 2.156370e-001 3.295265e-001 3.693726e-001 2.745777e-001 2.966751e-001 5.191621e-001 3.667687e-001 2.355754e-001 8.486157e-002
<GCONST> 9.447702e+001
<TRANSP> 5
 0.000000e+000 1.000000e+000 0.000000e+000 0.000000e+000 0.000000e+000
 0.000000e+000 8.672626e-001 1.327374e-001 0.000000e+000 0.000000e+000
 0.000000e+000 0.000000e+000 6.777323e-001 3.222677e-001 0.000000e+000
 0.000000e+000 0.000000e+000 0.000000e+000 7.710744e-001 2.289256e-001
 0.000000e+000 0.000000e+000 0.000000e+000 0.000000e+000 0.000000e+000
<ENDHMM>
~h "n"
<BEGINHMM>
<NUMSTATES> 5
<STATE> 2
<MEAN> 39
 -1.529848e+000 3.997347e+000 3.085114e+000 5.060282e+000 -1.260311e+001 -8.816001e+000 -5.124773e+000 -9.764769e+000 -2.867900e+000 -4.275622e+000 -3.467182e+000 -3.823202e+000 6.552366e+001 -1.947954e-002 6.100907e-001 2.332999e-001 3.651739e-001 3.302851e-001 -7.173195e-003 -1.999485e-001 -2.700473e-001 -3.861284e-001 -5.644541e-002 7.936402e-002 -2.309933e-001 -6.586871e-001 -9.879366e-002 -3.284662e-001 -9.336060e-002 -1.799544e-001 -2.862690e-001 6.413728e-002 -2.955762e-002 1.888221e-001 4.275506e-001 1.403304e-001 -1.372820e-001 1.447034e-001 3.060086e-001
<VARIANCE> 39
 1.094866e+001 2.780723e+001 9.666610e+001 2.522650e+001 1.126365e+002 6.315446e+001 5.161362e+001 4.480816e+001 4.887492e+001 6.113676e+001 4.196944e+001 3.412154e+001 3.023952e+001 4.606966e-001 1.622749e+000 1.973216e+000 1.992734e+000 2.714966e+000 2.707921e+000 3.052679e+000 2.355042e+000 3.363552e+000 2.903089e+000 2.177290e+000 2.063125e+000 1.008694e+000 5.098941e-002 2.142065e-001 2.616289e-001 3.654320e-001 3.855371e-001 5.224636e-001 5.629920e-001 5.573087e-001 8.491343e-001 4.781730e-001 4.606300e-001 3.362958e-001 1.056302e-001
<GCONST> 1.146848e+002
<STATE> 3
<MEAN> 39
 -3.737781e+000 -2.979873e-002 8.130696e-001 4.573828e+000 -1.532722e+001 -6.966457e+000 -6.700018e+000 -8.060669e+000 6.103988e+000 -9.788837e-001 -7.589672e+000 -3.898049e+000 6.797885e+001 -8.512784e-001 -1.775833e+000 8.655402e-002 -7.391972e-002 -2.144002e+000 -4.249179e-001 2.886144e-001 1.672955e+000 2.929044e+000 1.927133e-001 -1.154180e+000 6.942616e-001 1.465766e+000 1.335867e-003 2.560218e-001 1.759521e-001 -1.439770e-001 2.863966e-002 -5.654122e-001 1.421255e-001 4.730036e-001 -7.436131e-001 -1.515193e-001 4.666362e-001 1.564499e-001 -1.339243e-001
<VARIANCE> 39
 1.262306e+001 3.336062e+001 6.130598e+001 3.677688e+001 6.848363e+001 3.756683e+001 5.064755e+001 8.197911e+001 8.259821e+001 2.759138e+001 4.256942e+001 2.270632e+001 4.282800e+001 4.724173e-001 1.982010e+000 2.021309e+000 1.620250e+000 2.761175e+000 3.691625e+000 5.486556e+000 4.723782e+000 5.152393e+000 2.851466e+000 2.735890e+000 2.717895e+000 8.925542e-001 6.745079e-002 3.585232e-001 2.830144e-001 2.462463e-001 4.851046e-001 3.813241e-001 8.262975e-001 7.429251e-001 1.404380e+000 3.885060e-001 5.243399e-001 3.445905e-001 2.492826e-001
<GCONST> 1.189972e+002
<STATE> 4
<MEAN> 39
 -6.531897e+000 -9.797014e-002 6.298917e+000 1.929289e+000 -2.105986e+001 -1.173564e+001 -7.701528e+000 -2.592380e+000 5.875679e+000 -3.839504e+000 -5.849172e+000 -6.265889e-002 6.955272e+001 -2.990936e-001 1.573797e-001 3.481742e-001 -3.733701e-002 5.984326e-002 -8.841816e-001 3.440427e-001 4.757884e-001 -1.129812e+000 -3.884009e-001 3.047810e-001 3.812118e-001 -4.915169e-001 1.004311e-001 1.465869e-001 -4.564774e-002 -3.623900e-003 2.412161e-001 1.017068e-001 6.409710e-002 -3.789025e-001 -1.533985e-001 -2.793221e-002 2.822012e-002 -1.192287e-001 -1.875858e-001
<VARIANCE> 39
 1.024887e+001 3.536914e+001 9.114973e+001 2.572779e+001 1.018031e+002 5.069787e+001 4.439405e+001 8.480228e+001 6.025115e+001 2.679007e+001 6.945996e+001 1.493601e+001 2.023989e+001 1.540354e-001 6.627503e-001 1.085212e+000 1.539987e+000 2.726705e+000 1.758749e+000 1.386034e+000 2.080588e+000 2.629387e+000 1.728580e+000 2.223170e+000 1.353197e+000 2.978496e-001 3.321032e-002 1.233311e-001 8.987113e-002 2.687435e-001 2.808435e-001 3.152097e-001 2.376533e-001 2.942586e-001 6.661204e-001 2.237436e-001 2.846337e-001 1.957200e-001 6.399546e-002
<GCONST> 9.986811e+001
<TRANSP> 5
 0.000000e+000 1.000000e+000 0.000000e+000 0.000000e+000 0.000000e+000
 0.000000e+000 8.603657e-001 1.396343e-001 0.000000e+000 0.000000e+000
 0.000000e+000 0.000000e+000 7.274362e-001 2.725638e-001 0.000000e+000
 0.000000e+000 0.000000e+000 0.000000e+000 8.070025e-001 1.929974e-001
 0.000000e+000 0.000000e+000 0.000000e+000 0.000000e+000 0.000000e+000
<ENDHMM>
~h "o"
<BEGINHMM>
<NUMSTATES> 5
<STATE> 2
<MEAN> 39
 -5.153443e+000 1.887341e+000 -3.998059e-001 -4.719388e+000 -1.027645e+001 -8.377604e+000 -1.314454e+000 -4.294622e+000 -2.598214e+000 -1.637859e+000 -2.417927e+000 -3.007498e-001 6.395220e+001 2.656938e-002 2.103826e-002 1.670751e-002 2.097466e-003 -4.075075e-002 -6.993482e-002 -7.360970e-003 -1.582084e-002 -2.291133e-002 -1.948875e-002 -7.798372e-003 -1.589407e-002 -1.794146e-002 -6.101388e-003 4.534691e-003 -4.683285e-003 2.991999e-003 1.307896e-002 1.532247e-002 4.297304e-003 2.199038e-003 5.607250e-003 8.410532e-003 3.306764e-003 1.353030e-003 -2.459256e-002
<VARIANCE> 39
 3.876240e+001 5.593195e+001 6.909898e+001 8.084949e+001 8.242165e+001 1.017876e+002 5.764616e+001 6.496631e+001 6.744147e+001 4.920574e+001 3.916745e+001 3.616992e+001 8.957718e+001 1.350502e+000 1.888252e+000 1.699849e+000 2.401277e+000 2.816806e+000 2.814739e+000 2.621114e+000 2.615768e+000 2.810299e+000 2.549241e+000 2.217089e+000 1.828917e+000 2.527436e+000 1.981723e-001 2.897191e-001 2.501056e-001 3.312125e-001 4.046271e-001 4.166303e-001 4.473993e-001 4.295296e-001 4.660336e-001 4.356595e-001 3.927584e-001 3.259792e-001 2.569831e-001
<GCONST> 1.219561e+002
<STATE> 3
<MEAN> 39
 -5.153443e+000 1.887341e+000 -3.998059e-001 -4.719388e+000 -1.027645e+001 -8.377604e+000 -1.314454e+000 -4.294622e+000 -2.598214e+000 -1.637859e+000 -2.417927e+000 -3.007498e-001 6.395220e+001 2.656938e-002 2.103826e-002 1.670751e-002 2.097466e-003 -4.075075e-002 -6.993482e-002 -7.360970e-003 -1.582084e-002 -2.291133e-002 -1.948875e-002 -7.798372e-003 -1.589407e-002 -1.794146e-002 -6.101388e-003 4.534691e-003 -4.683285e-003 2.991999e-003 1.307896e-002 1.532247e-002 4.297304e-003 2.199038e-003 5.607250e-003 8.410532e-003 3.306764e-003 1.353030e-003 -2.459256e-002
<VARIANCE> 39
 3.876240e+001 5.593195e+001 6.909898e+001 8.084949e+001 8.242165e+001 1.017876e+002 5.764616e+001 6.496631e+001 6.744147e+001 4.920574e+001 3.916745e+001 3.616992e+001 8.957718e+001 1.350502e+000 1.888252e+000 1.699849e+000 2.401277e+000 2.816806e+000 2.814739e+000 2.621114e+000 2.615768e+000 2.810299e+000 2.549241e+000 2.217089e+000 1.828917e+000 2.527436e+000 1.981723e-001 2.897191e-001 2.501056e-001 3.312125e-001 4.046271e-001 4.166303e-001 4.473993e-001 4.295296e-001 4.660336e-001 4.356595e-001 3.927584e-001 3.259792e-001 2.569831e-001
<GCONST> 1.219561e+002
<STATE> 4
<MEAN> 39
 -5.153443e+000 1.887341e+000 -3.998059e-001 -4.719388e+000 -1.027645e+001 -8.377604e+000 -1.314454e+000 -4.294622e+000 -2.598214e+000 -1.637859e+000 -2.417927e+000 -3.007498e-001 6.395220e+001 2.656938e-002 2.103826e-002 1.670751e-002 2.097466e-003 -4.075075e-002 -6.993482e-002 -7.360970e-003 -1.582084e-002 -2.291133e-002 -1.948875e-002 -7.798372e-003 -1.589407e-002 -1.794146e-002 -6.101388e-003 4.534691e-003 -4.683285e-003 2.991999e-003 1.307896e-002 1.532247e-002 4.297304e-003 2.199038e-003 5.607250e-003 8.410532e-003 3.306764e-003 1.353030e-003 -2.459256e-002
<VARIANCE> 39
 3.876240e+001 5.593195e+001 6.909898e+001 8.084949e+001 8.242165e+001 1.017876e+002 5.764616e+001 6.496631e+001 6.744147e+001 4.920574e+001 3.916745e+001 3.616992e+001 8.957718e+001 1.350502e+000 1.888252e+000 1.699849e+000 2.401277e+000 2.816806e+000 2.814739e+000 2.621114e+000 2.615768e+000 2.810299e+000 2.549241e+000 2.217089e+000 1.828917e+000 2.527436e+000 1.981723e-001 2.897191e-001 2.501056e-001 3.312125e-001 4.046271e-001 4.166303e-001 4.473993e-001 4.295296e-001 4.660336e-001 4.356595e-001 3.927584e-001 3.259792e-001 2.569831e-001
<GCONST> 1.219561e+002
<TRANSP> 5
 0.000000e+000 1.000000e+000 0.000000e+000 0.000000e+000 0.000000e+000
 0.000000e+000 6.000000e-001 4.000000e-001 0.000000e+000 0.000000e+000
 0.000000e+000 0.000000e+000 6.000000e-001 4.000000e-001 0.000000e+000
 0.000000e+000 0.000000e+000 0.000000e+000 7.000000e-001 3.000000e-001
 0.000000e+000 0.000000e+000 0.000000e+000 0.000000e+000 0.000000e+000
<ENDHMM>
~h "p"
<BEGINHMM>
<NUMSTATES> 5
<STATE> 2
<MEAN> 39
 -5.023648e+000 5.876986e-001 -6.023391e+000 -1.074838e+001 -8.959595e+000 -3.055516e+000 2.512801e+000 -3.320501e+000 1.038336e+000 4.811659e-001 -2.663592e+000 -1.193514e+000 6.796247e+001 2.241551e+000 1.175252e+000 9.429526e-002 -2.091813e+000 -2.210578e+000 2.728529e-002 1.229493e+000 8.567107e-002 -4.370974e-001 1.460339e-001 -4.160691e-001 -3.282890e-001 1.740127e+000 1.723435e-002 7.481623e-002 1.345794e-001 8.315367e-002 -3.150451e-002 4.816220e-002 -9.877766e-002 5.643883e-002 -1.064499e-001 1.543866e-002 1.473178e-001 7.949155e-002 -5.104502e-001
<VARIANCE> 39
 3.083556e+001 4.166853e+001 2.907123e+001 3.422596e+001 5.247038e+001 8.146719e+001 5.154474e+001 3.288625e+001 2.512095e+001 2.402579e+001 2.665480e+001 2.290257e+001 1.497306e+001 1.711557e+000 3.896626e+000 2.706288e+000 2.518192e+000 4.613056e+000 5.441145e+000 4.881702e+000 4.734531e+000 2.674879e+000 2.922490e+000 2.315705e+000 2.209504e+000 3.230097e+000 5.674137e-001 9.810315e-001 5.919034e-001 5.009733e-001 8.012003e-001 8.617305e-001 9.966837e-001 6.718390e-001 4.329297e-001 5.631474e-001 4.636963e-001 3.368350e-001 5.470275e-001
<GCONST> 1.256545e+002
<STATE> 3
<MEAN> 39
 8.535497e-001 -7.926362e-001 -8.670077e+000 -1.742865e+001 -1.363001e+001 -4.599526e+000 5.029650e+000 2.562605e-001 -3.815724e+000 -6.089649e-001 -1.427953e+000 -1.679021e+000 7.369746e+001 1.219099e-001 -1.290505e+000 -4.748036e-001 -1.650302e-001 -3.546008e-001 9.265053e-002 -7.496254e-001 -3.884578e-001 -2.563782e-001 6.691161e-002 7.010074e-001 -4.136835e-001 7.317320e-001 -4.501360e-001 -1.817942e-001 5.041581e-002 4.629491e-001 4.213094e-001 5.591700e-002 -3.124535e-001 -1.597158e-001 2.644721e-001 1.934258e-001 -4.620599e-002 -9.961537e-002 -3.453131e-001
<VARIANCE> 39
 8.264593e+000 5.598010e+001 4.430552e+001 2.280647e+001 6.121365e+001 8.558611e+001 5.235746e+001 7.357970e+001 5.459005e+001 2.873829e+001 3.156046e+001 3.820064e+001 1.792839e+001 8.040328e-001 1.736041e+000 1.088470e+000 2.254467e+000 1.784995e+000 2.293712e+000 3.148923e+000 2.191077e+000 2.511494e+000 3.406978e+000 1.775220e+000 2.136746e+000 1.038412e+000 2.375959e-001 6.096763e-001 2.780176e-001 3.711101e-001 5.301217e-001 5.567238e-001 7.321451e-001 4.768034e-001 4.846990e-001 5.126345e-001 3.975527e-001 4.732376e-001 1.634115e-001
<GCONST> 1.156311e+002
<STATE> 4
<MEAN> 39
 1.418304e+000 1.641330e+000 -5.052005e+000 -1.658184e+001 -1.780268e+001 -2.004623e+000 2.312492e+000 -3.621268e+000 1.352735e+000 6.853528e-001 -1.324691e+000 -3.070281e+000 7.278804e+001 -1.018320e-001 -2.228696e-001 -9.594701e-002 2.075717e-001 3.345006e-002 -3.170877e-001 -5.136819e-001 -1.456515e-001 1.929637e-001 4.721159e-001 -2.661586e-002 -3.094612e-001 -1.413735e-002 -3.544458e-002 1.173592e-001 1.034295e-001 1.172449e-001 8.079873e-002 -1.588160e-001 -2.153132e-002 1.255158e-002 3.833123e-002 -4.748082e-002 -8.301023e-002 4.791474e-002 -8.765649e-002
<VARIANCE> 39
 1.161821e+001 5.826249e+001 8.963082e+001 1.468117e+001 7.486422e+001 1.588564e+002 4.187654e+001 9.265525e+001 6.668319e+001 4.369067e+001 2.255915e+001 3.766677e+001 1.527171e+001 1.946603e-001 6.414800e-001 7.478826e-001 9.145764e-001 1.529248e+000 1.493402e+000 2.502523e+000 1.351121e+000 2.190286e+000 1.519498e+000 1.602773e+000 1.093957e+000 2.733472e-001 5.851202e-002 1.276459e-001 1.119306e-001 1.773639e-001 2.158511e-001 2.886928e-001 3.454322e-001 2.871856e-001 3.129183e-001 2.883300e-001 2.586707e-001 2.196371e-001 4.542471e-002
<GCONST> 9.825529e+001
<TRANSP> 5
 0.000000e+000 1.000000e+000 0.000000e+000 0.000000e+000 0.000000e+000
 0.000000e+000 7.981640e-001 2.018360e-001 0.000000e+000 0.000000e+000
 0.000000e+000 0.000000e+000 6.581498e-001 3.418503e-001 0.000000e+000
 0.000000e+000 0.000000e+000 0.000000e+000 7.482475e-001 2.517524e-001
 0.000000e+000 0.000000e+000 0.000000e+000 0.000000e+000 0.000000e+000
<ENDHMM>
~h "r"
<BEGINHMM>
<NUMSTATES> 5
<STATE> 2
<MEAN> 39
 -5.731402e-001 -9.004399e-001 -1.918100e+000 5.581704e+000 -1.058191e+001 -1.632622e+001 -1.031164e+001 -1.326229e+001 3.662268e+000 6.222350e-001 -4.531865e-001 -2.639814e+000 6.611237e+001 -5.321978e-002 -5.034644e-002 -2.631294e-001 5.336354e-001 5.756683e-001 9.175698e-001 1.067651e+000 -4.244863e-001 -2.875699e-001 1.336823e-001 -1.660165e-001 -3.972756e-001 -7.072694e-001 -9.823035e-002 5.372302e-002 1.904443e-001 -1.136011e-001 6.517497e-002 -2.591484e-001 5.223315e-002 5.016313e-001 -8.726209e-002 -3.553131e-002 -2.397636e-001 1.184761e-001 9.188648e-002
<VARIANCE> 39
 7.478380e+000 2.034027e+001 4.230883e+001 5.351978e+001 2.124131e+001 4.259750e+001 2.055051e+001 3.962969e+001 1.369481e+001 1.258934e+001 1.485057e+001 2.335002e+001 2.953706e+001 3.806966e-001 2.038992e+000 2.785678e+000 3.590275e+000 2.365568e+000 3.900311e+000 1.212379e+000 4.771558e+000 1.926644e+000 2.283219e+000 1.113203e+000 2.105860e+000 2.030556e+000 6.854446e-002 4.078133e-001 2.992100e-001 6.772895e-001 2.959450e-001 9.451560e-001 2.045874e-001 5.158417e-001 3.871532e-001 4.380907e-001 1.282994e-001 3.041294e-001 3.246197e-001
<GCONST> 1.065504e+002
<STATE> 3
<MEAN> 39
 -6.314726e+000 1.405714e+000 5.343384e-001 6.279901e+000 -7.258729e+000 -1.919422e+001 -6.648216e+000 -6.229909e+000 2.129220e+000 -7.776599e-001 -6.612674e+000 1.981568e+000 6.422741e+001 -7.968234e-001 -2.225050e-001 1.720978e-001 4.657234e-001 1.692088e-001 -2.067061e-001 1.243054e+000 3.155686e-001 1.638210e-001 -4.704559e-001 -1.000106e+000 1.177923e+000 -1.280790e-001 -9.613732e-002 -4.703843e-002 -4.021905e-002 -2.041228e-001 -4.070440e-001 1.133137e-001 -2.312032e-001 2.873429e-001 4.453229e-001 -1.566043e-001 3.813856e-001 1.972580e-001 3.299904e-001
<VARIANCE> 39
 1.540855e+001 1.934851e+001 5.848937e+001 1.351450e+001 2.985118e+001 9.035992e+001 1.511923e+001 3.935780e+001 2.722367e+001 1.751791e+001 1.836070e+001 2.880887e+001 3.738541e+001 3.023736e-001 1.325144e+000 1.161689e+000 9.367517e-001 5.747140e+000 4.905413e+000 1.552562e+000 4.312766e+000 5.973188e+000 1.447057e+000 1.216656e+000 2.745729e+000 1.194501e+000 3.440667e-002 1.316090e-001 4.370531e-001 2.294783e-001 5.489466e-001 8.393081e-001 4.980374e-001 1.058930e+000 1.028332e+000 4.120078e-001 2.658550e-001 7.276220e-001 3.142523e-001
<GCONST> 1.095757e+002
<STATE> 4
<MEAN> 39
 -6.821775e+000 8.826936e-001 6.271385e+000 7.267729e+000 -1.216945e+001 -1.086891e+001 -6.694643e+000 -4.382495e+000 5.696886e+000 -1.209698e+000 -1.920720e+000 2.998960e+000 6.416757e+001 -3.373333e-001 -1.724302e-001 8.168988e-001 -6.661159e-002 -2.819139e-001 8.656405e-001 4.019887e-001 1.714996e+000 -4.087344e-001 6.756344e-002 1.743115e-001 -4.840737e-001 -1.339981e-001 1.306556e-001 -2.408176e-002 -5.741718e-002 -1.457763e-001 -1.211015e-001 -1.041896e-001 2.145221e-002 2.046638e-001 -1.830669e-001 -7.637475e-002 -6.073648e-002 -7.956621e-002 -8.661203e-003
<VARIANCE> 39
 3.677177e+001 2.978428e+001 4.364807e+001 1.382761e+001 5.147923e+001 2.989680e+001 6.624036e+001 2.748707e+001 1.686703e+001 2.181193e+001 2.763165e+001 3.019116e+001 1.293219e+001 6.102452e-001 9.123353e-001 7.932789e-001 1.444610e+000 5.791763e+000 1.344939e+000 2.945767e+000 1.346266e+000 2.271845e+000 2.166274e+000 2.680497e+000 3.301874e+000 3.497712e-001 1.676386e-001 2.721036e-001 2.550205e-001 3.220877e-001 1.655453e+000 3.872560e-001 3.707887e-001 3.932853e-001 7.003313e-001 2.718010e-001 3.259352e-001 7.869112e-001 7.307835e-002
<GCONST> 1.072308e+002
<TRANSP> 5
 0.000000e+000 1.000000e+000 0.000000e+000 0.000000e+000 0.000000e+000
 0.000000e+000 7.118717e-001 2.881284e-001 0.000000e+000 0.000000e+000
 0.000000e+000 0.000000e+000 6.528533e-001 3.471467e-001 0.000000e+000
 0.000000e+000 0.000000e+000 0.000000e+000 7.545758e-001 2.454242e-001
 0.000000e+000 0.000000e+000 0.000000e+000 0.000000e+000 0.000000e+000
<ENDHMM>
~h "t"
<BEGINHMM>
<NUMSTATES> 5
<STATE> 2
<MEAN> 39
 -1.160953e+001 -3.903898e+000 -1.782012e+000 -5.076315e+000 -6.299656e+000 -4.261421e+000 -5.117075e+000 -4.707925e+000 2.157284e+000 -9.378384e-001 -1.941728e+000 -4.659916e-001 6.746124e+001 9.727149e-001 2.605649e-001 3.475153e-001 -8.122755e-001 -4.204253e-001 -7.013087e-001 -8.152668e-001 -9.841235e-001 -4.531533e-001 2.407509e-001 -3.890355e-001 -5.131298e-001 3.157358e+000 9.273327e-001 6.665292e-001 -1.947937e-001 -5.501195e-002 -1.499144e-001 -1.629727e-001 3.163128e-001 -7.055179e-002 -4.952337e-001 1.651901e-001 1.173044e-001 5.137120e-002 -6.911461e-001
<VARIANCE> 39
 2.889450e+001 4.121242e+001 3.911494e+001 4.335519e+001 3.011488e+001 3.771126e+001 3.631038e+001 3.262027e+001 3.722215e+001 3.233673e+001 2.943616e+001 2.310620e+001 7.589468e+001 6.729613e+000 6.021191e+000 3.160164e+000 5.101621e+000 4.588311e+000 6.035526e+000 4.393995e+000 5.230685e+000 5.723960e+000 4.038899e+000 2.735265e+000 2.993870e+000 9.341832e+000 7.394091e-001 9.747359e-001 6.156396e-001 8.487948e-001 8.541411e-001 8.902870e-001 9.531771e-001 7.730482e-001 9.356503e-001 7.788714e-001 5.541613e-001 5.025629e-001 1.690356e+000
<GCONST> 1.360426e+002
<STATE> 3
<MEAN> 39
 -9.226295e-001 8.945636e-001 -3.729753e+000 -1.060720e+001 -9.813270e+000 -6.777331e+000 -4.055827e+000 -8.302685e+000 -3.404753e+000 9.814281e-001 -2.628213e+000 -1.407081e+000 7.231888e+001 2.456293e+000 2.857768e-001 -1.035056e+000 -1.385977e+000 -1.670699e+000 -5.595169e-001 9.977320e-001 2.610786e-002 -1.425198e+000 2.953574e-001 2.278131e-001 3.565027e-001 1.382512e-001 -8.098121e-001 -6.024005e-001 -1.173872e-001 2.153059e-001 2.600990e-002 3.196068e-001 2.674845e-001 4.968009e-001 3.618118e-001 -7.539140e-002 1.369810e-001 2.610272e-001 -4.930175e-001
<VARIANCE> 39
 1.672554e+001 2.843243e+001 5.026978e+001 6.965192e+001 6.400291e+001 7.077257e+001 4.823949e+001 6.589992e+001 3.787246e+001 4.763691e+001 2.728957e+001 3.872243e+001 2.579741e+001 2.925320e+000 3.497823e+000 2.247715e+000 3.247922e+000 3.898094e+000 4.737154e+000 3.288310e+000 5.319779e+000 4.035165e+000 4.231058e+000 3.276639e+000 3.026097e+000 1.381263e+000 3.369207e-001 4.225014e-001 3.964158e-001 5.951675e-001 7.809529e-001 7.847947e-001 7.955682e-001 8.559760e-001 5.743889e-001 6.248710e-001 4.583631e-001 6.054305e-001 5.785649e-001
<GCONST> 1.286209e+002
<STATE> 4
<MEAN> 39
 4.030125e-001 -1.886011e+000 -6.925380e+000 -1.415066e+001 -1.345372e+001 -4.532026e+000 -5.986754e-001 -6.553456e+000 -3.766418e+000 1.239235e+000 -5.941851e-001 1.320147e-001 7.342709e+001 1.066062e-002 -4.768291e-001 -1.355409e-001 8.337783e-002 -2.085907e-001 7.104871e-002 -6.124436e-002 -3.313977e-001 -6.028639e-002 3.446584e-001 4.314457e-001 2.996815e-001 4.958813e-003 -3.260206e-001 -8.745054e-004 2.393298e-001 4.106938e-001 3.660927e-001 -1.524391e-001 -4.178922e-001 -1.340469e-001 2.939141e-001 7.545521e-002 -4.633151e-002 -1.328329e-001 -6.421921e-002
<VARIANCE> 39
 1.874699e+001 3.673123e+001 5.622197e+001 5.349844e+001 7.916034e+001 9.182099e+001 4.026913e+001 7.043861e+001 6.511584e+001 5.813115e+001 4.270520e+001 4.767603e+001 2.706614e+001 6.569888e-001 1.486293e+000 1.131803e+000 1.832594e+000 3.202460e+000 3.416909e+000 4.758808e+000 2.771388e+000 3.358589e+000 2.358667e+000 2.545219e+000 2.465391e+000 6.960338e-001 2.151524e-001 2.681136e-001 2.216767e-001 3.730753e-001 5.716388e-001 7.012700e-001 6.524089e-001 5.880477e-001 6.009931e-001 5.707362e-001 4.745421e-001 4.969971e-001 1.167566e-001
<GCONST> 1.195603e+002
<TRANSP> 5
 0.000000e+000 1.000000e+000 0.000000e+000 0.000000e+000 0.000000e+000
 0.000000e+000 7.384189e-001 2.615810e-001 0.000000e+000 0.000000e+000
 0.000000e+000 0.000000e+000 5.948406e-001 4.051594e-001 0.000000e+000
 0.000000e+000 0.000000e+000 0.000000e+000 6.900377e-001 3.099622e-001
 0.000000e+000 0.000000e+000 0.000000e+000 0.000000e+000 0.000000e+000
<ENDHMM>
~h "u"
<BEGINHMM>
<NUMSTATES> 5
<STATE> 2
<MEAN> 39
 -7.110249e+000 4.310744e+000 2.755295e+000 5.126306e+000 -4.249553e+000 -8.618785e+000 -1.709030e+000 -1.093954e+001 -3.222697e+000 1.612989e+000 9.120494e-001 6.378684e-001 6.165123e+001 7.366809e-001 6.698444e-001 -1.128267e+000 -2.481661e+000 2.704311e-001 2.416682e+000 8.399148e-001 -1.018924e+000 -1.012450e+000 1.213902e+000 1.929241e+000 7.489932e-001 -1.041876e+000 -1.807492e-001 1.773046e-001 2.705228e-001 7.260987e-002 -1.801217e-001 4.159016e-002 2.724861e-001 4.629974e-001 -2.223700e-001 -7.719887e-001 -2.971370e-001 1.669200e-001 -1.583030e-001
<VARIANCE> 39
 6.323341e+000 3.860570e+001 3.531768e+001 6.232567e+001 1.728789e+001 4.181265e+001 2.384468e+001 7.849756e+001 4.072681e+001 3.707180e+001 6.150664e+001 1.804366e+001 6.302146e+000 1.967538e-001 7.498828e-001 5.522092e-001 1.096960e+000 6.415561e-001 2.715390e+000 1.400320e+000 5.244445e+000 1.826083e+000 3.591970e+000 3.456986e+000 1.302868e+000 4.044286e-001 5.514726e-002 2.429162e-001 2.499899e-001 3.133052e-001 1.114569e-001 7.417829e-001 2.427761e-001 1.189162e+000 5.499313e-001 7.548075e-001 8.334055e-001 5.380056e-001 3.926351e-002
<GCONST> 1.022629e+002
<STATE> 3
<MEAN> 39
 -7.381238e+000 4.617156e+000 2.619959e-001 -2.705359e+000 -7.277310e-002 -7.224319e+000 -5.176174e+000 -7.629168e+000 -7.729998e+000 -3.221087e+000 1.172772e-002 1.192439e+000 5.835624e+001 4.921145e-001 3.493420e-001 -1.164319e+000 -7.962584e-001 -2.444358e-001 9.857445e-001 9.063550e-002 -7.770494e-001 -1.091935e+000 -2.636406e-001 2.368526e-001 -3.366388e-002 -7.880384e-001 -1.277054e-001 -1.682996e-001 2.607560e-002 9.946071e-002 -1.507881e-001 -1.376432e-001 1.205721e-001 2.021580e-001 7.053567e-002 -1.097307e-001 6.463234e-003 1.263205e-001 1.511928e-001
<VARIANCE> 39
 1.760888e+001 1.393591e+001 3.285555e+001 2.924983e+001 6.811115e+001 2.173408e+001 4.990086e+001 2.167739e+001 3.283492e+001 1.447868e+001 3.983641e+001 1.581105e+001 4.000520e+000 2.845140e-001 1.636673e+000 1.498161e+000 1.431781e+000 1.663374e+000 2.693522e+000 1.247098e+000 3.024195e+000 1.813741e+000 4.330712e+000 1.503706e+000 1.218744e+000 3.698429e-001 5.382759e-002 1.204103e-001 1.057475e-001 2.285982e-001 2.799595e-001 7.080508e-001 2.690985e-001 4.855582e-001 4.399487e-001 5.877596e-001 5.088151e-001 2.780957e-001 2.047567e-002
<GCONST> 9.721739e+001
<STATE> 4
<MEAN> 39
 -7.811711e+000 5.496946e+000 -1.236459e+000 -2.723053e-001 -2.095526e+000 -1.530923e+000 1.018680e+000 -2.452743e+000 -1.287938e+000 -1.717965e+000 -9.843928e-002 1.401788e+000 5.289448e+001 -2.179040e-001 -1.777602e-001 -9.346488e-002 -6.054913e-002 4.071480e-001 2.080860e-001 1.847375e-003 7.237296e-001 4.028335e-001 1.267809e-002 -2.547929e-001 -1.300110e-001 -4.215577e-001 -2.437211e-002 -6.083453e-002 2.140223e-002 7.023972e-002 1.946963e-002 -1.390795e-002 -4.170296e-003 -1.178132e-002 3.688268e-002 2.772611e-002 1.363432e-002 -2.437277e-002 5.388759e-002
<VARIANCE> 39
 1.416500e+001 2.315319e+001 6.642346e+000 1.246350e+001 1.880452e+001 1.483063e+001 1.399810e+001 3.642578e+001 3.493117e+001 2.543989e+001 1.212625e+001 1.601398e+001 1.154152e+001 2.353495e-001 7.096551e-001 5.933812e-001 6.213980e-001 9.868998e-001 1.017080e+000 1.161729e+000 1.635987e+000 1.583399e+000 1.761428e+000 1.473996e+000 1.300675e+000 1.888393e-001 4.266489e-002 1.273941e-001 1.030307e-001 1.525891e-001 2.146213e-001 2.159113e-001 1.917453e-001 3.377121e-001 3.799766e-001 3.537734e-001 2.635198e-001 2.445014e-001 2.609210e-002
<GCONST> 8.255258e+001
<TRANSP> 5
 0.000000e+000 1.000000e+000 0.000000e+000 0.000000e+000 0.000000e+000
 0.000000e+000 5.614479e-001 4.385522e-001 0.000000e+000 0.000000e+000
 0.000000e+000 0.000000e+000 6.965936e-001 3.034063e-001 0.000000e+000
 0.000000e+000 0.000000e+000 0.000000e+000 8.993804e-001 1.006195e-001
 0.000000e+000 0.000000e+000 0.000000e+000 0.000000e+000 0.000000e+000
<ENDHMM>
~h "w"
<BEGINHMM>
<NUMSTATES> 5
<STATE> 2
<MEAN> 39
 -5.153443e+000 1.887341e+000 -3.998059e-001 -4.719388e+000 -1.027645e+001 -8.377604e+000 -1.314454e+000 -4.294622e+000 -2.598214e+000 -1.637859e+000 -2.417927e+000 -3.007498e-001 6.395220e+001 2.656938e-002 2.103826e-002 1.670751e-002 2.097466e-003 -4.075075e-002 -6.993482e-002 -7.360970e-003 -1.582084e-002 -2.291133e-002 -1.948875e-002 -7.798372e-003 -1.589407e-002 -1.794146e-002 -6.101388e-003 4.534691e-003 -4.683285e-003 2.991999e-003 1.307896e-002 1.532247e-002 4.297304e-003 2.199038e-003 5.607250e-003 8.410532e-003 3.306764e-003 1.353030e-003 -2.459256e-002
<VARIANCE> 39
 3.876240e+001 5.593195e+001 6.909898e+001 8.084949e+001 8.242165e+001 1.017876e+002 5.764616e+001 6.496631e+001 6.744147e+001 4.920574e+001 3.916745e+001 3.616992e+001 8.957718e+001 1.350502e+000 1.888252e+000 1.699849e+000 2.401277e+000 2.816806e+000 2.814739e+000 2.621114e+000 2.615768e+000 2.810299e+000 2.549241e+000 2.217089e+000 1.828917e+000 2.527436e+000 1.981723e-001 2.897191e-001 2.501056e-001 3.312125e-001 4.046271e-001 4.166303e-001 4.473993e-001 4.295296e-001 4.660336e-001 4.356595e-001 3.927584e-001 3.259792e-001 2.569831e-001
<GCONST> 1.219561e+002
<STATE> 3
<MEAN> 39
 -5.153443e+000 1.887341e+000 -3.998059e-001 -4.719388e+000 -1.027645e+001 -8.377604e+000 -1.314454e+000 -4.294622e+000 -2.598214e+000 -1.637859e+000 -2.417927e+000 -3.007498e-001 6.395220e+001 2.656938e-002 2.103826e-002 1.670751e-002 2.097466e-003 -4.075075e-002 -6.993482e-002 -7.360970e-003 -1.582084e-002 -2.291133e-002 -1.948875e-002 -7.798372e-003 -1.589407e-002 -1.794146e-002 -6.101388e-003 4.534691e-003 -4.683285e-003 2.991999e-003 1.307896e-002 1.532247e-002 4.297304e-003 2.199038e-003 5.607250e-003 8.410532e-003 3.306764e-003 1.353030e-003 -2.459256e-002
<VARIANCE> 39
 3.876240e+001 5.593195e+001 6.909898e+001 8.084949e+001 8.242165e+001 1.017876e+002 5.764616e+001 6.496631e+001 6.744147e+001 4.920574e+001 3.916745e+001 3.616992e+001 8.957718e+001 1.350502e+000 1.888252e+000 1.699849e+000 2.401277e+000 2.816806e+000 2.814739e+000 2.621114e+000 2.615768e+000 2.810299e+000 2.549241e+000 2.217089e+000 1.828917e+000 2.527436e+000 1.981723e-001 2.897191e-001 2.501056e-001 3.312125e-001 4.046271e-001 4.166303e-001 4.473993e-001 4.295296e-001 4.660336e-001 4.356595e-001 3.927584e-001 3.259792e-001 2.569831e-001
<GCONST> 1.219561e+002
<STATE> 4
<MEAN> 39
 -5.153443e+000 1.887341e+000 -3.998059e-001 -4.719388e+000 -1.027645e+001 -8.377604e+000 -1.314454e+000 -4.294622e+000 -2.598214e+000 -1.637859e+000 -2.417927e+000 -3.007498e-001 6.395220e+001 2.656938e-002 2.103826e-002 1.670751e-002 2.097466e-003 -4.075075e-002 -6.993482e-002 -7.360970e-003 -1.582084e-002 -2.291133e-002 -1.948875e-002 -7.798372e-003 -1.589407e-002 -1.794146e-002 -6.101388e-003 4.534691e-003 -4.683285e-003 2.991999e-003 1.307896e-002 1.532247e-002 4.297304e-003 2.199038e-003 5.607250e-003 8.410532e-003 3.306764e-003 1.353030e-003 -2.459256e-002
<VARIANCE> 39
 3.876240e+001 5.593195e+001 6.909898e+001 8.084949e+001 8.242165e+001 1.017876e+002 5.764616e+001 6.496631e+001 6.744147e+001 4.920574e+001 3.916745e+001 3.616992e+001 8.957718e+001 1.350502e+000 1.888252e+000 1.699849e+000 2.401277e+000 2.816806e+000 2.814739e+000 2.621114e+000 2.615768e+000 2.810299e+000 2.549241e+000 2.217089e+000 1.828917e+000 2.527436e+000 1.981723e-001 2.897191e-001 2.501056e-001 3.312125e-001 4.046271e-001 4.166303e-001 4.473993e-001 4.295296e-001 4.660336e-001 4.356595e-001 3.927584e-001 3.259792e-001 2.569831e-001
<GCONST> 1.219561e+002
<TRANSP> 5
 0.000000e+000 1.000000e+000 0.000000e+000 0.000000e+000 0.000000e+000
 0.000000e+000 6.000000e-001 4.000000e-001 0.000000e+000 0.000000e+000
 0.000000e+000 0.000000e+000 6.000000e-001 4.000000e-001 0.000000e+000
 0.000000e+000 0.000000e+000 0.000000e+000 7.000000e-001 3.000000e-001
 0.000000e+000 0.000000e+000 0.000000e+000 0.000000e+000 0.000000e+000
<ENDHMM>
~h "a:"
<BEGINHMM>
<NUMSTATES> 5
<STATE> 2
<MEAN> 39
 1.022738e+000 -4.356957e+000 -1.144689e+001 -1.903827e+001 -7.716924e+000 4.276041e+000 5.213879e+000 -1.718086e+000 -6.300588e+000 3.642232e+000 -6.824859e+000 -5.276515e+000 7.309763e+001 -5.079716e-002 1.662422e-001 -1.026378e-001 1.055989e-001 5.685182e-002 -4.049753e-001 -2.081695e-001 2.401851e-003 4.319393e-001 9.832881e-002 2.068348e-001 1.624776e-001 -1.728367e-001 -1.925405e-002 1.527955e-001 1.273020e-001 1.986644e-001 -8.874385e-002 -2.297495e-001 -1.040959e-001 -4.636772e-002 1.122054e-001 -5.854637e-002 1.152823e-001 8.964001e-002 -1.070253e-001
<VARIANCE> 39
 7.763819e+000 3.832718e+001 4.655094e+001 2.997810e+001 2.670810e+001 5.121188e+001 2.075364e+001 2.805054e+001 5.415030e+001 2.712927e+001 4.046260e+001 3.080134e+001 9.231303e+000 2.103189e-001 5.098408e-001 6.627404e-001 8.303159e-001 1.023731e+000 1.657391e+000 1.509778e+000 1.308827e+000 1.486744e+000 1.691664e+000 1.231912e+000 1.133337e+000 1.492134e-001 4.256865e-002 9.485880e-002 1.280903e-001 1.500999e-001 1.767032e-001 2.783634e-001 3.394144e-001 2.837656e-001 2.644263e-001 2.433840e-001 2.154541e-001 2.396848e-001 4.579240e-002
<GCONST> 8.897166e+001
<STATE> 3
<MEAN> 39
 3.904863e-001 -7.211544e-001 -9.430039e+000 -1.357332e+001 -9.973397e+000 -1.050836e+000 9.860455e-001 -5.160881e+000 -3.394259e+000 3.120852e+000 -1.936661e+000 -3.044385e+000 6.627679e+001 -5.636914e-001 1.224798e+000 6.000295e-001 1.616216e+000 5.947092e-001 -8.034517e-001 -8.135294e-001 -2.744079e-001 6.813973e-001 -3.711971e-001 6.731725e-001 8.131471e-001 -2.124103e+000 -1.660182e-001 -4.311496e-002 -6.325780e-002 3.246352e-002 1.745773e-001 2.109606e-001 2.456417e-001 1.732229e-001 -8.178860e-002 -1.902591e-001 -1.840260e-001 -2.058835e-001 -2.396172e-001
<VARIANCE> 39
 7.841899e+000 4.123899e+001 3.985241e+001 2.693023e+001 3.484807e+001 4.354559e+001 3.342136e+001 4.487817e+001 6.401025e+001 3.428854e+001 4.199321e+001 4.382620e+001 5.158879e+001 6.672339e-001 1.072131e+000 1.979055e+000 2.503761e+000 2.061088e+000 3.140598e+000 2.853269e+000 3.010037e+000 3.269289e+000 2.237010e+000 2.827353e+000 2.265213e+000 1.125950e+000 9.835812e-002 2.833110e-001 2.976758e-001 4.382010e-001 3.757629e-001 5.622092e-001 4.754052e-001 6.129499e-001 5.402728e-001 4.245497e-001 4.081689e-001 3.875476e-001 2.896764e-001
<GCONST> 1.145159e+002
<STATE> 4
<MEAN> 39
 -4.516837e+000 2.204739e+000 -9.073030e+000 -8.909046e+000 -7.198636e+000 -3.608428e+000 1.617454e+000 -1.035101e+000 -1.237314e-001 -5.917941e-001 -1.076364e+000 -3.510473e-001 5.615240e+001 -1.048423e+000 -6.123477e-001 2.622299e-001 4.914300e-001 2.591363e-001 -4.109381e-002 -3.066847e-001 2.969966e-001 3.294935e-001 -1.430105e-001 -5.102487e-002 -5.524867e-002 -5.653754e-001 -4.600865e-002 -3.069149e-001 1.638898e-001 -1.623103e-001 -6.146531e-002 -3.672129e-003 -2.260927e-001 -1.993685e-001 -7.979903e-002 4.572282e-002 -5.187759e-002 -4.539516e-002 8.533150e-001
<VARIANCE> 39
 1.054215e+001 2.030649e+001 2.238236e+001 1.275523e+001 2.194676e+001 3.485454e+001 2.776651e+001 2.257842e+001 2.534236e+001 2.023840e+001 3.317706e+001 3.300581e+001 3.729062e+001 1.296160e+000 2.006621e+000 1.698446e+000 1.602929e+000 2.207262e+000 1.913244e+000 1.961800e+000 2.160609e+000 3.468548e+000 2.458009e+000 1.520652e+000 1.891028e+000 5.184291e+000 2.280352e-001 2.710057e-001 3.649887e-001 3.216996e-001 4.360923e-001 3.502009e-001 3.633474e-001 3.534722e-001 5.907146e-001 4.656405e-001 3.677925e-001 3.083334e-001 5.784915e-001
<GCONST> 1.094506e+002
<TRANSP> 5
 0.000000e+000 1.000000e+000 0.000000e+000 0.000000e+000 0.000000e+000
 0.000000e+000 8.771259e-001 1.228741e-001 0.000000e+000 0.000000e+000
 0.000000e+000 0.000000e+000 7.824147e-001 2.175853e-001 0.000000e+000
 0.000000e+000 0.000000e+000 0.000000e+000 8.328146e-001 1.671854e-001
 0.000000e+000 0.000000e+000 0.000000e+000 0.000000e+000 0.000000e+000
<ENDHMM>
~h "ae"
<BEGINHMM>
<NUMSTATES> 5
<STATE> 2
<MEAN> 39
 -1.486414e+000 -8.848027e+000 -1.090803e+001 -1.415382e+001 -7.749193e+000 -2.751743e+000 -1.135937e+000 -1.208657e-001 1.535892e+000 6.561520e+000 -3.800306e+000 -8.409900e+000 7.698594e+001 -8.684704e-002 2.434450e-002 3.487419e-001 8.900327e-001 2.816659e-002 -1.764031e+000 -1.064150e+000 5.528917e-001 9.992563e-001 -3.456512e-002 -7.439300e-001 -1.395020e-001 -1.967402e-001 -1.277581e-002 1.215007e-001 1.683467e-001 6.936686e-002 -9.779406e-002 -1.259663e-001 -8.837158e-002 4.409793e-002 4.126997e-002 -1.765927e-001 3.938381e-002 1.576092e-001 -4.550776e-002
<VARIANCE> 39
 1.066693e+001 2.989466e+001 2.712712e+001 3.057402e+001 2.395966e+001 7.677518e+001 6.000045e+001 5.363292e+001 6.111552e+001 2.725844e+001 5.748655e+001 3.689094e+001 1.706803e+001 1.869544e-001 3.854508e-001 7.400407e-001 1.150932e+000 1.036578e+000 2.330259e+000 2.488322e+000 1.262023e+000 2.671345e+000 1.728487e+000 1.723564e+000 1.585760e+000 1.679860e-001 2.932804e-002 7.539529e-002 9.887487e-002 1.507859e-001 1.755985e-001 3.741785e-001 5.232062e-001 2.676332e-001 4.482729e-001 2.857265e-001 3.487661e-001 2.841744e-001 1.918160e-002
<GCONST> 9.432937e+001
<STATE> 3
<MEAN> 39
 -2.948370e+000 -3.747865e+000 -1.475681e+000 -6.816554e+000 -1.075175e+001 -1.834802e+001 -9.420095e+000 2.746377e+000 6.981492e+000 2.789240e+000 -6.271795e+000 -4.097267e+000 7.307255e+001 -2.785687e-001 7.503926e-001 1.132280e+000 7.557855e-001 -6.148096e-001 -5.540114e-001 -2.268030e-002 -8.778752e-002 -3.333636e-001 -6.316782e-001 3.111287e-001 7.207229e-001 -6.883505e-001 -5.448642e-002 7.845588e-003 -4.608784e-002 2.535628e-002 7.409742e-002 2.425484e-001 9.980340e-002 -1.128603e-001 -1.295498e-001 3.827266e-002 -1.367977e-003 -2.868680e-002 -5.216150e-002
<VARIANCE> 39
 1.478362e+001 3.462246e+001 3.816377e+001 2.281441e+001 2.328805e+001 3.568973e+001 2.102008e+001 6.403120e+001 4.087488e+001 2.480512e+001 4.482579e+001 5.022053e+001 1.759427e+001 1.449517e-001 5.370163e-001 5.302229e-001 8.525092e-001 9.600739e-001 1.659754e+000 1.060084e+000 1.509652e+000 1.447133e+000 1.143192e+000 1.098508e+000 1.451856e+000 1.601333e-001 1.882153e-002 8.794498e-002 6.258145e-002 1.707690e-001 1.633778e-001 2.041398e-001 1.984360e-001 2.464980e-001 2.777772e-001 1.889558e-001 2.291002e-001 1.968459e-001 2.030224e-002
<GCONST> 8.554401e+001
<STATE> 4
<MEAN> 39
 -7.777395e+000 9.100540e-001 3.162948e+000 5.332936e-001 -1.218199e+001 -1.632888e+001 -3.933736e+000 1.687156e+000 2.751128e+000 -9.580439e-001 -2.631948e+000 1.179685e+000 6.266794e+001 -3.747309e-001 1.657903e-001 -2.034340e-001 1.431175e-001 4.571629e-001 3.691159e-001 4.251665e-001 -1.157159e-001 -1.693464e-001 -2.818935e-002 3.035588e-001 2.378963e-001 -1.110098e+000 2.331835e-002 -4.703658e-002 -1.294061e-001 -8.537042e-002 1.129892e-001 8.384776e-002 2.768459e-002 4.307197e-002 2.713999e-002 9.110209e-002 1.832386e-002 -5.494538e-002 -2.099450e-002
<VARIANCE> 39
 2.300387e+001 3.128529e+001 4.030752e+001 2.462438e+001 5.596033e+001 4.079879e+001 7.396720e+001 5.353517e+001 3.754314e+001 4.726515e+001 5.499882e+001 3.732924e+001 3.656278e+001 4.140298e-001 8.055079e-001 1.222001e+000 1.084603e+000 1.705413e+000 2.174033e+000 1.719391e+000 1.816107e+000 1.776920e+000 1.832828e+000 2.458713e+000 1.768981e+000 5.103199e-001 6.096341e-002 1.190829e-001 1.948226e-001 2.035500e-001 2.636987e-001 3.964175e-001 3.233823e-001 3.085185e-001 3.263173e-001 3.026647e-001 4.235771e-001 3.065378e-001 6.438829e-002
<GCONST> 1.036763e+002
<TRANSP> 5
 0.000000e+000 1.000000e+000 0.000000e+000 0.000000e+000 0.000000e+000
 0.000000e+000 9.001378e-001 9.986217e-002 0.000000e+000 0.000000e+000
 0.000000e+000 0.000000e+000 8.760706e-001 1.239294e-001 0.000000e+000
 0.000000e+000 0.000000e+000 0.000000e+000 9.267369e-001 7.326315e-002
 0.000000e+000 0.000000e+000 0.000000e+000 0.000000e+000 0.000000e+000
<ENDHMM>
~h "ai"
<BEGINHMM>
<NUMSTATES> 5
<STATE> 2
<MEAN> 39
 -1.570807e+000 -6.084327e+000 -5.231937e+000 -8.475149e+000 -8.212251e+000 -1.641281e+001 -1.033412e+001 -1.410557e-001 6.349568e+000 6.765880e+000 -2.626771e+000 -4.197861e+000 7.524700e+001 -5.517136e-001 7.987862e-001 1.953405e+000 2.385566e+000 -1.081961e+000 -2.713158e+000 -1.028008e+000 4.080734e-002 -1.798400e-001 -1.579538e+000 -2.381807e-001 1.567410e+000 -6.848313e-001 -1.340149e-001 3.328674e-001 2.460065e-001 9.253155e-002 -3.128071e-001 5.292225e-001 5.829623e-001 -3.701840e-001 -6.253068e-001 -3.750986e-001 3.589390e-001 1.968461e-001 -1.305108e-001
<VARIANCE> 39
 1.557248e+001 1.972546e+001 6.091378e+001 3.735684e+001 3.865466e+001 7.078313e+001 4.394066e+001 5.180207e+001 4.622572e+001 4.648499e+001 2.205466e+001 3.773748e+001 1.223224e+001 5.011703e-001 1.049781e+000 1.831848e+000 1.829248e+000 1.938691e+000 4.683795e+000 2.634377e+000 3.601978e+000 4.514151e+000 3.089884e+000 3.184937e+000 2.073747e+000 2.510290e-001 6.397338e-002 1.441692e-001 3.122279e-001 3.835545e-001 3.198743e-001 5.030257e-001 3.408495e-001 5.772375e-001 5.051783e-001 6.972101e-001 4.818985e-001 5.531100e-001 4.779039e-002
<GCONST> 1.101765e+002
<STATE> 3
<MEAN> 39
 -5.670218e+000 1.306825e+000 5.840629e+000 1.712703e+000 -1.460086e+001 -2.028562e+001 -7.554957e+000 -6.110815e+000 -1.796983e+000 -2.391423e+000 -8.531792e-001 1.401554e+000 7.068773e+001 -9.009180e-001 1.470150e+000 1.359934e+000 1.112369e+000 -2.301966e-001 4.855977e-001 1.143397e+000 -1.058981e+000 -1.936318e+000 -8.225113e-001 -4.223920e-001 1.316921e-001 -1.115548e+000 2.945926e-002 -1.490475e-001 -3.045957e-001 -2.749600e-001 3.687632e-001 2.551947e-001 1.221473e-001 2.219616e-001 1.475298e-001 3.139630e-001 -1.554001e-001 -3.314944e-001 -6.654247e-002
<VARIANCE> 39
 1.554454e+001 2.873152e+001 5.617794e+001 2.129819e+001 4.026628e+001 6.354987e+001 4.382705e+001 3.848231e+001 9.814825e+001 3.141938e+001 3.583006e+001 2.918750e+001 1.148033e+001 2.663952e-001 6.830324e-001 6.583036e-001 8.329941e-001 1.350236e+000 1.169173e+000 2.007518e+000 2.837630e+000 1.947383e+000 2.414776e+000 2.328298e+000 1.421057e+000 1.623124e-001 4.279485e-002 7.439962e-002 9.864452e-002 1.041222e-001 1.871505e-001 2.887253e-001 3.944593e-001 4.333777e-001 4.517934e-001 3.190452e-001 4.962948e-001 2.670910e-001 1.549062e-002
<GCONST> 9.525116e+001
<STATE> 4
<MEAN> 39
 -1.171815e+001 6.884977e+000 7.430494e+000 2.769807e+000 -8.204483e+000 -1.389564e+001 -1.022519e+000 -7.495735e+000 -6.247128e+000 -2.857488e+000 -2.987674e+000 -1.209501e+000 5.996420e+001 -2.733874e-001 -6.395261e-002 -3.355674e-001 -8.727337e-002 6.009040e-001 6.575656e-001 4.087119e-001 1.322698e-001 2.924371e-002 -8.015551e-004 2.146875e-001 -4.661242e-002 -1.145944e+000 5.693121e-002 -1.250058e-001 -1.304207e-001 -4.007778e-002 3.303601e-003 -1.112759e-002 -1.269581e-001 6.540886e-002 1.570267e-001 2.031225e-002 1.773886e-002 1.003578e-001 3.402008e-002
<VARIANCE> 39
 2.144438e+001 3.499062e+001 4.330811e+001 2.443112e+001 8.126609e+001 5.208576e+001 5.704226e+001 2.786739e+001 6.211059e+001 4.331966e+001 4.353487e+001 3.254406e+001 2.485738e+001 4.469141e-001 7.086323e-001 9.378533e-001 5.699326e-001 1.474491e+000 1.152677e+000 1.573146e+000 2.127630e+000 1.865352e+000 1.545837e+000 1.926141e+000 1.438558e+000 1.843812e-001 7.296351e-002 8.979751e-002 1.216060e-001 1.182428e-001 2.242287e-001 1.607716e-001 2.349336e-001 3.575250e-001 3.356795e-001 2.523170e-001 3.597533e-001 3.074898e-001 1.631426e-002
<GCONST> 9.584445e+001
<TRANSP> 5
 0.000000e+000 1.000000e+000 0.000000e+000 0.000000e+000 0.000000e+000
 0.000000e+000 8.094937e-001 1.905062e-001 0.000000e+000 0.000000e+000
 0.000000e+000 0.000000e+000 8.051361e-001 1.948639e-001 0.000000e+000
 0.000000e+000 0.000000e+000 0.000000e+000 9.174593e-001 8.254073e-002
 0.000000e+000 0.000000e+000 0.000000e+000 0.000000e+000 0.000000e+000
<ENDHMM>
~h "ao"
<BEGINHMM>
<NUMSTATES> 5
<STATE> 2
<MEAN> 39
 3.119893e-001 -7.080085e+000 -9.331745e+000 -1.923846e+001 -1.956721e+001 -4.427550e+000 7.041074e+000 5.080788e+000 -4.230309e+000 -5.763907e+000 -4.457472e+000 -2.884493e+000 7.443867e+001 5.909782e-001 7.520501e-001 4.885222e-001 -5.668114e-001 -1.231802e+000 6.570791e-002 -1.923728e-001 -2.655507e-001 1.961298e-001 5.106742e-001 -4.137022e-001 -2.044770e-001 -9.366870e-001 1.029504e-001 2.816827e-001 9.221695e-002 4.292278e-002 -4.741421e-002 -3.158422e-002 -8.064504e-002 -1.420112e-001 2.166941e-002 2.624747e-001 -5.214101e-002 -5.513369e-002 -2.027694e-001
<VARIANCE> 39
 9.981260e+000 2.050375e+001 2.069343e+001 1.739837e+001 4.224616e+001 3.901974e+001 2.595449e+001 4.068238e+001 5.382734e+001 3.905889e+001 3.260231e+001 2.130259e+001 2.561706e+001 8.062171e-001 9.828052e-001 6.351287e-001 8.880539e-001 2.081664e+000 2.482734e+000 2.133108e+000 3.141901e+000 3.485577e+000 3.907021e+000 1.362823e+000 2.372112e+000 1.299125e+000 1.521567e-001 8.584999e-002 1.408523e-001 2.092388e-001 4.345228e-001 4.566081e-001 2.785097e-001 5.465314e-001 6.101234e-001 4.623538e-001 3.337654e-001 4.047551e-001 1.306855e-001
<GCONST> 1.048133e+002
<STATE> 3
<MEAN> 39
 3.563260e+000 1.282935e+000 -7.248421e+000 -2.006279e+001 -2.034516e+001 -2.272102e+000 5.119145e+000 2.958219e-001 -2.132358e+000 2.987216e+000 -6.329066e+000 -3.974615e+000 6.902315e+001 2.915522e-002 7.947500e-001 3.221264e-001 4.394193e-002 -3.414604e-001 -6.949068e-001 -2.465442e-001 -5.414544e-002 1.222687e-001 2.907732e-001 -5.226069e-003 -8.533996e-002 -6.093091e-001 -5.580400e-002 4.207411e-002 2.306034e-003 5.321059e-002 9.653042e-002 -1.989683e-002 -6.745588e-002 -4.668461e-002 3.386590e-002 -7.633410e-002 1.618112e-002 4.227070e-002 -1.143502e-002
<VARIANCE> 39
 7.589298e+000 2.110210e+001 2.195646e+001 1.698787e+001 5.693362e+001 5.352582e+001 2.449979e+001 4.569094e+001 7.410565e+001 3.470551e+001 2.022006e+001 2.462251e+001 2.958352e+001 1.539201e-001 8.689163e-001 5.909663e-001 5.348365e-001 1.123862e+000 1.749387e+000 1.612726e+000 1.786555e+000 1.698889e+000 1.370106e+000 1.274775e+000 1.091108e+000 3.247847e-001 3.675640e-002 1.097871e-001 9.773432e-002 6.293005e-002 2.431314e-001 3.068331e-001 2.830201e-001 2.874366e-001 2.871428e-001 2.939836e-001 1.976637e-001 2.343284e-001 3.955147e-002
<GCONST> 8.930543e+001
<STATE> 4
<MEAN> 39
 -4.822898e-002 9.153746e+000 -3.132844e+000 -1.518338e+001 -1.797077e+001 -7.684866e+000 8.216276e-001 -8.729049e-001 -1.104502e+000 1.482995e+000 -4.492470e+000 -3.029507e+000 5.875183e+001 -5.748816e-001 5.206472e-002 3.239382e-002 8.242114e-001 8.756779e-001 -3.921605e-003 -2.685171e-001 7.960230e-002 1.672067e-001 -1.449285e-001 2.890775e-001 3.796154e-001 -8.928366e-001 -5.097950e-002 -1.398686e-001 -2.061980e-002 5.457876e-002 8.323622e-002 7.290865e-002 5.671832e-002 6.655119e-002 1.688362e-002 2.050607e-002 6.866447e-002 3.241138e-002 1.923268e-002
<VARIANCE> 39
 1.442477e+001 1.461763e+001 2.549485e+001 3.156882e+001 4.989581e+001 4.754064e+001 4.970398e+001 3.603339e+001 4.290278e+001 2.355066e+001 2.902280e+001 2.482057e+001 4.326742e+001 4.447733e-001 7.547034e-001 6.431323e-001 1.232638e+000 1.729999e+000 1.444242e+000 1.307329e+000 1.591418e+000 2.163521e+000 1.951672e+000 1.618017e+000 1.537602e+000 2.854348e-001 6.188643e-002 1.043024e-001 1.038232e-001 2.024503e-001 2.164494e-001 2.330528e-001 2.227966e-001 2.684913e-001 3.791545e-001 3.784811e-001 2.707818e-001 2.859415e-001 3.516183e-002
<GCONST> 9.511271e+001
<TRANSP> 5
 0.000000e+000 1.000000e+000 0.000000e+000 0.000000e+000 0.000000e+000
 0.000000e+000 7.196379e-001 2.803621e-001 0.000000e+000 0.000000e+000
 0.000000e+000 0.000000e+000 8.972291e-001 1.027709e-001 0.000000e+000
 0.000000e+000 0.000000e+000 0.000000e+000 9.317538e-001 6.824628e-002
 0.000000e+000 0.000000e+000 0.000000e+000 0.000000e+000 0.000000e+000
<ENDHMM>
~h "au"
<BEGINHMM>
<NUMSTATES> 5
<STATE> 2
<MEAN> 39
 3.730332e-001 -3.097414e+000 -7.985595e+000 -1.701958e+001 -1.509802e+001 -1.155330e+000 1.593142e+000 -4.941426e+000 -3.544988e+000 3.769204e+000 4.168882e+000 -2.422145e-001 7.381315e+001 2.407285e-001 5.509238e-001 1.655928e-001 5.888610e-001 -4.517876e-001 -6.503391e-001 -7.045946e-001 -1.281572e+000 -4.150051e-001 -1.628444e-001 7.397488e-001 4.850216e-001 -4.473121e-001 7.085765e-002 1.670484e-001 -3.267952e-002 1.870266e-001 5.276787e-002 9.582850e-003 9.342569e-002 -1.939181e-001 -1.983166e-001 -2.577287e-001 -2.563766e-002 6.808074e-002 -1.377971e-001
<VARIANCE> 39
 4.522429e+000 4.065947e+001 2.899505e+001 1.812957e+001 2.067253e+001 7.401366e+001 2.598342e+001 5.232534e+001 4.855231e+001 6.854292e+001 3.130641e+001 3.697681e+001 1.716337e+001 3.256213e-001 7.255164e-001 5.496448e-001 1.044657e+000 1.364337e+000 2.224473e+000 1.389173e+000 1.933029e+000 1.806653e+000 2.014317e+000 1.563767e+000 1.999163e+000 3.090279e-001 4.266250e-002 8.542217e-002 1.137180e-001 1.516306e-001 1.371079e-001 4.317468e-001 2.307051e-001 4.172741e-001 3.147970e-001 3.277594e-001 2.862476e-001 3.022913e-001 3.097583e-002
<GCONST> 9.403315e+001
<STATE> 3
<MEAN> 39
 3.258541e+000 3.398028e+000 -7.283155e+000 -1.000384e+001 -1.637563e+001 -6.747747e+000 -2.076304e+000 -1.403375e+001 -1.263741e+001 -1.698764e+000 4.867821e+000 1.686212e+000 6.730935e+001 7.722012e-002 1.512338e+000 4.363042e-001 3.924646e-001 3.846088e-001 2.572211e-002 -4.508911e-002 -3.679433e-001 -1.045773e+000 -1.240429e+000 -7.154400e-001 2.130177e-001 -1.271461e+000 -1.348128e-001 2.404663e-002 8.499806e-002 -9.567182e-002 1.011341e-001 7.787804e-002 3.861798e-002 3.232875e-001 1.834168e-001 2.497710e-002 -2.226039e-001 -1.990184e-001 -4.482637e-002
<VARIANCE> 39
 7.982906e+000 3.658144e+001 2.193407e+001 2.703523e+001 3.434893e+001 3.160025e+001 2.997893e+001 4.304013e+001 8.979668e+001 4.473259e+001 2.838896e+001 3.650034e+001 2.166129e+001 4.111666e-001 1.029841e+000 9.824576e-001 1.745386e+000 1.362045e+000 1.712906e+000 1.864794e+000 2.937518e+000 2.572439e+000 1.971806e+000 2.642197e+000 2.125332e+000 2.466636e-001 4.505858e-002 1.208802e-001 1.662887e-001 2.665092e-001 2.677119e-001 2.125778e-001 3.271031e-001 3.277183e-001 4.223506e-001 3.459641e-001 3.651302e-001 3.232535e-001 2.475893e-002
<GCONST> 9.919893e+001
<STATE> 4
<MEAN> 39
 -1.586341e+000 1.306452e+001 -1.805160e+000 -6.377503e+000 -8.792092e+000 -4.478414e+000 -7.859607e-001 -9.492683e+000 -7.909273e+000 -8.601577e+000 -4.187358e+000 -6.720634e-001 5.702425e+001 -6.160145e-001 -1.926544e-001 2.135022e-001 5.497205e-001 7.823461e-001 8.133312e-002 5.164539e-003 5.659400e-001 5.581826e-001 5.259416e-002 -2.580049e-001 -1.238504e-001 -9.051286e-001 -4.283583e-002 -2.125899e-001 -5.129114e-002 -9.800261e-004 2.675308e-002 9.459579e-003 -1.419824e-002 1.853273e-002 5.958149e-002 1.624482e-001 1.685924e-001 1.217348e-001 4.182230e-002
<VARIANCE> 39
 9.282550e+000 2.091777e+001 1.439538e+001 1.743304e+001 3.398884e+001 2.909917e+001 3.432583e+001 3.171207e+001 5.965137e+001 2.779389e+001 4.546230e+001 4.148505e+001 2.607837e+001 3.401302e-001 9.995357e-001 7.046487e-001 8.096597e-001 1.128066e+000 1.554228e+000 2.271449e+000 1.588132e+000 2.302509e+000 2.218569e+000 1.938025e+000 2.154604e+000 2.544874e-001 3.766945e-002 1.154402e-001 1.151269e-001 1.365525e-001 1.756162e-001 2.555776e-001 3.590536e-001 2.959247e-001 3.377261e-001 3.266577e-001 3.157201e-001 3.316954e-001 2.874121e-002
<GCONST> 9.352668e+001
<TRANSP> 5
 0.000000e+000 1.000000e+000 0.000000e+000 0.000000e+000 0.000000e+000
 0.000000e+000 8.333227e-001 1.666773e-001 0.000000e+000 0.000000e+000
 0.000000e+000 0.000000e+000 8.599765e-001 1.400234e-001 0.000000e+000
 0.000000e+000 0.000000e+000 0.000000e+000 9.193163e-001 8.068374e-002
 0.000000e+000 0.000000e+000 0.000000e+000 0.000000e+000 0.000000e+000
<ENDHMM>
~h "e:"
<BEGINHMM>
<NUMSTATES> 5
<STATE> 2
<MEAN> 39
 -5.161951e+000 -4.046847e+000 9.071432e+000 5.864227e-001 -2.248909e+001 -2.155616e+001 -7.960333e+000 -6.614991e+000 -6.122489e+000 -5.573174e+000 -1.990473e+000 6.476937e+000 7.424335e+001 -1.428296e-002 -7.159977e-002 -1.114831e-002 -2.415226e-002 6.020700e-002 -1.790815e-001 -7.201670e-004 1.099803e-001 -2.707833e-002 6.185436e-002 -3.294744e-002 -1.865135e-002 -1.440357e-001 -2.979263e-003 3.504399e-002 -3.643189e-002 -1.198229e-002 9.273898e-002 6.426642e-002 1.266090e-002 3.008648e-002 4.566026e-002 6.493515e-003 1.298001e-002 -4.716238e-002 -3.502901e-002
<VARIANCE> 39
 5.237874e+000 4.651764e+001 4.264118e+001 1.665526e+001 5.901371e+001 4.906388e+001 1.868567e+001 3.077894e+001 4.169677e+001 4.928162e+001 6.352761e+001 2.714096e+001 1.313639e+001 1.183656e-001 3.440157e-001 2.887863e-001 5.255370e-001 9.735268e-001 8.230039e-001 7.793531e-001 7.251540e-001 9.123850e-001 7.438164e-001 9.065162e-001 6.319999e-001 1.284337e-001 2.068759e-002 5.953228e-002 6.537213e-002 1.018195e-001 1.569774e-001 1.682924e-001 1.474383e-001 1.163740e-001 1.908439e-001 1.381646e-001 1.533421e-001 1.211252e-001 2.471520e-002
<GCONST> 7.611149e+001
<STATE> 3
<MEAN> 39
 -2.568776e+000 -5.632875e-001 4.799891e+000 8.686571e-001 -1.669468e+001 -2.463753e+001 -7.569507e+000 -3.635303e+000 -3.140514e+000 -4.991730e+000 -4.742471e+000 1.739713e+000 7.067725e+001 -6.911033e-002 2.275839e-001 -1.125971e-001 -2.187223e-001 1.975315e-001 9.002723e-002 -9.361791e-002 2.336454e-001 2.913312e-001 7.713953e-002 -1.559478e-001 -1.956330e-001 -4.669818e-001 -1.138560e-002 -1.441930e-002 1.975489e-002 2.305126e-002 2.241025e-002 1.058911e-001 2.717861e-002 -4.026414e-002 -2.186479e-002 -5.923125e-003 -2.741670e-002 8.585261e-003 -4.381548e-002
<VARIANCE> 39
 1.140694e+001 2.335941e+001 1.503243e+001 1.845492e+001 1.170417e+002 3.617141e+001 2.137667e+001 4.690461e+001 6.322065e+001 3.179885e+001 3.294135e+001 3.157215e+001 7.576358e+000 1.886755e-001 5.074887e-001 6.521015e-001 1.061909e+000 1.439408e+000 9.804050e-001 1.593401e+000 1.190398e+000 2.121432e+000 1.565355e+000 1.548450e+000 1.018158e+000 1.145397e-001 3.419067e-002 7.899448e-002 1.107400e-001 1.869131e-001 2.538510e-001 2.010319e-001 2.700135e-001 2.490894e-001 3.959945e-001 2.858967e-001 2.583764e-001 1.930800e-001 1.467858e-002
<GCONST> 8.762279e+001
<STATE> 4
<MEAN> 39
 -7.334232e+000 5.737447e-001 4.590239e+000 4.775570e-001 -1.201218e+001 -1.858835e+001 -4.764074e+000 -1.224395e+000 -3.065238e-001 -3.612948e+000 -4.257439e+000 2.550085e+000 6.200510e+001 -2.539602e-001 1.111584e-002 -4.856009e-001 1.441778e-001 1.000740e+000 7.370595e-001 5.962545e-001 2.499386e-001 1.929764e-001 3.474554e-001 2.366645e-001 5.516635e-003 -1.176105e+000 -1.306811e-002 2.187951e-002 -9.322988e-002 4.812638e-002 1.387390e-001 6.606696e-002 2.382252e-002 2.777711e-003 -5.168585e-002 8.361020e-002 7.383020e-002 -2.489959e-002 -5.938728e-002
<VARIANCE> 39
 1.852556e+001 2.696477e+001 1.993295e+001 2.350356e+001 7.588471e+001 3.957043e+001 4.791559e+001 3.316072e+001 4.974539e+001 2.527063e+001 4.384757e+001 4.975616e+001 2.145954e+001 4.245728e-001 7.350900e-001 6.802900e-001 8.460566e-001 1.342103e+000 1.618068e+000 1.619243e+000 3.389082e+000 3.368077e+000 1.622096e+000 1.941171e+000 1.215285e+000 5.513518e-001 7.284382e-002 1.492664e-001 9.762139e-002 1.684727e-001 2.528265e-001 2.987544e-001 3.411574e-001 5.589424e-001 6.753398e-001 2.889693e-001 3.218644e-001 2.438264e-001 5.813998e-002
<GCONST> 1.001380e+002
<TRANSP> 5
 0.000000e+000 1.000000e+000 0.000000e+000 0.000000e+000 0.000000e+000
 0.000000e+000 9.140843e-001 8.591571e-002 0.000000e+000 0.000000e+000
 0.000000e+000 0.000000e+000 8.898620e-001 1.101380e-001 0.000000e+000
 0.000000e+000 0.000000e+000 0.000000e+000 8.816851e-001 1.183149e-001
 0.000000e+000 0.000000e+000 0.000000e+000 0.000000e+000 0.000000e+000
<ENDHMM>
~h "ea"
<BEGINHMM>
<NUMSTATES> 5
<STATE> 2
<MEAN> 39
 -5.153443e+000 1.887341e+000 -3.998059e-001 -4.719388e+000 -1.027645e+001 -8.377604e+000 -1.314454e+000 -4.294622e+000 -2.598214e+000 -1.637859e+000 -2.417927e+000 -3.007498e-001 6.395220e+001 2.656938e-002 2.103826e-002 1.670751e-002 2.097466e-003 -4.075075e-002 -6.993482e-002 -7.360970e-003 -1.582084e-002 -2.291133e-002 -1.948875e-002 -7.798372e-003 -1.589407e-002 -1.794146e-002 -6.101388e-003 4.534691e-003 -4.683285e-003 2.991999e-003 1.307896e-002 1.532247e-002 4.297304e-003 2.199038e-003 5.607250e-003 8.410532e-003 3.306764e-003 1.353030e-003 -2.459256e-002
<VARIANCE> 39
 3.876240e+001 5.593195e+001 6.909898e+001 8.084949e+001 8.242165e+001 1.017876e+002 5.764616e+001 6.496631e+001 6.744147e+001 4.920574e+001 3.916745e+001 3.616992e+001 8.957718e+001 1.350502e+000 1.888252e+000 1.699849e+000 2.401277e+000 2.816806e+000 2.814739e+000 2.621114e+000 2.615768e+000 2.810299e+000 2.549241e+000 2.217089e+000 1.828917e+000 2.527436e+000 1.981723e-001 2.897191e-001 2.501056e-001 3.312125e-001 4.046271e-001 4.166303e-001 4.473993e-001 4.295296e-001 4.660336e-001 4.356595e-001 3.927584e-001 3.259792e-001 2.569831e-001
<GCONST> 1.219561e+002
<STATE> 3
<MEAN> 39
 -5.153443e+000 1.887341e+000 -3.998059e-001 -4.719388e+000 -1.027645e+001 -8.377604e+000 -1.314454e+000 -4.294622e+000 -2.598214e+000 -1.637859e+000 -2.417927e+000 -3.007498e-001 6.395220e+001 2.656938e-002 2.103826e-002 1.670751e-002 2.097466e-003 -4.075075e-002 -6.993482e-002 -7.360970e-003 -1.582084e-002 -2.291133e-002 -1.948875e-002 -7.798372e-003 -1.589407e-002 -1.794146e-002 -6.101388e-003 4.534691e-003 -4.683285e-003 2.991999e-003 1.307896e-002 1.532247e-002 4.297304e-003 2.199038e-003 5.607250e-003 8.410532e-003 3.306764e-003 1.353030e-003 -2.459256e-002
<VARIANCE> 39
 3.876240e+001 5.593195e+001 6.909898e+001 8.084949e+001 8.242165e+001 1.017876e+002 5.764616e+001 6.496631e+001 6.744147e+001 4.920574e+001 3.916745e+001 3.616992e+001 8.957718e+001 1.350502e+000 1.888252e+000 1.699849e+000 2.401277e+000 2.816806e+000 2.814739e+000 2.621114e+000 2.615768e+000 2.810299e+000 2.549241e+000 2.217089e+000 1.828917e+000 2.527436e+000 1.981723e-001 2.897191e-001 2.501056e-001 3.312125e-001 4.046271e-001 4.166303e-001 4.473993e-001 4.295296e-001 4.660336e-001 4.356595e-001 3.927584e-001 3.259792e-001 2.569831e-001
<GCONST> 1.219561e+002
<STATE> 4
<MEAN> 39
 -5.153443e+000 1.887341e+000 -3.998059e-001 -4.719388e+000 -1.027645e+001 -8.377604e+000 -1.314454e+000 -4.294622e+000 -2.598214e+000 -1.637859e+000 -2.417927e+000 -3.007498e-001 6.395220e+001 2.656938e-002 2.103826e-002 1.670751e-002 2.097466e-003 -4.075075e-002 -6.993482e-002 -7.360970e-003 -1.582084e-002 -2.291133e-002 -1.948875e-002 -7.798372e-003 -1.589407e-002 -1.794146e-002 -6.101388e-003 4.534691e-003 -4.683285e-003 2.991999e-003 1.307896e-002 1.532247e-002 4.297304e-003 2.199038e-003 5.607250e-003 8.410532e-003 3.306764e-003 1.353030e-003 -2.459256e-002
<VARIANCE> 39
 3.876240e+001 5.593195e+001 6.909898e+001 8.084949e+001 8.242165e+001 1.017876e+002 5.764616e+001 6.496631e+001 6.744147e+001 4.920574e+001 3.916745e+001 3.616992e+001 8.957718e+001 1.350502e+000 1.888252e+000 1.699849e+000 2.401277e+000 2.816806e+000 2.814739e+000 2.621114e+000 2.615768e+000 2.810299e+000 2.549241e+000 2.217089e+000 1.828917e+000 2.527436e+000 1.981723e-001 2.897191e-001 2.501056e-001 3.312125e-001 4.046271e-001 4.166303e-001 4.473993e-001 4.295296e-001 4.660336e-001 4.356595e-001 3.927584e-001 3.259792e-001 2.569831e-001
<GCONST> 1.219561e+002
<TRANSP> 5
 0.000000e+000 1.000000e+000 0.000000e+000 0.000000e+000 0.000000e+000
 0.000000e+000 6.000000e-001 4.000000e-001 0.000000e+000 0.000000e+000
 0.000000e+000 0.000000e+000 6.000000e-001 4.000000e-001 0.000000e+000
 0.000000e+000 0.000000e+000 0.000000e+000 7.000000e-001 3.000000e-001
 0.000000e+000 0.000000e+000 0.000000e+000 0.000000e+000 0.000000e+000
<ENDHMM>
~h "ei"
<BEGINHMM>
<NUMSTATES> 5
<STATE> 2
<MEAN> 39
 -3.897181e+000 -4.087209e+000 5.246485e+000 -1.420616e+000 -1.607028e+001 -2.443498e+001 -7.186730e+000 -4.302969e+000 -2.279673e+000 -2.642538e+000 -1.344261e+000 3.023739e+000 7.470277e+001 -2.892791e-002 2.926267e-001 5.667458e-001 2.941494e-001 -2.384747e-001 -2.543057e-001 2.376629e-001 -3.997725e-001 -8.863670e-001 -4.430538e-001 1.066413e-001 1.419462e-001 -2.545316e-001 -9.832595e-003 9.738234e-002 -1.851801e-002 5.498641e-002 4.937454e-002 1.055653e-001 -2.476365e-002 -4.386136e-002 -6.895310e-002 -2.652941e-002 -3.220409e-002 -6.551742e-002 -7.395346e-002
<VARIANCE> 39
 4.144728e+000 3.333097e+001 2.427633e+001 2.875713e+001 5.806203e+001 4.333508e+001 2.331146e+001 3.770974e+001 5.375602e+001 2.388533e+001 2.265690e+001 1.848776e+001 1.183577e+001 1.470228e-001 3.341637e-001 6.819811e-001 7.715986e-001 7.790486e-001 1.356060e+000 9.999338e-001 1.467519e+000 8.328648e-001 1.490652e+000 1.065289e+000 9.856510e-001 2.306559e-001 2.078543e-002 6.397285e-002 1.230884e-001 1.136288e-001 1.276822e-001 1.662179e-001 1.999341e-001 2.244375e-001 1.405346e-001 2.437900e-001 1.912320e-001 2.036787e-001 3.064795e-002
<GCONST> 8.105757e+001
<STATE> 3
<MEAN> 39
 -5.297506e+000 7.886826e-001 1.015763e+001 1.531302e+000 -1.823873e+001 -2.186735e+001 -3.507999e+000 -7.261943e+000 -1.039966e+001 -6.289606e+000 -2.402423e+000 1.026857e+000 6.927306e+001 -1.814662e-001 7.236875e-001 3.392220e-001 1.338436e-001 2.825922e-001 3.627185e-001 3.412866e-001 -1.002076e-001 -4.277695e-001 -1.500234e-001 -3.404965e-001 -5.262487e-001 -7.717615e-001 -3.459333e-002 -2.436253e-002 -1.887778e-003 -3.499383e-003 8.475661e-002 1.109823e-001 -5.957657e-002 -2.313332e-002 6.634095e-002 3.457078e-002 -2.892664e-003 1.506126e-002 -2.270707e-002
<VARIANCE> 39
 2.382025e+000 1.903492e+001 1.891566e+001 2.005846e+001 7.569498e+001 3.304722e+001 1.332476e+001 4.232592e+001 6.896590e+001 3.751005e+001 4.142515e+001 3.304303e+001 1.090110e+001 1.399193e-001 4.158227e-001 7.522650e-001 1.064669e+000 1.381421e+000 1.045873e+000 1.020770e+000 1.437419e+000 8.663399e-001 8.761066e-001 8.261275e-001 1.086185e+000 1.702046e-001 2.423299e-002 5.012925e-002 1.196322e-001 1.753859e-001 2.368494e-001 2.114348e-001 2.074215e-001 3.079595e-001 1.608422e-001 1.822843e-001 1.909165e-001 1.681418e-001 1.545312e-002
<GCONST> 8.112827e+001
<STATE> 4
<MEAN> 39
 -9.327176e+000 7.522733e+000 1.271255e+001 4.357497e+000 -1.357374e+001 -1.237885e+001 -9.592373e-001 -9.950112e+000 -8.427649e+000 -6.418931e+000 -3.117011e+000 -7.854027e-001 5.979141e+001 -3.179963e-001 -2.289328e-001 -6.953828e-001 -2.989637e-002 1.021902e+000 9.584525e-001 2.604260e-001 1.257511e-001 -1.058818e-002 4.863291e-001 1.006660e-001 -1.521516e-001 -1.100503e+000 7.602184e-004 -1.330324e-001 -1.928415e-001 -9.809928e-002 5.847459e-002 9.676324e-003 3.963361e-002 1.771299e-001 1.313498e-001 1.103841e-001 5.527550e-002 3.345670e-002 -8.865338e-003
<VARIANCE> 39
 1.118510e+001 3.388794e+001 4.210025e+001 1.489512e+001 1.047500e+002 3.681740e+001 3.510456e+001 3.912302e+001 4.823701e+001 3.389524e+001 2.376016e+001 4.279730e+001 2.809819e+001 2.908379e-001 9.204869e-001 1.245579e+000 9.114296e-001 1.749802e+000 1.827917e+000 2.009467e+000 2.481561e+000 2.357089e+000 2.006368e+000 1.779398e+000 1.246969e+000 3.011262e-001 5.446155e-002 1.364411e-001 1.258329e-001 1.468657e-001 2.675481e-001 3.879210e-001 4.165189e-001 3.201449e-001 3.567641e-001 3.300962e-001 2.572431e-001 2.444745e-001 4.743801e-002
<GCONST> 9.879996e+001
<TRANSP> 5
 0.000000e+000 1.000000e+000 0.000000e+000 0.000000e+000 0.000000e+000
 0.000000e+000 8.753489e-001 1.246511e-001 0.000000e+000 0.000000e+000
 0.000000e+000 0.000000e+000 8.891428e-001 1.108572e-001 0.000000e+000
 0.000000e+000 0.000000e+000 0.000000e+000 9.076816e-001 9.231840e-002
 0.000000e+000 0.000000e+000 0.000000e+000 0.000000e+000 0.000000e+000
<ENDHMM>
~h "eo"
<BEGINHMM>
<NUMSTATES> 5
<STATE> 2
<MEAN> 39
 -5.153443e+000 1.887341e+000 -3.998059e-001 -4.719388e+000 -1.027645e+001 -8.377604e+000 -1.314454e+000 -4.294622e+000 -2.598214e+000 -1.637859e+000 -2.417927e+000 -3.007498e-001 6.395220e+001 2.656938e-002 2.103826e-002 1.670751e-002 2.097466e-003 -4.075075e-002 -6.993482e-002 -7.360970e-003 -1.582084e-002 -2.291133e-002 -1.948875e-002 -7.798372e-003 -1.589407e-002 -1.794146e-002 -6.101388e-003 4.534691e-003 -4.683285e-003 2.991999e-003 1.307896e-002 1.532247e-002 4.297304e-003 2.199038e-003 5.607250e-003 8.410532e-003 3.306764e-003 1.353030e-003 -2.459256e-002
<VARIANCE> 39
 3.876240e+001 5.593195e+001 6.909898e+001 8.084949e+001 8.242165e+001 1.017876e+002 5.764616e+001 6.496631e+001 6.744147e+001 4.920574e+001 3.916745e+001 3.616992e+001 8.957718e+001 1.350502e+000 1.888252e+000 1.699849e+000 2.401277e+000 2.816806e+000 2.814739e+000 2.621114e+000 2.615768e+000 2.810299e+000 2.549241e+000 2.217089e+000 1.828917e+000 2.527436e+000 1.981723e-001 2.897191e-001 2.501056e-001 3.312125e-001 4.046271e-001 4.166303e-001 4.473993e-001 4.295296e-001 4.660336e-001 4.356595e-001 3.927584e-001 3.259792e-001 2.569831e-001
<GCONST> 1.219561e+002
<STATE> 3
<MEAN> 39
 -5.153443e+000 1.887341e+000 -3.998059e-001 -4.719388e+000 -1.027645e+001 -8.377604e+000 -1.314454e+000 -4.294622e+000 -2.598214e+000 -1.637859e+000 -2.417927e+000 -3.007498e-001 6.395220e+001 2.656938e-002 2.103826e-002 1.670751e-002 2.097466e-003 -4.075075e-002 -6.993482e-002 -7.360970e-003 -1.582084e-002 -2.291133e-002 -1.948875e-002 -7.798372e-003 -1.589407e-002 -1.794146e-002 -6.101388e-003 4.534691e-003 -4.683285e-003 2.991999e-003 1.307896e-002 1.532247e-002 4.297304e-003 2.199038e-003 5.607250e-003 8.410532e-003 3.306764e-003 1.353030e-003 -2.459256e-002
<VARIANCE> 39
 3.876240e+001 5.593195e+001 6.909898e+001 8.084949e+001 8.242165e+001 1.017876e+002 5.764616e+001 6.496631e+001 6.744147e+001 4.920574e+001 3.916745e+001 3.616992e+001 8.957718e+001 1.350502e+000 1.888252e+000 1.699849e+000 2.401277e+000 2.816806e+000 2.814739e+000 2.621114e+000 2.615768e+000 2.810299e+000 2.549241e+000 2.217089e+000 1.828917e+000 2.527436e+000 1.981723e-001 2.897191e-001 2.501056e-001 3.312125e-001 4.046271e-001 4.166303e-001 4.473993e-001 4.295296e-001 4.660336e-001 4.356595e-001 3.927584e-001 3.259792e-001 2.569831e-001
<GCONST> 1.219561e+002
<STATE> 4
<MEAN> 39
 -5.153443e+000 1.887341e+000 -3.998059e-001 -4.719388e+000 -1.027645e+001 -8.377604e+000 -1.314454e+000 -4.294622e+000 -2.598214e+000 -1.637859e+000 -2.417927e+000 -3.007498e-001 6.395220e+001 2.656938e-002 2.103826e-002 1.670751e-002 2.097466e-003 -4.075075e-002 -6.993482e-002 -7.360970e-003 -1.582084e-002 -2.291133e-002 -1.948875e-002 -7.798372e-003 -1.589407e-002 -1.794146e-002 -6.101388e-003 4.534691e-003 -4.683285e-003 2.991999e-003 1.307896e-002 1.532247e-002 4.297304e-003 2.199038e-003 5.607250e-003 8.410532e-003 3.306764e-003 1.353030e-003 -2.459256e-002
<VARIANCE> 39
 3.876240e+001 5.593195e+001 6.909898e+001 8.084949e+001 8.242165e+001 1.017876e+002 5.764616e+001 6.496631e+001 6.744147e+001 4.920574e+001 3.916745e+001 3.616992e+001 8.957718e+001 1.350502e+000 1.888252e+000 1.699849e+000 2.401277e+000 2.816806e+000 2.814739e+000 2.621114e+000 2.615768e+000 2.810299e+000 2.549241e+000 2.217089e+000 1.828917e+000 2.527436e+000 1.981723e-001 2.897191e-001 2.501056e-001 3.312125e-001 4.046271e-001 4.166303e-001 4.473993e-001 4.295296e-001 4.660336e-001 4.356595e-001 3.927584e-001 3.259792e-001 2.569831e-001
<GCONST> 1.219561e+002
<TRANSP> 5
 0.000000e+000 1.000000e+000 0.000000e+000 0.000000e+000 0.000000e+000
 0.000000e+000 6.000000e-001 4.000000e-001 0.000000e+000 0.000000e+000
 0.000000e+000 0.000000e+000 6.000000e-001 4.000000e-001 0.000000e+000
 0.000000e+000 0.000000e+000 0.000000e+000 7.000000e-001 3.000000e-001
 0.000000e+000 0.000000e+000 0.000000e+000 0.000000e+000 0.000000e+000
<ENDHMM>
~h "eu"
<BEGINHMM>
<NUMSTATES> 5
<STATE> 2
<MEAN> 39
 -5.153443e+000 1.887341e+000 -3.998059e-001 -4.719388e+000 -1.027645e+001 -8.377604e+000 -1.314454e+000 -4.294622e+000 -2.598214e+000 -1.637859e+000 -2.417927e+000 -3.007498e-001 6.395220e+001 2.656938e-002 2.103826e-002 1.670751e-002 2.097466e-003 -4.075075e-002 -6.993482e-002 -7.360970e-003 -1.582084e-002 -2.291133e-002 -1.948875e-002 -7.798372e-003 -1.589407e-002 -1.794146e-002 -6.101388e-003 4.534691e-003 -4.683285e-003 2.991999e-003 1.307896e-002 1.532247e-002 4.297304e-003 2.199038e-003 5.607250e-003 8.410532e-003 3.306764e-003 1.353030e-003 -2.459256e-002
<VARIANCE> 39
 3.876240e+001 5.593195e+001 6.909898e+001 8.084949e+001 8.242165e+001 1.017876e+002 5.764616e+001 6.496631e+001 6.744147e+001 4.920574e+001 3.916745e+001 3.616992e+001 8.957718e+001 1.350502e+000 1.888252e+000 1.699849e+000 2.401277e+000 2.816806e+000 2.814739e+000 2.621114e+000 2.615768e+000 2.810299e+000 2.549241e+000 2.217089e+000 1.828917e+000 2.527436e+000 1.981723e-001 2.897191e-001 2.501056e-001 3.312125e-001 4.046271e-001 4.166303e-001 4.473993e-001 4.295296e-001 4.660336e-001 4.356595e-001 3.927584e-001 3.259792e-001 2.569831e-001
<GCONST> 1.219561e+002
<STATE> 3
<MEAN> 39
 -5.153443e+000 1.887341e+000 -3.998059e-001 -4.719388e+000 -1.027645e+001 -8.377604e+000 -1.314454e+000 -4.294622e+000 -2.598214e+000 -1.637859e+000 -2.417927e+000 -3.007498e-001 6.395220e+001 2.656938e-002 2.103826e-002 1.670751e-002 2.097466e-003 -4.075075e-002 -6.993482e-002 -7.360970e-003 -1.582084e-002 -2.291133e-002 -1.948875e-002 -7.798372e-003 -1.589407e-002 -1.794146e-002 -6.101388e-003 4.534691e-003 -4.683285e-003 2.991999e-003 1.307896e-002 1.532247e-002 4.297304e-003 2.199038e-003 5.607250e-003 8.410532e-003 3.306764e-003 1.353030e-003 -2.459256e-002
<VARIANCE> 39
 3.876240e+001 5.593195e+001 6.909898e+001 8.084949e+001 8.242165e+001 1.017876e+002 5.764616e+001 6.496631e+001 6.744147e+001 4.920574e+001 3.916745e+001 3.616992e+001 8.957718e+001 1.350502e+000 1.888252e+000 1.699849e+000 2.401277e+000 2.816806e+000 2.814739e+000 2.621114e+000 2.615768e+000 2.810299e+000 2.549241e+000 2.217089e+000 1.828917e+000 2.527436e+000 1.981723e-001 2.897191e-001 2.501056e-001 3.312125e-001 4.046271e-001 4.166303e-001 4.473993e-001 4.295296e-001 4.660336e-001 4.356595e-001 3.927584e-001 3.259792e-001 2.569831e-001
<GCONST> 1.219561e+002
<STATE> 4
<MEAN> 39
 -5.153443e+000 1.887341e+000 -3.998059e-001 -4.719388e+000 -1.027645e+001 -8.377604e+000 -1.314454e+000 -4.294622e+000 -2.598214e+000 -1.637859e+000 -2.417927e+000 -3.007498e-001 6.395220e+001 2.656938e-002 2.103826e-002 1.670751e-002 2.097466e-003 -4.075075e-002 -6.993482e-002 -7.360970e-003 -1.582084e-002 -2.291133e-002 -1.948875e-002 -7.798372e-003 -1.589407e-002 -1.794146e-002 -6.101388e-003 4.534691e-003 -4.683285e-003 2.991999e-003 1.307896e-002 1.532247e-002 4.297304e-003 2.199038e-003 5.607250e-003 8.410532e-003 3.306764e-003 1.353030e-003 -2.459256e-002
<VARIANCE> 39
 3.876240e+001 5.593195e+001 6.909898e+001 8.084949e+001 8.242165e+001 1.017876e+002 5.764616e+001 6.496631e+001 6.744147e+001 4.920574e+001 3.916745e+001 3.616992e+001 8.957718e+001 1.350502e+000 1.888252e+000 1.699849e+000 2.401277e+000 2.816806e+000 2.814739e+000 2.621114e+000 2.615768e+000 2.810299e+000 2.549241e+000 2.217089e+000 1.828917e+000 2.527436e+000 1.981723e-001 2.897191e-001 2.501056e-001 3.312125e-001 4.046271e-001 4.166303e-001 4.473993e-001 4.295296e-001 4.660336e-001 4.356595e-001 3.927584e-001 3.259792e-001 2.569831e-001
<GCONST> 1.219561e+002
<TRANSP> 5
 0.000000e+000 1.000000e+000 0.000000e+000 0.000000e+000 0.000000e+000
 0.000000e+000 6.000000e-001 4.000000e-001 0.000000e+000 0.000000e+000
 0.000000e+000 0.000000e+000 6.000000e-001 4.000000e-001 0.000000e+000
 0.000000e+000 0.000000e+000 0.000000e+000 7.000000e-001 3.000000e-001
 0.000000e+000 0.000000e+000 0.000000e+000 0.000000e+000 0.000000e+000
<ENDHMM>
~h "i:"
<BEGINHMM>
<NUMSTATES> 5
<STATE> 2
<MEAN> 39
