~o
<STREAMINFO> 1 39
<VECSIZE> 39<NULLD><MFCC_D_A_0><DIAGC>
~h "N"
<BEGINHMM>
<NUMSTATES> 5
<STATE> 2
<MEAN> 39
 -2.798081e+000 1.015603e+000 -2.737489e+000 -6.760623e+000 -9.013508e+000 -7.721240e+000 -2.340556e+000 -5.791430e+000 -3.008503e+000 -2.842516e+000 -2.408931e+000 -3.042888e+000 6.712006e+001 1.816639e-002 7.030336e-003 1.035966e-002 1.197295e-002 -3.030741e-002 -3.000990e-002 -1.121263e-002 -1.918899e-002 -8.024712e-003 -9.913054e-003 -2.549139e-003 -2.114425e-003 5.405467e-003 -4.415081e-003 1.196028e-002 1.510665e-003 1.035524e-002 1.260583e-002 1.132140e-002 1.643880e-003 5.128350e-003 4.624746e-003 4.331185e-003 1.837649e-003 5.600615e-003 -3.189945e-002
<VARIANCE> 39
 3.428817e+001 4.836518e+001 6.373507e+001 6.480933e+001 7.744907e+001 9.549992e+001 5.887634e+001 5.563300e+001 4.740282e+001 3.601039e+001 3.689566e+001 3.421291e+001 5.592876e+001 1.284020e+000 1.579060e+000 1.448692e+000 1.879212e+000 2.206893e+000 2.620023e+000 2.072583e+000 2.299653e+000 2.249433e+000 1.916542e+000 1.814010e+000 1.601416e+000 1.662629e+000 1.691740e-001 2.286167e-001 1.968112e-001 2.685542e-001 3.292408e-001 3.721457e-001 3.482843e-001 3.651308e-001 3.816728e-001 3.350308e-001 3.148932e-001 2.783629e-001 1.694588e-001
<GCONST> 1.144672e+002
<STATE> 3
<MEAN> 39
 -2.798081e+000 1.015603e+000 -2.737489e+000 -6.760623e+000 -9.013508e+000 -7.721240e+000 -2.340556e+000 -5.791430e+000 -3.008503e+000 -2.842516e+000 -2.408931e+000 -3.042888e+000 6.712006e+001 1.816639e-002 7.030336e-003 1.035966e-002 1.197295e-002 -3.030741e-002 -3.000990e-002 -1.121263e-002 -1.918899e-002 -8.024712e-003 -9.913054e-003 -2.549139e-003 -2.114425e-003 5.405467e-003 -4.415081e-003 1.196028e-002 1.510665e-003 1.035524e-002 1.260583e-002 1.132140e-002 1.643880e-003 5.128350e-003 4.624746e-003 4.331185e-003 1.837649e-003 5.600615e-003 -3.189945e-002
<VARIANCE> 39
 3.428817e+001 4.836518e+001 6.373507e+001 6.480933e+001 7.744907e+001 9.549992e+001 5.887634e+001 5.563300e+001 4.740282e+001 3.601039e+001 3.689566e+001 3.421291e+001 5.592876e+001 1.284020e+000 1.579060e+000 1.448692e+000 1.879212e+000 2.206893e+000 2.620023e+000 2.072583e+000 2.299653e+000 2.249433e+000 1.916542e+000 1.814010e+000 1.601416e+000 1.662629e+000 1.691740e-001 2.286167e-001 1.968112e-001 2.685542e-001 3.292408e-001 3.721457e-001 3.482843e-001 3.651308e-001 3.816728e-001 3.350308e-001 3.148932e-001 2.783629e-001 1.694588e-001
<GCONST> 1.144672e+002
<STATE> 4
<MEAN> 39
 -2.798081e+000 1.015603e+000 -2.737489e+000 -6.760623e+000 -9.013508e+000 -7.721240e+000 -2.340556e+000 -5.791430e+000 -3.008503e+000 -2.842516e+000 -2.408931e+000 -3.042888e+000 6.712006e+001 1.816639e-002 7.030336e-003 1.035966e-002 1.197295e-002 -3.030741e-002 -3.000990e-002 -1.121263e-002 -1.918899e-002 -8.024712e-003 -9.913054e-003 -2.549139e-003 -2.114425e-003 5.405467e-003 -4.415081e-003 1.196028e-002 1.510665e-003 1.035524e-002 1.260583e-002 1.132140e-002 1.643880e-003 5.128350e-003 4.624746e-003 4.331185e-003 1.837649e-003 5.600615e-003 -3.189945e-002
<VARIANCE> 39
 3.428817e+001 4.836518e+001 6.373507e+001 6.480933e+001 7.744907e+001 9.549992e+001 5.887634e+001 5.563300e+001 4.740282e+001 3.601039e+001 3.689566e+001 3.421291e+001 5.592876e+001 1.284020e+000 1.579060e+000 1.448692e+000 1.879212e+000 2.206893e+000 2.620023e+000 2.072583e+000 2.299653e+000 2.249433e+000 1.916542e+000 1.814010e+000 1.601416e+000 1.662629e+000 1.691740e-001 2.286167e-001 1.968112e-001 2.685542e-001 3.292408e-001 3.721457e-001 3.482843e-001 3.651308e-001 3.816728e-001 3.350308e-001 3.148932e-001 2.783629e-001 1.694588e-001
<GCONST> 1.144672e+002
<TRANSP> 5
 0.000000e+000 1.000000e+000 0.000000e+000 0.000000e+000 0.000000e+000
 0.000000e+000 6.000000e-001 4.000000e-001 0.000000e+000 0.000000e+000
 0.000000e+000 0.000000e+000 6.000000e-001 4.000000e-001 0.000000e+000
 0.000000e+000 0.000000e+000 0.000000e+000 7.000000e-001 3.000000e-001
 0.000000e+000 0.000000e+000 0.000000e+000 0.000000e+000 0.000000e+000
<ENDHMM>
~h "a"
<BEGINHMM>
<NUMSTATES> 5
<STATE> 2
<MEAN> 39
 5.828472e-001 -4.712706e+000 -1.035306e+001 -1.038657e+001 -4.525093e+000 -4.169605e+000 -1.991374e-001 -7.262554e+000 3.712361e+000 3.189211e+000 -9.071450e+000 -8.952332e+000 7.341222e+001 -5.440828e-001 8.689262e-001 9.763675e-001 1.367628e+000 4.071067e-001 -1.133673e+000 -8.849333e-001 1.191838e+000 7.923771e-001 3.770642e-001 1.201447e+000 -7.560048e-002 -1.279842e+000 -2.266374e-001 5.445861e-001 3.237548e-001 8.977459e-002 1.659342e-001 1.723413e-001 -1.798934e-001 8.056392e-002 -5.223698e-001 -4.057030e-001 3.816186e-001 9.702266e-002 -7.494823e-001
<VARIANCE> 39
 6.069319e+000 2.022660e+001 2.669443e+001 3.944289e+001 3.994769e+001 4.235471e+001 5.552598e+001 2.860721e+001 2.805550e+001 1.467196e+001 3.265493e+001 3.211433e+001 2.202417e+001 7.617486e-001 2.232982e+000 1.166149e+000 1.986043e+000 1.550525e+000 2.247388e+000 4.060266e+000 2.457694e+000 4.302034e+000 1.907694e+000 2.596174e+000 2.641165e+000 2.244713e+000 1.480822e-001 6.531827e-001 4.869486e-001 6.283430e-001 2.456090e-001 4.443164e-001 1.032126e+000 6.175955e-001 8.255348e-001 4.783393e-001 5.031414e-001 4.243714e-001 2.715615e-001
<GCONST> 1.141147e+002
<STATE> 3
<MEAN> 39
 -3.486392e+000 -4.767157e-001 -6.919664e+000 -6.780212e+000 -1.696908e+000 -5.008141e+000 -2.129450e+000 -3.659006e+000 2.565283e+000 2.036665e+000 -4.219670e+000 -8.751823e+000 6.511017e+001 -1.000263e+000 3.789650e-001 4.304087e-001 3.323045e-001 2.096924e-001 1.734916e-001 -1.139421e-001 6.779181e-001 -5.465717e-001 -3.145375e-001 8.657176e-001 5.178803e-001 -1.842366e+000 9.864786e-003 -1.940071e-001 -2.150450e-001 -2.113425e-001 -1.445255e-001 1.945985e-001 9.756944e-002 -1.317135e-001 -3.291698e-002 7.801801e-003 -1.998635e-001 1.610532e-001 2.030638e-001
<VARIANCE> 39
 9.554292e+000 1.537311e+001 1.913724e+001 1.521366e+001 1.650042e+001 3.195145e+001 3.046893e+001 2.068086e+001 2.960051e+001 1.853313e+001 2.575431e+001 2.449186e+001 2.491988e+001 8.319090e-001 1.664218e+000 1.501920e+000 1.377225e+000 1.403948e+000 2.435499e+000 3.053489e+000 2.290494e+000 2.748890e+000 1.367371e+000 1.585189e+000 1.460968e+000 8.531069e-001 1.546145e-001 3.502700e-001 2.446166e-001 2.060371e-001 2.547614e-001 3.848825e-001 6.795390e-001 5.336456e-001 7.280209e-001 2.581892e-001 2.595778e-001 2.810664e-001 1.899322e-001
<GCONST> 1.020651e+002
<STATE> 4
<MEAN> 39
 -9.646283e+000 8.975143e-001 -6.243240e+000 -5.770672e+000 -2.084563e+000 -2.750380e+000 -1.209615e+000 -2.403100e+000 1.259697e+000 1.079442e+000 -1.955505e+000 -3.462344e+000 6.042050e+001 -7.388814e-001 1.616709e-001 3.620089e-001 -3.321614e-002 2.214793e-002 1.230895e-001 4.567883e-002 6.787177e-002 -1.612768e-001 -2.818129e-001 3.219311e-001 5.246449e-001 -1.984826e-001 5.147409e-002 -5.535097e-002 5.067383e-002 -8.595348e-002 -7.329950e-002 -1.259028e-001 -2.451772e-002 -7.852640e-002 -4.660729e-002 -2.012176e-002 -7.794495e-003 -4.360148e-002 2.963740e-001
<VARIANCE> 39
 2.507000e+001 9.514277e+000 1.965135e+001 1.130028e+001 7.518353e+000 1.997952e+001 2.112531e+001 1.726311e+001 2.156334e+001 1.965261e+001 1.135985e+001 1.894582e+001 3.509649e+001 1.440115e+000 1.575451e+000 1.988943e+000 1.240788e+000 9.345304e-001 2.096412e+000 2.207145e+000 1.894672e+000 1.564158e+000 8.703712e-001 1.580660e+000 1.383788e+000 1.852805e+000 2.315801e-001 2.881761e-001 4.013914e-001 2.114472e-001 1.812393e-001 4.403180e-001 4.646727e-001 3.939302e-001 3.579179e-001 1.774922e-001 3.165657e-001 1.918924e-001 2.479974e-001
<GCONST> 9.762700e+001
<TRANSP> 5
 0.000000e+000 1.000000e+000 0.000000e+000 0.000000e+000 0.000000e+000
 0.000000e+000 7.115341e-001 2.884659e-001 0.000000e+000 0.000000e+000
 0.000000e+000 0.000000e+000 7.392226e-001 2.607774e-001 0.000000e+000
 0.000000e+000 0.000000e+000 0.000000e+000 8.740946e-001 1.259054e-001
 0.000000e+000 0.000000e+000 0.000000e+000 0.000000e+000 0.000000e+000
<ENDHMM>
~h "e"
<BEGINHMM>
<NUMSTATES> 5
<STATE> 2
<MEAN> 39
 -3.879645e+000 2.414295e+000 1.843754e+000 -8.887499e-003 -1.210997e+001 -1.366308e+001 -3.257397e+000 -3.529043e+000 -5.002384e+000 -3.636008e+000 -1.959333e-001 -1.642914e+000 6.471870e+001 -4.106115e-001 -1.643306e-001 2.190131e-001 3.807295e-001 9.747575e-002 4.112211e-001 7.442261e-001 4.069647e-001 4.480990e-001 1.099877e-001 -5.964403e-002 1.988038e-001 -2.841346e-001 -3.502137e-002 -5.840708e-002 -8.487773e-002 -1.602104e-001 8.590714e-002 3.027393e-001 7.391173e-002 8.000297e-003 1.140756e-001 3.809181e-002 6.516236e-002 -4.345786e-003 3.047721e-002
<VARIANCE> 39
 2.372280e+001 2.550605e+001 2.795254e+001 3.815193e+001 3.784365e+001 4.618555e+001 4.145614e+001 3.367999e+001 2.690446e+001 3.482250e+001 3.595393e+001 2.916767e+001 3.614366e+001 1.400579e+000 2.233975e+000 1.942549e+000 1.499521e+000 3.031120e+000 2.252345e+000 3.103025e+000 1.879207e+000 1.722278e+000 3.224129e+000 1.737728e+000 1.869770e+000 2.161654e+000 2.879758e-001 4.066205e-001 4.894431e-001 2.661013e-001 5.463970e-001 4.199868e-001 5.487183e-001 4.600166e-001 2.877023e-001 5.651286e-001 3.363530e-001 4.319018e-001 2.916586e-001
<GCONST> 1.146956e+002
<STATE> 3
<MEAN> 39
 -4.386899e+000 2.758219e+000 2.448938e+000 -2.827059e-001 -1.267076e+001 -1.335242e+001 -7.464164e-001 -3.481425e+000 -3.811875e+000 -2.547670e+000 6.615005e-001 -1.415734e+000 6.486366e+001 -4.302663e-001 -9.883081e-003 -6.146706e-003 1.758777e-001 3.651450e-001 1.089363e+000 6.364467e-001 2.098637e-001 3.908427e-001 1.985930e-001 1.020828e-001 -1.588617e-001 -5.563837e-001 -7.136668e-003 -8.378614e-002 -1.228208e-001 -9.441447e-002 1.440769e-001 2.010118e-001 -1.271226e-001 1.165776e-001 6.302280e-002 -9.870280e-002 -8.927866e-002 -6.061722e-002 -4.078271e-002
<VARIANCE> 39
 1.124482e+001 2.095341e+001 2.986599e+001 3.529991e+001 4.407346e+001 5.076685e+001 4.128544e+001 3.363879e+001 2.864864e+001 3.066965e+001 4.173886e+001 2.696359e+001 3.605162e+001 9.198141e-001 1.028728e+000 1.265348e+000 1.624357e+000 2.773034e+000 2.241146e+000 2.505563e+000 1.902400e+000 1.144125e+000 2.588734e+000 1.844117e+000 1.618656e+000 1.431291e+000 1.686269e-001 2.482601e-001 2.934291e-001 2.578349e-001 3.802671e-001 3.820350e-001 4.093214e-001 3.246186e-001 2.670404e-001 3.952454e-001 3.131754e-001 2.883631e-001 1.963329e-001
<GCONST> 1.070468e+002
<STATE> 4
<MEAN> 39
 -5.627741e+000 1.901563e+000 2.685493e+000 -6.063609e-001 -9.918253e+000 -8.282380e+000 1.727825e+000 -1.610618e+000 -1.329627e+000 -3.169249e+000 -4.838006e-001 -2.474980e+000 6.391848e+001 -3.421960e-001 -2.841277e-001 -2.591524e-001 -7.922335e-002 6.724038e-001 8.663418e-001 1.607402e-003 2.352338e-001 3.420049e-001 1.403903e-001 -7.093400e-002 1.540928e-001 -5.096828e-001 -3.037703e-003 -8.082692e-002 -6.153911e-002 -6.793848e-002 7.152161e-002 -1.158407e-001 -1.762151e-001 1.481343e-002 -2.869625e-002 -1.804182e-002 1.726917e-002 8.099105e-002 4.294345e-002
<VARIANCE> 39
 8.230990e+000 1.559600e+001 2.816187e+001 2.387447e+001 4.988946e+001 3.740951e+001 4.392797e+001 2.960613e+001 2.619184e+001 2.926981e+001 3.434976e+001 2.296212e+001 3.018721e+001 3.461048e-001 6.453878e-001 8.081137e-001 1.067199e+000 1.536858e+000 1.815732e+000 1.557390e+000 1.913454e+000 1.314774e+000 1.321401e+000 1.430712e+000 1.276196e+000 5.461028e-001 6.406663e-002 1.331348e-001 1.542903e-001 1.762083e-001 2.799849e-001 2.827564e-001 2.842868e-001 3.441734e-001 2.792537e-001 2.272855e-001 2.855965e-001 2.104376e-001 1.175798e-001
<GCONST> 9.454636e+001
<TRANSP> 5
 0.000000e+000 1.000000e+000 0.000000e+000 0.000000e+000 0.000000e+000
 0.000000e+000 5.060480e-001 4.939520e-001 0.000000e+000 0.000000e+000
 0.000000e+000 0.000000e+000 4.278566e-001 5.721435e-001 0.000000e+000
 0.000000e+000 0.000000e+000 0.000000e+000 8.187936e-001 1.812064e-001
 0.000000e+000 0.000000e+000 0.000000e+000 0.000000e+000 0.000000e+000
<ENDHMM>
~h "f"
<BEGINHMM>
<NUMSTATES> 5
<STATE> 2
<MEAN> 39
 -2.798081e+000 1.015603e+000 -2.737489e+000 -6.760623e+000 -9.013508e+000 -7.721240e+000 -2.340556e+000 -5.791430e+000 -3.008503e+000 -2.842516e+000 -2.408931e+000 -3.042888e+000 6.712006e+001 1.816639e-002 7.030336e-003 1.035966e-002 1.197295e-002 -3.030741e-002 -3.000990e-002 -1.121263e-002 -1.918899e-002 -8.024712e-003 -9.913054e-003 -2.549139e-003 -2.114425e-003 5.405467e-003 -4.415081e-003 1.196028e-002 1.510665e-003 1.035524e-002 1.260583e-002 1.132140e-002 1.643880e-003 5.128350e-003 4.624746e-003 4.331185e-003 1.837649e-003 5.600615e-003 -3.189945e-002
<VARIANCE> 39
 3.428817e+001 4.836518e+001 6.373507e+001 6.480933e+001 7.744907e+001 9.549992e+001 5.887634e+001 5.563300e+001 4.740282e+001 3.601039e+001 3.689566e+001 3.421291e+001 5.592876e+001 1.284020e+000 1.579060e+000 1.448692e+000 1.879212e+000 2.206893e+000 2.620023e+000 2.072583e+000 2.299653e+000 2.249433e+000 1.916542e+000 1.814010e+000 1.601416e+000 1.662629e+000 1.691740e-001 2.286167e-001 1.968112e-001 2.685542e-001 3.292408e-001 3.721457e-001 3.482843e-001 3.651308e-001 3.816728e-001 3.350308e-001 3.148932e-001 2.783629e-001 1.694588e-001
<GCONST> 1.144672e+002
<STATE> 3
<MEAN> 39
 -2.798081e+000 1.015603e+000 -2.737489e+000 -6.760623e+000 -9.013508e+000 -7.721240e+000 -2.340556e+000 -5.791430e+000 -3.008503e+000 -2.842516e+000 -2.408931e+000 -3.042888e+000 6.712006e+001 1.816639e-002 7.030336e-003 1.035966e-002 1.197295e-002 -3.030741e-002 -3.000990e-002 -1.121263e-002 -1.918899e-002 -8.024712e-003 -9.913054e-003 -2.549139e-003 -2.114425e-003 5.405467e-003 -4.415081e-003 1.196028e-002 1.510665e-003 1.035524e-002 1.260583e-002 1.132140e-002 1.643880e-003 5.128350e-003 4.624746e-003 4.331185e-003 1.837649e-003 5.600615e-003 -3.189945e-002
<VARIANCE> 39
 3.428817e+001 4.836518e+001 6.373507e+001 6.480933e+001 7.744907e+001 9.549992e+001 5.887634e+001 5.563300e+001 4.740282e+001 3.601039e+001 3.689566e+001 3.421291e+001 5.592876e+001 1.284020e+000 1.579060e+000 1.448692e+000 1.879212e+000 2.206893e+000 2.620023e+000 2.072583e+000 2.299653e+000 2.249433e+000 1.916542e+000 1.814010e+000 1.601416e+000 1.662629e+000 1.691740e-001 2.286167e-001 1.968112e-001 2.685542e-001 3.292408e-001 3.721457e-001 3.482843e-001 3.651308e-001 3.816728e-001 3.350308e-001 3.148932e-001 2.783629e-001 1.694588e-001
<GCONST> 1.144672e+002
<STATE> 4
<MEAN> 39
 -2.798081e+000 1.015603e+000 -2.737489e+000 -6.760623e+000 -9.013508e+000 -7.721240e+000 -2.340556e+000 -5.791430e+000 -3.008503e+000 -2.842516e+000 -2.408931e+000 -3.042888e+000 6.712006e+001 1.816639e-002 7.030336e-003 1.035966e-002 1.197295e-002 -3.030741e-002 -3.000990e-002 -1.121263e-002 -1.918899e-002 -8.024712e-003 -9.913054e-003 -2.549139e-003 -2.114425e-003 5.405467e-003 -4.415081e-003 1.196028e-002 1.510665e-003 1.035524e-002 1.260583e-002 1.132140e-002 1.643880e-003 5.128350e-003 4.624746e-003 4.331185e-003 1.837649e-003 5.600615e-003 -3.189945e-002
<VARIANCE> 39
 3.428817e+001 4.836518e+001 6.373507e+001 6.480933e+001 7.744907e+001 9.549992e+001 5.887634e+001 5.563300e+001 4.740282e+001 3.601039e+001 3.689566e+001 3.421291e+001 5.592876e+001 1.284020e+000 1.579060e+000 1.448692e+000 1.879212e+000 2.206893e+000 2.620023e+000 2.072583e+000 2.299653e+000 2.249433e+000 1.916542e+000 1.814010e+000 1.601416e+000 1.662629e+000 1.691740e-001 2.286167e-001 1.968112e-001 2.685542e-001 3.292408e-001 3.721457e-001 3.482843e-001 3.651308e-001 3.816728e-001 3.350308e-001 3.148932e-001 2.783629e-001 1.694588e-001
<GCONST> 1.144672e+002
<TRANSP> 5
 0.000000e+000 1.000000e+000 0.000000e+000 0.000000e+000 0.000000e+000
 0.000000e+000 6.000000e-001 4.000000e-001 0.000000e+000 0.000000e+000
 0.000000e+000 0.000000e+000 6.000000e-001 4.000000e-001 0.000000e+000
 0.000000e+000 0.000000e+000 0.000000e+000 7.000000e-001 3.000000e-001
 0.000000e+000 0.000000e+000 0.000000e+000 0.000000e+000 0.000000e+000
<ENDHMM>
~h "h"
<BEGINHMM>
<NUMSTATES> 5
<STATE> 2
<MEAN> 39
 -1.368830e+000 1.872232e-001 -7.440697e+000 -1.262266e+001 -1.165676e+001 -6.712283e+000 1.474000e+000 -5.558590e+000 -3.980014e+000 -4.673542e+000 -4.310956e+000 -3.532484e+000 7.045957e+001 1.155555e+000 1.647619e-001 4.003823e-001 -6.688277e-001 -1.510628e+000 -1.133089e+000 -1.093028e+000 -1.045318e+000 -5.469064e-001 3.454813e-002 2.010528e-001 -1.295660e-002 1.613842e+000 -2.474621e-001 -3.352188e-001 5.442175e-003 1.188026e-001 2.077503e-001 8.164404e-002 -1.270697e-001 1.369143e-001 1.828130e-001 2.241595e-001 2.815834e-001 1.423092e-001 -9.225395e-002
<VARIANCE> 39
 3.938000e+001 5.741431e+001 7.286105e+001 7.012342e+001 1.053088e+002 9.631028e+001 5.009695e+001 6.027592e+001 3.741248e+001 2.892977e+001 3.212082e+001 3.920414e+001 4.025082e+001 2.007921e+000 3.265693e+000 1.769952e+000 3.336539e+000 4.707732e+000 4.694039e+000 2.682207e+000 4.276528e+000 3.270074e+000 2.901696e+000 3.441051e+000 2.549116e+000 1.559950e+000 4.187877e-001 5.105217e-001 3.191586e-001 5.048844e-001 7.814855e-001 7.682636e-001 4.948699e-001 7.958021e-001 6.097764e-001 5.358530e-001 6.015795e-001 4.534107e-001 3.153192e-001
<GCONST> 1.286731e+002
<STATE> 3
<MEAN> 39
 5.479952e-001 -9.196421e-001 -4.298151e+000 -1.206563e+001 -1.536774e+001 -9.932964e+000 -3.544509e+000 -7.602480e+000 -4.966026e+000 -2.968256e+000 -2.153950e+000 -3.132845e+000 7.432686e+001 5.776868e-003 -3.548713e-001 5.960293e-001 2.987456e-002 -3.316056e-001 -7.120451e-001 -9.167832e-001 -2.356011e-001 -1.795022e-001 2.961921e-001 6.990917e-001 1.360416e-001 5.456201e-001 -2.412531e-001 1.023496e-001 3.721979e-002 2.294088e-001 2.778876e-001 1.261474e-001 2.069188e-001 2.238619e-001 1.244836e-001 -4.669200e-002 -4.615566e-002 -5.714048e-002 -4.006213e-001
<VARIANCE> 39
 2.276182e+001 3.674624e+001 8.523997e+001 7.645930e+001 5.876942e+001 1.124563e+002 5.111883e+001 6.204735e+001 4.682540e+001 3.002247e+001 3.472874e+001 5.481044e+001 2.463794e+001 4.715723e-001 1.400332e+000 1.520361e+000 2.130879e+000 2.404227e+000 2.933544e+000 3.289969e+000 2.982301e+000 2.322392e+000 2.919172e+000 2.372185e+000 1.935017e+000 6.248403e-001 1.443454e-001 2.333820e-001 2.385216e-001 3.755411e-001 5.785730e-001 5.759490e-001 5.121985e-001 6.161858e-001 6.182399e-001 5.542681e-001 4.922433e-001 5.035442e-001 1.123081e-001
<GCONST> 1.173082e+002
<STATE> 4
<MEAN> 39
 1.049627e+000 -2.640136e-001 -3.203178e+000 -1.164884e+001 -1.510968e+001 -1.402577e+001 -3.809236e+000 -5.528632e+000 -5.701370e+000 -4.081851e+000 -8.902892e-001 -3.514580e+000 7.293628e+001 -1.008251e-001 4.993623e-002 3.583265e-001 3.655277e-001 -7.935056e-002 -2.918664e-001 -3.888349e-001 -2.166297e-001 -8.725853e-002 1.773537e-001 4.736062e-001 -1.260634e-001 -7.225787e-002 -5.889779e-002 6.368443e-002 -2.055396e-002 1.637079e-001 1.469781e-001 4.322055e-002 -2.999965e-002 6.831749e-003 1.433944e-001 4.647077e-002 -6.695806e-002 -4.020087e-002 -1.349162e-001
<VARIANCE> 39
 2.103222e+001 2.679192e+001 9.223098e+001 5.159406e+001 5.341449e+001 9.644171e+001 4.425396e+001 5.203594e+001 3.455890e+001 3.181147e+001 3.578303e+001 4.310769e+001 1.968741e+001 2.011088e-001 9.133983e-001 1.118247e+000 1.099430e+000 1.930517e+000 2.054282e+000 2.051197e+000 2.420340e+000 1.876696e+000 2.218030e+000 2.050241e+000 1.875587e+000 4.033562e-001 4.570578e-002 1.160364e-001 1.518570e-001 1.924197e-001 3.394000e-001 4.085093e-001 3.482427e-001 4.304977e-001 3.593942e-001 3.484026e-001 4.004828e-001 3.947697e-001 6.136268e-002
<GCONST> 1.040898e+002
<TRANSP> 5
 0.000000e+000 1.000000e+000 0.000000e+000 0.000000e+000 0.000000e+000
 0.000000e+000 7.354916e-001 2.645084e-001 0.000000e+000 0.000000e+000
 0.000000e+000 0.000000e+000 3.876309e-001 6.123691e-001 0.000000e+000
 0.000000e+000 0.000000e+000 0.000000e+000 6.679277e-001 3.320722e-001
 0.000000e+000 0.000000e+000 0.000000e+000 0.000000e+000 0.000000e+000
<ENDHMM>
~h "i"
<BEGINHMM>
<NUMSTATES> 5
<STATE> 2
<MEAN> 39
 -2.124572e+001 -2.093959e-001 3.973977e+000 -6.514720e+000 -6.466753e+000 -1.759500e+000 -5.630167e-001 -1.347243e+000 -5.301516e-001 -3.574895e+000 1.545875e+000 -1.971412e+000 6.780021e+001 1.233401e-001 -5.319711e-003 1.762013e+000 1.086412e+000 -1.054742e+000 -7.056372e-001 4.732238e-001 -7.102923e-001 -5.459774e-001 -5.537719e-001 -6.784463e-002 -5.612747e-002 5.413521e-001 9.723388e-001 2.297450e-001 -1.024534e-001 3.021096e-001 -4.156757e-002 -4.668042e-001 -2.959630e-001 -2.824400e-001 -1.568450e-001 -1.000675e-001 -1.425581e-001 2.569322e-002 -2.378733e-001
<VARIANCE> 39
 3.634606e+001 2.540143e+001 2.947573e+001 4.403470e+001 4.130060e+001 5.539960e+001 3.272744e+001 1.717313e+001 2.457311e+001 2.371854e+001 1.982232e+001 1.235021e+001 1.864403e+001 9.127180e+000 2.736880e+000 1.827111e+000 2.962811e+000 2.485357e+000 3.037506e+000 2.924795e+000 2.396446e+000 1.853686e+000 2.339670e+000 2.653308e+000 1.071332e+000 1.271384e+000 7.190192e-001 6.245898e-001 3.702945e-001 6.009518e-001 5.833170e-001 3.582755e-001 6.669509e-001 3.801510e-001 3.406691e-001 4.843808e-001 5.618127e-001 2.084887e-001 1.894421e-001
<GCONST> 1.153114e+002
<STATE> 3
<MEAN> 39
 -1.133893e+001 2.637464e+000 1.037436e+001 1.990873e-001 -1.088807e+001 -9.693727e+000 -2.823169e+000 -7.682871e+000 -6.901467e+000 -7.145059e+000 -1.242067e+000 -1.725307e+000 6.796495e+001 3.832951e+000 1.930696e+000 6.005567e-001 1.166271e+000 -8.458047e-001 -2.497920e+000 -2.107364e+000 -1.446270e+000 -9.967602e-001 -8.776367e-001 -4.518656e-001 4.571215e-001 -2.695639e-001 -2.769089e-001 7.087295e-002 -6.311078e-001 -6.353918e-001 3.010623e-001 2.604004e-001 -8.330793e-002 2.564660e-001 4.786863e-001 3.597352e-001 3.868739e-001 -2.978205e-002 -6.341350e-002
<VARIANCE> 39
 4.303677e+001 2.679554e+001 3.825042e+001 5.200716e+001 2.870852e+001 4.961378e+001 3.546427e+001 2.606617e+001 2.155664e+001 2.887804e+001 1.341887e+001 1.963491e+001 9.218752e+000 2.376442e+000 1.876657e+000 1.212872e+000 2.401239e+000 4.150628e+000 2.589510e+000 3.497165e+000 2.583699e+000 2.010523e+000 1.996776e+000 3.454523e+000 2.545177e+000 4.478016e-001 7.656839e-001 3.520143e-001 2.964587e-001 4.652764e-001 4.360146e-001 5.305912e-001 7.319959e-001 6.423826e-001 2.337842e-001 4.272899e-001 4.606987e-001 2.807506e-001 5.493509e-002
<GCONST> 1.117820e+002
<STATE> 4
<MEAN> 39
 -4.969697e+000 6.002173e+000 1.272053e+001 6.456788e-001 -1.343231e+001 -1.071983e+001 -3.255626e+000 -1.027723e+001 -8.575020e+000 -4.685700e+000 7.136391e-001 -3.022329e+000 6.609613e+001 1.171868e+000 6.926168e-001 -5.293614e-001 2.158408e-001 6.525395e-002 -9.841560e-001 -5.140863e-001 1.340584e-001 1.449955e-001 -6.992786e-002 6.058751e-001 8.788472e-002 -2.541132e-001 -5.834090e-001 -2.913305e-001 -2.638634e-001 -1.145773e-001 4.497409e-001 4.007955e-001 2.124357e-001 2.580759e-001 3.864315e-001 1.036078e-001 3.293216e-002 -4.658392e-002 -5.079678e-002
<VARIANCE> 39
 4.396409e+000 7.291521e+000 3.871085e+001 1.987168e+001 2.288357e+001 5.308667e+001 1.530124e+001 2.950784e+001 1.288765e+001 1.927323e+001 1.324315e+001 2.240916e+001 9.648203e+000 2.364909e+000 9.879139e-001 9.902067e-001 1.494149e+000 1.832479e+000 2.593179e+000 3.549694e+000 2.087128e+000 1.427379e+000 1.254662e+000 1.805109e+000 1.306567e+000 2.502572e-001 3.130275e-001 1.789269e-001 1.632001e-001 1.771610e-001 2.825336e-001 5.605244e-001 3.390846e-001 3.406383e-001 3.015434e-001 2.265087e-001 3.205051e-001 3.453849e-001 2.515264e-002
<GCONST> 9.434218e+001
<TRANSP> 5
 0.000000e+000 1.000000e+000 0.000000e+000 0.000000e+000 0.000000e+000
 0.000000e+000 8.190873e-001 1.809126e-001 0.000000e+000 0.000000e+000
 0.000000e+000 0.000000e+000 4.312642e-001 5.687358e-001 0.000000e+000
 0.000000e+000 0.000000e+000 0.000000e+000 6.228292e-001 3.771708e-001
 0.000000e+000 0.000000e+000 0.000000e+000 0.000000e+000 0.000000e+000
<ENDHMM>
~h "k"
<BEGINHMM>
<NUMSTATES> 5
<STATE> 2
<MEAN> 39
 -6.486331e+000 -2.352264e+000 5.651696e+000 -4.496183e+000 -1.826766e+001 -1.199214e+001 -1.476429e+000 -6.457347e+000 -5.498795e+000 -4.876945e+000 -1.949138e-001 -5.426436e+000 7.220826e+001 1.265611e+000 8.628416e-001 8.778960e-001 -1.713460e-001 -8.771611e-001 -1.407479e+000 -5.999804e-001 -1.017499e+000 -1.087014e+000 -5.571118e-001 2.615354e-001 -4.530654e-001 8.008251e-001 -3.163057e-001 -1.055883e-001 -1.514113e-001 -7.656315e-002 2.151019e-001 2.195351e-001 -1.861412e-002 1.327698e-001 1.284061e-001 2.085645e-001 1.275113e-001 9.170003e-002 -4.671076e-002
<VARIANCE> 39
 2.946034e+001 4.204582e+001 4.293660e+001 3.230431e+001 5.067978e+001 9.686230e+001 5.001820e+001 6.869231e+001 2.687339e+001 3.441014e+001 4.036929e+001 3.070955e+001 2.552529e+001 2.223932e+000 2.743184e+000 1.031910e+000 2.189379e+000 2.588171e+000 3.477281e+000 3.209723e+000 2.606925e+000 2.370923e+000 3.255239e+000 1.965820e+000 2.078187e+000 1.485716e+000 5.219479e-001 4.795658e-001 2.025384e-001 4.207150e-001 6.093501e-001 6.616516e-001 6.837618e-001 4.487771e-001 4.250079e-001 5.958535e-001 4.388810e-001 3.320728e-001 3.266186e-001
<GCONST> 1.203027e+002
<STATE> 3
<MEAN> 39
 -3.413218e+000 -3.727111e-001 6.973531e+000 -6.850262e+000 -1.962815e+001 -1.625517e+001 -2.814559e+000 -8.627177e+000 -7.545778e+000 -4.704784e+000 5.419695e-001 -5.478603e+000 7.448800e+001 -2.717313e-002 3.549187e-001 1.907763e-001 -3.769986e-001 6.117682e-002 -4.549329e-003 -3.826592e-001 -4.955743e-001 -1.964495e-001 7.419472e-001 2.728609e-001 7.234424e-003 1.685531e-001 -2.633978e-001 4.919991e-002 -1.259070e-001 2.614444e-001 3.438264e-001 4.801181e-001 1.374477e-001 8.520517e-002 2.848034e-001 9.606370e-002 -1.411901e-001 -2.760212e-002 -3.768291e-001
<VARIANCE> 39
 6.792443e+000 3.585685e+001 5.993966e+001 5.598868e+001 6.666992e+001 9.172814e+001 4.683109e+001 1.026721e+002 3.309193e+001 4.317215e+001 3.810322e+001 3.516481e+001 1.827513e+001 2.271103e-001 8.340061e-001 6.344427e-001 1.000192e+000 1.428074e+000 1.340630e+000 1.621944e+000 1.675546e+000 1.758363e+000 7.530430e-001 1.242099e+000 7.074854e-001 4.172230e-001 1.276876e-001 2.018150e-001 9.800684e-002 1.538457e-001 3.315764e-001 3.327519e-001 3.894777e-001 3.889813e-001 3.002883e-001 2.877237e-001 2.103163e-001 2.088139e-001 4.352569e-002
<GCONST> 9.801289e+001
<STATE> 4
<MEAN> 39
 -3.665246e+000 8.448535e-001 4.806620e+000 -1.068545e+001 -1.926802e+001 -1.777994e+001 -3.969085e+000 -9.252509e+000 -8.540911e+000 -2.543001e+000 -4.541368e-001 -4.912933e+000 7.384736e+001 -6.948733e-002 3.452288e-001 1.660015e-001 3.060015e-002 8.766322e-002 2.058625e-001 -1.288585e-001 -2.150329e-001 -1.682313e-001 1.168738e-001 3.920047e-002 -1.276321e-001 -2.278658e-001 4.193299e-004 1.937397e-002 -9.302218e-003 7.081153e-002 3.451955e-002 5.198682e-002 3.799808e-002 1.563936e-002 2.200914e-002 -5.154912e-002 -5.908209e-002 -1.940544e-002 -6.303171e-002
<VARIANCE> 39
 2.957989e+000 2.776393e+001 7.965476e+001 5.942773e+001 5.288599e+001 1.093827e+002 3.927517e+001 1.330376e+002 3.547000e+001 5.456789e+001 2.905769e+001 1.804912e+001 1.275706e+001 1.237002e-001 3.289919e-001 2.993367e-001 3.806213e-001 5.499674e-001 7.135369e-001 7.575014e-001 7.331424e-001 7.793520e-001 6.346174e-001 6.046783e-001 5.364801e-001 1.313179e-001 2.028720e-002 4.041671e-002 4.088188e-002 6.522860e-002 9.297232e-002 1.262711e-001 1.096076e-001 1.232221e-001 1.258009e-001 1.037732e-001 1.010438e-001 1.066897e-001 2.279951e-002
<GCONST> 7.295924e+001
<TRANSP> 5
 0.000000e+000 1.000000e+000 0.000000e+000 0.000000e+000 0.000000e+000
 0.000000e+000 7.414629e-001 2.585371e-001 0.000000e+000 0.000000e+000
 0.000000e+000 0.000000e+000 2.580326e-001 7.419673e-001 0.000000e+000
 0.000000e+000 0.000000e+000 0.000000e+000 8.413591e-001 1.586409e-001
 0.000000e+000 0.000000e+000 0.000000e+000 0.000000e+000 0.000000e+000
<ENDHMM>
~h "m"
<BEGINHMM>
<NUMSTATES> 5
<STATE> 2
<MEAN> 39
 2.611536e+000 4.680318e+000 -3.706394e+000 -4.372450e+000 -3.524323e+000 -2.723609e+000 -8.920505e-001 -9.817691e+000 -1.012741e+001 -9.732776e+000 -4.331175e+000 -1.179857e+000 6.629126e+001 3.018512e-001 -1.052088e+000 -1.367993e+000 -1.772801e+000 -4.822121e-001 6.969641e-001 7.349492e-001 2.743037e-002 1.047060e+000 8.692208e-001 -4.855222e-001 -2.367048e-001 1.144482e+000 -1.432224e-001 -2.375573e-001 -1.811954e-001 -2.021852e-001 1.004139e-001 1.772009e-001 9.471159e-002 6.225945e-002 3.595805e-001 3.222764e-001 -1.043537e-001 -1.178680e-001 9.119935e-002
<VARIANCE> 39
 7.158931e+000 2.178838e+001 2.707780e+001 5.423877e+001 5.270988e+001 3.740628e+001 5.957341e+001 2.758108e+001 5.332484e+001 3.176768e+001 3.263862e+001 2.700095e+001 1.676879e+001 4.752445e-001 2.003718e+000 2.256305e+000 3.897584e+000 2.064110e+000 2.757745e+000 2.265440e+000 2.819951e+000 4.117874e+000 2.730483e+000 1.575562e+000 1.919671e+000 1.024376e+000 9.770523e-002 2.612092e-001 3.483725e-001 6.738061e-001 3.665483e-001 4.420486e-001 3.999332e-001 5.307953e-001 6.890572e-001 4.542888e-001 2.582959e-001 2.704860e-001 1.574430e-001
<GCONST> 1.111566e+002
<STATE> 3
<MEAN> 39
 2.826333e+000 -3.262148e+000 -1.193714e+001 -1.553504e+001 -5.257635e+000 2.927847e+000 2.672502e+000 -9.239623e+000 -1.897815e+000 -2.337690e+000 -7.263177e+000 -3.657307e+000 7.342089e+001 -5.014216e-001 -1.606292e+000 -1.096688e+000 -9.405612e-001 8.890581e-001 1.301003e+000 5.289986e-001 -4.707093e-001 1.235018e+000 1.352884e+000 -6.809056e-001 -6.995717e-001 1.262589e+000 -1.426278e-001 4.654288e-001 7.117786e-001 9.189340e-001 1.723033e-001 -5.571095e-001 -5.270537e-001 5.442876e-003 -5.847065e-001 -4.078014e-001 2.504683e-001 1.106539e-001 -4.012474e-001
<VARIANCE> 39
 1.127972e+001 3.082093e+001 2.613454e+001 3.782771e+001 6.750809e+001 7.851719e+001 8.187230e+001 5.381069e+001 4.526579e+001 3.707535e+001 3.506512e+001 5.590126e+001 1.926200e+001 8.461823e-001 1.551161e+000 2.088703e+000 3.332855e+000 1.980542e+000 3.945908e+000 3.665550e+000 4.209410e+000 4.240983e+000 2.427547e+000 1.998981e+000 2.183592e+000 8.737816e-001 9.074216e-002 1.911103e-001 2.125413e-001 4.381388e-001 4.389524e-001 5.756499e-001 4.099874e-001 6.725676e-001 6.934731e-001 4.351767e-001 2.949105e-001 4.659959e-001 1.074487e-001
<GCONST> 1.155246e+002
<STATE> 4
<MEAN> 39
 1.538197e+000 -4.816041e+000 -1.231459e+001 -1.520323e+001 -2.170043e+000 7.338593e-001 9.020145e-001 -8.681774e+000 -1.460467e+000 1.830051e-002 -8.048851e+000 -5.357163e+000 7.540239e+001 -2.063057e-001 -2.553942e-001 2.081659e-001 2.990229e-001 4.226981e-002 -6.176067e-001 -5.595838e-001 1.344588e-001 2.657346e-001 3.728473e-001 2.117069e-001 -2.732824e-001 2.235301e-001 7.163019e-002 3.216858e-001 2.378176e-001 2.210614e-001 -1.960537e-001 -3.624109e-001 -1.863369e-001 7.387489e-002 -1.440081e-001 -2.465281e-001 1.913662e-001 1.625751e-001 -2.546278e-001
<VARIANCE> 39
 1.193344e+001 2.527930e+001 3.241874e+001 4.895137e+001 6.417276e+001 1.070908e+002 1.159745e+002 5.038263e+001 4.736014e+001 3.049718e+001 3.980677e+001 5.577384e+001 1.638565e+001 4.147871e-001 8.929014e-001 9.209061e-001 1.119632e+000 1.382288e+000 2.079800e+000 1.815911e+000 2.158282e+000 1.915583e+000 1.710814e+000 1.427199e+000 1.223465e+000 5.099383e-001 6.905544e-002 1.249700e-001 2.093937e-001 2.853301e-001 2.400883e-001 3.438022e-001 2.948132e-001 4.146726e-001 3.897812e-001 2.453507e-001 2.173712e-001 2.894837e-001 7.132394e-002
<GCONST> 1.026519e+002
<TRANSP> 5
 0.000000e+000 1.000000e+000 0.000000e+000 0.000000e+000 0.000000e+000
 0.000000e+000 8.463157e-001 1.536843e-001 0.000000e+000 0.000000e+000
 0.000000e+000 0.000000e+000 4.743196e-001 5.256804e-001 0.000000e+000
 0.000000e+000 0.000000e+000 0.000000e+000 6.389987e-001 3.610013e-001
 0.000000e+000 0.000000e+000 0.000000e+000 0.000000e+000 0.000000e+000
<ENDHMM>
~h "n"
<BEGINHMM>
<NUMSTATES> 5
<STATE> 2
<MEAN> 39
 1.702822e+000 -5.599933e-001 -3.257347e+000 -3.169775e+000 -8.110557e+000 -1.266340e+001 -6.280469e+000 -6.903292e+000 -2.227169e+000 -5.411889e+000 -7.016539e+000 -8.604897e+000 7.035349e+001 2.026859e-001 8.580557e-001 3.981965e-001 6.024913e-001 4.246846e-001 -3.738144e-001 -9.828712e-001 4.108299e-001 -6.233675e-002 -2.043073e-001 2.945252e-001 2.115676e-001 -6.101288e-001 -1.161848e-001 -4.701078e-002 -1.961696e-002 -1.660289e-001 -7.869396e-002 9.138867e-002 2.483718e-001 -7.933246e-003 -6.524862e-002 -1.431343e-002 6.835772e-003 3.215852e-002 1.320153e-001
<VARIANCE> 39
 9.128468e+000 2.489532e+001 2.331259e+001 2.256717e+001 4.068461e+001 6.300732e+001 4.340377e+001 1.757198e+001 4.075646e+001 4.175208e+001 1.798753e+001 5.716069e+001 2.330613e+001 5.480909e-001 2.167351e+000 1.378835e+000 2.317973e+000 3.522547e+000 1.510665e+000 4.421482e+000 1.289260e+000 3.397768e+000 2.286319e+000 2.087659e+000 1.750101e+000 1.239593e+000 5.254176e-002 2.531543e-001 1.459191e-001 3.000081e-001 5.266145e-001 2.284482e-001 6.067088e-001 2.329481e-001 4.658545e-001 3.751176e-001 3.913536e-001 3.160802e-001 9.989121e-002
<GCONST> 1.060244e+002
<STATE> 3
<MEAN> 39
 1.735906e+000 2.282973e+000 -1.700413e+000 -2.437547e+000 -7.994416e+000 -1.211913e+001 -7.091609e+000 -4.359075e+000 -1.478860e+000 -4.256588e+000 -6.906098e+000 -3.897310e+000 6.832446e+001 -2.821932e-001 -1.187271e-001 3.854435e-001 -2.400977e-001 -7.127991e-001 -3.049600e-001 5.272793e-001 7.321302e-001 1.103365e-001 -1.529735e-001 1.009643e-002 3.039364e-001 2.894468e-001 -4.820684e-002 -1.975774e-001 -3.705843e-003 -1.040299e-001 -1.353695e-001 4.649347e-002 2.515604e-001 2.650042e-002 -5.053812e-002 1.284086e-001 3.727339e-002 -2.269609e-003 1.347287e-001
<VARIANCE> 39
 6.878117e+000 2.755650e+001 1.578215e+001 2.481951e+001 3.375182e+001 3.124611e+001 3.812287e+001 2.489205e+001 3.308476e+001 3.717452e+001 2.028104e+001 3.737493e+001 2.607063e+001 2.731697e-001 2.697113e+000 9.864235e-001 1.043499e+000 3.517570e+000 1.494699e+000 3.251410e+000 1.572789e+000 2.679566e+000 2.454696e+000 1.957570e+000 1.417941e+000 9.511950e-001 4.038961e-002 3.456180e-001 1.618142e-001 2.059578e-001 5.092468e-001 2.069621e-001 4.791162e-001 2.808489e-001 4.763756e-001 4.648482e-001 3.374738e-001 3.050509e-001 1.258450e-001
<GCONST> 1.018018e+002
<STATE> 4
<MEAN> 39
 -5.165017e-001 2.645435e+000 1.633894e-001 -3.661906e+000 -1.275482e+001 -1.314411e+001 1.478781e-001 -2.367021e+000 -1.963457e+000 -3.355894e+000 -4.861130e+000 -2.859090e+000 6.925799e+001 -2.971462e-001 -5.165377e-002 3.719625e-001 1.104094e-001 -3.872794e-001 -2.403726e-001 6.076977e-001 3.123477e-002 -1.651885e-001 2.680900e-001 3.236044e-001 4.093594e-002 1.474169e-002 1.639664e-004 -1.074615e-003 -1.147399e-002 8.644293e-002 1.028778e-001 2.171414e-002 -7.754260e-002 -6.671170e-002 2.287384e-002 -1.552136e-002 -3.089998e-002 -6.966265e-002 -6.521265e-002
<VARIANCE> 39
 1.005868e+001 3.793690e+001 2.037857e+001 2.839250e+001 4.441864e+001 5.483093e+001 7.289382e+001 2.947075e+001 2.067642e+001 3.820176e+001 1.912432e+001 3.537851e+001 3.670810e+001 2.970062e-001 1.158313e+000 9.388017e-001 7.170948e-001 2.090243e+000 8.075568e-001 2.060670e+000 1.499272e+000 9.722494e-001 1.682232e+000 1.094542e+000 1.068562e+000 4.651895e-001 5.487606e-002 2.284838e-001 1.527473e-001 9.739958e-002 3.621571e-001 1.521672e-001 3.597901e-001 2.850916e-001 1.931522e-001 3.003513e-001 1.925962e-001 1.839680e-001 8.203228e-002
<GCONST> 9.386617e+001
<TRANSP> 5
 0.000000e+000 1.000000e+000 0.000000e+000 0.000000e+000 0.000000e+000
 0.000000e+000 7.916349e-001 2.083650e-001 0.000000e+000 0.000000e+000
 0.000000e+000 0.000000e+000 8.049896e-001 1.950104e-001 0.000000e+000
 0.000000e+000 0.000000e+000 0.000000e+000 8.844634e-001 1.155366e-001
 0.000000e+000 0.000000e+000 0.000000e+000 0.000000e+000 0.000000e+000
<ENDHMM>
~h "o"
<BEGINHMM>
<NUMSTATES> 5
<STATE> 2
<MEAN> 39
 -2.798081e+000 1.015603e+000 -2.737489e+000 -6.760623e+000 -9.013508e+000 -7.721240e+000 -2.340556e+000 -5.791430e+000 -3.008503e+000 -2.842516e+000 -2.408931e+000 -3.042888e+000 6.712006e+001 1.816639e-002 7.030336e-003 1.035966e-002 1.197295e-002 -3.030741e-002 -3.000990e-002 -1.121263e-002 -1.918899e-002 -8.024712e-003 -9.913054e-003 -2.549139e-003 -2.114425e-003 5.405467e-003 -4.415081e-003 1.196028e-002 1.510665e-003 1.035524e-002 1.260583e-002 1.132140e-002 1.643880e-003 5.128350e-003 4.624746e-003 4.331185e-003 1.837649e-003 5.600615e-003 -3.189945e-002
<VARIANCE> 39
 3.428817e+001 4.836518e+001 6.373507e+001 6.480933e+001 7.744907e+001 9.549992e+001 5.887634e+001 5.563300e+001 4.740282e+001 3.601039e+001 3.689566e+001 3.421291e+001 5.592876e+001 1.284020e+000 1.579060e+000 1.448692e+000 1.879212e+000 2.206893e+000 2.620023e+000 2.072583e+000 2.299653e+000 2.249433e+000 1.916542e+000 1.814010e+000 1.601416e+000 1.662629e+000 1.691740e-001 2.286167e-001 1.968112e-001 2.685542e-001 3.292408e-001 3.721457e-001 3.482843e-001 3.651308e-001 3.816728e-001 3.350308e-001 3.148932e-001 2.783629e-001 1.694588e-001
<GCONST> 1.144672e+002
<STATE> 3
<MEAN> 39
 -2.798081e+000 1.015603e+000 -2.737489e+000 -6.760623e+000 -9.013508e+000 -7.721240e+000 -2.340556e+000 -5.791430e+000 -3.008503e+000 -2.842516e+000 -2.408931e+000 -3.042888e+000 6.712006e+001 1.816639e-002 7.030336e-003 1.035966e-002 1.197295e-002 -3.030741e-002 -3.000990e-002 -1.121263e-002 -1.918899e-002 -8.024712e-003 -9.913054e-003 -2.549139e-003 -2.114425e-003 5.405467e-003 -4.415081e-003 1.196028e-002 1.510665e-003 1.035524e-002 1.260583e-002 1.132140e-002 1.643880e-003 5.128350e-003 4.624746e-003 4.331185e-003 1.837649e-003 5.600615e-003 -3.189945e-002
<VARIANCE> 39
 3.428817e+001 4.836518e+001 6.373507e+001 6.480933e+001 7.744907e+001 9.549992e+001 5.887634e+001 5.563300e+001 4.740282e+001 3.601039e+001 3.689566e+001 3.421291e+001 5.592876e+001 1.284020e+000 1.579060e+000 1.448692e+000 1.879212e+000 2.206893e+000 2.620023e+000 2.072583e+000 2.299653e+000 2.249433e+000 1.916542e+000 1.814010e+000 1.601416e+000 1.662629e+000 1.691740e-001 2.286167e-001 1.968112e-001 2.685542e-001 3.292408e-001 3.721457e-001 3.482843e-001 3.651308e-001 3.816728e-001 3.350308e-001 3.148932e-001 2.783629e-001 1.694588e-001
<GCONST> 1.144672e+002
<STATE> 4
<MEAN> 39
 -2.798081e+000 1.015603e+000 -2.737489e+000 -6.760623e+000 -9.013508e+000 -7.721240e+000 -2.340556e+000 -5.791430e+000 -3.008503e+000 -2.842516e+000 -2.408931e+000 -3.042888e+000 6.712006e+001 1.816639e-002 7.030336e-003 1.035966e-002 1.197295e-002 -3.030741e-002 -3.000990e-002 -1.121263e-002 -1.918899e-002 -8.024712e-003 -9.913054e-003 -2.549139e-003 -2.114425e-003 5.405467e-003 -4.415081e-003 1.196028e-002 1.510665e-003 1.035524e-002 1.260583e-002 1.132140e-002 1.643880e-003 5.128350e-003 4.624746e-003 4.331185e-003 1.837649e-003 5.600615e-003 -3.189945e-002
<VARIANCE> 39
 3.428817e+001 4.836518e+001 6.373507e+001 6.480933e+001 7.744907e+001 9.549992e+001 5.887634e+001 5.563300e+001 4.740282e+001 3.601039e+001 3.689566e+001 3.421291e+001 5.592876e+001 1.284020e+000 1.579060e+000 1.448692e+000 1.879212e+000 2.206893e+000 2.620023e+000 2.072583e+000 2.299653e+000 2.249433e+000 1.916542e+000 1.814010e+000 1.601416e+000 1.662629e+000 1.691740e-001 2.286167e-001 1.968112e-001 2.685542e-001 3.292408e-001 3.721457e-001 3.482843e-001 3.651308e-001 3.816728e-001 3.350308e-001 3.148932e-001 2.783629e-001 1.694588e-001
<GCONST> 1.144672e+002
<TRANSP> 5
 0.000000e+000 1.000000e+000 0.000000e+000 0.000000e+000 0.000000e+000
 0.000000e+000 6.000000e-001 4.000000e-001 0.000000e+000 0.000000e+000
 0.000000e+000 0.000000e+000 6.000000e-001 4.000000e-001 0.000000e+000
 0.000000e+000 0.000000e+000 0.000000e+000 7.000000e-001 3.000000e-001
 0.000000e+000 0.000000e+000 0.000000e+000 0.000000e+000 0.000000e+000
<ENDHMM>
~h "p"
<BEGINHMM>
<NUMSTATES> 5
<STATE> 2
<MEAN> 39
 3.407630e-001 -6.254146e+000 -1.072316e+001 -1.538728e+001 -1.112253e+001 -2.423235e+000 2.399206e+000 -3.666457e+000 -1.957099e+000 -1.348807e+000 -4.833714e+000 -7.022710e+000 7.604756e+001 2.468859e-001 -2.187467e-001 1.481480e-001 -3.736874e-001 -4.318143e-001 -2.848247e-002 -4.347075e-001 -2.360616e-001 2.292260e-001 2.507075e-001 -1.888371e-001 -1.640288e-001 5.330193e-001 -2.216243e-001 1.714751e-001 1.551261e-001 2.883051e-001 1.314829e-001 -1.684496e-001 -1.518129e-001 1.454664e-001 2.016685e-001 -4.174067e-002 1.243448e-001 1.666820e-001 -2.959627e-001
<VARIANCE> 39
 1.752536e+001 3.882084e+001 1.572970e+001 2.335185e+001 6.441077e+001 1.150966e+002 9.484343e+001 7.050150e+001 4.672729e+001 5.157193e+001 3.213861e+001 5.586195e+001 3.101676e+001 1.007386e+000 3.168672e+000 9.622048e-001 2.083043e+000 2.207289e+000 4.347787e+000 2.984503e+000 3.237735e+000 3.561505e+000 3.171685e+000 2.370809e+000 2.370894e+000 1.950199e+000 2.459884e-001 4.174997e-001 2.262599e-001 4.479536e-001 4.842910e-001 5.898668e-001 5.971010e-001 6.309498e-001 5.553013e-001 5.364925e-001 5.026608e-001 3.900736e-001 2.443852e-001
<GCONST> 1.207009e+002
<STATE> 3
<MEAN> 39
 1.195794e+000 -5.774529e+000 -1.036360e+001 -1.605176e+001 -1.002999e+001 -1.100157e+000 4.675423e-001 -4.495079e+000 -8.886284e-001 -9.033762e-001 -7.202508e+000 -6.483852e+000 7.564414e+001 -6.002624e-002 2.893474e-001 4.147014e-001 4.705727e-001 -3.268906e-001 -9.794186e-001 -5.174639e-001 3.053805e-001 7.778916e-001 -2.419317e-001 -1.836027e-001 2.855892e-001 -1.021325e-001 -7.146513e-002 2.091269e-001 9.584796e-002 2.340268e-001 1.096236e-001 -2.121015e-001 -4.761541e-002 5.528569e-002 2.536288e-002 -8.674153e-002 7.738218e-002 8.517629e-002 -2.116851e-001
<VARIANCE> 39
 1.946787e+001 6.225341e+001 2.272874e+001 3.062260e+001 7.401415e+001 1.117296e+002 5.669492e+001 5.151172e+001 4.819922e+001 4.130996e+001 3.307629e+001 5.789690e+001 3.041041e+001 3.360263e-001 8.301783e-001 7.311575e-001 7.084327e-001 1.386004e+000 3.212258e+000 1.350019e+000 2.561646e+000 2.021682e+000 2.378471e+000 1.570494e+000 1.587161e+000 2.774915e-001 9.811310e-002 2.596698e-001 1.387420e-001 2.048114e-001 3.019557e-001 4.751963e-001 2.533196e-001 4.137572e-001 4.416622e-001 3.241521e-001 3.074189e-001 2.608492e-001 7.928365e-002
<GCONST> 1.044628e+002
<STATE> 4
<MEAN> 39
 2.209491e+000 -1.801893e+000 -9.007897e+000 -1.518367e+001 -1.117433e+001 -3.832578e+000 -7.492028e-001 -3.334209e+000 -1.140218e-001 -9.731439e-001 -5.216125e+000 -4.087447e+000 7.324232e+001 -7.896397e-002 5.828119e-001 4.225489e-001 4.480256e-001 -1.684137e-002 -7.904726e-001 -3.969416e-001 7.890976e-002 2.737100e-001 -1.548714e-001 1.555848e-001 1.744205e-001 -3.437463e-001 -2.471516e-002 6.285872e-002 2.946176e-002 3.267031e-002 4.382975e-002 -3.966514e-002 5.891091e-002 3.154790e-003 -1.297238e-001 -4.390372e-003 8.366796e-002 -7.693495e-003 -7.000966e-002
<VARIANCE> 39
 1.162316e+001 6.563541e+001 2.064216e+001 5.030972e+001 7.828321e+001 8.369379e+001 4.048047e+001 4.364098e+001 4.230924e+001 3.780888e+001 2.794456e+001 4.055838e+001 2.469241e+001 1.679209e-001 9.024279e-001 6.241425e-001 1.009035e+000 1.258702e+000 2.149659e+000 1.289856e+000 1.771540e+000 1.414276e+000 1.507423e+000 1.517396e+000 1.038858e+000 2.187314e-001 3.613845e-002 1.167593e-001 9.549942e-002 1.571414e-001 1.996731e-001 3.097337e-001 1.941728e-001 2.825807e-001 2.551399e-001 2.540834e-001 2.381099e-001 1.794134e-001 2.562003e-002
<GCONST> 9.339916e+001
<TRANSP> 5
 0.000000e+000 1.000000e+000 0.000000e+000 0.000000e+000 0.000000e+000
 0.000000e+000 7.963517e-001 2.036483e-001 0.000000e+000 0.000000e+000
 0.000000e+000 0.000000e+000 5.013796e-001 4.986204e-001 0.000000e+000
 0.000000e+000 0.000000e+000 0.000000e+000 6.736325e-001 3.263674e-001
 0.000000e+000 0.000000e+000 0.000000e+000 0.000000e+000 0.000000e+000
<ENDHMM>
~h "r"
<BEGINHMM>
<NUMSTATES> 5
<STATE> 2
<MEAN> 39
 -4.170715e+000 -2.290154e-001 2.353065e+000 -2.957650e+000 -1.166863e+001 -1.771915e+001 -5.368733e+000 -2.256264e+000 -4.344977e+000 -5.518885e+000 3.227153e+000 -3.690785e-001 6.718366e+001 3.964118e-001 -1.781407e-001 3.216024e-001 1.880507e-001 -4.492302e-001 -7.745929e-001 -1.538722e-001 -1.497246e-002 -2.650265e-001 -2.885619e-001 1.320429e-001 4.114692e-002 4.340640e-001 4.624749e-002 1.014674e-002 -2.202718e-003 -6.145367e-003 -1.180698e-001 -3.989150e-002 2.680845e-002 -1.405639e-002 -3.193299e-002 9.375498e-002 9.767859e-002 4.225108e-002 -7.437426e-003
<VARIANCE> 39
 2.588272e+001 1.754040e+001 3.682932e+001 3.651134e+001 7.091489e+001 6.786982e+001 3.527860e+001 2.903172e+001 2.684614e+001 2.825454e+001 4.383369e+001 1.764150e+001 4.005981e+001 1.821086e+000 2.288141e+000 2.826432e+000 2.990290e+000 5.071260e+000 6.059694e+000 2.168305e+000 2.767402e+000 1.692672e+000 1.835979e+000 4.639986e+000 1.604501e+000 4.513928e+000 3.413135e-001 4.903826e-001 5.058962e-001 5.907336e-001 8.433036e-001 1.035912e+000 3.412947e-001 4.878334e-001 3.312935e-001 3.089359e-001 8.091857e-001 3.361368e-001 7.293620e-001
<GCONST> 1.219894e+002
<STATE> 3
<MEAN> 39
 -9.243178e-001 -7.554780e-001 2.463264e+000 -8.164727e-001 -1.461484e+001 -2.059368e+001 -7.678670e+000 -2.261295e+000 -3.911783e+000 -4.887980e+000 2.939022e+000 1.036329e+000 6.840720e+001 5.324849e-002 -1.401075e-001 -1.380652e-002 -9.185699e-002 -8.330200e-001 -3.275106e-001 2.172208e-001 1.517616e-001 -2.531996e-001 3.578544e-001 6.552799e-001 5.049369e-001 2.041928e-001 -1.107546e-001 1.531844e-001 -3.557442e-002 -3.981474e-002 1.453132e-001 1.098696e-001 1.894466e-001 -4.191354e-003 -3.916740e-002 2.836618e-003 -4.764684e-002 -1.333096e-001 -7.823613e-002
<VARIANCE> 39
 1.527638e+001 1.863632e+001 2.364811e+001 5.359719e+001 4.152129e+001 4.403997e+001 4.648230e+001 2.228522e+001 3.982446e+001 2.299833e+001 3.173205e+001 2.163276e+001 2.469161e+001 8.872006e-001 1.567444e+000 1.838445e+000 1.779934e+000 3.909857e+000 3.626587e+000 2.963972e+000 2.090275e+000 2.427753e+000 1.380383e+000 3.542332e+000 2.181949e+000 1.325749e+000 1.755926e-001 2.877581e-001 4.046564e-001 3.206353e-001 8.091800e-001 6.603037e-001 5.701109e-001 3.921499e-001 4.011420e-001 2.976824e-001 5.339533e-001 3.838044e-001 2.900348e-001
<GCONST> 1.129126e+002
<STATE> 4
<MEAN> 39
 -9.070249e-001 -2.594038e-001 4.783766e+000 -4.280937e+000 -1.898083e+001 -1.947700e+001 -4.433980e+000 -5.340716e+000 -8.444494e+000 -4.622517e+000 7.480011e+000 -7.835524e-001 6.857361e+001 -3.609702e-001 3.073212e-001 -6.138454e-002 -1.137443e-001 1.995202e-001 2.549101e-001 2.481368e-002 -1.301258e-001 -6.765668e-002 1.936649e-001 1.168617e-001 -1.185395e-001 -3.676592e-001 -5.567793e-002 3.542765e-002 -5.033902e-002 8.704506e-002 1.321124e-001 1.538249e-001 3.605228e-002 -2.951091e-002 1.047424e-001 5.608149e-003 -1.412643e-001 2.892016e-003 -1.120192e-001
<VARIANCE> 39
 1.067943e+001 7.371891e+000 2.774492e+001 5.147239e+001 2.578876e+001 8.911721e+001 3.507941e+001 2.637982e+001 3.844501e+001 4.054803e+001 2.100759e+001 3.175710e+001 2.180894e+001 3.863772e-001 4.847758e-001 7.321953e-001 5.110803e-001 9.875903e-001 1.267104e+000 1.432766e+000 7.451488e-001 1.608813e+000 1.416310e+000 9.807560e-001 8.500021e-001 5.616629e-001 6.744225e-002 1.037007e-001 1.315064e-001 9.604739e-002 2.280483e-001 2.065843e-001 2.321736e-001 1.493216e-001 3.279902e-001 2.411515e-001 1.812916e-001 1.775758e-001 7.130346e-002
<GCONST> 8.814551e+001
<TRANSP> 5
 0.000000e+000 1.000000e+000 0.000000e+000 0.000000e+000 0.000000e+000
 0.000000e+000 9.135224e-001 8.647761e-002 0.000000e+000 0.000000e+000
 0.000000e+000 0.000000e+000 6.863263e-001 3.136737e-001 0.000000e+000
 0.000000e+000 0.000000e+000 0.000000e+000 8.956457e-001 1.043543e-001
 0.000000e+000 0.000000e+000 0.000000e+000 0.000000e+000 0.000000e+000
<ENDHMM>
~h "t"
<BEGINHMM>
<NUMSTATES> 5
<STATE> 2
<MEAN> 39
 -5.089561e+000 -3.333943e+000 -6.626215e+000 -8.973886e+000 -6.200824e+000 -6.486323e+000 -4.015533e+000 -4.612062e+000 6.226924e-001 -2.609235e+000 -3.709832e+000 -3.038958e+000 7.017509e+001 1.608254e+000 3.971351e-002 -3.423453e-001 -5.348362e-001 -1.013857e+000 -4.649505e-001 -2.369633e-002 -1.077772e+000 -4.753258e-001 -1.557387e-001 -5.928732e-001 -5.508717e-001 1.162826e+000 3.071021e-002 4.819137e-002 1.600065e-002 4.731588e-002 -7.464296e-002 2.098349e-002 -6.011021e-003 -7.920480e-003 -8.824285e-002 9.002823e-002 1.769946e-001 1.399266e-001 -1.343426e-001
<VARIANCE> 39
 5.160677e+001 4.015750e+001 3.870583e+001 4.726952e+001 5.379920e+001 5.650436e+001 4.227989e+001 4.041307e+001 4.574412e+001 3.604710e+001 3.728073e+001 4.256789e+001 4.699686e+001 4.490521e+000 4.473078e+000 2.361282e+000 3.889539e+000 4.721586e+000 5.828600e+000 3.920221e+000 4.439516e+000 5.680901e+000 3.401996e+000 3.356155e+000 3.885125e+000 3.048275e+000 9.010859e-001 7.952564e-001 3.741742e-001 6.366773e-001 8.501015e-001 9.425946e-001 7.004821e-001 8.059015e-001 1.025408e+000 6.459898e-001 6.390901e-001 7.174194e-001 5.770596e-001
<GCONST> 1.346467e+002
<STATE> 3
<MEAN> 39
 2.419548e-002 -3.331972e+000 -8.052715e+000 -1.039659e+001 -9.146208e+000 -8.575828e+000 -4.146022e+000 -7.833864e+000 -1.454643e+000 -2.180417e+000 -4.877604e+000 -4.215687e+000 7.350377e+001 3.281131e-001 -2.069589e-001 2.281984e-002 -1.557876e-002 -4.408635e-001 -3.329277e-001 -1.929496e-001 -3.117288e-001 -1.684285e-001 2.271271e-001 3.076734e-001 4.556190e-002 3.558876e-001 -4.366251e-001 2.867899e-002 1.958554e-001 1.513906e-001 2.217139e-001 8.210307e-002 4.341075e-002 2.513404e-001 1.261574e-001 2.775688e-002 7.502856e-002 -1.905640e-002 -2.556469e-001
<VARIANCE> 39
 2.576795e+001 4.522599e+001 6.074563e+001 5.675454e+001 6.584315e+001 8.615131e+001 5.921809e+001 4.356380e+001 4.293817e+001 4.302332e+001 4.780587e+001 6.529779e+001 3.078895e+001 1.611967e+000 2.131119e+000 2.125863e+000 2.166008e+000 3.010435e+000 4.052180e+000 2.806456e+000 2.898018e+000 2.787889e+000 3.145750e+000 2.280412e+000 2.514284e+000 1.234717e+000 2.889796e-001 3.423226e-001 2.831801e-001 4.234105e-001 6.082403e-001 6.379097e-001 5.013569e-001 4.879133e-001 6.015868e-001 5.568526e-001 4.701277e-001 4.962847e-001 1.769895e-001
<GCONST> 1.227940e+002
<STATE> 4
<MEAN> 39
 1.746785e-002 -2.358485e+000 -8.082352e+000 -1.038231e+001 -8.862574e+000 -1.097346e+001 -3.865105e+000 -6.817247e+000 -1.864792e+000 -3.088230e+000 -4.487171e+000 -4.107430e+000 7.354786e+001 -9.713867e-002 6.266528e-002 2.838706e-001 1.935776e-001 -1.452032e-001 -2.222635e-001 7.171228e-002 -3.527032e-002 -8.216331e-003 1.081226e-001 2.372456e-001 -4.425076e-002 -1.748052e-002 -1.742011e-001 4.598885e-002 1.160768e-001 1.128161e-001 1.364718e-001 1.542597e-002 -1.843391e-002 6.507577e-002 7.032254e-002 3.193220e-002 5.108437e-002 -5.647525e-003 -1.213410e-001
<VARIANCE> 39
 2.990164e+001 4.916873e+001 6.455502e+001 5.441077e+001 7.131754e+001 9.577882e+001 5.426770e+001 4.233612e+001 4.325303e+001 4.410389e+001 4.398487e+001 5.463532e+001 2.485267e+001 8.097147e-001 1.189380e+000 1.297979e+000 1.463006e+000 1.765535e+000 2.630157e+000 1.762971e+000 2.357105e+000 2.085616e+000 2.307687e+000 1.803139e+000 1.905972e+000 7.191088e-001 1.459008e-001 2.104311e-001 2.081777e-001 2.617787e-001 4.586053e-001 3.884747e-001 4.186423e-001 4.342541e-001 4.192748e-001 4.663398e-001 3.812015e-001 3.397755e-001 1.112646e-001
<GCONST> 1.125992e+002
<TRANSP> 5
 0.000000e+000 1.000000e+000 0.000000e+000 0.000000e+000 0.000000e+000
 0.000000e+000 7.946207e-001 2.053793e-001 0.000000e+000 0.000000e+000
 0.000000e+000 0.000000e+000 3.792478e-001 6.207522e-001 0.000000e+000
 0.000000e+000 0.000000e+000 0.000000e+000 5.375088e-001 4.624912e-001
 0.000000e+000 0.000000e+000 0.000000e+000 0.000000e+000 0.000000e+000
<ENDHMM>
~h "u"
<BEGINHMM>
<NUMSTATES> 5
<STATE> 2
<MEAN> 39
 -4.868530e+000 5.950960e+000 9.927710e+000 1.575138e+000 -9.541191e+000 -1.137776e+001 -4.194939e+000 -8.056675e+000 -6.385257e+000 -5.527260e+000 2.283181e+000 -2.658966e+000 6.589088e+001 2.496757e-001 2.369158e-001 -8.077964e-001 2.496596e-001 9.329385e-001 -6.812239e-002 -5.121069e-001 1.278880e-001 8.590835e-001 -1.106463e-001 -7.617844e-002 1.367599e-001 -2.557119e-001 -2.104195e-001 -1.090757e-001 -3.071893e-002 -3.659590e-002 1.829067e-001 3.408870e-001 4.580843e-002 -3.984861e-002 1.280967e-001 1.139076e-001 -1.852692e-001 -7.872276e-002 -1.304595e-002
<VARIANCE> 39
 1.068657e+001 8.396521e+000 4.017021e+001 1.119814e+001 6.039284e+001 4.076844e+001 1.910866e+001 3.672947e+001 3.103389e+001 2.178293e+001 1.960872e+001 1.074224e+001 9.491671e+000 8.135399e-001 5.114582e-001 9.024745e-001 1.331512e+000 1.836397e+000 2.720586e+000 1.655894e+000 2.038791e+000 1.904547e+000 1.537238e+000 1.481839e+000 1.208123e+000 4.343097e-001 2.455070e-001 8.744179e-002 1.023867e-001 1.343071e-001 2.998588e-001 4.510679e-001 3.356377e-001 2.539728e-001 2.746812e-001 2.444313e-001 3.321399e-001 1.464943e-001 9.116578e-002
<GCONST> 9.300726e+001
<STATE> 3
<MEAN> 39
 -3.233047e+000 6.926531e+000 4.929661e+000 1.925130e+000 -6.029753e+000 -1.401428e+001 -8.033541e+000 -6.694107e+000 -2.439726e+000 -6.941082e+000 -5.431426e-002 -1.175706e+000 6.579313e+001 3.314897e-001 1.738421e-001 -9.087440e-001 -1.961558e-002 1.339023e+000 9.920282e-001 -7.183846e-001 -4.562036e-001 9.310187e-001 5.257894e-001 -4.756520e-001 -2.060387e-001 -4.406528e-001 -1.075268e-001 -6.749654e-002 3.280349e-002 -1.422077e-001 -1.165078e-001 3.272921e-001 1.898065e-001 -9.254492e-002 -2.971535e-001 3.327376e-001 1.203761e-001 -7.042592e-002 -1.120442e-002
<VARIANCE> 39
 1.651712e+001 1.250684e+001 1.466038e+001 1.138221e+001 2.267094e+001 2.343381e+001 2.549074e+001 3.746344e+001 2.272479e+001 8.596712e+000 1.505278e+001 8.774302e+000 7.882448e+000 4.572902e-001 3.953524e-001 5.751978e-001 1.065583e+000 1.437736e+000 1.977732e+000 1.212265e+000 8.765084e-001 1.484916e+000 1.475678e+000 1.037757e+000 5.079759e-001 3.091621e-001 9.775332e-002 9.557724e-002 1.039800e-001 2.135414e-001 2.862983e-001 3.793688e-001 3.045560e-001 2.327298e-001 1.790067e-001 3.420439e-001 2.821047e-001 1.042085e-001 7.645689e-002
<GCONST> 8.312261e+001
<STATE> 4
<MEAN> 39
 -3.437956e+000 7.275627e+000 2.976137e-001 8.272008e-001 -1.890980e+000 -7.699584e+000 -7.600660e+000 -9.632393e+000 -3.105324e+000 -2.802646e+000 -6.321906e-001 -1.621713e+000 6.240871e+001 -3.366418e-001 -3.340251e-001 -4.002746e-001 -6.119249e-002 5.150385e-001 9.001492e-001 4.452755e-001 2.965953e-001 4.689755e-002 3.696477e-001 8.938061e-003 1.023320e-002 -3.905748e-001 -9.202901e-002 -9.483346e-002 5.929616e-002 4.550647e-003 -9.676979e-002 -5.077832e-002 8.657783e-002 1.334793e-001 -4.343293e-002 -5.457015e-002 4.268950e-002 3.492209e-002 1.857448e-002
<VARIANCE> 39
 1.386633e+001 1.185303e+001 1.272367e+001 1.015380e+001 1.355612e+001 2.636287e+001 2.213623e+001 4.003221e+001 1.990993e+001 1.346395e+001 1.057569e+001 1.069440e+001 1.121119e+001 4.644566e-001 7.993290e-001 8.144719e-001 9.629563e-001 9.094837e-001 1.411077e+000 1.561992e+000 1.600376e+000 1.138567e+000 1.544814e+000 9.629055e-001 5.245106e-001 1.619243e-001 6.281664e-002 1.296854e-001 1.455299e-001 2.194686e-001 2.000197e-001 2.898982e-001 2.970341e-001 2.831887e-001 2.617676e-001 3.107294e-001 1.888607e-001 8.851597e-002 2.928302e-002
<GCONST> 8.132707e+001
<TRANSP> 5
 0.000000e+000 1.000000e+000 0.000000e+000 0.000000e+000 0.000000e+000
 0.000000e+000 7.045683e-001 2.954317e-001 0.000000e+000 0.000000e+000
 0.000000e+000 0.000000e+000 5.729768e-001 4.270231e-001 0.000000e+000
 0.000000e+000 0.000000e+000 0.000000e+000 9.191593e-001 8.084073e-002
 0.000000e+000 0.000000e+000 0.000000e+000 0.000000e+000 0.000000e+000
<ENDHMM>
~h "w"
<BEGINHMM>
<NUMSTATES> 5
<STATE> 2
<MEAN> 39
 -2.798081e+000 1.015603e+000 -2.737489e+000 -6.760623e+000 -9.013508e+000 -7.721240e+000 -2.340556e+000 -5.791430e+000 -3.008503e+000 -2.842516e+000 -2.408931e+000 -3.042888e+000 6.712006e+001 1.816639e-002 7.030336e-003 1.035966e-002 1.197295e-002 -3.030741e-002 -3.000990e-002 -1.121263e-002 -1.918899e-002 -8.024712e-003 -9.913054e-003 -2.549139e-003 -2.114425e-003 5.405467e-003 -4.415081e-003 1.196028e-002 1.510665e-003 1.035524e-002 1.260583e-002 1.132140e-002 1.643880e-003 5.128350e-003 4.624746e-003 4.331185e-003 1.837649e-003 5.600615e-003 -3.189945e-002
<VARIANCE> 39
 3.428817e+001 4.836518e+001 6.373507e+001 6.480933e+001 7.744907e+001 9.549992e+001 5.887634e+001 5.563300e+001 4.740282e+001 3.601039e+001 3.689566e+001 3.421291e+001 5.592876e+001 1.284020e+000 1.579060e+000 1.448692e+000 1.879212e+000 2.206893e+000 2.620023e+000 2.072583e+000 2.299653e+000 2.249433e+000 1.916542e+000 1.814010e+000 1.601416e+000 1.662629e+000 1.691740e-001 2.286167e-001 1.968112e-001 2.685542e-001 3.292408e-001 3.721457e-001 3.482843e-001 3.651308e-001 3.816728e-001 3.350308e-001 3.148932e-001 2.783629e-001 1.694588e-001
<GCONST> 1.144672e+002
<STATE> 3
<MEAN> 39
 -2.798081e+000 1.015603e+000 -2.737489e+000 -6.760623e+000 -9.013508e+000 -7.721240e+000 -2.340556e+000 -5.791430e+000 -3.008503e+000 -2.842516e+000 -2.408931e+000 -3.042888e+000 6.712006e+001 1.816639e-002 7.030336e-003 1.035966e-002 1.197295e-002 -3.030741e-002 -3.000990e-002 -1.121263e-002 -1.918899e-002 -8.024712e-003 -9.913054e-003 -2.549139e-003 -2.114425e-003 5.405467e-003 -4.415081e-003 1.196028e-002 1.510665e-003 1.035524e-002 1.260583e-002 1.132140e-002 1.643880e-003 5.128350e-003 4.624746e-003 4.331185e-003 1.837649e-003 5.600615e-003 -3.189945e-002
<VARIANCE> 39
 3.428817e+001 4.836518e+001 6.373507e+001 6.480933e+001 7.744907e+001 9.549992e+001 5.887634e+001 5.563300e+001 4.740282e+001 3.601039e+001 3.689566e+001 3.421291e+001 5.592876e+001 1.284020e+000 1.579060e+000 1.448692e+000 1.879212e+000 2.206893e+000 2.620023e+000 2.072583e+000 2.299653e+000 2.249433e+000 1.916542e+000 1.814010e+000 1.601416e+000 1.662629e+000 1.691740e-001 2.286167e-001 1.968112e-001 2.685542e-001 3.292408e-001 3.721457e-001 3.482843e-001 3.651308e-001 3.816728e-001 3.350308e-001 3.148932e-001 2.783629e-001 1.694588e-001
<GCONST> 1.144672e+002
<STATE> 4
<MEAN> 39
 -2.798081e+000 1.015603e+000 -2.737489e+000 -6.760623e+000 -9.013508e+000 -7.721240e+000 -2.340556e+000 -5.791430e+000 -3.008503e+000 -2.842516e+000 -2.408931e+000 -3.042888e+000 6.712006e+001 1.816639e-002 7.030336e-003 1.035966e-002 1.197295e-002 -3.030741e-002 -3.000990e-002 -1.121263e-002 -1.918899e-002 -8.024712e-003 -9.913054e-003 -2.549139e-003 -2.114425e-003 5.405467e-003 -4.415081e-003 1.196028e-002 1.510665e-003 1.035524e-002 1.260583e-002 1.132140e-002 1.643880e-003 5.128350e-003 4.624746e-003 4.331185e-003 1.837649e-003 5.600615e-003 -3.189945e-002
<VARIANCE> 39
 3.428817e+001 4.836518e+001 6.373507e+001 6.480933e+001 7.744907e+001 9.549992e+001 5.887634e+001 5.563300e+001 4.740282e+001 3.601039e+001 3.689566e+001 3.421291e+001 5.592876e+001 1.284020e+000 1.579060e+000 1.448692e+000 1.879212e+000 2.206893e+000 2.620023e+000 2.072583e+000 2.299653e+000 2.249433e+000 1.916542e+000 1.814010e+000 1.601416e+000 1.662629e+000 1.691740e-001 2.286167e-001 1.968112e-001 2.685542e-001 3.292408e-001 3.721457e-001 3.482843e-001 3.651308e-001 3.816728e-001 3.350308e-001 3.148932e-001 2.783629e-001 1.694588e-001
<GCONST> 1.144672e+002
<TRANSP> 5
 0.000000e+000 1.000000e+000 0.000000e+000 0.000000e+000 0.000000e+000
 0.000000e+000 6.000000e-001 4.000000e-001 0.000000e+000 0.000000e+000
 0.000000e+000 0.000000e+000 6.000000e-001 4.000000e-001 0.000000e+000
 0.000000e+000 0.000000e+000 0.000000e+000 7.000000e-001 3.000000e-001
 0.000000e+000 0.000000e+000 0.000000e+000 0.000000e+000 0.000000e+000
<ENDHMM>
~h "a:"
<BEGINHMM>
<NUMSTATES> 5
<STATE> 2
<MEAN> 39
 6.106286e-001 -9.069396e+000 -1.238222e+001 -1.520052e+001 -1.465570e+000 5.726774e+000 4.530547e-002 -1.232436e+001 -1.792565e+000 5.766539e-001 -1.179634e+001 -6.971265e+000 7.603567e+001 -2.183704e-002 1.683157e-001 -1.379671e-003 1.952946e-001 -5.529121e-002 -1.824376e-001 -8.656710e-003 1.140319e-001 1.695160e-001 6.559392e-002 1.172523e-001 -4.099621e-002 -1.855042e-001 1.989955e-002 1.011165e-001 4.086201e-002 6.853293e-002 -5.994147e-002 -1.752049e-001 -1.980984e-002 1.181581e-001 1.895782e-002 -3.030634e-002 7.548448e-002 3.110064e-002 -9.759036e-002
<VARIANCE> 39
 1.411049e+001 1.325166e+001 1.915628e+001 4.173090e+001 3.745752e+001 6.183231e+001 6.176597e+001 2.235350e+001 7.449904e+001 3.178452e+001 2.605379e+001 3.786246e+001 2.855689e+001 2.212172e-001 4.515042e-001 4.470746e-001 6.432654e-001 9.606090e-001 1.473633e+000 8.763313e-001 1.552939e+000 9.853455e-001 7.146694e-001 8.060420e-001 7.304386e-001 3.239274e-001 4.804983e-002 7.476012e-002 8.214658e-002 1.134456e-001 1.509735e-001 2.234455e-001 1.715999e-001 2.479903e-001 1.854159e-001 1.394612e-001 1.553615e-001 1.324305e-001 4.485312e-002
<GCONST> 8.418983e+001
<STATE> 3
<MEAN> 39
 5.518634e-001 -4.178300e+000 -1.261217e+001 -1.053307e+001 -2.109041e+000 -3.583290e-001 1.340975e+000 -7.243401e+000 4.657980e-002 -4.214208e-001 -7.365306e+000 -6.371821e+000 7.050591e+001 -1.201005e-001 8.725658e-001 6.525733e-001 9.764968e-001 -3.160684e-001 -1.256965e+000 -3.008983e-001 1.015933e+000 -6.650270e-002 -7.953287e-003 8.729331e-001 3.581881e-001 -1.358352e+000 -1.180973e-001 3.183823e-002 2.197768e-001 3.278395e-002 3.972010e-002 8.626666e-002 -1.726913e-001 -9.233671e-002 -1.432667e-001 -7.403134e-002 5.480587e-002 1.623941e-001 -1.706579e-001
<VARIANCE> 39
 1.209161e+001 1.900228e+001 2.673363e+001 2.960276e+001 2.865476e+001 5.460957e+001 5.276748e+001 2.070012e+001 5.077615e+001 3.959466e+001 3.048976e+001 3.303600e+001 4.870168e+001 9.985405e-001 1.199964e+000 1.623279e+000 1.262571e+000 1.316588e+000 5.247835e+000 2.266830e+000 1.932509e+000 3.222955e+000 1.584311e+000 1.783646e+000 1.391662e+000 1.049433e+000 1.511176e-001 2.318795e-001 2.713186e-001 2.381921e-001 2.970468e-001 7.940575e-001 4.413083e-001 3.384421e-001 5.390633e-001 2.909578e-001 3.836599e-001 2.798844e-001 2.148007e-001
<GCONST> 1.083846e+002
<STATE> 4
<MEAN> 39
 -4.199316e+000 -1.022499e+000 -8.995049e+000 -7.202120e+000 -2.816895e+000 -1.370009e+000 -4.139344e-001 -2.524298e+000 7.314163e-001 6.560622e-001 -1.989158e+000 -3.453821e+000 6.205187e+001 -6.881210e-001 1.346754e-001 5.442952e-001 2.072670e-001 -1.823892e-002 -4.575494e-001 -4.035557e-001 3.894444e-001 -1.246347e-002 -1.008016e-001 3.113034e-001 4.541510e-001 -5.014549e-001 4.522868e-002 -1.194930e-001 -6.686931e-002 -1.465086e-001 -7.653837e-003 -2.614210e-002 -1.544459e-002 -9.168158e-002 2.991674e-002 -3.923825e-002 -1.023903e-001 -3.926156e-002 3.133073e-001
<VARIANCE> 39
 2.455138e+001 1.840064e+001 2.434468e+001 1.994103e+001 1.805011e+001 4.752655e+001 3.175158e+001 1.920546e+001 1.837017e+001 2.339647e+001 2.325892e+001 2.107708e+001 6.095896e+001 1.351809e+000 1.284967e+000 1.240313e+000 1.796350e+000 1.261489e+000 4.084503e+000 2.307304e+000 1.921558e+000 2.228300e+000 1.615148e+000 1.934980e+000 1.864480e+000 3.824398e+000 2.367714e-001 1.944939e-001 2.379179e-001 2.811469e-001 2.247035e-001 7.209727e-001 3.862565e-001 3.902563e-001 3.734761e-001 2.906416e-001 3.587356e-001 3.226644e-001 3.557674e-001
<GCONST> 1.069932e+002
<TRANSP> 5
 0.000000e+000 1.000000e+000 0.000000e+000 0.000000e+000 0.000000e+000
 0.000000e+000 9.307256e-001 6.927440e-002 0.000000e+000 0.000000e+000
 0.000000e+000 0.000000e+000 6.159130e-001 3.840869e-001 0.000000e+000
 0.000000e+000 0.000000e+000 0.000000e+000 8.749512e-001 1.250488e-001
 0.000000e+000 0.000000e+000 0.000000e+000 0.000000e+000 0.000000e+000
<ENDHMM>
~h "ae"
<BEGINHMM>
<NUMSTATES> 5
<STATE> 2
<MEAN> 39
 -2.113396e-001 -9.406121e+000 -9.564933e+000 -1.095784e+001 -6.643112e+000 -5.842038e+000 -8.372657e-001 -2.119409e+000 4.574778e+000 -1.223442e+000 -1.064597e+001 -8.361218e+000 7.600188e+001 -1.667530e-001 3.099813e-001 5.579542e-001 5.393565e-001 -6.813228e-001 -1.493988e+000 8.641960e-002 1.089991e+000 9.354839e-002 -1.890907e-001 3.900393e-001 3.500154e-001 -2.019571e-001 -2.297469e-002 8.820762e-002 7.050499e-002 -2.537022e-002 -9.837410e-002 6.622678e-002 4.698271e-002 -1.307128e-001 -1.258777e-001 1.326293e-004 1.615372e-001 6.714295e-002 -4.057351e-002
<VARIANCE> 39
 6.817860e+000 2.123162e+001 2.891235e+001 3.971313e+001 6.069880e+001 1.224392e+002 4.618716e+001 7.584492e+001 3.930127e+001 2.196859e+001 1.904530e+001 4.905417e+001 1.014038e+001 2.082658e-001 5.429630e-001 8.697290e-001 1.137913e+000 1.573871e+000 2.152695e+000 1.630127e+000 2.459355e+000 1.759957e+000 1.111608e+000 1.463606e+000 1.040596e+000 2.108082e-001 3.552726e-002 7.654073e-002 1.300838e-001 1.484668e-001 2.357727e-001 3.262627e-001 2.506408e-001 3.267145e-001 2.373626e-001 2.084684e-001 1.876309e-001 1.489480e-001 2.405672e-002
<GCONST> 9.141145e+001
<STATE> 3
<MEAN> 39
 -1.927288e+000 -5.677653e+000 -3.552356e+000 -6.194695e+000 -1.495552e+001 -1.748075e+001 2.244289e+000 3.547017e+000 2.845258e+000 -2.607721e+000 -2.841953e+000 -3.215005e+000 7.336311e+001 -2.891896e-001 8.780921e-001 8.394126e-001 3.540034e-001 -7.001647e-001 -1.845470e-001 4.498976e-001 -9.178724e-001 -8.506255e-001 7.458776e-002 1.250707e+000 4.631049e-001 -6.503990e-001 2.448597e-002 1.222922e-003 -7.321828e-002 4.519462e-002 1.557626e-001 1.682156e-001 -7.704044e-002 -2.146147e-001 3.383907e-002 4.762515e-002 -1.205047e-001 -1.003209e-001 -5.706470e-002
<VARIANCE> 39
 6.244296e+000 2.787209e+001 6.463594e+001 4.798318e+001 7.960570e+001 4.920418e+001 5.655537e+001 1.859367e+001 1.186798e+001 1.793196e+001 2.408821e+001 4.653439e+001 1.159558e+001 2.715150e-001 6.239176e-001 7.228638e-001 8.682693e-001 1.079095e+000 1.270331e+000 9.476444e-001 1.258995e+000 9.243597e-001 1.689070e+000 1.333659e+000 1.007349e+000 2.498991e-001 5.015457e-002 8.429161e-002 1.390729e-001 2.124395e-001 1.916326e-001 1.528873e-001 1.677869e-001 2.565632e-001 1.704440e-001 2.323816e-001 1.954507e-001 1.441129e-001 3.359248e-002
<GCONST> 8.668954e+001
<STATE> 4
<MEAN> 39
 -4.184450e+000 -3.827549e-001 -1.473575e+000 -2.149522e+000 -1.434288e+001 -1.480377e+001 4.595440e+000 -1.371041e+000 6.802719e-001 -1.978833e+000 -6.940127e-002 -3.736337e+000 6.729684e+001 -3.232715e-001 4.746177e-001 2.861695e-001 5.013816e-001 1.932928e-001 5.510452e-001 -2.503047e-002 -5.460789e-001 -1.848432e-001 1.571416e-001 1.691873e-001 -1.285502e-002 -1.017511e+000 -1.793691e-002 -7.949683e-002 -9.689003e-002 -3.856319e-002 1.499713e-001 9.469010e-002 -7.785932e-002 1.199104e-001 7.169141e-002 -5.007422e-003 -1.337733e-001 -2.395692e-002 -2.880989e-002
<VARIANCE> 39
 9.407497e+000 2.378849e+001 3.868971e+001 3.516386e+001 6.827634e+001 4.916597e+001 5.711285e+001 2.854544e+001 2.970771e+001 2.085352e+001 3.082330e+001 2.171367e+001 2.085075e+001 2.753917e-001 9.586625e-001 8.611417e-001 9.416623e-001 1.024897e+000 1.500074e+000 1.386686e+000 1.551017e+000 1.301723e+000 1.239461e+000 1.730417e+000 1.517209e+000 4.414687e-001 4.363171e-002 1.130040e-001 1.546200e-001 1.359385e-001 1.418206e-001 2.845339e-001 2.717561e-001 3.230166e-001 2.563236e-001 2.134549e-001 3.202332e-001 2.768911e-001 4.987841e-002
<GCONST> 9.292755e+001
<TRANSP> 5
 0.000000e+000 1.000000e+000 0.000000e+000 0.000000e+000 0.000000e+000
 0.000000e+000 9.117178e-001 8.828221e-002 0.000000e+000 0.000000e+000
 0.000000e+000 0.000000e+000 7.350737e-001 2.649263e-001 0.000000e+000
 0.000000e+000 0.000000e+000 0.000000e+000 8.964397e-001 1.035603e-001
 0.000000e+000 0.000000e+000 0.000000e+000 0.000000e+000 0.000000e+000
<ENDHMM>
~h "ai"
<BEGINHMM>
<NUMSTATES> 5
<STATE> 2
<MEAN> 39
 -9.427381e-001 -3.780691e+000 -1.156538e+000 -7.439951e+000 -1.379036e+001 -1.806597e+001 -4.320560e+000 -1.541152e+000 9.719872e-001 -3.107759e+000 -2.470418e+000 -2.762182e+000 7.421999e+001 -3.461453e-001 1.399671e+000 1.418110e+000 7.189545e-001 -9.951179e-001 -5.359098e-001 3.500261e-002 -7.582663e-001 -1.455586e+000 -6.608500e-002 1.461044e+000 5.362261e-001 -7.440985e-001 3.963412e-003 2.185446e-002 -1.737371e-001 -5.453009e-002 2.449555e-001 4.119070e-001 1.676911e-001 -2.121690e-001 -1.028183e-001 4.051292e-002 -2.868472e-001 -2.539133e-001 -7.458629e-002
<VARIANCE> 39
 5.201527e+000 2.628461e+001 4.930499e+001 5.134777e+001 9.683106e+001 7.101760e+001 4.788441e+001 3.207183e+001 4.371285e+001 2.129939e+001 5.231704e+001 4.665925e+001 8.233249e+000 3.948117e-001 6.879191e-001 1.199060e+000 6.837199e-001 1.968893e+000 2.918919e+000 2.132622e+000 2.920560e+000 2.557438e+000 1.741192e+000 2.956760e+000 2.148733e+000 2.639050e-001 4.897261e-002 1.092827e-001 1.438469e-001 1.089505e-001 2.345696e-001 3.609112e-001 2.456380e-001 3.951903e-001 3.899343e-001 3.588258e-001 5.798577e-001 3.054237e-001 2.264742e-002
<GCONST> 9.976221e+001
<STATE> 3
<MEAN> 39
 -2.006894e+000 3.023467e+000 3.902506e+000 -3.452327e+000 -1.662332e+001 -1.735560e+001 -1.687739e+000 -7.833412e+000 -5.884181e+000 -3.064639e+000 -1.273726e+000 -3.238021e+000 6.978638e+001 -1.860411e-001 1.093237e+000 5.897202e-001 5.924984e-001 3.813044e-001 7.583842e-001 1.994169e-001 -1.002190e+000 -6.206573e-001 -7.716037e-002 -7.418667e-001 -2.911918e-001 -1.011840e+000 1.959978e-002 -1.368070e-001 -1.447193e-001 -1.411125e-002 1.906699e-001 7.367169e-002 -1.385376e-001 1.341461e-001 2.229133e-001 5.845563e-002 -1.018552e-001 4.561736e-002 6.389465e-003
<VARIANCE> 39
 4.209802e+000 1.402672e+001 3.541402e+001 4.857512e+001 6.398544e+001 5.727763e+001 3.322817e+001 3.845835e+001 3.534777e+001 2.057228e+001 2.197173e+001 3.002053e+001 8.590940e+000 2.858858e-001 6.280573e-001 6.459895e-001 8.790296e-001 8.329749e-001 8.763641e-001 1.600123e+000 1.360334e+000 1.472108e+000 8.502837e-001 1.423805e+000 1.018712e+000 2.865360e-001 5.046808e-002 8.014406e-002 1.232688e-001 1.844009e-001 1.693886e-001 1.703336e-001 2.805356e-001 2.680477e-001 3.130258e-001 1.618312e-001 3.040272e-001 2.249563e-001 2.674451e-002
<GCONST> 8.660907e+001
<STATE> 4
<MEAN> 39
 -4.811205e+000 6.925762e+000 5.219992e+000 4.324902e-001 -1.129902e+001 -1.092430e+001 -1.052670e+000 -1.120287e+001 -5.543392e+000 -2.466878e+000 -3.211107e+000 -3.241656e+000 6.376977e+001 -3.986917e-001 -1.100936e-001 -8.955868e-002 2.142942e-001 6.774937e-001 8.668424e-001 -2.605482e-002 1.577570e-001 2.459587e-001 1.119496e-001 3.479679e-002 1.389089e-001 -7.495764e-001 -4.552662e-002 -1.697156e-001 -1.167986e-001 -1.212725e-001 -2.603451e-003 9.559820e-003 8.819995e-003 1.625088e-001 9.387781e-002 1.358629e-002 4.724497e-002 4.642725e-002 3.192553e-002
<VARIANCE> 39
 9.012749e+000 2.494511e+001 3.524577e+001 2.841275e+001 4.146967e+001 5.897417e+001 4.603778e+001 3.343012e+001 5.070646e+001 2.347509e+001 2.175786e+001 1.915688e+001 1.782538e+001 3.780448e-001 9.581214e-001 9.642513e-001 1.361641e+000 1.378214e+000 1.320340e+000 1.310867e+000 1.626460e+000 1.530091e+000 1.223333e+000 1.243746e+000 1.122470e+000 2.042526e-001 6.012803e-002 1.116578e-001 1.816732e-001 2.467669e-001 2.607238e-001 2.193420e-001 2.734109e-001 2.478120e-001 2.240325e-001 1.752715e-001 2.238413e-001 2.074122e-001 3.029347e-002
<GCONST> 9.165686e+001
<TRANSP> 5
 0.000000e+000 1.000000e+000 0.000000e+000 0.000000e+000 0.000000e+000
 0.000000e+000 8.227745e-001 1.772255e-001 0.000000e+000 0.000000e+000
 0.000000e+000 0.000000e+000 7.315898e-001 2.684102e-001 0.000000e+000
 0.000000e+000 0.000000e+000 0.000000e+000 9.128329e-001 8.716711e-002
 0.000000e+000 0.000000e+000 0.000000e+000 0.000000e+000 0.000000e+000
<ENDHMM>
~h "ao"
<BEGINHMM>
<NUMSTATES> 5
<STATE> 2
<MEAN> 39
 2.750666e+000 -4.277264e+000 -1.068468e+001 -1.941201e+001 -1.134082e+001 4.318429e+000 6.384237e+000 -8.140265e+000 -1.282876e+000 -3.811165e+000 -8.628324e+000 -4.521356e-001 7.317979e+001 1.322677e-001 4.071972e-001 1.117456e-001 -2.005004e-001 -4.137791e-001 -1.529112e-001 -4.721485e-002 1.150064e-001 1.498826e-001 -1.256400e-002 -1.023981e-001 2.170893e-001 -2.356332e-001 1.394471e-002 6.546061e-002 2.489546e-003 1.509749e-002 -1.805427e-002 -5.643038e-002 -4.105437e-002 4.394115e-002 -2.374083e-002 -1.493350e-002 -1.217294e-003 -5.554670e-002 -3.600041e-002
<VARIANCE> 39
 1.620723e+001 3.381218e+001 4.163066e+001 3.790344e+001 1.091049e+002 7.380614e+001 5.095048e+001 9.311070e+001 7.024390e+001 3.925900e+001 2.566598e+001 5.602626e+001 1.328533e+001 2.136543e-001 4.179037e-001 4.542032e-001 5.128594e-001 8.480731e-001 6.932181e-001 9.919679e-001 1.047334e+000 1.232179e+000 9.536397e-001 1.070885e+000 1.058957e+000 1.585536e-001 3.658142e-002 4.985079e-002 7.401724e-002 8.108208e-002 1.714771e-001 1.275617e-001 1.334410e-001 1.671766e-001 1.952357e-001 1.592586e-001 1.731614e-001 1.723851e-001 1.853955e-002
<GCONST> 8.464700e+001
<STATE> 3
<MEAN> 39
 4.368308e+000 2.378875e+000 -9.602491e+000 -1.976036e+001 -1.519354e+001 1.434142e+000 5.837844e+000 -4.353707e+000 -4.991793e-001 -4.569242e+000 -8.636300e+000 -1.752034e-001 6.958054e+001 -3.138166e-002 6.923887e-001 2.984598e-001 1.664939e-001 -3.186699e-001 -5.644571e-001 -3.739822e-001 4.225268e-001 1.257164e-001 -1.953670e-001 2.629949e-002 -1.023984e-001 -4.939406e-001 -3.927774e-002 1.654313e-003 3.209891e-002 4.771915e-002 9.062685e-002 -4.401432e-002 -5.232043e-002 2.477773e-003 -1.070614e-002 -5.065914e-002 3.262965e-002 -5.497816e-002 -2.553278e-002
<VARIANCE> 39
 1.251546e+001 2.724572e+001 4.308165e+001 3.563522e+001 1.082814e+002 5.631990e+001 4.430808e+001 6.646753e+001 5.705109e+001 3.903329e+001 1.716471e+001 3.062197e+001 1.322127e+001 1.040673e-001 4.378268e-001 4.500998e-001 5.545038e-001 7.386821e-001 7.659395e-001 8.517208e-001 8.744031e-001 1.430053e+000 1.170261e+000 7.438043e-001 8.327585e-001 1.367950e-001 1.675921e-002 4.083533e-002 4.924906e-002 7.076301e-002 1.317789e-001 9.960076e-002 1.468381e-001 1.290426e-001 2.118000e-001 1.856630e-001 1.329844e-001 1.378249e-001 1.347695e-002
<GCONST> 7.802216e+001
<STATE> 4
<MEAN> 39
 1.650164e+000 7.384036e+000 -6.345868e+000 -1.499502e+001 -1.353765e+001 -4.984537e+000 2.362044e+000 1.909675e-001 6.788698e-001 -4.366698e+000 -6.490229e+000 -2.675245e+000 6.353733e+001 -5.403683e-001 2.952088e-002 3.513281e-001 8.143359e-001 5.435393e-001 -2.830213e-001 -4.299566e-001 2.220373e-001 3.272557e-002 3.754184e-002 2.677909e-001 -1.637558e-001 -5.631136e-001 -5.946773e-002 -1.038208e-001 -1.255587e-002 5.896270e-002 9.478222e-002 6.485926e-002 1.643351e-002 -4.524394e-002 -4.114992e-003 6.711918e-002 5.801807e-002 4.909987e-002 -2.965471e-003
<VARIANCE> 39
 1.237531e+001 2.894333e+001 2.874392e+001 3.353894e+001 6.410674e+001 3.308854e+001 4.340005e+001 2.762134e+001 3.446001e+001 3.450785e+001 1.912702e+001 1.819659e+001 1.741331e+001 2.935553e-001 6.140759e-001 5.857562e-001 9.172559e-001 1.231228e+000 1.312575e+000 8.306879e-001 1.355544e+000 1.321868e+000 1.041808e+000 1.056785e+000 1.068128e+000 1.388436e-001 3.352989e-002 5.951643e-002 9.364979e-002 1.313672e-001 1.557293e-001 1.798174e-001 1.497328e-001 2.209607e-001 2.345408e-001 1.875082e-001 1.924610e-001 1.885113e-001 1.482895e-002
<GCONST> 8.344903e+001
<TRANSP> 5
 0.000000e+000 1.000000e+000 0.000000e+000 0.000000e+000 0.000000e+000
 0.000000e+000 9.153017e-001 8.469837e-002 0.000000e+000 0.000000e+000
 0.000000e+000 0.000000e+000 7.946447e-001 2.053552e-001 0.000000e+000
 0.000000e+000 0.000000e+000 0.000000e+000 9.211896e-001 7.881041e-002
 0.000000e+000 0.000000e+000 0.000000e+000 0.000000e+000 0.000000e+000
<ENDHMM>
~h "au"
<BEGINHMM>
<NUMSTATES> 5
<STATE> 2
<MEAN> 39
 2.332310e+000 -3.644856e+000 -9.961977e+000 -1.153883e+001 -7.638789e+000 -1.042462e+001 -7.412608e+000 -6.412063e+000 4.107111e+000 3.627594e+000 -2.430301e+000 -7.063678e+000 7.419807e+001 1.945705e-001 8.592183e-001 3.907389e-001 4.415240e-001 -2.026879e-001 -6.930190e-001 -7.597073e-001 -5.709720e-001 -1.090117e-001 2.003501e-001 6.639926e-001 4.889725e-001 -5.641444e-001 -3.056351e-003 7.703330e-002 2.332150e-002 2.648653e-002 1.025406e-001 9.570640e-002 5.064315e-002 -4.494774e-002 -1.777139e-001 -1.157966e-001 1.659624e-003 3.582164e-002 -8.088623e-002
<VARIANCE> 39
 7.405551e+000 2.893265e+001 3.131742e+001 4.278618e+001 4.861456e+001 1.182958e+002 6.385662e+001 5.558237e+001 5.143177e+001 2.043356e+001 3.810406e+001 5.154388e+001 1.126324e+001 2.145665e-001 7.403683e-001 4.184582e-001 6.057296e-001 1.070029e+000 8.450164e-001 1.049078e+000 1.809896e+000 1.930709e+000 1.304418e+000 1.173740e+000 1.292499e+000 2.360297e-001 3.009208e-002 7.303195e-002 6.537938e-002 8.689582e-002 1.703460e-001 1.457523e-001 1.990028e-001 2.560349e-001 3.281242e-001 2.656001e-001 2.008859e-001 2.051116e-001 1.725634e-002
<GCONST> 8.761050e+001
<STATE> 3
<MEAN> 39
 3.564684e+000 2.978318e+000 -6.910141e+000 -8.717404e+000 -7.556494e+000 -1.200658e+001 -1.099466e+001 -1.178550e+001 -2.652670e-001 2.182696e+000 4.787287e-001 -4.131468e+000 6.950128e+001 9.415214e-003 8.774188e-001 4.648311e-001 3.963109e-001 2.946808e-001 1.235241e-001 -2.485957e-001 -4.207850e-001 -1.030506e+000 -5.263923e-001 -1.993615e-002 1.791304e-001 -7.384295e-001 -5.608205e-002 -7.491247e-002 1.218293e-002 -4.439343e-002 -3.687496e-004 1.304459e-001 1.199852e-001 1.321506e-001 9.626906e-003 -4.998731e-002 -1.375563e-001 -5.600181e-002 7.399062e-003
<VARIANCE> 39
 5.095459e+000 2.675126e+001 3.159027e+001 5.253978e+001 4.596059e+001 1.095079e+002 4.047794e+001 6.861938e+001 5.023815e+001 2.559491e+001 2.480887e+001 3.403159e+001 9.519664e+000 1.756856e-001 4.535902e-001 5.652701e-001 5.205232e-001 1.003944e+000 1.184851e+000 1.493430e+000 1.234323e+000 1.285027e+000 1.492628e+000 1.095878e+000 1.303005e+000 1.995210e-001 2.681894e-002 5.304704e-002 7.299440e-002 8.262628e-002 1.863957e-001 1.392581e-001 2.109017e-001 1.953833e-001 2.426596e-001 2.221001e-001 2.078959e-001 1.904326e-001 1.460504e-002
<GCONST> 8.415578e+001
<STATE> 4
<MEAN> 39
 4.779017e-001 7.230387e+000 -2.747202e+000 -5.128762e+000 -5.517045e+000 -7.461675e+000 -8.339826e+000 -9.085187e+000 -4.780235e+000 -2.953775e+000 -2.044201e+000 -3.236701e+000 6.314288e+001 -4.660452e-001 7.843425e-003 3.101667e-001 3.574828e-001 3.058016e-001 3.323072e-001 2.845352e-001 3.881687e-001 -8.882036e-002 -2.963595e-001 -2.377703e-001 1.492073e-001 -5.734528e-001 -5.970959e-002 -1.135575e-001 -5.097681e-002 4.919672e-003 2.587535e-002 4.803619e-003 2.441652e-002 4.193477e-002 7.966583e-002 5.928817e-002 1.674634e-002 4.149423e-003 2.310509e-002
<VARIANCE> 39
 1.194588e+001 2.617813e+001 1.654480e+001 2.864422e+001 3.089854e+001 5.268845e+001 2.828500e+001 4.729341e+001 3.007799e+001 3.334989e+001 1.919570e+001 1.706895e+001 1.658314e+001 2.918994e-001 5.613872e-001 5.380679e-001 8.331794e-001 1.008859e+000 1.264495e+000 1.388339e+000 1.371947e+000 1.225887e+000 1.405962e+000 1.072133e+000 9.512266e-001 1.742500e-001 3.634088e-002 7.298130e-002 9.422909e-002 1.361434e-001 1.755087e-001 1.773395e-001 2.336050e-001 2.221714e-001 1.940847e-001 2.665505e-001 1.992286e-001 1.494227e-001 1.902261e-002
<GCONST> 8.362747e+001
<TRANSP> 5
 0.000000e+000 1.000000e+000 0.000000e+000 0.000000e+000 0.000000e+000
 0.000000e+000 8.615671e-001 1.384329e-001 0.000000e+000 0.000000e+000
 0.000000e+000 0.000000e+000 7.915059e-001 2.084941e-001 0.000000e+000
 0.000000e+000 0.000000e+000 0.000000e+000 9.273055e-001 7.269457e-002
 0.000000e+000 0.000000e+000 0.000000e+000 0.000000e+000 0.000000e+000
<ENDHMM>
~h "e:"
<BEGINHMM>
<NUMSTATES> 5
<STATE> 2
<MEAN> 39
 -3.429578e+000 2.982746e-001 5.706047e+000 -6.388675e+000 -2.208479e+001 -1.806825e+001 -3.882514e+000 -8.684079e+000 -8.127500e+000 -3.690919e+000 3.708160e+000 -6.367525e+000 7.474528e+001 6.571524e-004 4.867566e-003 2.828466e-002 -8.088829e-002 4.632847e-002 4.598514e-002 4.842279e-003 8.274125e-002 2.109457e-002 -6.249214e-002 5.183440e-002 -1.867076e-002 -1.241787e-001 4.754549e-003 2.033673e-002 -1.361727e-002 2.942987e-002 2.431105e-002 5.593739e-003 -9.535321e-004 2.568763e-003 9.810705e-003 -2.868642e-002 -4.077056e-002 2.819674e-002 -3.389287e-002
<VARIANCE> 39
 4.221530e+000 7.880234e+000 3.476465e+001 3.760769e+001 3.558215e+001 4.984044e+001 4.180847e+001 3.489724e+001 1.698645e+001 2.814685e+001 2.298819e+001 4.190044e+001 1.299622e+001 9.256756e-002 2.720678e-001 3.312031e-001 5.265513e-001 6.485749e-001 5.887778e-001 6.267587e-001 6.808482e-001 5.047289e-001 6.464272e-001 6.158167e-001 5.449704e-001 9.677619e-002 1.556689e-002 4.662171e-002 6.608639e-002 9.101800e-002 1.254548e-001 1.082848e-001 1.297597e-001 1.268515e-001 9.699420e-002 1.414224e-001 1.210495e-001 1.117125e-001 1.724395e-002
<GCONST> 6.753890e+001
<STATE> 3
<MEAN> 39
 -3.060880e+000 -7.757093e-002 6.139780e+000 -6.007036e+000 -2.163441e+001 -1.753328e+001 -3.441843e+000 -6.572509e+000 -8.649944e+000 -4.348583e+000 2.909658e+000 -4.822715e+000 7.139403e+001 1.367313e-001 2.399794e-001 -3.259211e-001 4.823648e-001 2.995183e-001 1.385620e-001 2.972216e-001 8.666655e-002 2.334599e-001 -3.840637e-001 -3.509303e-001 1.787427e-001 -5.222965e-001 4.528045e-002 1.407788e-001 -1.069309e-001 1.586404e-001 1.298339e-001 3.481014e-002 6.316610e-002 1.267466e-002 8.025539e-002 -1.354661e-002 -1.346153e-001 -1.120117e-001 -1.512997e-001
<VARIANCE> 39
 4.257268e+000 1.426844e+001 2.496012e+001 3.920604e+001 3.910121e+001 5.745018e+001 3.202529e+001 3.327694e+001 2.153404e+001 3.402369e+001 3.173407e+001 3.324387e+001 2.338501e+001 1.861951e-001 4.830100e-001 4.588293e-001 7.469709e-001 9.797968e-001 7.510747e-001 1.152912e+000 1.233442e+000 6.531488e-001 9.137349e-001 7.305224e-001 9.090307e-001 2.669112e-001 3.311016e-002 8.573655e-002 8.020341e-002 1.537904e-001 1.735474e-001 1.287580e-001 2.603316e-001 2.171661e-001 9.915500e-002 1.778303e-001 1.532488e-001 1.742414e-001 4.100984e-002
<GCONST> 8.059937e+001
<STATE> 4
<MEAN> 39
 -3.283605e+000 2.218860e+000 3.888769e+000 -2.609597e+000 -1.615306e+001 -1.324190e+001 -1.173979e+000 -6.287141e+000 -5.381406e+000 -5.444670e+000 2.862934e-002 -5.744478e+000 6.744138e+001 -1.274482e-001 2.497181e-001 -4.302023e-001 5.593709e-001 9.749219e-001 5.816485e-001 1.918708e-001 1.519069e-001 3.788443e-001 2.181522e-002 -4.507954e-001 2.431923e-001 -1.005628e+000 -8.100367e-002 -6.682669e-002 -3.669988e-002 -8.525683e-003 1.329775e-001 5.334947e-002 -1.019285e-001 1.974752e-002 1.777563e-002 1.147097e-001 8.891295e-002 1.088612e-001 -3.965436e-002
<VARIANCE> 39
 6.702077e+000 2.478160e+001 2.784397e+001 3.838347e+001 5.159506e+001 5.219154e+001 3.203816e+001 4.133556e+001 2.428021e+001 3.018132e+001 3.663171e+001 3.296003e+001 2.568748e+001 3.393299e-001 1.115800e+000 5.902554e-001 1.115546e+000 1.434909e+000 1.678016e+000 1.719960e+000 1.557995e+000 1.072255e+000 1.520751e+000 1.707830e+000 1.741598e+000 4.334423e-001 5.227856e-002 1.507165e-001 8.195102e-002 1.535081e-001 1.957719e-001 2.094543e-001 2.768307e-001 2.721283e-001 2.059479e-001 2.184899e-001 3.272240e-001 3.606175e-001 5.248494e-002
<GCONST> 9.382394e+001
<TRANSP> 5
 0.000000e+000 1.000000e+000 0.000000e+000 0.000000e+000 0.000000e+000
 0.000000e+000 9.448707e-001 5.512933e-002 0.000000e+000 0.000000e+000
 0.000000e+000 0.000000e+000 6.162937e-001 3.837063e-001 0.000000e+000
 0.000000e+000 0.000000e+000 0.000000e+000 8.437619e-001 1.562382e-001
 0.000000e+000 0.000000e+000 0.000000e+000 0.000000e+000 0.000000e+000
<ENDHMM>
~h "ea"
<BEGINHMM>
<NUMSTATES> 5
<STATE> 2
<MEAN> 39
 -2.798081e+000 1.015603e+000 -2.737489e+000 -6.760623e+000 -9.013508e+000 -7.721240e+000 -2.340556e+000 -5.791430e+000 -3.008503e+000 -2.842516e+000 -2.408931e+000 -3.042888e+000 6.712006e+001 1.816639e-002 7.030336e-003 1.035966e-002 1.197295e-002 -3.030741e-002 -3.000990e-002 -1.121263e-002 -1.918899e-002 -8.024712e-003 -9.913054e-003 -2.549139e-003 -2.114425e-003 5.405467e-003 -4.415081e-003 1.196028e-002 1.510665e-003 1.035524e-002 1.260583e-002 1.132140e-002 1.643880e-003 5.128350e-003 4.624746e-003 4.331185e-003 1.837649e-003 5.600615e-003 -3.189945e-002
<VARIANCE> 39
 3.428817e+001 4.836518e+001 6.373507e+001 6.480933e+001 7.744907e+001 9.549992e+001 5.887634e+001 5.563300e+001 4.740282e+001 3.601039e+001 3.689566e+001 3.421291e+001 5.592876e+001 1.284020e+000 1.579060e+000 1.448692e+000 1.879212e+000 2.206893e+000 2.620023e+000 2.072583e+000 2.299653e+000 2.249433e+000 1.916542e+000 1.814010e+000 1.601416e+000 1.662629e+000 1.691740e-001 2.286167e-001 1.968112e-001 2.685542e-001 3.292408e-001 3.721457e-001 3.482843e-001 3.651308e-001 3.816728e-001 3.350308e-001 3.148932e-001 2.783629e-001 1.694588e-001
<GCONST> 1.144672e+002
<STATE> 3
<MEAN> 39
 -2.798081e+000 1.015603e+000 -2.737489e+000 -6.760623e+000 -9.013508e+000 -7.721240e+000 -2.340556e+000 -5.791430e+000 -3.008503e+000 -2.842516e+000 -2.408931e+000 -3.042888e+000 6.712006e+001 1.816639e-002 7.030336e-003 1.035966e-002 1.197295e-002 -3.030741e-002 -3.000990e-002 -1.121263e-002 -1.918899e-002 -8.024712e-003 -9.913054e-003 -2.549139e-003 -2.114425e-003 5.405467e-003 -4.415081e-003 1.196028e-002 1.510665e-003 1.035524e-002 1.260583e-002 1.132140e-002 1.643880e-003 5.128350e-003 4.624746e-003 4.331185e-003 1.837649e-003 5.600615e-003 -3.189945e-002
<VARIANCE> 39
 3.428817e+001 4.836518e+001 6.373507e+001 6.480933e+001 7.744907e+001 9.549992e+001 5.887634e+001 5.563300e+001 4.740282e+001 3.601039e+001 3.689566e+001 3.421291e+001 5.592876e+001 1.284020e+000 1.579060e+000 1.448692e+000 1.879212e+000 2.206893e+000 2.620023e+000 2.072583e+000 2.299653e+000 2.249433e+000 1.916542e+000 1.814010e+000 1.601416e+000 1.662629e+000 1.691740e-001 2.286167e-001 1.968112e-001 2.685542e-001 3.292408e-001 3.721457e-001 3.482843e-001 3.651308e-001 3.816728e-001 3.350308e-001 3.148932e-001 2.783629e-001 1.694588e-001
<GCONST> 1.144672e+002
<STATE> 4
<MEAN> 39
 -2.798081e+000 1.015603e+000 -2.737489e+000 -6.760623e+000 -9.013508e+000 -7.721240e+000 -2.340556e+000 -5.791430e+000 -3.008503e+000 -2.842516e+000 -2.408931e+000 -3.042888e+000 6.712006e+001 1.816639e-002 7.030336e-003 1.035966e-002 1.197295e-002 -3.030741e-002 -3.000990e-002 -1.121263e-002 -1.918899e-002 -8.024712e-003 -9.913054e-003 -2.549139e-003 -2.114425e-003 5.405467e-003 -4.415081e-003 1.196028e-002 1.510665e-003 1.035524e-002 1.260583e-002 1.132140e-002 1.643880e-003 5.128350e-003 4.624746e-003 4.331185e-003 1.837649e-003 5.600615e-003 -3.189945e-002
<VARIANCE> 39
 3.428817e+001 4.836518e+001 6.373507e+001 6.480933e+001 7.744907e+001 9.549992e+001 5.887634e+001 5.563300e+001 4.740282e+001 3.601039e+001 3.689566e+001 3.421291e+001 5.592876e+001 1.284020e+000 1.579060e+000 1.448692e+000 1.879212e+000 2.206893e+000 2.620023e+000 2.072583e+000 2.299653e+000 2.249433e+000 1.916542e+000 1.814010e+000 1.601416e+000 1.662629e+000 1.691740e-001 2.286167e-001 1.968112e-001 2.685542e-001 3.292408e-001 3.721457e-001 3.482843e-001 3.651308e-001 3.816728e-001 3.350308e-001 3.148932e-001 2.783629e-001 1.694588e-001
<GCONST> 1.144672e+002
<TRANSP> 5
 0.000000e+000 1.000000e+000 0.000000e+000 0.000000e+000 0.000000e+000
 0.000000e+000 6.000000e-001 4.000000e-001 0.000000e+000 0.000000e+000
 0.000000e+000 0.000000e+000 6.000000e-001 4.000000e-001 0.000000e+000
 0.000000e+000 0.000000e+000 0.000000e+000 7.000000e-001 3.000000e-001
 0.000000e+000 0.000000e+000 0.000000e+000 0.000000e+000 0.000000e+000
<ENDHMM>
~h "ei"
<BEGINHMM>
<NUMSTATES> 5
<STATE> 2
<MEAN> 39
 -2.543645e+000 -8.316851e-001 2.051104e+000 -5.918527e+000 -1.801235e+001 -1.954095e+001 -3.599154e-001 -3.153168e+000 -4.844155e+000 -2.825584e+000 1.862066e+000 -4.704467e+000 7.497362e+001 -9.113759e-002 6.372385e-001 4.339998e-001 1.848644e-001 -2.463403e-002 2.209050e-001 -1.085920e-001 -8.285355e-001 -4.599745e-001 2.474958e-001 2.622853e-001 -6.113975e-002 -4.072796e-001 -7.697418e-003 3.977052e-002 -2.339160e-002 3.345821e-002 6.754025e-002 5.147662e-002 4.265736e-002 -2.367568e-003 1.056031e-002 -4.533879e-002 -9.318822e-002 9.653008e-003 -4.298643e-002
<VARIANCE> 39
 4.676097e+000 1.475673e+001 3.820731e+001 4.723648e+001 3.533653e+001 1.047872e+002 4.788844e+001 5.006701e+001 3.314294e+001 5.568918e+001 2.578717e+001 3.848089e+001 1.113819e+001 1.229716e-001 3.111569e-001 3.421366e-001 5.737848e-001 5.946312e-001 8.838192e-001 8.378404e-001 9.958435e-001 8.553149e-001 7.645546e-001 1.043181e+000 8.500014e-001 1.548436e-001 2.247960e-002 4.975295e-002 6.325517e-002 8.973312e-002 1.033564e-001 9.937406e-002 1.762798e-001 1.723342e-001 1.549021e-001 1.250022e-001 1.379262e-001 1.194314e-001 1.957758e-002
<GCONST> 7.609005e+001
<STATE> 3
<MEAN> 39
 -3.624532e+000 5.084724e+000 7.946109e+000 -2.301138e+000 -1.880723e+001 -1.154602e+001 -2.564941e-001 -1.129694e+001 -8.180531e+000 -1.973578e+000 5.771942e-001 -6.488897e+000 6.939524e+001 -6.072681e-002 6.180467e-001 1.982098e-001 3.288043e-001 4.693830e-001 6.542587e-001 8.754958e-002 -3.928221e-001 -1.026369e-001 4.040394e-002 -3.540286e-001 -5.051814e-002 -6.493649e-001 -5.284019e-003 -4.477873e-002 -8.518373e-002 1.152379e-002 1.047707e-001 -2.907557e-002 -8.632299e-003 9.081128e-002 4.903622e-002 -1.928837e-002 1.138438e-002 6.186351e-002 -1.562929e-002
<VARIANCE> 39
 5.545171e+000 1.467605e+001 3.521905e+001 3.637415e+001 4.359046e+001 6.629723e+001 5.322722e+001 4.449593e+001 2.913537e+001 4.513605e+001 2.659226e+001 3.131925e+001 1.278579e+001 1.102297e-001 4.549173e-001 4.893140e-001 6.387811e-001 5.947162e-001 9.183893e-001 9.753340e-001 1.172015e+000 8.105717e-001 8.078284e-001 9.261573e-001 7.567912e-001 1.373300e-001 2.261363e-002 5.142326e-002 8.169702e-002 8.113001e-002 1.021293e-001 1.418145e-001 2.080263e-001 2.248444e-001 1.399203e-001 1.553896e-001 1.663227e-001 1.290372e-001 1.601311e-002
<GCONST> 7.715974e+001
<STATE> 4
<MEAN> 39
 -4.958612e+000 7.518083e+000 6.475922e+000 -1.464659e-002 -1.161135e+001 -7.916370e+000 5.163298e-001 -1.105348e+001 -7.552835e+000 -2.085220e+000 -2.307365e+000 -4.662971e+000 6.435097e+001 -2.525106e-001 -7.711159e-002 -3.015224e-001 2.508084e-001 9.256809e-001 6.501105e-001 5.565902e-002 2.274063e-001 3.018542e-001 1.995024e-002 -2.054477e-001 1.863574e-001 -6.560788e-001 -4.166351e-002 -1.191321e-001 -8.460084e-002 -4.740027e-002 1.290338e-002 -1.948475e-002 8.116851e-003 1.161453e-001 2.452364e-002 1.917267e-002 5.269577e-002 5.416349e-002 3.056517e-003
<VARIANCE> 39
 6.705651e+000 2.532546e+001 2.749362e+001 1.791887e+001 4.890513e+001 5.593987e+001 3.819241e+001 4.138548e+001 3.883434e+001 2.984118e+001 3.060126e+001 2.183786e+001 1.837110e+001 2.281955e-001 7.016891e-001 6.780785e-001 7.731834e-001 1.175182e+000 1.280809e+000 1.576782e+000 1.347703e+000 1.010931e+000 1.288225e+000 1.250023e+000 1.029293e+000 2.937185e-001 4.471749e-002 8.382567e-002 1.058062e-001 9.709966e-002 1.898466e-001 2.033230e-001 3.204255e-001 2.255651e-001 1.864816e-001 2.186009e-001 2.396492e-001 1.916076e-001 4.375504e-002
<GCONST> 8.728208e+001
<TRANSP> 5
 0.000000e+000 1.000000e+000 0.000000e+000 0.000000e+000 0.000000e+000
 0.000000e+000 8.934689e-001 1.065311e-001 0.000000e+000 0.000000e+000
 0.000000e+000 0.000000e+000 7.921075e-001 2.078926e-001 0.000000e+000
 0.000000e+000 0.000000e+000 0.000000e+000 9.051372e-001 9.486284e-002
 0.000000e+000 0.000000e+000 0.000000e+000 0.000000e+000 0.000000e+000
<ENDHMM>
~h "eo"
<BEGINHMM>
<NUMSTATES> 5
<STATE> 2
<MEAN> 39
 -2.798081e+000 1.015603e+000 -2.737489e+000 -6.760623e+000 -9.013508e+000 -7.721240e+000 -2.340556e+000 -5.791430e+000 -3.008503e+000 -2.842516e+000 -2.408931e+000 -3.042888e+000 6.712006e+001 1.816639e-002 7.030336e-003 1.035966e-002 1.197295e-002 -3.030741e-002 -3.000990e-002 -1.121263e-002 -1.918899e-002 -8.024712e-003 -9.913054e-003 -2.549139e-003 -2.114425e-003 5.405467e-003 -4.415081e-003 1.196028e-002 1.510665e-003 1.035524e-002 1.260583e-002 1.132140e-002 1.643880e-003 5.128350e-003 4.624746e-003 4.331185e-003 1.837649e-003 5.600615e-003 -3.189945e-002
<VARIANCE> 39
 3.428817e+001 4.836518e+001 6.373507e+001 6.480933e+001 7.744907e+001 9.549992e+001 5.887634e+001 5.563300e+001 4.740282e+001 3.601039e+001 3.689566e+001 3.421291e+001 5.592876e+001 1.284020e+000 1.579060e+000 1.448692e+000 1.879212e+000 2.206893e+000 2.620023e+000 2.072583e+000 2.299653e+000 2.249433e+000 1.916542e+000 1.814010e+000 1.601416e+000 1.662629e+000 1.691740e-001 2.286167e-001 1.968112e-001 2.685542e-001 3.292408e-001 3.721457e-001 3.482843e-001 3.651308e-001 3.816728e-001 3.350308e-001 3.148932e-001 2.783629e-001 1.694588e-001
<GCONST> 1.144672e+002
<STATE> 3
<MEAN> 39
 -2.798081e+000 1.015603e+000 -2.737489e+000 -6.760623e+000 -9.013508e+000 -7.721240e+000 -2.340556e+000 -5.791430e+000 -3.008503e+000 -2.842516e+000 -2.408931e+000 -3.042888e+000 6.712006e+001 1.816639e-002 7.030336e-003 1.035966e-002 1.197295e-002 -3.030741e-002 -3.000990e-002 -1.121263e-002 -1.918899e-002 -8.024712e-003 -9.913054e-003 -2.549139e-003 -2.114425e-003 5.405467e-003 -4.415081e-003 1.196028e-002 1.510665e-003 1.035524e-002 1.260583e-002 1.132140e-002 1.643880e-003 5.128350e-003 4.624746e-003 4.331185e-003 1.837649e-003 5.600615e-003 -3.189945e-002
<VARIANCE> 39
 3.428817e+001 4.836518e+001 6.373507e+001 6.480933e+001 7.744907e+001 9.549992e+001 5.887634e+001 5.563300e+001 4.740282e+001 3.601039e+001 3.689566e+001 3.421291e+001 5.592876e+001 1.284020e+000 1.579060e+000 1.448692e+000 1.879212e+000 2.206893e+000 2.620023e+000 2.072583e+000 2.299653e+000 2.249433e+000 1.916542e+000 1.814010e+000 1.601416e+000 1.662629e+000 1.691740e-001 2.286167e-001 1.968112e-001 2.685542e-001 3.292408e-001 3.721457e-001 3.482843e-001 3.651308e-001 3.816728e-001 3.350308e-001 3.148932e-001 2.783629e-001 1.694588e-001
<GCONST> 1.144672e+002
<STATE> 4
<MEAN> 39
 -2.798081e+000 1.015603e+000 -2.737489e+000 -6.760623e+000 -9.013508e+000 -7.721240e+000 -2.340556e+000 -5.791430e+000 -3.008503e+000 -2.842516e+000 -2.408931e+000 -3.042888e+000 6.712006e+001 1.816639e-002 7.030336e-003 1.035966e-002 1.197295e-002 -3.030741e-002 -3.000990e-002 -1.121263e-002 -1.918899e-002 -8.024712e-003 -9.913054e-003 -2.549139e-003 -2.114425e-003 5.405467e-003 -4.415081e-003 1.196028e-002 1.510665e-003 1.035524e-002 1.260583e-002 1.132140e-002 1.643880e-003 5.128350e-003 4.624746e-003 4.331185e-003 1.837649e-003 5.600615e-003 -3.189945e-002
<VARIANCE> 39
 3.428817e+001 4.836518e+001 6.373507e+001 6.480933e+001 7.744907e+001 9.549992e+001 5.887634e+001 5.563300e+001 4.740282e+001 3.601039e+001 3.689566e+001 3.421291e+001 5.592876e+001 1.284020e+000 1.579060e+000 1.448692e+000 1.879212e+000 2.206893e+000 2.620023e+000 2.072583e+000 2.299653e+000 2.249433e+000 1.916542e+000 1.814010e+000 1.601416e+000 1.662629e+000 1.691740e-001 2.286167e-001 1.968112e-001 2.685542e-001 3.292408e-001 3.721457e-001 3.482843e-001 3.651308e-001 3.816728e-001 3.350308e-001 3.148932e-001 2.783629e-001 1.694588e-001
<GCONST> 1.144672e+002
<TRANSP> 5
 0.000000e+000 1.000000e+000 0.000000e+000 0.000000e+000 0.000000e+000
 0.000000e+000 6.000000e-001 4.000000e-001 0.000000e+000 0.000000e+000
 0.000000e+000 0.000000e+000 6.000000e-001 4.000000e-001 0.000000e+000
 0.000000e+000 0.000000e+000 0.000000e+000 7.000000e-001 3.000000e-001
 0.000000e+000 0.000000e+000 0.000000e+000 0.000000e+000 0.000000e+000
<ENDHMM>
~h "eu"
<BEGINHMM>
<NUMSTATES> 5
<STATE> 2
<MEAN> 39
 -2.798081e+000 1.015603e+000 -2.737489e+000 -6.760623e+000 -9.013508e+000 -7.721240e+000 -2.340556e+000 -5.791430e+000 -3.008503e+000 -2.842516e+000 -2.408931e+000 -3.042888e+000 6.712006e+001 1.816639e-002 7.030336e-003 1.035966e-002 1.197295e-002 -3.030741e-002 -3.000990e-002 -1.121263e-002 -1.918899e-002 -8.024712e-003 -9.913054e-003 -2.549139e-003 -2.114425e-003 5.405467e-003 -4.415081e-003 1.196028e-002 1.510665e-003 1.035524e-002 1.260583e-002 1.132140e-002 1.643880e-003 5.128350e-003 4.624746e-003 4.331185e-003 1.837649e-003 5.600615e-003 -3.189945e-002
<VARIANCE> 39
 3.428817e+001 4.836518e+001 6.373507e+001 6.480933e+001 7.744907e+001 9.549992e+001 5.887634e+001 5.563300e+001 4.740282e+001 3.601039e+001 3.689566e+001 3.421291e+001 5.592876e+001 1.284020e+000 1.579060e+000 1.448692e+000 1.879212e+000 2.206893e+000 2.620023e+000 2.072583e+000 2.299653e+000 2.249433e+000 1.916542e+000 1.814010e+000 1.601416e+000 1.662629e+000 1.691740e-001 2.286167e-001 1.968112e-001 2.685542e-001 3.292408e-001 3.721457e-001 3.482843e-001 3.651308e-001 3.816728e-001 3.350308e-001 3.148932e-001 2.783629e-001 1.694588e-001
<GCONST> 1.144672e+002
<STATE> 3
<MEAN> 39
 -2.798081e+000 1.015603e+000 -2.737489e+000 -6.760623e+000 -9.013508e+000 -7.721240e+000 -2.340556e+000 -5.791430e+000 -3.008503e+000 -2.842516e+000 -2.408931e+000 -3.042888e+000 6.712006e+001 1.816639e-002 7.030336e-003 1.035966e-002 1.197295e-002 -3.030741e-002 -3.000990e-002 -1.121263e-002 -1.918899e-002 -8.024712e-003 -9.913054e-003 -2.549139e-003 -2.114425e-003 5.405467e-003 -4.415081e-003 1.196028e-002 1.510665e-003 1.035524e-002 1.260583e-002 1.132140e-002 1.643880e-003 5.128350e-003 4.624746e-003 4.331185e-003 1.837649e-003 5.600615e-003 -3.189945e-002
<VARIANCE> 39
 3.428817e+001 4.836518e+001 6.373507e+001 6.480933e+001 7.744907e+001 9.549992e+001 5.887634e+001 5.563300e+001 4.740282e+001 3.601039e+001 3.689566e+001 3.421291e+001 5.592876e+001 1.284020e+000 1.579060e+000 1.448692e+000 1.879212e+000 2.206893e+000 2.620023e+000 2.072583e+000 2.299653e+000 2.249433e+000 1.916542e+000 1.814010e+000 1.601416e+000 1.662629e+000 1.691740e-001 2.286167e-001 1.968112e-001 2.685542e-001 3.292408e-001 3.721457e-001 3.482843e-001 3.651308e-001 3.816728e-001 3.350308e-001 3.148932e-001 2.783629e-001 1.694588e-001
<GCONST> 1.144672e+002
<STATE> 4
<MEAN> 39
 -2.798081e+000 1.015603e+000 -2.737489e+000 -6.760623e+000 -9.013508e+000 -7.721240e+000 -2.340556e+000 -5.791430e+000 -3.008503e+000 -2.842516e+000 -2.408931e+000 -3.042888e+000 6.712006e+001 1.816639e-002 7.030336e-003 1.035966e-002 1.197295e-002 -3.030741e-002 -3.000990e-002 -1.121263e-002 -1.918899e-002 -8.024712e-003 -9.913054e-003 -2.549139e-003 -2.114425e-003 5.405467e-003 -4.415081e-003 1.196028e-002 1.510665e-003 1.035524e-002 1.260583e-002 1.132140e-002 1.643880e-003 5.128350e-003 4.624746e-003 4.331185e-003 1.837649e-003 5.600615e-003 -3.189945e-002
<VARIANCE> 39
 3.428817e+001 4.836518e+001 6.373507e+001 6.480933e+001 7.744907e+001 9.549992e+001 5.887634e+001 5.563300e+001 4.740282e+001 3.601039e+001 3.689566e+001 3.421291e+001 5.592876e+001 1.284020e+000 1.579060e+000 1.448692e+000 1.879212e+000 2.206893e+000 2.620023e+000 2.072583e+000 2.299653e+000 2.249433e+000 1.916542e+000 1.814010e+000 1.601416e+000 1.662629e+000 1.691740e-001 2.286167e-001 1.968112e-001 2.685542e-001 3.292408e-001 3.721457e-001 3.482843e-001 3.651308e-001 3.816728e-001 3.350308e-001 3.148932e-001 2.783629e-001 1.694588e-001
<GCONST> 1.144672e+002
<TRANSP> 5
 0.000000e+000 1.000000e+000 0.000000e+000 0.000000e+000 0.000000e+000
 0.000000e+000 6.000000e-001 4.000000e-001 0.000000e+000 0.000000e+000
 0.000000e+000 0.000000e+000 6.000000e-001 4.000000e-001 0.000000e+000
 0.000000e+000 0.000000e+000 0.000000e+000 7.000000e-001 3.000000e-001
 0.000000e+000 0.000000e+000 0.000000e+000 0.000000e+000 0.000000e+000
<ENDHMM>
~h "i:"
<BEGINHMM>
<NUMSTATES> 5
<STATE> 2
<MEAN> 39
 -4.003827e+000 7.017014e+000 1.061934e+001 -5.664732e+000 -1.631247e+001 -1.110141e+001 -5.766288e+000 -1.438854e+001 -1.217930e+001 -3.100605e+000 -2.561979e+000 -7.598072e+000 7.035557e+001 2.662720e-003 2.628818e-001 -8.225761e-002 1.802087e-001 2.734450e-001 3.218284e-001 8.576996e-002 1.660645e-003 1.769351e-001 -5.710907e-002 -2.828905e-002 -3.467840e-002 -3.466884e-001 8.197175e-003 -1.038286e-002 -8.031589e-002 4.620627e-002 5.041283e-002 1.817682e-002 1.190207e-002 9.298996e-003 6.655999e-002 -5.215145e-002 -3.848573e-002 2.780233e-002 -5.613603e-002
<VARIANCE> 39
 7.912880e+000 8.394618e+000 3.633447e+001 5.938344e+001 4.364627e+001 8.212222e+001 6.149547e+001 3.298338e+001 2.900694e+001 2.798102e+001 1.812986e+001 1.681933e+001 1.028834e+001 1.010820e-001 2.631256e-001 2.692481e-001 6.571515e-001 6.065005e-001 8.572193e-001 6.972635e-001 6.562635e-001 5.569713e-001 8.681955e-001 7.641713e-001 6.683698e-001 2.151274e-001 1.705807e-002 4.230478e-002 4.938488e-002 8.303202e-002 8.255154e-002 1.624532e-001 1.290721e-001 1.448136e-001 1.185838e-001 1.378204e-001 1.292386e-001 1.280007e-001 3.315568e-002
<GCONST> 7.172544e+001
<STATE> 3
<MEAN> 39
 -3.896557e+000 8.750721e+000 8.164925e+000 -4.568681e+000 -1.165676e+001 -1.196018e+001 -4.326645e+000 -1.311479e+001 -9.987279e+000 -4.897177e+000 -4.270022e+000 -6.609800e+000 6.792259e+001 -2.095919e-002 1.216545e-001 -2.414107e-001 1.623438e-001 3.893642e-001 5.616190e-002 3.129450e-003 1.801478e-001 3.205380e-001 -1.463747e-001 -1.203589e-001 2.522772e-001 -3.776389e-001 -2.587518e-003 -4.198848e-002 -1.783726e-002 1.924255e-002 1.197834e-002 -3.482116e-002 -1.528949e-002 3.034251e-002 -9.783138e-003 -2.496861e-002 -2.464646e-002 3.047018e-002 -2.912718e-002
