~o
<STREAMINFO> 1 39
<VECSIZE> 39<NULLD><MFCC_D_A_0><DIAGC>
~s "silst"
<MEAN> 39
 -1.051974e+001 3.014487e+000 -7.147733e-001 -1.594973e-001 -1.678220e+000 -3.137426e+000 -2.052479e-001 -6.500161e-001 -7.742900e-001 -9.271028e-003 -6.769443e-001 -3.430798e-001 5.299117e+001 -3.040158e-001 -8.479026e-001 -5.882892e-001 -5.469818e-001 -4.231997e-001 2.248747e-001 2.346448e-001 -6.586739e-002 7.696904e-002 -1.790215e-001 4.826359e-002 -1.344022e-001 1.033952e+000 -6.547520e-002 -2.222538e-001 -6.303777e-003 -2.762092e-001 -3.691705e-001 -1.342955e-001 -6.591764e-002 -1.836945e-001 4.983149e-002 -7.961750e-002 4.862264e-003 1.742921e-002 7.449179e-001
<VARIANCE> 39
 9.699664e+000 1.656641e+001 1.586323e+001 2.507615e+001 4.407307e+001 6.087557e+001 4.773459e+001 4.381484e+001 5.001706e+001 3.852715e+001 2.475842e+001 2.120294e+001 1.991479e+001 1.144217e+000 2.446774e+000 2.252549e+000 2.877554e+000 5.053669e+000 3.451263e+000 3.494324e+000 2.699534e+000 2.843783e+000 2.676545e+000 2.887141e+000 1.946283e+000 3.951896e+000 2.353546e-001 3.252990e-001 3.966468e-001 4.985303e-001 6.946990e-001 5.341159e-001 6.448794e-001 5.378744e-001 5.223588e-001 5.088008e-001 4.584505e-001 3.240292e-001 7.174996e-001
<GCONST> 1.184284e+002
~h "N"
<BEGINHMM>
<NUMSTATES> 5
<STATE> 2
<MEAN> 39
 -5.153443e+000 1.887341e+000 -3.998059e-001 -4.719388e+000 -1.027645e+001 -8.377604e+000 -1.314454e+000 -4.294622e+000 -2.598214e+000 -1.637859e+000 -2.417927e+000 -3.007498e-001 6.395220e+001 2.656938e-002 2.103826e-002 1.670751e-002 2.097466e-003 -4.075075e-002 -6.993482e-002 -7.360970e-003 -1.582084e-002 -2.291133e-002 -1.948875e-002 -7.798372e-003 -1.589407e-002 -1.794146e-002 -6.101388e-003 4.534691e-003 -4.683285e-003 2.991999e-003 1.307896e-002 1.532247e-002 4.297304e-003 2.199038e-003 5.607250e-003 8.410532e-003 3.306764e-003 1.353030e-003 -2.459256e-002
<VARIANCE> 39
 3.876240e+001 5.593195e+001 6.909898e+001 8.084949e+001 8.242165e+001 1.017876e+002 5.764616e+001 6.496631e+001 6.744147e+001 4.920574e+001 3.916745e+001 3.616992e+001 8.957718e+001 1.350502e+000 1.888252e+000 1.699849e+000 2.401277e+000 2.816806e+000 2.814739e+000 2.621114e+000 2.615768e+000 2.810299e+000 2.549241e+000 2.217089e+000 1.828917e+000 2.527436e+000 1.981723e-001 2.897191e-001 2.501056e-001 3.312125e-001 4.046271e-001 4.166303e-001 4.473993e-001 4.295296e-001 4.660336e-001 4.356595e-001 3.927584e-001 3.259792e-001 2.569831e-001
<GCONST> 1.219561e+002
<STATE> 3
<MEAN> 39
 -5.153443e+000 1.887341e+000 -3.998059e-001 -4.719388e+000 -1.027645e+001 -8.377604e+000 -1.314454e+000 -4.294622e+000 -2.598214e+000 -1.637859e+000 -2.417927e+000 -3.007498e-001 6.395220e+001 2.656938e-002 2.103826e-002 1.670751e-002 2.097466e-003 -4.075075e-002 -6.993482e-002 -7.360970e-003 -1.582084e-002 -2.291133e-002 -1.948875e-002 -7.798372e-003 -1.589407e-002 -1.794146e-002 -6.101388e-003 4.534691e-003 -4.683285e-003 2.991999e-003 1.307896e-002 1.532247e-002 4.297304e-003 2.199038e-003 5.607250e-003 8.410532e-003 3.306764e-003 1.353030e-003 -2.459256e-002
<VARIANCE> 39
 3.876240e+001 5.593195e+001 6.909898e+001 8.084949e+001 8.242165e+001 1.017876e+002 5.764616e+001 6.496631e+001 6.744147e+001 4.920574e+001 3.916745e+001 3.616992e+001 8.957718e+001 1.350502e+000 1.888252e+000 1.699849e+000 2.401277e+000 2.816806e+000 2.814739e+000 2.621114e+000 2.615768e+000 2.810299e+000 2.549241e+000 2.217089e+000 1.828917e+000 2.527436e+000 1.981723e-001 2.897191e-001 2.501056e-001 3.312125e-001 4.046271e-001 4.166303e-001 4.473993e-001 4.295296e-001 4.660336e-001 4.356595e-001 3.927584e-001 3.259792e-001 2.569831e-001
<GCONST> 1.219561e+002
<STATE> 4
<MEAN> 39
 -5.153443e+000 1.887341e+000 -3.998059e-001 -4.719388e+000 -1.027645e+001 -8.377604e+000 -1.314454e+000 -4.294622e+000 -2.598214e+000 -1.637859e+000 -2.417927e+000 -3.007498e-001 6.395220e+001 2.656938e-002 2.103826e-002 1.670751e-002 2.097466e-003 -4.075075e-002 -6.993482e-002 -7.360970e-003 -1.582084e-002 -2.291133e-002 -1.948875e-002 -7.798372e-003 -1.589407e-002 -1.794146e-002 -6.101388e-003 4.534691e-003 -4.683285e-003 2.991999e-003 1.307896e-002 1.532247e-002 4.297304e-003 2.199038e-003 5.607250e-003 8.410532e-003 3.306764e-003 1.353030e-003 -2.459256e-002
<VARIANCE> 39
 3.876240e+001 5.593195e+001 6.909898e+001 8.084949e+001 8.242165e+001 1.017876e+002 5.764616e+001 6.496631e+001 6.744147e+001 4.920574e+001 3.916745e+001 3.616992e+001 8.957718e+001 1.350502e+000 1.888252e+000 1.699849e+000 2.401277e+000 2.816806e+000 2.814739e+000 2.621114e+000 2.615768e+000 2.810299e+000 2.549241e+000 2.217089e+000 1.828917e+000 2.527436e+000 1.981723e-001 2.897191e-001 2.501056e-001 3.312125e-001 4.046271e-001 4.166303e-001 4.473993e-001 4.295296e-001 4.660336e-001 4.356595e-001 3.927584e-001 3.259792e-001 2.569831e-001
<GCONST> 1.219561e+002
<TRANSP> 5
 0.000000e+000 1.000000e+000 0.000000e+000 0.000000e+000 0.000000e+000
 0.000000e+000 6.000000e-001 4.000000e-001 0.000000e+000 0.000000e+000
 0.000000e+000 0.000000e+000 6.000000e-001 4.000000e-001 0.000000e+000
 0.000000e+000 0.000000e+000 0.000000e+000 7.000000e-001 3.000000e-001
 0.000000e+000 0.000000e+000 0.000000e+000 0.000000e+000 0.000000e+000
<ENDHMM>
~h "a"
<BEGINHMM>
<NUMSTATES> 5
<STATE> 2
<MEAN> 39
 -2.813285e-001 -5.171499e+000 -8.684081e+000 -1.129295e+001 -6.059255e+000 -2.595583e+000 -1.077347e+000 -6.341659e+000 2.295326e+000 8.961776e+000 4.105026e-001 -3.442540e+000 7.252037e+001 -8.553627e-001 1.196132e+000 7.419901e-001 2.412178e+000 1.143871e+000 -1.675344e+000 -1.811153e+000 6.852781e-001 1.082767e+000 8.895886e-001 1.054584e+000 -4.083466e-001 -1.532627e+000 3.760529e-002 8.990791e-001 3.094703e-001 3.143349e-001 -4.012792e-001 -4.468152e-002 1.390317e-001 2.436490e-001 -3.589596e-001 -9.017891e-001 -2.329548e-001 1.572765e-001 -1.148138e+000
<VARIANCE> 39
 9.228762e+000 3.090224e+001 5.824921e+001 5.657086e+001 7.163050e+001 7.108212e+001 4.911583e+001 5.446504e+001 1.796232e+001 1.385533e+001 4.488404e+001 5.918481e+001 2.162658e+001 6.039325e-001 2.478086e+000 1.507779e+000 2.323670e+000 2.265493e+000 2.737709e+000 2.924986e+000 1.275715e+000 2.415758e+000 2.603277e+000 2.850819e+000 3.456526e+000 1.811635e+000 8.313872e-002 4.922635e-001 3.202114e-001 1.037022e+000 5.725735e-001 9.575884e-001 4.361822e-001 2.742591e-001 4.104985e-001 3.720034e-001 7.548167e-001 5.045919e-001 2.540607e-001
<GCONST> 1.166154e+002
<STATE> 3
<MEAN> 39
 -2.259585e+000 1.135885e+000 -6.933181e+000 -8.244252e+000 -7.325916e+000 -6.572456e+000 -4.545323e+000 -5.648238e+000 4.665624e-001 5.688758e+000 2.194341e+000 -2.587440e+000 6.155652e+001 -6.741361e-001 1.498258e-001 2.425186e-001 -1.984694e-001 4.551410e-002 -2.382481e-001 1.575852e-001 7.987260e-001 -1.838018e-001 -4.048366e-001 -2.070975e-002 8.773628e-003 -2.572725e+000 -6.444900e-003 -2.833861e-001 -2.565528e-001 -3.286299e-001 -3.665110e-002 3.094708e-001 2.344922e-001 -6.734180e-002 -5.668040e-002 -1.225053e-002 1.584352e-002 -3.149869e-002 2.414952e-001
<VARIANCE> 39
 9.264513e+000 5.617126e+000 4.866005e+001 2.434353e+001 4.633878e+001 2.264001e+001 2.052835e+001 2.874094e+001 3.400534e+001 1.838651e+001 1.930763e+001 2.619909e+001 1.937231e+001 4.693905e-001 9.935770e-001 1.589265e+000 1.862638e+000 2.766068e+000 2.954159e+000 2.605762e+000 2.055063e+000 1.982581e+000 1.541734e+000 1.345399e+000 8.987056e-001 2.439471e+000 1.002114e-001 1.286840e-001 3.692531e-001 6.996078e-001 4.419303e-001 4.342996e-001 5.463542e-001 3.091122e-001 4.176583e-001 3.551229e-001 2.817878e-001 3.359803e-001 2.304132e-001
<GCONST> 1.031034e+002
<STATE> 4
<MEAN> 39
 -7.017674e+000 4.203040e-001 -5.139976e+000 -5.780810e+000 -3.802032e+000 -4.561982e+000 -1.920558e+000 -1.004763e+000 3.031232e+000 5.931134e+000 4.015432e+000 -6.771069e-001 5.458093e+001 -1.216097e+000 -6.359234e-002 9.613365e-001 9.105709e-002 3.654975e-001 1.020358e+000 -4.060081e-001 -2.267191e-001 4.161149e-002 -1.501955e+000 -2.919626e-001 5.682332e-001 -4.823952e-001 -2.793772e-001 -1.893226e-001 2.636122e-001 -1.533506e-001 -2.748446e-001 1.085243e-001 -1.591755e-001 -3.463261e-001 1.887990e-002 -3.824971e-001 -3.077314e-001 4.771041e-002 8.425468e-001
<VARIANCE> 39
 1.195285e+001 2.484223e+001 2.773054e+001 1.769317e+001 4.578118e+001 2.456484e+001 1.957863e+001 6.266045e+000 1.687584e+001 1.925493e+001 1.212196e+001 1.812490e+001 1.167959e+001 8.562331e-001 2.238178e+000 3.607074e+000 2.303707e+000 1.904747e+000 2.331254e+000 1.171838e+000 9.614669e-001 2.041989e+000 2.042556e+000 8.026500e-001 2.015411e+000 3.392917e+000 1.658498e-001 3.830937e-001 4.879548e-001 4.425796e-001 6.106939e-001 4.034485e-001 1.932416e-001 1.907157e-001 5.039698e-001 3.901246e-001 9.224860e-002 2.919143e-001 2.782595e-001
<GCONST> 1.010330e+002
<TRANSP> 5
 0.000000e+000 1.000000e+000 0.000000e+000 0.000000e+000 0.000000e+000
 0.000000e+000 6.529260e-001 3.470739e-001 0.000000e+000 0.000000e+000
 0.000000e+000 0.000000e+000 7.658635e-001 2.341365e-001 0.000000e+000
 0.000000e+000 0.000000e+000 0.000000e+000 7.177975e-001 2.822025e-001
 0.000000e+000 0.000000e+000 0.000000e+000 0.000000e+000 0.000000e+000
<ENDHMM>
~h "e"
<BEGINHMM>
<NUMSTATES> 5
<STATE> 2
<MEAN> 39
 -6.205741e+000 -8.892790e-002 4.511804e+000 4.173169e+000 -1.278498e+001 -1.467767e+001 -6.031199e+000 -1.199403e-001 3.452245e+000 -2.791213e+000 -5.901014e+000 1.684516e+000 6.653478e+001 2.117992e-001 -4.368408e-002 8.817756e-002 -3.535563e-001 -1.027287e+000 -3.179884e-001 -3.429096e-001 6.399466e-001 1.731260e-001 -1.772839e-002 5.623403e-001 5.564076e-001 -4.205371e-001 -2.617830e-001 -8.191726e-002 -1.863869e-001 -1.050858e-001 2.503235e-001 2.422920e-001 -5.537307e-002 -3.578194e-001 -1.286989e-001 8.027842e-002 3.432068e-001 -9.102109e-002 -2.596539e-001
<VARIANCE> 39
 2.178171e+001 2.292419e+001 4.570605e+001 4.174699e+001 6.340138e+001 8.264549e+001 7.142948e+001 6.529601e+001 2.385355e+001 2.947763e+001 2.535471e+001 5.269267e+001 3.589523e+001 4.856325e-001 8.175935e-001 1.585562e+000 2.461280e+000 2.684785e+000 2.309988e+000 2.866930e+000 2.103703e+000 2.103162e+000 2.035183e+000 1.398813e+000 1.891466e+000 4.356571e-001 2.383329e-001 2.118091e-001 1.066442e-001 3.618735e-001 5.291194e-001 6.040109e-001 3.837374e-001 5.998936e-001 3.628076e-001 3.023114e-001 4.507810e-001 5.955238e-001 5.522133e-002
<GCONST> 1.101734e+002
<STATE> 3
<MEAN> 39
 -6.209836e+000 1.249067e+000 8.024731e+000 2.808268e+000 -1.617793e+001 -1.414545e+001 -9.071715e+000 5.856282e-002 3.982942e+000 -3.303554e+000 -2.528703e+000 3.818640e+000 6.533669e+001 -5.844267e-002 2.992622e-001 -1.874354e-001 -2.090872e-002 2.344081e-001 -2.244843e-001 2.186911e-001 -7.856656e-002 -4.968702e-001 3.787857e-001 8.497487e-001 -1.553230e-001 -1.091900e+000 -7.944603e-002 -1.231449e-002 -1.952566e-001 1.888434e-001 7.121735e-001 3.125722e-001 3.152721e-001 -4.485053e-001 -2.662579e-001 1.719804e-001 2.450510e-003 -3.102743e-001 -3.451797e-001
<VARIANCE> 39
 1.189525e+001 1.689117e+001 6.804243e+001 3.967908e+001 5.882451e+001 6.226180e+001 5.742512e+001 5.383181e+001 3.853460e+001 2.203325e+001 2.095999e+001 4.369296e+001 2.913528e+001 3.583393e-001 8.940686e-001 8.748710e-001 1.532573e+000 2.077031e+000 4.337868e+000 1.740927e+000 2.409115e+000 1.400238e+000 1.450606e+000 1.246544e+000 2.257498e+000 7.105703e-001 8.793355e-002 1.430002e-001 2.860537e-001 3.723966e-001 5.109875e-001 6.343265e-001 6.197147e-001 4.551888e-001 4.819162e-001 3.094592e-001 3.417191e-001 5.125503e-001 1.168758e-001
<GCONST> 1.074485e+002
<STATE> 4
<MEAN> 39
 -8.120521e+000 -1.995708e+000 1.612959e+000 2.006911e+000 -1.143377e+001 -1.582364e+001 1.253230e+000 1.628585e+000 8.678649e-001 -3.564746e-001 -4.573863e+000 -1.271388e+000 5.913664e+001 -2.117013e-001 -1.015677e-001 -4.439426e-001 -1.554729e-001 8.703735e-001 3.969512e-001 3.463190e-001 -2.225051e-001 5.762129e-002 4.820399e-001 1.445617e-001 -2.183094e-001 -9.572878e-001 -3.245971e-002 -1.631189e-002 -7.345769e-002 -2.283905e-002 1.747776e-001 2.114980e-001 -6.278282e-004 -1.535036e-002 7.535746e-002 3.583001e-002 -9.582114e-002 -2.498309e-002 -1.351849e-004
<VARIANCE> 39
 1.277822e+001 1.752287e+001 3.390731e+001 4.879407e+001 8.701118e+001 6.073365e+001 7.480815e+001 3.117108e+001 2.798501e+001 1.591904e+001 4.676410e+001 2.921758e+001 4.027678e+001 3.222566e-001 7.387150e-001 1.112951e+000 1.499649e+000 1.958263e+000 1.897896e+000 1.793292e+000 1.563198e+000 2.016422e+000 1.260649e+000 1.646043e+000 1.273212e+000 5.297254e-001 4.347720e-002 8.812378e-002 1.305123e-001 2.043231e-001 2.955558e-001 3.167889e-001 2.645322e-001 2.744026e-001 3.256140e-001 2.134777e-001 3.286344e-001 2.614835e-001 3.242246e-002
<GCONST> 9.756996e+001
<TRANSP> 5
 0.000000e+000 1.000000e+000 0.000000e+000 0.000000e+000 0.000000e+000
 0.000000e+000 6.319675e-002 9.368033e-001 0.000000e+000 0.000000e+000
 0.000000e+000 0.000000e+000 4.703682e-001 5.296318e-001 0.000000e+000
 0.000000e+000 0.000000e+000 0.000000e+000 7.853855e-001 2.146145e-001
 0.000000e+000 0.000000e+000 0.000000e+000 0.000000e+000 0.000000e+000
<ENDHMM>
~h "f"
<BEGINHMM>
<NUMSTATES> 5
<STATE> 2
<MEAN> 39
 -5.153443e+000 1.887341e+000 -3.998059e-001 -4.719388e+000 -1.027645e+001 -8.377604e+000 -1.314454e+000 -4.294622e+000 -2.598214e+000 -1.637859e+000 -2.417927e+000 -3.007498e-001 6.395220e+001 2.656938e-002 2.103826e-002 1.670751e-002 2.097466e-003 -4.075075e-002 -6.993482e-002 -7.360970e-003 -1.582084e-002 -2.291133e-002 -1.948875e-002 -7.798372e-003 -1.589407e-002 -1.794146e-002 -6.101388e-003 4.534691e-003 -4.683285e-003 2.991999e-003 1.307896e-002 1.532247e-002 4.297304e-003 2.199038e-003 5.607250e-003 8.410532e-003 3.306764e-003 1.353030e-003 -2.459256e-002
<VARIANCE> 39
 3.876240e+001 5.593195e+001 6.909898e+001 8.084949e+001 8.242165e+001 1.017876e+002 5.764616e+001 6.496631e+001 6.744147e+001 4.920574e+001 3.916745e+001 3.616992e+001 8.957718e+001 1.350502e+000 1.888252e+000 1.699849e+000 2.401277e+000 2.816806e+000 2.814739e+000 2.621114e+000 2.615768e+000 2.810299e+000 2.549241e+000 2.217089e+000 1.828917e+000 2.527436e+000 1.981723e-001 2.897191e-001 2.501056e-001 3.312125e-001 4.046271e-001 4.166303e-001 4.473993e-001 4.295296e-001 4.660336e-001 4.356595e-001 3.927584e-001 3.259792e-001 2.569831e-001
<GCONST> 1.219561e+002
<STATE> 3
<MEAN> 39
 -5.153443e+000 1.887341e+000 -3.998059e-001 -4.719388e+000 -1.027645e+001 -8.377604e+000 -1.314454e+000 -4.294622e+000 -2.598214e+000 -1.637859e+000 -2.417927e+000 -3.007498e-001 6.395220e+001 2.656938e-002 2.103826e-002 1.670751e-002 2.097466e-003 -4.075075e-002 -6.993482e-002 -7.360970e-003 -1.582084e-002 -2.291133e-002 -1.948875e-002 -7.798372e-003 -1.589407e-002 -1.794146e-002 -6.101388e-003 4.534691e-003 -4.683285e-003 2.991999e-003 1.307896e-002 1.532247e-002 4.297304e-003 2.199038e-003 5.607250e-003 8.410532e-003 3.306764e-003 1.353030e-003 -2.459256e-002
<VARIANCE> 39
 3.876240e+001 5.593195e+001 6.909898e+001 8.084949e+001 8.242165e+001 1.017876e+002 5.764616e+001 6.496631e+001 6.744147e+001 4.920574e+001 3.916745e+001 3.616992e+001 8.957718e+001 1.350502e+000 1.888252e+000 1.699849e+000 2.401277e+000 2.816806e+000 2.814739e+000 2.621114e+000 2.615768e+000 2.810299e+000 2.549241e+000 2.217089e+000 1.828917e+000 2.527436e+000 1.981723e-001 2.897191e-001 2.501056e-001 3.312125e-001 4.046271e-001 4.166303e-001 4.473993e-001 4.295296e-001 4.660336e-001 4.356595e-001 3.927584e-001 3.259792e-001 2.569831e-001
<GCONST> 1.219561e+002
<STATE> 4
<MEAN> 39
 -5.153443e+000 1.887341e+000 -3.998059e-001 -4.719388e+000 -1.027645e+001 -8.377604e+000 -1.314454e+000 -4.294622e+000 -2.598214e+000 -1.637859e+000 -2.417927e+000 -3.007498e-001 6.395220e+001 2.656938e-002 2.103826e-002 1.670751e-002 2.097466e-003 -4.075075e-002 -6.993482e-002 -7.360970e-003 -1.582084e-002 -2.291133e-002 -1.948875e-002 -7.798372e-003 -1.589407e-002 -1.794146e-002 -6.101388e-003 4.534691e-003 -4.683285e-003 2.991999e-003 1.307896e-002 1.532247e-002 4.297304e-003 2.199038e-003 5.607250e-003 8.410532e-003 3.306764e-003 1.353030e-003 -2.459256e-002
<VARIANCE> 39
 3.876240e+001 5.593195e+001 6.909898e+001 8.084949e+001 8.242165e+001 1.017876e+002 5.764616e+001 6.496631e+001 6.744147e+001 4.920574e+001 3.916745e+001 3.616992e+001 8.957718e+001 1.350502e+000 1.888252e+000 1.699849e+000 2.401277e+000 2.816806e+000 2.814739e+000 2.621114e+000 2.615768e+000 2.810299e+000 2.549241e+000 2.217089e+000 1.828917e+000 2.527436e+000 1.981723e-001 2.897191e-001 2.501056e-001 3.312125e-001 4.046271e-001 4.166303e-001 4.473993e-001 4.295296e-001 4.660336e-001 4.356595e-001 3.927584e-001 3.259792e-001 2.569831e-001
<GCONST> 1.219561e+002
<TRANSP> 5
 0.000000e+000 1.000000e+000 0.000000e+000 0.000000e+000 0.000000e+000
 0.000000e+000 6.000000e-001 4.000000e-001 0.000000e+000 0.000000e+000
 0.000000e+000 0.000000e+000 6.000000e-001 4.000000e-001 0.000000e+000
 0.000000e+000 0.000000e+000 0.000000e+000 7.000000e-001 3.000000e-001
 0.000000e+000 0.000000e+000 0.000000e+000 0.000000e+000 0.000000e+000
<ENDHMM>
~h "h"
<BEGINHMM>
<NUMSTATES> 5
<STATE> 2
<MEAN> 39
 -1.136362e+001 -2.648840e+000 -3.609348e+000 -1.162054e+001 -7.952300e+000 -2.993109e+000 4.657144e+000 6.568474e-001 2.520387e+000 1.195535e+000 -1.240446e+000 7.111100e-001 6.332758e+001 4.138820e-001 9.222863e-001 6.191884e-001 -8.212408e-002 -6.515131e-001 -5.077112e-001 8.623949e-002 -3.566984e-001 -3.561339e-001 -3.773407e-001 -5.269462e-001 -1.743930e-001 1.121873e+000 3.830628e-001 3.357134e-001 2.437448e-001 2.951122e-001 -1.179776e-001 -2.489619e-001 -2.431793e-001 -1.506728e-001 -1.074877e-001 -2.900521e-002 -4.467927e-002 2.853563e-002 1.263476e-002
<VARIANCE> 39
 2.358803e+001 4.865524e+001 5.109615e+001 9.489641e+001 5.489203e+001 7.838297e+001 4.538398e+001 5.765908e+001 4.839306e+001 2.776829e+001 3.293804e+001 3.101997e+001 2.136811e+001 2.112060e+000 2.156401e+000 1.876629e+000 2.773417e+000 2.462800e+000 1.989804e+000 1.881102e+000 3.236110e+000 2.290336e+000 1.965077e+000 1.965155e+000 1.910354e+000 1.050677e+000 2.107324e-001 3.199255e-001 2.456731e-001 3.021310e-001 4.761831e-001 5.099456e-001 3.398892e-001 5.203263e-001 4.369017e-001 3.422622e-001 4.050803e-001 3.956299e-001 8.516429e-002
<GCONST> 1.154384e+002
<STATE> 3
<MEAN> 39
 -1.862601e+000 5.920054e+000 1.139466e+000 -8.307779e+000 -1.479508e+001 -1.021348e+001 5.650669e-001 -4.371023e+000 -1.914985e+000 -1.869392e+000 -4.581932e+000 -1.025001e+000 7.016450e+001 1.653775e+000 -1.864418e-002 4.098407e-002 -1.704760e-001 -1.918521e+000 -1.789434e+000 -1.445143e+000 -9.518064e-001 -5.023541e-001 -3.717721e-001 -1.265001e-001 4.504129e-001 1.187109e+000 -5.160763e-001 -7.619864e-001 -4.949893e-001 -2.293253e-001 2.435169e-001 2.650987e-001 -6.434746e-002 4.341352e-002 5.307008e-002 5.436775e-002 3.063112e-001 2.384034e-001 -1.764503e-001
<VARIANCE> 39
 2.585779e+001 5.416071e+001 6.018149e+001 7.424818e+001 5.933060e+001 7.444396e+001 4.822013e+001 3.673936e+001 5.635554e+001 3.111782e+001 3.190333e+001 2.916208e+001 2.231664e+001 1.886522e+000 4.505461e+000 2.346576e+000 2.068719e+000 4.038874e+000 2.618180e+000 3.822306e+000 3.168795e+000 3.260574e+000 1.531667e+000 1.951893e+000 2.275251e+000 1.536176e+000 2.295868e-001 3.689021e-001 2.825474e-001 3.724713e-001 6.415385e-001 4.715386e-001 6.070135e-001 5.626125e-001 4.618267e-001 3.267297e-001 4.351039e-001 3.109563e-001 2.230244e-001
<GCONST> 1.203286e+002
<STATE> 4
<MEAN> 39
 1.206009e-001 9.539837e-001 -2.855196e+000 -1.045987e+001 -1.796103e+001 -1.067021e+001 -3.112686e+000 -7.772127e+000 -3.038762e+000 -4.528005e+000 -3.046549e+000 3.162454e+000 7.267589e+001 -2.535687e-001 -9.580253e-001 -2.854278e-001 1.290567e-001 2.748797e-001 1.061294e-001 -8.897553e-001 -1.065306e+000 -7.690818e-001 1.798292e-001 1.526771e+000 9.796777e-001 3.353568e-001 -2.236563e-001 4.691112e-002 2.287971e-001 3.309990e-001 3.839595e-001 1.782159e-002 -4.376311e-002 -4.260395e-003 1.989087e-001 3.786443e-001 1.022385e-001 -3.414872e-001 -1.569041e-001
<VARIANCE> 39
 1.466629e+001 6.227212e+001 5.794022e+001 6.762859e+001 5.435729e+001 8.204655e+001 5.495418e+001 4.889575e+001 6.286263e+001 2.929375e+001 4.309229e+001 4.626913e+001 2.661440e+001 2.728501e-001 1.353395e+000 1.178972e+000 1.320825e+000 3.390757e+000 1.624044e+000 3.793054e+000 2.907608e+000 2.701335e+000 2.721090e+000 3.419367e+000 2.050317e+000 7.644565e-001 9.729891e-002 3.785765e-001 2.388887e-001 3.057644e-001 4.355065e-001 5.419106e-001 9.320735e-001 5.073028e-001 6.173637e-001 3.786564e-001 6.971855e-001 7.037414e-001 1.389572e-001
<GCONST> 1.164412e+002
<TRANSP> 5
 0.000000e+000 1.000000e+000 0.000000e+000 0.000000e+000 0.000000e+000
 0.000000e+000 8.554159e-001 1.445841e-001 0.000000e+000 0.000000e+000
 0.000000e+000 0.000000e+000 7.296303e-001 2.703697e-001 0.000000e+000
 0.000000e+000 0.000000e+000 0.000000e+000 6.532023e-001 3.467977e-001
 0.000000e+000 0.000000e+000 0.000000e+000 0.000000e+000 0.000000e+000
<ENDHMM>
~h "i"
<BEGINHMM>
<NUMSTATES> 5
<STATE> 2
<MEAN> 39
 -2.464561e+001 1.054348e+000 2.991651e+000 -8.071548e+000 -5.875888e+000 -3.210649e+000 7.506387e-001 -1.978090e+000 3.094157e+000 -9.646434e-001 1.914948e-001 -1.276887e-001 6.477442e+001 -1.609129e+000 3.294202e-001 2.529559e+000 1.688246e+000 2.801850e-001 -9.185978e-001 1.237129e+000 -9.527282e-002 -7.706507e-001 -7.749095e-001 -6.850625e-002 9.519189e-002 1.070668e+000 1.178336e+000 1.460042e-001 1.667744e-001 5.630045e-001 1.405214e-001 -4.576347e-001 -3.041185e-001 -9.283760e-002 -4.402567e-001 -3.668307e-002 -1.343150e-001 -1.204560e-001 -3.933837e-001
<VARIANCE> 39
 6.062692e+001 1.448484e+001 3.900883e+001 4.061189e+001 1.956442e+001 2.678524e+001 4.750927e+001 2.625838e+001 3.466280e+001 2.068693e+001 1.240944e+001 1.197627e+001 2.415376e+001 1.179477e+001 1.719071e+000 3.097988e+000 5.265674e+000 2.392032e+000 4.706671e+000 2.571190e+000 1.970943e+000 3.409033e+000 1.266794e+000 2.389400e+000 1.840072e+000 3.509330e+000 1.213585e+000 3.838559e-001 5.717907e-001 3.672764e-001 7.945510e-001 6.963454e-001 7.110607e-001 3.814601e-001 5.635018e-001 2.135856e-001 4.009796e-001 2.971091e-001 5.238914e-001
<GCONST> 1.189065e+002
<STATE> 3
<MEAN> 39
 -1.614594e+001 1.947479e+000 1.191843e+001 5.007800e+000 -7.013258e+000 -1.037269e+001 4.388286e-003 -5.149907e+000 -4.318938e+000 -4.629539e+000 -4.566110e-001 9.827371e-001 6.499912e+001 2.515931e+000 7.067977e-001 3.508838e-001 2.485117e+000 2.533019e-001 -2.824882e+000 -9.072582e-001 3.007877e-001 -9.017710e-001 -1.008374e+000 -8.271892e-001 8.519344e-001 -4.393238e-001 -2.030959e-001 -6.502857e-002 -7.920938e-001 -6.242103e-001 1.422283e-001 3.812456e-001 -9.671310e-002 1.622269e-001 5.366101e-001 1.237534e-002 -3.332720e-001 2.431025e-002 -1.102133e-001
<VARIANCE> 39
 2.246557e+001 3.935191e+001 6.432153e+001 4.165125e+001 4.593468e+001 6.892714e+001 1.723859e+001 2.357017e+001 2.235424e+001 2.010366e+001 2.063740e+001 1.413485e+001 6.087272e+000 2.732662e+000 2.264312e+000 2.553560e+000 1.659341e+000 5.438772e+000 1.788455e+000 2.072567e+000 2.081155e+000 2.327714e+000 2.116533e+000 2.223262e+000 7.147965e-001 4.934757e-001 5.104536e-001 2.787346e-001 5.788629e-001 2.138105e-001 8.387441e-001 9.219093e-001 3.524348e-001 2.096185e-001 3.780108e-001 4.271563e-001 4.133353e-001 3.554975e-001 7.583197e-002
<GCONST> 1.091447e+002
<STATE> 4
<MEAN> 39
 -1.141510e+001 2.286746e+000 8.193278e+000 7.918094e+000 -4.505265e+000 -1.612382e+001 -2.368513e+000 -3.515502e+000 -3.599325e+000 -6.757387e+000 -4.614613e+000 1.711938e+000 6.213799e+001 7.837272e-001 1.113382e-001 -2.049386e+000 -2.535839e-001 9.894116e-001 7.093228e-001 -8.636838e-001 -3.602221e-001 1.050049e+000 8.716283e-001 -3.281193e-001 -7.694184e-001 -7.926475e-001 -1.434035e-001 -1.026218e-001 -2.612311e-001 -7.842549e-001 9.285951e-002 9.700327e-001 3.140587e-002 -5.790029e-001 -3.701102e-003 7.021736e-001 5.985070e-001 -3.170764e-001 -3.525024e-003
<VARIANCE> 39
 5.309810e+000 2.395337e+001 3.907798e+001 5.292357e+001 4.020096e+001 3.530093e+001 2.121243e+001 1.601767e+001 2.315957e+001 1.866467e+001 3.230137e+001 9.882249e+000 5.525564e+000 6.472369e-001 8.971840e-001 8.100344e-001 1.319252e+000 9.792090e-001 3.558298e+000 1.861584e+000 2.698871e+000 1.584902e+000 2.458269e+000 2.791016e+000 1.655275e+000 4.662439e-001 1.703275e-001 1.796776e-001 2.241675e-001 2.377394e-001 1.495219e-001 3.782915e-001 3.915396e-001 3.563061e-001 5.996273e-001 3.022807e-001 4.900065e-001 3.385286e-001 3.971127e-002
<GCONST> 9.730930e+001
<TRANSP> 5
 0.000000e+000 1.000000e+000 0.000000e+000 0.000000e+000 0.000000e+000
 0.000000e+000 7.379123e-001 2.620877e-001 0.000000e+000 0.000000e+000
 0.000000e+000 0.000000e+000 6.878239e-001 3.121762e-001 0.000000e+000
 0.000000e+000 0.000000e+000 0.000000e+000 7.211988e-001 2.788012e-001
 0.000000e+000 0.000000e+000 0.000000e+000 0.000000e+000 0.000000e+000
<ENDHMM>
~h "k"
<BEGINHMM>
<NUMSTATES> 5
<STATE> 2
<MEAN> 39
 -1.708731e+001 -6.298425e+000 -1.738091e+000 -2.553413e+000 -9.065075e+000 -1.171483e+001 -1.812148e+000 -4.392295e+000 -1.362939e+000 -1.606638e+000 -8.481081e-001 1.301443e+000 7.237281e+001 8.540898e-001 1.285276e+000 1.621762e+000 6.930411e-001 -8.633264e-001 -1.430592e+000 -4.571055e-001 -7.297841e-001 -5.849261e-001 -7.050958e-001 -5.140641e-001 -1.853901e-001 1.500934e+000 7.372066e-001 6.652155e-001 4.267640e-001 2.906299e-001 2.419437e-001 8.072481e-002 1.297122e-001 2.458260e-001 2.871493e-002 -1.563259e-001 -8.522977e-002 3.166626e-002 -7.997789e-001
<VARIANCE> 39
 1.501105e+001 4.002784e+001 5.554218e+001 2.974737e+001 2.840900e+001 3.428572e+001 2.357387e+001 3.073411e+001 4.505340e+001 2.242511e+001 2.654689e+001 2.308213e+001 2.311686e+001 3.712310e+000 4.420532e+000 3.966529e+000 3.731152e+000 3.770456e+000 3.235049e+000 2.630199e+000 3.172123e+000 3.665372e+000 2.972699e+000 1.949052e+000 1.421853e+000 7.290764e+000 3.264338e-001 9.002714e-001 7.258672e-001 8.152421e-001 9.106706e-001 5.900582e-001 4.977849e-001 5.405121e-001 5.845533e-001 5.179175e-001 4.002059e-001 3.937987e-001 1.025936e+000
<GCONST> 1.242384e+002
<STATE> 3
<MEAN> 39
 -5.846159e+000 5.682782e-001 6.911644e+000 1.371572e+000 -1.619816e+001 -1.851960e+001 -3.348652e+000 -7.403736e+000 -4.568162e+000 -7.011705e+000 -3.303901e+000 9.779690e-001 7.442688e+001 1.579075e+000 -2.404396e-001 4.857799e-001 -3.980666e-001 -1.914339e+000 -1.548607e+000 -8.067285e-001 -5.952559e-001 -3.958221e-001 -7.349263e-001 1.376455e-001 5.736867e-001 6.524957e-001 -7.694538e-001 -5.321938e-001 -4.861191e-001 -3.299924e-001 1.335674e-001 4.237221e-001 6.067826e-002 5.154608e-002 1.065622e-001 3.830371e-001 2.994020e-001 2.828186e-002 -1.723702e-001
<VARIANCE> 39
 1.697826e+001 4.618235e+001 4.624926e+001 1.620956e+001 6.985825e+001 5.476589e+001 5.472111e+001 6.640739e+001 5.944538e+001 2.320614e+001 2.433485e+001 2.831775e+001 8.714690e+000 2.393103e+000 2.922477e+000 2.711946e+000 1.684016e+000 3.643589e+000 3.318396e+000 2.624476e+000 3.131922e+000 4.454601e+000 2.547221e+000 1.809593e+000 1.263595e+000 7.953246e-001 1.336454e-001 6.243924e-001 5.390711e-001 3.860752e-001 7.416362e-001 5.287679e-001 5.952988e-001 4.295258e-001 7.022399e-001 4.010512e-001 2.819709e-001 3.048147e-001 1.248758e-001
<GCONST> 1.162741e+002
<STATE> 4
<MEAN> 39
 -9.332348e+000 6.442602e+000 8.620017e+000 3.492050e-001 -1.325760e+001 -2.088487e+001 -6.837415e+000 -5.005582e+000 -4.410957e+000 -6.684762e+000 2.447419e+000 1.046228e+000 7.603926e+001 -1.435302e-001 2.229269e-001 4.213167e-001 -6.370402e-002 -1.526081e-001 1.169096e-001 1.568009e-002 -2.347268e-001 -1.857406e-001 -8.890627e-002 1.388518e-001 7.654237e-002 -1.831534e-001 -8.682919e-002 8.505347e-002 -9.674161e-003 5.023974e-002 1.349231e-001 5.481114e-002 1.744116e-001 2.312949e-002 6.079799e-002 9.046966e-002 -1.701830e-001 -6.018173e-002 -1.293264e-001
<VARIANCE> 39
 1.427081e+001 6.571793e+001 2.922759e+001 9.050060e+000 4.505369e+001 5.156696e+001 1.666787e+001 4.845344e+001 3.706049e+001 2.435836e+001 2.311886e+001 1.950762e+001 8.655666e+000 1.909964e-001 5.173298e-001 8.765742e-001 5.645307e-001 8.359419e-001 1.272203e+000 9.961605e-001 1.458581e+000 1.030942e+000 8.959906e-001 1.845674e+000 8.065138e-001 3.139521e-001 6.683268e-002 1.083552e-001 1.899680e-001 1.012584e-001 2.099319e-001 3.313079e-001 1.732562e-001 3.774912e-001 2.366604e-001 2.263875e-001 3.769979e-001 1.382789e-001 2.606791e-002
<GCONST> 8.639619e+001
<TRANSP> 5
 0.000000e+000 1.000000e+000 0.000000e+000 0.000000e+000 0.000000e+000
 0.000000e+000 8.207386e-001 1.792614e-001 0.000000e+000 0.000000e+000
 0.000000e+000 0.000000e+000 7.143580e-001 2.856420e-001 0.000000e+000
 0.000000e+000 0.000000e+000 0.000000e+000 7.331687e-001 2.668313e-001
 0.000000e+000 0.000000e+000 0.000000e+000 0.000000e+000 0.000000e+000
<ENDHMM>
~h "m"
<BEGINHMM>
<NUMSTATES> 5
<STATE> 2
<MEAN> 39
 -1.805868e+000 1.053321e+001 4.185811e+000 3.066534e+000 -5.021162e+000 -1.891905e+000 -1.234829e-001 -7.357884e+000 -1.051280e+001 -1.077271e+001 -6.150682e+000 -1.833523e+000 6.086496e+001 1.237602e+000 -6.505952e-002 -5.314556e-001 -1.140739e+000 -1.333325e+000 -4.625788e-001 6.266440e-002 -2.251991e-001 -1.352639e-001 -1.717126e-001 -3.493694e-001 -3.215021e-001 1.601425e+000 -1.730049e-001 -5.590703e-001 -5.786875e-001 -6.469823e-001 -2.396998e-001 1.109060e-001 2.335121e-001 2.932035e-001 5.197130e-001 5.982398e-001 2.340624e-001 4.450257e-002 9.808440e-002
<VARIANCE> 39
 1.206111e+001 2.264668e+001 4.745755e+001 2.990980e+001 6.979176e+001 8.528011e+001 4.412859e+001 5.103340e+001 6.135043e+001 6.525146e+001 4.868976e+001 2.838025e+001 2.267255e+001 1.310573e+000 2.609191e+000 4.085887e+000 4.746331e+000 2.299783e+000 1.985431e+000 2.526464e+000 3.616776e+000 4.890451e+000 5.874359e+000 3.184365e+000 1.434348e+000 8.700955e-001 1.550522e-001 2.857588e-001 4.070757e-001 4.887696e-001 4.484925e-001 3.776658e-001 4.656358e-001 4.277455e-001 5.995492e-001 8.186164e-001 5.643295e-001 2.869809e-001 1.102888e-001
<GCONST> 1.194094e+002
<STATE> 3
<MEAN> 39
 3.006173e+000 2.410422e+000 -7.890888e+000 -1.395033e+001 -1.557986e+001 -3.137016e+000 3.857008e+000 -2.166940e+000 -4.306964e+000 -1.439736e+000 -5.077307e+000 -3.777694e+000 7.101620e+001 1.651623e-001 -2.546017e+000 -1.852139e+000 -3.330157e+000 -1.279778e+000 1.241257e+000 1.686047e+000 4.366293e-001 9.814845e-001 1.889783e+000 5.662454e-001 -1.662733e-001 1.895214e+000 -4.142854e-001 2.320191e-001 7.097578e-001 9.678458e-001 8.919814e-001 2.431360e-001 -1.767790e-001 -3.907530e-001 -6.302741e-001 -5.309770e-001 -6.593619e-002 5.106831e-002 -4.670168e-001
<VARIANCE> 39
 5.830063e+000 3.953933e+001 2.784574e+001 3.089055e+001 4.012572e+001 3.665037e+001 4.497953e+001 7.075364e+001 3.695897e+001 6.040479e+001 4.250644e+001 3.541955e+001 1.091090e+001 8.148057e-001 1.916062e+000 2.583986e+000 4.316468e+000 6.029742e+000 3.856175e+000 2.719488e+000 4.887232e+000 4.452559e+000 8.167062e+000 3.614718e+000 2.295294e+000 1.684548e+000 7.020526e-002 3.624178e-001 2.919624e-001 4.143631e-001 6.023436e-001 6.516909e-001 6.508186e-001 8.337134e-001 5.182024e-001 1.164708e+000 7.579615e-001 2.787935e-001 1.164483e-001
<GCONST> 1.199332e+002
<STATE> 4
<MEAN> 39
 -2.436994e-001 -6.418673e+000 -1.104294e+001 -1.713981e+001 -1.342101e+001 4.456455e-001 8.799493e+000 1.703106e+000 -6.210361e+000 -6.147578e-001 -2.270555e+000 -4.880058e+000 7.629089e+001 -2.370773e-001 -5.019260e-001 1.751440e-002 -1.236960e-001 8.652005e-002 2.992621e-001 -1.083467e-001 -2.196008e-001 -1.342203e-001 1.956675e-001 3.137103e-001 1.557082e-002 2.193953e-001 6.789529e-002 2.894126e-001 1.190081e-001 2.237180e-001 2.318502e-002 -2.400374e-001 -2.880900e-001 2.112703e-002 2.178483e-002 -6.458919e-002 -1.795006e-002 9.159108e-002 -2.278342e-001
<VARIANCE> 39
 6.286743e+000 3.897353e+001 2.103988e+001 1.859514e+001 1.988056e+001 2.656289e+001 2.559441e+001 6.565002e+001 3.420042e+001 4.771003e+001 3.620153e+001 2.852847e+001 1.576924e+001 2.744411e-001 6.171856e-001 4.902398e-001 9.594498e-001 1.089060e+000 1.660151e+000 1.451897e+000 1.950476e+000 1.492555e+000 2.304650e+000 1.860146e+000 1.191474e+000 3.056666e-001 4.460359e-002 1.463477e-001 1.393826e-001 3.581021e-001 2.171075e-001 3.362923e-001 3.588769e-001 2.790068e-001 2.985067e-001 5.219546e-001 3.704180e-001 2.319234e-001 8.571290e-002
<GCONST> 9.417061e+001
<TRANSP> 5
 0.000000e+000 1.000000e+000 0.000000e+000 0.000000e+000 0.000000e+000
 0.000000e+000 8.673988e-001 1.326011e-001 0.000000e+000 0.000000e+000
 0.000000e+000 0.000000e+000 6.825532e-001 3.174468e-001 0.000000e+000
 0.000000e+000 0.000000e+000 0.000000e+000 7.657456e-001 2.342544e-001
 0.000000e+000 0.000000e+000 0.000000e+000 0.000000e+000 0.000000e+000
<ENDHMM>
~h "n"
<BEGINHMM>
<NUMSTATES> 5
<STATE> 2
<MEAN> 39
 -1.429749e+000 4.727690e+000 2.875062e+000 5.063646e+000 -1.220830e+001 -9.256795e+000 -5.276935e+000 -9.295737e+000 -2.959674e+000 -4.525263e+000 -3.630101e+000 -4.075284e+000 6.552625e+001 -1.568477e-002 5.884257e-001 1.439324e-001 2.573126e-001 4.021333e-001 -3.877480e-002 -2.252299e-001 -2.712858e-001 -3.530306e-001 -4.004906e-002 6.735846e-002 -2.784287e-001 -5.871284e-001 -8.359084e-002 -3.544355e-001 -7.355601e-002 -1.591591e-001 -3.066028e-001 6.113447e-002 -6.000572e-002 1.765419e-001 4.219551e-001 1.359832e-001 -1.386337e-001 1.537289e-001 3.031425e-001
<VARIANCE> 39
 1.069691e+001 2.951670e+001 9.411189e+001 2.320299e+001 1.078820e+002 6.366752e+001 5.035380e+001 4.662316e+001 4.615381e+001 5.631432e+001 4.257837e+001 3.080200e+001 2.767150e+001 4.462423e-001 1.688382e+000 1.905197e+000 1.931144e+000 2.717827e+000 2.604891e+000 2.995681e+000 2.319321e+000 3.422031e+000 2.703316e+000 2.138994e+000 1.892283e+000 9.539923e-001 5.109571e-002 1.966860e-001 2.524869e-001 3.519544e-001 3.531738e-001 5.181137e-001 5.252599e-001 5.211140e-001 8.434081e-001 4.516957e-001 4.453258e-001 3.104595e-001 9.650268e-002
<GCONST> 1.132733e+002
<STATE> 3
<MEAN> 39
 -3.726439e+000 -2.110543e-001 7.736211e-001 4.520545e+000 -1.522771e+001 -7.196120e+000 -6.878783e+000 -7.772414e+000 6.413873e+000 -9.349134e-001 -7.981059e+000 -3.856351e+000 6.805322e+001 -8.768006e-001 -1.753458e+000 1.249640e-001 -1.186023e-001 -2.201245e+000 -4.590878e-001 3.717293e-001 1.682196e+000 2.847218e+000 1.998743e-001 -1.073639e+000 6.672040e-001 1.485339e+000 6.980576e-003 2.867924e-001 1.765888e-001 -1.441952e-001 4.898424e-002 -5.546008e-001 1.689578e-001 4.396917e-001 -8.082560e-001 -1.531128e-001 5.003838e-001 1.545516e-001 -1.570849e-001
<VARIANCE> 39
 1.289433e+001 3.247567e+001 5.739743e+001 3.661048e+001 6.671635e+001 3.805514e+001 5.068780e+001 8.691463e+001 7.802679e+001 2.771721e+001 3.721393e+001 2.334821e+001 4.271738e+001 4.353810e-001 2.009005e+000 1.991017e+000 1.603418e+000 2.664175e+000 3.737250e+000 5.348213e+000 4.774301e+000 5.327547e+000 2.850987e+000 2.804505e+000 2.754527e+000 8.713537e-001 6.937176e-002 3.393919e-001 2.796691e-001 2.469694e-001 5.080386e-001 3.821819e-001 8.242892e-001 7.839582e-001 1.295671e+000 3.878841e-001 4.964384e-001 3.567587e-001 2.452661e-001
<GCONST> 1.186667e+002
<STATE> 4
<MEAN> 39
 -6.675723e+000 -2.522192e-001 6.296177e+000 2.412859e+000 -2.210760e+001 -1.109665e+001 -7.616876e+000 -2.972766e+000 6.985794e+000 -4.210604e+000 -5.243982e+000 2.385407e-001 6.988676e+001 -3.065640e-001 1.600873e-001 4.717749e-001 3.936605e-003 -4.869684e-002 -8.132994e-001 3.678667e-001 5.304042e-001 -1.210474e+000 -4.060516e-001 3.539616e-001 5.327825e-001 -4.820933e-001 1.051183e-001 1.625920e-001 -2.665992e-002 6.135848e-003 2.724277e-001 9.968570e-002 6.756409e-002 -3.933584e-001 -2.142211e-001 -2.152733e-002 1.875102e-002 -1.408724e-001 -2.029389e-001
<VARIANCE> 39
 1.064637e+001 3.741140e+001 9.642818e+001 2.440436e+001 9.137351e+001 4.439279e+001 4.779851e+001 8.878883e+001 4.673421e+001 2.746924e+001 6.629608e+001 1.388035e+001 2.035603e+001 1.497635e-001 6.730819e-001 8.428912e-001 1.577532e+000 2.616788e+000 1.738650e+000 1.427088e+000 1.993087e+000 2.374558e+000 1.805431e+000 2.315812e+000 1.114312e+000 2.871892e-001 3.554876e-002 1.210423e-001 7.969671e-002 2.690362e-001 2.746663e-001 3.174008e-001 2.386533e-001 2.962812e-001 5.967901e-001 2.380715e-001 2.928580e-001 1.895805e-001 6.237052e-002
<GCONST> 9.879457e+001
<TRANSP> 5
 0.000000e+000 1.000000e+000 0.000000e+000 0.000000e+000 0.000000e+000
 0.000000e+000 8.666142e-001 1.333858e-001 0.000000e+000 0.000000e+000
 0.000000e+000 0.000000e+000 7.251156e-001 2.748844e-001 0.000000e+000
 0.000000e+000 0.000000e+000 0.000000e+000 7.903365e-001 2.096634e-001
 0.000000e+000 0.000000e+000 0.000000e+000 0.000000e+000 0.000000e+000
<ENDHMM>
~h "o"
<BEGINHMM>
<NUMSTATES> 5
<STATE> 2
<MEAN> 39
 -5.153443e+000 1.887341e+000 -3.998059e-001 -4.719388e+000 -1.027645e+001 -8.377604e+000 -1.314454e+000 -4.294622e+000 -2.598214e+000 -1.637859e+000 -2.417927e+000 -3.007498e-001 6.395220e+001 2.656938e-002 2.103826e-002 1.670751e-002 2.097466e-003 -4.075075e-002 -6.993482e-002 -7.360970e-003 -1.582084e-002 -2.291133e-002 -1.948875e-002 -7.798372e-003 -1.589407e-002 -1.794146e-002 -6.101388e-003 4.534691e-003 -4.683285e-003 2.991999e-003 1.307896e-002 1.532247e-002 4.297304e-003 2.199038e-003 5.607250e-003 8.410532e-003 3.306764e-003 1.353030e-003 -2.459256e-002
<VARIANCE> 39
 3.876240e+001 5.593195e+001 6.909898e+001 8.084949e+001 8.242165e+001 1.017876e+002 5.764616e+001 6.496631e+001 6.744147e+001 4.920574e+001 3.916745e+001 3.616992e+001 8.957718e+001 1.350502e+000 1.888252e+000 1.699849e+000 2.401277e+000 2.816806e+000 2.814739e+000 2.621114e+000 2.615768e+000 2.810299e+000 2.549241e+000 2.217089e+000 1.828917e+000 2.527436e+000 1.981723e-001 2.897191e-001 2.501056e-001 3.312125e-001 4.046271e-001 4.166303e-001 4.473993e-001 4.295296e-001 4.660336e-001 4.356595e-001 3.927584e-001 3.259792e-001 2.569831e-001
<GCONST> 1.219561e+002
<STATE> 3
<MEAN> 39
 -5.153443e+000 1.887341e+000 -3.998059e-001 -4.719388e+000 -1.027645e+001 -8.377604e+000 -1.314454e+000 -4.294622e+000 -2.598214e+000 -1.637859e+000 -2.417927e+000 -3.007498e-001 6.395220e+001 2.656938e-002 2.103826e-002 1.670751e-002 2.097466e-003 -4.075075e-002 -6.993482e-002 -7.360970e-003 -1.582084e-002 -2.291133e-002 -1.948875e-002 -7.798372e-003 -1.589407e-002 -1.794146e-002 -6.101388e-003 4.534691e-003 -4.683285e-003 2.991999e-003 1.307896e-002 1.532247e-002 4.297304e-003 2.199038e-003 5.607250e-003 8.410532e-003 3.306764e-003 1.353030e-003 -2.459256e-002
<VARIANCE> 39
 3.876240e+001 5.593195e+001 6.909898e+001 8.084949e+001 8.242165e+001 1.017876e+002 5.764616e+001 6.496631e+001 6.744147e+001 4.920574e+001 3.916745e+001 3.616992e+001 8.957718e+001 1.350502e+000 1.888252e+000 1.699849e+000 2.401277e+000 2.816806e+000 2.814739e+000 2.621114e+000 2.615768e+000 2.810299e+000 2.549241e+000 2.217089e+000 1.828917e+000 2.527436e+000 1.981723e-001 2.897191e-001 2.501056e-001 3.312125e-001 4.046271e-001 4.166303e-001 4.473993e-001 4.295296e-001 4.660336e-001 4.356595e-001 3.927584e-001 3.259792e-001 2.569831e-001
<GCONST> 1.219561e+002
<STATE> 4
<MEAN> 39
 -5.153443e+000 1.887341e+000 -3.998059e-001 -4.719388e+000 -1.027645e+001 -8.377604e+000 -1.314454e+000 -4.294622e+000 -2.598214e+000 -1.637859e+000 -2.417927e+000 -3.007498e-001 6.395220e+001 2.656938e-002 2.103826e-002 1.670751e-002 2.097466e-003 -4.075075e-002 -6.993482e-002 -7.360970e-003 -1.582084e-002 -2.291133e-002 -1.948875e-002 -7.798372e-003 -1.589407e-002 -1.794146e-002 -6.101388e-003 4.534691e-003 -4.683285e-003 2.991999e-003 1.307896e-002 1.532247e-002 4.297304e-003 2.199038e-003 5.607250e-003 8.410532e-003 3.306764e-003 1.353030e-003 -2.459256e-002
<VARIANCE> 39
 3.876240e+001 5.593195e+001 6.909898e+001 8.084949e+001 8.242165e+001 1.017876e+002 5.764616e+001 6.496631e+001 6.744147e+001 4.920574e+001 3.916745e+001 3.616992e+001 8.957718e+001 1.350502e+000 1.888252e+000 1.699849e+000 2.401277e+000 2.816806e+000 2.814739e+000 2.621114e+000 2.615768e+000 2.810299e+000 2.549241e+000 2.217089e+000 1.828917e+000 2.527436e+000 1.981723e-001 2.897191e-001 2.501056e-001 3.312125e-001 4.046271e-001 4.166303e-001 4.473993e-001 4.295296e-001 4.660336e-001 4.356595e-001 3.927584e-001 3.259792e-001 2.569831e-001
<GCONST> 1.219561e+002
<TRANSP> 5
 0.000000e+000 1.000000e+000 0.000000e+000 0.000000e+000 0.000000e+000
 0.000000e+000 6.000000e-001 4.000000e-001 0.000000e+000 0.000000e+000
 0.000000e+000 0.000000e+000 6.000000e-001 4.000000e-001 0.000000e+000
 0.000000e+000 0.000000e+000 0.000000e+000 7.000000e-001 3.000000e-001
 0.000000e+000 0.000000e+000 0.000000e+000 0.000000e+000 0.000000e+000
<ENDHMM>
~h "p"
<BEGINHMM>
<NUMSTATES> 5
<STATE> 2
<MEAN> 39
 -5.512353e+000 1.986634e-001 -6.098774e+000 -1.012282e+001 -8.602696e+000 -3.271105e+000 1.810804e+000 -3.518335e+000 1.068648e+000 3.408973e-001 -2.787513e+000 -1.208969e+000 6.744501e+001 2.161349e+000 1.228936e+000 1.461030e-001 -2.009844e+000 -2.121772e+000 9.409008e-002 1.249661e+000 1.131691e-001 -4.173097e-001 1.916105e-001 -4.666891e-001 -3.427162e-001 1.612536e+000 7.892299e-002 1.454356e-001 1.601311e-001 4.033209e-002 -9.039417e-002 4.952923e-002 -3.050907e-002 9.178029e-002 -1.203107e-001 6.893343e-003 1.183150e-001 7.708134e-002 -4.829737e-001
<VARIANCE> 39
 2.870610e+001 4.209906e+001 2.746612e+001 3.415375e+001 4.738744e+001 7.768238e+001 5.231899e+001 3.029594e+001 2.342014e+001 2.317602e+001 2.690855e+001 2.151695e+001 1.528241e+001 1.876987e+000 3.722722e+000 2.554087e+000 2.695633e+000 4.665652e+000 5.297922e+000 4.767437e+000 4.618626e+000 2.492478e+000 2.951995e+000 2.291793e+000 2.156994e+000 3.796730e+000 5.533739e-001 9.056990e-001 5.791344e-001 4.824567e-001 7.473176e-001 8.473554e-001 9.681488e-001 6.368132e-001 4.290035e-001 5.345514e-001 4.724104e-001 3.293950e-001 5.729749e-001
<GCONST> 1.248867e+002
<STATE> 3
<MEAN> 39
 9.314595e-001 -4.717790e-001 -8.482841e+000 -1.740394e+001 -1.392312e+001 -4.551366e+000 5.337155e+000 3.030590e-001 -3.700758e+000 -6.448734e-001 -1.668591e+000 -1.469777e+000 7.354149e+001 2.535518e-001 -1.253958e+000 -5.407602e-001 -3.194030e-001 -4.447446e-001 3.242927e-002 -6.689994e-001 -2.999344e-001 -3.439705e-001 1.167518e-002 6.923834e-001 -3.201492e-001 8.293409e-001 -4.963846e-001 -2.543122e-001 3.535352e-002 5.042188e-001 4.575186e-001 6.474006e-002 -3.762138e-001 -1.951694e-001 2.767315e-001 1.810225e-001 -8.319455e-003 -1.117887e-001 -3.578970e-001
<VARIANCE> 39
 8.276548e+000 5.328144e+001 4.386160e+001 2.349586e+001 6.239411e+001 8.581018e+001 5.284132e+001 7.244502e+001 5.550892e+001 3.037665e+001 3.070475e+001 3.882836e+001 1.727071e+001 9.591117e-001 1.816313e+000 1.218714e+000 2.512831e+000 2.016340e+000 2.414039e+000 3.204979e+000 2.419011e+000 2.766585e+000 3.274447e+000 1.792573e+000 2.222590e+000 1.030724e+000 2.473909e-001 6.473815e-001 2.849779e-001 3.970472e-001 5.458817e-001 5.588766e-001 7.679675e-001 4.903805e-001 4.600541e-001 5.780295e-001 4.165752e-001 4.656636e-001 1.928537e-001
<GCONST> 1.170391e+002
<STATE> 4
<MEAN> 39
 1.512490e+000 1.943297e+000 -4.953222e+000 -1.662126e+001 -1.779912e+001 -1.718012e+000 2.378610e+000 -4.121190e+000 1.291511e+000 8.254725e-001 -1.282958e+000 -3.019110e+000 7.271663e+001 -9.682427e-002 -2.461407e-001 -1.127646e-001 1.968400e-001 1.213961e-002 -2.513857e-001 -5.011804e-001 -1.760125e-001 1.584226e-001 4.630068e-001 -1.115775e-003 -3.062925e-001 -5.907742e-003 -4.499361e-002 1.180858e-001 1.020872e-001 1.222596e-001 9.604120e-002 -1.734403e-001 -1.900702e-002 2.586711e-002 4.284037e-002 -4.110185e-002 -7.935794e-002 4.286935e-002 -9.403138e-002
<VARIANCE> 39
 1.138543e+001 5.701610e+001 8.959290e+001 1.452564e+001 7.505486e+001 1.568622e+002 4.173824e+001 8.303158e+001 6.374702e+001 4.132632e+001 2.276500e+001 3.817543e+001 1.452533e+001 2.058841e-001 6.445059e-001 7.576497e-001 9.166536e-001 1.535516e+000 1.424152e+000 2.489035e+000 1.348611e+000 2.008660e+000 1.573387e+000 1.597683e+000 1.113040e+000 2.788748e-001 6.034428e-002 1.317287e-001 1.182723e-001 1.760666e-001 2.182322e-001 2.855535e-001 3.261197e-001 2.785507e-001 2.881392e-001 2.731127e-001 2.625687e-001 2.231520e-001 4.799742e-002
<GCONST> 9.793005e+001
<TRANSP> 5
 0.000000e+000 1.000000e+000 0.000000e+000 0.000000e+000 0.000000e+000
 0.000000e+000 8.014706e-001 1.985294e-001 0.000000e+000 0.000000e+000
 0.000000e+000 0.000000e+000 6.697179e-001 3.302820e-001 0.000000e+000
 0.000000e+000 0.000000e+000 0.000000e+000 7.496037e-001 2.503963e-001
 0.000000e+000 0.000000e+000 0.000000e+000 0.000000e+000 0.000000e+000
<ENDHMM>
~h "r"
<BEGINHMM>
<NUMSTATES> 5
<STATE> 2
<MEAN> 39
 -5.268198e-001 -9.472722e-001 -2.045345e+000 5.509219e+000 -1.039906e+001 -1.644600e+001 -1.034875e+001 -1.355819e+001 3.515524e+000 7.202141e-001 -5.389286e-001 -2.640254e+000 6.611281e+001 -7.402228e-002 -4.034185e-002 -2.852567e-001 5.271603e-001 5.846066e-001 8.932900e-001 1.050537e+000 -3.707190e-001 -3.037166e-001 6.616499e-002 -1.721819e-001 -3.537641e-001 -6.841440e-001 -9.268448e-002 4.732048e-002 1.810543e-001 -1.178520e-001 3.749273e-002 -2.606663e-001 5.707780e-002 5.190386e-001 -7.385369e-002 -3.726415e-002 -2.295789e-001 1.146788e-001 1.072502e-001
<VARIANCE> 39
 7.493633e+000 2.015808e+001 4.196305e+001 5.330363e+001 1.791499e+001 4.180941e+001 2.026581e+001 3.611209e+001 1.201465e+001 1.208091e+001 1.563509e+001 2.346166e+001 2.967814e+001 4.057433e-001 2.082485e+000 2.681838e+000 3.623463e+000 2.528719e+000 3.941565e+000 1.211748e+000 4.711999e+000 1.955803e+000 2.179584e+000 1.117074e+000 2.116986e+000 2.016114e+000 6.628104e-002 4.074885e-001 3.166799e-001 6.842223e-001 2.331707e-001 9.373910e-001 2.077772e-001 5.193836e-001 3.757212e-001 4.310204e-001 1.349740e-001 2.959161e-001 3.287400e-001
<GCONST> 1.060124e+002
<STATE> 3
<MEAN> 39
 -6.429405e+000 1.499625e+000 4.667930e-001 6.347628e+000 -6.879430e+000 -1.900364e+001 -6.623155e+000 -5.913851e+000 2.036529e+000 -7.761567e-001 -6.597343e+000 2.024792e+000 6.407488e+001 -7.824318e-001 -2.422374e-001 1.534308e-001 4.843773e-001 7.205952e-002 -2.386200e-001 1.282156e+000 3.113486e-001 1.849212e-001 -4.575829e-001 -1.016784e+000 1.200018e+000 -9.335589e-002 -8.750053e-002 -4.795670e-002 -2.287491e-002 -1.935305e-001 -4.562656e-001 9.546376e-002 -2.487859e-001 2.730017e-001 4.728770e-001 -1.491457e-001 3.871782e-001 1.971489e-001 3.414376e-001
<VARIANCE> 39
 1.538759e+001 1.915167e+001 5.605457e+001 1.359250e+001 2.742976e+001 9.192037e+001 1.554134e+001 3.737237e+001 2.703516e+001 1.817031e+001 1.856059e+001 2.951654e+001 3.713961e+001 2.849335e-001 1.333009e+000 1.157339e+000 9.132777e-001 5.381655e+000 4.872510e+000 1.570918e+000 4.349927e+000 6.123365e+000 1.472247e+000 1.223777e+000 2.796535e+000 1.140655e+000 3.654333e-002 1.332416e-001 4.353496e-001 2.338632e-001 5.639489e-001 8.505585e-001 4.889704e-001 1.081840e+000 1.035057e+000 4.155546e-001 2.692819e-001 7.455060e-001 3.107496e-001
<GCONST> 1.095511e+002
<STATE> 4
<MEAN> 39
 -6.893460e+000 8.120493e-001 6.278078e+000 7.314085e+000 -1.223852e+001 -1.087821e+001 -6.328609e+000 -4.348647e+000 5.750504e+000 -1.147969e+000 -2.000016e+000 3.002620e+000 6.407441e+001 -2.762746e-001 -2.034684e-001 7.820929e-001 -1.687326e-002 -4.214772e-001 7.940432e-001 4.323026e-001 1.752275e+000 -4.058421e-001 5.815841e-002 1.910033e-001 -4.233221e-001 -1.283410e-001 1.266916e-001 -2.309806e-002 -6.402110e-002 -1.256609e-001 -9.330741e-002 -1.084409e-001 1.216402e-002 1.897735e-001 -1.802779e-001 -8.399527e-002 -5.296593e-002 -7.830735e-002 -1.852318e-002
<VARIANCE> 39
 3.628189e+001 2.956483e+001 4.310080e+001 1.290918e+001 4.959005e+001 2.891398e+001 6.848095e+001 2.711776e+001 1.659017e+001 2.145543e+001 2.727863e+001 2.948415e+001 1.293557e+001 6.605372e-001 9.227917e-001 7.953691e-001 1.442614e+000 5.783459e+000 1.395127e+000 2.858928e+000 1.314723e+000 2.204520e+000 2.132390e+000 2.628297e+000 3.308466e+000 3.340937e-001 1.638024e-001 2.650606e-001 2.430747e-001 3.448181e-001 1.595198e+000 3.828897e-001 3.616015e-001 3.864834e-001 6.832198e-001 2.644300e-001 3.183129e-001 7.624672e-001 7.098305e-002
<GCONST> 1.067157e+002
<TRANSP> 5
 0.000000e+000 1.000000e+000 0.000000e+000 0.000000e+000 0.000000e+000
 0.000000e+000 7.084659e-001 2.915341e-001 0.000000e+000 0.000000e+000
 0.000000e+000 0.000000e+000 6.437116e-001 3.562883e-001 0.000000e+000
 0.000000e+000 0.000000e+000 0.000000e+000 7.609093e-001 2.390907e-001
 0.000000e+000 0.000000e+000 0.000000e+000 0.000000e+000 0.000000e+000
<ENDHMM>
~h "t"
<BEGINHMM>
<NUMSTATES> 5
<STATE> 2
<MEAN> 39
 -1.177016e+001 -4.048632e+000 -1.890646e+000 -5.095899e+000 -6.312768e+000 -4.194205e+000 -5.012035e+000 -4.560623e+000 2.166332e+000 -9.791057e-001 -1.897005e+000 -3.479869e-001 6.717100e+001 8.546018e-001 2.058353e-001 3.619710e-001 -8.093557e-001 -4.010983e-001 -6.966487e-001 -8.494008e-001 -9.874551e-001 -4.215524e-001 2.310369e-001 -4.132099e-001 -5.185811e-001 3.243655e+000 9.574526e-001 6.966748e-001 -1.822807e-001 -4.788333e-002 -1.475395e-001 -1.668301e-001 2.997625e-001 -9.669309e-002 -5.016252e-001 1.774550e-001 1.137430e-001 3.646389e-002 -6.709186e-001
<VARIANCE> 39
 2.844213e+001 4.118578e+001 3.935089e+001 4.251481e+001 2.983167e+001 3.675410e+001 3.649611e+001 3.193445e+001 3.728967e+001 3.207637e+001 2.990910e+001 2.240834e+001 7.710786e+001 6.602757e+000 5.910706e+000 3.185478e+000 5.056478e+000 4.614815e+000 6.071946e+000 4.457192e+000 5.116392e+000 5.739871e+000 3.986464e+000 2.728616e+000 2.973360e+000 9.373397e+000 7.177116e-001 9.590579e-001 6.200768e-001 8.574546e-001 8.523430e-001 8.900537e-001 9.453103e-001 7.617100e-001 9.428239e-001 7.909717e-001 5.520928e-001 4.974067e-001 1.726307e+000
<GCONST> 1.358814e+002
<STATE> 3
<MEAN> 39
 -1.269610e+000 1.138245e+000 -3.218121e+000 -9.989919e+000 -9.506269e+000 -6.833125e+000 -4.300932e+000 -8.579594e+000 -3.099493e+000 8.736048e-001 -2.708964e+000 -1.579993e+000 7.230119e+001 2.634467e+000 4.244529e-001 -9.861401e-001 -1.379836e+000 -1.666745e+000 -6.418800e-001 9.134666e-001 -6.613842e-002 -1.453490e+000 2.955505e-001 2.209291e-001 3.372937e-001 1.712659e-001 -7.627282e-001 -6.109871e-001 -1.692336e-001 1.658494e-001 -1.141819e-002 3.108734e-001 3.081987e-001 5.420231e-001 3.290446e-001 -7.886884e-002 1.338253e-001 2.812181e-001 -5.310608e-001
<VARIANCE> 39
 1.737223e+001 2.660824e+001 4.839444e+001 7.064867e+001 6.286761e+001 7.076518e+001 4.949807e+001 6.364208e+001 3.885737e+001 4.606593e+001 2.610994e+001 3.861534e+001 2.544514e+001 2.896776e+000 3.677340e+000 2.330966e+000 3.521675e+000 3.922478e+000 4.700987e+000 3.232925e+000 5.632562e+000 4.130209e+000 4.397332e+000 3.262043e+000 3.111619e+000 1.491549e+000 3.631890e-001 4.192141e-001 3.824411e-001 6.000294e-001 7.706291e-001 8.118472e-001 8.219219e-001 8.099958e-001 5.944076e-001 6.080772e-001 4.700224e-001 6.066956e-001 6.147485e-001
<GCONST> 1.289637e+002
<STATE> 4
<MEAN> 39
 4.261914e-001 -1.918614e+000 -6.986409e+000 -1.426563e+001 -1.346101e+001 -4.372195e+000 -4.869322e-001 -6.477459e+000 -3.880212e+000 1.152800e+000 -7.090794e-001 1.839427e-001 7.341725e+001 2.592425e-002 -5.172412e-001 -1.771242e-001 3.909668e-002 -2.420239e-001 1.372532e-001 2.922674e-002 -2.985947e-001 -1.086960e-001 3.331634e-001 4.631884e-001 3.041984e-001 1.797764e-002 -3.531381e-001 -1.435073e-002 2.509757e-001 4.159407e-001 3.773443e-001 -1.415870e-001 -4.172806e-001 -1.378703e-001 3.043761e-001 8.073948e-002 -3.362437e-002 -1.422975e-001 -6.722064e-002
<VARIANCE> 39
 1.823057e+001 3.687091e+001 5.603807e+001 5.279719e+001 7.937892e+001 9.093195e+001 3.908081e+001 7.156711e+001 6.415027e+001 5.788721e+001 4.251652e+001 4.665183e+001 2.705119e+001 6.668113e-001 1.538254e+000 1.161236e+000 1.880425e+000 3.303842e+000 3.328186e+000 4.771059e+000 2.798312e+000 3.316962e+000 2.363586e+000 2.534588e+000 2.443423e+000 6.967133e-001 2.343235e-001 2.688549e-001 2.268028e-001 3.805644e-001 5.849656e-001 6.991779e-001 6.485567e-001 6.063203e-001 6.025187e-001 5.733985e-001 4.690916e-001 4.955706e-001 1.203933e-001
<GCONST> 1.197471e+002
<TRANSP> 5
 0.000000e+000 1.000000e+000 0.000000e+000 0.000000e+000 0.000000e+000
 0.000000e+000 7.324781e-001 2.675219e-001 0.000000e+000 0.000000e+000
 0.000000e+000 0.000000e+000 5.926843e-001 4.073156e-001 0.000000e+000
 0.000000e+000 0.000000e+000 0.000000e+000 7.011936e-001 2.988064e-001
 0.000000e+000 0.000000e+000 0.000000e+000 0.000000e+000 0.000000e+000
<ENDHMM>
~h "u"
<BEGINHMM>
<NUMSTATES> 5
<STATE> 2
<MEAN> 39
 -7.096092e+000 4.358305e+000 2.371994e+000 5.312080e+000 -4.059988e+000 -8.270220e+000 -1.563101e+000 -1.160690e+001 -3.247522e+000 1.803533e+000 1.070148e+000 1.570213e-001 6.133099e+001 7.167643e-001 5.216038e-001 -1.202070e+000 -2.512013e+000 2.807755e-001 2.819806e+000 9.188329e-001 -1.159673e+000 -1.203715e+000 1.253442e+000 2.047603e+000 5.635676e-001 -1.015001e+000 -1.578113e-001 1.633285e-001 2.961181e-001 3.148595e-002 -2.370705e-001 -6.127908e-002 2.648885e-001 5.651859e-001 -3.139865e-001 -8.614112e-001 -2.852377e-001 2.755421e-001 -1.464212e-001
<VARIANCE> 39
 6.129051e+000 3.868500e+001 2.919028e+001 6.116914e+001 2.406233e+001 3.647507e+001 2.227555e+001 6.507052e+001 4.086783e+001 3.345695e+001 5.894184e+001 1.804843e+001 6.839987e+000 1.888703e-001 7.642329e-001 6.406950e-001 1.012443e+000 5.137605e-001 1.587124e+000 9.642226e-001 5.186718e+000 1.470065e+000 3.750397e+000 2.775134e+000 1.924863e+000 3.839961e-001 5.371425e-002 2.378715e-001 2.071572e-001 3.333527e-001 1.226662e-001 4.857809e-001 2.480617e-001 9.182181e-001 5.703948e-001 5.178306e-001 8.748853e-001 4.227428e-001 4.335086e-002
<GCONST> 9.957995e+001
<STATE> 3
<MEAN> 39
 -6.501154e+000 4.248669e+000 -1.388970e+000 -3.019821e+000 -1.750001e+000 -6.059520e+000 -4.166291e+000 -7.888097e+000 -7.991605e+000 -2.451790e+000 1.631706e+000 1.110825e+000 5.823870e+001 4.148809e-001 4.414347e-001 -9.923379e-001 -9.343639e-001 -3.817649e-001 8.687421e-001 2.821702e-001 -4.783683e-001 -1.225106e+000 -3.962943e-001 1.755233e-001 1.805085e-001 -7.208282e-001 -1.251489e-001 -1.433834e-001 6.402272e-002 1.464363e-001 -1.671124e-001 -3.731846e-001 6.358051e-002 2.789600e-001 1.993987e-001 -1.326346e-001 -1.249217e-001 1.930500e-001 1.499595e-001
<VARIANCE> 39
 1.624515e+001 1.679664e+001 1.889965e+001 3.118816e+001 6.279487e+001 1.290246e+001 5.276929e+001 1.710080e+001 3.739798e+001 1.003829e+001 3.682310e+001 1.661062e+001 4.121860e+000 3.295602e-001 1.864812e+000 1.721161e+000 1.606259e+000 1.313398e+000 2.526515e+000 1.254545e+000 2.885174e+000 1.529509e+000 3.942525e+000 1.904227e+000 7.051641e-001 3.862288e-001 6.375374e-002 8.374780e-002 8.540387e-002 2.394021e-001 2.801354e-001 5.163062e-001 2.825788e-001 3.229714e-001 4.541047e-001 5.744432e-001 4.551043e-001 2.789023e-001 2.476522e-002
<GCONST> 9.452790e+001
<STATE> 4
<MEAN> 39
 -7.835362e+000 5.564401e+000 -1.160642e+000 -1.841899e-001 -1.996284e+000 -1.300289e+000 1.135763e+000 -2.571420e+000 -1.370909e+000 -1.865477e+000 -6.336136e-002 1.582037e+000 5.294442e+001 -1.997498e-001 -1.716280e-001 -7.759745e-002 -5.563905e-002 3.862063e-001 1.408005e-001 -6.855590e-002 7.126073e-001 4.010246e-001 -2.272890e-002 -2.766418e-001 -1.157076e-001 -4.396751e-001 -2.361047e-002 -6.286418e-002 2.400210e-002 7.862826e-002 2.446106e-003 -4.407885e-002 -7.726432e-003 -1.055571e-002 4.012117e-002 3.879303e-002 1.012126e-002 -3.414153e-002 5.607413e-002
<VARIANCE> 39
 1.456693e+001 2.375303e+001 6.390741e+000 1.177503e+001 1.980358e+001 1.376758e+001 1.388487e+001 3.858645e+001 3.371621e+001 2.536647e+001 1.193023e+001 1.583640e+001 1.114038e+001 2.482788e-001 7.208003e-001 5.985000e-001 5.603579e-001 1.124233e+000 1.004382e+000 1.090729e+000 1.695651e+000 1.743754e+000 1.914788e+000 1.468312e+000 1.243782e+000 1.947995e-001 4.236165e-002 1.343810e-001 1.065007e-001 1.489695e-001 1.866063e-001 1.903587e-001 2.072785e-001 3.499313e-001 3.618627e-001 3.726646e-001 2.618425e-001 2.509941e-001 2.769507e-002
<GCONST> 8.264925e+001
<TRANSP> 5
 0.000000e+000 1.000000e+000 0.000000e+000 0.000000e+000 0.000000e+000
 0.000000e+000 5.650409e-001 4.349591e-001 0.000000e+000 0.000000e+000
 0.000000e+000 0.000000e+000 6.354882e-001 3.645118e-001 0.000000e+000
 0.000000e+000 0.000000e+000 0.000000e+000 8.922457e-001 1.077542e-001
 0.000000e+000 0.000000e+000 0.000000e+000 0.000000e+000 0.000000e+000
<ENDHMM>
~h "w"
<BEGINHMM>
<NUMSTATES> 5
<STATE> 2
<MEAN> 39
 -5.153443e+000 1.887341e+000 -3.998059e-001 -4.719388e+000 -1.027645e+001 -8.377604e+000 -1.314454e+000 -4.294622e+000 -2.598214e+000 -1.637859e+000 -2.417927e+000 -3.007498e-001 6.395220e+001 2.656938e-002 2.103826e-002 1.670751e-002 2.097466e-003 -4.075075e-002 -6.993482e-002 -7.360970e-003 -1.582084e-002 -2.291133e-002 -1.948875e-002 -7.798372e-003 -1.589407e-002 -1.794146e-002 -6.101388e-003 4.534691e-003 -4.683285e-003 2.991999e-003 1.307896e-002 1.532247e-002 4.297304e-003 2.199038e-003 5.607250e-003 8.410532e-003 3.306764e-003 1.353030e-003 -2.459256e-002
<VARIANCE> 39
 3.876240e+001 5.593195e+001 6.909898e+001 8.084949e+001 8.242165e+001 1.017876e+002 5.764616e+001 6.496631e+001 6.744147e+001 4.920574e+001 3.916745e+001 3.616992e+001 8.957718e+001 1.350502e+000 1.888252e+000 1.699849e+000 2.401277e+000 2.816806e+000 2.814739e+000 2.621114e+000 2.615768e+000 2.810299e+000 2.549241e+000 2.217089e+000 1.828917e+000 2.527436e+000 1.981723e-001 2.897191e-001 2.501056e-001 3.312125e-001 4.046271e-001 4.166303e-001 4.473993e-001 4.295296e-001 4.660336e-001 4.356595e-001 3.927584e-001 3.259792e-001 2.569831e-001
<GCONST> 1.219561e+002
<STATE> 3
<MEAN> 39
 -5.153443e+000 1.887341e+000 -3.998059e-001 -4.719388e+000 -1.027645e+001 -8.377604e+000 -1.314454e+000 -4.294622e+000 -2.598214e+000 -1.637859e+000 -2.417927e+000 -3.007498e-001 6.395220e+001 2.656938e-002 2.103826e-002 1.670751e-002 2.097466e-003 -4.075075e-002 -6.993482e-002 -7.360970e-003 -1.582084e-002 -2.291133e-002 -1.948875e-002 -7.798372e-003 -1.589407e-002 -1.794146e-002 -6.101388e-003 4.534691e-003 -4.683285e-003 2.991999e-003 1.307896e-002 1.532247e-002 4.297304e-003 2.199038e-003 5.607250e-003 8.410532e-003 3.306764e-003 1.353030e-003 -2.459256e-002
<VARIANCE> 39
 3.876240e+001 5.593195e+001 6.909898e+001 8.084949e+001 8.242165e+001 1.017876e+002 5.764616e+001 6.496631e+001 6.744147e+001 4.920574e+001 3.916745e+001 3.616992e+001 8.957718e+001 1.350502e+000 1.888252e+000 1.699849e+000 2.401277e+000 2.816806e+000 2.814739e+000 2.621114e+000 2.615768e+000 2.810299e+000 2.549241e+000 2.217089e+000 1.828917e+000 2.527436e+000 1.981723e-001 2.897191e-001 2.501056e-001 3.312125e-001 4.046271e-001 4.166303e-001 4.473993e-001 4.295296e-001 4.660336e-001 4.356595e-001 3.927584e-001 3.259792e-001 2.569831e-001
<GCONST> 1.219561e+002
<STATE> 4
<MEAN> 39
 -5.153443e+000 1.887341e+000 -3.998059e-001 -4.719388e+000 -1.027645e+001 -8.377604e+000 -1.314454e+000 -4.294622e+000 -2.598214e+000 -1.637859e+000 -2.417927e+000 -3.007498e-001 6.395220e+001 2.656938e-002 2.103826e-002 1.670751e-002 2.097466e-003 -4.075075e-002 -6.993482e-002 -7.360970e-003 -1.582084e-002 -2.291133e-002 -1.948875e-002 -7.798372e-003 -1.589407e-002 -1.794146e-002 -6.101388e-003 4.534691e-003 -4.683285e-003 2.991999e-003 1.307896e-002 1.532247e-002 4.297304e-003 2.199038e-003 5.607250e-003 8.410532e-003 3.306764e-003 1.353030e-003 -2.459256e-002
<VARIANCE> 39
 3.876240e+001 5.593195e+001 6.909898e+001 8.084949e+001 8.242165e+001 1.017876e+002 5.764616e+001 6.496631e+001 6.744147e+001 4.920574e+001 3.916745e+001 3.616992e+001 8.957718e+001 1.350502e+000 1.888252e+000 1.699849e+000 2.401277e+000 2.816806e+000 2.814739e+000 2.621114e+000 2.615768e+000 2.810299e+000 2.549241e+000 2.217089e+000 1.828917e+000 2.527436e+000 1.981723e-001 2.897191e-001 2.501056e-001 3.312125e-001 4.046271e-001 4.166303e-001 4.473993e-001 4.295296e-001 4.660336e-001 4.356595e-001 3.927584e-001 3.259792e-001 2.569831e-001
<GCONST> 1.219561e+002
<TRANSP> 5
 0.000000e+000 1.000000e+000 0.000000e+000 0.000000e+000 0.000000e+000
 0.000000e+000 6.000000e-001 4.000000e-001 0.000000e+000 0.000000e+000
 0.000000e+000 0.000000e+000 6.000000e-001 4.000000e-001 0.000000e+000
 0.000000e+000 0.000000e+000 0.000000e+000 7.000000e-001 3.000000e-001
 0.000000e+000 0.000000e+000 0.000000e+000 0.000000e+000 0.000000e+000
<ENDHMM>
~h "a:"
<BEGINHMM>
<NUMSTATES> 5
<STATE> 2
<MEAN> 39
 1.094644e+000 -4.194550e+000 -1.156692e+001 -1.905112e+001 -7.982116e+000 4.263546e+000 5.187097e+000 -2.013653e+000 -6.116911e+000 3.614468e+000 -6.748117e+000 -5.346300e+000 7.311024e+001 -3.655497e-002 1.312628e-001 -1.325968e-001 7.950580e-002 7.480705e-002 -3.963141e-001 -2.228903e-001 2.548902e-002 4.088427e-001 1.212184e-001 1.914541e-001 1.633188e-001 -1.602577e-001 -1.747109e-002 1.547317e-001 1.184262e-001 2.011548e-001 -8.861921e-002 -2.317281e-001 -1.113655e-001 -3.805788e-002 1.054446e-001 -5.236397e-002 1.085551e-001 9.052087e-002 -1.030123e-001
<VARIANCE> 39
 7.586779e+000 3.808567e+001 4.630004e+001 2.922929e+001 2.729435e+001 5.087480e+001 2.045517e+001 3.180551e+001 5.431965e+001 2.669548e+001 4.033773e+001 3.105414e+001 9.077444e+000 1.948444e-001 5.055717e-001 6.346046e-001 7.803060e-001 1.002948e+000 1.619661e+000 1.516802e+000 1.353380e+000 1.452981e+000 1.743557e+000 1.205380e+000 1.097120e+000 1.419188e-001 3.956939e-002 9.227969e-002 1.311606e-001 1.361996e-001 1.715369e-001 2.704764e-001 3.424254e-001 2.760470e-001 2.610978e-001 2.457071e-001 2.135831e-001 2.360094e-001 3.885319e-002
<GCONST> 8.827728e+001
<STATE> 3
<MEAN> 39
 3.529525e-001 -7.321805e-001 -9.249722e+000 -1.359146e+001 -9.898337e+000 -1.210721e+000 7.062191e-001 -5.279243e+000 -2.954599e+000 3.358749e+000 -2.416691e+000 -3.174558e+000 6.729696e+001 -5.731100e-001 1.220914e+000 6.566029e-001 1.695126e+000 5.782471e-001 -8.457780e-001 -8.296152e-001 -3.116185e-001 6.742955e-001 -4.252428e-001 7.136337e-001 8.783388e-001 -2.080008e+000 -1.675395e-001 -4.637573e-002 -7.598633e-002 3.772981e-002 1.677366e-001 2.351816e-001 2.839948e-001 1.775276e-001 -1.156561e-001 -1.982242e-001 -1.688881e-001 -2.086806e-001 -2.832488e-001
<VARIANCE> 39
 8.349615e+000 4.465654e+001 4.160098e+001 3.056384e+001 3.566368e+001 4.563240e+001 3.237035e+001 4.423341e+001 6.082617e+001 3.660214e+001 4.231142e+001 4.708650e+001 4.410508e+001 6.902539e-001 1.124557e+000 2.027941e+000 2.424389e+000 2.217173e+000 3.160822e+000 2.781876e+000 2.996400e+000 3.325952e+000 2.289973e+000 2.797827e+000 2.242077e+000 1.174955e+000 9.894631e-002 2.945554e-001 3.065194e-001 4.694499e-001 3.930833e-001 5.535007e-001 4.778302e-001 6.119310e-001 5.564936e-001 4.283399e-001 4.339347e-001 3.984516e-001 2.798487e-001
<GCONST> 1.152428e+002
<STATE> 4
<MEAN> 39
 -4.370233e+000 2.064405e+000 -9.195371e+000 -9.078076e+000 -7.170754e+000 -3.360967e+000 1.764277e+000 -1.046540e+000 -5.930296e-001 -5.324363e-001 -9.272012e-001 -5.177420e-001 5.594416e+001 -1.001752e+000 -5.497061e-001 2.342496e-001 4.615357e-001 2.385357e-001 -1.508294e-002 -2.562526e-001 3.056191e-001 3.487570e-001 -9.843260e-002 -5.810131e-002 -8.307154e-002 -6.673770e-001 -5.788777e-002 -2.923760e-001 1.749334e-001 -1.378748e-001 -4.629776e-002 -2.683601e-002 -2.403127e-001 -1.892298e-001 -4.645138e-002 4.095031e-002 -5.081061e-002 -3.281360e-002 8.430968e-001
<VARIANCE> 39
 1.052061e+001 1.938061e+001 2.205338e+001 1.297894e+001 2.213935e+001 3.436832e+001 2.824670e+001 2.262763e+001 3.064096e+001 2.027908e+001 3.369566e+001 3.251316e+001 3.448563e+001 1.213017e+000 1.980628e+000 1.622607e+000 1.526683e+000 2.061481e+000 1.765725e+000 1.954532e+000 2.159476e+000 3.391959e+000 2.385430e+000 1.499497e+000 1.897186e+000 4.761463e+000 2.133681e-001 2.658904e-001 3.504878e-001 3.027674e-001 4.155107e-001 3.405829e-001 3.489700e-001 3.590232e-001 5.750318e-001 4.593468e-001 3.459950e-001 3.040851e-001 5.425727e-001
<GCONST> 1.085906e+002
<TRANSP> 5
 0.000000e+000 1.000000e+000 0.000000e+000 0.000000e+000 0.000000e+000
 0.000000e+000 8.773713e-001 1.226287e-001 0.000000e+000 0.000000e+000
 0.000000e+000 0.000000e+000 7.832227e-001 2.167773e-001 0.000000e+000
 0.000000e+000 0.000000e+000 0.000000e+000 8.360314e-001 1.639686e-001
 0.000000e+000 0.000000e+000 0.000000e+000 0.000000e+000 0.000000e+000
<ENDHMM>
~h "ae"
<BEGINHMM>
<NUMSTATES> 5
<STATE> 2
<MEAN> 39
 -1.464012e+000 -8.859451e+000 -1.093288e+001 -1.429738e+001 -7.776425e+000 -2.554399e+000 -9.654940e-001 -1.912511e-001 1.425053e+000 6.532848e+000 -3.717027e+000 -8.375248e+000 7.696744e+001 -8.164130e-002 1.187077e-002 3.274429e-001 8.804497e-001 4.772633e-002 -1.749443e+000 -1.063795e+000 5.457331e-001 9.940041e-001 -2.764927e-003 -7.594948e-001 -1.591629e-001 -1.917536e-001 -1.292341e-002 1.208670e-001 1.687782e-001 7.531206e-002 -9.401276e-002 -1.374824e-001 -9.795830e-002 5.026312e-002 4.315284e-002 -1.765698e-001 3.224947e-002 1.547979e-001 -4.390020e-002
<VARIANCE> 39
 1.057844e+001 3.001886e+001 2.712878e+001 2.966164e+001 2.384099e+001 7.614822e+001 5.864043e+001 5.287551e+001 6.157367e+001 2.746573e+001 5.756123e+001 3.624464e+001 1.691922e+001 1.874684e-001 3.881825e-001 7.408321e-001 1.176198e+000 1.032205e+000 2.343437e+000 2.509711e+000 1.257914e+000 2.686003e+000 1.725660e+000 1.709785e+000 1.583620e+000 1.693489e-001 2.950654e-002 7.626122e-002 1.003173e-001 1.503339e-001 1.754833e-001 3.767631e-001 5.203621e-001 2.670722e-001 4.513716e-001 2.878902e-001 3.501114e-001 2.849551e-001 1.912164e-002
<GCONST> 9.432193e+001
<STATE> 3
<MEAN> 39
 -2.986869e+000 -3.699823e+000 -1.588521e+000 -6.804064e+000 -1.062149e+001 -1.835426e+001 -9.429343e+000 2.779333e+000 6.856396e+000 2.841632e+000 -6.305147e+000 -4.200377e+000 7.303923e+001 -2.835093e-001 7.421013e-001 1.122652e+000 7.696183e-001 -5.798343e-001 -5.758069e-001 -3.737585e-002 -6.156173e-002 -3.134852e-001 -6.517988e-001 3.039578e-001 7.137759e-001 -6.897184e-001 -5.279132e-002 5.238668e-003 -4.079932e-002 1.673137e-002 7.334705e-002 2.496055e-001 1.001439e-001 -1.175178e-001 -1.254974e-001 3.640295e-002 1.018288e-002 -9.613266e-003 -5.173621e-002
<VARIANCE> 39
 1.490800e+001 3.468289e+001 3.863536e+001 2.281552e+001 2.446571e+001 3.612827e+001 2.105564e+001 6.318935e+001 4.111474e+001 2.482458e+001 4.443934e+001 5.112550e+001 1.885594e+001 1.418681e-001 5.261518e-001 5.296766e-001 8.380319e-001 1.013399e+000 1.696435e+000 1.047655e+000 1.537570e+000 1.480044e+000 1.131842e+000 1.095845e+000 1.450996e+000 1.619001e-001 1.911834e-002 8.832574e-002 6.489574e-002 1.718871e-001 1.642205e-001 2.032622e-001 1.989930e-001 2.428449e-001 2.724991e-001 1.891807e-001 2.326889e-001 2.058766e-001 2.039657e-002
<GCONST> 8.584293e+001
<STATE> 4
<MEAN> 39
 -7.823521e+000 9.602559e-001 3.260277e+000 7.144458e-001 -1.227514e+001 -1.623705e+001 -3.803710e+000 1.761728e+000 2.809487e+000 -1.139518e+000 -2.526948e+000 1.210142e+000 6.270971e+001 -3.653749e-001 1.600118e-001 -1.973289e-001 1.233991e-001 4.462222e-001 3.688626e-001 4.139248e-001 -1.274830e-001 -1.605007e-001 -2.674991e-002 2.933761e-001 2.808405e-001 -1.107198e+000 2.337965e-002 -4.440884e-002 -1.347311e-001 -9.103671e-002 1.094234e-001 7.756421e-002 3.049998e-002 4.368602e-002 2.507198e-002 9.575652e-002 1.345482e-002 -5.486841e-002 -2.336503e-002
<VARIANCE> 39
 2.330324e+001 3.177571e+001 4.027621e+001 2.409856e+001 5.538398e+001 4.060669e+001 7.317963e+001 5.372417e+001 3.746649e+001 4.758932e+001 5.535641e+001 3.782009e+001 3.601490e+001 4.218191e-001 8.123963e-001 1.221640e+000 1.113993e+000 1.716735e+000 2.181516e+000 1.765766e+000 1.813627e+000 1.789148e+000 1.784472e+000 2.529840e+000 1.690344e+000 5.225337e-001 6.175086e-002 1.207785e-001 1.927205e-001 2.010134e-001 2.638571e-001 3.904964e-001 3.221617e-001 3.140218e-001 3.344496e-001 3.040428e-001 4.289239e-001 3.061543e-001 6.518829e-002
<GCONST> 1.038010e+002
<TRANSP> 5
 0.000000e+000 1.000000e+000 0.000000e+000 0.000000e+000 0.000000e+000
 0.000000e+000 8.993596e-001 1.006404e-001 0.000000e+000 0.000000e+000
 0.000000e+000 0.000000e+000 8.803856e-001 1.196144e-001 0.000000e+000
 0.000000e+000 0.000000e+000 0.000000e+000 9.251947e-001 7.480533e-002
 0.000000e+000 0.000000e+000 0.000000e+000 0.000000e+000 0.000000e+000
<ENDHMM>
~h "ai"
<BEGINHMM>
<NUMSTATES> 5
<STATE> 2
<MEAN> 39
 -1.382147e+000 -6.419556e+000 -5.930274e+000 -9.102262e+000 -7.859968e+000 -1.591008e+001 -1.000518e+001 -4.424137e-001 6.421723e+000 7.340583e+000 -2.377268e+000 -4.579063e+000 7.540362e+001 -4.949864e-001 7.202620e-001 1.831068e+000 2.305641e+000 -9.552958e-001 -2.915813e+000 -1.183802e+000 1.936598e-001 -5.780799e-002 -1.507113e+000 -4.319844e-001 1.485753e+000 -6.782010e-001 -1.372121e-001 3.407061e-001 2.859898e-001 1.348011e-001 -3.487995e-001 4.843610e-001 5.429202e-001 -3.460073e-001 -6.334036e-001 -4.374354e-001 3.544488e-001 2.701625e-001 -1.314789e-001
<VARIANCE> 39
 1.537734e+001 1.822541e+001 5.900212e+001 3.892834e+001 3.780650e+001 7.428728e+001 4.269415e+001 5.005862e+001 4.396915e+001 4.458478e+001 2.276880e+001 4.005380e+001 1.154717e+001 5.045759e-001 9.537470e-001 2.045842e+000 2.028995e+000 2.105295e+000 3.936717e+000 2.596184e+000 2.929784e+000 4.367553e+000 3.258799e+000 3.004030e+000 2.181836e+000 2.726445e-001 6.577150e-002 1.485216e-001 2.799849e-001 3.854521e-001 3.035388e-001 5.181490e-001 3.373908e-001 5.768225e-001 4.984709e-001 6.038087e-001 4.782936e-001 5.199335e-001 4.812195e-002
<GCONST> 1.096069e+002
<STATE> 3
<MEAN> 39
 -5.573047e+000 1.173868e+000 5.753420e+000 1.524019e+000 -1.451212e+001 -2.033679e+001 -7.910049e+000 -5.712226e+000 -1.622019e+000 -2.377293e+000 -8.893310e-001 1.345123e+000 7.082368e+001 -9.101651e-001 1.503763e+000 1.423206e+000 1.171067e+000 -3.043041e-001 5.035000e-001 1.135709e+000 -1.152142e+000 -1.948907e+000 -8.182288e-001 -3.112304e-001 1.995919e-001 -1.107747e+000 2.353712e-002 -1.300533e-001 -3.162047e-001 -2.841781e-001 3.700261e-001 2.790840e-001 1.636913e-001 1.956503e-001 1.434180e-001 3.363062e-001 -1.724074e-001 -3.526474e-001 -7.038494e-002
<VARIANCE> 39
 1.594085e+001 2.873157e+001 5.488058e+001 2.181101e+001 3.963389e+001 6.096899e+001 4.560296e+001 4.304663e+001 9.608303e+001 3.100109e+001 3.515720e+001 2.829632e+001 1.178881e+001 2.597094e-001 7.095730e-001 7.110661e-001 8.888578e-001 1.435602e+000 1.462058e+000 1.929834e+000 3.133401e+000 1.948770e+000 2.396343e+000 2.631673e+000 1.484891e+000 1.604444e-001 4.417773e-002 8.037027e-002 1.038309e-001 1.066991e-001 1.901310e-001 3.131765e-001 4.164516e-001 4.496883e-001 4.383639e-001 3.549847e-001 5.046886e-001 2.742769e-001 1.560944e-002
<GCONST> 9.646080e+001
<STATE> 4
<MEAN> 39
 -1.167240e+001 6.887944e+000 7.685544e+000 2.843320e+000 -8.505641e+000 -1.388554e+001 -1.098409e+000 -7.524372e+000 -6.359214e+000 -2.888493e+000 -3.064712e+000 -1.262250e+000 6.007600e+001 -2.727032e-001 -6.340792e-002 -3.456914e-001 -7.931536e-002 6.346875e-001 6.620530e-001 4.241736e-001 1.238239e-001 5.211950e-003 6.522604e-003 1.865078e-001 -7.674234e-002 -1.156404e+000 6.211862e-002 -1.215553e-001 -1.339588e-001 -3.484317e-002 1.878938e-002 3.627933e-004 -1.315163e-001 7.023367e-002 1.592955e-001 3.147032e-002 2.908137e-002 9.792957e-002 2.954740e-002
<VARIANCE> 39
 2.133475e+001 3.483039e+001 4.217495e+001 2.405163e+001 8.101550e+001 5.232281e+001 5.554104e+001 2.881735e+001 6.174226e+001 4.396954e+001 4.391116e+001 3.124039e+001 2.487871e+001 4.548326e-001 7.059721e-001 9.851015e-001 5.718599e-001 1.452150e+000 1.163400e+000 1.602224e+000 2.131110e+000 1.877549e+000 1.554475e+000 1.916797e+000 1.419393e+000 1.837706e-001 7.364159e-002 9.361242e-002 1.243182e-001 1.161707e-001 2.252656e-001 1.597288e-001 2.424269e-001 3.682656e-001 3.336193e-001 2.530000e-001 3.666328e-001 3.124664e-001 1.746387e-002
<GCONST> 9.606319e+001
<TRANSP> 5
 0.000000e+000 1.000000e+000 0.000000e+000 0.000000e+000 0.000000e+000
 0.000000e+000 8.100595e-001 1.899405e-001 0.000000e+000 0.000000e+000
 0.000000e+000 0.000000e+000 8.123459e-001 1.876542e-001 0.000000e+000
 0.000000e+000 0.000000e+000 0.000000e+000 9.162347e-001 8.376533e-002
 0.000000e+000 0.000000e+000 0.000000e+000 0.000000e+000 0.000000e+000
<ENDHMM>
~h "ao"
<BEGINHMM>
<NUMSTATES> 5
<STATE> 2
<MEAN> 39
 3.185483e-001 -7.084166e+000 -9.389896e+000 -1.921896e+001 -1.961175e+001 -4.676824e+000 6.839620e+000 5.374671e+000 -3.995707e+000 -5.699500e+000 -4.456299e+000 -2.894998e+000 7.441346e+001 5.569011e-001 7.595003e-001 5.017458e-001 -5.324522e-001 -1.194091e+000 1.037217e-002 -2.280898e-001 -2.487944e-001 2.479134e-001 5.276319e-001 -4.057546e-001 -2.041110e-001 -9.226276e-001 9.427824e-002 2.745894e-001 8.287566e-002 3.874084e-002 -2.845896e-002 -3.301268e-002 -7.363569e-002 -1.430199e-001 1.907197e-002 2.584750e-001 -4.967659e-002 -5.114951e-002 -1.929531e-001
<VARIANCE> 39
 1.015610e+001 2.039486e+001 2.142360e+001 1.753967e+001 4.218334e+001 4.154586e+001 2.759801e+001 4.373755e+001 5.566473e+001 3.857994e+001 3.250681e+001 2.107204e+001 2.593020e+001 8.089921e-001 9.809352e-001 6.196156e-001 8.991568e-001 2.060041e+000 2.498692e+000 2.245588e+000 3.114198e+000 3.619763e+000 3.827077e+000 1.368378e+000 2.306360e+000 1.276597e+000 1.532802e-001 8.854619e-002 1.403644e-001 2.053015e-001 4.300275e-001 4.560889e-001 2.953756e-001 5.380629e-001 6.346167e-001 4.690525e-001 3.303826e-001 4.097277e-001 1.314555e-001
<GCONST> 1.051951e+002
<STATE> 3
<MEAN> 39
 3.500227e+000 1.503639e+000 -7.164539e+000 -2.006442e+001 -2.036563e+001 -2.392245e+000 5.055400e+000 2.582724e-001 -2.147799e+000 2.945795e+000 -6.412325e+000 -4.063427e+000 6.880257e+001 2.125525e-002 7.995948e-001 3.118908e-001 6.246870e-002 -3.164753e-001 -6.889443e-001 -2.597120e-001 -5.049502e-002 1.315736e-001 2.661017e-001 -7.915955e-003 -7.460633e-002 -6.117091e-001 -5.256659e-002 2.968355e-002 7.303829e-004 5.569331e-002 9.605584e-002 -7.469229e-003 -6.340732e-002 -4.606621e-002 2.660465e-002 -7.080240e-002 1.777068e-002 4.146204e-002 -9.457340e-003
<VARIANCE> 39
 7.760058e+000 2.197526e+001 2.166827e+001 1.707551e+001 5.684948e+001 5.358477e+001 2.456487e+001 4.565515e+001 7.315044e+001 3.513439e+001 2.040338e+001 2.506049e+001 3.121102e+001 1.537502e-001 8.406271e-001 5.946006e-001 5.508306e-001 1.117393e+000 1.721460e+000 1.570033e+000 1.831889e+000 1.718064e+000 1.356347e+000 1.282543e+000 1.089429e+000 3.152248e-001 3.517526e-002 1.102388e-001 9.660613e-002 6.591145e-002 2.381545e-001 3.025335e-001 2.764421e-001 2.869621e-001 2.844585e-001 2.900076e-001 1.963524e-001 2.299551e-001 3.859174e-002
<GCONST> 8.925650e+001
<STATE> 4
<MEAN> 39
 -6.920677e-002 9.266548e+000 -3.052353e+000 -1.509796e+001 -1.790763e+001 -7.747519e+000 8.023403e-001 -8.663130e-001 -1.095227e+000 1.488635e+000 -4.405054e+000 -2.929817e+000 5.874684e+001 -5.760219e-001 3.656455e-002 2.324278e-002 8.332469e-001 8.859712e-001 1.304991e-003 -2.618914e-001 7.557138e-002 1.406418e-001 -1.383157e-001 2.813374e-001 3.714631e-001 -8.973103e-001 -5.636708e-002 -1.410666e-001 -2.413870e-002 5.135464e-002 8.639432e-002 7.287833e-002 5.940088e-002 6.642712e-002 2.297789e-002 2.611073e-002 6.715105e-002 3.105171e-002 1.512393e-002
<VARIANCE> 39
 1.446590e+001 1.456195e+001 2.598107e+001 3.141271e+001 4.977025e+001 4.793117e+001 5.010812e+001 3.612934e+001 4.317450e+001 2.330215e+001 2.895751e+001 2.477164e+001 4.239978e+001 4.324762e-001 7.192110e-001 6.438898e-001 1.257124e+000 1.744574e+000 1.383328e+000 1.305498e+000 1.557355e+000 2.154278e+000 2.002137e+000 1.621245e+000 1.528190e+000 2.922882e-001 6.185880e-002 1.056532e-001 1.042198e-001 2.067544e-001 2.154417e-001 2.352318e-001 2.255858e-001 2.731614e-001 3.838977e-001 3.806593e-001 2.765083e-001 2.839715e-001 3.517161e-002
<GCONST> 9.514512e+001
<TRANSP> 5
 0.000000e+000 1.000000e+000 0.000000e+000 0.000000e+000 0.000000e+000
 0.000000e+000 7.307563e-001 2.692436e-001 0.000000e+000 0.000000e+000
 0.000000e+000 0.000000e+000 9.002015e-001 9.979851e-002 0.000000e+000
 0.000000e+000 0.000000e+000 0.000000e+000 9.289138e-001 7.108627e-002
 0.000000e+000 0.000000e+000 0.000000e+000 0.000000e+000 0.000000e+000
<ENDHMM>
~h "au"
<BEGINHMM>
<NUMSTATES> 5
<STATE> 2
<MEAN> 39
 3.590437e-001 -2.962571e+000 -7.907561e+000 -1.698503e+001 -1.506774e+001 -1.237975e+000 1.550981e+000 -5.080074e+000 -3.413854e+000 3.749096e+000 4.184433e+000 -3.042617e-001 7.372922e+001 2.363378e-001 5.705615e-001 1.630471e-001 5.845916e-001 -4.560424e-001 -6.611081e-001 -7.061582e-001 -1.280834e+000 -4.143272e-001 -1.789119e-001 7.246119e-001 4.975351e-001 -4.551122e-001 7.161970e-002 1.711602e-001 -2.986528e-002 1.847535e-001 5.451681e-002 1.892800e-002 9.196890e-002 -1.933955e-001 -2.022853e-001 -2.570117e-001 -3.064331e-002 7.115307e-002 -1.378815e-001
<VARIANCE> 39
 4.126195e+000 4.048311e+001 2.935934e+001 1.836362e+001 2.107588e+001 7.623463e+001 2.501937e+001 5.413085e+001 4.868027e+001 6.920836e+001 3.168308e+001 3.778502e+001 1.719912e+001 3.219318e-001 7.368106e-001 5.572889e-001 1.060387e+000 1.361377e+000 2.197634e+000 1.380177e+000 1.965635e+000 1.788041e+000 2.028918e+000 1.585242e+000 2.027003e+000 3.135332e-001 4.347507e-002 8.777943e-002 1.146833e-001 1.523949e-001 1.408442e-001 4.264857e-001 2.258947e-001 4.233453e-001 3.128773e-001 3.272094e-001 2.872050e-001 3.055235e-001 3.175633e-002
<GCONST> 9.422154e+001
<STATE> 3
<MEAN> 39
 3.247751e+000 3.566563e+000 -7.214371e+000 -9.989296e+000 -1.623048e+001 -6.717020e+000 -2.140774e+000 -1.391605e+001 -1.283884e+001 -1.810727e+000 4.613664e+000 1.641623e+000 6.708575e+001 5.794867e-002 1.508243e+000 4.504478e-001 4.009815e-001 3.999213e-001 4.445894e-002 -4.522364e-002 -3.224466e-001 -1.018845e+000 -1.211869e+000 -7.287886e-001 1.753742e-001 -1.280797e+000 -1.370682e-001 1.334765e-002 8.094334e-002 -8.792834e-002 9.515426e-002 6.797781e-002 3.968909e-002 3.100080e-001 1.986408e-001 2.808016e-002 -2.015629e-001 -1.978838e-001 -3.885476e-002
<VARIANCE> 39
 7.956346e+000 3.752741e+001 2.186491e+001 2.690320e+001 3.476923e+001 3.141855e+001 2.954210e+001 4.342095e+001 8.996173e+001 4.600476e+001 2.974459e+001 3.570605e+001 2.260457e+001 4.201410e-001 1.009743e+000 9.893168e-001 1.729102e+000 1.339260e+000 1.697320e+000 1.863297e+000 2.959916e+000 2.635358e+000 1.998039e+000 2.599059e+000 2.140183e+000 2.424520e-001 4.419336e-002 1.227522e-001 1.642140e-001 2.660394e-001 2.648568e-001 2.148020e-001 3.271994e-001 3.296021e-001 4.300260e-001 3.502185e-001 3.697313e-001 3.171058e-001 2.522698e-002
<GCONST> 9.933126e+001
<STATE> 4
<MEAN> 39
 -1.597154e+000 1.320583e+001 -1.746798e+000 -6.345839e+000 -8.791330e+000 -4.470006e+000 -7.221716e-001 -9.519502e+000 -7.762249e+000 -8.656786e+000 -4.140526e+000 -5.823544e-001 5.708221e+001 -6.024206e-001 -1.958020e-001 2.012873e-001 5.573258e-001 7.849699e-001 6.944529e-002 5.405020e-003 5.473031e-001 5.554261e-001 5.831301e-002 -2.609185e-001 -1.584018e-001 -8.888641e-001 -4.112937e-002 -2.111797e-001 -4.766192e-002 -5.116019e-003 3.475006e-002 1.044224e-002 -1.657259e-002 2.048603e-002 3.891009e-002 1.659847e-001 1.581686e-001 1.220930e-001 3.988619e-002
<VARIANCE> 39
 8.914041e+000 2.044831e+001 1.439811e+001 1.680264e+001 3.380471e+001 2.862843e+001 3.468532e+001 3.120390e+001 5.773597e+001 2.750303e+001 4.622092e+001 4.292276e+001 2.518274e+001 3.318051e-001 9.444098e-001 6.836891e-001 8.187360e-001 1.126841e+000 1.547922e+000 2.260641e+000 1.574276e+000 2.303533e+000 2.198770e+000 1.955985e+000 2.098668e+000 2.491756e-001 3.877288e-002 1.188242e-001 1.161784e-001 1.380247e-001 1.741834e-001 2.588045e-001 3.619412e-001 3.028177e-001 3.358203e-001 3.293532e-001 3.181810e-001 3.398291e-001 2.901547e-002
<GCONST> 9.336295e+001
<TRANSP> 5
 0.000000e+000 1.000000e+000 0.000000e+000 0.000000e+000 0.000000e+000
 0.000000e+000 8.339052e-001 1.660948e-001 0.000000e+000 0.000000e+000
 0.000000e+000 0.000000e+000 8.637472e-001 1.362528e-001 0.000000e+000
 0.000000e+000 0.000000e+000 0.000000e+000 9.158642e-001 8.413584e-002
 0.000000e+000 0.000000e+000 0.000000e+000 0.000000e+000 0.000000e+000
<ENDHMM>
~h "e:"
<BEGINHMM>
<NUMSTATES> 5
<STATE> 2
<MEAN> 39
 -5.162995e+000 -4.011673e+000 9.132291e+000 5.889660e-001 -2.252560e+001 -2.148297e+001 -7.943350e+000 -6.649347e+000 -6.094418e+000 -5.622374e+000 -1.936364e+000 6.530546e+000 7.421609e+001 -1.302413e-002 -6.854300e-002 -1.737778e-002 -2.589094e-002 5.640009e-002 -1.807698e-001 9.799878e-004 1.160875e-001 -2.721532e-002 6.310560e-002 -3.928292e-002 -1.421844e-002 -1.473218e-001 -2.524181e-003 3.449950e-002 -3.696903e-002 -1.030581e-002 9.209700e-002 6.456897e-002 1.109966e-002 3.493910e-002 4.912256e-002 4.396659e-003 1.092287e-002 -4.938963e-002 -3.402444e-002
<VARIANCE> 39
 5.237033e+000 4.667028e+001 4.275818e+001 1.659706e+001 5.851175e+001 4.990874e+001 1.869459e+001 3.113655e+001 4.170017e+001 4.931118e+001 6.382401e+001 2.738992e+001 1.315442e+001 1.191246e-001 3.496064e-001 2.973681e-001 5.250635e-001 9.746786e-001 8.328553e-001 7.818121e-001 7.330265e-001 9.036494e-001 7.461708e-001 9.111153e-001 6.261194e-001 1.304270e-001 2.070886e-002 5.924072e-002 6.569012e-002 1.015610e-001 1.572118e-001 1.688576e-001 1.484844e-001 1.206623e-001 1.906550e-001 1.403917e-001 1.529550e-001 1.212424e-001 2.491136e-002
<GCONST> 7.630071e+001
<STATE> 3
<MEAN> 39
 -2.824032e+000 -9.443277e-001 4.829724e+000 5.716607e-001 -1.669415e+001 -2.486183e+001 -7.703436e+000 -3.472657e+000 -3.362254e+000 -4.677030e+000 -4.718623e+000 2.248670e+000 7.042773e+001 -7.679078e-002 1.940218e-001 -7.597400e-002 -1.700589e-001 1.599663e-001 1.063998e-001 -6.378911e-002 2.533357e-001 3.134727e-001 5.908927e-002 -1.489041e-001 -1.655875e-001 -4.858069e-001 -1.468544e-002 -5.316170e-003 1.695152e-002 3.748393e-002 3.517476e-002 1.082933e-001 4.028204e-002 -4.103344e-002 -2.193836e-002 -2.345944e-003 -3.758742e-002 6.436130e-004 -4.978330e-002
<VARIANCE> 39
 1.171871e+001 1.945878e+001 1.381698e+001 1.923823e+001 1.152467e+002 3.459482e+001 2.220852e+001 4.677547e+001 6.397305e+001 3.316066e+001 3.204046e+001 3.383912e+001 9.233013e+000 1.828198e-001 4.599874e-001 6.392139e-001 1.062393e+000 1.336078e+000 9.814918e-001 1.629662e+000 1.129011e+000 2.150051e+000 1.559604e+000 1.582986e+000 1.024090e+000 1.165328e-001 3.368723e-002 7.710770e-002 1.136944e-001 1.930110e-001 2.498040e-001 1.905525e-001 2.719957e-001 2.459587e-001 3.970790e-001 2.833476e-001 2.583465e-001 1.977367e-001 1.570996e-002
<GCONST> 8.752444e+001
<STATE> 4
<MEAN> 39
 -7.343379e+000 6.768191e-001 4.791386e+000 6.452271e-001 -1.221888e+001 -1.792230e+001 -4.220632e+000 -1.208623e+000 2.458370e-001 -3.772129e+000 -4.211531e+000 2.116737e+000 6.172008e+001 -2.407048e-001 6.430581e-002 -5.181639e-001 1.239388e-001 1.066081e+000 7.677991e-001 5.865427e-001 2.524182e-001 1.717855e-001 3.868063e-001 2.229168e-001 -2.622950e-002 -1.218187e+000 -8.596959e-003 3.309704e-002 -9.871189e-002 2.658111e-002 1.360437e-001 4.336575e-002 6.323864e-003 -1.519469e-002 -6.339929e-002 6.335319e-002 8.560698e-002 -2.218539e-002 -5.477243e-002
<VARIANCE> 39
 1.909593e+001 2.634293e+001 1.969188e+001 2.330482e+001 7.483954e+001 3.713415e+001 4.793908e+001 3.479045e+001 4.724572e+001 2.468269e+001 4.583215e+001 4.633313e+001 2.379036e+001 4.385152e-001 7.709716e-001 6.450258e-001 8.558682e-001 1.311651e+000 1.596489e+000 1.632870e+000 3.583660e+000 3.407489e+000 1.648573e+000 1.904805e+000 1.275719e+000 5.640222e-001 7.193090e-002 1.497106e-001 9.501665e-002 1.654471e-001 2.643720e-001 3.071719e-001 3.492582e-001 5.848227e-001 6.831239e-001 3.020239e-001 3.306726e-001 2.456419e-001 6.203196e-002
<GCONST> 1.004839e+002
<TRANSP> 5
 0.000000e+000 1.000000e+000 0.000000e+000 0.000000e+000 0.000000e+000
 0.000000e+000 9.147183e-001 8.528171e-002 0.000000e+000 0.000000e+000
 0.000000e+000 0.000000e+000 8.935138e-001 1.064862e-001 0.000000e+000
 0.000000e+000 0.000000e+000 0.000000e+000 8.744099e-001 1.255901e-001
 0.000000e+000 0.000000e+000 0.000000e+000 0.000000e+000 0.000000e+000
<ENDHMM>
~h "ea"
<BEGINHMM>
<NUMSTATES> 5
<STATE> 2
<MEAN> 39
 -5.153443e+000 1.887341e+000 -3.998059e-001 -4.719388e+000 -1.027645e+001 -8.377604e+000 -1.314454e+000 -4.294622e+000 -2.598214e+000 -1.637859e+000 -2.417927e+000 -3.007498e-001 6.395220e+001 2.656938e-002 2.103826e-002 1.670751e-002 2.097466e-003 -4.075075e-002 -6.993482e-002 -7.360970e-003 -1.582084e-002 -2.291133e-002 -1.948875e-002 -7.798372e-003 -1.589407e-002 -1.794146e-002 -6.101388e-003 4.534691e-003 -4.683285e-003 2.991999e-003 1.307896e-002 1.532247e-002 4.297304e-003 2.199038e-003 5.607250e-003 8.410532e-003 3.306764e-003 1.353030e-003 -2.459256e-002
<VARIANCE> 39
 3.876240e+001 5.593195e+001 6.909898e+001 8.084949e+001 8.242165e+001 1.017876e+002 5.764616e+001 6.496631e+001 6.744147e+001 4.920574e+001 3.916745e+001 3.616992e+001 8.957718e+001 1.350502e+000 1.888252e+000 1.699849e+000 2.401277e+000 2.816806e+000 2.814739e+000 2.621114e+000 2.615768e+000 2.810299e+000 2.549241e+000 2.217089e+000 1.828917e+000 2.527436e+000 1.981723e-001 2.897191e-001 2.501056e-001 3.312125e-001 4.046271e-001 4.166303e-001 4.473993e-001 4.295296e-001 4.660336e-001 4.356595e-001 3.927584e-001 3.259792e-001 2.569831e-001
<GCONST> 1.219561e+002
<STATE> 3
<MEAN> 39
 -5.153443e+000 1.887341e+000 -3.998059e-001 -4.719388e+000 -1.027645e+001 -8.377604e+000 -1.314454e+000 -4.294622e+000 -2.598214e+000 -1.637859e+000 -2.417927e+000 -3.007498e-001 6.395220e+001 2.656938e-002 2.103826e-002 1.670751e-002 2.097466e-003 -4.075075e-002 -6.993482e-002 -7.360970e-003 -1.582084e-002 -2.291133e-002 -1.948875e-002 -7.798372e-003 -1.589407e-002 -1.794146e-002 -6.101388e-003 4.534691e-003 -4.683285e-003 2.991999e-003 1.307896e-002 1.532247e-002 4.297304e-003 2.199038e-003 5.607250e-003 8.410532e-003 3.306764e-003 1.353030e-003 -2.459256e-002
<VARIANCE> 39
 3.876240e+001 5.593195e+001 6.909898e+001 8.084949e+001 8.242165e+001 1.017876e+002 5.764616e+001 6.496631e+001 6.744147e+001 4.920574e+001 3.916745e+001 3.616992e+001 8.957718e+001 1.350502e+000 1.888252e+000 1.699849e+000 2.401277e+000 2.816806e+000 2.814739e+000 2.621114e+000 2.615768e+000 2.810299e+000 2.549241e+000 2.217089e+000 1.828917e+000 2.527436e+000 1.981723e-001 2.897191e-001 2.501056e-001 3.312125e-001 4.046271e-001 4.166303e-001 4.473993e-001 4.295296e-001 4.660336e-001 4.356595e-001 3.927584e-001 3.259792e-001 2.569831e-001
<GCONST> 1.219561e+002
<STATE> 4
<MEAN> 39
 -5.153443e+000 1.887341e+000 -3.998059e-001 -4.719388e+000 -1.027645e+001 -8.377604e+000 -1.314454e+000 -4.294622e+000 -2.598214e+000 -1.637859e+000 -2.417927e+000 -3.007498e-001 6.395220e+001 2.656938e-002 2.103826e-002 1.670751e-002 2.097466e-003 -4.075075e-002 -6.993482e-002 -7.360970e-003 -1.582084e-002 -2.291133e-002 -1.948875e-002 -7.798372e-003 -1.589407e-002 -1.794146e-002 -6.101388e-003 4.534691e-003 -4.683285e-003 2.991999e-003 1.307896e-002 1.532247e-002 4.297304e-003 2.199038e-003 5.607250e-003 8.410532e-003 3.306764e-003 1.353030e-003 -2.459256e-002
<VARIANCE> 39
 3.876240e+001 5.593195e+001 6.909898e+001 8.084949e+001 8.242165e+001 1.017876e+002 5.764616e+001 6.496631e+001 6.744147e+001 4.920574e+001 3.916745e+001 3.616992e+001 8.957718e+001 1.350502e+000 1.888252e+000 1.699849e+000 2.401277e+000 2.816806e+000 2.814739e+000 2.621114e+000 2.615768e+000 2.810299e+000 2.549241e+000 2.217089e+000 1.828917e+000 2.527436e+000 1.981723e-001 2.897191e-001 2.501056e-001 3.312125e-001 4.046271e-001 4.166303e-001 4.473993e-001 4.295296e-001 4.660336e-001 4.356595e-001 3.927584e-001 3.259792e-001 2.569831e-001
<GCONST> 1.219561e+002
<TRANSP> 5
 0.000000e+000 1.000000e+000 0.000000e+000 0.000000e+000 0.000000e+000
 0.000000e+000 6.000000e-001 4.000000e-001 0.000000e+000 0.000000e+000
 0.000000e+000 0.000000e+000 6.000000e-001 4.000000e-001 0.000000e+000
 0.000000e+000 0.000000e+000 0.000000e+000 7.000000e-001 3.000000e-001
 0.000000e+000 0.000000e+000 0.000000e+000 0.000000e+000 0.000000e+000
<ENDHMM>
~h "ei"
<BEGINHMM>
<NUMSTATES> 5
<STATE> 2
<MEAN> 39
 -3.897105e+000 -4.043487e+000 5.242060e+000 -1.387262e+000 -1.606964e+001 -2.437661e+001 -7.180199e+000 -4.356717e+000 -2.231573e+000 -2.616351e+000 -1.346246e+000 3.070276e+000 7.468703e+001 -2.958765e-002 2.874647e-001 5.743892e-001 2.929418e-001 -2.461977e-001 -2.621702e-001 2.342913e-001 -3.809576e-001 -8.857180e-001 -4.297671e-001 1.129646e-001 1.493047e-001 -2.550964e-001 -9.048253e-003 9.869305e-002 -1.404630e-002 5.704210e-002 4.804457e-002 1.055544e-001 -1.707764e-002 -4.825544e-002 -6.971789e-002 -3.000007e-002 -3.343195e-002 -6.563673e-002 -7.406439e-002
<VARIANCE> 39
 4.121342e+000 3.369229e+001 2.416963e+001 2.862230e+001 5.868340e+001 4.408162e+001 2.329509e+001 3.781929e+001 5.390317e+001 2.382751e+001 2.260117e+001 1.852661e+001 1.193548e+001 1.455650e-001 3.316386e-001 6.851028e-001 7.238876e-001 7.990080e-001 1.361244e+000 9.984581e-001 1.454545e+000 8.273823e-001 1.468834e+000 1.076668e+000 9.697065e-001 2.302964e-001 2.055001e-002 6.465406e-002 1.231550e-001 1.139431e-001 1.282645e-001 1.700790e-001 2.037432e-001 2.273276e-001 1.428499e-001 2.440058e-001 1.926138e-001 2.052675e-001 3.062452e-002
<GCONST> 8.109828e+001
<STATE> 3
<MEAN> 39
 -5.313804e+000 7.865503e-001 1.016557e+001 1.540048e+000 -1.826057e+001 -2.188064e+001 -3.446278e+000 -7.347034e+000 -1.047960e+001 -6.343548e+000 -2.429561e+000 8.723520e-001 6.922604e+001 -1.795393e-001 7.280633e-001 3.370370e-001 1.389958e-001 2.956018e-001 3.597418e-001 3.424575e-001 -9.104060e-002 -4.424991e-001 -1.488393e-001 -3.406966e-001 -5.360013e-001 -7.785718e-001 -3.397911e-002 -2.703474e-002 -4.674350e-003 -7.177489e-003 8.955718e-002 1.183795e-001 -6.045555e-002 -2.217925e-002 6.603506e-002 2.999189e-002 -4.401980e-003 2.463284e-002 -2.280990e-002
<VARIANCE> 39
 2.465480e+000 1.991305e+001 1.912127e+001 2.010905e+001 7.548130e+001 3.251107e+001 1.315741e+001 4.223676e+001 6.864360e+001 3.703549e+001 4.155782e+001 3.315430e+001 1.125284e+001 1.404482e-001 4.119413e-001 7.564323e-001 1.101800e+000 1.377439e+000 1.027549e+000 1.013876e+000 1.402918e+000 8.652357e-001 9.095515e-001 8.346320e-001 1.087144e+000 1.712767e-001 2.386910e-002 5.149468e-002 1.203925e-001 1.765579e-001 2.362237e-001 2.134277e-001 2.043199e-001 3.082957e-001 1.616641e-001 1.821259e-001 1.899692e-001 1.678047e-001 1.556790e-002
<GCONST> 8.126646e+001
<STATE> 4
<MEAN> 39
 -9.276690e+000 7.408736e+000 1.278839e+001 4.396008e+000 -1.387943e+001 -1.226480e+001 -9.532281e-001 -9.907392e+000 -8.343921e+000 -6.374581e+000 -3.045464e+000 -6.648902e-001 5.969849e+001 -3.164206e-001 -2.260008e-001 -6.879175e-001 -4.732475e-002 1.024024e+000 9.608978e-001 2.457471e-001 1.210523e-001 -1.190896e-002 4.730646e-001 1.010933e-001 -1.362671e-001 -1.101357e+000 5.504190e-003 -1.313117e-001 -1.957792e-001 -9.632155e-002 6.956869e-002 2.861696e-003 3.355969e-002 1.723001e-001 1.363488e-001 1.096791e-001 6.176313e-002 2.600997e-002 -1.186723e-002
<VARIANCE> 39
 1.067644e+001 3.280330e+001 4.203321e+001 1.531400e+001 1.026767e+002 3.634596e+001 3.471486e+001 3.983962e+001 4.854845e+001 3.430741e+001 2.398237e+001 4.396603e+001 2.755781e+001 2.842060e-001 8.779302e-001 1.225563e+000 9.003259e-001 1.669182e+000 1.818325e+000 2.026037e+000 2.505033e+000 2.397295e+000 1.972225e+000 1.756777e+000 1.294812e+000 3.077574e-001 5.446905e-002 1.390376e-001 1.254498e-001 1.492572e-001 2.617509e-001 3.892734e-001 4.250742e-001 3.232717e-001 3.609379e-001 3.375272e-001 2.564272e-001 2.415090e-001 4.563524e-002
<GCONST> 9.869271e+001
<TRANSP> 5
 0.000000e+000 1.000000e+000 0.000000e+000 0.000000e+000 0.000000e+000
 0.000000e+000 8.761632e-001 1.238368e-001 0.000000e+000 0.000000e+000
 0.000000e+000 0.000000e+000 8.896137e-001 1.103863e-001 0.000000e+000
 0.000000e+000 0.000000e+000 0.000000e+000 9.049644e-001 9.503555e-002
 0.000000e+000 0.000000e+000 0.000000e+000 0.000000e+000 0.000000e+000
<ENDHMM>
~h "eo"
<BEGINHMM>
<NUMSTATES> 5
<STATE> 2
<MEAN> 39
 -5.153443e+000 1.887341e+000 -3.998059e-001 -4.719388e+000 -1.027645e+001 -8.377604e+000 -1.314454e+000 -4.294622e+000 -2.598214e+000 -1.637859e+000 -2.417927e+000 -3.007498e-001 6.395220e+001 2.656938e-002 2.103826e-002 1.670751e-002 2.097466e-003 -4.075075e-002 -6.993482e-002 -7.360970e-003 -1.582084e-002 -2.291133e-002 -1.948875e-002 -7.798372e-003 -1.589407e-002 -1.794146e-002 -6.101388e-003 4.534691e-003 -4.683285e-003 2.991999e-003 1.307896e-002 1.532247e-002 4.297304e-003 2.199038e-003 5.607250e-003 8.410532e-003 3.306764e-003 1.353030e-003 -2.459256e-002
<VARIANCE> 39
 3.876240e+001 5.593195e+001 6.909898e+001 8.084949e+001 8.242165e+001 1.017876e+002 5.764616e+001 6.496631e+001 6.744147e+001 4.920574e+001 3.916745e+001 3.616992e+001 8.957718e+001 1.350502e+000 1.888252e+000 1.699849e+000 2.401277e+000 2.816806e+000 2.814739e+000 2.621114e+000 2.615768e+000 2.810299e+000 2.549241e+000 2.217089e+000 1.828917e+000 2.527436e+000 1.981723e-001 2.897191e-001 2.501056e-001 3.312125e-001 4.046271e-001 4.166303e-001 4.473993e-001 4.295296e-001 4.660336e-001 4.356595e-001 3.927584e-001 3.259792e-001 2.569831e-001
<GCONST> 1.219561e+002
<STATE> 3
<MEAN> 39
 -5.153443e+000 1.887341e+000 -3.998059e-001 -4.719388e+000 -1.027645e+001 -8.377604e+000 -1.314454e+000 -4.294622e+000 -2.598214e+000 -1.637859e+000 -2.417927e+000 -3.007498e-001 6.395220e+001 2.656938e-002 2.103826e-002 1.670751e-002 2.097466e-003 -4.075075e-002 -6.993482e-002 -7.360970e-003 -1.582084e-002 -2.291133e-002 -1.948875e-002 -7.798372e-003 -1.589407e-002 -1.794146e-002 -6.101388e-003 4.534691e-003 -4.683285e-003 2.991999e-003 1.307896e-002 1.532247e-002 4.297304e-003 2.199038e-003 5.607250e-003 8.410532e-003 3.306764e-003 1.353030e-003 -2.459256e-002
<VARIANCE> 39
 3.876240e+001 5.593195e+001 6.909898e+001 8.084949e+001 8.242165e+001 1.017876e+002 5.764616e+001 6.496631e+001 6.744147e+001 4.920574e+001 3.916745e+001 3.616992e+001 8.957718e+001 1.350502e+000 1.888252e+000 1.699849e+000 2.401277e+000 2.816806e+000 2.814739e+000 2.621114e+000 2.615768e+000 2.810299e+000 2.549241e+000 2.217089e+000 1.828917e+000 2.527436e+000 1.981723e-001 2.897191e-001 2.501056e-001 3.312125e-001 4.046271e-001 4.166303e-001 4.473993e-001 4.295296e-001 4.660336e-001 4.356595e-001 3.927584e-001 3.259792e-001 2.569831e-001
<GCONST> 1.219561e+002
<STATE> 4
<MEAN> 39
 -5.153443e+000 1.887341e+000 -3.998059e-001 -4.719388e+000 -1.027645e+001 -8.377604e+000 -1.314454e+000 -4.294622e+000 -2.598214e+000 -1.637859e+000 -2.417927e+000 -3.007498e-001 6.395220e+001 2.656938e-002 2.103826e-002 1.670751e-002 2.097466e-003 -4.075075e-002 -6.993482e-002 -7.360970e-003 -1.582084e-002 -2.291133e-002 -1.948875e-002 -7.798372e-003 -1.589407e-002 -1.794146e-002 -6.101388e-003 4.534691e-003 -4.683285e-003 2.991999e-003 1.307896e-002 1.532247e-002 4.297304e-003 2.199038e-003 5.607250e-003 8.410532e-003 3.306764e-003 1.353030e-003 -2.459256e-002
<VARIANCE> 39
 3.876240e+001 5.593195e+001 6.909898e+001 8.084949e+001 8.242165e+001 1.017876e+002 5.764616e+001 6.496631e+001 6.744147e+001 4.920574e+001 3.916745e+001 3.616992e+001 8.957718e+001 1.350502e+000 1.888252e+000 1.699849e+000 2.401277e+000 2.816806e+000 2.814739e+000 2.621114e+000 2.615768e+000 2.810299e+000 2.549241e+000 2.217089e+000 1.828917e+000 2.527436e+000 1.981723e-001 2.897191e-001 2.501056e-001 3.312125e-001 4.046271e-001 4.166303e-001 4.473993e-001 4.295296e-001 4.660336e-001 4.356595e-001 3.927584e-001 3.259792e-001 2.569831e-001
<GCONST> 1.219561e+002
<TRANSP> 5
 0.000000e+000 1.000000e+000 0.000000e+000 0.000000e+000 0.000000e+000
 0.000000e+000 6.000000e-001 4.000000e-001 0.000000e+000 0.000000e+000
 0.000000e+000 0.000000e+000 6.000000e-001 4.000000e-001 0.000000e+000
 0.000000e+000 0.000000e+000 0.000000e+000 7.000000e-001 3.000000e-001
 0.000000e+000 0.000000e+000 0.000000e+000 0.000000e+000 0.000000e+000
<ENDHMM>
~h "eu"
<BEGINHMM>
<NUMSTATES> 5
<STATE> 2
<MEAN> 39
 -5.153443e+000 1.887341e+000 -3.998059e-001 -4.719388e+000 -1.027645e+001 -8.377604e+000 -1.314454e+000 -4.294622e+000 -2.598214e+000 -1.637859e+000 -2.417927e+000 -3.007498e-001 6.395220e+001 2.656938e-002 2.103826e-002 1.670751e-002 2.097466e-003 -4.075075e-002 -6.993482e-002 -7.360970e-003 -1.582084e-002 -2.291133e-002 -1.948875e-002 -7.798372e-003 -1.589407e-002 -1.794146e-002 -6.101388e-003 4.534691e-003 -4.683285e-003 2.991999e-003 1.307896e-002 1.532247e-002 4.297304e-003 2.199038e-003 5.607250e-003 8.410532e-003 3.306764e-003 1.353030e-003 -2.459256e-002
<VARIANCE> 39
 3.876240e+001 5.593195e+001 6.909898e+001 8.084949e+001 8.242165e+001 1.017876e+002 5.764616e+001 6.496631e+001 6.744147e+001 4.920574e+001 3.916745e+001 3.616992e+001 8.957718e+001 1.350502e+000 1.888252e+000 1.699849e+000 2.401277e+000 2.816806e+000 2.814739e+000 2.621114e+000 2.615768e+000 2.810299e+000 2.549241e+000 2.217089e+000 1.828917e+000 2.527436e+000 1.981723e-001 2.897191e-001 2.501056e-001 3.312125e-001 4.046271e-001 4.166303e-001 4.473993e-001 4.295296e-001 4.660336e-001 4.356595e-001 3.927584e-001 3.259792e-001 2.569831e-001
<GCONST> 1.219561e+002
<STATE> 3
<MEAN> 39
 -5.153443e+000 1.887341e+000 -3.998059e-001 -4.719388e+000 -1.027645e+001 -8.377604e+000 -1.314454e+000 -4.294622e+000 -2.598214e+000 -1.637859e+000 -2.417927e+000 -3.007498e-001 6.395220e+001 2.656938e-002 2.103826e-002 1.670751e-002 2.097466e-003 -4.075075e-002 -6.993482e-002 -7.360970e-003 -1.582084e-002 -2.291133e-002 -1.948875e-002 -7.798372e-003 -1.589407e-002 -1.794146e-002 -6.101388e-003 4.534691e-003 -4.683285e-003 2.991999e-003 1.307896e-002 1.532247e-002 4.297304e-003 2.199038e-003 5.607250e-003 8.410532e-003 3.306764e-003 1.353030e-003 -2.459256e-002
<VARIANCE> 39
 3.876240e+001 5.593195e+001 6.909898e+001 8.084949e+001 8.242165e+001 1.017876e+002 5.764616e+001 6.496631e+001 6.744147e+001 4.920574e+001 3.916745e+001 3.616992e+001 8.957718e+001 1.350502e+000 1.888252e+000 1.699849e+000 2.401277e+000 2.816806e+000 2.814739e+000 2.621114e+000 2.615768e+000 2.810299e+000 2.549241e+000 2.217089e+000 1.828917e+000 2.527436e+000 1.981723e-001 2.897191e-001 2.501056e-001 3.312125e-001 4.046271e-001 4.166303e-001 4.473993e-001 4.295296e-001 4.660336e-001 4.356595e-001 3.927584e-001 3.259792e-001 2.569831e-001
<GCONST> 1.219561e+002
<STATE> 4
<MEAN> 39
 -5.153443e+000 1.887341e+000 -3.998059e-001 -4.719388e+000 -1.027645e+001 -8.377604e+000 -1.314454e+000 -4.294622e+000 -2.598214e+000 -1.637859e+000 -2.417927e+000 -3.007498e-001 6.395220e+001 2.656938e-002 2.103826e-002 1.670751e-002 2.097466e-003 -4.075075e-002 -6.993482e-002 -7.360970e-003 -1.582084e-002 -2.291133e-002 -1.948875e-002 -7.798372e-003 -1.589407e-002 -1.794146e-002 -6.101388e-003 4.534691e-003 -4.683285e-003 2.991999e-003 1.307896e-002 1.532247e-002 4.297304e-003 2.199038e-003 5.607250e-003 8.410532e-003 3.306764e-003 1.353030e-003 -2.459256e-002
<VARIANCE> 39
 3.876240e+001 5.593195e+001 6.909898e+001 8.084949e+001 8.242165e+001 1.017876e+002 5.764616e+001 6.496631e+001 6.744147e+001 4.920574e+001 3.916745e+001 3.616992e+001 8.957718e+001 1.350502e+000 1.888252e+000 1.699849e+000 2.401277e+000 2.816806e+000 2.814739e+000 2.621114e+000 2.615768e+000 2.810299e+000 2.549241e+000 2.217089e+000 1.828917e+000 2.527436e+000 1.981723e-001 2.897191e-001 2.501056e-001 3.312125e-001 4.046271e-001 4.166303e-001 4.473993e-001 4.295296e-001 4.660336e-001 4.356595e-001 3.927584e-001 3.259792e-001 2.569831e-001
<GCONST> 1.219561e+002
<TRANSP> 5
 0.000000e+000 1.000000e+000 0.000000e+000 0.000000e+000 0.000000e+000
 0.000000e+000 6.000000e-001 4.000000e-001 0.000000e+000 0.000000e+000
 0.000000e+000 0.000000e+000 6.000000e-001 4.000000e-001 0.000000e+000
 0.000000e+000 0.000000e+000 0.000000e+000 7.000000e-001 3.000000e-001
 0.000000e+000 0.000000e+000 0.000000e+000 0.000000e+000 0.000000e+000
<ENDHMM>
~h "i:"
<BEGINHMM>
<NUMSTATES> 5
<STATE> 2
<MEAN> 39
